
/* Species #1 : (Size 10) (AF 0) (Age 1)  */


/* Organism #399 Fitness: 11104 Error: 0 */
genomestart 399
trait 1 0.1 0 0.0267734 0.0524392 0.157509 0.249035 0.139552 0.000306348 
trait 2 0.11797 0.132428 0.00873602 0.0354663 0.227404 0.00213975 0.182885 0.0705722 
trait 3 0.35645 0.0388424 0.0473205 0.42098 0.185397 0 0 0.182342 
node 1 1 1 1
node 2 1 1 1
node 3 2 1 1
node 4 3 1 1
node 5 3 1 1
node 6 1 1 1
node 7 1 1 1
node 8 3 1 1
node 9 2 1 1
node 10 2 1 1
node 11 3 1 3
node 12 2 0 2
node 13 1 0 2
node 14 1 0 2
node 15 3 0 2
node 16 1 0 2
node 20 1 0 0
node 50 1 0 0
gene 3 1 12 -1.71514 0 1 -1.71514 1
gene 1 2 13 1.05533 0 2 1.05533 1
gene 1 3 14 -5.2768 0 3 -5.2768 1
gene 3 4 15 -2.64492 0 4 -2.64492 0
gene 1 5 16 5.17772 0 5 5.17772 0
gene 3 6 12 1.43319 0 2 1.43319 1
gene 2 7 12 1.29772 0 3 1.29772 1
gene 2 8 12 3.95645 0 4 3.95645 1
gene 2 9 12 -2.02887 0 5 -2.02887 1
gene 2 10 12 2.10443 0 6 2.10443 1
gene 2 11 12 6.78071 0 7 6.78071 1
gene 3 1 13 1.65548 0 5 1.65548 1
gene 1 2 14 1.78086 0 6 1.78086 1
gene 1 3 15 3.65104 0 7 3.65104 1
gene 2 8 13 6.35299 0 12 6.35299 1
gene 1 3 20 -2.97868 0 18 -2.97868 1
gene 1 20 14 2.28721 0 19 2.28721 1
gene 3 4 50 0.491119 0 281 0.491119 1
gene 3 50 15 -3.79444 0 282 -3.79444 1
genomeend 399

/* Organism #1060 Fitness: 7489 Error: 0 */
genomestart 1060
trait 1 0.1 0 0.0267734 0.0524392 0.157509 0.249035 0.139552 0.000306348 
trait 2 0.11797 0.132428 0.00873602 0.0354663 0.227404 0.00213975 0.182885 0.0705722 
trait 3 0.35645 0.0388424 0.0473205 0.42098 0.185397 0 0 0.182342 
node 1 1 1 1
node 2 1 1 1
node 3 2 1 1
node 4 3 1 1
node 5 3 1 1
node 6 1 1 1
node 7 1 1 1
node 8 3 1 1
node 9 2 1 1
node 10 2 1 1
node 11 3 1 3
node 12 2 0 2
node 13 1 0 2
node 14 1 0 2
node 15 3 0 2
node 16 1 0 2
node 20 1 0 0
node 50 1 0 0
gene 3 1 12 3.87547 0 1 3.87547 1
gene 1 2 13 2.8428 0 2 2.8428 1
gene 1 3 14 -4.2214 0 3 -4.2214 1
gene 3 4 15 -3.14253 0 4 -3.14253 0
gene 1 5 16 5.54875 0 5 5.54875 0
gene 3 6 12 0.819002 0 2 0.819002 1
gene 2 7 12 -4.84794 0 3 -4.84794 1
gene 2 8 12 3.94814 0 4 3.94814 1
gene 2 9 12 -2.79359 0 5 -2.79359 1
gene 2 10 12 5.56287 0 6 5.56287 1
gene 2 11 12 5.84013 0 7 5.84013 1
gene 3 1 13 0.148472 0 5 0.148472 1
gene 1 2 14 1.9027 0 6 1.9027 1
gene 1 3 15 5.82113 0 7 5.82113 1
gene 2 8 13 6.97168 0 12 6.97168 1
gene 1 3 20 -1.31604 0 18 -1.31604 1
gene 1 20 14 -1.3197 0 19 -1.3197 1
gene 3 4 50 1.6361 0 281 1.6361 1
gene 3 50 15 -2.13332 0 282 -2.13332 1
genomeend 1060

/* Organism #781 Fitness: 5933.26 Error: 0 */
genomestart 781
trait 1 0.1 0 0.0267734 0.0524392 0.409501 0 0.396457 0 
trait 2 0.11797 0.132428 0.00873602 0.0354663 0.227404 0.00213975 0.182885 0.0705722 
trait 3 0.35645 0.0388424 0.0473205 0.42098 0.185397 0 0 0.182342 
node 1 1 1 1
node 2 1 1 1
node 3 2 1 1
node 4 3 1 1
node 5 3 1 1
node 6 1 1 1
node 7 1 1 1
node 8 3 1 1
node 9 2 1 1
node 10 2 1 1
node 11 3 1 3
node 12 2 0 2
node 13 1 0 2
node 14 1 0 2
node 15 3 0 2
node 16 1 0 2
node 20 1 0 0
node 50 1 0 0
gene 3 1 12 -1.30245 0 1 -1.30245 1
gene 1 2 13 1.44505 0 2 1.44505 1
gene 1 3 14 -4.49599 0 3 -4.49599 1
gene 3 4 15 -3.52302 0 4 -3.52302 0
gene 1 5 16 8 0 5 8 0
gene 3 6 12 4.25432 0 2 4.25432 1
gene 2 7 12 2.48314 0 3 2.48314 1
gene 2 8 12 5.64451 0 4 5.64451 1
gene 2 9 12 -1.81455 0 5 -1.81455 1
gene 2 10 12 -1.58838 0 6 -1.58838 1
gene 2 11 12 8 0 7 8 1
gene 3 1 13 0.645924 0 5 0.645924 1
gene 1 2 14 2.74158 0 6 2.74158 1
gene 1 3 15 3.85483 0 7 3.85483 1
gene 2 8 13 7.32882 0 12 7.32882 1
gene 1 3 20 -1.98836 0 18 -1.98836 1
gene 1 20 14 3.16843 0 19 3.16843 1
gene 3 4 50 -0.706198 0 281 -0.706198 1
gene 3 50 15 -3.79444 0 282 -3.79444 1
genomeend 781

/* Organism #1099 Fitness: 5933.22 Error: 0 */
genomestart 1099
trait 1 0.1 0 0.0267734 0.0524392 0.157509 0.249035 0.139552 0.000306348 
trait 2 0.11797 0.132428 0.00873602 0.0354663 0.227404 0.00213975 0.182885 0.0705722 
trait 3 0.35645 0.0388424 0.0473205 0.42098 0.185397 0 0 0.182342 
node 1 1 1 1
node 2 1 1 1
node 3 2 1 1
node 4 3 1 1
node 5 3 1 1
node 6 1 1 1
node 7 1 1 1
node 8 3 1 1
node 9 2 1 1
node 10 2 1 1
node 11 3 1 3
node 12 2 0 2
node 13 1 0 2
node 14 1 0 2
node 15 3 0 2
node 16 1 0 2
node 20 1 0 0
node 50 1 0 0
gene 3 1 12 -1.71514 0 1 -1.71514 1
gene 1 2 13 1.05533 0 2 1.05533 1
gene 1 3 14 -4.2214 0 3 -4.2214 1
gene 3 4 15 -2.64492 0 4 -2.64492 0
gene 1 5 16 5.17772 0 5 5.17772 0
gene 3 6 12 1.43319 0 2 1.43319 1
gene 2 7 12 1.29772 0 3 1.29772 1
gene 2 8 12 3.95645 0 4 3.95645 1
gene 2 9 12 -2.79359 0 5 -2.79359 1
gene 2 10 12 2.10443 0 6 2.10443 1
gene 2 11 12 5.84013 0 7 5.84013 1
gene 3 1 13 0.148472 0 5 0.148472 1
gene 1 2 14 1.78086 0 6 1.78086 1
gene 1 3 15 3.65104 0 7 3.65104 1
gene 2 8 13 6.35299 0 12 6.35299 1
gene 1 3 20 -1.31604 0 18 -1.31604 1
gene 1 20 14 2.28721 0 19 2.28721 1
gene 3 4 50 0.491119 0 281 0.491119 1
gene 3 50 15 -2.13332 0 282 -2.13332 1
gene 3 5 13 -0.176336 0 420 0 1
genomeend 1099

/* Organism #469 Fitness: 5933.15 Error: 0 */
genomestart 469
trait 1 0.1 0 0.0267734 0.0524392 0.157509 0.249035 0.139552 0.000306348 
trait 2 0.11797 0.132428 0.00873602 0.0354663 0.227404 0.00213975 0.182885 0.0705722 
trait 3 0.35645 0.0388424 0.0473205 0.42098 0.185397 0 0 0.182342 
node 1 1 1 1
node 2 1 1 1
node 3 2 1 1
node 4 3 1 1
node 5 3 1 1
node 6 1 1 1
node 7 1 1 1
node 8 3 1 1
node 9 2 1 1
node 10 2 1 1
node 11 3 1 3
node 12 2 0 2
node 13 1 0 2
node 14 1 0 2
node 15 3 0 2
node 16 1 0 2
node 20 1 0 0
node 50 1 0 0
gene 3 1 12 -2.753 0 1 -2.753 1
gene 1 2 13 0.989944 0 2 0.989944 1
gene 1 3 14 -4.65583 0 3 -4.65583 1
gene 3 4 15 -2.31723 0 4 -2.31723 0
gene 1 5 16 6.37329 0 5 6.37329 0
gene 3 6 12 2.39902 0 2 2.39902 1
gene 2 7 12 2.04711 0 3 2.04711 1
gene 2 8 12 6.43059 0 4 6.43059 1
gene 2 9 12 -1.12056 0 5 -1.12056 1
gene 2 10 12 0.829981 0 6 0.829981 1
gene 2 11 12 8 0 7 8 1
gene 3 1 13 1.49884 0 5 1.49884 1
gene 1 2 14 4.02755 0 6 4.02755 1
gene 1 3 15 5.18093 0 7 5.18093 1
gene 2 8 13 7.83222 0 12 7.83222 1
gene 1 3 20 -3.96573 0 18 -3.96573 1
gene 1 20 14 3.16843 0 19 3.16843 1
gene 3 4 50 -1.41644 0 281 -1.41644 1
gene 3 50 15 -3.79444 0 282 -3.79444 1
genomeend 469

/* Organism #1035 Fitness: 5925.94 Error: 0 */
genomestart 1035
trait 1 0.1 0 0.0267734 0.0524392 0.157509 0.249035 0.139552 0.000306348 
trait 2 0.11797 0.132428 0.00873602 0.0354663 0.227404 0.00213975 0.182885 0.0705722 
trait 3 0.35645 0.0388424 0.0473205 0.42098 0.185397 0 0 0.182342 
node 1 1 1 1
node 2 1 1 1
node 3 2 1 1
node 4 3 1 1
node 5 3 1 1
node 6 1 1 1
node 7 1 1 1
node 8 3 1 1
node 9 2 1 1
node 10 2 1 1
node 11 3 1 3
node 12 2 0 2
node 13 1 0 2
node 14 1 0 2
node 15 3 0 2
node 16 1 0 2
node 20 1 0 0
node 50 1 0 0
gene 3 1 12 -2.74857 0 1 -2.74857 1
gene 1 2 13 1.18229 0 2 1.18229 1
gene 1 3 14 -3.54266 0 3 -3.54266 1
gene 3 4 15 -2.2739 0 4 -2.2739 0
gene 1 5 16 3.18105 0 5 3.18105 0
gene 3 6 12 2.31716 0 2 2.31716 1
gene 2 7 12 1.18404 0 3 1.18404 1
gene 2 8 12 3.80416 0 4 3.80416 1
gene 2 9 12 -1.10668 0 5 -1.10668 1
gene 2 10 12 -0.767998 0 6 -0.767998 1
gene 2 11 12 5.93893 0 7 5.93893 1
gene 3 1 13 1.65548 0 5 1.65548 1
gene 1 2 14 1.18666 0 6 1.18666 1
gene 1 3 15 5.37946 0 7 5.37946 1
gene 2 8 13 6.64002 0 12 6.64002 1
gene 1 3 20 -1.21838 0 18 -1.21838 1
gene 1 20 14 4.64491 0 19 4.64491 1
gene 3 4 50 -1.89474 0 281 -1.89474 1
gene 3 50 15 -3.99083 0 282 -3.99083 1
genomeend 1035

/* Organism #629 Fitness: 5423.13 Error: 0 */
genomestart 629
trait 1 0.1 0 0.0267734 0.0524392 0.157509 0.249035 0.139552 0.000306348 
trait 2 0.11797 0.132428 0.00873602 0.0354663 0.227404 0.00213975 0.182885 0.0705722 
trait 3 0.35645 0.0388424 0.0473205 0.42098 0.185397 0 0 0.182342 
node 1 1 1 1
node 2 1 1 1
node 3 2 1 1
node 4 3 1 1
node 5 3 1 1
node 6 1 1 1
node 7 1 1 1
node 8 3 1 1
node 9 2 1 1
node 10 2 1 1
node 11 3 1 3
node 12 2 0 2
node 13 1 0 2
node 14 1 0 2
node 15 3 0 2
node 16 1 0 2
node 20 1 0 0
node 50 1 0 0
gene 3 1 12 3.38153 0 1 3.38153 1
gene 1 2 13 2.57347 0 2 2.57347 1
gene 1 3 14 -3.09709 0 3 -3.09709 1
gene 3 4 15 -3.04662 0 4 -3.04662 0
gene 1 5 16 3.87703 0 5 3.87703 0
gene 3 6 12 1.93339 0 2 1.93339 1
gene 2 7 12 -2.36961 0 3 -2.36961 1
gene 2 8 12 5.65725 0 4 5.65725 1
gene 2 9 12 -4.26077 0 5 -4.26077 1
gene 2 10 12 4.99789 0 6 4.99789 1
gene 2 11 12 8 0 7 8 1
gene 3 1 13 -0.943099 0 5 -0.943099 1
gene 1 2 14 -0.103812 0 6 -0.103812 1
gene 1 3 15 4.66227 0 7 4.66227 1
gene 2 8 13 8 0 12 8 1
gene 1 3 20 -0.669424 0 18 -0.669424 1
gene 1 20 14 1.37951 0 19 1.37951 1
gene 3 4 50 0.491119 0 281 0.491119 1
gene 3 50 15 -6.02351 0 282 -6.02351 1
genomeend 629

/* Organism #1100 Fitness: 5408 Error: 0 */
genomestart 1100
trait 1 0.1 0 0.0267734 0.0524392 0.157509 0.249035 0.139552 0.000306348 
trait 2 0.11797 0.132428 0.00873602 0.0354663 0.227404 0.00213975 0.182885 0.0705722 
trait 3 0.35645 0.0388424 0.0473205 0.42098 0.185397 0 0 0.182342 
node 1 1 1 1
node 2 1 1 1
node 3 2 1 1
node 4 3 1 1
node 5 3 1 1
node 6 1 1 1
node 7 1 1 1
node 8 3 1 1
node 9 2 1 1
node 10 2 1 1
node 11 3 1 3
node 12 2 0 2
node 13 1 0 2
node 14 1 0 2
node 15 3 0 2
node 16 1 0 2
node 20 1 0 0
node 50 1 0 0
gene 3 1 12 1.53294 0 1 1.53294 1
gene 1 2 13 4.62645 0 2 4.62645 1
gene 1 3 14 -2.60239 0 3 -2.60239 1
gene 3 4 15 -1.57762 0 4 -1.57762 0
gene 1 5 16 3.83247 0 5 3.83247 0
gene 3 6 12 1.84961 0 2 1.84961 1
gene 2 7 12 -4.05026 0 3 -4.05026 1
gene 2 8 12 5.8708 0 4 5.8708 1
gene 2 9 12 -1.69317 0 5 -1.69317 1
gene 2 10 12 4.31466 0 6 4.31466 1
gene 2 11 12 7.28831 0 7 7.28831 1
gene 3 1 13 -0.79455 0 5 -0.79455 1
gene 1 2 14 2.46432 0 6 2.46432 1
gene 1 3 15 1.48346 0 7 1.48346 1
gene 2 8 13 8 0 12 8 1
gene 1 3 20 -2.57332 0 18 -2.57332 1
gene 1 20 14 -0.861766 0 19 -0.861766 1
gene 3 4 50 1.6361 0 281 1.6361 1
gene 3 50 15 -2.84692 0 282 -2.84692 1
genomeend 1100

/* Organism #1118 Fitness: 2856 Error: 0 */
genomestart 1118
trait 1 0.1 0 0.0267734 0.0524392 0.157509 0.249035 0.139552 0.000306348 
trait 2 0.11797 0.132428 0.00873602 0.0354663 0.227404 0.00213975 0.182885 0.0705722 
trait 3 0.35645 0.0388424 0.0473205 0.42098 0.185397 0 0 0.182342 
node 1 1 1 1
node 2 1 1 1
node 3 2 1 1
node 4 3 1 1
node 5 3 1 1
node 6 1 1 1
node 7 1 1 1
node 8 3 1 1
node 9 2 1 1
node 10 2 1 1
node 11 3 1 3
node 12 2 0 2
node 13 1 0 2
node 14 1 0 2
node 15 3 0 2
node 16 1 0 2
node 20 1 0 0
node 50 1 0 0
gene 3 1 12 1.08016 0 1 1.08016 1
gene 1 2 13 1.94906 0 2 1.94906 1
gene 1 3 14 -4.7491 0 3 -4.7491 1
gene 3 4 15 -2.89373 0 4 -2.89373 0
gene 1 5 16 5.36324 0 5 5.36324 0
gene 3 6 12 1.12609 0 2 1.12609 1
gene 2 7 12 -1.77511 0 3 -1.77511 1
gene 2 8 12 3.95229 0 4 3.95229 1
gene 2 9 12 -2.41123 0 5 -2.41123 1
gene 2 10 12 3.83365 0 6 3.83365 1
gene 2 11 12 6.31042 0 7 6.31042 1
gene 3 1 13 0.901974 0 5 0.901974 1
gene 1 2 14 1.84178 0 6 1.84178 1
gene 1 3 15 4.73609 0 7 4.73609 1
gene 2 8 13 6.66234 0 12 6.66234 1
gene 1 3 20 -2.14736 0 18 -2.14736 1
gene 1 20 14 0.483755 0 19 0.483755 1
gene 3 4 50 1.06361 0 281 1.06361 1
gene 3 50 15 -2.96388 0 282 -2.96388 1
genomeend 1118

/* Organism #1119 Fitness: 0 Error: 0 */
genomestart 1119
trait 1 0.1 0 0.0267734 0.0524392 0.157509 0.249035 0.139552 0.000306348 
trait 2 0.11797 0.132428 0.00873602 0.0354663 0.227404 0.00213975 0.182885 0.0705722 
trait 3 0.35645 0.0388424 0.0473205 0.42098 0.185397 0 0 0.182342 
node 1 1 1 1
node 2 1 1 1
node 3 2 1 1
node 4 3 1 1
node 5 3 1 1
node 6 1 1 1
node 7 1 1 1
node 8 3 1 1
node 9 2 1 1
node 10 2 1 1
node 11 3 1 3
node 12 2 0 2
node 13 1 0 2
node 14 1 0 2
node 15 3 0 2
node 16 1 0 2
node 20 1 0 0
node 50 1 0 0
gene 3 1 12 -1.51914 0 1 -1.51914 1
gene 1 2 13 -0.712302 0 2 -0.712302 1
gene 1 3 14 -4.13709 0 3 -4.13709 1
gene 3 4 15 -1.29006 0 4 -1.29006 0
gene 1 5 16 5.70394 0 5 5.70394 0
gene 3 6 12 0.0304804 0 2 0.0304804 1
gene 2 7 12 0.936766 0 3 0.936766 1
gene 2 8 12 3.20432 0 4 3.20432 1
gene 2 9 12 -3.97855 0 5 -3.97855 1
gene 2 10 12 5.38372 0 6 5.38372 1
gene 2 11 12 3.83392 0 7 3.83392 1
gene 3 1 13 -1.31314 0 5 -1.31314 1
gene 1 2 14 -0.00386392 0 6 -0.00386392 1
gene 1 3 15 2.04878 0 7 2.04878 1
gene 2 8 13 6.97168 0 12 6.97168 1
gene 1 3 20 -3.42242 0 18 -3.42242 1
gene 1 20 14 -2.82113 0 19 -2.82113 1
gene 3 4 50 1.30207 0 281 1.30207 1
gene 3 50 15 -2.38342 0 282 -2.38342 1
genomeend 1119

/* Species #2 : (Size 7) (AF 0) (Age 1)  */


/* Organism #93 Fitness: 8332 Error: 0 */
genomestart 93
trait 1 0.1 0 0.0297413 0.0523154 0.163837 0.268069 0.153408 0.000303915 
trait 2 0.117407 0.132428 0.00920261 0.0354663 0.227404 0.00213975 0.184121 0.070749 
trait 3 0.839112 0.0388424 0.0492459 0.42098 0.796838 0 0 0.0455855 
node 1 1 1 1
node 2 1 1 1
node 3 2 1 1
node 4 3 1 1
node 5 3 1 1
node 6 3 1 1
node 7 1 1 1
node 8 3 1 1
node 9 3 1 1
node 10 2 1 1
node 11 3 1 3
node 12 2 0 2
node 13 1 0 2
node 14 1 0 2
node 15 3 0 2
node 16 1 0 2
node 20 1 0 0
node 38 1 0 0
gene 3 1 12 0.332818 0 1 0.332818 1
gene 1 2 13 4.3227 0 2 4.3227 1
gene 1 3 14 -3.41121 0 3 -3.41121 1
gene 3 4 15 -2.80984 0 4 -2.80984 1
gene 1 5 16 1.45943 0 5 1.45943 1
gene 3 6 12 5.5836 0 2 5.5836 1
gene 2 7 12 -1.39752 0 3 -1.39752 1
gene 2 8 12 -3.72875 0 4 -3.72875 1
gene 1 9 12 6.98344 0 5 6.98344 1
gene 2 10 12 2.09295 0 6 2.09295 1
gene 2 11 12 1.79624 0 7 1.79624 1
gene 3 1 13 6.65447 0 5 6.65447 1
gene 1 2 14 -3.90908 0 6 -3.90908 1
gene 1 3 15 0.208899 0 7 0.208899 1
gene 2 8 13 2.38593 0 12 2.38593 1
gene 1 3 20 5.06204 0 18 5.06204 1
gene 1 20 14 1.39622 0 19 1.39622 1
gene 2 11 13 2.406 0 161 2.406 1
gene 3 4 38 -0.794244 0 169 -0.794244 1
gene 3 38 15 -4.56196 0 170 -4.56196 1
genomeend 93

/* Organism #169 Fitness: 7542 Error: 0 */
genomestart 169
trait 1 0.1 0 0.0297413 0.0523154 0.163837 0.268069 0.153408 0.000303915 
trait 2 0.117407 0.132428 0.00920261 0.0354663 0.227404 0.00213975 0.184121 0.070749 
trait 3 0.839112 0.0388424 0.0492459 0.42098 0.796838 0 0 0.0455855 
node 1 1 1 1
node 2 1 1 1
node 3 2 1 1
node 4 3 1 1
node 5 3 1 1
node 6 3 1 1
node 7 1 1 1
node 8 3 1 1
node 9 3 1 1
node 10 2 1 1
node 11 3 1 3
node 12 2 0 2
node 13 1 0 2
node 14 1 0 2
node 15 3 0 2
node 16 1 0 2
node 20 1 0 0
node 38 1 0 0
node 70 1 0 0
gene 3 1 12 1.59461 0 1 1.59461 1
gene 1 2 13 4.97336 0 2 4.97336 1
gene 1 3 14 -3.65643 0 3 -3.65643 1
gene 3 4 15 -1.77122 0 4 -1.77122 1
gene 1 5 16 2.03905 0 5 2.03905 1
gene 3 6 12 4.18348 0 2 4.18348 1
gene 2 7 12 -0.11832 0 3 -0.11832 1
gene 2 8 12 -2.62055 0 4 -2.62055 1
gene 1 9 12 4.5624 0 5 4.5624 1
gene 2 10 12 2.03459 0 6 2.03459 1
gene 2 11 12 0.889677 0 7 0.889677 1
gene 3 1 13 6.65447 0 5 6.65447 1
gene 1 2 14 -2.44419 0 6 -2.44419 1
gene 1 3 15 -3.49026 0 7 -3.49026 1
gene 2 8 13 1.60213 0 12 1.60213 1
gene 1 3 20 3.82329 0 18 3.82329 1
gene 1 20 14 -1.3984 0 19 -1.3984 0
gene 2 11 13 -1.08898 0 161 -1.08898 1
gene 3 4 38 -1.9398 0 169 -1.9398 1
gene 3 38 15 -2.9222 0 170 -2.9222 1
gene 1 20 70 1 0 417 0 1
gene 1 70 14 -1.3984 0 418 0 1
genomeend 169

/* Organism #159 Fitness: 6573 Error: 0 */
genomestart 159
trait 1 0.1 0 0.0297413 0.0523154 0.163837 0.268069 0.153408 0.000303915 
trait 2 0.117407 0.132428 0.00920261 0.0354663 0.227404 0.00213975 0.184121 0.070749 
trait 3 0.839112 0.0388424 0.0492459 0.42098 0.796838 0 0 0.0455855 
node 1 1 1 1
node 2 1 1 1
node 3 2 1 1
node 4 3 1 1
node 5 3 1 1
node 6 3 1 1
node 7 1 1 1
node 8 3 1 1
node 9 3 1 1
node 10 2 1 1
node 11 3 1 3
node 12 2 0 2
node 13 1 0 2
node 14 1 0 2
node 15 3 0 2
node 16 1 0 2
node 20 1 0 0
node 38 1 0 0
gene 3 1 12 2.83251 0 1 2.83251 1
gene 1 2 13 3.34405 0 2 3.34405 1
gene 1 3 14 -3.7621 0 3 -3.7621 1
gene 3 4 15 -3.33083 0 4 -3.33083 1
gene 1 5 16 1.33129 0 5 1.33129 1
gene 3 6 12 3.1079 0 2 3.1079 1
gene 2 7 12 -0.279313 0 3 -0.279313 1
gene 2 8 12 -3.1539 0 4 -3.1539 1
gene 1 9 12 4.65671 0 5 4.65671 1
gene 2 10 12 3.97362 0 6 3.97362 1
gene 2 11 12 0.0843004 0 7 0.0843004 1
gene 3 1 13 5.86656 0 5 5.86656 1
gene 1 2 14 -3.00215 0 6 -3.00215 1
gene 1 3 15 -0.279326 0 7 -0.279326 1
gene 2 8 13 0.83898 0 12 0.83898 1
gene 1 3 20 4.8536 0 18 4.8536 1
gene 1 20 14 1.75693 0 19 1.75693 1
gene 2 11 13 0.928755 0 161 0.928755 1
gene 3 4 38 -1.36702 0 169 -1.36702 1
gene 3 38 15 -3.74208 0 170 -3.74208 1
genomeend 159

/* Organism #736 Fitness: 6523 Error: 0 */
genomestart 736
trait 1 0.1 0 0.0297413 0.0523154 0.163837 0.268069 0.153408 0.000303915 
trait 2 0.117407 0.132428 0.00920261 0.0354663 0.227404 0.00213975 0.184121 0.070749 
trait 3 0.839112 0.0388424 0.0492459 0.42098 0.796838 0 0 0.0455855 
node 1 1 1 1
node 2 1 1 1
node 3 2 1 1
node 4 3 1 1
node 5 3 1 1
node 6 3 1 1
node 7 1 1 1
node 8 3 1 1
node 9 3 1 1
node 10 2 1 1
node 11 3 1 3
node 12 2 0 2
node 13 1 0 2
node 14 1 0 2
node 15 3 0 2
node 16 1 0 2
node 20 1 0 0
node 38 1 0 0
gene 3 1 12 0.963712 0 1 0.963712 1
gene 1 2 13 4.64803 0 2 4.64803 1
gene 1 3 14 -3.53382 0 3 -3.53382 1
gene 3 4 15 -2.29053 0 4 -2.29053 1
gene 1 5 16 1.74924 0 5 1.74924 1
gene 3 6 12 4.88354 0 2 4.88354 1
gene 2 7 12 -0.75792 0 3 -0.75792 1
gene 2 8 12 -3.17465 0 4 -3.17465 1
gene 1 9 12 5.77292 0 5 5.77292 1
gene 2 10 12 2.06377 0 6 2.06377 1
gene 2 11 12 1.34296 0 7 1.34296 1
gene 3 1 13 6.65447 0 5 6.65447 1
gene 1 2 14 -3.17664 0 6 -3.17664 1
gene 1 3 15 -1.64068 0 7 -1.64068 1
gene 2 8 13 1.99403 0 12 1.99403 1
gene 1 3 20 4.44266 0 18 4.44266 1
gene 1 20 14 -0.00108702 0 19 -0.00108702 0
gene 2 11 13 0.658513 0 161 0.658513 1
gene 3 4 38 -1.36702 0 169 -1.36702 1
gene 3 38 15 -3.74208 0 170 -3.74208 1
genomeend 736

/* Organism #44 Fitness: 6055 Error: 0 */
genomestart 44
trait 1 0.1 0 0.0297413 0.0523154 0.163837 0.268069 0.153408 0.000303915 
trait 2 0.117407 0.132428 0.00920261 0.0354663 0.227404 0.00213975 0.184121 0.070749 
trait 3 0.839112 0.0388424 0.0492459 0.42098 0.796838 0 0 0.0455855 
node 1 1 1 1
node 2 1 1 1
node 3 2 1 1
node 4 3 1 1
node 5 3 1 1
node 6 3 1 1
node 7 1 1 1
node 8 3 1 1
node 9 3 1 1
node 10 2 1 1
node 11 3 1 3
node 12 2 0 2
node 13 1 0 2
node 14 1 0 2
node 15 3 0 2
node 16 1 0 2
node 20 1 0 0
node 38 1 0 0
gene 3 1 12 1.59461 0 1 1.59461 1
gene 1 2 13 4.97336 0 2 4.97336 1
gene 1 3 14 -3.65643 0 3 -3.65643 1
gene 3 4 15 -1.77122 0 4 -1.77122 1
gene 1 5 16 2.03905 0 5 2.03905 1
gene 3 6 12 4.18348 0 2 4.18348 1
gene 2 7 12 -0.11832 0 3 -0.11832 1
gene 2 8 12 -2.62055 0 4 -2.62055 1
gene 1 9 12 4.5624 0 5 4.5624 1
gene 2 10 12 2.03459 0 6 2.03459 1
gene 2 11 12 0.889677 0 7 0.889677 1
gene 3 1 13 6.65447 0 5 6.65447 1
gene 1 2 14 -2.44419 0 6 -2.44419 1
gene 1 3 15 -3.49026 0 7 -3.49026 1
gene 2 8 13 1.60213 0 12 1.60213 1
gene 1 3 20 3.82329 0 18 3.82329 1
gene 1 20 14 -1.3984 0 19 -1.3984 1
gene 2 11 13 -1.08898 0 161 -1.08898 1
gene 3 4 38 -1.9398 0 169 -1.9398 1
gene 3 38 15 -2.9222 0 170 -2.9222 1
genomeend 44

/* Organism #56 Fitness: 6055 Error: 0 */
genomestart 56
trait 1 0.1 0 0.0297413 0.0523154 0.163837 0.268069 0.153408 0.000303915 
trait 2 0.117407 0.132428 0.00920261 0.0354663 0.227404 0.00213975 0.184121 0.070749 
trait 3 0.839112 0.0388424 0.0492459 0.42098 0.796838 0 0 0.0455855 
node 1 1 1 1
node 2 1 1 1
node 3 2 1 1
node 4 3 1 1
node 5 3 1 1
node 6 3 1 1
node 7 1 1 1
node 8 3 1 1
node 9 3 1 1
node 10 2 1 1
node 11 3 1 3
node 12 2 0 2
node 13 1 0 2
node 14 1 0 2
node 15 3 0 2
node 16 1 0 2
node 20 1 0 0
node 38 1 0 0
gene 3 1 12 2.45225 0 1 2.45225 1
gene 1 2 13 5.86129 0 2 5.86129 1
gene 1 3 14 -5.76709 0 3 -5.76709 1
gene 3 4 15 -2.00484 0 4 -2.00484 1
gene 1 5 16 0.767805 0 5 0.767805 1
gene 3 6 12 4.38155 0 2 4.38155 1
gene 2 7 12 0.544084 0 3 0.544084 1
gene 2 8 12 -3.14539 0 4 -3.14539 1
gene 1 9 12 2.82453 0 5 2.82453 1
gene 2 10 12 0.202867 0 6 0.202867 1
gene 2 11 12 1.41192 0 7 1.41192 1
gene 3 1 13 5.44777 0 5 5.44777 1
gene 1 2 14 -3.30672 0 6 -3.30672 1
gene 1 3 15 -4.10605 0 7 -4.10605 1
gene 2 8 13 1.10918 0 12 1.10918 1
gene 1 3 20 3.19904 0 18 3.19904 1
gene 1 20 14 -3.81004 0 19 -3.81004 1
gene 2 11 13 -0.667135 0 161 -0.667135 1
gene 3 4 38 0.410587 0 169 0.410587 1
gene 3 38 15 -2.63143 0 170 -2.63143 1
genomeend 56

/* Organism #15 Fitness: 5997 Error: 0 */
genomestart 15
trait 1 0.1 0 0.0297413 0.0523154 0.163837 0.268069 0.153408 0.000303915 
trait 2 0.117407 0.132428 0.00920261 0.0354663 0.227404 0.00213975 0.184121 0.070749 
trait 3 0.678225 0.0388424 0.0492459 0.42098 0.593676 0 0 0.091171 
node 1 1 1 1
node 2 1 1 1
node 3 2 1 1
node 4 3 1 1
node 5 3 1 1
node 6 3 1 1
node 7 1 1 1
node 8 3 1 1
node 9 3 1 1
node 10 2 1 1
node 11 3 1 3
node 12 2 0 2
node 13 1 0 2
node 14 1 0 2
node 15 3 0 2
node 16 1 0 2
node 20 1 0 0
node 38 1 0 0
gene 3 1 12 1.27369 0 1 1.27369 1
gene 1 2 13 4.08298 0 2 4.08298 1
gene 1 3 14 -4.3843 0 3 -4.3843 1
gene 3 4 15 -0.983459 0 4 -0.983459 0
gene 1 5 16 1.535 0 5 1.535 1
gene 3 6 12 3.40602 0 2 3.40602 1
gene 2 7 12 1.85438 0 3 1.85438 1
gene 2 8 12 -4.96323 0 4 -4.96323 1
gene 1 9 12 4.79461 0 5 4.79461 1
gene 2 10 12 0.944623 0 6 0.944623 1
gene 2 11 12 1.14757 0 7 1.14757 1
gene 3 1 13 6.31909 0 5 6.31909 1
gene 1 2 14 -4.39757 0 6 -4.39757 1
gene 1 3 15 -2.45355 0 7 -2.45355 1
gene 2 8 13 -1.0654 0 12 -1.0654 1
gene 1 3 20 4.96487 0 18 4.96487 1
gene 1 20 14 -0.817819 0 19 -0.817819 1
gene 2 11 13 -1.29765 0 161 -1.29765 1
gene 3 4 38 0.537507 0 169 0.537507 1
gene 3 38 15 -3.72815 0 170 -3.72815 1
genomeend 15

/* Species #3 : (Size 7) (AF 0) (Age 1)  */


/* Organism #447 Fitness: 8286 Error: 0 */
genomestart 447
trait 1 0.1 0 0.032445 0.0522026 0.169602 0.285409 0.166031 0.000301699 
trait 2 0.116894 0.255204 0.00962769 0 1 0.00213975 0.185247 0.487152 
trait 3 0.471947 0 0.687097 0.42098 1 0 0.919736 0 
node 1 1 1 1
node 2 1 1 1
node 3 2 1 1
node 4 3 1 1
node 5 3 1 1
node 6 3 1 1
node 7 1 1 1
node 8 3 1 1
node 9 2 1 1
node 10 2 1 1
node 11 3 1 3
node 12 2 0 2
node 13 1 0 2
node 14 1 0 2
node 15 3 0 2
node 16 1 0 2
node 20 1 0 0
node 39 1 0 0
gene 3 1 12 -2.0441 0 1 -2.0441 1
gene 1 2 13 2.75954 0 2 2.75954 1
gene 1 3 14 4.147 0 3 4.147 1
gene 3 4 15 2.99013 0 4 2.99013 1
gene 1 5 16 -7.8911 0 5 -7.8911 1
gene 3 6 12 1.4868 0 2 1.4868 1
gene 2 7 12 2.16419 0 3 2.16419 1
gene 2 8 12 -1.123 0 4 -1.123 1
gene 1 9 12 3.52435 0 5 3.52435 1
gene 2 10 12 -0.561006 0 6 -0.561006 1
gene 2 11 12 -0.0402826 0 7 -0.0402826 1
gene 3 1 13 8 0 5 8 1
gene 1 2 14 3.02408 0 6 3.02408 1
gene 1 3 15 -0.805089 0 7 -0.805089 1
gene 2 8 13 2.51638 0 12 2.51638 1
gene 1 3 20 -3.17247 0 18 -3.17247 1
gene 1 20 14 1.35838 0 19 1.35838 1
gene 1 5 39 0.72985 0 171 0.72985 1
gene 1 39 16 1.07822 0 172 1.07822 1
gene 3 8 39 1.71606 0 231 1.71606 1
gene 1 11 20 2.59447 0 275 2.59447 1
gene 1 4 39 -0.356334 0 422 -0.356334 1
genomeend 447

/* Organism #354 Fitness: 8055 Error: 0 */
genomestart 354
trait 1 0.1 0 0.032445 0.0522026 0.169602 0.285409 0.166031 0.000301699 
trait 2 0.116894 0.255204 0.00962769 0 1 0.00213975 0.185247 0.487152 
trait 3 0.471947 0 0.687097 0.42098 1 0 0.919736 0 
node 1 1 1 1
node 2 1 1 1
node 3 2 1 1
node 4 3 1 1
node 5 3 1 1
node 6 3 1 1
node 7 1 1 1
node 8 3 1 1
node 9 2 1 1
node 10 2 1 1
node 11 3 1 3
node 12 2 0 2
node 13 1 0 2
node 14 1 0 2
node 15 3 0 2
node 16 1 0 2
node 20 1 0 0
node 39 1 0 0
gene 3 1 12 -0.364282 0 1 -0.364282 1
gene 1 2 13 3.22037 0 2 3.22037 1
gene 1 3 14 4.02966 0 3 4.02966 1
gene 3 4 15 2.40379 0 4 2.40379 1
gene 1 5 16 -6.15712 0 5 -6.15712 1
gene 3 6 12 3.02653 0 2 3.02653 1
gene 2 7 12 1.92172 0 3 1.92172 1
gene 2 8 12 1.27812 0 4 1.27812 1
gene 1 9 12 3.59744 0 5 3.59744 1
gene 2 10 12 1.00482 0 6 1.00482 1
gene 2 11 12 -1.50067 0 7 -1.50067 1
gene 3 1 13 8 0 5 8 1
gene 1 2 14 0.929898 0 6 0.929898 1
gene 1 3 15 0.937671 0 7 0.937671 1
gene 2 8 13 2.18411 0 12 2.18411 1
gene 1 3 20 -2.66426 0 18 -2.66426 1
gene 1 20 14 3.8345 0 19 3.8345 1
gene 1 5 39 0.595264 0 171 0.595264 1
gene 1 39 16 -0.144659 0 172 -0.144659 1
gene 3 8 39 1.71606 0 231 1.71606 1
gene 1 11 20 2.59447 0 275 2.59447 1
gene 1 4 39 -0.356334 0 422 -0.356334 1
gene 1 2 12 -0.888058 0 431 -0.888058 1
genomeend 354

/* Organism #260 Fitness: 6173 Error: 0 */
genomestart 260
trait 1 0.1 0 0.032445 0.0522026 0.169602 0.285409 0.166031 0.000301699 
trait 2 0.116894 0.255204 0.00962769 0 1 0.00213975 0.185247 0.487152 
trait 3 0.471947 0 0.687097 0.42098 1 0 0.919736 0 
node 1 1 1 1
node 2 1 1 1
node 3 2 1 1
node 4 3 1 1
node 5 3 1 1
node 6 3 1 1
node 7 1 1 1
node 8 3 1 1
node 9 2 1 1
node 10 2 1 1
node 11 3 1 3
node 12 2 0 2
node 13 1 0 2
node 14 1 0 2
node 15 3 0 2
node 16 1 0 2
node 20 1 0 0
node 39 1 0 0
gene 3 1 12 -0.364282 0 1 -0.364282 1
gene 1 2 13 3.22037 0 2 3.22037 1
gene 1 3 14 4.02966 0 3 4.02966 1
gene 3 4 15 2.40379 0 4 2.40379 1
gene 1 5 16 -6.15712 0 5 -6.15712 1
gene 3 6 12 3.02653 0 2 3.02653 1
gene 2 7 12 1.92172 0 3 1.92172 1
gene 2 8 12 1.27812 0 4 1.27812 1
gene 1 9 12 3.59744 0 5 3.59744 1
gene 2 10 12 1.00482 0 6 1.00482 1
gene 2 11 12 -1.50067 0 7 -1.50067 1
gene 3 1 13 8 0 5 8 1
gene 1 2 14 0.929898 0 6 0.929898 1
gene 1 3 15 0.937671 0 7 0.937671 1
gene 2 8 13 2.18411 0 12 2.18411 1
gene 1 3 20 -2.66426 0 18 -2.66426 1
gene 1 20 14 3.8345 0 19 3.8345 1
gene 1 5 39 0.595264 0 171 0.595264 1
gene 1 39 16 -0.144659 0 172 -0.144659 1
gene 3 8 39 1.71606 0 231 1.71606 1
gene 1 11 20 2.59447 0 275 2.59447 1
gene 1 4 39 -0.356334 0 422 -0.356334 1
genomeend 260

/* Organism #218 Fitness: 5799 Error: 0 */
genomestart 218
trait 1 0.1 0 0.032445 0.0522026 0.169602 0.285409 0.166031 0.000301699 
trait 2 0.116894 0.255204 0.00962769 0 1 0.00213975 0.185247 0.487152 
trait 3 0.471947 0 0.687097 0.42098 1 0 0.919736 0 
node 1 1 1 1
node 2 1 1 1
node 3 2 1 1
node 4 3 1 1
node 5 3 1 1
node 6 3 1 1
node 7 1 1 1
node 8 3 1 1
node 9 2 1 1
node 10 2 1 1
node 11 3 1 3
node 12 2 0 2
node 13 1 0 2
node 14 1 0 2
node 15 3 0 2
node 16 1 0 2
node 20 1 0 0
node 39 1 0 0
gene 3 1 12 -2.48425 0 1 -2.48425 1
gene 1 2 13 -0.111569 0 2 -0.111569 1
gene 1 3 14 2.99676 0 3 2.99676 1
gene 3 4 15 2.40379 0 4 2.40379 1
gene 1 5 16 -8 0 5 -8 1
gene 3 6 12 1.93603 0 2 1.93603 1
gene 2 7 12 2.20287 0 3 2.20287 1
gene 2 8 12 1.27812 0 4 1.27812 1
gene 1 9 12 3.59744 0 5 3.59744 1
gene 2 10 12 1.00482 0 6 1.00482 1
gene 2 11 12 -2.90109 0 7 -2.90109 1
gene 3 1 13 8 0 5 8 1
gene 1 2 14 1.62366 0 6 1.62366 1
gene 1 3 15 0.937671 0 7 0.937671 1
gene 2 8 13 3.33023 0 12 3.33023 1
gene 1 3 20 -2.66426 0 18 -2.66426 1
gene 1 20 14 3.8345 0 19 3.8345 1
gene 1 5 39 0.595264 0 171 0.595264 1
gene 1 39 16 -0.957289 0 172 -0.957289 1
gene 3 8 39 3.42746 0 231 3.42746 1
gene 1 11 20 2.59447 0 275 2.59447 1
genomeend 218

/* Organism #825 Fitness: 5785 Error: 0 */
genomestart 825
trait 1 0.1 0 0.032445 0.0522026 0.169602 0.285409 0.166031 0.000301699 
trait 2 0.116894 0.255204 0.00962769 0 1 0.00213975 0.185247 0.487152 
trait 3 0.471947 0 0.687097 0.42098 1 0 0.919736 0 
node 1 1 1 1
node 2 1 1 1
node 3 2 1 1
node 4 3 1 1
node 5 3 1 1
node 6 3 1 1
node 7 1 1 1
node 8 3 1 1
node 9 2 1 1
node 10 2 1 1
node 11 3 1 3
node 12 2 0 2
node 13 1 0 2
node 14 1 0 2
node 15 3 0 2
node 16 1 0 2
node 20 1 0 0
node 39 1 0 0
gene 3 1 12 -0.983197 0 1 -0.983197 1
gene 1 2 13 4.45698 0 2 4.45698 1
gene 1 3 14 3.66016 0 3 3.66016 1
gene 3 4 15 2.40379 0 4 2.40379 1
gene 1 5 16 -4.03478 0 5 -4.03478 1
gene 3 6 12 3.11801 0 2 3.11801 1
gene 2 7 12 1.80616 0 3 1.80616 1
gene 2 8 12 1.88131 0 4 1.88131 1
gene 1 9 12 5.60816 0 5 5.60816 1
gene 2 10 12 0.541704 0 6 0.541704 1
gene 2 11 12 -0.199362 0 7 -0.199362 1
gene 3 1 13 6.00714 0 5 6.00714 1
gene 1 2 14 0.929898 0 6 0.929898 1
gene 1 3 15 0.937671 0 7 0.937671 1
gene 2 8 13 3.35152 0 12 3.35152 1
gene 1 3 20 -1.24949 0 18 -1.24949 1
gene 1 20 14 0.0366985 0 19 0.0366985 1
gene 1 5 39 0.595264 0 171 0.595264 1
gene 1 39 16 0.845972 0 172 0.845972 1
gene 3 8 39 1.27369 0 231 1.27369 1
gene 1 11 20 1.14293 0 275 1.14293 1
gene 1 4 39 1.80537 0 422 1.80537 1
gene 1 2 12 -1.80415 0 431 -1.80415 1
genomeend 825

/* Organism #1107 Fitness: 5040 Error: 0 */
genomestart 1107
trait 1 0.1 0 0.032445 0.0522026 0.169602 0.285409 0.166031 0.000301699 
trait 2 0.116894 0.255204 0.00962769 0 1 0.00213975 0.185247 0.487152 
trait 3 0.471947 0 0.687097 0.42098 1 0 0.919736 0 
node 1 1 1 1
node 2 1 1 1
node 3 2 1 1
node 4 3 1 1
node 5 3 1 1
node 6 3 1 1
node 7 1 1 1
node 8 3 1 1
node 9 2 1 1
node 10 2 1 1
node 11 3 1 3
node 12 2 0 2
node 13 1 0 2
node 14 1 0 2
node 15 3 0 2
node 16 1 0 2
node 20 1 0 0
node 39 1 0 0
gene 3 1 12 -0.902323 0 1 -0.902323 1
gene 1 2 13 4.16858 0 2 4.16858 1
gene 1 3 14 3.67725 0 3 3.67725 1
gene 3 4 15 2.2071 0 4 2.2071 1
gene 1 5 16 -7.32773 0 5 -7.32773 1
gene 3 6 12 0.908167 0 2 0.908167 1
gene 2 7 12 1.19293 0 3 1.19293 1
gene 2 8 12 -1.06578 0 4 -1.06578 1
gene 1 9 12 4.3308 0 5 4.3308 1
gene 2 10 12 1.39485 0 6 1.39485 1
gene 2 11 12 1.91946 0 7 1.91946 1
gene 3 1 13 7.76905 0 5 7.76905 1
gene 1 2 14 4.3984 0 6 4.3984 1
gene 1 3 15 1.06104 0 7 1.06104 1
gene 2 8 13 0.132047 0 12 0.132047 1
gene 1 3 20 -2.93267 0 18 -2.93267 1
gene 1 20 14 1.47313 0 19 1.47313 1
gene 1 5 39 0.671636 0 171 0.671636 1
gene 1 39 16 -2.03116 0 172 -2.03116 1
gene 3 8 39 2.69822 0 231 2.69822 1
gene 1 11 20 2.59447 0 275 2.59447 1
gene 1 4 39 -1.38954 0 422 -1.38954 1
genomeend 1107

/* Organism #1117 Fitness: 0 Error: 0 */
genomestart 1117
trait 1 0.1 0 0.032445 0.0522026 0.169602 0.285409 0.166031 0.000301699 
trait 2 0.116894 0.255204 0.00962769 0 1 0.00213975 0.185247 0.487152 
trait 3 0.471947 0 0.687097 0.42098 1 0 0.919736 0 
node 1 1 1 1
node 2 1 1 1
node 3 2 1 1
node 4 3 1 1
node 5 3 1 1
node 6 3 1 1
node 7 1 1 1
node 8 3 1 1
node 9 2 1 1
node 10 2 1 1
node 11 3 1 3
node 12 2 0 2
node 13 1 0 2
node 14 1 0 2
node 15 3 0 2
node 16 2 0 2
node 20 1 0 0
node 39 1 0 0
gene 3 1 12 0.932145 0 1 0.932145 1
gene 1 2 13 1.4407 0 2 1.4407 1
gene 1 3 14 3.36985 0 3 3.36985 1
gene 3 4 15 4.38086 0 4 4.38086 1
gene 1 5 16 -6.15712 0 5 -6.15712 1
gene 3 6 12 0.662645 0 2 0.662645 1
gene 2 7 12 0.234118 0 3 0.234118 1
gene 2 8 12 1.35449 0 4 1.35449 1
gene 1 9 12 5.68132 0 5 5.68132 1
gene 2 10 12 2.54234 0 6 2.54234 1
gene 2 11 12 -0.570542 0 7 -0.570542 1
gene 3 1 13 8 0 5 8 1
gene 1 2 14 -1.97409 0 6 -1.97409 1
gene 1 3 15 1.36668 0 7 1.36668 1
gene 2 8 13 3.19176 0 12 3.19176 1
gene 1 3 20 -3.68212 0 18 -3.68212 1
gene 1 20 14 -1.9628 0 19 -1.9628 1
gene 1 5 39 2.43995 0 171 2.43995 1
gene 1 39 16 -0.407805 0 172 -0.407805 1
gene 3 8 39 4.11588 0 231 4.11588 1
gene 1 11 20 2.35742 0 275 2.35742 1
gene 1 4 39 1.62534 0 422 1.62534 1
gene 1 2 12 -1.04561 0 431 -1.04561 1
genomeend 1117

/* Species #4 : (Size 4) (AF 0) (Age 1)  */


/* Organism #785 Fitness: 4640 Error: 0 */
genomestart 785
trait 1 0.1 0 0.032445 0.0522026 0.169602 0.285409 0.166031 0.000301699 
trait 2 0.116894 0.255204 0.00962769 0 1 0.00213975 0.185247 0.487152 
trait 3 0.35645 0 0.687097 0.42098 1 0 0.919736 0 
node 1 1 1 1
node 2 1 1 1
node 3 2 1 1
node 4 3 1 1
node 5 3 1 1
node 6 3 1 1
node 7 1 1 1
node 8 3 1 1
node 9 2 1 1
node 10 2 1 1
node 11 3 1 3
node 12 2 0 2
node 13 1 0 2
node 14 1 0 2
node 15 3 0 2
node 16 1 0 2
node 20 1 0 0
node 39 1 0 0
node 61 1 0 0
gene 3 1 12 -1.89502 0 1 -1.89502 1
gene 1 2 13 -0.01133 0 2 -0.01133 1
gene 1 3 14 1.27854 0 3 1.27854 0
gene 3 4 15 5.05989 0 4 5.05989 1
gene 1 5 16 -7.51716 0 5 -7.51716 1
gene 3 6 12 1.95662 0 2 1.95662 1
gene 2 7 12 2.25556 0 3 2.25556 1
gene 2 8 12 0.206553 0 4 0.206553 1
gene 1 9 12 -0.500997 0 5 -0.500997 1
gene 2 10 12 3.43084 0 6 3.43084 1
gene 2 11 12 3.42707 0 7 3.42707 1
gene 3 1 13 7.01074 0 5 7.01074 1
gene 1 2 14 5.39016 0 6 5.39016 0
gene 1 3 15 -1.67381 0 7 -1.67381 1
gene 2 8 13 8 0 12 8 1
gene 1 3 20 -1.16947 0 18 -1.16947 1
gene 1 20 14 2.06954 0 19 2.06954 1
gene 1 5 39 6.00169 0 171 6.00169 1
gene 1 39 16 1.49678 0 172 1.49678 1
gene 3 8 39 1.60333 0 231 1.60333 1
gene 1 2 61 1 0 346 0 1
gene 1 61 14 5.39016 0 347 0 1
gene 2 39 61 0.664327 0 468 0.664327 1
genomeend 785

/* Organism #973 Fitness: 4225 Error: 0 */
genomestart 973
trait 1 0.1 0 0.032445 0.0522026 0.169602 0.285409 0.166031 0.000301699 
trait 2 0.116894 0.255204 0.00962769 0 1 0.00213975 0.185247 0.487152 
trait 3 0.35645 0 0.687097 0.42098 1 0 0.919736 0 
node 1 1 1 1
node 2 1 1 1
node 3 2 1 1
node 4 3 1 1
node 5 3 1 1
node 6 3 1 1
node 7 1 1 1
node 8 3 1 1
node 9 2 1 1
node 10 2 1 1
node 11 3 1 3
node 12 2 0 2
node 13 1 0 2
node 14 1 0 2
node 15 3 0 2
node 16 1 0 2
node 20 1 0 0
node 39 1 0 0
node 61 1 0 0
gene 3 1 12 -1.89502 0 1 -1.89502 1
gene 1 2 13 -0.01133 0 2 -0.01133 1
gene 1 3 14 1.27854 0 3 1.27854 0
gene 3 4 15 5.05989 0 4 5.05989 1
gene 1 5 16 -7.51716 0 5 -7.51716 1
gene 3 6 12 1.95662 0 2 1.95662 1
gene 2 7 12 2.25556 0 3 2.25556 1
gene 2 8 12 0.206553 0 4 0.206553 1
gene 1 9 12 -0.500997 0 5 -0.500997 1
gene 2 10 12 3.43084 0 6 3.43084 1
gene 2 11 12 3.42707 0 7 3.42707 1
gene 3 1 13 7.01074 0 5 7.01074 1
gene 1 2 14 5.39016 0 6 5.39016 0
gene 1 3 15 -1.67381 0 7 -1.67381 1
gene 2 8 13 8 0 12 8 1
gene 1 3 20 -1.16947 0 18 -1.16947 1
gene 1 20 14 2.06954 0 19 2.06954 1
gene 1 5 39 6.00169 0 171 6.00169 1
gene 1 39 16 1.49678 0 172 1.49678 1
gene 3 8 39 1.60333 0 231 1.60333 1
gene 1 2 61 1 0 346 0 1
gene 1 61 14 5.39016 0 347 0 1
gene 2 39 61 0.664327 0 468 0.664327 1
gene 2 2 20 0.681967 0 476 0.681967 1
genomeend 973

/* Organism #2269 Fitness: 3664 Error: 0 */
genomestart 2269
trait 1 0.1 0 0.032445 0.0522026 0.169602 0.285409 0.166031 0.000301699 
trait 2 0.116894 0.255204 0.00962769 0 1 0.00213975 0.185247 0.487152 
trait 3 0.35645 0 0.687097 0.42098 1 0 0.919736 0 
node 1 1 1 1
node 2 1 1 1
node 3 2 1 1
node 4 3 1 1
node 5 3 1 1
node 6 3 1 1
node 7 1 1 1
node 8 3 1 1
node 9 2 1 1
node 10 2 1 1
node 11 3 1 3
node 12 2 0 2
node 13 1 0 2
node 14 1 0 2
node 15 3 0 2
node 16 1 0 2
node 20 1 0 0
node 39 1 0 0
node 61 1 0 0
gene 3 1 12 -1.89502 0 1 -1.89502 1
gene 1 2 13 -0.01133 0 2 -0.01133 1
gene 1 3 14 1.27854 0 3 1.27854 0
gene 3 4 15 5.05989 0 4 5.05989 1
gene 1 5 16 -7.51716 0 5 -7.51716 1
gene 3 6 12 1.95662 0 2 1.95662 1
gene 2 7 12 2.25556 0 3 2.25556 1
gene 2 8 12 0.206553 0 4 0.206553 1
gene 1 9 12 -0.500997 0 5 -0.500997 1
gene 2 10 12 3.43084 0 6 3.43084 1
gene 2 11 12 3.42707 0 7 3.42707 1
gene 3 1 13 7.01074 0 5 7.01074 1
gene 1 2 14 5.39016 0 6 5.39016 0
gene 1 3 15 -1.67381 0 7 -1.67381 1
gene 2 8 13 8 0 12 8 1
gene 1 3 20 -1.16947 0 18 -1.16947 1
gene 1 20 14 2.06954 0 19 2.06954 1
gene 1 5 39 6.00169 0 171 6.00169 1
gene 1 39 16 1.49678 0 172 1.49678 1
gene 3 8 39 1.60333 0 231 1.60333 1
gene 1 2 61 1 0 346 0 1
gene 1 61 14 5.39016 0 347 0 1
genomeend 2269

/* Organism #1073 Fitness: 3700 Error: 0 */
genomestart 1073
trait 1 0.1 0 0.032445 0.0522026 0.169602 0.285409 0.166031 0.000301699 
trait 2 0.116894 0.255204 0.00962769 0 1 0.00213975 0.185247 0.487152 
trait 3 0.35645 0 0.687097 0.42098 1 0 0.919736 0 
node 1 1 1 1
node 2 1 1 1
node 3 2 1 1
node 4 3 1 1
node 5 3 1 1
node 6 3 1 1
node 7 1 1 1
node 8 3 1 1
node 9 2 1 1
node 10 2 1 1
node 11 3 1 3
node 12 2 0 2
node 13 1 0 2
node 14 1 0 2
node 15 3 0 2
node 16 1 0 2
node 20 1 0 0
node 39 1 0 0
node 61 1 0 0
gene 3 1 12 -1.40309 0 1 -1.40309 1
gene 1 2 13 -1.95395 0 2 -1.95395 1
gene 1 3 14 -1.02622 0 3 -1.02622 0
gene 3 4 15 5.05989 0 4 5.05989 1
gene 1 5 16 -8 0 5 -8 1
gene 3 6 12 3.49399 0 2 3.49399 1
gene 2 7 12 -0.279092 0 3 -0.279092 1
gene 2 8 12 1.19116 0 4 1.19116 1
gene 1 9 12 -2.16014 0 5 -2.16014 1
gene 2 10 12 0.219886 0 6 0.219886 1
gene 2 11 12 1.86109 0 7 1.86109 1
gene 3 1 13 -0.338374 0 5 -0.338374 1
gene 1 2 14 5.39016 0 6 5.39016 0
gene 1 3 15 -3.43488 0 7 -3.43488 1
gene 2 8 13 7.73754 0 12 7.73754 1
gene 1 3 20 -0.457244 0 18 -0.457244 1
gene 1 20 14 3.13082 0 19 3.13082 1
gene 1 5 39 5.69887 0 171 5.69887 1
gene 1 39 16 3.25457 0 172 3.25457 1
gene 3 8 39 1.27487 0 231 1.27487 1
gene 1 2 61 2.02687 0 346 2.02687 1
gene 1 61 14 3.42637 0 347 3.42637 1
gene 2 39 61 -0.595325 0 468 -0.595325 1
genomeend 1073

/* Species #5 : (Size 5) (AF 0) (Age 1)  */


/* Organism #808 Fitness: 9165 Error: 0 */
genomestart 808
trait 1 0.268157 0 0.0268685 0 0.157712 0.249645 0.00815616 0 
trait 2 0.117952 0.132428 0.00875096 0.0354663 0.227404 0.00213975 0.182924 0.0705778 
trait 3 0.35645 0.0388424 0.0473821 0.42098 0.18546 0 0 0.182342 
node 1 1 1 1
node 2 1 1 1
node 3 2 1 1
node 4 3 1 1
node 5 3 1 1
node 6 3 1 1
node 7 1 1 1
node 8 3 1 1
node 9 2 1 1
node 10 2 1 1
node 11 3 1 3
node 12 2 0 2
node 13 1 0 2
node 14 1 0 2
node 15 3 0 2
node 16 1 0 2
node 20 1 0 0
node 53 3 0 0
node 59 1 0 0
gene 3 1 12 6.2947 0 1 6.2947 1
gene 1 2 13 1.79146 0 2 1.79146 1
gene 1 3 14 3.68328 0 3 3.68328 0
gene 3 4 15 2.94015 0 4 2.94015 1
gene 1 5 16 4.35195 0 5 4.35195 1
gene 3 6 12 8 0 2 8 1
gene 2 7 12 -4.99959 0 3 -4.99959 1
gene 2 8 12 -1.61779 0 4 -1.61779 1
gene 1 9 12 -2.11074 0 5 -2.11074 1
gene 2 10 12 2.3421 0 6 2.3421 1
gene 2 11 12 2.21752 0 7 2.21752 1
gene 3 1 13 1.3698 0 5 1.3698 1
gene 1 2 14 3.81344 0 6 3.81344 1
gene 1 3 15 -1.85953 0 7 -1.85953 1
gene 2 8 13 4.57529 0 12 4.57529 0
gene 1 3 20 5.22584 0 18 5.22584 0
gene 1 20 14 0.908991 0 19 0.908991 1
gene 2 8 53 4.35186 0 294 4.35186 1
gene 2 53 13 7.85958 0 295 7.85958 1
gene 1 3 59 5.4029 0 327 5.4029 1
gene 1 59 20 0.641728 0 328 0.641728 1
gene 3 20 15 1.35125 0 401 1.35125 1
genomeend 808

/* Organism #416 Fitness: 7569 Error: 0 */
genomestart 416
trait 1 0.268157 0 0.0268685 0 0.157712 0.249645 0.00815616 0 
trait 2 0.117952 0.132428 0.00875096 0.0354663 0.227404 0.00213975 0.182924 0.0705778 
trait 3 0.35645 0.0388424 0.0473821 0.42098 0.18546 0 0 0.182342 
node 1 1 1 1
node 2 1 1 1
node 3 2 1 1
node 4 3 1 1
node 5 3 1 1
node 6 3 1 1
node 7 1 1 1
node 8 3 1 1
node 9 2 1 1
node 10 2 1 1
node 11 3 1 3
node 12 2 0 2
node 13 1 0 2
node 14 1 0 2
node 15 3 0 2
node 16 1 0 2
node 20 1 0 0
node 53 3 0 0
node 59 1 0 0
gene 3 1 12 7.14735 0 1 7.14735 1
gene 1 2 13 1.79146 0 2 1.79146 1
gene 1 3 14 3.68328 0 3 3.68328 0
gene 3 4 15 2.94015 0 4 2.94015 1
gene 1 5 16 4.35195 0 5 4.35195 1
gene 3 6 12 8 0 2 8 1
gene 2 7 12 -4.99959 0 3 -4.99959 1
gene 2 8 12 0.361013 0 4 0.361013 1
gene 1 9 12 -2.11074 0 5 -2.11074 1
gene 2 10 12 2.3421 0 6 2.3421 1
gene 2 11 12 2.21752 0 7 2.21752 1
gene 3 1 13 1.3698 0 5 1.3698 1
gene 1 2 14 3.06848 0 6 3.06848 1
gene 1 3 15 -1.85953 0 7 -1.85953 1
gene 2 8 13 4.88478 0 12 4.88478 1
gene 1 3 20 5.22584 0 18 5.22584 0
gene 1 20 14 1.05529 0 19 1.05529 1
gene 2 8 53 3.87417 0 294 3.87417 1
gene 2 53 13 7.85958 0 295 7.85958 1
gene 1 3 59 5.4029 0 327 5.4029 1
gene 1 59 20 0.641728 0 328 0.641728 1
gene 3 20 15 1.35125 0 401 1.35125 1
genomeend 416

/* Organism #377 Fitness: 6606 Error: 0 */
genomestart 377
trait 1 0.268157 0 0.0268685 0 0.157712 0.249645 0.00815616 0 
trait 2 0.117952 0.132428 0.00875096 0.0354663 0.227404 0.00213975 0.182924 0.0705778 
trait 3 0.35645 0.0388424 0.0473821 0.42098 0.18546 0 0 0.182342 
node 1 1 1 1
node 2 1 1 1
node 3 2 1 1
node 4 3 1 1
node 5 3 1 1
node 6 3 1 1
node 7 1 1 1
node 8 3 1 1
node 9 2 1 1
node 10 2 1 1
node 11 3 1 3
node 12 2 0 2
node 13 1 0 2
node 14 1 0 2
node 15 3 0 2
node 16 1 0 2
node 20 1 0 0
node 53 3 0 0
node 59 1 0 0
gene 3 1 12 6.2947 0 1 6.2947 1
gene 1 2 13 1.79146 0 2 1.79146 1
gene 1 3 14 3.68328 0 3 3.68328 0
gene 3 4 15 2.94015 0 4 2.94015 1
gene 1 5 16 4.35195 0 5 4.35195 1
gene 3 6 12 8 0 2 8 1
gene 2 7 12 -4.99959 0 3 -4.99959 1
gene 2 8 12 -1.61779 0 4 -1.61779 1
gene 1 9 12 -2.11074 0 5 -2.11074 1
gene 2 10 12 3.09267 0 6 3.09267 1
gene 2 11 12 2.21752 0 7 2.21752 1
gene 3 1 13 1.3698 0 5 1.3698 1
gene 1 2 14 3.81344 0 6 3.81344 1
gene 1 3 15 -0.927156 0 7 -0.927156 1
gene 2 8 13 4.57529 0 12 4.57529 0
gene 1 3 20 5.22584 0 18 5.22584 0
gene 1 20 14 0.908991 0 19 0.908991 1
gene 2 8 53 4.35186 0 294 4.35186 1
gene 2 53 13 7.71915 0 295 7.71915 1
gene 1 3 59 5.4029 0 327 5.4029 1
gene 1 59 20 0.641728 0 328 0.641728 1
gene 3 20 15 1.35125 0 401 1.35125 1
genomeend 377

/* Organism #914 Fitness: 6265 Error: 0 */
genomestart 914
trait 1 0.268157 0 0.0268685 0 0.157712 0.249645 0.00815616 0 
trait 2 0.117952 0.132428 0.00875096 0.0354663 0.227404 0.00213975 0.182924 0.0705778 
trait 3 0.35645 0.0388424 0.0473821 0.42098 0.18546 0 0 0.182342 
node 1 1 1 1
node 2 1 1 1
node 3 2 1 1
node 4 3 1 1
node 5 3 1 1
node 6 3 1 1
node 7 1 1 1
node 8 3 1 1
node 9 2 1 1
node 10 2 1 1
node 11 3 1 3
node 12 2 0 2
node 13 1 0 2
node 14 1 0 2
node 15 3 0 2
node 16 1 0 2
node 20 1 0 0
node 53 3 0 0
node 59 1 0 0
gene 3 1 12 6.72103 0 1 6.72103 1
gene 1 2 13 1.79146 0 2 1.79146 1
gene 1 3 14 3.68328 0 3 3.68328 0
gene 3 4 15 2.94015 0 4 2.94015 1
gene 1 5 16 4.35195 0 5 4.35195 1
gene 3 6 12 8 0 2 8 1
gene 2 7 12 -4.99959 0 3 -4.99959 1
gene 2 8 12 -0.628387 0 4 -0.628387 1
gene 1 9 12 -2.11074 0 5 -2.11074 1
gene 2 10 12 2.3421 0 6 2.3421 1
gene 2 11 12 2.21752 0 7 2.21752 1
gene 3 1 13 1.3698 0 5 1.3698 1
gene 1 2 14 3.44096 0 6 3.44096 1
gene 1 3 15 -1.85953 0 7 -1.85953 1
gene 2 8 13 4.73004 0 12 4.73004 1
gene 1 3 20 5.22584 0 18 5.22584 1
gene 1 20 14 0.98214 0 19 0.98214 1
gene 2 8 53 4.11301 0 294 4.11301 1
gene 2 53 13 7.85958 0 295 7.85958 1
gene 1 3 59 5.4029 0 327 5.4029 1
gene 1 59 20 0.641728 0 328 0.641728 1
gene 3 20 15 1.35125 0 401 1.35125 1
genomeend 914

/* Organism #706 Fitness: 5963 Error: 0 */
genomestart 706
trait 1 0.268157 0 0.0268685 0 0.157712 0.249645 0.00815616 0 
trait 2 0.117952 0.132428 0.00875096 0.0354663 0.227404 0.00213975 0.182924 0.0705778 
trait 3 0.35645 0.0388424 0.0473821 0.42098 0.18546 0 0 0.182342 
node 1 1 1 1
node 2 1 1 1
node 3 2 1 1
node 4 3 1 1
node 5 3 1 1
node 6 3 1 1
node 7 1 1 1
node 8 3 1 1
node 9 2 1 1
node 10 2 1 1
node 11 3 1 3
node 12 2 0 2
node 13 1 0 2
node 14 1 0 2
node 15 3 0 2
node 16 1 0 2
node 20 1 0 0
node 53 3 0 0
node 59 1 0 0
gene 3 1 12 5.32105 0 1 5.32105 1
gene 1 2 13 2.31805 0 2 2.31805 1
gene 1 3 14 3.56181 0 3 3.56181 0
gene 3 4 15 3.94894 0 4 3.94894 1
gene 1 5 16 5.78724 0 5 5.78724 1
gene 3 6 12 8 0 2 8 1
gene 2 7 12 -5.9626 0 3 -5.9626 1
gene 2 8 12 -0.744062 0 4 -0.744062 1
gene 1 9 12 -1.25874 0 5 -1.25874 1
gene 2 10 12 4.44841 0 6 4.44841 1
gene 2 11 12 3.91344 0 7 3.91344 1
gene 3 1 13 1.86084 0 5 1.86084 1
gene 1 2 14 2.47696 0 6 2.47696 1
gene 1 3 15 -3.14879 0 7 -3.14879 1
gene 2 8 13 4.12701 0 12 4.12701 1
gene 1 3 20 6.89879 0 18 6.89879 0
gene 1 20 14 1.27235 0 19 1.27235 1
gene 2 8 53 2.20412 0 294 2.20412 1
gene 2 53 13 6.62777 0 295 6.62777 1
gene 1 3 59 5.4029 0 327 5.4029 1
gene 1 59 20 0.13596 0 328 0.13596 1
gene 3 20 15 1.15207 0 401 1.15207 1
genomeend 706

/* Species #6 : (Size 3) (AF 0) (Age 1)  */


/* Organism #211 Fitness: 6014 Error: 0 */
genomestart 211
trait 1 1 0 0.0268685 0 0 0.249645 0.00815616 0 
trait 2 0.117952 0.132428 0.00875096 0.0354663 0.227404 0.00213975 0.182924 0.0705778 
trait 3 0 0.0388424 0.0473821 0.891301 0 0.393109 0 0.517069 
node 1 1 1 1
node 2 1 1 1
node 3 2 1 1
node 4 3 1 1
node 5 3 1 1
node 6 3 1 1
node 7 1 1 1
node 8 3 1 1
node 9 2 1 1
node 10 2 1 1
node 11 3 1 3
node 12 2 0 2
node 13 1 0 2
node 14 1 0 2
node 15 3 0 2
node 16 1 0 2
node 20 1 0 0
node 53 1 0 0
node 59 1 0 0
node 67 1 0 0
gene 3 1 12 8 0 1 8 1
gene 1 2 13 0.842444 0 2 0.842444 1
gene 1 3 14 1.75306 0 3 1.75306 0
gene 3 4 15 3.33678 0 4 3.33678 1
gene 1 5 16 4.03899 0 5 4.03899 1
gene 3 6 12 7.33248 0 2 7.33248 1
gene 2 7 12 -0.741463 0 3 -0.741463 1
gene 2 8 12 2.59231 0 4 2.59231 1
gene 1 9 12 3.86364 0 5 3.86364 1
gene 2 10 12 1.58483 0 6 1.58483 1
gene 2 11 12 2.33123 0 7 2.33123 1
gene 3 1 13 5.87647 0 5 5.87647 0
gene 1 2 14 -3.06907 0 6 -3.06907 1
gene 1 3 15 -4.02566 0 7 -4.02566 1
gene 2 8 13 2.70119 0 12 2.70119 0
gene 1 3 20 1.06757 0 18 1.06757 1
gene 1 20 14 3.52595 0 19 3.52595 1
gene 2 8 53 1.33686 0 294 1.33686 1
gene 2 53 13 8 0 295 8 1
gene 1 3 59 -2.89438 0 327 -2.89438 1
gene 1 59 20 2.87561 0 328 2.87561 1
gene 3 1 67 2.14547 0 382 2.14547 1
gene 3 67 13 7.39323 0 383 7.39323 1
gene 1 2 20 1.46518 0 405 1.46518 1
genomeend 211

/* Organism #172 Fitness: 5402 Error: 0 */
genomestart 172
trait 1 1 0 0.0268685 0 0 0.249645 0.00815616 0 
trait 2 0.117952 0.132428 0.00875096 0.0354663 0.227404 0.00213975 0.182924 0.0705778 
trait 3 0 0.0388424 0.0473821 0.891301 0 0.393109 0 0.517069 
node 1 1 1 1
node 2 1 1 1
node 3 2 1 1
node 4 3 1 1
node 5 3 1 1
node 6 3 1 1
node 7 1 1 1
node 8 3 1 1
node 9 2 1 1
node 10 2 1 1
node 11 3 1 3
node 12 2 0 2
node 13 1 0 2
node 14 1 0 2
node 15 3 0 2
node 16 1 0 2
node 20 1 0 0
node 53 1 0 0
node 59 1 0 0
node 67 1 0 0
gene 3 1 12 8 0 1 8 1
gene 1 2 13 -1.38163 0 2 -1.38163 1
gene 1 3 14 -2.74636 0 3 -2.74636 0
gene 3 4 15 3.47827 0 4 3.47827 1
gene 1 5 16 3.33523 0 5 3.33523 1
gene 3 6 12 6.75668 0 2 6.75668 1
gene 2 7 12 -1.74818 0 3 -1.74818 1
gene 2 8 12 -0.010575 0 4 -0.010575 1
gene 1 9 12 -0.755716 0 5 -0.755716 1
gene 2 10 12 -0.129017 0 6 -0.129017 1
gene 2 11 12 -1.29057 0 7 -1.29057 1
gene 3 1 13 7.32968 0 5 7.32968 0
gene 1 2 14 -1.3023 0 6 -1.3023 1
gene 1 3 15 -5.04288 0 7 -5.04288 1
gene 2 8 13 5.09426 0 12 5.09426 0
gene 1 3 20 0.402383 0 18 0.402383 0
gene 1 20 14 1.58132 0 19 1.58132 1
gene 2 8 53 -4.63164 0 294 -4.63164 1
gene 2 53 13 -1.61855 0 295 -1.61855 1
gene 1 3 59 1.04671 0 327 1.04671 1
gene 1 59 20 -0.705893 0 328 -0.705893 1
gene 3 1 67 1.749 0 382 1.749 1
gene 3 67 13 7.56078 0 383 7.56078 1
gene 1 2 20 -1.45254 0 405 -1.45254 1
genomeend 172

/* Organism #1020 Fitness: 4769 Error: 0 */
genomestart 1020
trait 1 1 0 0.0268685 0 0 0.249645 0.00815616 0 
trait 2 0.117952 0.132428 0.00875096 0.0354663 0.227404 0.00213975 0.182924 0.0705778 
trait 3 0 0.0388424 0.0473821 0.891301 0 0.393109 0 0.517069 
node 1 1 1 1
node 2 1 1 1
node 3 2 1 1
node 4 3 1 1
node 5 3 1 1
node 6 3 1 1
node 7 1 1 1
node 8 3 1 1
node 9 2 1 1
node 10 2 1 1
node 11 3 1 3
node 12 2 0 2
node 13 1 0 2
node 14 1 0 2
node 15 3 0 2
node 16 1 0 2
node 20 1 0 0
node 53 1 0 0
node 59 1 0 0
node 67 1 0 0
gene 3 1 12 7.25581 0 1 7.25581 1
gene 1 2 13 -1.6011 0 2 -1.6011 1
gene 1 3 14 -0.882519 0 3 -0.882519 0
gene 3 4 15 -1.339 0 4 -1.339 1
gene 1 5 16 7.59012 0 5 7.59012 1
gene 3 6 12 5.52632 0 2 5.52632 1
gene 2 7 12 -4.61747 0 3 -4.61747 1
gene 2 8 12 4.71159 0 4 4.71159 1
gene 1 9 12 2.57065 0 5 2.57065 1
gene 2 10 12 1.89108 0 6 1.89108 1
gene 2 11 12 5.04761 0 7 5.04761 1
gene 3 1 13 2.03732 0 5 2.03732 0
gene 1 2 14 -4.73302 0 6 -4.73302 1
gene 1 3 15 -4.88369 0 7 -4.88369 1
gene 2 8 13 1.67355 0 12 1.67355 0
gene 1 3 20 2.92592 0 18 2.92592 1
gene 1 20 14 6.5556 0 19 6.5556 1
gene 2 8 53 -1.18023 0 294 -1.18023 1
gene 2 53 13 1.90565 0 295 1.90565 1
gene 1 3 59 -1.28231 0 327 -1.28231 1
gene 1 59 20 -1.74917 0 328 -1.74917 1
gene 3 1 67 3.52443 0 382 3.52443 1
gene 3 67 13 3.82218 0 383 3.82218 1
gene 1 2 20 -1.79563 0 405 -1.79563 1
genomeend 1020

/* Species #7 : (Size 1) (AF 0) (Age 1)  */


/* Organism #4331 Fitness: 3334 Error: 0 */
genomestart 4331
trait 1 0.1 0 0.032445 0.0522026 0.169602 0.285409 0.166031 0.000301699 
trait 2 0.116894 0.255204 0.00962769 0 1 0.00213975 0.185247 0.487152 
trait 3 0.35645 0 0.687097 0.42098 1 0 0.919736 0 
node 1 1 1 1
node 2 1 1 1
node 3 2 1 1
node 4 3 1 1
node 5 3 1 1
node 6 3 1 1
node 7 1 1 1
node 8 3 1 1
node 9 2 1 1
node 10 2 1 1
node 11 3 1 3
node 12 2 0 2
node 13 1 0 2
node 14 1 0 2
node 15 3 0 2
node 16 1 0 2
node 20 1 0 0
node 39 1 0 0
node 51 1 0 0
gene 3 1 12 -1.45432 0 1 -1.45432 1
gene 1 2 13 -0.621662 0 2 -0.621662 1
gene 1 3 14 0.19879 0 3 0.19879 0
gene 3 4 15 4.46658 0 4 4.46658 1
gene 1 5 16 -6.06864 0 5 -6.06864 0
gene 3 6 12 4.70099 0 2 4.70099 1
gene 2 7 12 0.750755 0 3 0.750755 0
gene 2 8 12 1.28124 0 4 1.28124 1
gene 1 9 12 -1.62713 0 5 -1.62713 1
gene 2 10 12 -1.16413 0 6 -1.16413 1
gene 2 11 12 4.23059 0 7 4.23059 1
gene 3 1 13 7.42068 0 5 7.42068 1
gene 1 2 14 5.76205 0 6 5.76205 1
gene 1 3 15 -2.18818 0 7 -2.18818 1
gene 2 8 13 8 0 12 8 1
gene 1 3 20 -0.548723 0 18 -0.548723 1
gene 1 20 14 2.82765 0 19 2.82765 1
gene 1 5 39 6.00169 0 171 6.00169 1
gene 1 39 16 -0.65363 0 172 -0.65363 1
gene 3 8 39 2.41369 0 231 2.41369 1
gene 2 7 51 1 0 286 0 1
gene 2 51 12 0.750755 0 287 0 1
genomeend 4331

/* Species #13 : (Size 1) (AF 0) (Age 1)  */


/* Organism #476 Fitness: 1542 Error: 0 */
genomestart 476
trait 1 0.1 0 0.032445 0.0522026 0.169602 0.285409 0.166031 0.000301699 
trait 2 0.116894 0.255204 0.00962769 0 1 0.00213975 0.185247 0.487152 
trait 3 0.471947 0 0.687097 0.42098 1 0 0.919736 0 
node 1 1 1 1
node 2 1 1 1
node 3 2 1 1
node 4 3 1 1
node 5 3 1 1
node 6 3 1 1
node 7 1 1 1
node 8 3 1 1
node 9 2 1 1
node 10 2 1 1
node 11 3 1 3
node 12 2 0 2
node 13 1 0 2
node 14 1 0 2
node 15 3 0 2
node 16 1 0 2
node 20 1 0 0
node 39 1 0 0
node 75 1 0 0
gene 3 1 12 -0.364282 0 1 -0.364282 1
gene 1 2 13 3.22037 0 2 3.22037 1
gene 1 3 14 4.02966 0 3 4.02966 1
gene 3 4 15 2.40379 0 4 2.40379 1
gene 1 5 16 -6.15712 0 5 -6.15712 1
gene 3 6 12 3.02653 0 2 3.02653 1
gene 2 7 12 1.92172 0 3 1.92172 1
gene 2 8 12 1.27812 0 4 1.27812 1
gene 1 9 12 3.59744 0 5 3.59744 1
gene 2 10 12 1.00482 0 6 1.00482 1
gene 2 11 12 -1.50067 0 7 -1.50067 1
gene 3 1 13 8 0 5 8 1
gene 1 2 14 0.929898 0 6 0.929898 1
gene 1 3 15 0.937671 0 7 0.937671 1
gene 2 8 13 2.18411 0 12 2.18411 0
gene 1 3 20 -2.66426 0 18 -2.66426 1
gene 1 20 14 3.8345 0 19 3.8345 1
gene 1 5 39 0.595264 0 171 0.595264 1
gene 1 39 16 -0.144659 0 172 -0.144659 1
gene 3 8 39 1.71606 0 231 1.71606 1
gene 1 11 20 2.59447 0 275 2.59447 1
gene 1 4 39 -0.356334 0 422 -0.356334 1
gene 2 8 75 1 0 443 0 1
gene 2 75 13 2.18411 0 444 0 1
genomeend 476

/* Species #15 : (Size 1) (AF 0) (Age 1)  */


/* Organism #577 Fitness: 2584 Error: 0 */
genomestart 577
trait 1 0.1 0 0.032445 0.0522026 0.169602 0.285409 0.166031 0.000301699 
trait 2 0.116894 0.255204 0.00962769 0 1 0.00213975 0.185247 0.487152 
trait 3 0.471947 0 0.687097 0.42098 1 0 0.919736 0 
node 1 1 1 1
node 2 1 1 1
node 3 2 1 1
node 4 3 1 1
node 5 3 1 1
node 6 3 1 1
node 7 1 1 1
node 8 3 1 1
node 9 2 1 1
node 10 2 1 1
node 11 3 1 3
node 12 2 0 2
node 13 1 0 2
node 14 1 0 2
node 15 3 0 2
node 16 1 0 2
node 20 1 0 0
node 39 1 0 0
node 77 1 0 0
gene 3 1 12 -0.364282 0 1 -0.364282 1
gene 1 2 13 3.22037 0 2 3.22037 1
gene 1 3 14 4.02966 0 3 4.02966 1
gene 3 4 15 2.40379 0 4 2.40379 1
gene 1 5 16 -6.15712 0 5 -6.15712 1
gene 3 6 12 3.02653 0 2 3.02653 1
gene 2 7 12 1.92172 0 3 1.92172 0
gene 2 8 12 1.27812 0 4 1.27812 1
gene 1 9 12 3.59744 0 5 3.59744 1
gene 2 10 12 1.00482 0 6 1.00482 1
gene 2 11 12 -1.50067 0 7 -1.50067 1
gene 3 1 13 8 0 5 8 1
gene 1 2 14 0.929898 0 6 0.929898 1
gene 1 3 15 0.937671 0 7 0.937671 1
gene 2 8 13 2.18411 0 12 2.18411 1
gene 1 3 20 -2.66426 0 18 -2.66426 1
gene 1 20 14 3.8345 0 19 3.8345 1
gene 1 5 39 0.595264 0 171 0.595264 1
gene 1 39 16 -0.144659 0 172 -0.144659 1
gene 3 8 39 1.71606 0 231 1.71606 1
gene 1 11 20 2.59447 0 275 2.59447 1
gene 1 4 39 -0.356334 0 422 -0.356334 1
gene 2 7 77 1 0 450 0 1
gene 2 77 12 1.92172 0 451 0 1
genomeend 577

/* Species #19 : (Size 1) (AF 0) (Age 1)  */


/* Organism #757 Fitness: 6130 Error: 0 */
genomestart 757
trait 1 0.1 0 0.032445 0.0522026 0.169602 0.285409 0.166031 0.000301699 
trait 2 0.116894 0.255204 0.00962769 0 1 0.00213975 0.185247 0.487152 
trait 3 0.471947 0 0.687097 0.42098 1 0 0.919736 0 
node 1 1 1 1
node 2 1 1 1
node 3 2 1 1
node 4 3 1 1
node 5 3 1 1
node 6 3 1 1
node 7 1 1 1
node 8 3 1 1
node 9 2 1 1
node 10 2 1 1
node 11 3 1 3
node 12 2 0 2
node 13 1 0 2
node 14 1 0 2
node 15 3 0 2
node 16 1 0 2
node 20 1 0 0
node 39 1 0 0
node 76 1 0 0
gene 3 1 12 -2.0441 0 1 -2.0441 1
gene 1 2 13 2.75954 0 2 2.75954 1
gene 1 3 14 4.147 0 3 4.147 1
gene 3 4 15 2.99013 0 4 2.99013 1
gene 1 5 16 -7.8911 0 5 -7.8911 1
gene 3 6 12 1.4868 0 2 1.4868 1
gene 2 7 12 2.16419 0 3 2.16419 1
gene 2 8 12 -1.123 0 4 -1.123 1
gene 1 9 12 3.52435 0 5 3.52435 1
gene 2 10 12 -0.561006 0 6 -0.561006 1
gene 2 11 12 -0.0402826 0 7 -0.0402826 1
gene 3 1 13 8 0 5 8 1
gene 1 2 14 3.02408 0 6 3.02408 1
gene 1 3 15 -0.805089 0 7 -0.805089 1
gene 2 8 13 2.51638 0 12 2.51638 1
gene 1 3 20 -3.17247 0 18 -3.17247 0
gene 1 20 14 1.35838 0 19 1.35838 1
gene 1 5 39 0.72985 0 171 0.72985 1
gene 1 39 16 1.07822 0 172 1.07822 1
gene 3 8 39 1.71606 0 231 1.71606 1
gene 1 11 20 2.59447 0 275 2.59447 1
gene 1 4 39 -0.356334 0 422 -0.356334 1
gene 1 3 76 1 0 445 0 1
gene 1 76 20 -3.17247 0 446 0 1
genomeend 757
