
/* Species #1 : (Size 15) (AF 0) (Age 1)  */


/* Organism #160 Fitness: 8703 Error: 0 */
genomestart 160
trait 1 0.1 0 0 0.138798 0.288525 0 0.152405 0.556804 
trait 2 0.575462 0.845916 0 0 0.211199 0.456345 0 0.0659175 
trait 3 0.462539 0.0194212 0.0299596 0.412389 0.214686 0 0 0.171901 
node 1 2 1 1
node 2 2 1 1
node 3 2 1 1
node 4 1 1 1
node 5 1 1 1
node 6 3 1 1
node 7 1 1 1
node 8 1 1 1
node 9 2 1 1
node 10 2 1 1
node 11 2 1 3
node 12 3 0 2
node 13 3 0 2
node 14 2 0 2
node 15 2 0 2
node 16 1 0 2
gene 3 1 12 -4.53123 0 1 -4.53123 1
gene 1 2 13 -6.46485 0 2 -6.46485 1
gene 1 3 14 -3.23923 0 3 -3.23923 1
gene 3 4 15 -5.5015 0 4 -5.5015 1
gene 1 5 16 7.28508 0 5 7.28508 1
gene 3 6 12 -2.46544 0 2 -2.46544 0
gene 1 7 12 -3.0005 0 3 -3.0005 1
gene 3 8 12 8 0 4 8 1
gene 3 9 12 -3.12772 0 5 -3.12772 1
gene 3 10 12 -5.57619 0 6 -5.57619 1
gene 2 11 12 -8 0 7 -8 1
gene 2 1 13 -2.43141 0 5 -2.43141 1
gene 1 2 14 1.3802 0 6 1.3802 1
gene 1 3 15 -1.95571 0 7 -1.95571 1
gene 3 16 12 -1.70728 0 24 -1.70728 1
genomeend 160

/* Organism #60 Fitness: 6654 Error: 0 */
genomestart 60
trait 1 0.1 0 0 0.138798 0.288525 0 0.152405 0.556804 
trait 2 0.575462 0.845916 0 0 0.211199 0.456345 0 0.0659175 
trait 3 0.462539 0.0194212 0.0299596 0.412389 0.214686 0 0 0.171901 
node 1 2 1 1
node 2 2 1 1
node 3 2 1 1
node 4 1 1 1
node 5 1 1 1
node 6 3 1 1
node 7 1 1 1
node 8 1 1 1
node 9 2 1 1
node 10 2 1 1
node 11 2 1 3
node 12 3 0 2
node 13 3 0 2
node 14 2 0 2
node 15 2 0 2
node 16 1 0 2
gene 3 1 12 -6.05102 0 1 -6.05102 1
gene 1 2 13 -5.23895 0 2 -5.23895 1
gene 1 3 14 -5.86657 0 3 -5.86657 1
gene 3 4 15 -7.01411 0 4 -7.01411 1
gene 1 5 16 6.9665 0 5 6.9665 1
gene 3 6 12 -4.36186 0 2 -4.36186 1
gene 1 7 12 -2.12744 0 3 -2.12744 1
gene 3 8 12 7.25833 0 4 7.25833 1
gene 3 9 12 -4.22914 0 5 -4.22914 1
gene 3 10 12 -3.98137 0 6 -3.98137 1
gene 2 11 12 -8 0 7 -8 1
gene 2 1 13 -1.25035 0 5 -1.25035 1
gene 1 2 14 1.53447 0 6 1.53447 1
gene 1 3 15 -1.10779 0 7 -1.10779 1
gene 3 16 12 -0.464491 0 24 -0.464491 1
genomeend 60

/* Organism #44 Fitness: 6404 Error: 0 */
genomestart 44
trait 1 0.1 0 0 0.138798 0.288525 0 0.152405 0.556804 
trait 2 0.575462 0.845916 0 0 0.211199 0.456345 0 0.0659175 
trait 3 0.462539 0.0194212 0.0299596 0.412389 0.214686 0 0 0.171901 
node 1 2 1 1
node 2 2 1 1
node 3 2 1 1
node 4 1 1 1
node 5 1 1 1
node 6 3 1 1
node 7 1 1 1
node 8 1 1 1
node 9 2 1 1
node 10 2 1 1
node 11 2 1 3
node 12 3 0 2
node 13 3 0 2
node 14 2 0 2
node 15 2 0 2
node 16 1 0 2
node 23 1 0 0
gene 3 1 12 -6.85179 0 1 -6.85179 1
gene 1 2 13 -4.76382 0 2 -4.76382 1
gene 1 3 14 -4.7187 0 3 -4.7187 1
gene 3 4 15 -6.42933 0 4 -6.42933 1
gene 1 5 16 7.36031 0 5 7.36031 1
gene 3 6 12 -4.65927 0 2 -4.65927 0
gene 1 7 12 -1.03808 0 3 -1.03808 1
gene 3 8 12 8 0 4 8 1
gene 3 9 12 -3.39327 0 5 -3.39327 1
gene 3 10 12 -3.90332 0 6 -3.90332 1
gene 2 11 12 -8 0 7 -8 1
gene 2 1 13 -1.01329 0 5 -1.01329 1
gene 1 2 14 1.65875 0 6 1.65875 1
gene 1 3 15 -0.916857 0 7 -0.916857 1
gene 3 16 12 -0.404293 0 24 -0.404293 1
gene 3 6 23 1 0 63 0 1
gene 3 23 12 -4.65927 0 64 0 1
genomeend 44

/* Organism #352 Fitness: 5919 Error: 0 */
genomestart 352
trait 1 0.1 0 0 0.138798 0.288525 0 0.152405 0.556804 
trait 2 0.575462 0.845916 0 0 0.211199 0.456345 0 0.0659175 
trait 3 0.462539 0.0194212 0.0299596 0.412389 0.214686 0 0 0.171901 
node 1 2 1 1
node 2 2 1 1
node 3 2 1 1
node 4 1 1 1
node 5 1 1 1
node 6 3 1 1
node 7 1 1 1
node 8 1 1 1
node 9 2 1 1
node 10 2 1 1
node 11 2 1 3
node 12 3 0 2
node 13 3 0 2
node 14 2 0 2
node 15 2 0 2
node 16 1 0 2
gene 3 1 12 -5.33852 0 1 -5.33852 1
gene 1 2 13 -4.3741 0 2 -4.3741 1
gene 1 3 14 -1.74947 0 3 -1.74947 1
gene 3 4 15 -3.03156 0 4 -3.03156 1
gene 1 5 16 8 0 5 8 1
gene 3 6 12 -1.75382 0 2 -1.75382 0
gene 1 7 12 -3.4566 0 3 -3.4566 1
gene 3 8 12 1.13376 0 4 1.13376 1
gene 3 9 12 -3.12772 0 5 -3.12772 1
gene 3 10 12 -5.70429 0 6 -5.70429 1
gene 2 11 12 -8 0 7 -8 1
gene 2 1 13 -3.31538 0 5 -3.31538 1
gene 1 2 14 -0.433138 0 6 -0.433138 1
gene 1 3 15 -3.86227 0 7 -3.86227 1
gene 3 16 12 0.708716 0 24 0.708716 1
genomeend 352

/* Organism #202 Fitness: 5768 Error: 0 */
genomestart 202
trait 1 0.1 0 0 0.138798 0.288525 0 0.152405 0.556804 
trait 2 0.575462 0.845916 0 0 0.211199 0.456345 0 0.0659175 
trait 3 0.462539 0.0194212 0.0299596 0.412389 0.214686 0 0 0.171901 
node 1 2 1 1
node 2 2 1 1
node 3 2 1 1
node 4 1 1 1
node 5 1 1 1
node 6 3 1 1
node 7 1 1 1
node 8 1 1 1
node 9 2 1 1
node 10 2 1 1
node 11 2 1 3
node 12 3 0 2
node 13 3 0 2
node 14 2 0 2
node 15 2 0 2
node 16 1 0 2
gene 3 1 12 -4.53123 0 1 -4.53123 1
gene 1 2 13 -6.46485 0 2 -6.46485 1
gene 1 3 14 -4.7187 0 3 -4.7187 1
gene 3 4 15 -6.42933 0 4 -6.42933 1
gene 1 5 16 7.36031 0 5 7.36031 1
gene 3 6 12 -2.46544 0 2 -2.46544 0
gene 1 7 12 -3.0005 0 3 -3.0005 1
gene 3 8 12 8 0 4 8 1
gene 3 9 12 -3.12772 0 5 -3.12772 1
gene 3 10 12 -5.57619 0 6 -5.57619 1
gene 2 11 12 -8 0 7 -8 1
gene 2 1 13 -2.43141 0 5 -2.43141 1
gene 1 2 14 1.65875 0 6 1.65875 1
gene 1 3 15 -1.95571 0 7 -1.95571 1
gene 3 16 12 -1.70728 0 24 -1.70728 1
genomeend 202

/* Organism #153 Fitness: 5740 Error: 0 */
genomestart 153
trait 1 0.1 0 0 0.138798 0.288525 0 0.152405 0.556804 
trait 2 0.575462 0.845916 0 0 0.211199 0.456345 0 0.0659175 
trait 3 0.462539 0.0194212 0.0299596 0.412389 0.214686 0 0 0.171901 
node 1 2 1 1
node 2 2 1 1
node 3 2 1 1
node 4 1 1 1
node 5 1 1 1
node 6 3 1 1
node 7 1 1 1
node 8 1 1 1
node 9 2 1 1
node 10 2 1 1
node 11 2 1 3
node 12 3 0 2
node 13 3 0 2
node 14 2 0 2
node 15 2 0 2
node 16 1 0 2
gene 3 1 12 -5.52183 0 1 -5.52183 1
gene 1 2 13 -3.81786 0 2 -3.81786 1
gene 1 3 14 -5.38102 0 3 -5.38102 1
gene 3 4 15 -5.39235 0 4 -5.39235 1
gene 1 5 16 8 0 5 8 1
gene 3 6 12 -6.40462 0 2 -6.40462 1
gene 1 7 12 -2.80617 0 3 -2.80617 1
gene 3 8 12 5.24998 0 4 5.24998 1
gene 3 9 12 -1.83046 0 5 -1.83046 1
gene 3 10 12 -5.45328 0 6 -5.45328 1
gene 2 11 12 -8 0 7 -8 1
gene 2 1 13 -3.29143 0 5 -3.29143 1
gene 1 2 14 -0.802565 0 6 -0.802565 1
gene 1 3 15 -3.4246 0 7 -3.4246 1
gene 3 16 12 -2.03696 0 24 -2.03696 1
genomeend 153

/* Organism #193 Fitness: 5612 Error: 0 */
genomestart 193
trait 1 0.1 0 0 0.138798 0.288525 0 0.152405 0.556804 
trait 2 0.575462 0.845916 0 0 0.211199 0.456345 0 0.0659175 
trait 3 0.462539 0.0194212 0.0299596 0.412389 0.214686 0 0 0.171901 
node 1 2 1 1
node 2 2 1 1
node 3 2 1 1
node 4 1 1 1
node 5 1 1 1
node 6 3 1 1
node 7 1 1 1
node 8 1 1 1
node 9 2 1 1
node 10 2 1 1
node 11 2 1 3
node 12 3 0 2
node 13 3 0 2
node 14 2 0 2
node 15 2 0 2
node 16 1 0 2
gene 3 1 12 -2.39257 0 1 -2.39257 1
gene 1 2 13 -8 0 2 -8 1
gene 1 3 14 -3.73928 0 3 -3.73928 1
gene 3 4 15 -4.18897 0 4 -4.18897 1
gene 1 5 16 8 0 5 8 1
gene 3 6 12 -1.31818 0 2 -1.31818 0
gene 1 7 12 -4.49064 0 3 -4.49064 1
gene 3 8 12 5.59896 0 4 5.59896 1
gene 3 9 12 -3.68865 0 5 -3.68865 1
gene 3 10 12 -4.94591 0 6 -4.94591 1
gene 2 11 12 -5.91673 0 7 -5.91673 1
gene 2 1 13 -4.02623 0 5 -4.02623 1
gene 1 2 14 1.26026 0 6 1.26026 1
gene 1 3 15 -1.95571 0 7 -1.95571 1
gene 3 16 12 1.45306 0 24 1.45306 1
genomeend 193

/* Organism #192 Fitness: 5565 Error: 0 */
genomestart 192
trait 1 0.1 0 0 0.138798 0.288525 0 0.152405 0.556804 
trait 2 0.575462 0.845916 0 0 0.211199 0.456345 0 0.0659175 
trait 3 0.462539 0.0194212 0.0299596 0.412389 0.214686 0 0 0.171901 
node 1 2 1 1
node 2 2 1 1
node 3 2 1 1
node 4 1 1 1
node 5 1 1 1
node 6 3 1 1
node 7 1 1 1
node 8 1 1 1
node 9 2 1 1
node 10 2 1 1
node 11 2 1 3
node 12 3 0 2
node 13 3 0 2
node 14 2 0 2
node 15 2 0 2
node 16 1 0 2
gene 3 1 12 -5.29113 0 1 -5.29113 1
gene 1 2 13 -5.8519 0 2 -5.8519 1
gene 1 3 14 -4.5529 0 3 -4.5529 1
gene 3 4 15 -6.2578 0 4 -6.2578 1
gene 1 5 16 7.12579 0 5 7.12579 1
gene 3 6 12 -3.41365 0 2 -3.41365 1
gene 1 7 12 -2.56397 0 3 -2.56397 1
gene 3 8 12 7.62917 0 4 7.62917 1
gene 3 9 12 -3.67843 0 5 -3.67843 1
gene 3 10 12 -4.77878 0 6 -4.77878 1
gene 2 11 12 -8 0 7 -8 1
gene 2 1 13 -1.84088 0 5 -1.84088 1
gene 1 2 14 1.45733 0 6 1.45733 1
gene 1 3 15 -1.53175 0 7 -1.53175 1
gene 3 16 12 -1.08589 0 24 -1.08589 1
genomeend 192

/* Organism #372 Fitness: 5529 Error: 0 */
genomestart 372
trait 1 0.1 0 0 0.138798 0.288525 0 0.152405 0.556804 
trait 2 0.575462 0.845916 0 0 0.211199 0.456345 0 0.0659175 
trait 3 0.462539 0.0194212 0.0299596 0.412389 0.214686 0 0 0.171901 
node 1 2 1 1
node 2 2 1 1
node 3 2 1 1
node 4 1 1 1
node 5 1 1 1
node 6 3 1 1
node 7 1 1 1
node 8 1 1 1
node 9 2 1 1
node 10 2 1 1
node 11 2 1 3
node 12 3 0 2
node 13 3 0 2
node 14 2 0 2
node 15 2 0 2
node 16 1 0 2
gene 3 1 12 -6.71335 0 1 -6.71335 1
gene 1 2 13 -7.26332 0 2 -7.26332 1
gene 1 3 14 -4.25138 0 3 -4.25138 1
gene 3 4 15 -6.52032 0 4 -6.52032 1
gene 1 5 16 7.99101 0 5 7.99101 1
gene 3 6 12 -3.60523 0 2 -3.60523 1
gene 1 7 12 -1.69713 0 3 -1.69713 1
gene 3 8 12 8 0 4 8 1
gene 3 9 12 -1.92232 0 5 -1.92232 1
gene 3 10 12 -6.0519 0 6 -6.0519 1
gene 2 11 12 -8 0 7 -8 1
gene 2 1 13 -3.12441 0 5 -3.12441 1
gene 1 2 14 -0.938143 0 6 -0.938143 1
gene 1 3 15 -1.10779 0 7 -1.10779 1
gene 3 16 12 1.76611 0 24 1.76611 1
genomeend 372

/* Organism #368 Fitness: 5488 Error: 0 */
genomestart 368
trait 1 0.1 0 0 0.138798 0.288525 0 0.152405 0.556804 
trait 2 0.575462 0.845916 0 0 0.211199 0.456345 0 0.0659175 
trait 3 0.462539 0.0194212 0.0299596 0.412389 0.214686 0 0 0.171901 
node 1 2 1 1
node 2 2 1 1
node 3 2 1 1
node 4 1 1 1
node 5 1 1 1
node 6 3 1 1
node 7 1 1 1
node 8 1 1 1
node 9 2 1 1
node 10 2 1 1
node 11 2 1 3
node 12 3 0 2
node 13 3 0 2
node 14 2 0 2
node 15 2 0 2
node 16 1 0 2
gene 3 1 12 -4.40054 0 1 -4.40054 1
gene 1 2 13 -8 0 2 -8 1
gene 1 3 14 -4.48767 0 3 -4.48767 1
gene 3 4 15 -5.64783 0 4 -5.64783 1
gene 1 5 16 8 0 5 8 1
gene 3 6 12 -2.82716 0 2 -2.82716 0
gene 1 7 12 -5.23247 0 3 -5.23247 1
gene 3 8 12 5.53533 0 4 5.53533 1
gene 3 9 12 -0.939088 0 5 -0.939088 1
gene 3 10 12 -3.2551 0 6 -3.2551 1
gene 2 11 12 -8 0 7 -8 1
gene 2 1 13 -4.09925 0 5 -4.09925 1
gene 1 2 14 1.27956 0 6 1.27956 1
gene 1 3 15 0.064084 0 7 0.064084 1
gene 3 16 12 -3.36711 0 24 -3.36711 1
genomeend 368

/* Organism #133 Fitness: 5281 Error: 0 */
genomestart 133
trait 1 0.1 0 0 0.138798 0.288525 0 0.152405 0.556804 
trait 2 0.575462 0.845916 0 0 0.211199 0.456345 0 0.0659175 
trait 3 0.462539 0.0194212 0.0299596 0.412389 0.214686 0 0 0.171901 
node 1 2 1 1
node 2 2 1 1
node 3 2 1 1
node 4 1 1 1
node 5 1 1 1
node 6 3 1 1
node 7 1 1 1
node 8 1 1 1
node 9 2 1 1
node 10 2 1 1
node 11 2 1 3
node 12 3 0 2
node 13 3 0 2
node 14 2 0 2
node 15 2 0 2
node 16 1 0 2
node 23 1 0 0
gene 3 1 12 -7.88224 0 1 -7.88224 1
gene 1 2 13 -6.19163 0 2 -6.19163 1
gene 1 3 14 -7.08632 0 3 -7.08632 1
gene 3 4 15 -8 0 4 -8 1
gene 1 5 16 8 0 5 8 1
gene 3 6 12 -6.13964 0 2 -6.13964 0
gene 1 7 12 -1.51906 0 3 -1.51906 1
gene 3 8 12 7.0315 0 4 7.0315 1
gene 3 9 12 -2.75452 0 5 -2.75452 1
gene 3 10 12 -3.16057 0 6 -3.16057 1
gene 2 11 12 -8 0 7 -8 1
gene 2 1 13 -0.556204 0 5 -0.556204 1
gene 1 2 14 4.00601 0 6 4.00601 1
gene 1 3 15 0.899833 0 7 0.899833 1
gene 3 16 12 -1.40072 0 24 -1.40072 1
gene 3 6 23 -2.12264 0 63 -2.12264 1
gene 3 23 12 -3.33217 0 64 -3.33217 1
genomeend 133

/* Organism #125 Fitness: 5161 Error: 0 */
genomestart 125
trait 1 0.1 0 0 0.138798 0.288525 0 0.152405 0.556804 
trait 2 0.575462 0.845916 0 0 0.211199 0.456345 0 0.0659175 
trait 3 0.462539 0.0194212 0.0299596 0.412389 0.214686 0 0 0.171901 
node 1 2 1 1
node 2 2 1 1
node 3 2 1 1
node 4 1 1 1
node 5 1 1 1
node 6 3 1 1
node 7 1 1 1
node 8 1 1 1
node 9 2 1 1
node 10 2 1 1
node 11 2 1 3
node 12 3 0 2
node 13 3 0 2
node 14 2 0 2
node 15 2 0 2
node 16 1 0 2
gene 3 1 12 -6.05102 0 1 -6.05102 1
gene 1 2 13 -4.76382 0 2 -4.76382 1
gene 1 3 14 -5.86657 0 3 -5.86657 1
gene 3 4 15 -7.01411 0 4 -7.01411 1
gene 1 5 16 7.36031 0 5 7.36031 1
gene 3 6 12 -4.65927 0 2 -4.65927 0
gene 1 7 12 -1.03808 0 3 -1.03808 1
gene 3 8 12 8 0 4 8 1
gene 3 9 12 -3.39327 0 5 -3.39327 1
gene 3 10 12 -3.90332 0 6 -3.90332 1
gene 2 11 12 -8 0 7 -8 1
gene 2 1 13 -1.25035 0 5 -1.25035 1
gene 1 2 14 1.53447 0 6 1.53447 1
gene 1 3 15 -1.10779 0 7 -1.10779 1
gene 3 16 12 -0.464491 0 24 -0.464491 1
genomeend 125

/* Organism #332 Fitness: 4834 Error: 0 */
genomestart 332
trait 1 0.1 0 0 0.138798 0.288525 0 0.152405 0.556804 
trait 2 0.575462 0.845916 0 0 0.211199 0.456345 0 0.0659175 
trait 3 0.462539 0.0194212 0.0299596 0.412389 0.214686 0 0 0.171901 
node 1 2 1 1
node 2 2 1 1
node 3 2 1 1
node 4 3 1 1
node 5 1 1 1
node 6 3 1 1
node 7 1 1 1
node 8 1 1 1
node 9 2 1 1
node 10 2 1 1
node 11 2 1 3
node 12 3 0 2
node 13 3 0 2
node 14 2 0 2
node 15 2 0 2
node 16 1 0 2
gene 3 1 12 -3.31004 0 1 -3.31004 1
gene 1 2 13 -5.02407 0 2 -5.02407 1
gene 1 3 14 -3.79902 0 3 -3.79902 1
gene 3 4 15 -1.96173 0 4 -1.96173 1
gene 1 5 16 6.1797 0 5 6.1797 1
gene 3 6 12 -0.766172 0 2 -0.766172 0
gene 1 7 12 -1.62671 0 3 -1.62671 1
gene 3 8 12 8 0 4 8 1
gene 3 9 12 -2.48241 0 5 -2.48241 1
gene 3 10 12 2.13042 0 6 2.13042 1
gene 2 11 12 -8 0 7 -8 1
gene 2 1 13 -3.39511 0 5 -3.39511 1
gene 1 2 14 0.311208 0 6 0.311208 1
gene 1 3 15 -1.07082 0 7 -1.07082 1
gene 3 16 12 -0.556352 0 24 -0.556352 1
genomeend 332

/* Organism #342 Fitness: 4429 Error: 0 */
genomestart 342
trait 1 0.1 0 0 0.138798 0.288525 0 0.152405 0.556804 
trait 2 0.575462 0.845916 0 0 0.211199 0.456345 0 0.0659175 
trait 3 0.462539 0.0194212 0.0299596 0.412389 0.214686 0 0 0.171901 
node 1 2 1 1
node 2 2 1 1
node 3 2 1 1
node 4 1 1 1
node 5 1 1 1
node 6 3 1 1
node 7 1 1 1
node 8 1 1 1
node 9 2 1 1
node 10 2 1 1
node 11 2 1 3
node 12 3 0 2
node 13 3 0 2
node 14 2 0 2
node 15 2 0 2
node 16 1 0 2
gene 3 1 12 -5.90623 0 1 -5.90623 1
gene 1 2 13 -3.98623 0 2 -3.98623 1
gene 1 3 14 -5.71398 0 3 -5.71398 1
gene 3 4 15 -4.98808 0 4 -4.98808 1
gene 1 5 16 8 0 5 8 1
gene 3 6 12 -4.48531 0 2 -4.48531 0
gene 1 7 12 -1.85396 0 3 -1.85396 1
gene 3 8 12 5.92982 0 4 5.92982 1
gene 3 9 12 -3.86864 0 5 -3.86864 1
gene 3 10 12 -6.23802 0 6 -6.23802 1
gene 2 11 12 -8 0 7 -8 1
gene 2 1 13 -2.80145 0 5 -2.80145 1
gene 1 2 14 2.69814 0 6 2.69814 1
gene 1 3 15 -1.53175 0 7 -1.53175 1
gene 3 16 12 -1.51406 0 24 -1.51406 1
genomeend 342

/* Organism #425 Fitness: 6157 Error: 0 */
genomestart 425
trait 1 0.1 0 0 0.138798 0.288525 0 0.152405 0.556804 
trait 2 0.575462 0.845916 0 0 0.211199 0.456345 0 0.0659175 
trait 3 0.462539 0.0194212 0.0299596 0.412389 0.214686 0 0 0.171901 
node 1 2 1 1
node 2 2 1 1
node 3 2 1 1
node 4 1 1 1
node 5 1 1 1
node 6 3 1 1
node 7 1 1 1
node 8 1 1 1
node 9 2 1 1
node 10 2 1 1
node 11 2 1 3
node 12 3 0 2
node 13 3 0 2
node 14 2 0 2
node 15 2 0 2
node 16 1 0 2
gene 3 1 12 -4.81837 0 1 -4.81837 1
gene 1 2 13 -3.05108 0 2 -3.05108 1
gene 1 3 14 -8 0 3 -8 1
gene 3 4 15 -5.06191 0 4 -5.06191 1
gene 1 5 16 6.36697 0 5 6.36697 1
gene 3 6 12 -5.13154 0 2 -5.13154 1
gene 1 7 12 -0.871605 0 3 -0.871605 1
gene 3 8 12 6.56022 0 4 6.56022 1
gene 3 9 12 -2.55306 0 5 -2.55306 1
gene 3 10 12 -3.06291 0 6 -3.06291 1
gene 2 11 12 -8 0 7 -8 1
gene 2 1 13 -0.927843 0 5 -0.927843 1
gene 1 2 14 1.58261 0 6 1.58261 1
gene 1 3 15 -0.892709 0 7 -0.892709 1
gene 3 16 12 -0.464491 0 24 -0.464491 1
genomeend 425

/* Species #2 : (Size 25) (AF 0) (Age 1)  */


/* Organism #57 Fitness: 407122 Error: 0 */
genomestart 57
trait 1 0.1 0 0 0.134794 0.223715 0.194623 0.0145529 0.000280895 
trait 2 0.13125 0.00965237 0.0134131 0.0354663 0.0815258 0.00213975 0.15371 0.0638576 
trait 3 0.35645 0.0388424 0.0798502 0.42098 0.261101 0 0 0.182342 
node 1 1 1 1
node 2 1 1 1
node 3 2 1 1
node 4 3 1 1
node 5 3 1 1
node 6 3 1 1
node 7 1 1 1
node 8 3 1 1
node 9 2 1 1
node 10 2 1 1
node 11 3 1 3
node 12 2 0 2
node 13 1 0 2
node 14 1 0 2
node 15 3 0 2
node 16 1 0 2
node 20 1 0 0
gene 3 1 12 4.59403 0 1 4.59403 1
gene 1 2 13 1.0323 0 2 1.0323 1
gene 1 3 14 0.979873 0 3 0.979873 0
gene 3 4 15 2.43344 0 4 2.43344 1
gene 1 5 16 -2.08691 0 5 -2.08691 1
gene 3 6 12 -0.478378 0 2 -0.478378 1
gene 2 7 12 1.53829 0 3 1.53829 1
gene 2 8 12 8 0 4 8 1
gene 1 9 12 0.332194 0 5 0.332194 1
gene 2 10 12 3.74997 0 6 3.74997 1
gene 2 11 12 2.73301 0 7 2.73301 1
gene 3 1 13 8 0 5 8 1
gene 1 2 14 0.413454 0 6 0.413454 1
gene 1 3 15 -7.57977 0 7 -7.57977 1
gene 2 8 13 8 0 12 8 1
gene 1 3 20 -3.38977 0 18 -3.38977 1
gene 1 20 14 -1.83339 0 19 -1.83339 1
genomeend 57

/* Organism #234 Fitness: 386474 Error: 0 */
genomestart 234
trait 1 0.1 0 0 0.115538 0.19449 0.16682 0.0145529 0.000292131 
trait 2 0.13125 0.00965237 0.0118245 0.0354663 0.0815258 0.00213975 0.15371 0.0641151 
trait 3 0.35645 0.0388424 0.0723666 0.42098 0.262817 0 0 0.182342 
node 1 1 1 1
node 2 1 1 1
node 3 2 1 1
node 4 3 1 1
node 5 3 1 1
node 6 3 1 1
node 7 1 1 1
node 8 3 1 1
node 9 2 1 1
node 10 2 1 1
node 11 3 1 3
node 12 2 0 2
node 13 1 0 2
node 14 1 0 2
node 15 3 0 2
node 16 1 0 2
node 20 1 0 0
gene 3 1 12 4.59403 0 1 4.59403 1
gene 1 2 13 1.0323 0 2 1.0323 1
gene 1 3 14 -0.88023 0 3 -0.88023 0
gene 3 4 15 3.22654 0 4 3.22654 1
gene 1 5 16 -4.21757 0 5 -4.21757 1
gene 3 6 12 -1.27102 0 2 -1.27102 1
gene 2 7 12 -1.46847 0 3 -1.46847 1
gene 2 8 12 8 0 4 8 1
gene 1 9 12 0.332194 0 5 0.332194 1
gene 2 10 12 1.24361 0 6 1.24361 1
gene 2 11 12 1.45348 0 7 1.45348 1
gene 3 1 13 8 0 5 8 1
gene 1 2 14 0.413454 0 6 0.413454 1
gene 1 3 15 -7.37705 0 7 -7.37705 1
gene 2 8 13 8 0 12 8 1
gene 1 3 20 -5.18029 0 18 -5.18029 1
gene 1 20 14 1.27138 0 19 1.27138 1
genomeend 234

/* Organism #52 Fitness: 379873 Error: 0 */
genomestart 52
trait 1 0.1 0 0 0.0577686 0.106814 0.0834102 0.0145529 0.000325839 
trait 2 0.13125 0.00965237 0.00705859 0.0354663 0.0815258 0.00213975 0.15371 0.0648876 
trait 3 0.35645 0.0388424 0.0499158 0.42098 0.267963 0 0 0.182342 
node 1 1 1 1
node 2 1 1 1
node 3 2 1 1
node 4 3 1 1
node 5 3 1 1
node 6 3 1 1
node 7 1 1 1
node 8 3 1 1
node 9 2 1 1
node 10 2 1 1
node 11 3 1 3
node 12 2 0 2
node 13 1 0 2
node 14 1 0 2
node 15 3 0 2
node 16 1 0 2
node 20 1 0 0
gene 3 1 12 4.06535 0 1 4.06535 1
gene 1 2 13 0.465092 0 2 0.465092 1
gene 1 3 14 3.56333 0 3 3.56333 0
gene 3 4 15 1.68202 0 4 1.68202 1
gene 1 5 16 -4.21757 0 5 -4.21757 1
gene 3 6 12 1.24751 0 2 1.24751 1
gene 2 7 12 0.253126 0 3 0.253126 1
gene 2 8 12 4.0542 0 4 4.0542 1
gene 1 9 12 -0.645428 0 5 -0.645428 1
gene 2 10 12 1.24361 0 6 1.24361 1
gene 2 11 12 1.45348 0 7 1.45348 1
gene 3 1 13 5.25142 0 5 5.25142 1
gene 1 2 14 0.351182 0 6 0.351182 1
gene 1 3 15 -3.25688 0 7 -3.25688 1
gene 2 8 13 3.25731 0 12 3.25731 1
gene 1 3 20 -5.18029 0 18 -5.18029 1
gene 1 20 14 1.27138 0 19 1.27138 1
genomeend 52

/* Organism #89 Fitness: 370691 Error: 0 */
genomestart 89
trait 1 0.1 0 0 0.0192562 0.0483633 0.0278033 0.0145529 0.00034831 
trait 2 0.13125 0.00965237 0.000704072 0.0354663 0.0815258 0.00213975 0.15371 0.0659175 
trait 3 0.35645 0.0388424 0.0399377 0.42098 0.27025 0 0 0.182342 
node 1 1 1 1
node 2 1 1 1
node 3 2 1 1
node 4 3 1 1
node 5 3 1 1
node 6 3 1 1
node 7 1 1 1
node 8 3 1 1
node 9 2 1 1
node 10 2 1 1
node 11 3 1 3
node 12 2 0 2
node 13 1 0 2
node 14 1 0 2
node 15 3 0 2
node 16 1 0 2
node 20 1 0 0
gene 3 1 12 4.24297 0 1 4.24297 1
gene 1 2 13 -1.05301 0 2 -1.05301 1
gene 1 3 14 3.12825 0 3 3.12825 0
gene 3 4 15 1.68202 0 4 1.68202 1
gene 1 5 16 -2.34147 0 5 -2.34147 1
gene 3 6 12 4.19135 0 2 4.19135 1
gene 2 7 12 0.253126 0 3 0.253126 1
gene 2 8 12 4.53181 0 4 4.53181 1
gene 1 9 12 -0.645428 0 5 -0.645428 1
gene 2 10 12 1.24361 0 6 1.24361 1
gene 2 11 12 1.45348 0 7 1.45348 1
gene 3 1 13 5.50117 0 5 5.50117 1
gene 1 2 14 0.351182 0 6 0.351182 1
gene 1 3 15 -3.25688 0 7 -3.25688 1
gene 2 8 13 3.25731 0 12 3.25731 1
gene 1 3 20 -2.52609 0 18 -2.52609 1
gene 1 20 14 -0.858506 0 19 -0.858506 1
genomeend 89

/* Organism #212 Fitness: 215492 Error: 0 */
genomestart 212
trait 1 0.1 0 0 0.134794 0.223715 0.194623 0.0145529 0.000280895 
trait 2 0 0.00965237 0.0134131 0.0354663 0.0815258 0.00213975 0.442049 0.122728 
trait 3 0.35645 0.0388424 0.0798502 0.42098 0.261101 0 0 0.182342 
node 1 1 1 1
node 2 1 1 1
node 3 2 1 1
node 4 3 1 1
node 5 3 1 1
node 6 3 1 1
node 7 1 1 1
node 8 3 1 1
node 9 2 1 1
node 10 2 1 1
node 11 3 1 3
node 12 2 0 2
node 13 1 0 2
node 14 1 0 2
node 15 3 0 2
node 16 1 0 2
node 20 1 0 0
gene 3 1 12 5.91724 0 1 5.91724 1
gene 1 2 13 -1.35516 0 2 -1.35516 1
gene 1 3 14 -2.33734 0 3 -2.33734 0
gene 3 4 15 4.35214 0 4 4.35214 1
gene 1 5 16 -2.79105 0 5 -2.79105 1
gene 3 6 12 0.956297 0 2 0.956297 1
gene 2 7 12 -2.66014 0 3 -2.66014 1
gene 2 8 12 7.72254 0 4 7.72254 1
gene 1 9 12 -0.173116 0 5 -0.173116 1
gene 2 10 12 2.69021 0 6 2.69021 1
gene 2 11 12 4.7731 0 7 4.7731 1
gene 3 1 13 7.01489 0 5 7.01489 1
gene 1 2 14 -0.033871 0 6 -0.033871 1
gene 1 3 15 -8 0 7 -8 1
gene 2 8 13 7.40634 0 12 7.40634 1
gene 1 3 20 -3.38977 0 18 -3.38977 1
gene 1 20 14 -1.83339 0 19 -1.83339 1
genomeend 212

/* Organism #803 Fitness: 212475 Error: 0 */
genomestart 803
trait 1 0.1 0 0 0.0962811 0.165264 0.139017 0.0145529 0.000303367 
trait 2 0.13125 0.00965237 0.0134131 0.0354663 0.0815258 0.00213975 0.15371 0.0638576 
trait 3 0.35645 0.0388424 0.059894 0.42098 0.265676 0 0 0.182342 
node 1 1 1 1
node 2 1 1 1
node 3 2 1 1
node 4 3 1 1
node 5 3 1 1
node 6 3 1 1
node 7 1 1 1
node 8 3 1 1
node 9 2 1 1
node 10 2 1 1
node 11 3 1 3
node 12 2 0 2
node 13 1 0 2
node 14 1 0 2
node 15 3 0 2
node 16 1 0 2
node 20 1 0 0
gene 3 1 12 4.06535 0 1 4.06535 1
gene 1 2 13 0.465092 0 2 0.465092 1
gene 1 3 14 3.56333 0 3 3.56333 1
gene 3 4 15 1.74359 0 4 1.74359 1
gene 1 5 16 -4.21757 0 5 -4.21757 1
gene 3 6 12 1.24751 0 2 1.24751 1
gene 2 7 12 -2.95223 0 3 -2.95223 1
gene 2 8 12 4.0542 0 4 4.0542 1
gene 1 9 12 2.38777 0 5 2.38777 1
gene 2 10 12 1.3658 0 6 1.3658 1
gene 2 11 12 0.782608 0 7 0.782608 1
gene 3 1 13 5.25142 0 5 5.25142 1
gene 1 2 14 -1.40043 0 6 -1.40043 1
gene 1 3 15 -5.13158 0 7 -5.13158 1
gene 2 8 13 3.06748 0 12 3.06748 1
gene 1 3 20 -5.18029 0 18 -5.18029 1
gene 1 20 14 1.27138 0 19 1.27138 1
genomeend 803

/* Organism #308 Fitness: 204916 Error: 0 */
genomestart 308
trait 1 0.1 0 0 0.0770249 0.136039 0.111214 0.0145529 0.000314603 
trait 2 0.13125 0.00965237 0.0102358 0.0354663 0.0815258 0.00213975 0.15371 0.0643726 
trait 3 0.35645 0.0388424 0.0549049 0.42098 0.266819 0 0 0.182342 
node 1 1 1 1
node 2 1 1 1
node 3 2 1 1
node 4 3 1 1
node 5 3 1 1
node 6 3 1 1
node 7 1 1 1
node 8 3 1 1
node 9 2 1 1
node 10 2 1 1
node 11 3 1 3
node 12 2 0 2
node 13 1 0 2
node 14 1 0 2
node 15 3 0 2
node 16 1 0 2
node 20 1 0 0
gene 3 1 12 4.06535 0 1 4.06535 1
gene 1 2 13 0.465092 0 2 0.465092 1
gene 1 3 14 3.56333 0 3 3.56333 0
gene 3 4 15 1.7128 0 4 1.7128 1
gene 1 5 16 -4.21757 0 5 -4.21757 1
gene 3 6 12 1.24751 0 2 1.24751 1
gene 2 7 12 -1.34955 0 3 -1.34955 1
gene 2 8 12 4.0542 0 4 4.0542 1
gene 1 9 12 0.871171 0 5 0.871171 1
gene 2 10 12 1.30471 0 6 1.30471 1
gene 2 11 12 1.11804 0 7 1.11804 1
gene 3 1 13 5.25142 0 5 5.25142 1
gene 1 2 14 -0.524624 0 6 -0.524624 1
gene 1 3 15 -4.19423 0 7 -4.19423 1
gene 2 8 13 3.1624 0 12 3.1624 1
gene 1 3 20 -5.18029 0 18 -5.18029 1
gene 1 20 14 1.27138 0 19 1.27138 1
genomeend 308

/* Organism #236 Fitness: 204725 Error: 0 */
genomestart 236
trait 1 0.1 0 0 0.115538 0.19449 0.16682 0.0145529 0.000292131 
trait 2 0.065625 0.00965237 0.0118245 0.0354663 0.0815258 0.00213975 0.297879 0.0935502 
trait 3 0.35645 0.0388424 0.0723666 0.42098 0.262817 0 0 0.182342 
node 1 1 1 1
node 2 1 1 1
node 3 2 1 1
node 4 3 1 1
node 5 3 1 1
node 6 3 1 1
node 7 1 1 1
node 8 3 1 1
node 9 2 1 1
node 10 2 1 1
node 11 3 1 3
node 12 2 0 2
node 13 1 0 2
node 14 1 0 2
node 15 3 0 2
node 16 1 0 2
node 20 1 0 0
gene 3 1 12 6.83421 0 1 6.83421 1
gene 1 2 13 0.251321 0 2 0.251321 1
gene 1 3 14 0.955458 0 3 0.955458 0
gene 3 4 15 2.76273 0 4 2.76273 1
gene 1 5 16 -2.4872 0 5 -2.4872 1
gene 3 6 12 1.11354 0 2 1.11354 1
gene 2 7 12 0.360032 0 3 0.360032 1
gene 2 8 12 8 0 4 8 1
gene 1 9 12 1.15442 0 5 1.15442 1
gene 2 10 12 3.9777 0 6 3.9777 1
gene 2 11 12 3.04477 0 7 3.04477 1
gene 3 1 13 5.81687 0 5 5.81687 1
gene 1 2 14 0.449046 0 6 0.449046 1
gene 1 3 15 -6.62426 0 7 -6.62426 1
gene 2 8 13 8 0 12 8 1
gene 1 3 20 -2.31605 0 18 -2.31605 1
gene 1 20 14 -0.281005 0 19 -0.281005 1
genomeend 236

/* Organism #339 Fitness: 174023 Error: 0 */
genomestart 339
trait 1 0.1 0 0 0.134794 0.223715 0.194623 0.0145529 0.000280895 
trait 2 0.13125 0.00965237 0.0134131 0.0354663 0.0815258 0.00213975 0.15371 0.0638576 
trait 3 0.35645 0.0388424 0.0798502 0.42098 0.261101 0 0 0.182342 
node 1 1 1 1
node 2 1 1 1
node 3 2 1 1
node 4 3 1 1
node 5 3 1 1
node 6 3 1 1
node 7 1 1 1
node 8 3 1 1
node 9 2 1 1
node 10 2 1 1
node 11 3 1 3
node 12 2 0 2
node 13 1 0 2
node 14 1 0 2
node 15 3 0 2
node 16 1 0 2
node 20 1 0 0
gene 3 1 12 1.66562 0 1 1.66562 1
gene 1 2 13 0.319388 0 2 0.319388 1
gene 1 3 14 0.979873 0 3 0.979873 0
gene 3 4 15 3.30345 0 4 3.30345 1
gene 1 5 16 -2.40331 0 5 -2.40331 1
gene 3 6 12 1.31123 0 2 1.31123 1
gene 2 7 12 1.53829 0 3 1.53829 1
gene 2 8 12 8 0 4 8 1
gene 1 9 12 -1.32962 0 5 -1.32962 1
gene 2 10 12 -1.1935 0 6 -1.1935 1
gene 2 11 12 -1.15169 0 7 -1.15169 1
gene 3 1 13 -0.99147 0 5 -0.99147 1
gene 1 2 14 -1.28223 0 6 -1.28223 1
gene 3 3 15 -8 0 7 -8 1
gene 2 8 13 8 0 12 8 1
gene 1 3 20 -3.57174 0 18 -3.57174 1
gene 1 20 14 -1.83339 0 19 -1.83339 1
genomeend 339

/* Organism #793 Fitness: 173065 Error: 0 */
genomestart 793
trait 1 0.1 0 0 0.0192562 0.0483633 0.0278033 0.0145529 0.00034831 
trait 2 0.13125 0.00965237 0.000704072 0.0354663 0.0815258 0.00213975 0.15371 0.0659175 
trait 3 0.35645 0.0388424 0.0399377 0.42098 0.27025 0 0 0.182342 
node 1 1 1 1
node 2 1 1 1
node 3 2 1 1
node 4 3 1 1
node 5 3 1 1
node 6 3 1 1
node 7 1 1 1
node 8 3 1 1
node 9 2 1 1
node 10 2 1 1
node 11 3 1 3
node 12 2 0 2
node 13 1 0 2
node 14 1 0 2
node 15 3 0 2
node 16 1 0 2
node 20 1 0 0
gene 3 1 12 4.24297 0 1 4.24297 1
gene 1 2 13 -1.05301 0 2 -1.05301 1
gene 1 3 14 3.12825 0 3 3.12825 0
gene 3 4 15 1.68202 0 4 1.68202 1
gene 1 5 16 -2.34147 0 5 -2.34147 1
gene 3 6 12 4.19135 0 2 4.19135 1
gene 2 7 12 0.253126 0 3 0.253126 1
gene 2 8 12 4.53181 0 4 4.53181 1
gene 1 9 12 -0.645428 0 5 -0.645428 1
gene 2 10 12 1.24361 0 6 1.24361 1
gene 2 11 12 1.45348 0 7 1.45348 1
gene 3 1 13 5.50117 0 5 5.50117 1
gene 1 2 14 0.351182 0 6 0.351182 1
gene 1 3 15 -3.25688 0 7 -3.25688 1
gene 2 8 13 3.25731 0 12 3.25731 1
gene 1 3 20 -2.52609 0 18 -2.52609 1
gene 1 20 14 -0.858506 0 19 -0.858506 1
genomeend 793

/* Organism #213 Fitness: 165025 Error: 0 */
genomestart 213
trait 1 0 0 0 0 0.223715 0 0 0.000280895 
trait 2 0.13125 0.00965237 0.0134131 0.0354663 0.0815258 0.00213975 0.15371 0.0638576 
trait 3 0.35645 0.0388424 0.0798502 0.42098 0.261101 0 0 0.182342 
node 1 1 1 1
node 2 1 1 1
node 3 2 1 1
node 4 3 1 1
node 5 3 1 1
node 6 3 1 1
node 7 1 1 1
node 8 3 1 1
node 9 2 1 1
node 10 2 1 1
node 11 3 1 3
node 12 2 0 2
node 13 1 0 2
node 14 1 0 2
node 15 3 0 2
node 16 1 0 2
node 20 1 0 0
gene 3 1 12 3.70961 0 1 3.70961 1
gene 1 2 13 -0.168374 0 2 -0.168374 1
gene 1 3 14 -1.50426 0 3 -1.50426 0
gene 3 4 15 3.17557 0 4 3.17557 1
gene 1 5 16 0.389819 0 5 0.389819 1
gene 3 6 12 -0.238808 0 2 -0.238808 1
gene 2 7 12 0.141915 0 3 0.141915 1
gene 2 8 12 6.26144 0 4 6.26144 1
gene 1 9 12 2.16773 0 5 2.16773 1
gene 2 10 12 4.01563 0 6 4.01563 1
gene 2 11 12 1.11423 0 7 1.11423 1
gene 3 1 13 7.09108 0 5 7.09108 1
gene 1 2 14 -1.87604 0 6 -1.87604 1
gene 1 3 15 -8 0 7 -8 1
gene 2 8 13 8 0 12 8 1
gene 1 3 20 -1.00765 0 18 -1.00765 1
gene 1 20 14 -1.98354 0 19 -1.98354 1
genomeend 213

/* Organism #157 Fitness: 142624 Error: 0 */
genomestart 157
trait 1 0.1 0 0 0.134794 0.223715 0.194623 0.0145529 0.000280895 
trait 2 0.13125 0.00965237 0.0134131 0.0354663 0.0815258 0.00213975 0.15371 0.0638576 
trait 3 0.35645 0.0388424 0.0798502 0.42098 0.261101 0 0 0.182342 
node 1 1 1 1
node 2 1 1 1
node 3 2 1 1
node 4 3 1 1
node 5 3 1 1
node 6 3 1 1
node 7 1 1 1
node 8 3 1 1
node 9 2 1 1
node 10 2 1 1
node 11 3 1 3
node 12 2 0 2
node 13 1 0 2
node 14 1 0 2
node 15 3 0 2
node 16 1 0 2
node 20 1 0 0
gene 3 1 12 4.61189 0 1 4.61189 1
gene 1 2 13 -0.526967 0 2 -0.526967 1
gene 1 3 14 1.75176 0 3 1.75176 0
gene 3 4 15 3.86598 0 4 3.86598 1
gene 1 5 16 -3.93885 0 5 -3.93885 1
gene 3 6 12 -1.44803 0 2 -1.44803 1
gene 2 7 12 -3.9642 0 3 -3.9642 1
gene 2 8 12 8 0 4 8 1
gene 1 9 12 0.584048 0 5 0.584048 1
gene 2 10 12 3.07886 0 6 3.07886 1
gene 2 11 12 4.91119 0 7 4.91119 1
gene 3 1 13 8 0 5 8 1
gene 1 2 14 0.944858 0 6 0.944858 1
gene 1 3 15 -8 0 7 -8 1
gene 2 8 13 1.34777 0 12 1.34777 1
gene 1 3 20 -3.38977 0 18 -3.38977 1
gene 1 20 14 0.269784 0 19 0.269784 1
genomeend 157

/* Organism #739 Fitness: 140531 Error: 0 */
genomestart 739
trait 1 0.1 0 0 0.134794 0.223715 0.194623 0.0145529 0.000280895 
trait 2 0.13125 0.00965237 0.0134131 0.0354663 0.0815258 0.00213975 0.15371 0.0638576 
trait 3 0.35645 0.0388424 0.0798502 0.42098 0.261101 0 0 0.182342 
node 1 1 1 1
node 2 1 1 1
node 3 2 1 1
node 4 3 1 1
node 5 3 1 1
node 6 3 1 1
node 7 1 1 1
node 8 3 1 1
node 9 2 1 1
node 10 2 1 1
node 11 3 1 3
node 12 2 0 2
node 13 1 0 2
node 14 1 0 2
node 15 3 0 2
node 16 1 0 2
node 20 1 0 0
gene 3 1 12 6.82242 0 1 6.82242 1
gene 1 2 13 1.0323 0 2 1.0323 1
gene 1 3 14 -0.88023 0 3 -0.88023 0
gene 3 4 15 3.22654 0 4 3.22654 1
gene 1 5 16 -1.9524 0 5 -1.9524 1
gene 3 6 12 -1.27102 0 2 -1.27102 1
gene 2 7 12 -1.46847 0 3 -1.46847 1
gene 2 8 12 7.26354 0 4 7.26354 1
gene 1 9 12 0.332194 0 5 0.332194 1
gene 2 10 12 2.20779 0 6 2.20779 1
gene 2 11 12 2.73301 0 7 2.73301 1
gene 3 1 13 6.83033 0 5 6.83033 1
gene 1 2 14 1.53005 0 6 1.53005 1
gene 1 3 15 -7.37705 0 7 -7.37705 1
gene 2 8 13 8 0 12 8 1
gene 1 3 20 -3.38977 0 18 -3.38977 1
gene 1 20 14 -1.83339 0 19 -1.83339 1
genomeend 739

/* Organism #356 Fitness: 136382 Error: 0 */
genomestart 356
trait 1 0.1 0 0 0.0385124 0.0775885 0.0556067 0.0145529 0.000337074 
trait 2 0.13125 0.00965237 0.00388133 0.0354663 0.0815258 0.00213975 0.15371 0.0654025 
trait 3 0.35645 0.0388424 0.0449268 0.42098 0.269107 0 0 0.182342 
node 1 1 1 1
node 2 1 1 1
node 3 2 1 1
node 4 3 1 1
node 5 3 1 1
node 6 3 1 1
node 7 1 1 1
node 8 3 1 1
node 9 2 1 1
node 10 2 1 1
node 11 3 1 3
node 12 2 0 2
node 13 1 0 2
node 14 1 0 2
node 15 3 0 2
node 16 1 0 2
node 20 1 0 0
gene 3 1 12 4.15416 0 1 4.15416 1
gene 1 2 13 -0.293959 0 2 -0.293959 1
gene 1 3 14 3.34579 0 3 3.34579 0
gene 3 4 15 1.68202 0 4 1.68202 1
gene 1 5 16 -3.27952 0 5 -3.27952 1
gene 3 6 12 2.71943 0 2 2.71943 1
gene 2 7 12 0.253126 0 3 0.253126 1
gene 2 8 12 4.293 0 4 4.293 1
gene 1 9 12 -0.645428 0 5 -0.645428 1
gene 2 10 12 1.24361 0 6 1.24361 1
gene 2 11 12 1.45348 0 7 1.45348 1
gene 3 1 13 5.3763 0 5 5.3763 1
gene 1 2 14 0.351182 0 6 0.351182 1
gene 1 3 15 -3.25688 0 7 -3.25688 1
gene 2 8 13 3.25731 0 12 3.25731 1
gene 1 3 20 -3.85319 0 18 -3.85319 1
gene 1 20 14 0.206437 0 19 0.206437 1
genomeend 356

/* Organism #386 Fitness: 93187 Error: 0 */
genomestart 386
trait 1 0.0527879 0 0 0 0.209102 0 0.0145529 0.000286513 
trait 2 0.13125 0.00965237 0.0126188 0.0354663 0.0815258 0.00213975 0.15371 0.0639863 
trait 3 0.35645 0.0388424 0.0761084 0.42098 0.261959 0 0 0.182342 
node 1 1 1 1
node 2 1 1 1
node 3 2 1 1
node 4 3 1 1
node 5 3 1 1
node 6 3 1 1
node 7 1 1 1
node 8 3 1 1
node 9 2 1 1
node 10 2 1 1
node 11 3 1 3
node 12 2 0 2
node 13 1 0 2
node 14 1 0 2
node 15 3 0 2
node 16 1 0 2
node 20 1 0 0
gene 2 1 12 4.59403 0 1 4.59403 1
gene 1 2 13 1.0323 0 2 1.0323 1
gene 1 3 14 0.0498216 0 3 0.0498216 0
gene 3 4 15 2.82999 0 4 2.82999 1
gene 1 5 16 -3.15224 0 5 -3.15224 1
gene 3 6 12 -0.874699 0 2 -0.874699 1
gene 2 7 12 0.0349099 0 3 0.0349099 1
gene 2 8 12 8 0 4 8 1
gene 1 9 12 0.332194 0 5 0.332194 1
gene 2 10 12 2.49679 0 6 2.49679 1
gene 2 11 12 2.09325 0 7 2.09325 1
gene 3 1 13 8 0 5 8 1
gene 1 2 14 0.413454 0 6 0.413454 1
gene 1 3 15 -7.47841 0 7 -7.47841 1
gene 2 8 13 8 0 12 8 1
gene 1 3 20 -4.28503 0 18 -4.28503 1
gene 1 20 14 -0.281005 0 19 -0.281005 1
genomeend 386

/* Organism #351 Fitness: 71057.8 Error: 0 */
genomestart 351
trait 1 0.1 0 0 0.134794 0.223715 0.194623 0.0145529 0.000280895 
trait 2 0.13125 0.00965237 0.0134131 0.0354663 0.0815258 0.00213975 0.15371 0.0638576 
trait 3 0.35645 0.0388424 0.0798502 0.42098 0.261101 0 0 0.182342 
node 1 1 1 1
node 2 1 1 1
node 3 2 1 1
node 4 3 1 1
node 5 3 1 1
node 6 3 1 1
node 7 1 1 1
node 8 3 1 1
node 9 2 1 1
node 10 2 1 1
node 11 3 1 3
node 12 2 0 2
node 13 1 0 2
node 14 1 0 2
node 15 3 0 2
node 16 1 0 2
node 20 1 0 0
gene 3 1 12 -0.211112 0 1 -0.211112 1
gene 1 2 13 2.06291 0 2 2.06291 1
gene 1 3 14 -1.41316 0 3 -1.41316 0
gene 3 4 15 2.93509 0 4 2.93509 1
gene 1 5 16 -0.377263 0 5 -0.377263 1
gene 3 6 12 1.51372 0 2 1.51372 1
gene 2 7 12 1.78442 0 3 1.78442 1
gene 3 8 12 8 0 4 8 1
gene 1 9 12 1.90809 0 5 1.90809 1
gene 2 10 12 1.69401 0 6 1.69401 1
gene 2 11 12 3.62583 0 7 3.62583 1
gene 3 1 13 8 0 5 8 1
gene 1 2 14 0.621361 0 6 0.621361 1
gene 1 3 15 -8 0 7 -8 1
gene 2 8 13 8 0 12 8 1
gene 1 3 20 -2.93588 0 18 -2.93588 1
gene 1 20 14 2.25166 0 19 2.25166 1
genomeend 351

/* Organism #228 Fitness: 12693 Error: 0 */
genomestart 228
trait 1 0.1 0 0 0.0192562 0.0483633 0.0278033 0.0145529 0.00034831 
trait 2 0.13125 0.00965237 0.000704072 0.0354663 0.0815258 0.00213975 0.15371 0.0659175 
trait 3 0.35645 0.0388424 0.0399377 0.42098 0.27025 0 0 0.182342 
node 1 1 1 1
node 2 1 1 1
node 3 2 1 1
node 4 3 1 1
node 5 3 1 1
node 6 3 1 1
node 7 1 1 1
node 8 3 1 1
node 9 2 1 1
node 10 2 1 1
node 11 3 1 3
node 12 2 0 2
node 13 1 0 2
node 14 1 0 2
node 15 3 0 2
node 16 1 0 2
node 20 1 0 0
gene 3 1 12 4.24297 0 1 4.24297 1
gene 1 2 13 -1.05301 0 2 -1.05301 1
gene 1 3 14 3.12825 0 3 3.12825 1
gene 3 4 15 1.68202 0 4 1.68202 1
gene 1 5 16 -2.34147 0 5 -2.34147 1
gene 3 6 12 4.19135 0 2 4.19135 1
gene 2 7 12 0.253126 0 3 0.253126 1
gene 2 8 12 4.53181 0 4 4.53181 1
gene 1 9 12 -0.645428 0 5 -0.645428 1
gene 2 10 12 1.24361 0 6 1.24361 1
gene 2 11 12 1.45348 0 7 1.45348 1
gene 3 1 13 5.50117 0 5 5.50117 1
gene 1 2 14 0.351182 0 6 0.351182 1
gene 1 3 15 -3.25688 0 7 -3.25688 1
gene 2 8 13 3.25731 0 12 3.25731 1
gene 1 3 20 -2.52609 0 18 -2.52609 1
gene 1 20 14 -0.858506 0 19 -0.858506 1
genomeend 228

/* Organism #358 Fitness: 8516 Error: 0 */
genomestart 358
trait 1 0.1 0 0 0.134794 0.223715 0.194623 0.0145529 0.000280895 
trait 2 0 0.00965237 0.0134131 0.0354663 0.0815258 0.00213975 0.442049 0.122728 
trait 3 0.35645 0.0388424 0.0798502 0.42098 0.261101 0 0 0.182342 
node 1 1 1 1
node 2 1 1 1
node 3 2 1 1
node 4 3 1 1
node 5 3 1 1
node 6 3 1 1
node 7 1 1 1
node 8 3 1 1
node 9 2 1 1
node 10 2 1 1
node 11 3 1 3
node 12 2 0 2
node 13 1 0 2
node 14 1 0 2
node 15 3 0 2
node 16 1 0 2
node 20 1 0 0
gene 3 1 12 5.91724 0 1 5.91724 1
gene 1 2 13 -2.22837 0 2 -2.22837 1
gene 1 3 14 2.31872 0 3 2.31872 0
gene 3 4 15 -0.756783 0 4 -0.756783 1
gene 1 5 16 -2.29405 0 5 -2.29405 1
gene 3 6 12 2.406 0 2 2.406 1
gene 2 7 12 -0.992686 0 3 -0.992686 1
gene 2 8 12 6.60045 0 4 6.60045 1
gene 1 9 12 -0.710471 0 5 -0.710471 1
gene 2 10 12 1.57834 0 6 1.57834 1
gene 2 11 12 5.64745 0 7 5.64745 1
gene 3 1 13 0.92822 0 5 0.92822 1
gene 1 2 14 1.6667 0 6 1.6667 1
gene 1 3 15 -7.38955 0 7 -7.38955 1
gene 2 8 13 8 0 12 8 1
gene 1 3 20 -5.18968 0 18 -5.18968 1
gene 1 20 14 0.378134 0 19 0.378134 1
genomeend 358

/* Organism #243 Fitness: 6868 Error: 0 */
genomestart 243
trait 1 0.1 0 0 0.134794 0.223715 0.194623 0.0145529 0.000280895 
trait 2 0.065625 0.00965237 0.0134131 0.0354663 0.0815258 0.00213975 0.297879 0.0932927 
trait 3 0.35645 0.0388424 0.0798502 0.42098 0.261101 0 0 0.182342 
node 1 1 1 1
node 2 1 1 1
node 3 2 1 1
node 4 3 1 1
node 5 3 1 1
node 6 3 1 1
node 7 1 1 1
node 8 3 1 1
node 9 2 1 1
node 10 2 1 1
node 11 3 1 3
node 12 2 0 2
node 13 1 0 2
node 14 1 0 2
node 15 3 0 2
node 16 1 0 2
node 20 1 0 0
gene 3 1 12 4.21145 0 1 4.21145 1
gene 1 2 13 -0.355377 0 2 -0.355377 1
gene 1 3 14 -2.94191 0 3 -2.94191 0
gene 3 4 15 1.73487 0 4 1.73487 1
gene 1 5 16 -2.65406 0 5 -2.65406 1
gene 3 6 12 1.01649 0 2 1.01649 1
gene 2 7 12 -1.14062 0 3 -1.14062 1
gene 2 8 12 6.15322 0 4 6.15322 1
gene 1 9 12 -2.07278 0 5 -2.07278 1
gene 2 10 12 5.43337 0 6 5.43337 1
gene 2 11 12 6.03599 0 7 6.03599 1
gene 3 1 13 5.74592 0 5 5.74592 1
gene 1 2 14 0.0610034 0 6 0.0610034 1
gene 1 3 15 -8 0 7 -8 1
gene 2 8 13 7.70317 0 12 7.70317 1
gene 1 3 20 0.605335 0 18 0.605335 1
gene 1 20 14 -1.83339 0 19 -1.83339 1
genomeend 243

/* Organism #284 Fitness: 6733 Error: 0 */
genomestart 284
trait 1 0.1 0 0 0.134794 0.223715 0.194623 0.0145529 0.000280895 
trait 2 0.13125 0.00965237 0.0134131 0.0354663 0.0815258 0.00213975 0.15371 0.0638576 
trait 3 0.35645 0.0388424 0.0798502 0.42098 0.261101 0 0 0.182342 
node 1 1 1 1
node 2 1 1 1
node 3 2 1 1
node 4 3 1 1
node 5 3 1 1
node 6 3 1 1
node 7 1 1 1
node 8 3 1 1
node 9 2 1 1
node 10 2 1 1
node 11 3 1 3
node 12 2 0 2
node 13 1 0 2
node 14 1 0 2
node 15 3 0 2
node 16 1 0 2
node 20 1 0 0
gene 3 1 12 -1.64502 0 1 -1.64502 1
gene 1 2 13 3.34865 0 2 3.34865 1
gene 1 3 14 -0.196997 0 3 -0.196997 0
gene 3 4 15 0.252206 0 4 0.252206 1
gene 1 5 16 -2.95608 0 5 -2.95608 1
gene 3 6 12 -1.46748 0 2 -1.46748 1
gene 2 7 12 -1.40538 0 3 -1.40538 1
gene 2 8 12 7.4468 0 4 7.4468 1
gene 1 9 12 2.14698 0 5 2.14698 1
gene 2 10 12 3.30005 0 6 3.30005 1
gene 2 11 12 4.11298 0 7 4.11298 1
gene 3 1 13 7.04767 0 5 7.04767 1
gene 1 2 14 -1.99957 0 6 -1.99957 1
gene 1 3 15 -5.23435 0 7 -5.23435 1
gene 2 8 13 8 0 12 8 1
gene 1 3 20 0.762123 0 18 0.762123 1
gene 1 20 14 -0.464787 0 19 -0.464787 1
genomeend 284

/* Organism #426 Fitness: 6651 Error: 0 */
genomestart 426
trait 1 0.1 0 0 0.0673969 0.121426 0.0973115 0.0145529 0.00032022 
trait 2 0.13125 0.00965237 0.00626427 0.0354663 0.0815258 0.00213975 0.15371 0.0650163 
trait 3 0.35645 0.0388424 0.0561522 0.42098 0.266533 0 0 0.182342 
node 1 1 1 1
node 2 1 1 1
node 3 2 1 1
node 4 3 1 1
node 5 3 1 1
node 6 3 1 1
node 7 1 1 1
node 8 3 1 1
node 9 2 1 1
node 10 2 1 1
node 11 3 1 3
node 12 2 0 2
node 13 1 0 2
node 14 1 0 2
node 15 3 0 2
node 16 1 0 2
node 20 1 0 0
gene 3 1 12 4.02153 0 1 4.02153 1
gene 1 2 13 -0.767596 0 2 -0.767596 1
gene 1 3 14 1.83913 0 3 1.83913 0
gene 3 4 15 0.229786 0 4 0.229786 1
gene 1 5 16 -2.01331 0 5 -2.01331 1
gene 3 6 12 1.37052 0 2 1.37052 1
gene 2 7 12 -0.581884 0 3 -0.581884 1
gene 2 8 12 6.83981 0 4 6.83981 1
gene 1 9 12 1.5602 0 5 1.5602 1
gene 2 10 12 1.4094 0 6 1.4094 1
gene 2 11 12 -0.0371203 0 7 -0.0371203 1
gene 3 1 13 8 0 5 8 1
gene 1 2 14 0.553908 0 6 0.553908 1
gene 1 3 15 -3.01167 0 7 -3.01167 1
gene 2 8 13 2.19314 0 12 2.19314 1
gene 1 3 20 -2.32284 0 18 -2.32284 1
gene 1 20 14 -1.47117 0 19 -1.47117 1
genomeend 426

/* Organism #416 Fitness: 6171 Error: 0 */
genomestart 416
trait 1 0.1 0 0 0.0192562 0.0483633 0.0278033 0.0145529 0.00034831 
trait 2 0.13125 0.00965237 0.000704072 0.0354663 0.0815258 0.00213975 0.15371 0.0659175 
trait 3 0.35645 0.0388424 0.0399377 0.42098 0.27025 0 0 0.182342 
node 1 1 1 1
node 2 1 1 1
node 3 2 1 1
node 4 3 1 1
node 5 3 1 1
node 6 3 1 1
node 7 1 1 1
node 8 3 1 1
node 9 2 1 1
node 10 2 1 1
node 11 3 1 3
node 12 2 0 2
node 13 1 0 2
node 14 1 0 2
node 15 3 0 2
node 16 1 0 2
node 20 1 0 0
gene 3 1 12 5.62424 0 1 5.62424 1
gene 1 2 13 -1.51257 0 2 -1.51257 1
gene 1 3 14 5.07594 0 3 5.07594 0
gene 3 4 15 4.13731 0 4 4.13731 1
gene 1 5 16 -4.33044 0 5 -4.33044 1
gene 3 6 12 2.21146 0 2 2.21146 1
gene 2 7 12 -0.861257 0 3 -0.861257 1
gene 2 8 12 4.63641 0 4 4.63641 1
gene 1 9 12 1.77362 0 5 1.77362 1
gene 2 10 12 1.1754 0 6 1.1754 1
gene 2 11 12 1.27991 0 7 1.27991 1
gene 3 1 13 -0.00892666 0 5 -0.00892666 1
gene 1 2 14 -0.721 0 6 -0.721 1
gene 1 3 15 -2.44837 0 7 -2.44837 1
gene 2 8 13 -0.574129 0 12 -0.574129 1
gene 1 3 20 -2.19054 0 18 -2.19054 1
gene 1 20 14 0.171875 0 19 0.171875 1
genomeend 416

/* Organism #8 Fitness: 5967 Error: 0 */
genomestart 8
trait 1 0.05 0.475204 0.274056 0.117308 0.0680195 0.16682 0.0145529 0.000292131 
trait 2 0.13125 0.00965237 0.0610721 0.0354663 0.0815258 0.00213975 0.15371 0.0561329 
trait 3 0.35645 0.0388424 0.0549049 0.42098 0.266819 0 0 0.182342 
node 1 1 1 1
node 2 1 1 1
node 3 2 1 1
node 4 3 1 1
node 5 3 1 1
node 6 3 1 1
node 7 1 1 1
node 8 3 1 1
node 9 2 1 1
node 10 2 1 1
node 11 3 1 3
node 12 2 0 2
node 13 1 0 2
node 14 1 0 2
node 15 3 0 2
node 16 1 0 2
node 20 1 0 0
gene 3 1 12 5.0118 0 1 5.0118 1
gene 1 2 13 -0.882584 0 2 -0.882584 1
gene 1 3 14 6.36931 0 3 6.36931 0
gene 3 4 15 1.86785 0 4 1.86785 1
gene 1 5 16 -2.88755 0 5 -2.88755 1
gene 3 6 12 -1.71125 0 2 -1.71125 1
gene 2 7 12 1.59788 0 3 1.59788 1
gene 2 8 12 2.92468 0 4 2.92468 1
gene 1 9 12 1.35395 0 5 1.35395 1
gene 2 10 12 3.60542 0 6 3.60542 1
gene 2 11 12 1.40698 0 7 1.40698 1
gene 3 1 13 8 0 5 8 1
gene 1 2 14 -3.24576 0 6 -3.24576 1
gene 1 3 15 -6.80487 0 7 -6.80487 1
gene 2 8 13 1.90085 0 12 1.90085 1
gene 1 3 20 0.502182 0 18 0.502182 1
gene 1 20 14 -0.771126 0 19 -0.771126 1
genomeend 8

/* Organism #348 Fitness: 5926 Error: 0 */
genomestart 348
trait 1 0 0 0 0 0.223715 0 0 0.000280895 
trait 2 0.13125 0.00965237 0.0134131 0.0354663 0.0815258 0.00213975 0.15371 0.0638576 
trait 3 0.35645 0.0388424 0.0798502 0.42098 0.261101 0 0 0.182342 
node 1 1 1 1
node 2 1 1 1
node 3 2 1 1
node 4 3 1 1
node 5 3 1 1
node 6 3 1 1
node 7 1 1 1
node 8 3 1 1
node 9 2 1 1
node 10 2 1 1
node 11 3 1 3
node 12 2 0 2
node 13 1 0 2
node 14 1 0 2
node 15 3 0 2
node 16 1 0 2
node 20 1 0 0
gene 3 1 12 0.78692 0 1 0.78692 1
gene 1 2 13 0.714373 0 2 0.714373 1
gene 1 3 14 -3.5593 0 3 -3.5593 0
gene 3 4 15 1.00154 0 4 1.00154 1
gene 1 5 16 0.598184 0 5 0.598184 1
gene 3 6 12 0.827509 0 2 0.827509 1
gene 2 7 12 -2.31154 0 3 -2.31154 1
gene 2 8 12 -1.81188 0 4 -1.81188 1
gene 1 9 12 2.73095 0 5 2.73095 1
gene 2 10 12 4.95339 0 6 4.95339 1
gene 2 11 12 -1.05525 0 7 -1.05525 1
gene 3 1 13 5.67556 0 5 5.67556 1
gene 1 2 14 -1.1127 0 6 -1.1127 1
gene 1 3 15 -8 0 7 -8 1
gene 2 8 13 -0.827662 0 12 -0.827662 1
gene 1 3 20 0.908152 0 18 0.908152 1
gene 1 20 14 -4.22268 0 19 -4.22268 1
genomeend 348

/* Organism #427 Fitness: 0 Error: 0 */
genomestart 427
trait 1 0.1 0 0 0.0770251 0.136039 0.111213 0.0145529 0.000314603 
trait 2 0.065625 0.00965237 0.00705859 0.0354663 0.0815258 0.00213975 0.297879 0.0943227 
trait 3 0.35645 0.0388424 0.059894 0.42098 0.265676 0 0 0.182342 
node 1 1 1 1
node 2 1 1 1
node 3 2 1 1
node 4 3 1 1
node 5 3 1 1
node 6 3 1 1
node 7 1 1 1
node 8 3 1 1
node 9 2 1 1
node 10 2 1 1
node 11 3 1 3
node 12 2 0 2
node 13 1 0 2
node 14 1 0 2
node 15 3 0 2
node 16 1 0 2
node 20 1 0 0
gene 3 1 12 5.08011 0 1 5.08011 1
gene 1 2 13 -1.20409 0 2 -1.20409 1
gene 1 3 14 0.395457 0 3 0.395457 0
gene 3 4 15 3.01708 0 4 3.01708 1
gene 1 5 16 -2.56626 0 5 -2.56626 1
gene 3 6 12 2.57382 0 2 2.57382 1
gene 2 7 12 -1.20351 0 3 -1.20351 1
gene 2 8 12 6.12717 0 4 6.12717 1
gene 1 9 12 -0.409272 0 5 -0.409272 1
gene 2 10 12 1.96691 0 6 1.96691 1
gene 2 11 12 3.11329 0 7 3.11329 1
gene 3 1 13 6.25803 0 5 6.25803 1
gene 1 2 14 0.158655 0 6 0.158655 1
gene 1 3 15 -5.62844 0 7 -5.62844 1
gene 2 8 13 5.33182 0 12 5.33182 1
gene 1 3 20 -2.95793 0 18 -2.95793 1
gene 1 20 14 -1.34595 0 19 -1.34595 1
gene 3 13 14 -0.675924 0 84 -0.675924 1
genomeend 427
