
/* Species #1 : (Size 12) (AF 0) (Age 1)  */


/* Organism #2209 Fitness: 8774 Error: 0 */
genomestart 2209
trait 1 0.1 0 0 0.138798 0.288525 0 0.152405 0.556804 
trait 2 0.575462 0.845916 0 0 0.211199 0.456345 0 0.0659175 
trait 3 0.462539 0.0194212 0.0299596 0.412389 0.214686 0 0 0.171901 
node 1 2 1 1
node 2 2 1 1
node 3 2 1 1
node 4 1 1 1
node 5 1 1 1
node 6 3 1 1
node 7 1 1 1
node 8 1 1 1
node 9 2 1 1
node 10 2 1 1
node 11 3 1 3
node 12 3 0 2
node 13 3 0 2
node 14 2 0 2
node 15 2 0 2
node 16 1 0 2
node 23 1 0 0
gene 3 1 12 -5.99235 0 1 -5.99235 1
gene 1 2 13 -8 0 2 -8 1
gene 1 3 14 -5.34303 0 3 -5.34303 1
gene 3 4 15 -6.4872 0 4 -6.4872 1
gene 1 5 16 8 0 5 8 1
gene 3 6 12 1.3171 0 2 1.3171 1
gene 1 7 12 1.21828 0 3 1.21828 1
gene 3 8 12 -4.85803 0 4 -4.85803 1
gene 3 9 12 -4.77914 0 5 -4.77914 1
gene 3 10 12 -4.07195 0 6 -4.07195 1
gene 2 11 12 -8 0 7 -8 1
gene 3 1 13 1.03023 0 5 1.03023 1
gene 1 2 14 -3.94658 0 6 -3.94658 1
gene 1 3 15 3.87461 0 7 3.87461 1
gene 3 16 12 -7.3805 0 24 -7.3805 1
gene 3 6 23 -1.21603 0 63 -1.21603 1
gene 3 23 12 -4.91236 0 64 -4.91236 1
gene 1 14 12 0.0256928 0 101 0.0256928 1
genomeend 2209

/* Organism #1864 Fitness: 7650 Error: 0 */
genomestart 1864
trait 1 0.1 0 0 0.138798 0.288525 0 0.152405 0.556804 
trait 2 0.575462 0.845916 0 0 0.211199 0.456345 0 0.0659175 
trait 3 0.462539 0.0194212 0.0299596 0.412389 0.214686 0 0 0.171901 
node 1 2 1 1
node 2 2 1 1
node 3 2 1 1
node 4 1 1 1
node 5 1 1 1
node 6 3 1 1
node 7 1 1 1
node 8 1 1 1
node 9 2 1 1
node 10 2 1 1
node 11 3 1 3
node 12 3 0 2
node 13 3 0 2
node 14 2 0 2
node 15 2 0 2
node 16 1 0 2
node 23 1 0 0
gene 3 1 12 -2.40882 0 1 -2.40882 1
gene 1 2 13 -7.31164 0 2 -7.31164 1
gene 1 3 14 -6.11145 0 3 -6.11145 1
gene 3 4 15 -5.63943 0 4 -5.63943 1
gene 1 5 16 6.09408 0 5 6.09408 1
gene 3 6 12 0.698187 0 2 0.698187 0
gene 1 7 12 -0.577982 0 3 -0.577982 1
gene 3 8 12 -5.3024 0 4 -5.3024 1
gene 3 9 12 -1.94341 0 5 -1.94341 1
gene 3 10 12 -5.61846 0 6 -5.61846 1
gene 2 11 12 -8 0 7 -8 1
gene 3 1 13 -0.371677 0 5 -0.371677 1
gene 1 2 14 -5.40063 0 6 -5.40063 1
gene 1 3 15 1.87571 0 7 1.87571 1
gene 3 16 12 -5.71505 0 24 -5.71505 1
gene 3 6 23 -2.09967 0 63 -2.09967 1
gene 3 23 12 -5.6383 0 64 -5.6383 1
gene 1 14 12 1.34674 0 101 1.34674 1
genomeend 1864

/* Organism #2046 Fitness: 6281 Error: 0 */
genomestart 2046
trait 1 0.1 0 0 0.138798 0.288525 0 0.152405 0.556804 
trait 2 0.575462 0.845916 0 0 0.211199 0.456345 0 0.0659175 
trait 3 0.462539 0.0194212 0.0299596 0.412389 0.214686 0 0 0.171901 
node 1 2 1 1
node 2 2 1 1
node 3 2 1 1
node 4 1 1 1
node 5 1 1 1
node 6 3 1 1
node 7 1 1 1
node 8 1 1 1
node 9 2 1 1
node 10 2 1 1
node 11 3 1 3
node 12 3 0 2
node 13 3 0 2
node 14 2 0 2
node 15 2 0 2
node 16 1 0 2
node 23 1 0 0
gene 3 1 12 -2.67479 0 1 -2.67479 1
gene 1 2 13 -8 0 2 -8 1
gene 1 3 14 -7.46845 0 3 -7.46845 1
gene 3 4 15 -6.16687 0 4 -6.16687 1
gene 1 5 16 7.29788 0 5 7.29788 1
gene 3 6 12 1.77252 0 2 1.77252 0
gene 1 7 12 -1.59539 0 3 -1.59539 1
gene 3 8 12 -5.99601 0 4 -5.99601 1
gene 3 9 12 -2.21938 0 5 -2.21938 1
gene 3 10 12 -3.78506 0 6 -3.78506 1
gene 2 11 12 -8 0 7 -8 1
gene 3 1 13 1.0041 0 5 1.0041 1
gene 1 2 14 -7.53708 0 6 -7.53708 1
gene 1 3 15 -0.137906 0 7 -0.137906 1
gene 3 16 12 -7.98029 0 24 -7.98029 1
gene 3 6 23 -2.57012 0 63 -2.57012 1
gene 3 23 12 -4.9675 0 64 -4.9675 1
gene 1 14 12 1.34674 0 101 1.34674 1
genomeend 2046

/* Organism #2350 Fitness: 5892 Error: 0 */
genomestart 2350
trait 1 0.1 0 0 0.138798 0.288525 0 0.152405 0.556804 
trait 2 0.575462 0.845916 0 0 0.211199 0.456345 0 0.0659175 
trait 3 0.462539 0.0194212 0.0299596 0.412389 0.214686 0 0 0.171901 
node 1 2 1 1
node 2 2 1 1
node 3 2 1 1
node 4 1 1 1
node 5 1 1 1
node 6 3 1 1
node 7 1 1 1
node 8 1 1 1
node 9 2 1 1
node 10 2 1 1
node 11 3 1 3
node 12 3 0 2
node 13 3 0 2
node 14 2 0 2
node 15 2 0 2
node 16 1 0 2
node 23 1 0 0
gene 3 1 12 -4.74502 0 1 -4.74502 1
gene 1 2 13 -7.67515 0 2 -7.67515 1
gene 1 3 14 -5.23232 0 3 -5.23232 1
gene 3 4 15 -6.12098 0 4 -6.12098 1
gene 1 5 16 7.25755 0 5 7.25755 1
gene 3 6 12 0.228889 0 2 0.228889 1
gene 1 7 12 0.706294 0 3 0.706294 1
gene 3 8 12 -4.8393 0 4 -4.8393 1
gene 3 9 12 -3.86698 0 5 -3.86698 1
gene 3 10 12 -4.3391 0 6 -4.3391 1
gene 2 11 12 -7.662 0 7 -7.662 1
gene 3 1 13 0.211493 0 5 0.211493 1
gene 1 2 14 -4.2114 0 6 -4.2114 1
gene 1 3 15 3.23342 0 7 3.23342 1
gene 3 16 12 -6.27131 0 24 -6.27131 1
gene 3 6 23 -1.20275 0 63 -1.20275 1
gene 3 23 12 -4.91236 0 64 -4.91236 1
gene 1 14 12 0.0256928 0 101 0.0256928 1
gene 2 7 23 0.684469 0 146 0.684469 1
genomeend 2350

/* Organism #2304 Fitness: 5535 Error: 0 */
genomestart 2304
trait 1 0.1 0 0 0.138798 0.288525 0 0.152405 0.556804 
trait 2 0.575462 0.845916 0 0 0.211199 0.456345 0 0.0659175 
trait 3 0.462539 0.0194212 0.0299596 0.412389 0.214686 0 0 0.171901 
node 1 2 1 1
node 2 2 1 1
node 3 2 1 1
node 4 1 1 1
node 5 1 1 1
node 6 3 1 1
node 7 1 1 1
node 8 1 1 1
node 9 2 1 1
node 10 2 1 1
node 11 3 1 3
node 12 3 0 2
node 13 3 0 2
node 14 2 0 2
node 15 2 0 2
node 16 1 0 2
node 23 1 0 0
gene 3 1 12 -5.99235 0 1 -5.99235 1
gene 1 2 13 -8 0 2 -8 1
gene 1 3 14 -5.34303 0 3 -5.34303 1
gene 3 4 15 -6.4872 0 4 -6.4872 1
gene 1 5 16 8 0 5 8 1
gene 3 6 12 1.3171 0 2 1.3171 1
gene 1 7 12 1.21828 0 3 1.21828 1
gene 3 8 12 -4.85803 0 4 -4.85803 1
gene 3 9 12 -4.77914 0 5 -4.77914 1
gene 3 10 12 -4.07195 0 6 -4.07195 1
gene 2 11 12 -8 0 7 -8 1
gene 3 1 13 1.03023 0 5 1.03023 1
gene 1 2 14 -3.94658 0 6 -3.94658 1
gene 1 3 15 3.87461 0 7 3.87461 1
gene 3 16 12 -7.3805 0 24 -7.3805 1
gene 3 6 23 -1.21603 0 63 -1.21603 1
gene 3 23 12 -4.91236 0 64 -4.91236 1
gene 1 14 12 0.0256928 0 101 0.0256928 1
genomeend 2304

/* Organism #1496 Fitness: 5533 Error: 0 */
genomestart 1496
trait 1 0.1 0 0 0.138798 0.288525 0 0.152405 0.556804 
trait 2 0.575462 0.845916 0 0 0.211199 0.456345 0 0.0659175 
trait 3 0.462539 0.0194212 0.0299596 0.412389 0.214686 0 0 0.171901 
node 1 2 1 1
node 2 2 1 1
node 3 2 1 1
node 4 1 1 1
node 5 1 1 1
node 6 3 1 1
node 7 1 1 1
node 8 1 1 1
node 9 2 1 1
node 10 2 1 1
node 11 3 1 3
node 12 3 0 2
node 13 3 0 2
node 14 2 0 2
node 15 2 0 2
node 16 1 0 2
node 23 1 0 0
gene 3 1 12 -2.19832 0 1 -2.19832 1
gene 1 2 13 -8 0 2 -8 1
gene 1 3 14 -4.92313 0 3 -4.92313 1
gene 3 4 15 -7.134 0 4 -7.134 1
gene 1 5 16 5.94389 0 5 5.94389 1
gene 3 6 12 -0.451445 0 2 -0.451445 0
gene 1 7 12 -0.569933 0 3 -0.569933 1
gene 3 8 12 -4.71099 0 4 -4.71099 1
gene 3 9 12 -3.852 0 5 -3.852 1
gene 3 10 12 -3.79967 0 6 -3.79967 1
gene 2 11 12 -8 0 7 -8 1
gene 3 1 13 -0.637417 0 5 -0.637417 1
gene 1 2 14 -2.98326 0 6 -2.98326 1
gene 1 3 15 4.55779 0 7 4.55779 1
gene 3 16 12 -4.01978 0 24 -4.01978 1
gene 3 6 23 -0.279283 0 63 -0.279283 1
gene 3 23 12 -3.44993 0 64 -3.44993 1
gene 1 14 12 0.689795 0 101 0.689795 1
genomeend 1496

/* Organism #871 Fitness: 5236 Error: 0 */
genomestart 871
trait 1 0.1 0 0 0.138798 0.288525 0 0.152405 0.556804 
trait 2 0.575462 0.845916 0 0 0.211199 0.456345 0 0.0659175 
trait 3 0.462539 0.0194212 0.0299596 0.412389 0.214686 0 0 0.171901 
node 1 2 1 1
node 2 2 1 1
node 3 2 1 1
node 4 1 1 1
node 5 1 1 1
node 6 3 1 1
node 7 1 1 1
node 8 1 1 1
node 9 2 1 1
node 10 2 1 1
node 11 3 1 3
node 12 3 0 2
node 13 3 0 2
node 14 2 0 2
node 15 2 0 2
node 16 1 0 2
node 23 1 0 0
gene 3 1 12 -4.66681 0 1 -4.66681 1
gene 1 2 13 -7.36369 0 2 -7.36369 1
gene 1 3 14 -5.66301 0 3 -5.66301 1
gene 3 4 15 -5.99265 0 4 -5.99265 1
gene 1 5 16 7.5848 0 5 7.5848 1
gene 3 6 12 -3.43608 0 2 -3.43608 0
gene 1 7 12 -0.545213 0 3 -0.545213 1
gene 3 8 12 -2.20382 0 4 -2.20382 1
gene 3 9 12 -4.12518 0 5 -4.12518 1
gene 3 10 12 -2.33505 0 6 -2.33505 1
gene 2 11 12 -7.52345 0 7 -7.52345 1
gene 2 1 13 -0.532777 0 5 -0.532777 1
gene 1 2 14 -3.59577 0 6 -3.59577 1
gene 1 3 15 2.25936 0 7 2.25936 1
gene 3 16 12 -2.68624 0 24 -2.68624 1
gene 3 6 23 -0.399106 0 63 -0.399106 1
gene 3 23 12 -5.26368 0 64 -5.26368 1
gene 1 14 12 -0.770516 0 101 -0.770516 1
genomeend 871

/* Organism #2693 Fitness: 5149 Error: 0 */
genomestart 2693
trait 1 0.1 0 0 0.138798 0.288525 0 0.152405 0.556804 
trait 2 0.575462 0.845916 0 0 0.211199 0.456345 0 0.0659175 
trait 3 0.462539 0.0194212 0.0299596 0.412389 0.214686 0 0 0.171901 
node 1 2 1 1
node 2 2 1 1
node 3 2 1 1
node 4 1 1 1
node 5 1 1 1
node 6 3 1 1
node 7 1 1 1
node 8 1 1 1
node 9 2 1 1
node 10 2 1 1
node 11 3 1 3
node 12 3 0 2
node 13 3 0 2
node 14 2 0 2
node 15 2 0 2
node 16 1 0 2
node 23 1 0 0
gene 3 1 12 -2.82685 0 1 -2.82685 1
gene 1 2 13 -7.79619 0 2 -7.79619 1
gene 1 3 14 -6.19552 0 3 -6.19552 1
gene 3 4 15 -6.93628 0 4 -6.93628 1
gene 1 5 16 8 0 5 8 1
gene 3 6 12 -0.9241 0 2 -0.9241 0
gene 1 7 12 1.73143 0 3 1.73143 1
gene 3 8 12 -5.3024 0 4 -5.3024 1
gene 3 9 12 -2.56851 0 5 -2.56851 1
gene 2 10 12 0.744728 0 6 0.744728 1
gene 2 11 12 -8 0 7 -8 1
gene 3 1 13 -2.55345 0 5 -2.55345 1
gene 1 2 14 -5.40063 0 6 -5.40063 1
gene 1 3 15 1.49256 0 7 1.49256 1
gene 3 16 12 -7.3805 0 24 -7.3805 1
gene 3 6 23 -1.21603 0 63 -1.21603 1
gene 3 23 12 -3.04531 0 64 -3.04531 1
gene 1 14 12 -0.104106 0 101 -0.104106 1
genomeend 2693

/* Organism #2554 Fitness: 5122 Error: 0 */
genomestart 2554
trait 1 0.1 0 0 0.138798 0.288525 0 0.152405 0.556804 
trait 2 0.575462 0.845916 0 0 0.211199 0.456345 0 0.0659175 
trait 3 0.462539 0.0194212 0.0299596 0.412389 0.214686 0 0 0.171901 
node 1 2 1 1
node 2 2 1 1
node 3 2 1 1
node 4 1 1 1
node 5 1 1 1
node 6 3 1 1
node 7 1 1 1
node 8 1 1 1
node 9 2 1 1
node 10 2 1 1
node 11 3 1 3
node 12 3 0 2
node 13 3 0 2
node 14 2 0 2
node 15 2 0 2
node 16 1 0 2
node 23 1 0 0
gene 3 1 12 -6.45857 0 1 -6.45857 1
gene 1 2 13 0.260094 0 2 0.260094 1
gene 1 3 14 -5.28767 0 3 -5.28767 1
gene 3 4 15 0.215995 0 4 0.215995 1
gene 1 5 16 7.7729 0 5 7.7729 1
gene 3 6 12 1.20052 0 2 1.20052 1
gene 1 7 12 3.11041 0 3 3.11041 1
gene 3 8 12 -2.92158 0 4 -2.92158 1
gene 3 9 12 -5.18047 0 5 -5.18047 1
gene 3 10 12 -1.95235 0 6 -1.95235 1
gene 2 11 12 -7.831 0 7 -7.831 1
gene 3 1 13 3.11491 0 5 3.11491 1
gene 1 2 14 -6.28693 0 6 -6.28693 1
gene 1 3 15 5.05308 0 7 5.05308 1
gene 3 16 12 2.49588 0 24 2.49588 1
gene 3 6 23 0.478301 0 63 0.478301 1
gene 3 23 12 -6.7762 0 64 -6.7762 1
gene 1 14 12 -0.62809 0 101 -0.62809 1
genomeend 2554

/* Organism #1869 Fitness: 4885 Error: 0 */
genomestart 1869
trait 1 0.1 0 0 0.138798 0.288525 0 0.152405 0.556804 
trait 2 0.575462 0.845916 0 0 0.211199 0.456345 0 0.0659175 
trait 3 0.462539 0.0194212 0.0299596 0.412389 0.214686 0 0 0.171901 
node 1 2 1 1
node 2 2 1 1
node 3 2 1 1
node 4 1 1 1
node 5 1 1 1
node 6 3 1 1
node 7 1 1 1
node 8 1 1 1
node 9 2 1 1
node 10 2 1 1
node 11 3 1 3
node 12 3 0 2
node 13 3 0 2
node 14 2 0 2
node 15 2 0 2
node 16 1 0 2
node 23 1 0 0
gene 3 1 12 -2.40882 0 1 -2.40882 1
gene 1 2 13 -7.31164 0 2 -7.31164 1
gene 1 3 14 -5.12162 0 3 -5.12162 1
gene 3 4 15 -5.63943 0 4 -5.63943 1
gene 1 5 16 6.09408 0 5 6.09408 1
gene 3 6 12 -0.859325 0 2 -0.859325 0
gene 1 7 12 0.194308 0 3 0.194308 1
gene 3 8 12 -5.3024 0 4 -5.3024 1
gene 3 9 12 -2.95482 0 5 -2.95482 1
gene 3 10 12 -5.61846 0 6 -5.61846 1
gene 2 11 12 -7.324 0 7 -7.324 1
gene 3 1 13 -0.607242 0 5 -0.607242 1
gene 1 2 14 -4.47623 0 6 -4.47623 1
gene 1 3 15 1.87571 0 7 1.87571 1
gene 3 16 12 -5.16211 0 24 -5.16211 1
gene 3 6 23 -2.09967 0 63 -2.09967 1
gene 3 23 12 -4.91236 0 64 -4.91236 1
gene 1 14 12 1.34674 0 101 1.34674 1
genomeend 1869

/* Organism #2680 Fitness: 4615 Error: 0 */
genomestart 2680
trait 1 0.1 0 0 0.138798 0.288525 0 0.152405 0.556804 
trait 2 0.575462 0.845916 0 0 0.211199 0.456345 0 0.0659175 
trait 3 0.462539 0.0194212 0.0299596 0.412389 0.214686 0 0 0.171901 
node 1 2 1 1
node 2 2 1 1
node 3 2 1 1
node 4 1 1 1
node 5 1 1 1
node 6 3 1 1
node 7 1 1 1
node 8 1 1 1
node 9 3 1 1
node 10 2 1 1
node 11 3 1 3
node 12 3 0 2
node 13 3 0 2
node 14 2 0 2
node 15 2 0 2
node 16 1 0 2
node 23 1 0 0
gene 3 1 12 -1.47961 0 1 -1.47961 1
gene 1 2 13 -8 0 2 -8 1
gene 1 3 14 -8 0 3 -8 1
gene 3 4 15 -7.18706 0 4 -7.18706 1
gene 1 5 16 4.63652 0 5 4.63652 1
gene 3 6 12 -0.217864 0 2 -0.217864 1
gene 1 7 12 -0.569323 0 3 -0.569323 1
gene 3 8 12 -5.94325 0 4 -5.94325 1
gene 3 9 12 -0.0421493 0 5 -0.0421493 1
gene 3 10 12 -3.10991 0 6 -3.10991 1
gene 2 11 12 -8 0 7 -8 1
gene 3 1 13 -2.18265 0 5 -2.18265 1
gene 1 2 14 -4.10024 0 6 -4.10024 1
gene 1 3 15 -0.214431 0 7 -0.214431 1
gene 3 16 12 -6.4761 0 24 -6.4761 1
gene 3 6 23 -1.60253 0 63 -1.60253 1
gene 3 23 12 -5.1658 0 64 -5.1658 1
gene 1 14 12 1.34674 0 101 1.34674 1
genomeend 2680

/* Organism #2657 Fitness: 4382 Error: 0 */
genomestart 2657
trait 1 0.1 0 0 0.138798 0.288525 0 0.152405 0.556804 
trait 2 0.575462 0.845916 0 0 0.211199 0.456345 0 0.0659175 
trait 3 0.462539 0.0194212 0.0299596 0.412389 0.214686 0 0 0.171901 
node 1 2 1 1
node 2 2 1 1
node 3 2 1 1
node 4 1 1 1
node 5 1 1 1
node 6 3 1 1
node 7 1 1 1
node 8 1 1 1
node 9 2 1 1
node 10 2 1 1
node 11 3 1 3
node 12 3 0 2
node 13 3 0 2
node 14 2 0 2
node 15 2 0 2
node 16 1 0 2
node 23 1 0 0
gene 3 1 12 -0.633181 0 1 -0.633181 1
gene 1 2 13 -8 0 2 -8 1
gene 1 3 14 -3.43196 0 3 -3.43196 1
gene 3 4 15 -6.18022 0 4 -6.18022 1
gene 1 5 16 5.55843 0 5 5.55843 1
gene 3 6 12 -3.08695 0 2 -3.08695 0
gene 1 7 12 4.62064 0 3 4.62064 1
gene 3 8 12 -5.50718 0 4 -5.50718 1
gene 3 9 12 -1.0084 0 5 -1.0084 1
gene 3 10 12 -6.54607 0 6 -6.54607 1
gene 2 11 12 -8 0 7 -8 1
gene 3 1 13 -0.858448 0 5 -0.858448 1
gene 1 2 14 -4.54001 0 6 -4.54001 1
gene 1 3 15 4.64505 0 7 4.64505 1
gene 3 16 12 -7.98713 0 24 -7.98713 1
gene 3 6 23 -0.810572 0 63 -0.810572 1
gene 3 23 12 -6.79161 0 64 -6.79161 1
gene 1 14 12 2.25789 0 101 2.25789 1
genomeend 2657

/* Species #2 : (Size 18) (AF 0) (Age 1)  */


/* Organism #2658 Fitness: 260206 Error: 0 */
genomestart 2658
trait 1 0.1 0 0.0378525 0.0589724 0.19175 0.33019 0.191278 0.000293184 
trait 2 0.118945 0.00965237 0.0112784 0.0354663 0.0815258 0.00213975 0.180742 0.0697227 
trait 3 0.35645 0.0388424 0.0614093 0.42098 0.21294 0 0 0.182342 
node 1 1 1 1
node 2 1 1 1
node 3 2 1 1
node 4 3 1 1
node 5 3 1 1
node 6 3 1 1
node 7 1 1 1
node 8 3 1 1
node 9 2 1 1
node 10 2 1 1
node 11 3 1 3
node 12 2 0 2
node 13 1 0 2
node 14 1 0 2
node 15 3 0 2
node 16 1 0 2
node 20 1 0 0
gene 3 1 12 4.7656 0 1 4.7656 1
gene 1 2 13 -1.88812 0 2 -1.88812 1
gene 1 3 14 1.08055 0 3 1.08055 1
gene 3 4 15 2.45486 0 4 2.45486 1
gene 1 5 16 1.87834 0 5 1.87834 1
gene 3 6 12 -1.06196 0 2 -1.06196 1
gene 2 7 12 -2.883 0 3 -2.883 1
gene 2 8 12 1.83649 0 4 1.83649 1
gene 1 9 12 1.86449 0 5 1.86449 1
gene 2 10 12 4.18161 0 6 4.18161 1
gene 2 11 12 6.81667 0 7 6.81667 1
gene 3 1 13 5.43076 0 5 5.43076 1
gene 1 2 14 -2.10946 0 6 -2.10946 1
gene 1 3 15 -8 0 7 -8 1
gene 2 8 13 8 0 12 8 1
gene 1 3 20 0.450453 0 18 0.450453 1
gene 1 20 14 -0.266252 0 19 -0.266252 1
genomeend 2658

/* Organism #2685 Fitness: 167720 Error: 0 */
genomestart 2685
trait 1 0.1 0 0.02163 0.0526539 0.146542 0.216049 0.115539 0.000310565 
trait 2 0.118945 0.00965237 0.00792737 0.0354663 0.0815258 0.00213975 0.180742 0.0702658 
trait 3 0.35645 0.0388424 0.0439834 0.42098 0.182009 0 0 0.182342 
node 1 1 1 1
node 2 1 1 1
node 3 2 1 1
node 4 3 1 1
node 5 3 1 1
node 6 3 1 1
node 7 1 1 1
node 8 3 1 1
node 9 2 1 1
node 10 2 1 1
node 11 3 1 3
node 12 2 0 2
node 13 1 0 2
node 14 1 0 2
node 15 3 0 2
node 16 1 0 2
node 20 1 0 0
gene 3 1 12 5.059 0 1 5.059 1
gene 1 2 13 0.852098 0 2 0.852098 1
gene 1 3 14 0.680666 0 3 0.680666 0
gene 3 4 15 3.05814 0 4 3.05814 1
gene 1 5 16 -1.65786 0 5 -1.65786 1
gene 3 6 12 6.39761 0 2 6.39761 1
gene 2 7 12 -2.26535 0 3 -2.26535 1
gene 2 8 12 7.05313 0 4 7.05313 1
gene 1 9 12 1.70305 0 5 1.70305 1
gene 2 10 12 2.51285 0 6 2.51285 1
gene 2 11 12 1.97199 0 7 1.97199 1
gene 3 1 13 5.90347 0 5 5.90347 1
gene 1 2 14 0.82528 0 6 0.82528 1
gene 1 3 15 -7.15234 0 7 -7.15234 1
gene 2 8 13 7.85158 0 12 7.85158 1
gene 1 3 20 -1.18572 0 18 -1.18572 1
gene 1 20 14 0.929438 0 19 0.929438 1
genomeend 2685

/* Organism #2675 Fitness: 155009 Error: 0 */
genomestart 2675
trait 1 0.1 0 0.02163 0.0526539 0.146542 0.216049 0.115539 0.000310565 
trait 2 0.118945 0.00965237 0.00792737 0.0354663 0.0815258 0.00213975 0.180742 0.0702658 
trait 3 0.35645 0.0388424 0.0439834 0.42098 0.182009 0 0 0.182342 
node 1 1 1 1
node 2 1 1 1
node 3 2 1 1
node 4 3 1 1
node 5 3 1 1
node 6 3 1 1
node 7 1 1 1
node 8 3 1 1
node 9 2 1 1
node 10 2 1 1
node 11 3 1 3
node 12 2 0 2
node 13 1 0 2
node 14 1 0 2
node 15 3 0 2
node 16 1 0 2
node 20 1 0 0
gene 3 1 12 5.07588 0 1 5.07588 1
gene 1 2 13 -0.714813 0 2 -0.714813 1
gene 1 3 14 1.05078 0 3 1.05078 0
gene 3 4 15 3.24023 0 4 3.24023 1
gene 1 5 16 -2.14737 0 5 -2.14737 1
gene 3 6 12 3.47929 0 2 3.47929 1
gene 2 7 12 0.0408273 0 3 0.0408273 1
gene 2 8 12 5.21983 0 4 5.21983 1
gene 1 9 12 1.20993 0 5 1.20993 1
gene 2 10 12 4.90861 0 6 4.90861 1
gene 2 11 12 4.55921 0 7 4.55921 1
gene 3 1 13 5.79734 0 5 5.79734 1
gene 1 2 14 0.214951 0 6 0.214951 1
gene 1 3 15 -7.03144 0 7 -7.03144 1
gene 2 8 13 5.55445 0 12 5.55445 1
gene 1 3 20 -0.575007 0 18 -0.575007 1
gene 1 20 14 1.22718 0 19 1.22718 1
genomeend 2675

/* Organism #914 Fitness: 100350 Error: 0 */
genomestart 914
trait 1 0.1 0 0.04326 0.0517513 0.192663 0.35477 0.216524 0.000292833 
trait 2 0.114844 0.00965237 0.011328 0.0354663 0.0815258 0.00213975 0.189752 0.0715543 
trait 3 0.35645 0.0388424 0.0580168 0.42098 0.196255 0 0 0.182342 
node 1 1 1 1
node 2 1 1 1
node 3 2 1 1
node 4 3 1 1
node 5 3 1 1
node 6 3 1 1
node 7 1 1 1
node 8 3 1 1
node 9 2 1 1
node 10 2 1 1
node 11 3 1 3
node 12 2 0 2
node 13 1 0 2
node 14 1 0 2
node 15 3 0 2
node 16 1 0 2
node 20 1 0 0
gene 3 1 12 5.059 0 1 5.059 1
gene 1 2 13 0.852098 0 2 0.852098 1
gene 1 3 14 1.4209 0 3 1.4209 1
gene 3 4 15 3.05814 0 4 3.05814 1
gene 1 5 16 -2.63689 0 5 -2.63689 1
gene 3 6 12 0.560975 0 2 0.560975 1
gene 2 7 12 -2.26535 0 3 -2.26535 1
gene 2 8 12 3.38653 0 4 3.38653 1
gene 1 9 12 0.716804 0 5 0.716804 1
gene 2 10 12 2.51285 0 6 2.51285 1
gene 2 11 12 7.14644 0 7 7.14644 1
gene 3 1 13 5.69121 0 5 5.69121 1
gene 1 2 14 0.82528 0 6 0.82528 1
gene 1 3 15 -6.91053 0 7 -6.91053 1
gene 2 8 13 7.85158 0 12 7.85158 1
gene 1 3 20 0.0357067 0 18 0.0357067 1
gene 1 20 14 0.929438 0 19 0.929438 1
genomeend 914

/* Organism #2786 Fitness: 20709 Error: 0 */
genomestart 2786
trait 1 0.1 0 0.0378525 0.0589724 0.19175 0.33019 0.191278 0.000293184 
trait 2 0.118945 0.00965237 0.0112784 0.0354663 0.0815258 0.00213975 0.180742 0.0697227 
trait 3 0.35645 0.0388424 0.0614093 0.42098 0.21294 0 0 0.182342 
node 1 1 1 1
node 2 1 1 1
node 3 2 1 1
node 4 3 1 1
node 5 3 1 1
node 6 3 1 1
node 7 1 1 1
node 8 3 1 1
node 9 2 1 1
node 10 2 1 1
node 11 3 1 3
node 12 2 0 2
node 13 1 0 2
node 14 1 0 2
node 15 3 0 2
node 16 1 0 2
node 20 1 0 0
node 33 1 0 0
gene 3 1 12 4.7656 0 1 4.7656 1
gene 1 2 13 -1.88812 0 2 -1.88812 1
gene 1 3 14 1.08055 0 3 1.08055 1
gene 3 4 15 2.45486 0 4 2.45486 1
gene 1 5 16 1.87834 0 5 1.87834 1
gene 3 6 12 -1.06196 0 2 -1.06196 1
gene 2 7 12 -2.883 0 3 -2.883 1
gene 2 8 12 1.83649 0 4 1.83649 1
gene 1 9 12 1.86449 0 5 1.86449 1
gene 2 10 12 4.18161 0 6 4.18161 1
gene 2 11 12 6.81667 0 7 6.81667 1
gene 3 1 13 5.43076 0 5 5.43076 1
gene 1 2 14 -2.10946 0 6 -2.10946 1
gene 1 3 15 -8 0 7 -8 1
gene 2 8 13 8 0 12 8 1
gene 1 3 20 0.450453 0 18 0.450453 1
gene 1 20 14 -0.266252 0 19 -0.266252 0
gene 1 20 33 1 0 117 0 1
gene 1 33 14 -0.266252 0 118 0 1
genomeend 2786

/* Organism #1144 Fitness: 19400 Error: 0 */
genomestart 1144
trait 1 0.1 0 0 0.0535565 0.100421 0.0773279 0.0145529 0.000328296 
trait 2 0.123047 0.00965237 0.00452671 0.0354663 0.0815258 0.00213975 0.171731 0.0689773 
trait 3 0.35645 0.0388424 0.0299501 0.42098 0.167763 0 0 0.182342 
node 1 1 1 1
node 2 1 1 1
node 3 2 1 1
node 4 3 1 1
node 5 3 1 1
node 6 3 1 1
node 7 1 1 1
node 8 3 1 1
node 9 2 1 1
node 10 2 1 1
node 11 3 1 3
node 12 2 0 2
node 13 1 0 2
node 14 1 0 2
node 15 3 0 2
node 16 1 0 2
node 20 1 0 0
gene 3 1 12 5.09275 0 1 5.09275 1
gene 1 2 13 -2.28172 0 2 -2.28172 1
gene 1 3 14 0.680666 0 3 0.680666 0
gene 3 4 15 3.42233 0 4 3.42233 1
gene 1 5 16 -1.65786 0 5 -1.65786 1
gene 3 6 12 6.39761 0 2 6.39761 1
gene 2 7 12 2.347 0 3 2.347 1
gene 2 8 12 7.05313 0 4 7.05313 1
gene 1 9 12 1.70305 0 5 1.70305 1
gene 2 10 12 7.30438 0 6 7.30438 1
gene 2 11 12 1.97199 0 7 1.97199 1
gene 3 1 13 5.90347 0 5 5.90347 1
gene 1 2 14 -0.395377 0 6 -0.395377 1
gene 1 3 15 -7.15234 0 7 -7.15234 1
gene 2 8 13 3.25731 0 12 3.25731 1
gene 1 3 20 -1.18572 0 18 -1.18572 1
gene 1 20 14 1.52491 0 19 1.52491 1
genomeend 1144

/* Organism #1791 Fitness: 17499 Error: 0 */
genomestart 1791
trait 1 0.1 0 0.04326 0.0517513 0.192663 0.35477 0.216524 0.000292833 
trait 2 0.114844 0.00965237 0.011328 0.0354663 0.0815258 0.00213975 0.189752 0.0715543 
trait 3 0.35645 0.0388424 0.0580168 0.42098 0.196255 0 0 0.182342 
node 1 1 1 1
node 2 1 1 1
node 3 2 1 1
node 4 3 1 1
node 5 3 1 1
node 6 3 1 1
node 7 1 1 1
node 8 3 1 1
node 9 2 1 1
node 10 2 1 1
node 11 3 1 3
node 12 2 0 2
node 13 1 0 2
node 14 1 0 2
node 15 3 0 2
node 16 1 0 2
node 20 1 0 0
gene 3 1 12 5.059 0 1 5.059 1
gene 1 2 13 0.852098 0 2 0.852098 1
gene 1 3 14 1.4209 0 3 1.4209 1
gene 3 4 15 3.05814 0 4 3.05814 1
gene 1 5 16 -2.63689 0 5 -2.63689 1
gene 3 6 12 0.560975 0 2 0.560975 1
gene 2 7 12 -2.26535 0 3 -2.26535 1
gene 2 8 12 3.38653 0 4 3.38653 1
gene 1 9 12 0.716804 0 5 0.716804 1
gene 2 10 12 2.51285 0 6 2.51285 1
gene 2 11 12 7.14644 0 7 7.14644 1
gene 3 1 13 5.69121 0 5 5.69121 1
gene 1 2 14 0.82528 0 6 0.82528 1
gene 1 3 15 -6.91053 0 7 -6.91053 1
gene 2 8 13 7.85158 0 12 7.85158 1
gene 1 3 20 0.0357067 0 18 0.0357067 1
gene 1 20 14 0.929438 0 19 0.929438 1
genomeend 1791

/* Organism #2597 Fitness: 13145 Error: 0 */
genomestart 2597
trait 1 0.1 0 0.032445 0.0661935 0.190837 0.30561 0.166032 0.000293535 
trait 2 0.123047 0.00965237 0.0112287 0.0354663 0.0815258 0.00213975 0.171731 0.067891 
trait 3 0.35645 0.0388424 0.0648019 0.42098 0.229625 0 0 0.182342 
node 1 1 1 1
node 2 1 1 1
node 3 2 1 1
node 4 3 1 1
node 5 3 1 1
node 6 3 1 1
node 7 1 1 1
node 8 3 1 1
node 9 2 1 1
node 10 2 1 1
node 11 3 1 3
node 12 2 0 2
node 13 1 0 2
node 14 1 0 2
node 15 3 0 2
node 16 1 0 2
node 20 1 0 0
gene 3 1 12 7.25426 0 1 7.25426 1
gene 1 2 13 -1.46449 0 2 -1.46449 1
gene 1 3 14 3.48457 0 3 3.48457 0
gene 3 4 15 1.84808 0 4 1.84808 1
gene 1 5 16 -2.66665 0 5 -2.66665 1
gene 3 6 12 1.16059 0 2 1.16059 1
gene 2 7 12 -4.30772 0 3 -4.30772 1
gene 2 8 12 4.86469 0 4 4.86469 1
gene 1 9 12 -1.60756 0 5 -1.60756 1
gene 2 10 12 2.17837 0 6 2.17837 1
gene 2 11 12 8 0 7 8 1
gene 3 1 13 5.67251 0 5 5.67251 1
gene 1 2 14 -0.437881 0 6 -0.437881 1
gene 1 3 15 -8 0 7 -8 1
gene 2 8 13 7.51086 0 12 7.51086 1
gene 1 3 20 0.611744 0 18 0.611744 1
gene 1 20 14 -1.46194 0 19 -1.46194 1
gene 3 7 13 -0.116794 0 121 0 1
genomeend 2597

/* Organism #1521 Fitness: 12409 Error: 0 */
genomestart 1521
trait 1 0.1 0 0.0270375 0.0752198 0.192663 0.283637 0.140785 0.000292833 
trait 2 0.114844 0.00965237 0.147906 0.0531022 0.224101 0.00213975 0.189752 0.0715543 
trait 3 0.35645 0.0388424 0.0580168 0.42098 0.196255 0 0 0.182342 
node 1 1 1 1
node 2 1 1 1
node 3 2 1 1
node 4 3 1 1
node 5 3 1 1
node 6 3 1 1
node 7 3 1 1
node 8 3 1 1
node 9 2 1 1
node 10 2 1 1
node 11 3 1 3
node 12 2 0 2
node 13 1 0 2
node 14 1 0 2
node 15 3 0 2
node 16 1 0 2
node 20 1 0 0
gene 3 1 12 1.42941 0 1 1.42941 1
gene 1 2 13 4.8259 0 2 4.8259 1
gene 1 3 14 4.28793 0 3 4.28793 0
gene 3 4 15 5.94475 0 4 5.94475 1
gene 1 5 16 -0.936474 0 5 -0.936474 1
gene 3 6 12 -1.34632 0 2 -1.34632 1
gene 2 7 12 0.88908 0 3 0.88908 1
gene 2 8 12 2.12134 0 4 2.12134 1
gene 1 9 12 -1.03351 0 5 -1.03351 1
gene 2 10 12 2.8206 0 6 2.8206 1
gene 2 11 12 6.60396 0 7 6.60396 1
gene 3 1 13 -1.17817 0 5 -1.17817 1
gene 1 2 14 4.03584 0 6 4.03584 1
gene 1 3 15 1.59734 0 7 1.59734 1
gene 2 8 13 8 0 12 8 1
gene 1 3 20 -0.961867 0 18 -0.961867 1
gene 1 20 14 5.57642 0 19 5.57642 1
genomeend 1521

/* Organism #1564 Fitness: 10393 Error: 0 */
genomestart 1564
trait 1 0.1 0 0.0135187 0.0643882 0.146542 0.180482 0.077669 0.000310565 
trait 2 0.118945 0.00965237 0.0762163 0.0442842 0.152813 0.00213975 0.180742 0.0702658 
trait 3 0.35645 0.0388424 0.0439834 0.42098 0.182009 0 0 0.182342 
node 1 1 1 1
node 2 1 1 1
node 3 2 1 1
node 4 3 1 1
node 5 3 1 1
node 6 3 1 1
node 7 3 1 1
node 8 3 1 1
node 9 2 1 1
node 10 2 1 1
node 11 3 1 3
node 12 2 0 2
node 13 1 0 2
node 14 1 0 2
node 15 3 0 2
node 16 1 0 2
node 20 1 0 0
gene 3 1 12 7.19364 0 1 7.19364 1
gene 1 2 13 3.63393 0 2 3.63393 1
gene 1 3 14 6.15093 0 3 6.15093 0
gene 3 4 15 5.2104 0 4 5.2104 1
gene 1 5 16 -3.32119 0 5 -3.32119 1
gene 3 6 12 1.79365 0 2 1.79365 1
gene 2 7 12 -1.0052 0 3 -1.0052 1
gene 2 8 12 3.7373 0 4 3.7373 1
gene 1 9 12 0.947562 0 5 0.947562 1
gene 2 10 12 6.47122 0 6 6.47122 1
gene 2 11 12 2.77686 0 7 2.77686 1
gene 3 1 13 3.8054 0 5 3.8054 1
gene 1 2 14 0.718396 0 6 0.718396 1
gene 1 3 15 -8 0 7 -8 1
gene 2 8 13 8 0 12 8 1
gene 1 3 20 1.47984 0 18 1.47984 1
gene 1 20 14 2.89674 0 19 2.89674 1
genomeend 1564

/* Organism #1665 Fitness: 8981 Error: 0 */
genomestart 1665
trait 1 0.1 0 0.744442 0.067397 1 0.509167 0.166032 0 
trait 2 0.114844 0.00965237 0.10238 0.0472236 0.176576 0.00213975 0.189752 0.0715543 
trait 3 0.35645 0.0388424 0.0580168 0.42098 0.196255 0 0 0.182342 
node 1 1 1 1
node 2 1 1 1
node 3 2 1 1
node 4 1 1 1
node 5 3 1 1
node 6 3 1 1
node 7 3 1 1
node 8 3 1 1
node 9 2 1 1
node 10 2 1 1
node 11 3 1 3
node 12 2 0 2
node 13 1 0 2
node 14 1 0 2
node 15 3 0 2
node 16 1 0 2
node 20 1 0 0
gene 3 1 12 3.18572 0 1 3.18572 1
gene 1 2 13 -0.902345 0 2 -0.902345 1
gene 1 3 14 5.0811 0 3 5.0811 0
gene 3 4 15 3.08833 0 4 3.08833 1
gene 1 5 16 0.0252404 0 5 0.0252404 1
gene 3 6 12 6.31872 0 2 6.31872 1
gene 2 7 12 -0.747169 0 3 -0.747169 1
gene 2 8 12 0.992767 0 4 0.992767 1
gene 1 9 12 4.53032 0 5 4.53032 1
gene 2 10 12 1.73016 0 6 1.73016 1
gene 2 11 12 4.08999 0 7 4.08999 1
gene 3 1 13 5.32957 0 5 5.32957 1
gene 1 2 14 4.50156 0 6 4.50156 1
gene 1 3 15 2.97838 0 7 2.97838 1
gene 2 8 13 8 0 12 8 1
gene 1 3 20 -1.1401 0 18 -1.1401 1
gene 1 20 14 7.11119 0 19 7.11119 1
genomeend 1665

/* Organism #1392 Fitness: 8662 Error: 0 */
genomestart 1392
trait 1 0.1 0 0.0270375 0.0752198 0.192663 0.283637 0.140785 0.000292833 
trait 2 0.114844 0.00965237 0.147906 0.0531022 0.224101 0.00213975 0.189752 0.0715543 
trait 3 0.35645 0.0388424 0.0580168 0.42098 0.196255 0 0 0.182342 
node 1 1 1 1
node 2 1 1 1
node 3 2 1 1
node 4 3 1 1
node 5 3 1 1
node 6 3 1 1
node 7 3 1 1
node 8 3 1 1
node 9 2 1 1
node 10 2 1 1
node 11 3 1 3
node 12 2 0 2
node 13 1 0 2
node 14 1 0 2
node 15 3 0 2
node 16 1 0 2
node 20 1 0 0
gene 3 1 12 7.04784 0 1 7.04784 1
gene 1 2 13 2.75248 0 2 2.75248 1
gene 1 3 14 2.52617 0 3 2.52617 0
gene 3 4 15 5.07955 0 4 5.07955 1
gene 1 5 16 -0.627474 0 5 -0.627474 1
gene 3 6 12 3.58013 0 2 3.58013 1
gene 2 7 12 1.92015 0 3 1.92015 1
gene 2 8 12 4.20568 0 4 4.20568 1
gene 1 9 12 -2.10021 0 5 -2.10021 1
gene 2 10 12 6.84805 0 6 6.84805 1
gene 2 11 12 2.57063 0 7 2.57063 1
gene 3 1 13 -2.70112 0 5 -2.70112 1
gene 1 2 14 6.25912 0 6 6.25912 1
gene 1 3 15 1.17389 0 7 1.17389 1
gene 2 8 13 8 0 12 8 1
gene 1 3 20 0.756325 0 18 0.756325 1
gene 1 20 14 2.38929 0 19 2.38929 1
genomeend 1392

/* Organism #1324 Fitness: 8067 Error: 0 */
genomestart 1324
trait 1 0.1 0 0.0270375 0.0752198 0.192663 0.283637 0.140785 0.000292833 
trait 2 0.114844 0.00965237 0.147906 0.0531022 0.224101 0.00213975 0.189752 0.0715543 
trait 3 0.35645 0.0388424 0.0580168 0.42098 0.196255 0 0 0.182342 
node 1 1 1 1
node 2 1 1 1
node 3 2 1 1
node 4 3 1 1
node 5 3 1 1
node 6 3 1 1
node 7 3 1 1
node 8 3 1 1
node 9 2 1 1
node 10 2 1 1
node 11 3 1 3
node 12 2 0 2
node 13 1 0 2
node 14 1 0 2
node 15 3 0 2
node 16 1 0 2
node 20 1 0 0
gene 3 1 12 5.83709 0 1 5.83709 1
gene 1 2 13 2.94024 0 2 2.94024 1
gene 1 3 14 5.553 0 3 5.553 0
gene 3 4 15 4.04436 0 4 4.04436 1
gene 1 5 16 -0.891993 0 5 -0.891993 1
gene 3 6 12 3.78971 0 2 3.78971 1
gene 2 7 12 -0.608921 0 3 -0.608921 1
gene 2 8 12 3.87661 0 4 3.87661 1
gene 1 9 12 -1.35151 0 5 -1.35151 1
gene 2 10 12 5.16259 0 6 5.16259 1
gene 2 11 12 4.59614 0 7 4.59614 1
gene 3 1 13 -1.01932 0 5 -1.01932 1
gene 1 2 14 1.64892 0 6 1.64892 1
gene 1 3 15 1.88528 0 7 1.88528 1
gene 2 8 13 8 0 12 8 1
gene 1 3 20 -0.796838 0 18 -0.796838 1
gene 1 20 14 4.3849 0 19 4.3849 1
genomeend 1324

/* Organism #1396 Fitness: 7183 Error: 0 */
genomestart 1396
trait 1 0.1 0 0.0270375 0.0752198 0.192663 0.283637 0.140785 0.000292833 
trait 2 0.114844 0.00965237 0.147906 0.0531022 0.224101 0.00213975 0.189752 0.0715543 
trait 3 0.35645 0.0388424 0.0580168 0.42098 0.196255 0 0 0.182342 
node 1 1 1 1
node 2 1 1 1
node 3 2 1 1
node 4 3 1 1
node 5 3 1 1
node 6 3 1 1
node 7 3 1 1
node 8 3 1 1
node 9 2 1 1
node 10 2 1 1
node 11 3 1 3
node 12 2 0 2
node 13 1 0 2
node 14 1 0 2
node 15 3 0 2
node 16 1 0 2
node 20 1 0 0
gene 3 1 12 6.00433 0 1 6.00433 1
gene 1 2 13 4.11589 0 2 4.11589 1
gene 1 3 14 3.84426 0 3 3.84426 0
gene 3 4 15 2.85223 0 4 2.85223 1
gene 1 5 16 -4.7081 0 5 -4.7081 1
gene 3 6 12 0.0331126 0 2 0.0331126 1
gene 2 7 12 0.347606 0 3 0.347606 1
gene 2 8 12 4.47714 0 4 4.47714 1
gene 1 9 12 1.04816 0 5 1.04816 1
gene 2 10 12 6.82745 0 6 6.82745 1
gene 2 11 12 4.50413 0 7 4.50413 1
gene 3 1 13 2.28751 0 5 2.28751 1
gene 1 2 14 2.85257 0 6 2.85257 1
gene 1 3 15 0.597018 0 7 0.597018 1
gene 2 8 13 6.3385 0 12 6.3385 1
gene 1 3 20 -0.316706 0 18 -0.316706 1
gene 1 20 14 2.5 0 19 2.5 1
genomeend 1396

/* Organism #1421 Fitness: 6884 Error: 0 */
genomestart 1421
trait 1 0.1 0 0 0.103503 0.176224 0.149443 0.0145529 0.000299153 
trait 2 0.0984375 0.00965237 0.0100373 0.0354663 0.0815258 0.00213975 0.225795 0.0791223 
trait 3 0.35645 0.0388424 0.0399251 0.42098 0.130551 0 0 0.182342 
node 1 1 1 1
node 2 1 1 1
node 3 2 1 1
node 4 3 1 1
node 5 3 1 1
node 6 3 1 1
node 7 1 1 1
node 8 3 1 1
node 9 2 1 1
node 10 2 1 1
node 11 3 1 3
node 12 2 0 2
node 13 1 0 2
node 14 1 0 2
node 15 3 0 2
node 16 1 0 2
node 20 1 0 0
gene 3 1 12 5.03987 0 1 5.03987 1
gene 1 2 13 -1.78233 0 2 -1.78233 1
gene 1 3 14 2.88835 0 3 2.88835 0
gene 3 4 15 5.03789 0 4 5.03789 1
gene 1 5 16 -0.209676 0 5 -0.209676 1
gene 3 6 12 5.5965 0 2 5.5965 1
gene 2 7 12 -0.890068 0 3 -0.890068 1
gene 2 8 12 8 0 4 8 1
gene 1 9 12 3.35643 0 5 3.35643 1
gene 2 10 12 5.50409 0 6 5.50409 1
gene 2 11 12 5.40555 0 7 5.40555 1
gene 3 1 13 3.47023 0 5 3.47023 1
gene 1 2 14 2.07953 0 6 2.07953 1
gene 1 3 15 2.20679 0 7 2.20679 1
gene 2 8 13 7.70317 0 12 7.70317 1
gene 1 3 20 -2.52998 0 18 -2.52998 1
gene 1 20 14 4.67498 0 19 4.67498 1
genomeend 1421

/* Organism #2343 Fitness: 6750 Error: 0 */
genomestart 2343
trait 1 0.1 0 0.04326 0.0517513 0.192663 0.35477 0.216524 0.000292833 
trait 2 0.114844 0.00965237 0.011328 0.0354663 0.0815258 0.00213975 0.189752 0.0715543 
trait 3 0.35645 0.0388424 0.0580168 0.42098 0.196255 0 0 0.182342 
node 1 1 1 1
node 2 1 1 1
node 3 2 1 1
node 4 3 1 1
node 5 3 1 1
node 6 3 1 1
node 7 1 1 1
node 8 3 1 1
node 9 2 1 1
node 10 2 1 1
node 11 3 1 3
node 12 2 0 2
node 13 1 0 2
node 14 1 0 2
node 15 3 0 2
node 16 1 0 2
node 20 1 0 0
gene 3 1 12 3.32319 0 1 3.32319 1
gene 1 2 13 -1.31716 0 2 -1.31716 1
gene 1 3 14 1.4209 0 3 1.4209 1
gene 3 4 15 1.0728 0 4 1.0728 1
gene 1 5 16 -2.06421 0 5 -2.06421 1
gene 3 6 12 -0.57645 0 2 -0.57645 1
gene 2 7 12 -4.50655 0 3 -4.50655 1
gene 2 8 12 -0.854595 0 4 -0.854595 1
gene 1 9 12 -1.8067 0 5 -1.8067 1
gene 2 10 12 3.72864 0 6 3.72864 1
gene 2 11 12 7.56256 0 7 7.56256 1
gene 3 1 13 7.38559 0 5 7.38559 1
gene 1 2 14 -1.4285 0 6 -1.4285 1
gene 1 3 15 -6.6763 0 7 -6.6763 1
gene 2 8 13 8 0 12 8 1
gene 1 3 20 -0.0144963 0 18 -0.0144963 1
gene 1 20 14 -0.152138 0 19 -0.152138 1
genomeend 2343

/* Organism #2669 Fitness: 6568 Error: 0 */
genomestart 2669
trait 1 0.1 0 0.372221 0.0962814 0.604551 0.344944 0.0902922 0.000143256 
trait 2 0.123047 0.00965237 0.0574994 0.0413449 0.129051 0.00213975 0.171731 0.0677703 
trait 3 0.35645 0.0388424 0.0670626 0.42098 0.229107 0 0 0.182342 
node 1 1 1 1
node 2 1 1 1
node 3 2 1 1
node 4 3 1 1
node 5 3 1 1
node 6 3 1 1
node 7 3 1 1
node 8 3 1 1
node 9 2 1 1
node 10 2 1 1
node 11 3 1 3
node 12 2 0 2
node 13 1 0 2
node 14 1 0 2
node 15 3 0 2
node 16 1 0 2
node 20 1 0 0
gene 3 1 12 3.18572 0 1 3.18572 1
gene 1 2 13 1.33481 0 2 1.33481 1
gene 1 3 14 3.0707 0 3 3.0707 0
gene 3 4 15 3.08833 0 4 3.08833 1
gene 1 5 16 -6.73462 0 5 -6.73462 1
gene 3 6 12 -2.79344 0 2 -2.79344 1
gene 2 7 12 -0.836584 0 3 -0.836584 1
gene 2 8 12 0.992767 0 4 0.992767 1
gene 1 9 12 -0.128178 0 5 -0.128178 1
gene 2 10 12 1.73016 0 6 1.73016 1
gene 2 11 12 6.76471 0 7 6.76471 1
gene 3 1 13 8 0 5 8 1
gene 1 2 14 4.50156 0 6 4.50156 1
gene 1 3 15 2.97838 0 7 2.97838 1
gene 2 8 13 8 0 12 8 1
gene 1 3 20 -1.1401 0 18 -1.1401 1
gene 1 20 14 7.11119 0 19 7.11119 1
genomeend 2669

/* Organism #2796 Fitness: 0 Error: 0 */
genomestart 2796
trait 1 0.1 0 0.0378525 0.0589724 0.19175 0.33019 0.191278 0.000293184 
trait 2 0.118945 0.00965237 0.0112784 0.0354663 0.0815258 0.00213975 0.180742 0.0697227 
trait 3 0.35645 0.0388424 0.0614093 0.42098 0.21294 0 0 0.182342 
node 1 1 1 1
node 2 1 1 1
node 3 2 1 1
node 4 3 1 1
node 5 3 1 1
node 6 3 1 1
node 7 1 1 1
node 8 3 1 1
node 9 2 1 1
node 10 2 1 1
node 11 3 1 3
node 12 2 0 2
node 13 1 0 2
node 14 1 0 2
node 15 3 0 2
node 16 1 0 2
node 20 1 0 0
gene 3 1 12 3.10417 0 1 3.10417 1
gene 1 2 13 -2.83458 0 2 -2.83458 1
gene 1 3 14 1.01745 0 3 1.01745 1
gene 3 4 15 2.03721 0 4 2.03721 1
gene 1 5 16 -0.553224 0 5 -0.553224 1
gene 3 6 12 1.38105 0 2 1.38105 1
gene 2 7 12 -2.35015 0 3 -2.35015 1
gene 3 8 12 1.23673 0 4 1.23673 1
gene 1 9 12 1.5986 0 5 1.5986 1
gene 2 10 12 2.24292 0 6 2.24292 1
gene 2 11 12 6.92554 0 7 6.92554 1
gene 3 1 13 6.64258 0 5 6.64258 1
gene 1 2 14 -0.979737 0 6 -0.979737 1
gene 1 3 15 -6.3356 0 7 -6.3356 1
gene 2 8 13 -0.10567 0 12 -0.10567 1
gene 1 3 20 0.982391 0 18 0.982391 1
gene 1 20 14 -0.266252 0 19 -0.266252 1
genomeend 2796

/* Species #10 : (Size 6) (AF 0) (Age 1)  */


/* Organism #657 Fitness: 9222 Error: 0 */
genomestart 657
trait 1 0.1 0 0 0.125166 0.209102 0.180721 0.0145529 0.000286513 
trait 2 0.13125 0.00965237 0.0126188 0.0354663 0.0815258 0.00213975 0.15371 0.0639863 
trait 3 0.35645 0.0388424 0.0761084 0.42098 0.261959 0 0 0.182342 
node 1 1 1 1
node 2 1 1 1
node 3 2 1 1
node 4 3 1 1
node 5 3 1 1
node 6 3 1 1
node 7 1 1 1
node 8 3 1 1
node 9 2 1 1
node 10 2 1 1
node 11 3 1 3
node 12 2 0 2
node 13 1 0 2
node 14 1 0 2
node 15 3 0 2
node 16 1 0 2
node 20 1 0 0
gene 3 1 12 7.57249 0 1 7.57249 1
gene 1 2 13 1.33481 0 2 1.33481 1
gene 1 3 14 3.0707 0 3 3.0707 1
gene 3 4 15 3.3134 0 4 3.3134 1
gene 1 5 16 -6.73462 0 5 -6.73462 1
gene 3 6 12 -2.79344 0 2 -2.79344 1
gene 2 7 12 -0.836584 0 3 -0.836584 1
gene 2 8 12 -1.36464 0 4 -1.36464 1
gene 1 9 12 -0.128178 0 5 -0.128178 1
gene 2 10 12 3.06558 0 6 3.06558 1
gene 2 11 12 6.76471 0 7 6.76471 1
gene 3 1 13 8 0 5 8 1
gene 1 2 14 2.4134 0 6 2.4134 1
gene 1 3 15 -6.07978 0 7 -6.07978 1
gene 2 8 13 8 0 12 8 1
gene 1 3 20 -4.75673 0 18 -4.75673 1
gene 1 20 14 0.33875 0 19 0.33875 1
genomeend 657

/* Organism #1162 Fitness: 8227 Error: 0 */
genomestart 1162
trait 1 0.1 0 0.744442 0.067397 1 0.509167 0.166032 0 
trait 2 0.114844 0.00965237 0.10238 0.0472236 0.176576 0.00213975 0.189752 0.0715543 
trait 3 0.35645 0.0388424 0.0580168 0.42098 0.196255 0 0 0.182342 
node 1 1 1 1
node 2 1 1 1
node 3 2 1 1
node 4 3 1 1
node 5 3 1 1
node 6 3 1 1
node 7 3 1 1
node 8 3 1 1
node 9 2 1 1
node 10 2 1 1
node 11 3 1 3
node 12 2 0 2
node 13 1 0 2
node 14 1 0 2
node 15 3 0 2
node 16 1 0 2
node 20 1 0 0
gene 3 1 12 3.18572 0 1 3.18572 1
gene 1 2 13 -0.902345 0 2 -0.902345 1
gene 1 3 14 5.0811 0 3 5.0811 0
gene 3 4 15 3.08833 0 4 3.08833 1
gene 1 5 16 0.0252404 0 5 0.0252404 1
gene 3 6 12 6.31872 0 2 6.31872 1
gene 2 7 12 -0.747169 0 3 -0.747169 1
gene 2 8 12 0.992767 0 4 0.992767 1
gene 1 9 12 4.53032 0 5 4.53032 1
gene 2 10 12 1.73016 0 6 1.73016 1
gene 2 11 12 4.08999 0 7 4.08999 1
gene 3 1 13 5.32957 0 5 5.32957 1
gene 1 2 14 4.50156 0 6 4.50156 1
gene 1 3 15 2.97838 0 7 2.97838 1
gene 2 8 13 8 0 12 8 1
gene 1 3 20 -1.1401 0 18 -1.1401 1
gene 1 20 14 7.11119 0 19 7.11119 1
genomeend 1162

/* Organism #984 Fitness: 7359 Error: 0 */
genomestart 984
trait 1 0.1 0 0.04326 0.0517513 0.192663 0.35477 0.216524 0.000292833 
trait 2 0.114844 0.00965237 0.011328 0.0354663 0.0815258 0.00213975 0.189752 0.0715543 
trait 3 0.35645 0.0388424 0.0580168 0.42098 0.196255 0 0 0.182342 
node 1 1 1 1
node 2 1 1 1
node 3 2 1 1
node 4 3 1 1
node 5 3 1 1
node 6 3 1 1
node 7 1 1 1
node 8 3 1 1
node 9 2 1 1
node 10 2 1 1
node 11 3 1 3
node 12 2 0 2
node 13 1 0 2
node 14 1 0 2
node 15 3 0 2
node 16 1 0 2
node 20 1 0 0
gene 3 1 12 2.93852 0 1 2.93852 1
gene 1 2 13 0.324138 0 2 0.324138 1
gene 1 3 14 4.35926 0 3 4.35926 1
gene 3 4 15 5.05223 0 4 5.05223 1
gene 1 5 16 -2.76424 0 5 -2.76424 1
gene 3 6 12 -3.20788 0 2 -3.20788 1
gene 2 7 12 -2.23609 0 3 -2.23609 1
gene 2 8 12 1.38356 0 4 1.38356 1
gene 1 9 12 -0.961562 0 5 -0.961562 1
gene 2 10 12 4.24116 0 6 4.24116 1
gene 2 11 12 8 0 7 8 1
gene 3 1 13 8 0 5 8 1
gene 1 2 14 -0.853713 0 6 -0.853713 1
gene 1 3 15 -5.46513 0 7 -5.46513 1
gene 2 8 13 8 0 12 8 1
gene 1 3 20 -1.2701 0 18 -1.2701 1
gene 1 20 14 -0.468236 0 19 -0.468236 1
genomeend 984

/* Organism #872 Fitness: 6294 Error: 0 */
genomestart 872
trait 1 0.1 0 0.04326 0.0625829 0.209102 0.370409 0.216524 0.000286513 
trait 2 0.13125 0.00965237 0.0126188 0.0354663 0.0815258 0.00213975 0.15371 0.0639863 
trait 3 0.35645 0.0388424 0.0761084 0.42098 0.261959 0 0 0.182342 
node 1 1 1 1
node 2 1 1 1
node 3 2 1 1
node 4 3 1 1
node 5 3 1 1
node 6 3 1 1
node 7 1 1 1
node 8 3 1 1
node 9 2 1 1
node 10 2 1 1
node 11 3 1 3
node 12 2 0 2
node 13 1 0 2
node 14 1 0 2
node 15 3 0 2
node 16 1 0 2
node 20 1 0 0
gene 3 1 12 5.30962 0 1 5.30962 1
gene 1 2 13 5.14528 0 2 5.14528 1
gene 1 3 14 2.14019 0 3 2.14019 1
gene 3 4 15 3.09253 0 4 3.09253 1
gene 1 5 16 -4.47213 0 5 -4.47213 1
gene 3 6 12 -5.07401 0 2 -5.07401 1
gene 2 7 12 3.18766 0 3 3.18766 1
gene 2 8 12 0.0511185 0 4 0.0511185 1
gene 1 9 12 0.240181 0 5 0.240181 1
gene 2 10 12 5.68551 0 6 5.68551 1
gene 2 11 12 6.45274 0 7 6.45274 1
gene 3 1 13 8 0 5 8 1
gene 1 2 14 0.597171 0 6 0.597171 1
gene 1 3 15 -7.75944 0 7 -7.75944 1
gene 2 8 13 8 0 12 8 1
gene 1 3 20 1.68119 0 18 1.68119 1
gene 1 20 14 0.877935 0 19 0.877935 1
genomeend 872

/* Organism #1253 Fitness: 5724 Error: 0 */
genomestart 1253
trait 1 0.1 0 0.04326 0.0517513 0.192663 0.35477 0.216524 0.000292833 
trait 2 0.114844 0.00965237 0.011328 0.0354663 0.0815258 0.00213975 0.189752 0.0715543 
trait 3 0.35645 0.0388424 0.0580168 0.42098 0.196255 0 0 0.182342 
node 1 1 1 1
node 2 1 1 1
node 3 2 1 1
node 4 3 1 1
node 5 3 1 1
node 6 3 1 1
node 7 1 1 1
node 8 3 1 1
node 9 2 1 1
node 10 2 1 1
node 11 3 1 3
node 12 2 0 2
node 13 1 0 2
node 14 1 0 2
node 15 3 0 2
node 16 1 0 2
node 20 1 0 0
gene 3 1 12 0.123905 0 1 0.123905 1
gene 1 2 13 0.819939 0 2 0.819939 1
gene 1 3 14 4.82528 0 3 4.82528 0
gene 3 4 15 4.54977 0 4 4.54977 1
gene 1 5 16 -3.19927 0 5 -3.19927 1
gene 3 6 12 1.56816 0 2 1.56816 1
gene 2 7 12 0.231029 0 3 0.231029 1
gene 2 8 12 3.50205 0 4 3.50205 1
gene 1 9 12 4.09299 0 5 4.09299 1
gene 2 10 12 1.14143 0 6 1.14143 1
gene 2 11 12 7.04428 0 7 7.04428 1
gene 3 1 13 4.14899 0 5 4.14899 1
gene 1 2 14 -0.250633 0 6 -0.250633 1
gene 1 3 15 0.311365 0 7 0.311365 1
gene 2 8 13 6.17818 0 12 6.17818 1
gene 1 3 20 1.16512 0 18 1.16512 1
gene 1 20 14 3.28001 0 19 3.28001 1
genomeend 1253

/* Organism #874 Fitness: 5137 Error: 0 */
genomestart 874
trait 1 0.1 0 0.04326 0.0625829 0.209102 0.370409 0.216524 0.000286513 
trait 2 0.13125 0.00965237 0.0126188 0.0354663 0.0815258 0.00213975 0.15371 0.0639863 
trait 3 0.35645 0.0388424 0.0761084 0.42098 0.261959 0 0 0.182342 
node 1 1 1 1
node 2 1 1 1
node 3 2 1 1
node 4 3 1 1
node 5 3 1 1
node 6 3 1 1
node 7 1 1 1
node 8 3 1 1
node 9 2 1 1
node 10 2 1 1
node 11 3 1 3
node 12 2 0 2
node 13 1 0 2
node 14 1 0 2
node 15 3 0 2
node 16 1 0 2
node 20 1 0 0
gene 3 1 12 5.30962 0 1 5.30962 1
gene 1 2 13 5.27384 0 2 5.27384 1
gene 1 3 14 2.14019 0 3 2.14019 1
gene 3 4 15 3.97527 0 4 3.97527 1
gene 1 5 16 -2.02271 0 5 -2.02271 1
gene 3 6 12 -4.29243 0 2 -4.29243 1
gene 2 7 12 2.82625 0 3 2.82625 1
gene 2 8 12 0.959655 0 4 0.959655 1
gene 1 9 12 1.10172 0 5 1.10172 1
gene 2 10 12 -1.5479 0 6 -1.5479 1
gene 2 11 12 8 0 7 8 1
gene 3 1 13 8 0 5 8 1
gene 1 2 14 1.15566 0 6 1.15566 1
gene 1 3 15 -7.60501 0 7 -7.60501 1
gene 2 8 13 7.78278 0 12 7.78278 1
gene 1 3 20 -0.328379 0 18 -0.328379 1
gene 1 20 14 -0.152211 0 19 -0.152211 1
genomeend 874

/* Species #15 : (Size 1) (AF 0) (Age 1)  */


/* Organism #866 Fitness: 5190 Error: 0 */
genomestart 866
trait 1 0 0.251717 0.0564287 0 0 0.781687 0 0.000342692 
trait 2 0.13125 0.00965237 0.0022927 0.0354663 0.0815258 0.00213975 0.15371 0.06566 
trait 3 0.35645 0.0388424 0.0424322 0.42098 0.269678 0 0 0.182342 
node 1 1 1 1
node 2 1 1 1
node 3 2 1 1
node 4 3 1 1
node 5 3 1 1
node 6 3 1 1
node 7 1 1 1
node 8 3 1 1
node 9 2 1 1
node 10 2 1 1
node 11 3 1 3
node 12 2 0 2
node 13 1 0 2
node 14 1 0 2
node 15 3 0 2
node 16 1 0 2
node 20 1 0 0
node 29 1 0 0
gene 3 1 12 4.19856 0 1 4.19856 0
gene 1 2 13 1.13069 0 2 1.13069 1
gene 1 3 14 4.10458 0 3 4.10458 1
gene 3 4 15 3.24098 0 4 3.24098 1
gene 1 5 16 1.80502 0 5 1.80502 1
gene 3 6 12 4.83208 0 2 4.83208 1
gene 2 7 12 0.506149 0 3 0.506149 1
gene 2 8 12 2.27001 0 4 2.27001 1
gene 1 9 12 -0.900715 0 5 -0.900715 1
gene 2 10 12 3.56904 0 6 3.56904 1
gene 2 11 12 0.0041963 0 7 0.0041963 1
gene 3 1 13 7.22872 0 5 7.22872 1
gene 1 2 14 0.509507 0 6 0.509507 1
gene 1 3 15 2.18467 0 7 2.18467 1
gene 2 8 13 4.79018 0 12 4.79018 1
gene 1 3 20 -5.20363 0 18 -5.20363 1
gene 1 20 14 1.57 0 19 1.57 1
gene 3 1 29 1 0 95 0 1
gene 3 29 12 4.19856 0 96 0 1
genomeend 866

/* Species #17 : (Size 1) (AF 0) (Age 1)  */


/* Organism #1846 Fitness: 5137 Error: 0 */
genomestart 1846
trait 1 0.1 0 0 0.138798 0.288525 0 0.152405 0.556804 
trait 2 0.575462 0.845916 0 0 0.211199 0.456345 0 0.0659175 
trait 3 0.462539 0.0194212 0.0299596 0.412389 0.214686 0 0 0.171901 
node 1 2 1 1
node 2 2 1 1
node 3 2 1 1
node 4 1 1 1
node 5 1 1 1
node 6 3 1 1
node 7 1 1 1
node 8 1 1 1
node 9 2 1 1
node 10 2 1 1
node 11 3 1 3
node 12 3 0 2
node 13 3 0 2
node 14 2 0 2
node 15 2 0 2
node 16 1 0 2
node 23 1 0 0
gene 3 1 12 -4.95514 0 1 -4.95514 1
gene 1 2 13 -8 0 2 -8 1
gene 1 3 14 1.43437 0 3 1.43437 1
gene 3 4 15 0.389492 0 4 0.389492 1
gene 1 5 16 -2.41241 0 5 -2.41241 1
gene 3 6 12 -1.38737 0 2 -1.38737 0
gene 1 7 12 -1.0889 0 3 -1.0889 1
gene 3 8 12 -6.23012 0 4 -6.23012 1
gene 3 9 12 -3.83308 0 5 -3.83308 1
gene 3 10 12 2.67251 0 6 2.67251 1
gene 2 11 12 -8 0 7 -8 1
gene 3 1 13 -0.484291 0 5 -0.484291 1
gene 1 2 14 -3.59584 0 6 -3.59584 1
gene 1 3 15 2.33329 0 7 2.33329 1
gene 3 16 12 -1.56636 0 24 -1.56636 1
gene 3 6 23 0.937643 0 63 0.937643 1
gene 3 23 12 -0.515458 0 64 -0.515458 1
gene 1 14 12 -0.421155 0 101 -0.421155 1
genomeend 1846

/* Species #18 : (Size 1) (AF 0) (Age 1)  */


/* Organism #2659 Fitness: 3365 Error: 0 */
genomestart 2659
trait 1 0.1 0 0.032445 0.0661935 0.190837 0.30561 0.166032 0.000293535 
trait 2 0.123047 0.00965237 0.0112287 0.0354663 0.0815258 0.00213975 0.171731 0.067891 
trait 3 0.35645 0.0388424 0.0648019 0.42098 0.229625 0 0 0.182342 
node 1 1 1 1
node 2 1 1 1
node 3 2 1 1
node 4 3 1 1
node 5 3 1 1
node 6 3 1 1
node 7 1 1 1
node 8 3 1 1
node 9 2 1 1
node 10 2 1 1
node 11 3 1 3
node 12 2 0 2
node 13 1 0 2
node 14 1 0 2
node 15 3 0 2
node 16 1 0 2
node 20 1 0 0
node 27 1 0 0
gene 3 1 12 7.25426 0 1 7.25426 1
gene 1 2 13 -1.46449 0 2 -1.46449 1
gene 1 3 14 3.48457 0 3 3.48457 0
gene 3 4 15 1.84808 0 4 1.84808 1
gene 1 5 16 -2.66665 0 5 -2.66665 1
gene 3 6 12 1.16059 0 2 1.16059 1
gene 2 7 12 -4.30772 0 3 -4.30772 1
gene 2 8 12 4.86469 0 4 4.86469 1
gene 1 9 12 -1.60756 0 5 -1.60756 1
gene 2 10 12 2.17837 0 6 2.17837 1
gene 2 11 12 8 0 7 8 1
gene 3 1 13 5.67251 0 5 5.67251 1
gene 1 2 14 -0.437881 0 6 -0.437881 1
gene 1 3 15 -8 0 7 -8 0
gene 2 8 13 7.51086 0 12 7.51086 1
gene 1 3 20 0.611744 0 18 0.611744 1
gene 1 20 14 -1.46194 0 19 -1.46194 1
gene 1 3 27 1 0 87 0 1
gene 1 27 15 -8 0 88 0 1
gene 3 7 13 -0.116794 0 121 0 1
genomeend 2659

/* Species #19 : (Size 1) (AF 0) (Age 1)  */


/* Organism #2727 Fitness: 2704 Error: 0 */
genomestart 2727
trait 1 0.1 0 0.744442 0.067397 1 0.509167 0.166032 0 
trait 2 0.114844 0.00965237 0.10238 0.0472236 0.176576 0.00213975 0.189752 0.0715543 
trait 3 0.35645 0.0388424 0.0580168 0.42098 0.196255 0 0 0.182342 
node 1 1 1 1
node 2 1 1 1
node 3 2 1 1
node 4 3 1 1
node 5 3 1 1
node 6 3 1 1
node 7 3 1 1
node 8 3 1 1
node 9 2 1 1
node 10 2 1 1
node 11 3 1 3
node 12 2 0 2
node 13 1 0 2
node 14 1 0 2
node 15 3 0 2
node 16 1 0 2
node 20 1 0 0
node 24 1 0 0
gene 3 1 12 3.18572 0 1 3.18572 1
gene 1 2 13 -0.902345 0 2 -0.902345 1
gene 1 3 14 5.0811 0 3 5.0811 0
gene 3 4 15 3.08833 0 4 3.08833 1
gene 1 5 16 0.0252404 0 5 0.0252404 1
gene 3 6 12 6.31872 0 2 6.31872 1
gene 2 7 12 -0.747169 0 3 -0.747169 1
gene 2 8 12 0.992767 0 4 0.992767 1
gene 1 9 12 4.53032 0 5 4.53032 0
gene 2 10 12 1.73016 0 6 1.73016 1
gene 2 11 12 4.08999 0 7 4.08999 1
gene 3 1 13 5.32957 0 5 5.32957 1
gene 1 2 14 4.50156 0 6 4.50156 1
gene 1 3 15 2.97838 0 7 2.97838 1
gene 2 8 13 8 0 12 8 1
gene 1 3 20 -1.1401 0 18 -1.1401 1
gene 1 20 14 7.11119 0 19 7.11119 1
gene 1 9 24 1 0 66 0 1
gene 1 24 12 4.53032 0 67 0 1
genomeend 2727
