
/* Species #1 : (Size 8) (AF 0) (Age 1)  */


/* Organism #63 Fitness: 27213.9 Error: 0 */
genomestart 63
trait 1 0.05 0.645863 0.206756 0.0524392 0.39447 0 0.570443 0 
trait 2 0.11797 0.132428 1 0.175333 0 0 0.182885 0.0705722 
trait 3 0.35645 0.0388424 0 1 0.185397 0 0 0 
node 1 1 1 1
node 2 1 1 1
node 3 2 1 1
node 4 3 1 1
node 5 3 1 1
node 6 1 1 1
node 7 1 1 1
node 8 2 1 1
node 9 2 1 1
node 10 2 1 1
node 11 3 1 3
node 12 2 0 2
node 13 1 0 2
node 14 1 0 2
node 15 3 0 2
node 16 1 0 2
node 20 1 0 0
node 50 1 0 0
node 85 1 0 0
gene 3 1 12 3.0134 0 1 3.0134 1
gene 1 2 13 4.18162 0 2 4.18162 1
gene 1 3 14 5.00915 0 3 5.00915 1
gene 2 4 15 -0.359127 0 4 -0.359127 1
gene 1 5 16 -0.421079 0 5 -0.421079 1
gene 3 6 12 -0.0947979 0 2 -0.0947979 1
gene 2 7 12 0.15427 0 3 0.15427 1
gene 2 8 12 4.4267 0 4 4.4267 1
gene 2 9 12 -0.636273 0 5 -0.636273 1
gene 2 10 12 1.74936 0 6 1.74936 1
gene 2 11 12 -2.27195 0 7 -2.27195 1
gene 3 1 13 -2.91478 0 5 -2.91478 1
gene 1 2 14 0.155301 0 6 0.155301 1
gene 1 3 15 4.22191 0 7 4.22191 1
gene 2 8 13 -0.246208 0 12 -0.246208 1
gene 1 3 20 2.62479 0 18 2.62479 1
gene 1 20 14 -1.18656 0 19 -1.18656 1
gene 3 4 50 -5.78673 0 281 -5.78673 1
gene 3 50 15 -2.08148 0 282 -2.08148 1
gene 2 10 85 -2.85752 0 499 -2.85752 1
gene 2 85 12 -3.06539 0 500 -3.06539 1
gene 3 85 50 -5.25418 0 531 -5.25418 1
gene 3 6 85 0.485397 0 563 0.485397 1
genomeend 63

/* Organism #19 Fitness: 27026.1 Error: 0 */
genomestart 19
trait 1 0.1 0.645863 0.0267734 0.0524392 0.329298 0 0.570443 0 
trait 2 0.11797 0.132428 1 0.175333 0 0 0.182885 0.0705722 
trait 3 0.35645 0.0388424 0 1 0.185397 0 0 0 
node 1 1 1 1
node 2 1 1 1
node 3 2 1 1
node 4 3 1 1
node 5 3 1 1
node 6 1 1 1
node 7 1 1 1
node 8 2 1 1
node 9 2 1 1
node 10 2 1 1
node 11 3 1 3
node 12 2 0 2
node 13 1 0 2
node 14 1 0 2
node 15 3 0 2
node 16 1 0 2
node 20 1 0 0
node 50 1 0 0
node 85 1 0 0
gene 3 1 12 4.08345 0 1 4.08345 1
gene 1 2 13 7.11844 0 2 7.11844 1
gene 1 3 14 6.58879 0 3 6.58879 1
gene 2 4 15 -6.06471 0 4 -6.06471 1
gene 1 5 16 0.865123 0 5 0.865123 0
gene 3 6 12 2.25272 0 2 2.25272 1
gene 2 7 12 6.89802 0 3 6.89802 1
gene 2 8 12 3.67003 0 4 3.67003 1
gene 2 9 12 1.5009 0 5 1.5009 1
gene 2 10 12 0.927266 0 6 0.927266 1
gene 2 11 12 1.2495 0 7 1.2495 1
gene 3 1 13 0.642949 0 5 0.642949 1
gene 1 2 14 0.599078 0 6 0.599078 1
gene 1 3 15 8 0 7 8 1
gene 2 8 13 6.3433 0 12 6.3433 1
gene 1 3 20 2.03818 0 18 2.03818 1
gene 1 20 14 -2.75113 0 19 -2.75113 1
gene 3 4 50 -5.5956 0 281 -5.5956 1
gene 3 50 15 0.916656 0 282 0.916656 1
gene 2 10 85 -3.7302 0 499 -3.7302 1
gene 2 85 12 -2.35107 0 500 -2.35107 1
gene 3 85 50 -2.88553 0 531 -2.88553 1
gene 3 6 85 -2.02635 0 563 -2.02635 1
genomeend 19

/* Organism #38 Fitness: 26867.3 Error: 0 */
genomestart 38
trait 1 0 0.645863 0.0267734 0.0524392 0.459643 0 0.570443 0 
trait 2 0.11797 0.132428 1 0.175333 0 0 0.182885 0.0705722 
trait 3 0.35645 0.0388424 0 1 0.185397 0 0 0 
node 1 1 1 1
node 2 1 1 1
node 3 2 1 1
node 4 3 1 1
node 5 3 1 1
node 6 1 1 1
node 7 1 1 1
node 8 2 1 1
node 9 2 1 1
node 10 2 1 1
node 11 3 1 3
node 12 2 0 2
node 13 1 0 2
node 14 1 0 2
node 15 3 0 2
node 16 1 0 2
node 20 1 0 0
node 50 1 0 0
node 85 1 0 0
gene 3 1 12 2.85852 0 1 2.85852 1
gene 1 2 13 8 0 2 8 1
gene 1 3 14 7.27439 0 3 7.27439 1
gene 2 4 15 -4.26252 0 4 -4.26252 1
gene 1 5 16 -0.417798 0 5 -0.417798 0
gene 3 6 12 1.06555 0 2 1.06555 1
gene 2 7 12 5.91677 0 3 5.91677 1
gene 2 8 12 4.15413 0 4 4.15413 1
gene 2 9 12 3.73348 0 5 3.73348 1
gene 2 10 12 2.70741 0 6 2.70741 1
gene 2 11 12 1.94655 0 7 1.94655 1
gene 3 1 13 -0.142674 0 5 -0.142674 1
gene 1 2 14 2.37587 0 6 2.37587 1
gene 1 3 15 8 0 7 8 1
gene 2 8 13 8 0 12 8 1
gene 1 3 20 1.2048 0 18 1.2048 1
gene 1 20 14 -1.76821 0 19 -1.76821 1
gene 3 4 50 -6.27655 0 281 -6.27655 1
gene 3 50 15 -0.877833 0 282 -0.877833 1
gene 2 10 85 -1.14933 0 499 -1.14933 1
gene 2 85 12 -3.42959 0 500 -3.42959 1
gene 3 85 50 -2.88553 0 531 -2.88553 1
gene 3 6 85 -2.02635 0 563 -2.02635 1
genomeend 38

/* Organism #54 Fitness: 26866.7 Error: 0 */
genomestart 54
trait 1 0.1 0.645863 0.0267734 0.0524392 0.329298 0 0.570443 0 
trait 2 0.11797 0.132428 1 0.175333 0 0 0.182885 0.0705722 
trait 3 0.35645 0.0388424 0 1 0.185397 0 0 0 
node 1 1 1 1
node 2 1 1 1
node 3 2 1 1
node 4 3 1 1
node 5 3 1 1
node 6 1 1 1
node 7 1 1 1
node 8 2 1 1
node 9 2 1 1
node 10 2 1 1
node 11 3 1 3
node 12 2 0 2
node 13 1 0 2
node 14 1 0 2
node 15 3 0 2
node 16 1 0 2
node 20 1 0 0
node 50 1 0 0
node 85 1 0 0
gene 3 1 12 4.90804 0 1 4.90804 1
gene 1 2 13 6.23051 0 2 6.23051 1
gene 1 3 14 7.41056 0 3 7.41056 1
gene 2 4 15 -5.87986 0 4 -5.87986 1
gene 1 5 16 2.30708 0 5 2.30708 0
gene 3 6 12 0.556562 0 2 0.556562 1
gene 2 7 12 7.83331 0 3 7.83331 1
gene 2 8 12 3.42331 0 4 3.42331 1
gene 2 9 12 1.30572 0 5 1.30572 1
gene 2 10 12 1.79218 0 6 1.79218 1
gene 2 11 12 -0.776544 0 7 -0.776544 1
gene 3 1 13 2.23083 0 5 2.23083 1
gene 1 2 14 2.19203 0 6 2.19203 1
gene 1 3 15 6.38938 0 7 6.38938 1
gene 2 8 13 6.03053 0 12 6.03053 1
gene 1 3 20 1.29359 0 18 1.29359 1
gene 1 20 14 -2.15055 0 19 -2.15055 1
gene 3 4 50 -6.38346 0 281 -6.38346 1
gene 3 50 15 2.74401 0 282 2.74401 1
gene 2 10 85 -3.26951 0 499 -3.26951 1
gene 2 85 12 -1.02912 0 500 -1.02912 1
gene 3 85 50 -2.45468 0 531 -2.45468 1
gene 3 6 85 -0.397946 0 563 -0.397946 1
gene 3 14 15 0.604297 0 597 0.604297 1
genomeend 54

/* Organism #58 Fitness: 26866.7 Error: 0 */
genomestart 58
trait 1 0.1 0.645863 0.386739 0.0524392 0.329298 0 0.570443 0 
trait 2 0.11797 0.132428 1 0.175333 0 0 0.182885 0.0705722 
trait 3 0.35645 0.0388424 0 1 0.185397 0 0 0 
node 1 1 1 1
node 2 1 1 1
node 3 2 1 1
node 4 3 1 1
node 5 3 1 1
node 6 1 1 1
node 7 1 1 1
node 8 2 1 1
node 9 2 1 1
node 10 2 1 1
node 11 3 1 3
node 12 2 0 2
node 13 1 0 2
node 14 1 0 2
node 15 3 0 2
node 16 1 0 2
node 20 1 0 0
node 50 1 0 0
node 85 1 0 0
gene 3 1 12 2.09693 0 1 2.09693 1
gene 1 2 13 -0.129017 0 2 -0.129017 1
gene 1 3 14 6.58879 0 3 6.58879 1
gene 2 4 15 -1.85781 0 4 -1.85781 1
gene 1 5 16 0.865123 0 5 0.865123 0
gene 2 6 12 -0.129017 0 2 -0.129017 1
gene 2 7 12 -1.79098 0 3 -1.79098 1
gene 2 8 12 3.41139 0 4 3.41139 1
gene 2 9 12 -0.94203 0 5 -0.94203 1
gene 2 10 12 0.478643 0 6 0.478643 1
gene 2 11 12 2.67953 0 7 2.67953 1
gene 3 1 13 0.642949 0 5 0.642949 1
gene 1 2 14 -1.71766 0 6 -1.71766 1
gene 1 3 15 0.617313 0 7 0.617313 1
gene 2 8 13 5.94122 0 12 5.94122 1
gene 1 3 20 2.03818 0 18 2.03818 1
gene 1 20 14 -2.40124 0 19 -2.40124 1
gene 3 4 50 -5.38266 0 281 -5.38266 1
gene 3 50 15 -1.54314 0 282 -1.54314 1
gene 2 10 85 -6.00406 0 499 -6.00406 1
gene 2 85 12 -3.28166 0 500 -3.28166 1
gene 3 85 50 -1.83073 0 531 -1.83073 1
gene 3 6 85 -3.81184 0 563 -3.81184 1
genomeend 58

/* Organism #53 Fitness: 26866.7 Error: 0 */
genomestart 53
trait 1 0.1 0.645863 0.0267734 0.0524392 0.329298 0 0.570443 0 
trait 2 0.11797 0.132428 1 0.175333 0 0 0.182885 0.0705722 
trait 3 0.35645 0.0388424 0 1 0.185397 0 0 0 
node 1 1 1 1
node 2 1 1 1
node 3 2 1 1
node 4 3 1 1
node 5 3 1 1
node 6 1 1 1
node 7 1 1 1
node 8 2 1 1
node 9 2 1 1
node 10 2 1 1
node 11 3 1 3
node 12 2 0 2
node 13 1 0 2
node 14 1 0 2
node 15 3 0 2
node 16 1 0 2
node 20 1 0 0
node 50 1 0 0
node 85 1 0 0
gene 3 1 12 3.24286 0 1 3.24286 1
gene 1 2 13 5.64205 0 2 5.64205 1
gene 1 3 14 7.54421 0 3 7.54421 1
gene 2 4 15 -5.40853 0 4 -5.40853 1
gene 1 5 16 2.89636 0 5 2.89636 0
gene 3 6 12 0.567912 0 2 0.567912 1
gene 2 7 12 8 0 3 8 1
gene 2 8 12 5.25093 0 4 5.25093 1
gene 2 9 12 2.54719 0 5 2.54719 1
gene 2 10 12 2.04161 0 6 2.04161 1
gene 2 11 12 -1.14925 0 7 -1.14925 1
gene 3 1 13 2.05634 0 5 2.05634 1
gene 1 2 14 4.18844 0 6 4.18844 1
gene 1 3 15 6.22703 0 7 6.22703 1
gene 2 8 13 7.78294 0 12 7.78294 1
gene 1 3 20 1.76836 0 18 1.76836 1
gene 1 20 14 0.377739 0 19 0.377739 1
gene 3 4 50 -7.01239 0 281 -7.01239 1
gene 3 50 15 6.59237 0 282 6.59237 1
gene 2 10 85 -1.96078 0 499 -1.96078 1
gene 2 85 12 1.66089 0 500 1.66089 1
gene 3 85 50 -2.02383 0 531 -2.02383 1
gene 3 6 85 0.438887 0 563 0.438887 1
genomeend 53

/* Organism #30 Fitness: 26866.7 Error: 0 */
genomestart 30
trait 1 0.1 0.645863 0.0267734 0.0524392 0.329298 0 0.570443 0 
trait 2 0.11797 0.132428 1 0.175333 0 0 0.182885 0.0705722 
trait 3 0.35645 0.0388424 0 1 0.185397 0 0 0 
node 1 1 1 1
node 2 1 1 1
node 3 2 1 1
node 4 3 1 1
node 5 3 1 1
node 6 1 1 1
node 7 1 1 1
node 8 2 1 1
node 9 2 1 1
node 10 2 1 1
node 11 3 1 3
node 12 2 0 2
node 13 1 0 2
node 14 1 0 2
node 15 3 0 2
node 16 1 0 2
node 20 1 0 0
node 50 1 0 0
node 85 1 0 0
gene 3 1 12 1.66105 0 1 1.66105 1
gene 1 2 13 7.78931 0 2 7.78931 1
gene 1 3 14 3.34498 0 3 3.34498 1
gene 2 4 15 -4.49072 0 4 -4.49072 1
gene 1 5 16 -0.387432 0 5 -0.387432 0
gene 3 6 12 1.48625 0 2 1.48625 1
gene 2 7 12 5.98719 0 3 5.98719 1
gene 2 8 12 6.83656 0 4 6.83656 1
gene 2 9 12 1.20334 0 5 1.20334 1
gene 2 10 12 3.28284 0 6 3.28284 1
gene 2 11 12 -0.214698 0 7 -0.214698 1
gene 3 1 13 -1.16398 0 5 -1.16398 1
gene 1 2 14 1.02351 0 6 1.02351 1
gene 1 3 15 6.03178 0 7 6.03178 1
gene 2 8 13 6.6898 0 12 6.6898 1
gene 1 3 20 1.83935 0 18 1.83935 1
gene 1 20 14 1.48331 0 19 1.48331 1
gene 3 4 50 -5.55143 0 281 -5.55143 1
gene 3 50 15 4.87926 0 282 4.87926 1
gene 2 10 85 -0.375454 0 499 -0.375454 1
gene 2 85 12 2.42889 0 500 2.42889 1
gene 3 85 50 -0.48677 0 531 -0.48677 1
gene 3 6 85 -2.63491 0 563 -2.63491 1
genomeend 30

/* Organism #66 Fitness: 27070.6 Error: 0 */
genomestart 66
trait 1 0.05 0.645863 0.206756 0.0524392 0.39447 0 0.570443 0 
trait 2 0.11797 0.132428 1 0.175333 0 0 0.182885 0.0705722 
trait 3 0.35645 0.0388424 0 1 0.185397 0 0 0 
node 1 1 1 1
node 2 1 1 1
node 3 2 1 1
node 4 3 1 1
node 5 3 1 1
node 6 1 1 1
node 7 1 1 1
node 8 2 1 1
node 9 2 1 1
node 10 2 1 1
node 11 3 1 3
node 12 2 0 2
node 13 1 0 2
node 14 1 0 2
node 15 3 0 2
node 16 1 0 2
node 20 1 0 0
node 50 1 0 0
node 85 1 0 0
gene 3 1 12 3.0134 0 1 3.0134 1
gene 1 2 13 2.78082 0 2 2.78082 1
gene 1 3 14 -1.882 0 3 -1.882 1
gene 2 4 15 -0.0613422 0 4 -0.0613422 1
gene 1 5 16 -2.09639 0 5 -2.09639 1
gene 3 6 12 0.0983843 0 2 0.0983843 1
gene 2 7 12 2.07404 0 3 2.07404 1
gene 2 8 12 5.3225 0 4 5.3225 1
gene 2 9 12 0.222327 0 5 0.222327 1
gene 2 10 12 -0.241136 0 6 -0.241136 1
gene 2 11 12 -1.50739 0 7 -1.50739 1
gene 3 1 13 -3.88245 0 5 -3.88245 1
gene 1 2 14 0.155301 0 6 0.155301 1
gene 1 3 15 -1.37761 0 7 -1.37761 1
gene 2 8 13 -2.53052 0 12 -2.53052 1
gene 1 3 20 1.88898 0 18 1.88898 1
gene 1 20 14 -1.90497 0 19 -1.90497 1
gene 3 4 50 -1.43063 0 281 -1.43063 1
gene 3 50 15 -1.16944 0 282 -1.16944 1
gene 2 10 85 -1.83042 0 499 -1.83042 1
gene 2 85 12 -4.70157 0 500 -4.70157 1
gene 3 85 50 -7.23697 0 531 -7.23697 1
gene 3 6 85 2.93283 0 563 2.93283 1
genomeend 66

/* Species #2 : (Size 2) (AF 0) (Age 1)  */


/* Organism #1442 Fitness: 26886.5 Error: 0 */
genomestart 1442
trait 1 0.1 0 0.0297413 0.0523154 0.163837 0.268069 0.153408 0.000303915 
trait 2 0.117407 0.132428 0.00920261 0.0354663 0.227404 0.00213975 0.184121 0.070749 
trait 3 0.839112 0.0388424 0.0492459 0.42098 0.796838 0 0 0.0455855 
node 1 1 1 1
node 2 1 1 1
node 3 2 1 1
node 4 3 1 1
node 5 3 1 1
node 6 3 1 1
node 7 1 1 1
node 8 3 1 1
node 9 3 1 1
node 10 2 1 1
node 11 3 1 3
node 12 2 0 2
node 13 1 0 2
node 14 1 0 2
node 15 3 0 2
node 16 1 0 2
node 20 1 0 0
node 38 1 0 0
node 79 1 0 0
gene 3 1 12 1.97098 0 1 1.97098 0
gene 1 2 13 6.01518 0 2 6.01518 0
gene 1 3 14 -0.610376 0 3 -0.610376 1
gene 3 4 15 -0.570315 0 4 -0.570315 1
gene 1 5 16 -0.529196 0 5 -0.529196 1
gene 3 6 12 7.49692 0 2 7.49692 1
gene 2 7 12 0.396061 0 3 0.396061 1
gene 2 8 12 -1.8754 0 4 -1.8754 1
gene 1 9 12 3.83652 0 5 3.83652 1
gene 2 10 12 2.39764 0 6 2.39764 1
gene 2 11 12 4.42632 0 7 4.42632 1
gene 3 1 13 6.71749 0 5 6.71749 1
gene 1 2 14 -3.35235 0 6 -3.35235 1
gene 1 3 15 -5.04777 0 7 -5.04777 1
gene 2 8 13 6.67782 0 12 6.67782 1
gene 1 3 20 -2.23579 0 18 -2.23579 1
gene 1 20 14 -1.03132 0 19 -1.03132 1
gene 2 11 13 1.10851 0 161 1.10851 1
gene 3 4 38 0.734657 0 169 0.734657 1
gene 3 38 15 0.880688 0 170 0.880688 1
gene 3 1 79 2.22846 0 480 2.22846 1
gene 3 79 12 3.30876 0 481 3.30876 1
genomeend 1442

/* Organism #16 Fitness: 27137.1 Error: 0 */
genomestart 16
trait 1 0.1 0 0.0297413 0.0523154 0.163837 0.268069 0.153408 0.000303915 
trait 2 0.117407 0.132428 0.00920261 0.0354663 0.227404 0.00213975 0.184121 0.070749 
trait 3 0.839112 0.0388424 0.0492459 0.42098 0.796838 0 0 0.0455855 
node 1 1 1 1
node 2 1 1 1
node 3 2 1 1
node 4 3 1 1
node 5 3 1 1
node 6 3 1 1
node 7 1 1 1
node 8 3 1 1
node 9 3 1 1
node 10 2 1 1
node 11 3 1 3
node 12 2 0 2
node 13 1 0 2
node 14 1 0 2
node 15 3 0 2
node 16 1 0 2
node 20 1 0 0
node 38 1 0 0
node 79 1 0 0
gene 3 1 12 1.0979 0 1 1.0979 0
gene 1 2 13 5.69978 0 2 5.69978 0
gene 1 3 14 -3.56823 0 3 -3.56823 1
gene 3 4 15 -0.33059 0 4 -0.33059 1
gene 1 5 16 1.56507 0 5 1.56507 1
gene 3 6 12 1.39248 0 2 1.39248 1
gene 2 7 12 1.71636 0 3 1.71636 1
gene 2 8 12 -1.90313 0 4 -1.90313 1
gene 1 9 12 5.09251 0 5 5.09251 1
gene 2 10 12 -1.10455 0 6 -1.10455 1
gene 2 11 12 3.69425 0 7 3.69425 1
gene 3 1 13 -0.192648 0 5 -0.192648 1
gene 1 2 14 -6.204 0 6 -6.204 1
gene 1 3 15 -5.76892 0 7 -5.76892 1
gene 2 8 13 -0.790055 0 12 -0.790055 1
gene 1 3 20 -2.84135 0 18 -2.84135 1
gene 1 20 14 -2.88202 0 19 -2.88202 1
gene 2 11 13 3.55014 0 161 3.55014 1
gene 3 4 38 -0.829417 0 169 -0.829417 1
gene 3 38 15 -3.90927 0 170 -3.90927 1
gene 3 1 79 -1.11454 0 480 -1.11454 1
gene 3 79 12 -0.69422 0 481 -0.69422 1
genomeend 16

/* Species #3 : (Size 8) (AF 0) (Age 1)  */


/* Organism #5 Fitness: 26967.8 Error: 0 */
genomestart 5
trait 1 0.1 0 0.032445 0.0522026 0.169602 0.285409 0.166031 0.000301699 
trait 2 0.116894 0.913 0.00962769 0 1 0 0.588274 0.857128 
trait 3 0.471947 0 0.687097 0.42098 1 0 0.919736 0 
node 1 1 1 1
node 2 1 1 1
node 3 2 1 1
node 4 3 1 1
node 5 3 1 1
node 6 3 1 1
node 7 1 1 1
node 8 3 1 1
node 9 2 1 1
node 10 2 1 1
node 11 3 1 3
node 12 2 0 2
node 13 1 0 2
node 14 1 0 2
node 15 3 0 2
node 16 1 0 2
node 20 1 0 0
node 39 1 0 0
gene 3 1 12 0.472457 0 1 0.472457 1
gene 1 2 13 -0.0760643 0 2 -0.0760643 1
gene 1 3 14 8 0 3 8 1
gene 3 4 15 -0.911968 0 4 -0.911968 1
gene 1 5 16 3.50711 0 5 3.50711 1
gene 3 6 12 4.22484 0 2 4.22484 1
gene 2 7 12 0.765825 0 3 0.765825 1
gene 2 8 12 3.3317 0 4 3.3317 1
gene 1 9 12 -1.62191 0 5 -1.62191 1
gene 2 10 12 -0.0191516 0 6 -0.0191516 1
gene 2 11 12 -2.04382 0 7 -2.04382 1
gene 3 1 13 4.79014 0 5 4.79014 1
gene 1 2 14 4.50507 0 6 4.50507 1
gene 1 3 15 5.34973 0 7 5.34973 1
gene 2 8 13 1.90664 0 12 1.90664 1
gene 1 3 20 -0.132298 0 18 -0.132298 1
gene 1 20 14 0.00580008 0 19 0.00580008 1
gene 1 5 39 1.78327 0 171 1.78327 1
gene 1 39 16 0.717032 0 172 0.717032 1
gene 3 8 39 -0.94714 0 231 -0.94714 1
gene 1 11 20 1.56034 0 275 1.56034 1
gene 1 4 39 -0.31129 0 422 -0.31129 1
genomeend 5

/* Organism #31 Fitness: 26890.1 Error: 0 */
genomestart 31
trait 1 0.1 0 0.032445 0.0522026 0.169602 0.285409 0.166031 0.000301699 
trait 2 0.116894 0.913 0.00962769 0 1 0 0.588274 0.857128 
trait 3 0.471947 0 0.687097 0.42098 1 0 0.919736 0 
node 1 1 1 1
node 2 1 1 1
node 3 2 1 1
node 4 3 1 1
node 5 3 1 1
node 6 3 1 1
node 7 1 1 1
node 8 3 1 1
node 9 2 1 1
node 10 2 1 1
node 11 3 1 3
node 12 2 0 2
node 13 1 0 2
node 14 1 0 2
node 15 3 0 2
node 16 1 0 2
node 20 1 0 0
node 39 1 0 0
node 88 1 0 0
gene 3 1 12 0.472457 0 1 0.472457 1
gene 1 2 13 -0.0760643 0 2 -0.0760643 1
gene 1 3 14 8 0 3 8 1
gene 3 4 15 -0.911968 0 4 -0.911968 0
gene 1 5 16 3.50711 0 5 3.50711 1
gene 3 6 12 4.22484 0 2 4.22484 1
gene 2 7 12 0.765825 0 3 0.765825 1
gene 2 8 12 3.3317 0 4 3.3317 1
gene 1 9 12 -1.62191 0 5 -1.62191 1
gene 2 10 12 -0.0191516 0 6 -0.0191516 1
gene 2 11 12 -2.04382 0 7 -2.04382 1
gene 3 1 13 4.79014 0 5 4.79014 1
gene 1 2 14 4.50507 0 6 4.50507 1
gene 1 3 15 5.34973 0 7 5.34973 1
gene 2 8 13 1.90664 0 12 1.90664 1
gene 1 3 20 -0.132298 0 18 -0.132298 1
gene 1 20 14 0.00580008 0 19 0.00580008 1
gene 1 5 39 1.78327 0 171 1.78327 1
gene 1 39 16 0.717032 0 172 0.717032 1
gene 3 8 39 -0.94714 0 231 -0.94714 1
gene 1 11 20 1.56034 0 275 1.56034 1
gene 1 4 39 -0.31129 0 422 -0.31129 1
gene 3 4 88 1 0 593 0 1
gene 3 88 15 -0.911968 0 594 0 1
genomeend 31

/* Organism #15 Fitness: 27123.8 Error: 0 */
genomestart 15
trait 1 0.1 0 0.032445 0.0522026 0.169602 0.285409 0.166031 0.000301699 
trait 2 0.116894 0.913 0.00962769 0 1 0 0.588274 0.857128 
trait 3 0.471947 0 0.687097 0.42098 1 0 0.919736 0 
node 1 1 1 1
node 2 1 1 1
node 3 2 1 1
node 4 3 1 1
node 5 3 1 1
node 6 3 1 1
node 7 1 1 1
node 8 3 1 1
node 9 2 1 1
node 10 2 1 1
node 11 3 1 3
node 12 2 0 2
node 13 1 0 2
node 14 1 0 2
node 15 3 0 2
node 16 1 0 2
node 20 1 0 0
node 39 1 0 0
node 78 1 0 0
gene 3 1 12 1.53745 0 1 1.53745 1
gene 1 2 13 2.95228 0 2 2.95228 0
gene 1 3 14 -3.05971 0 3 -3.05971 1
gene 3 4 15 -0.706426 0 4 -0.706426 1
gene 1 5 16 0.737708 0 5 0.737708 1
gene 3 6 12 6.75368 0 2 6.75368 1
gene 2 7 12 0.0893804 0 3 0.0893804 1
gene 2 8 12 1.87696 0 4 1.87696 1
gene 1 9 12 1.64487 0 5 1.64487 1
gene 2 10 12 1.16428 0 6 1.16428 1
gene 2 11 12 -2.16422 0 7 -2.16422 1
gene 3 1 13 3.59229 0 5 3.59229 1
gene 1 2 14 3.53259 0 6 3.53259 1
gene 1 3 15 -2.02788 0 7 -2.02788 1
gene 2 8 13 -1.84965 0 12 -1.84965 1
gene 1 3 20 -0.317469 0 18 -0.317469 1
gene 2 20 14 1.55217 0 19 1.55217 1
gene 1 5 39 4.20484 0 171 4.20484 1
gene 1 39 16 -1.23325 0 172 -1.23325 1
gene 3 8 39 0.058977 0 231 0.058977 1
gene 1 11 20 3.29478 0 275 3.29478 1
gene 1 4 39 -5.91403 0 422 -5.91403 1
gene 1 2 78 3.26409 0 477 3.26409 1
gene 1 78 13 -3.02438 0 478 -3.02438 1
genomeend 15

/* Organism #7 Fitness: 26894.3 Error: 0 */
genomestart 7
trait 1 0.1 0 0.032445 0.0522026 0.169602 0.285409 0.166031 0.000301699 
trait 2 0.116894 0.913 0.00962769 0 1 0 0.588274 0.857128 
trait 3 0.471947 0 0.687097 0.42098 1 0 0.919736 0 
node 1 1 1 1
node 2 1 1 1
node 3 2 1 1
node 4 3 1 1
node 5 3 1 1
node 6 3 1 1
node 7 1 1 1
node 8 3 1 1
node 9 2 1 1
node 10 2 1 1
node 11 3 1 3
node 12 2 0 2
node 13 1 0 2
node 14 1 0 2
node 15 3 0 2
node 16 1 0 2
node 20 1 0 0
node 39 1 0 0
node 78 1 0 0
gene 3 1 12 2.49431 0 1 2.49431 1
gene 1 2 13 0.527131 0 2 0.527131 0
gene 1 3 14 -1.5392 0 3 -1.5392 1
gene 3 4 15 -0.706426 0 4 -0.706426 1
gene 1 5 16 -0.845592 0 5 -0.845592 1
gene 3 6 12 6.67044 0 2 6.67044 1
gene 2 7 12 1.32538 0 3 1.32538 1
gene 2 8 12 2.56035 0 4 2.56035 1
gene 1 9 12 -2.57431 0 5 -2.57431 1
gene 2 10 12 1.16428 0 6 1.16428 1
gene 2 11 12 -2.33604 0 7 -2.33604 1
gene 3 1 13 3.58855 0 5 3.58855 1
gene 1 2 14 1.22997 0 6 1.22997 1
gene 1 3 15 2.22936 0 7 2.22936 1
gene 2 8 13 -1.49625 0 12 -1.49625 1
gene 1 3 20 0.814005 0 18 0.814005 1
gene 1 20 14 -0.0440977 0 19 -0.0440977 1
gene 1 5 39 4.13907 0 171 4.13907 1
gene 1 39 16 -0.679571 0 172 -0.679571 1
gene 3 8 39 -0.09888 0 231 -0.09888 1
gene 1 11 20 1.78282 0 275 1.78282 1
gene 1 4 39 -3.60981 0 422 -3.60981 1
gene 1 2 78 3.26409 0 477 3.26409 1
gene 1 78 13 -1.43345 0 478 -1.43345 1
gene 3 1 20 0.0731223 0 592 0.0731223 1
genomeend 7

/* Organism #27 Fitness: 26877.2 Error: 0 */
genomestart 27
trait 1 0.1 0 0.032445 0.0522026 0.169602 0.285409 0.166031 0.000301699 
trait 2 0.116894 0.913 0.00962769 0 1 0 0.588274 0.857128 
trait 3 0.471947 0 0.687097 0.42098 1 0 0.919736 0 
node 1 1 1 1
node 2 1 1 1
node 3 2 1 1
node 4 3 1 1
node 5 3 1 1
node 6 3 1 1
node 7 1 1 1
node 8 3 1 1
node 9 2 1 1
node 10 2 1 1
node 11 3 1 3
node 12 2 0 2
node 13 1 0 2
node 14 1 0 2
node 15 3 0 2
node 16 1 0 2
node 20 1 0 0
node 39 1 0 0
node 78 1 0 0
gene 3 1 12 1.84732 0 1 1.84732 1
gene 1 2 13 1.04167 0 2 1.04167 0
gene 1 3 14 0.487916 0 3 0.487916 1
gene 3 4 15 -1.21944 0 4 -1.21944 1
gene 1 5 16 -0.92967 0 5 -0.92967 1
gene 3 6 12 8 0 2 8 1
gene 2 7 12 3.00314 0 3 3.00314 1
gene 2 8 12 0.661565 0 4 0.661565 1
gene 1 9 12 -1.48953 0 5 -1.48953 1
gene 2 10 12 0.112917 0 6 0.112917 1
gene 2 11 12 -4.80628 0 7 -4.80628 1
gene 3 1 13 2.35583 0 5 2.35583 1
gene 1 2 14 1.05983 0 6 1.05983 1
gene 1 3 15 0.0828406 0 7 0.0828406 1
gene 2 8 13 -3.2841 0 12 -3.2841 1
gene 1 3 20 2.68006 0 18 2.68006 1
gene 1 20 14 1.55706 0 19 1.55706 1
gene 1 5 39 3.74088 0 171 3.74088 1
gene 1 39 16 -2.46376 0 172 -2.46376 1
gene 3 8 39 -1.15993 0 231 -1.15993 1
gene 1 11 20 2.02926 0 275 2.02926 1
gene 1 4 39 -2.29904 0 422 -2.29904 1
gene 1 2 78 1.86855 0 477 1.86855 1
gene 1 78 13 -0.946074 0 478 -0.946074 1
genomeend 27

/* Organism #9 Fitness: 26866.7 Error: 0 */
genomestart 9
trait 1 0.1 0 0.032445 0.0522026 0.169602 0.285409 0.166031 0.000301699 
trait 2 0.116894 0.913 0.00962769 0 1 0 0.588274 0.857128 
trait 3 0.471947 0 0.687097 0.42098 1 0 0.919736 0 
node 1 2 1 1
node 2 1 1 1
node 3 2 1 1
node 4 3 1 1
node 5 3 1 1
node 6 3 1 1
node 7 1 1 1
node 8 3 1 1
node 9 2 1 1
node 10 2 1 1
node 11 3 1 3
node 12 2 0 2
node 13 1 0 2
node 14 1 0 2
node 15 3 0 2
node 16 1 0 2
node 20 1 0 0
node 39 1 0 0
gene 3 1 12 1.4373 0 1 1.4373 1
gene 1 2 13 0.150685 0 2 0.150685 1
gene 1 3 14 3.67725 0 3 3.67725 1
gene 3 4 15 -2.08083 0 4 -2.08083 1
gene 1 5 16 0.606632 0 5 0.606632 1
gene 3 6 12 4.48448 0 2 4.48448 1
gene 2 7 12 -0.45568 0 3 -0.45568 1
gene 2 8 12 2.56035 0 4 2.56035 1
gene 1 9 12 -0.459456 0 5 -0.459456 1
gene 2 10 12 0.523087 0 6 0.523087 1
gene 2 11 12 -0.34463 0 7 -0.34463 1
gene 3 1 13 3.25346 0 5 3.25346 1
gene 1 2 14 2.41951 0 6 2.41951 1
gene 1 3 15 2.90154 0 7 2.90154 1
gene 2 8 13 0.977584 0 12 0.977584 1
gene 1 3 20 0.779824 0 18 0.779824 1
gene 1 20 14 -1.63175 0 19 -1.63175 1
gene 1 5 39 2.60384 0 171 2.60384 1
gene 1 39 16 -0.601291 0 172 -0.601291 1
gene 3 8 39 0.245447 0 231 0.245447 1
gene 1 11 20 -0.343944 0 275 -0.343944 1
gene 1 4 39 -4.09154 0 422 -4.09154 1
genomeend 9

/* Organism #89 Fitness: 26866.7 Error: 0 */
genomestart 89
trait 1 0.1 0 0.032445 0.0522026 0.169602 0.285409 0.166031 0.000301699 
trait 2 0.116894 0.913 0.00962769 0 1 0 0.588274 0.857128 
trait 3 0.471947 0 0.687097 0.42098 1 0 0.919736 0 
node 1 1 1 1
node 2 1 1 1
node 3 2 1 1
node 4 3 1 1
node 5 3 1 1
node 6 3 1 1
node 7 1 1 1
node 8 3 1 1
node 9 2 1 1
node 10 2 1 1
node 11 3 1 3
node 12 2 0 2
node 13 1 0 2
node 14 1 0 2
node 15 3 0 2
node 16 1 0 2
node 20 1 0 0
node 39 1 0 0
gene 3 1 12 1.4373 0 1 1.4373 1
gene 1 2 13 0.150685 0 2 0.150685 1
gene 1 3 14 3.67725 0 3 3.67725 1
gene 3 4 15 -2.08083 0 4 -2.08083 1
gene 1 5 16 0.606632 0 5 0.606632 1
gene 3 6 12 4.48448 0 2 4.48448 1
gene 2 7 12 -0.45568 0 3 -0.45568 1
gene 2 8 12 2.56035 0 4 2.56035 1
gene 1 9 12 -0.459456 0 5 -0.459456 1
gene 2 10 12 0.523087 0 6 0.523087 1
gene 2 11 12 -0.34463 0 7 -0.34463 1
gene 3 1 13 3.25346 0 5 3.25346 1
gene 1 2 14 2.41951 0 6 2.41951 1
gene 1 3 15 2.90154 0 7 2.90154 1
gene 2 8 13 0.977584 0 12 0.977584 1
gene 1 3 20 0.779824 0 18 0.779824 1
gene 1 20 14 -1.63175 0 19 -1.63175 1
gene 1 5 39 2.60384 0 171 2.60384 1
gene 1 39 16 -0.601291 0 172 -0.601291 1
gene 3 8 39 0.245447 0 231 0.245447 1
gene 1 11 20 -0.343944 0 275 -0.343944 1
gene 1 4 39 -4.09154 0 422 -4.09154 1
genomeend 89

/* Organism #52 Fitness: 26866.7 Error: 0 */
genomestart 52
trait 1 0.1 0 0.032445 0.0522026 0.169602 0.285409 0.166031 0.000301699 
trait 2 0.116894 0.913 0.00962769 0 1 0 0.588274 0.857128 
trait 3 0.471947 0 0.687097 0.42098 1 0 0.919736 0 
node 1 1 1 1
node 2 1 1 1
node 3 2 1 1
node 4 3 1 1
node 5 3 1 1
node 6 3 1 1
node 7 1 1 1
node 8 3 1 1
node 9 2 1 1
node 10 2 1 1
node 11 3 1 3
node 12 2 0 2
node 13 1 0 2
node 14 1 0 2
node 15 3 0 2
node 16 1 0 2
node 20 1 0 0
node 39 1 0 0
gene 3 1 12 1.77972 0 1 1.77972 1
gene 1 2 13 -1.43261 0 2 -1.43261 1
gene 1 3 14 6.91018 0 3 6.91018 1
gene 3 4 15 -0.801719 0 4 -0.801719 1
gene 1 5 16 4.87747 0 5 4.87747 1
gene 3 6 12 4.9582 0 2 4.9582 1
gene 2 7 12 0.514047 0 3 0.514047 1
gene 2 8 12 5.75816 0 4 5.75816 1
gene 1 9 12 -3.08451 0 5 -3.08451 1
gene 2 10 12 1.27064 0 6 1.27064 1
gene 2 11 12 -3.40228 0 7 -3.40228 1
gene 3 1 13 2.30829 0 5 2.30829 1
gene 1 2 14 5.74168 0 6 5.74168 1
gene 1 3 15 5.16043 0 7 5.16043 1
gene 2 8 13 4.36986 0 12 4.36986 1
gene 1 3 20 -0.543459 0 18 -0.543459 1
gene 1 20 14 1.91801 0 19 1.91801 1
gene 1 5 39 0.229728 0 171 0.229728 1
gene 1 39 16 0.717032 0 172 0.717032 1
gene 3 8 39 0.814844 0 231 0.814844 1
gene 1 11 20 0.848567 0 275 0.848567 1
gene 1 4 39 0.0276944 0 422 0.0276944 1
genomeend 52

/* Species #5 : (Size 1) (AF 0) (Age 1)  */


/* Organism #1498 Fitness: 26844.1 Error: 0 */
genomestart 1498
trait 1 0.268157 0 0.0268685 0 0.157712 0.249645 0.00815616 0 
trait 2 0.117952 0.132428 0.00875096 0.0354663 0.227404 0.00213975 0.182924 0.0705778 
trait 3 0.927726 0.0388424 0 1 0 0.69161 0.885617 0.144102 
node 1 1 1 1
node 2 1 1 1
node 3 2 1 1
node 4 3 1 1
node 5 2 1 1
node 6 3 1 1
node 7 1 1 1
node 8 3 1 1
node 9 2 1 1
node 10 2 1 1
node 11 3 1 3
node 12 2 0 2
node 13 1 0 2
node 14 1 0 2
node 15 1 0 2
node 16 1 0 2
node 20 1 0 0
node 53 3 0 0
node 59 1 0 0
gene 3 1 12 6.17553 0 1 6.17553 1
gene 1 2 13 0.482803 0 2 0.482803 1
gene 1 3 14 -2.3188 0 3 -2.3188 0
gene 3 4 15 3.37374 0 4 3.37374 1
gene 1 5 16 -5.34225 0 5 -5.34225 1
gene 3 6 12 -1.05678 0 2 -1.05678 1
gene 2 7 12 0.604829 0 3 0.604829 1
gene 2 8 12 -3.5677 0 4 -3.5677 1
gene 1 9 12 2.60635 0 5 2.60635 1
gene 2 10 12 5.88301 0 6 5.88301 1
gene 2 11 12 -4.14426 0 7 -4.14426 1
gene 3 1 13 5.96286 0 5 5.96286 1
gene 1 2 14 -0.681862 0 6 -0.681862 1
gene 1 3 15 7.14713 0 7 7.14713 1
gene 2 8 13 2.56378 0 12 2.56378 1
gene 1 3 20 0.948366 0 18 0.948366 1
gene 1 20 14 -3.33155 0 19 -3.33155 1
gene 2 8 53 4.0622 0 294 4.0622 1
gene 3 53 13 -1.94342 0 295 -1.94342 1
gene 1 3 59 2.35221 0 327 2.35221 1
gene 1 59 20 2.42897 0 328 2.42897 1
gene 3 20 15 0.468841 0 401 0.468841 1
gene 3 20 16 3.29615 0 483 3.29615 1
gene 3 8 15 0.965697 0 514 0 1
genomeend 1498

/* Species #7 : (Size 6) (AF 0) (Age 1)  */


/* Organism #4 Fitness: 27120.4 Error: 0 */
genomestart 4
trait 1 1 0 0.0268685 0 0 0.249645 0.00815616 0 
trait 2 0.117952 0.132428 0.00875096 0.0354663 0.227404 0.00213975 0.182924 0.0705778 
trait 3 0 0.0388424 0.0473821 0.52041 0 0.393109 0 0.517069 
node 1 1 1 1
node 2 1 1 1
node 3 2 1 1
node 4 3 1 1
node 5 3 1 1
node 6 3 1 1
node 7 1 1 1
node 8 3 1 1
node 9 2 1 1
node 10 2 1 1
node 11 3 1 3
node 12 2 0 2
node 13 1 0 2
node 14 1 0 2
node 15 3 0 2
node 16 1 0 2
node 20 1 0 0
node 53 1 0 0
node 59 1 0 0
node 67 1 0 0
gene 3 1 12 2.52624 0 1 2.52624 1
gene 1 2 13 2.60666 0 2 2.60666 1
gene 1 3 14 -1.3123 0 3 -1.3123 0
gene 3 4 15 0.00270818 0 4 0.00270818 1
gene 1 5 16 1.50578 0 5 1.50578 1
gene 3 6 12 4.55255 0 2 4.55255 1
gene 2 7 12 0.830638 0 3 0.830638 1
gene 2 8 12 -0.344635 0 4 -0.344635 1
gene 1 9 12 -2.31563 0 5 -2.31563 1
gene 2 10 12 -3.20406 0 6 -3.20406 1
gene 2 11 12 -1.54744 0 7 -1.54744 1
gene 1 1 13 -2.34552 0 5 -2.34552 1
gene 1 2 14 5.97775 0 6 5.97775 1
gene 1 3 15 5.87916 0 7 5.87916 1
gene 2 8 13 -0.674311 0 12 -0.674311 1
gene 1 3 20 7.16475 0 18 7.16475 1
gene 1 20 14 3.3343 0 19 3.3343 1
gene 2 8 53 -4.5439 0 294 -4.5439 1
gene 2 53 13 -4.2713 0 295 -4.2713 1
gene 1 3 59 0.373281 0 327 0.373281 1
gene 1 59 20 -2.79474 0 328 -2.79474 1
gene 3 1 67 0.575426 0 382 0.575426 1
gene 3 67 13 4.25615 0 383 4.25615 1
gene 1 2 20 2.45941 0 405 2.45941 1
gene 2 9 67 -0.894345 0 479 -0.894345 1
gene 2 13 12 -0.237892 0 482 -0.237892 1
genomeend 4

/* Organism #64 Fitness: 27121.3 Error: 0 */
genomestart 64
trait 1 1 0 0.0268685 0 0 0.249645 0.00815616 0 
trait 2 0.117952 0.132428 0.00875096 0.0354663 0.227404 0.00213975 0.182924 0.0705778 
trait 3 0 0.0388424 0.0473821 0.52041 0 0.393109 0 0.517069 
node 1 1 1 1
node 2 1 1 1
node 3 2 1 1
node 4 3 1 1
node 5 3 1 1
node 6 3 1 1
node 7 1 1 1
node 8 3 1 1
node 9 2 1 1
node 10 2 1 1
node 11 3 1 3
node 12 2 0 2
node 13 1 0 2
node 14 1 0 2
node 15 3 0 2
node 16 1 0 2
node 20 1 0 0
node 53 1 0 0
node 59 1 0 0
node 67 1 0 0
node 89 1 0 0
gene 3 1 12 2.95274 0 1 2.95274 1
gene 1 2 13 0.171438 0 2 0.171438 1
gene 1 3 14 -0.736564 0 3 -0.736564 0
gene 3 4 15 -0.380528 0 4 -0.380528 1
gene 1 5 16 -0.320292 0 5 -0.320292 1
gene 3 6 12 7.64484 0 2 7.64484 1
gene 2 7 12 -0.970183 0 3 -0.970183 1
gene 2 8 12 1.06059 0 4 1.06059 1
gene 1 9 12 -1.53443 0 5 -1.53443 1
gene 2 10 12 -0.550401 0 6 -0.550401 1
gene 2 11 12 -1.32763 0 7 -1.32763 1
gene 1 1 13 -1.00309 0 5 -1.00309 1
gene 1 2 14 2.5776 0 6 2.5776 1
gene 1 3 15 4.72907 0 7 4.72907 1
gene 2 8 13 1.5031 0 12 1.5031 1
gene 1 3 20 5.45877 0 18 5.45877 0
gene 1 20 14 4.49522 0 19 4.49522 1
gene 2 8 53 -6.97386 0 294 -6.97386 1
gene 2 53 13 -4.06308 0 295 -4.06308 1
gene 1 3 59 -2.19699 0 327 -2.19699 1
gene 1 59 20 -2.49886 0 328 -2.49886 1
gene 3 1 67 0.575426 0 382 0.575426 1
gene 3 67 13 4.25615 0 383 4.25615 1
gene 1 2 20 2.70547 0 405 2.70547 1
gene 2 9 67 0.977432 0 479 0.977432 1
gene 2 13 12 0.212088 0 482 0.212088 1
gene 1 3 89 1 0 598 0 1
gene 1 89 20 5.45877 0 599 0 1
genomeend 64

/* Organism #87 Fitness: 26866.7 Error: 0 */
genomestart 87
trait 1 1 0 0.0268685 0 0 0.249645 0.00815616 0 
trait 2 0.117952 0.132428 0.00875096 0.0354663 0.227404 0.00213975 0.182924 0.0705778 
trait 3 0 0.0388424 0.0473821 0.52041 0 0.393109 0 0.517069 
node 1 1 1 1
node 2 1 1 1
node 3 2 1 1
node 4 3 1 1
node 5 3 1 1
node 6 3 1 1
node 7 1 1 1
node 8 3 1 1
node 9 2 1 1
node 10 2 1 1
node 11 3 1 3
node 12 2 0 2
node 13 1 0 2
node 14 1 0 2
node 15 3 0 2
node 16 1 0 2
node 20 1 0 0
node 53 1 0 0
node 59 1 0 0
node 67 1 0 0
gene 3 1 12 5.62215 0 1 5.62215 1
gene 1 2 13 0.019471 0 2 0.019471 1
gene 1 3 14 1.20663 0 3 1.20663 0
gene 3 4 15 -0.136304 0 4 -0.136304 1
gene 1 5 16 -2.11791 0 5 -2.11791 1
gene 3 6 12 8 0 2 8 1
gene 2 7 12 -3.3334 0 3 -3.3334 1
gene 2 8 12 2.6292 0 4 2.6292 1
gene 1 9 12 0.811907 0 5 0.811907 1
gene 2 10 12 2.61071 0 6 2.61071 1
gene 2 11 12 1.12575 0 7 1.12575 1
gene 1 1 13 2.37867 0 5 2.37867 1
gene 1 2 14 -0.590066 0 6 -0.590066 1
gene 1 3 15 -0.728498 0 7 -0.728498 1
gene 2 8 13 0.278015 0 12 0.278015 1
gene 1 3 20 2.3896 0 18 2.3896 1
gene 1 20 14 -0.108419 0 19 -0.108419 1
gene 2 8 53 -5.53629 0 294 -5.53629 1
gene 2 53 13 -0.553074 0 295 -0.553074 1
gene 1 3 59 -4.22037 0 327 -4.22037 1
gene 1 59 20 -1.4095 0 328 -1.4095 1
gene 3 1 67 4.71278 0 382 4.71278 1
gene 3 67 13 3.41636 0 383 3.41636 1
gene 1 2 20 3.30012 0 405 3.30012 1
gene 2 9 67 0.491699 0 479 0.491699 1
gene 2 13 12 0.518265 0 482 0.518265 1
genomeend 87

/* Organism #1364 Fitness: 26866.7 Error: 0 */
genomestart 1364
trait 1 1 0 0.0268685 0 0 0.249645 0.00815616 0 
trait 2 0.117952 0.132428 0.00875096 0.0354663 0.227404 0.00213975 0.182924 0.0705778 
trait 3 0.45143 0.0388424 0.0473821 0 0 0.257943 0 0 
node 1 1 1 1
node 2 1 1 1
node 3 2 1 1
node 4 3 1 1
node 5 3 1 1
node 6 3 1 1
node 7 1 1 1
node 8 3 1 1
node 9 2 1 1
node 10 2 1 1
node 11 3 1 3
node 12 3 0 2
node 13 1 0 2
node 14 1 0 2
node 15 3 0 2
node 16 1 0 2
node 20 1 0 0
node 53 1 0 0
node 59 1 0 0
node 67 1 0 0
gene 3 1 12 -1.48808 0 1 -1.48808 1
gene 1 2 13 5.49701 0 2 5.49701 1
gene 1 3 14 0.582141 0 3 0.582141 0
gene 3 4 15 -4.73727 0 4 -4.73727 1
gene 1 5 16 -0.602054 0 5 -0.602054 1
gene 3 6 12 8 0 2 8 1
gene 2 7 12 0.26986 0 3 0.26986 1
gene 2 8 12 3.04448 0 4 3.04448 1
gene 1 9 12 -1.46966 0 5 -1.46966 1
gene 2 10 12 1.28109 0 6 1.28109 1
gene 2 11 12 -2.2705 0 7 -2.2705 1
gene 1 1 13 -0.351211 0 5 -0.351211 1
gene 1 2 14 2.37365 0 6 2.37365 1
gene 1 3 15 -1.83531 0 7 -1.83531 1
gene 2 8 13 1.38965 0 12 1.38965 1
gene 1 3 20 -0.707572 0 18 -0.707572 1
gene 1 20 14 3.09465 0 19 3.09465 1
gene 2 8 53 -8 0 294 -8 1
gene 2 53 13 2.91207 0 295 2.91207 1
gene 1 3 59 -8 0 327 -8 1
gene 1 59 20 -2.24212 0 328 -2.24212 1
gene 3 1 67 4.84348 0 382 4.84348 1
gene 3 67 13 3.00161 0 383 3.00161 1
gene 1 2 20 3.26914 0 405 3.26914 1
gene 2 9 67 -1.0932 0 479 -1.0932 1
gene 2 13 12 2.41285 0 482 2.41285 1
genomeend 1364

/* Organism #43 Fitness: 26866.7 Error: 0 */
genomestart 43
trait 1 1 0 0.0268685 0 0 0.249645 0.00815616 0 
trait 2 0.117952 0.132428 0.00875096 0.0354663 0.227404 0.00213975 0.182924 0.0705778 
trait 3 0 0.0388424 0.0473821 0.52041 0 0.393109 0 0.517069 
node 1 1 1 1
node 2 1 1 1
node 3 2 1 1
node 4 3 1 1
node 5 3 1 1
node 6 3 1 1
node 7 1 1 1
node 8 3 1 1
node 9 2 1 1
node 10 2 1 1
node 11 3 1 3
node 12 2 0 2
node 13 1 0 2
node 14 1 0 2
node 15 3 0 2
node 16 1 0 2
node 20 1 0 0
node 53 1 0 0
node 59 1 0 0
node 67 1 0 0
gene 3 1 12 2.95274 0 1 2.95274 1
gene 1 2 13 0.171438 0 2 0.171438 1
gene 1 3 14 -0.736564 0 3 -0.736564 0
gene 3 4 15 -0.380528 0 4 -0.380528 1
gene 1 5 16 -0.320292 0 5 -0.320292 1
gene 3 6 12 7.64484 0 2 7.64484 1
gene 2 7 12 -0.970183 0 3 -0.970183 1
gene 2 8 12 1.06059 0 4 1.06059 1
gene 1 9 12 -1.53443 0 5 -1.53443 1
gene 2 10 12 -0.550401 0 6 -0.550401 1
gene 2 11 12 -1.32763 0 7 -1.32763 1
gene 1 1 13 -1.00309 0 5 -1.00309 1
gene 1 2 14 2.5776 0 6 2.5776 1
gene 1 3 15 4.72907 0 7 4.72907 1
gene 2 8 13 1.5031 0 12 1.5031 1
gene 1 3 20 5.45877 0 18 5.45877 1
gene 1 20 14 4.49522 0 19 4.49522 1
gene 2 8 53 -6.97386 0 294 -6.97386 1
gene 2 53 13 -4.06308 0 295 -4.06308 1
gene 1 3 59 -2.19699 0 327 -2.19699 1
gene 1 59 20 -2.49886 0 328 -2.49886 1
gene 3 1 67 0.575426 0 382 0.575426 1
gene 3 67 13 4.25615 0 383 4.25615 1
gene 1 2 20 2.70547 0 405 2.70547 1
gene 2 9 67 0.977432 0 479 0.977432 1
gene 2 13 12 0.212088 0 482 0.212088 1
genomeend 43

/* Organism #65 Fitness: 20756.5 Error: 0 */
genomestart 65
trait 1 1 0 0.0268685 0 0 0.249645 0.00815616 0 
trait 2 0.117952 0.132428 0.00875096 0.0354663 0.227404 0.00213975 0.182924 0.0705778 
trait 3 0 0.0388424 0.0473821 0.52041 0 0.393109 0 0.517069 
node 1 1 1 1
node 2 1 1 1
node 3 2 1 1
node 4 3 1 1
node 5 3 1 1
node 6 3 1 1
node 7 1 1 1
node 8 3 1 1
node 9 2 1 1
node 10 2 1 1
node 11 3 1 3
node 12 2 0 2
node 13 1 0 2
node 14 1 0 2
node 15 3 0 2
node 16 1 0 2
node 20 1 0 0
node 53 1 0 0
node 59 1 0 0
node 67 1 0 0
gene 3 1 12 2.52624 0 1 2.52624 1
gene 1 2 13 2.60666 0 2 2.60666 1
gene 1 3 14 -1.3123 0 3 -1.3123 0
gene 3 4 15 0.00270818 0 4 0.00270818 1
gene 1 5 16 1.50578 0 5 1.50578 1
gene 3 6 12 4.55255 0 2 4.55255 1
gene 2 7 12 0.830638 0 3 0.830638 1
gene 2 8 12 -0.344635 0 4 -0.344635 1
gene 1 9 12 -2.31563 0 5 -2.31563 1
gene 2 10 12 -3.20406 0 6 -3.20406 1
gene 2 11 12 -1.54744 0 7 -1.54744 1
gene 1 1 13 -2.34552 0 5 -2.34552 1
gene 3 2 14 5.97775 0 6 5.97775 1
gene 1 3 15 5.87916 0 7 5.87916 1
gene 2 8 13 -0.674311 0 12 -0.674311 1
gene 1 3 20 7.16475 0 18 7.16475 1
gene 1 20 14 3.3343 0 19 3.3343 1
gene 2 8 53 -4.5439 0 294 -4.5439 1
gene 2 53 13 -4.2713 0 295 -4.2713 1
gene 1 3 59 0.373281 0 327 0.373281 1
gene 1 59 20 -2.79474 0 328 -2.79474 1
gene 3 1 67 0.575426 0 382 0.575426 1
gene 3 67 13 4.25615 0 383 4.25615 1
gene 1 2 20 2.45941 0 405 2.45941 1
gene 2 9 67 -0.894345 0 479 -0.894345 1
gene 2 13 12 -0.237892 0 482 -0.237892 1
genomeend 65

/* Species #8 : (Size 6) (AF 0) (Age 1)  */


/* Organism #67 Fitness: 27070 Error: 0 */
genomestart 67
trait 1 0.1 0 0.032445 0.0522026 0.169602 0.285409 0.166031 0.000301699 
trait 2 0.116894 0.255204 0.00962769 0 1 0.00213975 0.185247 0.487152 
trait 3 0.471947 0 0.687097 0.42098 1 0 0.919736 0 
node 1 1 1 1
node 2 1 1 1
node 3 2 1 1
node 4 3 1 1
node 5 3 1 1
node 6 3 1 1
node 7 1 1 1
node 8 3 1 1
node 9 2 1 1
node 10 2 1 1
node 11 3 1 3
node 12 2 0 2
node 13 1 0 2
node 14 1 0 2
node 15 3 0 2
node 16 1 0 2
node 20 1 0 0
node 39 1 0 0
node 77 1 0 0
gene 3 1 12 -2.82281 0 1 -2.82281 1
gene 1 2 13 1.06456 0 2 1.06456 1
gene 1 3 14 -2.82075 0 3 -2.82075 1
gene 3 4 15 3.63972 0 4 3.63972 1
gene 1 5 16 1.01154 0 5 1.01154 1
gene 3 6 12 0.365383 0 2 0.365383 1
gene 2 7 12 -0.983234 0 3 -0.983234 0
gene 2 8 12 -0.587705 0 4 -0.587705 1
gene 1 9 12 8 0 5 8 1
gene 2 10 12 0.683235 0 6 0.683235 1
gene 2 11 12 3.04682 0 7 3.04682 1
gene 3 1 13 -2.27531 0 5 -2.27531 1
gene 1 2 14 8 0 6 8 1
gene 1 3 15 1.16038 0 7 1.16038 1
gene 2 8 13 -0.905637 0 12 -0.905637 1
gene 1 3 20 -7.55439 0 18 -7.55439 1
gene 1 20 14 2.05687 0 19 2.05687 1
gene 1 5 39 1.55713 0 171 1.55713 1
gene 1 39 16 1.68096 0 172 1.68096 1
gene 3 8 39 0.569021 0 231 0.569021 1
gene 1 11 20 -3.18102 0 275 -3.18102 1
gene 1 4 39 3.2035 0 422 3.2035 1
gene 2 7 77 0.555361 0 450 0.555361 1
gene 2 77 12 2.27699 0 451 2.27699 1
genomeend 67

/* Organism #51 Fitness: 26844.1 Error: 0 */
genomestart 51
trait 1 0.1 0 0.032445 0.0522026 0.169602 0.285409 0.166031 0.000301699 
trait 2 0.116894 0.255204 0.00962769 0 1 0.00213975 0.185247 0.487152 
trait 3 0.471947 0 0.687097 0.42098 1 0 0.919736 0 
node 1 1 1 1
node 2 1 1 1
node 3 2 1 1
node 4 3 1 1
node 5 3 1 1
node 6 3 1 1
node 7 1 1 1
node 8 3 1 1
node 9 2 1 1
node 10 2 1 1
node 11 3 1 3
node 12 2 0 2
node 13 1 0 2
node 14 1 0 2
node 15 3 0 2
node 16 1 0 2
node 20 1 0 0
node 39 1 0 0
node 77 1 0 0
gene 3 1 12 -2.25364 0 1 -2.25364 1
gene 1 2 13 1.383 0 2 1.383 1
gene 1 3 14 -0.107421 0 3 -0.107421 1
gene 3 4 15 1.63198 0 4 1.63198 1
gene 1 5 16 -6.40195 0 5 -6.40195 1
gene 3 6 12 0.458007 0 2 0.458007 1
gene 2 7 12 -2.49672 0 3 -2.49672 0
gene 2 8 12 0.655766 0 4 0.655766 1
gene 1 9 12 7.18447 0 5 7.18447 1
gene 2 10 12 0.97049 0 6 0.97049 1
gene 2 11 12 4.12786 0 7 4.12786 1
gene 3 1 13 8 0 5 8 1
gene 1 2 14 -2.42622 0 6 -2.42622 1
gene 1 3 15 1.36264 0 7 1.36264 1
gene 2 8 13 -0.641194 0 12 -0.641194 1
gene 1 3 20 0.905408 0 18 0.905408 1
gene 1 20 14 -0.454649 0 19 -0.454649 1
gene 1 5 39 2.25936 0 171 2.25936 1
gene 1 39 16 -1.37242 0 172 -1.37242 1
gene 3 8 39 -0.40315 0 231 -0.40315 1
gene 1 11 20 -3.02889 0 275 -3.02889 1
gene 1 4 39 -0.590533 0 422 -0.590533 1
gene 2 7 77 -1.89689 0 450 -1.89689 1
gene 2 77 12 0.651193 0 451 0.651193 1
genomeend 51

/* Organism #1242 Fitness: 26866.7 Error: 0 */
genomestart 1242
trait 1 0.1 0 0.032445 0.0522026 0.169602 0.285409 0.166031 0.000301699 
trait 2 0.116894 0.255204 0.00962769 0 1 0.00213975 0.185247 0.487152 
trait 3 0.471947 0 0.687097 0.42098 1 0 0.919736 0 
node 1 1 1 1
node 2 1 1 1
node 3 2 1 1
node 4 3 1 1
node 5 3 1 1
node 6 3 1 1
node 7 1 1 1
node 8 3 1 1
node 9 2 1 1
node 10 2 1 1
node 11 3 1 3
node 12 2 0 2
node 13 1 0 2
node 14 1 0 2
node 15 3 0 2
node 16 1 0 2
node 20 1 0 0
node 39 1 0 0
node 77 1 0 0
gene 3 1 12 -2.25364 0 1 -2.25364 1
gene 1 2 13 1.383 0 2 1.383 1
gene 1 3 14 -1.73566 0 3 -1.73566 1
gene 3 4 15 1.63671 0 4 1.63671 1
gene 1 5 16 -6.40195 0 5 -6.40195 1
gene 3 6 12 -0.391705 0 2 -0.391705 1
gene 2 7 12 -1.97356 0 3 -1.97356 0
gene 2 8 12 -0.587705 0 4 -0.587705 1
gene 1 9 12 8 0 5 8 1
gene 2 10 12 -1.24111 0 6 -1.24111 1
gene 2 11 12 3.09336 0 7 3.09336 1
gene 3 1 13 8 0 5 8 1
gene 1 2 14 8 0 6 8 1
gene 1 3 15 -1.07556 0 7 -1.07556 1
gene 2 8 13 -0.905637 0 12 -0.905637 1
gene 1 3 20 -5.85558 0 18 -5.85558 1
gene 1 20 14 1.90077 0 19 1.90077 1
gene 1 5 39 1.01192 0 171 1.01192 1
gene 1 39 16 0.348139 0 172 0.348139 1
gene 3 8 39 -0.153428 0 231 -0.153428 1
gene 1 11 20 -3.02889 0 275 -3.02889 1
gene 1 4 39 1.36705 0 422 1.36705 1
gene 2 7 77 -0.894589 0 450 -0.894589 1
gene 2 77 12 2.27699 0 451 2.27699 1
genomeend 1242

/* Organism #1323 Fitness: 26866.7 Error: 0 */
genomestart 1323
trait 1 0.1 0 0.032445 0.0522026 0.169602 0.285409 0.166031 0.000301699 
trait 2 0.116894 0.255204 0.00962769 0 1 0.00213975 0.185247 0.487152 
trait 3 0.471947 0 0.687097 0.42098 1 0 0.919736 0 
node 1 1 1 1
node 2 1 1 1
node 3 2 1 1
node 4 3 1 1
node 5 3 1 1
node 6 3 1 1
node 7 1 1 1
node 8 3 1 1
node 9 2 1 1
node 10 2 1 1
node 11 3 1 3
node 12 2 0 2
node 13 1 0 2
node 14 1 0 2
node 15 3 0 2
node 16 1 0 2
node 20 1 0 0
node 39 1 0 0
node 77 1 0 0
gene 3 1 12 -2.25364 0 1 -2.25364 1
gene 1 2 13 1.383 0 2 1.383 1
gene 1 3 14 -1.73566 0 3 -1.73566 1
gene 3 4 15 1.63671 0 4 1.63671 1
gene 1 5 16 -6.40195 0 5 -6.40195 1
gene 3 6 12 -0.391705 0 2 -0.391705 1
gene 2 7 12 -1.97356 0 3 -1.97356 0
gene 2 8 12 -0.587705 0 4 -0.587705 1
gene 1 9 12 8 0 5 8 1
gene 2 10 12 -1.24111 0 6 -1.24111 1
gene 2 11 12 3.09336 0 7 3.09336 1
gene 3 1 13 8 0 5 8 1
gene 1 2 14 8 0 6 8 1
gene 1 3 15 -1.07556 0 7 -1.07556 1
gene 2 8 13 -0.905637 0 12 -0.905637 1
gene 1 3 20 -5.85558 0 18 -5.85558 1
gene 1 20 14 1.90077 0 19 1.90077 1
gene 1 5 39 1.01192 0 171 1.01192 1
gene 1 39 16 0.348139 0 172 0.348139 1
gene 3 8 39 -0.153428 0 231 -0.153428 1
gene 1 11 20 -3.02889 0 275 -3.02889 1
gene 1 4 39 1.36705 0 422 1.36705 1
gene 2 7 77 -0.894589 0 450 -0.894589 1
gene 2 77 12 2.27699 0 451 2.27699 1
genomeend 1323

/* Organism #57 Fitness: 26866.7 Error: 0 */
genomestart 57
trait 1 0.1 0 0.032445 0.0522026 0.169602 0.285409 0.166031 0.000301699 
trait 2 0.116894 0.255204 0.00962769 0 1 0.00213975 0.185247 0.487152 
trait 3 0.471947 0 0.687097 0.42098 1 0 0.919736 0 
node 1 1 1 1
node 2 1 1 1
node 3 2 1 1
node 4 3 1 1
node 5 3 1 1
node 6 3 1 1
node 7 1 1 1
node 8 3 1 1
node 9 2 1 1
node 10 2 1 1
node 11 3 1 3
node 12 2 0 2
node 13 1 0 2
node 14 1 0 2
node 15 3 0 2
node 16 1 0 2
node 20 1 0 0
node 39 1 0 0
node 77 1 0 0
gene 3 1 12 -2.25364 0 1 -2.25364 1
gene 1 2 13 1.383 0 2 1.383 1
gene 1 3 14 -1.73566 0 3 -1.73566 1
gene 3 4 15 1.63671 0 4 1.63671 1
gene 1 5 16 -6.40195 0 5 -6.40195 1
gene 3 6 12 -0.391705 0 2 -0.391705 1
gene 2 7 12 -1.97356 0 3 -1.97356 0
gene 2 8 12 -0.587705 0 4 -0.587705 1
gene 1 9 12 8 0 5 8 1
gene 2 10 12 -1.24111 0 6 -1.24111 1
gene 2 11 12 3.09336 0 7 3.09336 1
gene 3 1 13 8 0 5 8 1
gene 1 2 14 8 0 6 8 1
gene 1 3 15 -1.07556 0 7 -1.07556 1
gene 2 8 13 -0.905637 0 12 -0.905637 1
gene 1 3 20 -5.85558 0 18 -5.85558 1
gene 1 20 14 1.90077 0 19 1.90077 1
gene 1 5 39 1.01192 0 171 1.01192 1
gene 1 39 16 0.348139 0 172 0.348139 1
gene 3 8 39 -0.153428 0 231 -0.153428 1
gene 1 11 20 -3.02889 0 275 -3.02889 1
gene 1 4 39 1.36705 0 422 1.36705 1
gene 2 7 77 -0.894589 0 450 -0.894589 1
gene 2 77 12 2.27699 0 451 2.27699 1
genomeend 57

/* Organism #55 Fitness: 27121.2 Error: 0 */
genomestart 55
trait 1 0.1 0.328745 0 0.0522026 0.169602 0 0 0.211764 
trait 2 0.116894 0.255204 0.00962769 0 1 0.00213975 0.185247 0.487152 
trait 3 0.471947 0 0.687097 0.42098 1 0 0.919736 0 
node 1 1 1 1
node 2 1 1 1
node 3 2 1 1
node 4 3 1 1
node 5 3 1 1
node 6 3 1 1
node 7 1 1 1
node 8 3 1 1
node 9 2 1 1
node 10 2 1 1
node 11 3 1 3
node 12 2 0 2
node 13 1 0 2
node 14 1 0 2
node 15 3 0 2
node 16 1 0 2
node 20 1 0 0
node 39 1 0 0
node 77 1 0 0
gene 3 1 12 -3.28288 0 1 -3.28288 1
gene 1 2 13 3.69844 0 2 3.69844 1
gene 1 3 14 -3.06138 0 3 -3.06138 1
gene 3 4 15 1.45047 0 4 1.45047 1
gene 1 5 16 -5.87276 0 5 -5.87276 1
gene 3 6 12 -2.88751 0 2 -2.88751 1
gene 2 7 12 -1.7449 0 3 -1.7449 0
gene 2 8 12 -0.0939155 0 4 -0.0939155 1
gene 1 9 12 5.67647 0 5 5.67647 1
gene 2 10 12 -3.06078 0 6 -3.06078 1
gene 2 11 12 3.10305 0 7 3.10305 1
gene 3 1 13 7.60547 0 5 7.60547 1
gene 1 2 14 8 0 6 8 1
gene 1 3 15 0.551458 0 7 0.551458 1
gene 2 8 13 -2.9355 0 12 -2.9355 1
gene 1 3 20 -5.42542 0 18 -5.42542 1
gene 1 20 14 -0.590532 0 19 -0.590532 1
gene 1 5 39 -1.04014 0 171 -1.04014 1
gene 1 39 16 -2.11127 0 172 -2.11127 1
gene 3 8 39 0.564291 0 231 0.564291 1
gene 1 11 20 -1.11042 0 275 -1.11042 1
gene 1 4 39 2.20748 0 422 2.20748 1
gene 2 7 77 -2.64872 0 450 -2.64872 1
gene 2 77 12 0.936083 0 451 0.936083 1
genomeend 55

/* Species #9 : (Size 1) (AF 0) (Age 1)  */


/* Organism #1484 Fitness: 26866.7 Error: 0 */
genomestart 1484
trait 1 0.1 0 0.032445 0.0522026 0.169602 0.285409 0.166031 0.000301699 
trait 2 0.116894 0.913 0.00962769 0 1 0 0.588274 0.857128 
trait 3 0.471947 0 0.687097 0.42098 1 0 0.919736 0 
node 1 1 1 1
node 2 1 1 1
node 3 2 1 1
node 4 3 1 1
node 5 3 1 1
node 6 3 1 1
node 7 1 1 1
node 8 3 1 1
node 9 2 1 1
node 10 2 1 1
node 11 3 1 3
node 12 2 0 2
node 13 1 0 2
node 14 1 0 2
node 15 3 0 2
node 16 1 0 2
node 20 1 0 0
node 39 1 0 0
gene 3 1 12 1.4373 0 1 1.4373 1
gene 1 2 13 0.150685 0 2 0.150685 1
gene 1 3 14 3.67725 0 3 3.67725 1
gene 3 4 15 -2.08083 0 4 -2.08083 1
gene 1 5 16 0.606632 0 5 0.606632 1
gene 3 6 12 4.48448 0 2 4.48448 1
gene 2 7 12 -0.45568 0 3 -0.45568 1
gene 2 8 12 2.56035 0 4 2.56035 1
gene 1 9 12 -0.459456 0 5 -0.459456 1
gene 2 10 12 0.523087 0 6 0.523087 1
gene 2 11 12 -0.34463 0 7 -0.34463 1
gene 3 1 13 3.25346 0 5 3.25346 1
gene 1 2 14 2.41951 0 6 2.41951 1
gene 1 3 15 2.90154 0 7 2.90154 1
gene 2 8 13 0.977584 0 12 0.977584 1
gene 1 3 20 0.779824 0 18 0.779824 1
gene 1 20 14 -1.63175 0 19 -1.63175 1
gene 1 5 39 2.60384 0 171 2.60384 1
gene 1 39 16 -0.601291 0 172 -0.601291 1
gene 3 8 39 0.245447 0 231 0.245447 1
gene 1 11 20 -0.343944 0 275 -0.343944 1
gene 1 4 39 -4.09154 0 422 -4.09154 1
gene 1 2 12 0.757439 0 588 0.757439 1
genomeend 1484

/* Species #10 : (Size 6) (AF 0) (Age 1)  */


/* Organism #40 Fitness: 26866.7 Error: 0 */
genomestart 40
trait 1 0.1 0 0.032445 0.0522026 0.169602 0.285409 0.166031 0.000301699 
trait 2 0.116894 0.913 0.00962769 0 1 0 0.588274 0.857128 
trait 3 0.471947 0 0.687097 0.42098 1 0 0.919736 0 
node 1 1 1 1
node 2 1 1 1
node 3 2 1 1
node 4 3 1 1
node 5 3 1 1
node 6 3 1 1
node 7 1 1 1
node 8 3 1 1
node 9 2 1 1
node 10 2 1 1
node 11 3 1 3
node 12 2 0 2
node 13 1 0 2
node 14 1 0 2
node 15 3 0 2
node 16 1 0 2
node 20 1 0 0
node 39 1 0 0
node 78 1 0 0
gene 3 1 12 2.27549 0 1 2.27549 1
gene 1 2 13 -3.05902 0 2 -3.05902 0
gene 1 3 14 2.50923 0 3 2.50923 1
gene 3 4 15 -2.50427 0 4 -2.50427 1
gene 1 5 16 0.243766 0 5 0.243766 1
gene 3 6 12 6.90271 0 2 6.90271 1
gene 2 7 12 5.34055 0 3 5.34055 1
gene 2 8 12 2.69105 0 4 2.69105 1
gene 1 9 12 -1.15291 0 5 -1.15291 1
gene 2 10 12 4.70748 0 6 4.70748 1
gene 2 11 12 -0.332805 0 7 -0.332805 1
gene 3 1 13 6.47972 0 5 6.47972 1
gene 1 2 14 -0.0493659 0 6 -0.0493659 1
gene 1 3 15 0.471341 0 7 0.471341 1
gene 2 8 13 -0.903809 0 12 -0.903809 1
gene 1 3 20 -4.47157 0 18 -4.47157 1
gene 1 20 14 -3.8673 0 19 -3.8673 1
gene 1 5 39 5.0827 0 171 5.0827 1
gene 1 39 16 1.55576 0 172 1.55576 1
gene 3 8 39 -0.605029 0 231 -0.605029 1
gene 1 11 20 -0.45381 0 275 -0.45381 1
gene 1 4 39 -4.58602 0 422 -4.58602 1
gene 1 2 78 -0.417951 0 477 -0.417951 1
gene 1 78 13 0.928144 0 478 0.928144 1
genomeend 40

/* Organism #37 Fitness: 26866.7 Error: 0 */
genomestart 37
trait 1 0.1 0 0.032445 0.0522026 0.169602 0.285409 0.166031 0.000301699 
trait 2 0.116894 0.913 0.00962769 0 1 0 0.588274 0.857128 
trait 3 0.471947 0 0.687097 0.42098 1 0 0.919736 0 
node 1 1 1 1
node 2 1 1 1
node 3 2 1 1
node 4 3 1 1
node 5 3 1 1
node 6 3 1 1
node 7 1 1 1
node 8 3 1 1
node 9 2 1 1
node 10 2 1 1
node 11 3 1 3
node 12 2 0 2
node 13 1 0 2
node 14 1 0 2
node 15 3 0 2
node 16 1 0 2
node 20 1 0 0
node 39 1 0 0
node 78 1 0 0
gene 3 1 12 2.27549 0 1 2.27549 1
gene 1 2 13 -3.05902 0 2 -3.05902 0
gene 1 3 14 2.50923 0 3 2.50923 1
gene 3 4 15 -2.50427 0 4 -2.50427 1
gene 1 5 16 0.243766 0 5 0.243766 1
gene 3 6 12 6.90271 0 2 6.90271 1
gene 2 7 12 5.34055 0 3 5.34055 1
gene 2 8 12 2.69105 0 4 2.69105 1
gene 1 9 12 -1.15291 0 5 -1.15291 1
gene 2 10 12 4.70748 0 6 4.70748 1
gene 2 11 12 -0.332805 0 7 -0.332805 1
gene 3 1 13 6.47972 0 5 6.47972 1
gene 1 2 14 -0.0493659 0 6 -0.0493659 1
gene 1 3 15 0.471341 0 7 0.471341 1
gene 2 8 13 -0.903809 0 12 -0.903809 1
gene 1 3 20 -4.47157 0 18 -4.47157 1
gene 1 20 14 -3.8673 0 19 -3.8673 1
gene 1 5 39 5.0827 0 171 5.0827 1
gene 1 39 16 1.55576 0 172 1.55576 1
gene 3 8 39 -0.605029 0 231 -0.605029 1
gene 1 11 20 -0.45381 0 275 -0.45381 1
gene 1 4 39 -4.58602 0 422 -4.58602 1
gene 1 2 78 -0.417951 0 477 -0.417951 1
gene 1 78 13 0.928144 0 478 0.928144 1
genomeend 37

/* Organism #42 Fitness: 26866.7 Error: 0 */
genomestart 42
trait 1 0.1 0 0.032445 0.0522026 0.169602 0.285409 0.166031 0.000301699 
trait 2 0.116894 0.913 0.00962769 0 1 0 0.588274 0.857128 
trait 3 0.471947 0 0.687097 0.42098 1 0 0.919736 0 
node 1 1 1 1
node 2 1 1 1
node 3 2 1 1
node 4 3 1 1
node 5 3 1 1
node 6 3 1 1
node 7 1 1 1
node 8 3 1 1
node 9 2 1 1
node 10 2 1 1
node 11 3 1 3
node 12 2 0 2
node 13 1 0 2
node 14 1 0 2
node 15 3 0 2
node 16 1 0 2
node 20 1 0 0
node 39 1 0 0
node 78 1 0 0
gene 3 1 12 2.27549 0 1 2.27549 1
gene 1 2 13 -3.05902 0 2 -3.05902 0
gene 1 3 14 2.50923 0 3 2.50923 1
gene 3 4 15 -2.50427 0 4 -2.50427 1
gene 1 5 16 0.243766 0 5 0.243766 1
gene 3 6 12 6.90271 0 2 6.90271 1
gene 2 7 12 5.34055 0 3 5.34055 1
gene 2 8 12 2.69105 0 4 2.69105 1
gene 1 9 12 -1.15291 0 5 -1.15291 1
gene 2 10 12 4.70748 0 6 4.70748 1
gene 2 11 12 -0.332805 0 7 -0.332805 1
gene 3 1 13 6.47972 0 5 6.47972 1
gene 1 2 14 -0.0493659 0 6 -0.0493659 1
gene 1 3 15 0.471341 0 7 0.471341 1
gene 2 8 13 -0.903809 0 12 -0.903809 1
gene 1 3 20 -4.47157 0 18 -4.47157 1
gene 1 20 14 -3.8673 0 19 -3.8673 1
gene 1 5 39 5.0827 0 171 5.0827 1
gene 1 39 16 1.55576 0 172 1.55576 1
gene 3 8 39 -0.605029 0 231 -0.605029 1
gene 1 11 20 -0.45381 0 275 -0.45381 1
gene 1 4 39 -4.58602 0 422 -4.58602 1
gene 1 2 78 -0.417951 0 477 -0.417951 1
gene 1 78 13 0.928144 0 478 0.928144 1
gene 2 10 13 -0.817377 0 595 -0.817377 1
genomeend 42

/* Organism #35 Fitness: 26866.7 Error: 0 */
genomestart 35
trait 1 0.1 0 0.032445 0.0522026 0.169602 0.285409 0.166031 0.000301699 
trait 2 0.116894 0.913 0.00962769 0 1 0 0.588274 0.857128 
trait 3 0.471947 0 0.687097 0.42098 1 0 0.919736 0 
node 1 1 1 1
node 2 1 1 1
node 3 2 1 1
node 4 3 1 1
node 5 3 1 1
node 6 3 1 1
node 7 1 1 1
node 8 3 1 1
node 9 2 1 1
node 10 2 1 1
node 11 3 1 3
node 12 2 0 2
node 13 1 0 2
node 14 1 0 2
node 15 3 0 2
node 16 1 0 2
node 20 1 0 0
node 39 1 0 0
node 78 1 0 0
gene 3 1 12 4.53997 0 1 4.53997 1
gene 1 2 13 -3.88127 0 2 -3.88127 0
gene 1 3 14 0.256433 0 3 0.256433 1
gene 3 4 15 -2.41851 0 4 -2.41851 1
gene 1 5 16 -0.637456 0 5 -0.637456 1
gene 3 6 12 8 0 2 8 1
gene 2 7 12 3.19395 0 3 3.19395 1
gene 2 8 12 1.47153 0 4 1.47153 1
gene 1 9 12 -2.85508 0 5 -2.85508 1
gene 2 10 12 3.94116 0 6 3.94116 1
gene 2 11 12 0.12894 0 7 0.12894 1
gene 3 1 13 4.09294 0 5 4.09294 1
gene 1 2 14 2.21633 0 6 2.21633 1
gene 1 3 15 -1.54143 0 7 -1.54143 1
gene 2 8 13 -0.295194 0 12 -0.295194 1
gene 1 3 20 -3.10282 0 18 -3.10282 1
gene 1 20 14 -1.93571 0 19 -1.93571 1
gene 1 5 39 7.12691 0 171 7.12691 1
gene 1 39 16 1.08112 0 172 1.08112 1
gene 3 8 39 0.522782 0 231 0.522782 1
gene 1 11 20 1.20029 0 275 1.20029 1
gene 1 4 39 -4.58602 0 422 -4.58602 1
gene 1 2 78 2.24943 0 477 2.24943 1
gene 1 78 13 0.690634 0 478 0.690634 1
genomeend 35

/* Organism #47 Fitness: 26866.7 Error: 0 */
genomestart 47
trait 1 0.1 0 0.032445 0.0522026 0.169602 0.285409 0.166031 0.000301699 
trait 2 0.116894 0.913 0.00962769 0 1 0 0.588274 0.857128 
trait 3 0.471947 0 0.687097 0.42098 1 0 0.919736 0 
node 1 1 1 1
node 2 1 1 1
node 3 2 1 1
node 4 3 1 1
node 5 3 1 1
node 6 3 1 1
node 7 1 1 1
node 8 3 1 1
node 9 2 1 1
node 10 2 1 1
node 11 3 1 3
node 12 2 0 2
node 13 1 0 2
node 14 1 0 2
node 15 3 0 2
node 16 1 0 2
node 20 1 0 0
node 39 1 0 0
node 78 1 0 0
gene 3 1 12 4.53997 0 1 4.53997 1
gene 1 2 13 -3.88127 0 2 -3.88127 0
gene 1 3 14 0.256433 0 3 0.256433 1
gene 3 4 15 -2.41851 0 4 -2.41851 1
gene 1 5 16 -0.637456 0 5 -0.637456 1
gene 3 6 12 8 0 2 8 1
gene 2 7 12 3.19395 0 3 3.19395 1
gene 2 8 12 1.47153 0 4 1.47153 1
gene 1 9 12 -2.85508 0 5 -2.85508 1
gene 2 10 12 3.94116 0 6 3.94116 1
gene 2 11 12 0.12894 0 7 0.12894 1
gene 3 1 13 4.09294 0 5 4.09294 1
gene 1 2 14 2.21633 0 6 2.21633 1
gene 1 3 15 -1.54143 0 7 -1.54143 1
gene 2 8 13 -0.295194 0 12 -0.295194 1
gene 1 3 20 -3.10282 0 18 -3.10282 1
gene 1 20 14 -1.93571 0 19 -1.93571 1
gene 1 5 39 7.12691 0 171 7.12691 1
gene 1 39 16 1.08112 0 172 1.08112 1
gene 3 8 39 0.522782 0 231 0.522782 1
gene 1 11 20 1.20029 0 275 1.20029 1
gene 1 4 39 -4.58602 0 422 -4.58602 1
gene 1 2 78 2.24943 0 477 2.24943 1
gene 1 78 13 0.690634 0 478 0.690634 1
gene 2 16 20 0.248787 0 596 0.248787 1
genomeend 47

/* Organism #49 Fitness: 26866.7 Error: 0 */
genomestart 49
trait 1 0.1 0 0.032445 0.0522026 0.169602 0.285409 0.166031 0.000301699 
trait 2 0.381581 0.913 0.00962769 0 1 0 0.588274 0.735146 
trait 3 0.471947 0 0.687097 0.42098 1 0 0.919736 0 
node 1 1 1 1
node 2 1 1 1
node 3 2 1 1
node 4 3 1 1
node 5 3 1 1
node 6 3 1 1
node 7 1 1 1
node 8 3 1 1
node 9 2 1 1
node 10 2 1 1
node 11 3 1 3
node 12 2 0 2
node 13 1 0 2
node 14 1 0 2
node 15 3 0 2
node 16 1 0 2
node 20 1 0 0
node 39 1 0 0
node 78 1 0 0
gene 3 1 12 -0.211722 0 1 -0.211722 1
gene 1 2 13 -5.09903 0 2 -5.09903 0
gene 1 3 14 1.77297 0 3 1.77297 1
gene 3 4 15 -2.20885 0 4 -2.20885 1
gene 1 5 16 -1.97508 0 5 -1.97508 1
gene 3 6 12 6.08367 0 2 6.08367 1
gene 2 7 12 6.80086 0 3 6.80086 1
gene 2 8 12 1.44978 0 4 1.44978 1
gene 1 9 12 0.33914 0 5 0.33914 1
gene 2 10 12 0.215003 0 6 0.215003 1
gene 2 11 12 1.61977 0 7 1.61977 1
gene 3 1 13 6.1061 0 5 6.1061 1
gene 1 2 14 2.03627 0 6 2.03627 1
gene 1 3 15 0.337899 0 7 0.337899 1
gene 2 8 13 -0.417268 0 12 -0.417268 1
gene 1 3 20 -4.47157 0 18 -4.47157 1
gene 1 20 14 -2.01956 0 19 -2.01956 1
gene 1 5 39 7.29934 0 171 7.29934 1
gene 1 39 16 0.612888 0 172 0.612888 1
gene 3 8 39 -1.07234 0 231 -1.07234 1
gene 1 11 20 -0.45381 0 275 -0.45381 1
gene 1 4 39 -6.77908 0 422 -6.77908 1
gene 1 2 78 -0.951872 0 477 -0.951872 1
gene 1 78 13 0.965758 0 478 0.965758 1
genomeend 49

/* Species #11 : (Size 2) (AF 0) (Age 1)  */


/* Organism #68 Fitness: 26866.7 Error: 0 */
genomestart 68
trait 1 0.1 0 0.032445 0.0522026 0.169602 0.285409 0.166031 0.000301699 
trait 2 0.116894 0.255204 0.00962769 0 1 0.00213975 0.185247 0.487152 
trait 3 0.471947 0 0.687097 0.42098 1 0 0.919736 0 
node 1 1 1 1
node 2 1 1 1
node 3 2 1 1
node 4 3 1 1
node 5 3 1 1
node 6 3 1 1
node 7 1 1 1
node 8 3 1 1
node 9 2 1 1
node 10 2 1 1
node 11 3 1 3
node 12 2 0 2
node 13 1 0 2
node 14 1 0 2
node 15 3 0 2
node 16 1 0 2
node 20 1 0 0
node 39 1 0 0
node 77 1 0 0
node 90 1 0 0
gene 3 1 12 -2.25364 0 1 -2.25364 1
gene 1 2 13 1.383 0 2 1.383 1
gene 1 3 14 -0.107421 0 3 -0.107421 1
gene 3 4 15 1.63198 0 4 1.63198 1
gene 1 5 16 -6.40195 0 5 -6.40195 1
gene 3 6 12 0.458007 0 2 0.458007 1
gene 2 7 12 -2.49672 0 3 -2.49672 0
gene 2 8 12 0.655766 0 4 0.655766 1
gene 1 9 12 7.18447 0 5 7.18447 0
gene 2 10 12 0.97049 0 6 0.97049 1
gene 2 11 12 4.12786 0 7 4.12786 1
gene 3 1 13 8 0 5 8 1
gene 1 2 14 -2.42622 0 6 -2.42622 1
gene 1 3 15 1.36264 0 7 1.36264 1
gene 2 8 13 -0.641194 0 12 -0.641194 1
gene 1 3 20 0.905408 0 18 0.905408 1
gene 1 20 14 -0.454649 0 19 -0.454649 1
gene 1 5 39 2.25936 0 171 2.25936 1
gene 1 39 16 -1.37242 0 172 -1.37242 1
gene 3 8 39 -0.40315 0 231 -0.40315 1
gene 1 11 20 -3.02889 0 275 -3.02889 1
gene 1 4 39 -0.590533 0 422 -0.590533 1
gene 2 7 77 -1.89689 0 450 -1.89689 1
gene 2 77 12 0.651193 0 451 0.651193 1
gene 1 9 90 1 0 600 0 1
gene 1 90 12 7.18447 0 601 0 1
genomeend 68

/* Organism #69 Fitness: 26866.7 Error: 0 */
genomestart 69
trait 1 0.1 0 0.032445 0.0522026 0.169602 0.285409 0.166031 0.000301699 
trait 2 0.116894 0.255204 0.00962769 0 1 0.00213975 0.185247 0.487152 
trait 3 0.471947 0 0.687097 0.42098 1 0 0.919736 0 
node 1 1 1 1
node 2 1 1 1
node 3 2 1 1
node 4 3 1 1
node 5 3 1 1
node 6 3 1 1
node 7 1 1 1
node 8 3 1 1
node 9 2 1 1
node 10 2 1 1
node 11 3 1 3
node 12 2 0 2
node 13 1 0 2
node 14 1 0 2
node 15 3 0 2
node 16 1 0 2
node 20 1 0 0
node 39 1 0 0
node 77 1 0 0
node 90 1 0 0
gene 3 1 12 -2.25364 0 1 -2.25364 1
gene 1 2 13 1.383 0 2 1.383 1
gene 1 3 14 -0.107421 0 3 -0.107421 1
gene 3 4 15 1.63198 0 4 1.63198 1
gene 1 5 16 -6.40195 0 5 -6.40195 1
gene 3 6 12 0.458007 0 2 0.458007 1
gene 2 7 12 -2.49672 0 3 -2.49672 0
gene 2 8 12 0.655766 0 4 0.655766 1
gene 1 9 12 7.18447 0 5 7.18447 0
gene 2 10 12 0.97049 0 6 0.97049 1
gene 2 11 12 4.12786 0 7 4.12786 1
gene 3 1 13 8 0 5 8 1
gene 1 2 14 -2.42622 0 6 -2.42622 1
gene 1 3 15 1.36264 0 7 1.36264 1
gene 2 8 13 -0.641194 0 12 -0.641194 1
gene 1 3 20 0.905408 0 18 0.905408 1
gene 1 20 14 -0.454649 0 19 -0.454649 1
gene 1 5 39 2.25936 0 171 2.25936 1
gene 1 39 16 -1.37242 0 172 -1.37242 1
gene 3 8 39 -0.40315 0 231 -0.40315 1
gene 1 11 20 -3.02889 0 275 -3.02889 1
gene 1 4 39 -0.590533 0 422 -0.590533 1
gene 2 7 77 -1.89689 0 450 -1.89689 1
gene 2 77 12 0.651193 0 451 0.651193 1
gene 1 9 90 1 0 600 0 1
gene 1 90 12 7.18447 0 601 0 1
gene 2 7 13 -0.263802 0 602 -0.263802 1
genomeend 69
