
/* Species #1 : (Size 13) (AF 0) (Age 1)  */


/* Organism #11 Fitness: 4575.71 Error: 0 */
genomestart 11
trait 1 0 0 0.362935 0.0524392 0.157509 0.727382 0.139552 0.000306348 
trait 2 0.11797 0.132428 0.00873602 0.0354663 0.227404 0.00213975 0.182885 0.0705722 
trait 3 0.35645 0.0388424 0.0473205 0.42098 0.185397 0 0 0.182342 
node 1 1 1 1
node 2 1 1 1
node 3 2 1 1
node 4 3 1 1
node 5 3 1 1
node 6 1 1 1
node 7 1 1 1
node 8 3 1 1
node 9 2 1 1
node 10 2 1 1
node 11 3 1 3
node 12 2 0 2
node 13 1 0 2
node 14 1 0 2
node 15 3 0 2
node 16 1 0 2
node 20 1 0 0
node 50 1 0 0
gene 3 1 12 -3.81459 0 1 -3.81459 1
gene 1 2 13 0.365612 0 2 0.365612 1
gene 1 3 14 -1.65876 0 3 -1.65876 1
gene 3 4 15 -2.49657 0 4 -2.49657 0
gene 1 5 16 6.37329 0 5 6.37329 0
gene 3 6 12 0.225339 0 2 0.225339 1
gene 2 7 12 -0.0386775 0 3 -0.0386775 1
gene 2 8 12 7.40253 0 4 7.40253 1
gene 2 9 12 -3.60416 0 5 -3.60416 1
gene 2 10 12 -0.702506 0 6 -0.702506 1
gene 2 11 12 6.40251 0 7 6.40251 1
gene 3 1 13 2.24723 0 5 2.24723 1
gene 1 2 14 4.76701 0 6 4.76701 1
gene 1 3 15 4.63968 0 7 4.63968 1
gene 2 8 13 5.72995 0 12 5.72995 1
gene 1 3 20 -0.905637 0 18 -0.905637 1
gene 1 20 14 2.07266 0 19 2.07266 1
gene 1 4 50 -1.71812 0 281 -1.71812 1
gene 3 50 15 -3.79444 0 282 -3.79444 1
genomeend 11

/* Organism #399 Fitness: 3256 Error: 0 */
genomestart 399
trait 1 0.1 0 0.0267734 0.0524392 0.157509 0.249035 0.139552 0.000306348 
trait 2 0.11797 0.132428 0.00873602 0.0354663 0.227404 0.00213975 0.182885 0.0705722 
trait 3 0.35645 0.0388424 0.0473205 0.42098 0.185397 0 0 0.182342 
node 1 1 1 1
node 2 1 1 1
node 3 2 1 1
node 4 3 1 1
node 5 3 1 1
node 6 1 1 1
node 7 1 1 1
node 8 3 1 1
node 9 2 1 1
node 10 2 1 1
node 11 3 1 3
node 12 2 0 2
node 13 1 0 2
node 14 1 0 2
node 15 3 0 2
node 16 1 0 2
node 20 1 0 0
node 50 1 0 0
gene 3 1 12 -1.71514 0 1 -1.71514 1
gene 1 2 13 1.05533 0 2 1.05533 1
gene 1 3 14 -5.2768 0 3 -5.2768 1
gene 3 4 15 -2.64492 0 4 -2.64492 0
gene 1 5 16 5.17772 0 5 5.17772 0
gene 3 6 12 1.43319 0 2 1.43319 1
gene 2 7 12 1.29772 0 3 1.29772 1
gene 2 8 12 3.95645 0 4 3.95645 1
gene 2 9 12 -2.02887 0 5 -2.02887 1
gene 2 10 12 2.10443 0 6 2.10443 1
gene 2 11 12 6.78071 0 7 6.78071 1
gene 3 1 13 1.65548 0 5 1.65548 1
gene 1 2 14 1.78086 0 6 1.78086 1
gene 1 3 15 3.65104 0 7 3.65104 1
gene 2 8 13 6.35299 0 12 6.35299 1
gene 1 3 20 -2.97868 0 18 -2.97868 1
gene 1 20 14 2.28721 0 19 2.28721 1
gene 3 4 50 0.491119 0 281 0.491119 1
gene 3 50 15 -3.79444 0 282 -3.79444 1
genomeend 399

/* Organism #1118 Fitness: 610 Error: 0 */
genomestart 1118
trait 1 0.1 0 0.0267734 0.0524392 0.157509 0.249035 0.139552 0.000306348 
trait 2 0.11797 0.132428 0.00873602 0.0354663 0.227404 0.00213975 0.182885 0.0705722 
trait 3 0.35645 0.0388424 0.0473205 0.42098 0.185397 0 0 0.182342 
node 1 1 1 1
node 2 1 1 1
node 3 2 1 1
node 4 3 1 1
node 5 3 1 1
node 6 1 1 1
node 7 1 1 1
node 8 3 1 1
node 9 2 1 1
node 10 2 1 1
node 11 3 1 3
node 12 2 0 2
node 13 1 0 2
node 14 1 0 2
node 15 3 0 2
node 16 1 0 2
node 20 1 0 0
node 50 1 0 0
gene 3 1 12 1.08016 0 1 1.08016 1
gene 1 2 13 1.94906 0 2 1.94906 1
gene 1 3 14 -4.7491 0 3 -4.7491 1
gene 3 4 15 -2.89373 0 4 -2.89373 0
gene 1 5 16 5.36324 0 5 5.36324 0
gene 3 6 12 1.12609 0 2 1.12609 1
gene 2 7 12 -1.77511 0 3 -1.77511 1
gene 2 8 12 3.95229 0 4 3.95229 1
gene 2 9 12 -2.41123 0 5 -2.41123 1
gene 2 10 12 3.83365 0 6 3.83365 1
gene 2 11 12 6.31042 0 7 6.31042 1
gene 3 1 13 0.901974 0 5 0.901974 1
gene 1 2 14 1.84178 0 6 1.84178 1
gene 1 3 15 4.73609 0 7 4.73609 1
gene 2 8 13 6.66234 0 12 6.66234 1
gene 1 3 20 -2.14736 0 18 -2.14736 1
gene 1 20 14 0.483755 0 19 0.483755 1
gene 3 4 50 1.06361 0 281 1.06361 1
gene 3 50 15 -2.96388 0 282 -2.96388 1
genomeend 1118

/* Organism #24 Fitness: 395.205 Error: 0 */
genomestart 24
trait 1 0 0 0.362935 0.0524392 0.157509 0.727382 0.139552 0.000306348 
trait 2 0.11797 0.132428 0.00873602 0.0354663 0.227404 0.00213975 0.182885 0.0705722 
trait 3 0.35645 0.0388424 0.0473205 0.42098 0.185397 0 0 0.182342 
node 1 1 1 1
node 2 1 1 1
node 3 2 1 1
node 4 3 1 1
node 5 3 1 1
node 6 1 1 1
node 7 1 1 1
node 8 3 1 1
node 9 2 1 1
node 10 2 1 1
node 11 3 1 3
node 12 2 0 2
node 13 1 0 2
node 14 1 0 2
node 15 3 0 2
node 16 1 0 2
node 20 1 0 0
node 50 1 0 0
gene 3 1 12 -1.79838 0 1 -1.79838 1
gene 1 2 13 -1.01543 0 2 -1.01543 1
gene 1 3 14 1.26461 0 3 1.26461 1
gene 3 4 15 -4.4509 0 4 -4.4509 0
gene 1 5 16 6.57078 0 5 6.57078 0
gene 3 6 12 0.468152 0 2 0.468152 1
gene 2 7 12 0.582298 0 3 0.582298 1
gene 2 8 12 8 0 4 8 1
gene 2 9 12 -4.40542 0 5 -4.40542 1
gene 2 10 12 -0.295961 0 6 -0.295961 1
gene 2 11 12 5.67857 0 7 5.67857 1
gene 3 1 13 2.26234 0 5 2.26234 1
gene 1 2 14 3.94706 0 6 3.94706 1
gene 1 3 15 3.97305 0 7 3.97305 1
gene 2 8 13 5.2734 0 12 5.2734 1
gene 1 3 20 -0.202452 0 18 -0.202452 1
gene 1 20 14 1.79647 0 19 1.79647 1
gene 1 4 50 -1.14967 0 281 -1.14967 1
gene 3 50 15 -2.07976 0 282 -2.07976 1
genomeend 24

/* Organism #22 Fitness: 9.70105 Error: 0 */
genomestart 22
trait 1 0 0 0.362935 0.0524392 0.157509 0.727382 0.139552 0.000306348 
trait 2 0.11797 0.132428 0.00873602 0.0354663 0.227404 0.00213975 0.182885 0.0705722 
trait 3 0.35645 0.0388424 0.0473205 0.42098 0.185397 0 0 0.182342 
node 1 1 1 1
node 2 1 1 1
node 3 2 1 1
node 4 3 1 1
node 5 3 1 1
node 6 1 1 1
node 7 1 1 1
node 8 3 1 1
node 9 2 1 1
node 10 2 1 1
node 11 3 1 3
node 12 2 0 2
node 13 1 0 2
node 14 1 0 2
node 15 3 0 2
node 16 1 0 2
node 20 1 0 0
node 50 1 0 0
gene 3 1 12 -4.75501 0 1 -4.75501 1
gene 1 2 13 0.645466 0 2 0.645466 1
gene 1 3 14 0.0476852 0 3 0.0476852 1
gene 3 4 15 -2.70638 0 4 -2.70638 0
gene 1 5 16 8 0 5 8 0
gene 3 6 12 2.2671 0 2 2.2671 1
gene 2 7 12 2.2229 0 3 2.2229 1
gene 2 8 12 7.40253 0 4 7.40253 1
gene 2 9 12 -3.60416 0 5 -3.60416 1
gene 2 10 12 -2.28222 0 6 -2.28222 1
gene 2 11 12 6.64429 0 7 6.64429 1
gene 3 1 13 4.23322 0 5 4.23322 1
gene 1 2 14 6.63871 0 6 6.63871 1
gene 1 3 15 6.01355 0 7 6.01355 1
gene 2 8 13 3.46212 0 12 3.46212 1
gene 1 3 20 -2.70051 0 18 -2.70051 1
gene 1 20 14 1.52028 0 19 1.52028 1
gene 1 4 50 -0.581225 0 281 -0.581225 1
gene 3 50 15 -4.86472 0 282 -4.86472 1
genomeend 22

/* Organism #3 Fitness: 0.859461 Error: 0 */
genomestart 3
trait 1 0.1 0 0.0267734 0.0524392 0.157509 0.249035 0.139552 0.000306348 
trait 2 0.11797 0.132428 0.00873602 0.0354663 0.227404 0.00213975 0.182885 0.0705722 
trait 3 0.35645 0.0388424 0.0473205 0.42098 0.185397 0 0 0.182342 
node 1 1 1 1
node 2 1 1 1
node 3 2 1 1
node 4 3 1 1
node 5 3 1 1
node 6 1 1 1
node 7 1 1 1
node 8 3 1 1
node 9 2 1 1
node 10 2 1 1
node 11 3 1 3
node 12 2 0 2
node 13 1 0 2
node 14 1 0 2
node 15 3 0 2
node 16 1 0 2
node 20 1 0 0
node 50 1 0 0
gene 3 1 12 0.0850706 0 1 0.0850706 1
gene 1 2 13 0.702612 0 2 0.702612 1
gene 1 3 14 -3.88157 0 3 -3.88157 1
gene 3 4 15 -0.99074 0 4 -0.99074 0
gene 1 5 16 6.92284 0 5 6.92284 0
gene 3 6 12 -0.518397 0 2 -0.518397 1
gene 2 7 12 -6.04525 0 3 -6.04525 1
gene 2 8 12 5.14705 0 4 5.14705 1
gene 2 9 12 -2.08823 0 5 -2.08823 1
gene 2 10 12 5.1192 0 6 5.1192 1
gene 2 11 12 7.94904 0 7 7.94904 1
gene 3 1 13 -0.40666 0 5 -0.40666 1
gene 1 2 14 4.50906 0 6 4.50906 1
gene 1 3 15 1.46439 0 7 1.46439 1
gene 2 8 13 5.70676 0 12 5.70676 1
gene 1 3 20 -0.423749 0 18 -0.423749 1
gene 1 20 14 2.28721 0 19 2.28721 1
gene 3 4 50 3.37649 0 281 3.37649 1
gene 3 50 15 -2.28553 0 282 -2.28553 1
genomeend 3

/* Organism #19 Fitness: 0 Error: 0 */
genomestart 19
trait 1 0.1 0 0.0267734 0.0524392 0.157509 0.249035 0.139552 0.000306348 
trait 2 0.11797 0.132428 0.00873602 0.0354663 0.227404 0.00213975 0.182885 0.0705722 
trait 3 0.35645 0.0388424 0.0473205 0.42098 0.185397 0 0 0.182342 
node 1 1 1 1
node 2 1 1 1
node 3 2 1 1
node 4 3 1 1
node 5 3 1 1
node 6 1 1 1
node 7 1 1 1
node 8 3 1 1
node 9 2 1 1
node 10 2 1 1
node 11 3 1 3
node 12 2 0 2
node 13 1 0 2
node 14 1 0 2
node 15 3 0 2
node 16 1 0 2
node 20 1 0 0
node 50 1 0 0
gene 3 1 12 1.06105 0 1 1.06105 1
gene 1 2 13 -1.06723 0 2 -1.06723 1
gene 1 3 14 -2.15499 0 3 -2.15499 1
gene 3 4 15 1.02588 0 4 1.02588 0
gene 1 5 16 8 0 5 8 0
gene 3 6 12 -1.67718 0 2 -1.67718 1
gene 2 7 12 -0.0285381 0 3 -0.0285381 1
gene 2 8 12 7.89296 0 4 7.89296 1
gene 2 9 12 -0.86581 0 5 -0.86581 1
gene 2 10 12 2.05095 0 6 2.05095 1
gene 2 11 12 7.02425 0 7 7.02425 1
gene 3 1 13 3.39504 0 5 3.39504 1
gene 1 2 14 -0.835339 0 6 -0.835339 1
gene 1 3 15 -1.73841 0 7 -1.73841 1
gene 2 8 13 7.43823 0 12 7.43823 1
gene 1 3 20 -4.30669 0 18 -4.30669 1
gene 1 20 14 -1.52318 0 19 -1.52318 1
gene 3 4 50 1.34846 0 281 1.34846 1
gene 3 50 15 -4.24535 0 282 -4.24535 1
genomeend 19

/* Organism #7 Fitness: 0 Error: 0 */
genomestart 7
trait 1 0.1 0 0.0267734 0.0524392 0.157509 0.249035 0.139552 0.000306348 
trait 2 0.11797 0.132428 0.00873602 0.0354663 0.227404 0.00213975 0.182885 0.0705722 
trait 3 0.35645 0.0388424 0.0473205 0.42098 0.185397 0 0 0.182342 
node 1 1 1 1
node 2 1 1 1
node 3 2 1 1
node 4 3 1 1
node 5 3 1 1
node 6 1 1 1
node 7 1 1 1
node 8 3 1 1
node 9 2 1 1
node 10 2 1 1
node 11 3 1 3
node 12 2 0 2
node 13 1 0 2
node 14 1 0 2
node 15 3 0 2
node 16 1 0 2
node 20 1 0 0
node 50 1 0 0
gene 3 1 12 -3.9172 0 1 -3.9172 1
gene 1 2 13 0.702612 0 2 0.702612 1
gene 1 3 14 -3.88157 0 3 -3.88157 1
gene 3 4 15 -0.99074 0 4 -0.99074 0
gene 1 5 16 4.09042 0 5 4.09042 0
gene 3 6 12 1.39123 0 2 1.39123 1
gene 2 7 12 3.24442 0 3 3.24442 1
gene 2 8 12 5.80335 0 4 5.80335 1
gene 2 9 12 -1.68989 0 5 -1.68989 1
gene 2 10 12 0.93725 0 6 0.93725 1
gene 2 11 12 7.94904 0 7 7.94904 1
gene 3 1 13 2.34848 0 5 2.34848 1
gene 1 2 14 4.50906 0 6 4.50906 1
gene 1 3 15 1.46439 0 7 1.46439 1
gene 2 8 13 8 0 12 8 1
gene 1 3 20 -1.42277 0 18 -1.42277 1
gene 1 20 14 3.97603 0 19 3.97603 1
gene 3 4 50 3.37649 0 281 3.37649 1
gene 3 50 15 -4.47691 0 282 -4.47691 1
genomeend 7

/* Organism #17 Fitness: 0 Error: 0 */
genomestart 17
trait 1 0.1 0 0.0267734 0.0524392 0.157509 0.249035 0.139552 0.000306348 
trait 2 0.11797 0.132428 0.00873602 0.0354663 0.227404 0.00213975 0.182885 0.0705722 
trait 3 0.35645 0.0388424 0.0473205 0.42098 0.185397 0 0 0.182342 
node 1 1 1 1
node 2 1 1 1
node 3 2 1 1
node 4 3 1 1
node 5 3 1 1
node 6 1 1 1
node 7 1 1 1
node 8 3 1 1
node 9 2 1 1
node 10 2 1 1
node 11 3 1 3
node 12 2 0 2
node 13 1 0 2
node 14 1 0 2
node 15 3 0 2
node 16 1 0 2
node 20 1 0 0
node 50 1 0 0
gene 3 1 12 1.95853 0 1 1.95853 1
gene 1 2 13 0.751976 0 2 0.751976 1
gene 1 3 14 -2.80396 0 3 -2.80396 1
gene 3 4 15 -0.129017 0 4 -0.129017 0
gene 1 5 16 7.08406 0 5 7.08406 0
gene 3 6 12 -0.826858 0 2 -0.826858 1
gene 2 7 12 2.01422 0 3 2.01422 1
gene 2 8 12 5.54997 0 4 5.54997 1
gene 2 9 12 -1.91053 0 5 -1.91053 1
gene 2 10 12 1.01568 0 6 1.01568 1
gene 2 11 12 6.63636 0 7 6.63636 1
gene 3 1 13 3.22314 0 5 3.22314 1
gene 1 2 14 -0.0926713 0 6 -0.0926713 1
gene 1 3 15 -1.70919 0 7 -1.70919 1
gene 2 8 13 6.35299 0 12 6.35299 1
gene 1 3 20 -1.8897 0 18 -1.8897 1
gene 1 20 14 -1.07181 0 19 -1.07181 1
gene 3 4 50 1.34846 0 281 1.34846 1
gene 3 50 15 -2.35061 0 282 -2.35061 1
genomeend 17

/* Organism #12 Fitness: 0 Error: 0 */
genomestart 12
trait 1 0.1 0 0.0267734 0.0524392 0.157509 0.249035 0.139552 0.000306348 
trait 2 0.11797 0.132428 0.00873602 0.0354663 0.227404 0.00213975 0.182885 0.0705722 
trait 3 0.35645 0.0388424 0.0473205 0.42098 0.185397 0 0 0.182342 
node 1 1 1 1
node 2 1 1 1
node 3 2 1 1
node 4 3 1 1
node 5 3 1 1
node 6 1 1 1
node 7 1 1 1
node 8 3 1 1
node 9 2 1 1
node 10 2 1 1
node 11 3 1 3
node 12 2 0 2
node 13 1 0 2
node 14 1 0 2
node 15 3 0 2
node 16 1 0 2
node 20 1 0 0
node 50 1 0 0
gene 3 1 12 -0.31625 0 1 -0.31625 1
gene 1 2 13 -0.267571 0 2 -0.267571 1
gene 1 3 14 -6.18694 0 3 -6.18694 1
gene 3 4 15 -0.512671 0 4 -0.512671 0
gene 1 5 16 4.57415 0 5 4.57415 0
gene 3 6 12 0.969609 0 2 0.969609 1
gene 2 7 12 1.96654 0 3 1.96654 1
gene 2 8 12 8 0 4 8 1
gene 2 9 12 -2.3133 0 5 -2.3133 1
gene 2 10 12 3.04242 0 6 3.04242 1
gene 2 11 12 8 0 7 8 1
gene 3 1 13 -0.198447 0 5 -0.198447 1
gene 1 2 14 4.99659 0 6 4.99659 1
gene 1 3 15 6.3327 0 7 6.3327 1
gene 2 8 13 8 0 12 8 1
gene 1 3 20 -2.65404 0 18 -2.65404 1
gene 1 20 14 3.48598 0 19 3.48598 1
gene 3 4 50 -1.41644 0 281 -1.41644 1
gene 3 50 15 -3.79444 0 282 -3.79444 1
genomeend 12

/* Organism #8 Fitness: 0 Error: 0 */
genomestart 8
trait 1 0.1 0 0.0267734 0.0524392 0.157509 0.249035 0.139552 0.000306348 
trait 2 0.11797 0.132428 0.00873602 0.0354663 0.227404 0.00213975 0.182885 0.0705722 
trait 3 0.35645 0.0388424 0 0 0 0 0.706565 0 
node 1 1 1 1
node 2 1 1 1
node 3 2 1 1
node 4 3 1 1
node 5 3 1 1
node 6 1 1 1
node 7 1 1 1
node 8 3 1 1
node 9 2 1 1
node 10 2 1 1
node 11 3 1 3
node 12 2 0 2
node 13 1 0 2
node 14 1 0 2
node 15 3 0 2
node 16 1 0 2
node 20 1 0 0
node 50 1 0 0
gene 3 1 12 -0.21546 0 1 -0.21546 1
gene 1 2 13 1.48366 0 2 1.48366 1
gene 1 3 14 -2.46513 0 3 -2.46513 1
gene 3 4 15 -3.09583 0 4 -3.09583 0
gene 1 5 16 2.81215 0 5 2.81215 0
gene 3 6 12 0.840902 0 2 0.840902 1
gene 2 7 12 -0.197763 0 3 -0.197763 1
gene 2 8 12 3.37255 0 4 3.37255 1
gene 2 9 12 0.280771 0 5 0.280771 1
gene 2 10 12 1.78223 0 6 1.78223 1
gene 2 11 12 8 0 7 8 1
gene 3 1 13 4.84184 0 5 4.84184 1
gene 1 2 14 -0.237405 0 6 -0.237405 1
gene 1 3 15 -0.851585 0 7 -0.851585 1
gene 2 8 13 8 0 12 8 1
gene 1 3 20 -1.97493 0 18 -1.97493 1
gene 1 20 14 4.27992 0 19 4.27992 1
gene 3 4 50 0.897092 0 281 0.897092 1
gene 3 50 15 -3.79444 0 282 -3.79444 1
genomeend 8

/* Organism #4 Fitness: 0 Error: 0 */
genomestart 4
trait 1 0.1 0 0.0267734 0.0524392 0.157509 0.249035 0.139552 0.000306348 
trait 2 0.11797 0.132428 0.00873602 0.0354663 0.227404 0.00213975 0.182885 0.0705722 
trait 3 0.35645 0.0388424 0.0473205 0.42098 0.185397 0 0 0.182342 
node 1 1 1 1
node 2 1 1 1
node 3 2 1 1
node 4 3 1 1
node 5 3 1 1
node 6 1 1 1
node 7 1 1 1
node 8 3 1 1
node 9 3 1 1
node 10 2 1 1
node 11 3 1 3
node 12 2 0 2
node 13 1 0 2
node 14 1 0 2
node 15 3 0 2
node 16 1 0 2
node 20 1 0 0
node 50 1 0 0
gene 3 1 12 -3.9172 0 1 -3.9172 1
gene 1 2 13 -0.534761 0 2 -0.534761 1
gene 1 3 14 -5.34776 0 3 -5.34776 1
gene 3 4 15 -1.05468 0 4 -1.05468 0
gene 1 5 16 4.09042 0 5 4.09042 0
gene 3 6 12 1.39123 0 2 1.39123 1
gene 2 7 12 3.24442 0 3 3.24442 1
gene 2 8 12 5.80335 0 4 5.80335 1
gene 2 9 12 -1.68989 0 5 -1.68989 1
gene 2 10 12 0.93725 0 6 0.93725 1
gene 2 11 12 7.09002 0 7 7.09002 1
gene 3 1 13 2.34848 0 5 2.34848 1
gene 1 2 14 2.21262 0 6 2.21262 1
gene 1 3 15 4.87384 0 7 4.87384 1
gene 2 8 13 8 0 12 8 1
gene 1 3 20 -1.42277 0 18 -1.42277 1
gene 1 20 14 3.97603 0 19 3.97603 1
gene 3 4 50 0.491119 0 281 0.491119 1
gene 3 50 15 -4.47691 0 282 -4.47691 1
genomeend 4

/* Organism #27 Fitness: 0 Error: 0 */
genomestart 27
trait 1 0.1 0 0.0267734 0.0524392 0.157509 0.249035 0.139552 0.000306348 
trait 2 0.11797 0.132428 0.00873602 0.0354663 0.227404 0.00213975 0.182885 0.0705722 
trait 3 0.35645 0.0388424 0.0473205 0.42098 0.185397 0 0 0.182342 
node 1 1 1 1
node 2 1 1 1
node 3 2 1 1
node 4 3 1 1
node 5 3 1 1
node 6 1 1 1
node 7 1 1 1
node 8 3 1 1
node 9 2 1 1
node 10 2 1 1
node 11 3 1 3
node 12 2 0 2
node 13 1 0 2
node 14 1 0 2
node 15 3 0 2
node 16 1 0 2
node 20 1 0 0
node 50 1 0 0
gene 3 1 12 -1.9911 0 1 -1.9911 1
gene 1 2 13 1.55599 0 2 1.55599 1
gene 1 3 14 -4.61699 0 3 -4.61699 1
gene 3 4 15 -3.47449 0 4 -3.47449 0
gene 1 5 16 5.44026 0 5 5.44026 0
gene 3 6 12 0.731834 0 2 0.731834 1
gene 2 7 12 1.12186 0 3 1.12186 1
gene 2 8 12 4.90306 0 4 4.90306 1
gene 2 9 12 -0.674306 0 5 -0.674306 1
gene 2 10 12 -0.00966345 0 6 -0.00966345 1
gene 2 11 12 5.63054 0 7 5.63054 1
gene 3 1 13 0.486541 0 5 0.486541 1
gene 1 2 14 1.78086 0 6 1.78086 1
gene 1 3 15 2.27008 0 7 2.27008 1
gene 2 8 13 1.58956 0 12 1.58956 1
gene 1 3 20 1.9908 0 18 1.9908 1
gene 1 20 14 3.63872 0 19 3.63872 1
gene 3 4 50 -0.651036 0 281 -0.651036 1
gene 3 50 15 -3.745 0 282 -3.745 1
genomeend 27

/* Species #2 : (Size 11) (AF 0) (Age 1)  */


/* Organism #23 Fitness: 63.4624 Error: 0 */
genomestart 23
trait 1 0.1 0 0.0297413 0.0523154 0.163837 0.268069 0.153408 0.000303915 
trait 2 0.117407 0.132428 0.188411 0.0354663 0.227404 0.0734844 0.184121 0.0442181 
trait 3 0.839112 0.433657 0.0492459 0.42098 0.796838 0 0.292653 0.0906003 
node 1 1 1 1
node 2 1 1 1
node 3 2 1 1
node 4 3 1 1
node 5 3 1 1
node 6 3 1 1
node 7 1 1 1
node 8 3 1 1
node 9 3 1 1
node 10 3 1 1
node 11 3 1 3
node 12 2 0 2
node 13 1 0 2
node 14 1 0 2
node 15 3 0 2
node 16 1 0 2
node 20 1 0 0
node 38 1 0 0
gene 3 1 12 -2.24925 0 1 -2.24925 1
gene 1 2 13 5.93803 0 2 5.93803 1
gene 1 3 14 -1.37707 0 3 -1.37707 1
gene 3 4 15 2.7357 0 4 2.7357 1
gene 1 5 16 0.742053 0 5 0.742053 1
gene 3 6 12 5.97004 0 2 5.97004 1
gene 2 7 12 -0.831935 0 3 -0.831935 1
gene 2 8 12 -2.77451 0 4 -2.77451 1
gene 1 9 12 -0.723842 0 5 -0.723842 1
gene 2 10 12 1.56712 0 6 1.56712 1
gene 2 11 12 -1.22754 0 7 -1.22754 1
gene 3 1 13 4.54152 0 5 4.54152 1
gene 1 2 14 0.446799 0 6 0.446799 1
gene 1 3 15 -3.21196 0 7 -3.21196 1
gene 2 8 13 3.36668 0 12 3.36668 1
gene 1 3 20 4.88607 0 18 4.88607 1
gene 1 20 14 -0.445494 0 19 -0.445494 1
gene 2 11 13 1.46489 0 161 1.46489 1
gene 3 4 38 -2.28887 0 169 -2.28887 1
gene 3 38 15 -1.01093 0 170 -1.01093 1
genomeend 23

/* Organism #15 Fitness: 0.526214 Error: 0 */
genomestart 15
trait 1 0.1 0 0.0297413 0.0523154 0.163837 0.268069 0.153408 0.000303915 
trait 2 0.117407 0.132428 0.00920261 0.0354663 0.227404 0.00213975 0.184121 0.070749 
trait 3 0.839112 0.0388424 0.0492459 0.42098 0.796838 0 0 0.0455855 
node 1 1 1 1
node 2 1 1 1
node 3 2 1 1
node 4 3 1 1
node 5 3 1 1
node 6 3 1 1
node 7 1 1 1
node 8 3 1 1
node 9 3 1 1
node 10 2 1 1
node 11 3 1 3
node 12 2 0 2
node 13 1 0 2
node 14 1 0 2
node 15 3 0 2
node 16 1 0 2
node 20 1 0 0
node 38 1 0 0
gene 3 1 12 -0.000152593 0 1 -0.000152593 1
gene 1 2 13 7.51486 0 2 7.51486 1
gene 1 3 14 -2.17353 0 3 -2.17353 1
gene 3 4 15 2.97472 0 4 2.97472 1
gene 1 5 16 3.23229 0 5 3.23229 1
gene 3 6 12 5.53954 0 2 5.53954 1
gene 2 7 12 1.17222 0 3 1.17222 1
gene 2 8 12 1.36181 0 4 1.36181 1
gene 1 9 12 -2.07617 0 5 -2.07617 1
gene 2 10 12 2.31898 0 6 2.31898 1
gene 2 11 12 -1.02871 0 7 -1.02871 1
gene 3 1 13 3.92604 0 5 3.92604 1
gene 1 2 14 -2.74595 0 6 -2.74595 1
gene 1 3 15 -1.74513 0 7 -1.74513 1
gene 2 8 13 2.07239 0 12 2.07239 1
gene 1 3 20 1.27514 0 18 1.27514 1
gene 1 20 14 1.9257 0 19 1.9257 1
gene 2 11 13 3.51939 0 161 3.51939 1
gene 3 4 38 0.19776 0 169 0.19776 1
gene 3 38 15 -3.77977 0 170 -3.77977 1
genomeend 15

/* Organism #18 Fitness: 64.2287 Error: 0 */
genomestart 18
trait 1 0.1 0 0.0297413 0.0523154 0.163837 0.268069 0.153408 0.000303915 
trait 2 0.117407 0.132428 0.487092 0.0354663 0.227404 0.192392 0.184121 0 
trait 3 0.839112 0.0388424 0.0492459 0.42098 0.796838 0 0 0.0455855 
node 1 1 1 1
node 2 1 1 1
node 3 2 1 1
node 4 3 1 1
node 5 3 1 1
node 6 3 1 1
node 7 1 1 1
node 8 3 1 1
node 9 3 1 1
node 10 2 1 1
node 11 3 1 3
node 12 2 0 2
node 13 1 0 2
node 14 1 0 2
node 15 3 0 2
node 16 1 0 2
node 20 1 0 0
node 38 1 0 0
gene 3 1 12 -0.750755 0 1 -0.750755 1
gene 1 2 13 6.58351 0 2 6.58351 1
gene 1 3 14 1.39111 0 3 1.39111 1
gene 3 4 15 2.11798 0 4 2.11798 1
gene 1 5 16 3.277 0 5 3.277 1
gene 3 6 12 4.93939 0 2 4.93939 1
gene 2 7 12 3.20856 0 3 3.20856 1
gene 2 8 12 -4.50308 0 4 -4.50308 1
gene 1 9 12 -2.2177 0 5 -2.2177 1
gene 3 10 12 1.567 0 6 1.567 1
gene 2 11 12 -2.13966 0 7 -2.13966 1
gene 3 1 13 3.36686 0 5 3.36686 1
gene 1 2 14 -7.32906 0 6 -7.32906 1
gene 1 3 15 -4.4113 0 7 -4.4113 1
gene 2 8 13 -0.70228 0 12 -0.70228 1
gene 1 3 20 -1.58253 0 18 -1.58253 1
gene 1 20 14 -0.153374 0 19 -0.153374 1
gene 2 11 13 4.60372 0 161 4.60372 1
gene 3 4 38 -0.0888852 0 169 -0.0888852 1
gene 3 38 15 -8 0 170 -8 1
genomeend 18

/* Organism #20 Fitness: 0 Error: 0 */
genomestart 20
trait 1 0.1 0 0.0297413 0.0523154 0.163837 0.268069 0.153408 0.000303915 
trait 2 0.117407 0.132428 0.248147 0.0354663 0.227404 0.0972659 0.184121 0.0353745 
trait 3 0.839112 0.354694 0.0492459 0.42098 0.796838 0 0.234123 0.0815973 
node 1 1 1 1
node 2 1 1 1
node 3 2 1 1
node 4 3 1 1
node 5 3 1 1
node 6 3 1 1
node 7 1 1 1
node 8 3 1 1
node 9 3 1 1
node 10 3 1 1
node 11 3 1 3
node 12 2 0 2
node 13 1 0 2
node 14 1 0 2
node 15 3 0 2
node 16 1 0 2
node 20 1 0 0
node 38 1 0 0
gene 3 1 12 -0.0574061 0 1 -0.0574061 1
gene 1 2 13 7.04484 0 2 7.04484 1
gene 1 3 14 0.741523 0 3 0.741523 1
gene 3 4 15 2.59358 0 4 2.59358 1
gene 1 5 16 2.81807 0 5 2.81807 1
gene 3 6 12 5.64856 0 2 5.64856 1
gene 2 7 12 1.53706 0 3 1.53706 1
gene 2 8 12 -1.36387 0 4 -1.36387 1
gene 1 9 12 -0.0374233 0 5 -0.0374233 1
gene 2 10 12 2.99439 0 6 2.99439 1
gene 2 11 12 -1.11019 0 7 -1.11019 1
gene 3 1 13 2.90512 0 5 2.90512 1
gene 1 2 14 -2.62007 0 6 -2.62007 1
gene 1 3 15 -3.6208 0 7 -3.6208 1
gene 2 8 13 0.982799 0 12 0.982799 1
gene 1 3 20 1.16738 0 18 1.16738 1
gene 1 20 14 -0.379555 0 19 -0.379555 1
gene 2 11 13 3.2276 0 161 3.2276 1
gene 3 4 38 -1.11969 0 169 -1.11969 1
gene 3 38 15 -6.99214 0 170 -6.99214 1
genomeend 20

/* Organism #21 Fitness: 0 Error: 0 */
genomestart 21
trait 1 0.1 0 0.0297413 0.0523154 0.163837 0.268069 0.153408 0.000303915 
trait 2 0.117407 0.132428 0.128675 0.0354663 0.227404 0.0497028 0.184121 0.0530618 
trait 3 0.839112 0.512619 0.0492459 0.42098 0.796838 0 0.351184 0.0996033 
node 1 1 1 1
node 2 1 1 1
node 3 2 1 1
node 4 3 1 1
node 5 3 1 1
node 6 3 1 1
node 7 1 1 1
node 8 3 1 1
node 9 3 1 1
node 10 3 1 1
node 11 3 1 3
node 12 2 0 2
node 13 1 0 2
node 14 1 0 2
node 15 3 0 2
node 16 1 0 2
node 20 1 0 0
node 38 1 0 0
gene 3 1 12 1.70899 0 1 1.70899 1
gene 1 2 13 7.95553 0 2 7.95553 1
gene 1 3 14 2.42668 0 3 2.42668 1
gene 3 4 15 2.69251 0 4 2.69251 1
gene 1 5 16 -1.03763 0 5 -1.03763 1
gene 3 6 12 6.63855 0 2 6.63855 1
gene 2 7 12 -0.753578 0 3 -0.753578 1
gene 2 8 12 -0.91792 0 4 -0.91792 1
gene 1 9 12 -0.150018 0 5 -0.150018 1
gene 2 10 12 1.29536 0 6 1.29536 1
gene 2 11 12 0.00170966 0 7 0.00170966 1
gene 3 1 13 2.73132 0 5 2.73132 1
gene 1 2 14 1.30452 0 6 1.30452 1
gene 1 3 15 -1.64308 0 7 -1.64308 1
gene 2 8 13 1.53061 0 12 1.53061 1
gene 1 3 20 2.54233 0 18 2.54233 1
gene 1 20 14 0.151677 0 19 0.151677 1
gene 2 11 13 1.46489 0 161 1.46489 1
gene 3 4 38 -0.44021 0 169 -0.44021 1
gene 3 38 15 -6.48821 0 170 -6.48821 1
genomeend 21

/* Organism #13 Fitness: 0 Error: 0 */
genomestart 13
trait 1 0.1 0 0.0297413 0.0523154 0.163837 0.268069 0.153408 0.000303915 
trait 2 0.117407 0.132428 0.00920261 0.0354663 0.227404 0.00213975 0.184121 0.070749 
trait 3 0.839112 0.670545 0.0492459 0.42098 0.796838 0 0.468245 0.117609 
node 1 1 1 1
node 2 1 1 1
node 3 2 1 1
node 4 3 1 1
node 5 3 1 1
node 6 3 1 1
node 7 1 1 1
node 8 3 1 1
node 9 3 1 1
node 10 3 1 1
node 11 3 1 3
node 12 2 0 2
node 13 1 0 2
node 14 1 0 2
node 15 3 0 2
node 16 1 0 2
node 20 1 0 0
node 38 1 0 0
gene 3 1 12 0.635943 0 1 0.635943 1
gene 1 2 13 7.50616 0 2 7.50616 1
gene 1 3 14 0.091937 0 3 0.091937 1
gene 3 4 15 3.06917 0 4 3.06917 1
gene 1 5 16 2.35915 0 5 2.35915 1
gene 3 6 12 6.35774 0 2 6.35774 1
gene 2 7 12 -0.134434 0 3 -0.134434 1
gene 2 8 12 1.77534 0 4 1.77534 1
gene 1 9 12 2.14286 0 5 2.14286 1
gene 2 10 12 4.42178 0 6 4.42178 1
gene 2 11 12 -0.0807285 0 7 -0.0807285 1
gene 3 1 13 2.44337 0 5 2.44337 1
gene 1 2 14 2.08892 0 6 2.08892 1
gene 1 3 15 -2.83029 0 7 -2.83029 1
gene 2 8 13 2.66788 0 12 2.66788 1
gene 1 3 20 3.91728 0 18 3.91728 1
gene 1 20 14 -0.605735 0 19 -0.605735 1
gene 2 11 13 1.85148 0 161 1.85148 1
gene 3 4 38 -2.15049 0 169 -2.15049 1
gene 3 38 15 -5.98427 0 170 -5.98427 1
genomeend 13

/* Organism #16 Fitness: 0 Error: 0 */
genomestart 16
trait 1 0.1 0 0.0297413 0.0523154 0.163837 0.268069 0.153408 0.000303915 
trait 2 0.117407 0.132428 0.00920261 0.0354663 0.227404 0.00213975 0.184121 0.070749 
trait 3 1 0.670545 0.000294211 0.42098 0.796838 0 0 0.886431 
node 1 1 1 1
node 2 1 1 1
node 3 2 1 1
node 4 3 1 1
node 5 3 1 1
node 6 3 1 1
node 7 1 1 1
node 8 3 1 1
node 9 3 1 1
node 10 3 1 1
node 11 3 1 3
node 12 2 0 2
node 13 1 0 2
node 14 1 0 2
node 15 3 0 2
node 16 1 0 2
node 20 1 0 0
node 38 1 0 0
gene 3 1 12 0.711477 0 1 0.711477 1
gene 1 2 13 7.98042 0 2 7.98042 1
gene 1 3 14 -1.51265 0 3 -1.51265 1
gene 3 4 15 1.41675 0 4 1.41675 1
gene 1 5 16 0.147858 0 5 0.147858 1
gene 3 6 12 4.75719 0 2 4.75719 1
gene 2 7 12 2.25333 0 3 2.25333 1
gene 2 8 12 3.71853 0 4 3.71853 1
gene 1 9 12 1.03847 0 5 1.03847 1
gene 2 10 12 6.7019 0 6 6.7019 1
gene 2 11 12 1.98866 0 7 1.98866 1
gene 3 1 13 4.67046 0 5 4.67046 1
gene 1 2 14 0.538118 0 6 0.538118 1
gene 1 3 15 -2.81068 0 7 -2.81068 1
gene 2 8 13 2.40611 0 12 2.40611 1
gene 1 3 20 3.73814 0 18 3.73814 1
gene 1 20 14 -2.4135 0 19 -2.4135 1
gene 2 11 13 1.85148 0 161 1.85148 1
gene 3 4 38 -3.59462 0 169 -3.59462 1
gene 3 38 15 -3.78984 0 170 -3.78984 1
genomeend 16

/* Organism #14 Fitness: 0 Error: 0 */
genomestart 14
trait 1 0.1 0 0.0297413 0.0523154 0.163837 0.268069 0.153408 0.000303915 
trait 2 0.117407 0.132428 0.487092 0.0354663 0.227404 0.192392 0.184121 0 
trait 3 0.839112 0.0388424 0.0492459 0.42098 0.796838 0 0 0.0455855 
node 1 1 1 1
node 2 1 1 1
node 3 2 1 1
node 4 3 1 1
node 5 3 1 1
node 6 3 1 1
node 7 1 1 1
node 8 3 1 1
node 9 3 1 1
node 10 2 1 1
node 11 3 1 3
node 12 2 0 2
node 13 1 0 2
node 14 1 0 2
node 15 3 0 2
node 16 1 0 2
node 20 1 0 0
node 38 1 0 0
gene 3 1 12 1.29872 0 1 1.29872 1
gene 1 2 13 5.05591 0 2 5.05591 1
gene 1 3 14 0.222861 0 3 0.222861 1
gene 3 4 15 1.32511 0 4 1.32511 1
gene 1 5 16 2.35915 0 5 2.35915 1
gene 3 6 12 5.53954 0 2 5.53954 1
gene 2 7 12 1.51448 0 3 1.51448 1
gene 2 8 12 -2.09319 0 4 -2.09319 1
gene 1 9 12 -0.402615 0 5 -0.402615 1
gene 3 10 12 2.23528 0 6 2.23528 1
gene 2 11 12 -1.91268 0 7 -1.91268 1
gene 3 1 13 5.28617 0 5 5.28617 1
gene 1 2 14 -5.3079 0 6 -5.3079 1
gene 1 3 15 -2.68319 0 7 -2.68319 1
gene 2 8 13 1.06199 0 12 1.06199 1
gene 1 3 20 0.334869 0 18 0.334869 1
gene 1 20 14 1.9878 0 19 1.9878 1
gene 2 11 13 4.60372 0 161 4.60372 1
gene 3 4 38 2.26562 0 169 2.26562 1
gene 3 38 15 -6.56764 0 170 -6.56764 1
genomeend 14

/* Organism #0 Fitness: 0 Error: 0 */
genomestart 0
trait 1 0.1 0 0.0297413 0.0523154 0.163837 0.268069 0.153408 0.000303915 
trait 2 0.117407 0.132428 0.00920261 0.0354663 0.227404 0.00213975 0.184121 0.070749 
trait 3 0.839112 0.0388424 0.0492459 0.42098 0.796838 0 0 0.0455855 
node 1 1 1 1
node 2 1 1 1
node 3 2 1 1
node 4 3 1 1
node 5 3 1 1
node 6 3 1 1
node 7 1 1 1
node 8 3 1 1
node 9 3 1 1
node 10 2 1 1
node 11 3 1 3
node 12 2 0 2
node 13 1 0 2
node 14 1 0 2
node 15 3 0 2
node 16 1 0 2
node 20 1 0 0
node 38 1 0 0
gene 3 1 12 -0.896544 0 1 -0.896544 1
gene 1 2 13 5.88807 0 2 5.88807 1
gene 1 3 14 1.66509 0 3 1.66509 1
gene 3 4 15 1.55362 0 4 1.55362 1
gene 1 5 16 3.68137 0 5 3.68137 1
gene 3 6 12 4.44247 0 2 4.44247 1
gene 2 7 12 -1.48273 0 3 -1.48273 1
gene 2 8 12 0.252846 0 4 0.252846 1
gene 1 9 12 2.08121 0 5 2.08121 1
gene 2 10 12 1.52893 0 6 1.52893 1
gene 2 11 12 -0.915028 0 7 -0.915028 1
gene 3 1 13 6.65447 0 5 6.65447 1
gene 1 2 14 -3.47526 0 6 -3.47526 1
gene 1 3 15 -2.34657 0 7 -2.34657 1
gene 2 8 13 2.94041 0 12 2.94041 1
gene 1 3 20 2.71028 0 18 2.71028 1
gene 1 20 14 2.29757 0 19 2.29757 1
gene 2 11 13 1.21334 0 161 1.21334 1
gene 3 4 38 -1.36702 0 169 -1.36702 1
gene 3 38 15 -4.06642 0 170 -4.06642 1
genomeend 0

/* Organism #9 Fitness: 0 Error: 0 */
genomestart 9
trait 1 0.1 0 0.0297413 0.0523154 0.163837 0.268069 0.153408 0.000303915 
trait 2 0.117407 0.132428 0.00920261 0.0354663 0.227404 0.00213975 0.184121 0.070749 
trait 3 0.839112 0.0388424 0.0492459 0.42098 0.796838 0 0 0.0455855 
node 1 1 1 1
node 2 1 1 1
node 3 2 1 1
node 4 3 1 1
node 5 3 1 1
node 6 3 1 1
node 7 1 1 1
node 8 3 1 1
node 9 3 1 1
node 10 2 1 1
node 11 3 1 3
node 12 2 0 2
node 13 1 0 2
node 14 1 0 2
node 15 3 0 2
node 16 1 0 2
node 20 1 0 0
node 38 1 0 0
gene 3 1 12 -1.73634 0 1 -1.73634 1
gene 1 2 13 7.51486 0 2 7.51486 1
gene 1 3 14 -0.586718 0 3 -0.586718 1
gene 3 4 15 0.696661 0 4 0.696661 1
gene 1 5 16 2.35915 0 5 2.35915 1
gene 3 6 12 5.53954 0 2 5.53954 1
gene 2 7 12 0.387669 0 3 0.387669 1
gene 2 8 12 0.282144 0 4 0.282144 1
gene 1 9 12 1.96921 0 5 1.96921 1
gene 2 10 12 2.23528 0 6 2.23528 1
gene 2 11 12 -1.91268 0 7 -1.91268 1
gene 3 1 13 4.2345 0 5 4.2345 1
gene 1 2 14 -4.58736 0 6 -4.58736 1
gene 1 3 15 -2.97953 0 7 -2.97953 1
gene 2 8 13 2.30211 0 12 2.30211 1
gene 1 3 20 1.73704 0 18 1.73704 1
gene 1 20 14 0.415338 0 19 0.415338 1
gene 2 11 13 3.04498 0 161 3.04498 1
gene 3 4 38 -0.0943219 0 169 -0.0943219 1
gene 3 38 15 -4.9838 0 170 -4.9838 1
genomeend 9

/* Organism #25 Fitness: 950.582 Error: 0 */
genomestart 25
trait 1 0.1 0 0.0297413 0.0523154 0.163837 0.268069 0.153408 0.000303915 
trait 2 0.117407 0.132428 0.0988069 0.0354663 0.227404 0.0378121 0.184121 0.0574836 
trait 3 0.839112 0.236249 0.0492459 0.42098 0.796838 0 0.146327 0.0680929 
node 1 1 1 1
node 2 1 1 1
node 3 2 1 1
node 4 3 1 1
node 5 3 1 1
node 6 3 1 1
node 7 1 1 1
node 8 3 1 1
node 9 3 1 1
node 10 3 1 1
node 11 3 1 3
node 12 2 0 2
node 13 1 0 2
node 14 1 0 2
node 15 3 0 2
node 16 1 0 2
node 20 1 0 0
node 38 1 0 0
gene 3 1 12 0.145558 0 1 0.145558 1
gene 1 2 13 7.78422 0 2 7.78422 1
gene 1 3 14 -3.67294 0 3 -3.67294 1
gene 3 4 15 4.70226 0 4 4.70226 1
gene 1 5 16 3.97583 0 5 3.97583 1
gene 3 6 12 4.41602 0 2 4.41602 1
gene 2 7 12 -0.536893 0 3 -0.536893 1
gene 2 8 12 -2.22678 0 4 -2.22678 1
gene 1 9 12 -3.27995 0 5 -3.27995 1
gene 2 10 12 1.07922 0 6 1.07922 1
gene 2 11 12 -0.284592 0 7 -0.284592 1
gene 3 1 13 5.56164 0 5 5.56164 1
gene 1 2 14 0.451732 0 6 0.451732 1
gene 1 3 15 -1.80645 0 7 -1.80645 1
gene 2 8 13 0.924738 0 12 0.924738 1
gene 1 3 20 2.99623 0 18 2.99623 1
gene 1 20 14 0.253485 0 19 0.253485 1
gene 2 11 13 3.45004 0 161 3.45004 1
gene 3 4 38 -1.12467 0 169 -1.12467 1
gene 3 38 15 -1.58195 0 170 -1.58195 1
genomeend 25

/* Species #3 : (Size 8) (AF 0) (Age 1)  */


/* Organism #757 Fitness: 0 Error: 0 */
genomestart 757
trait 1 0.1 0 0.032445 0.0522026 0.169602 0.285409 0.166031 0.000301699 
trait 2 0.116894 0.255204 0.00962769 0 1 0.00213975 0.185247 0.487152 
trait 3 0.471947 0 0.687097 0.42098 1 0 0.919736 0 
node 1 1 1 1
node 2 1 1 1
node 3 2 1 1
node 4 3 1 1
node 5 3 1 1
node 6 3 1 1
node 7 1 1 1
node 8 3 1 1
node 9 2 1 1
node 10 2 1 1
node 11 3 1 3
node 12 2 0 2
node 13 1 0 2
node 14 1 0 2
node 15 3 0 2
node 16 1 0 2
node 20 1 0 0
node 39 1 0 0
node 76 1 0 0
gene 3 1 12 -2.0441 0 1 -2.0441 1
gene 1 2 13 2.75954 0 2 2.75954 1
gene 1 3 14 4.147 0 3 4.147 1
gene 3 4 15 2.99013 0 4 2.99013 1
gene 1 5 16 -7.8911 0 5 -7.8911 1
gene 3 6 12 1.4868 0 2 1.4868 1
gene 2 7 12 2.16419 0 3 2.16419 1
gene 2 8 12 -1.123 0 4 -1.123 1
gene 1 9 12 3.52435 0 5 3.52435 1
gene 2 10 12 -0.561006 0 6 -0.561006 1
gene 2 11 12 -0.0402826 0 7 -0.0402826 1
gene 3 1 13 8 0 5 8 1
gene 1 2 14 3.02408 0 6 3.02408 1
gene 1 3 15 -0.805089 0 7 -0.805089 1
gene 2 8 13 2.51638 0 12 2.51638 1
gene 1 3 20 -3.17247 0 18 -3.17247 0
gene 1 20 14 1.35838 0 19 1.35838 1
gene 1 5 39 0.72985 0 171 0.72985 1
gene 1 39 16 1.07822 0 172 1.07822 1
gene 3 8 39 1.71606 0 231 1.71606 1
gene 1 11 20 2.59447 0 275 2.59447 1
gene 1 4 39 -0.356334 0 422 -0.356334 1
gene 1 3 76 1 0 445 0 1
gene 1 76 20 -3.17247 0 446 0 1
genomeend 757

/* Organism #1107 Fitness: 2474 Error: 0 */
genomestart 1107
trait 1 0.1 0 0.032445 0.0522026 0.169602 0.285409 0.166031 0.000301699 
trait 2 0.116894 0.255204 0.00962769 0 1 0.00213975 0.185247 0.487152 
trait 3 0.471947 0 0.687097 0.42098 1 0 0.919736 0 
node 1 1 1 1
node 2 1 1 1
node 3 2 1 1
node 4 3 1 1
node 5 3 1 1
node 6 3 1 1
node 7 1 1 1
node 8 3 1 1
node 9 2 1 1
node 10 2 1 1
node 11 3 1 3
node 12 2 0 2
node 13 1 0 2
node 14 1 0 2
node 15 3 0 2
node 16 1 0 2
node 20 1 0 0
node 39 1 0 0
gene 3 1 12 -0.902323 0 1 -0.902323 1
gene 1 2 13 4.16858 0 2 4.16858 1
gene 1 3 14 3.67725 0 3 3.67725 1
gene 3 4 15 2.2071 0 4 2.2071 1
gene 1 5 16 -7.32773 0 5 -7.32773 1
gene 3 6 12 0.908167 0 2 0.908167 1
gene 2 7 12 1.19293 0 3 1.19293 1
gene 2 8 12 -1.06578 0 4 -1.06578 1
gene 1 9 12 4.3308 0 5 4.3308 1
gene 2 10 12 1.39485 0 6 1.39485 1
gene 2 11 12 1.91946 0 7 1.91946 1
gene 3 1 13 7.76905 0 5 7.76905 1
gene 1 2 14 4.3984 0 6 4.3984 1
gene 1 3 15 1.06104 0 7 1.06104 1
gene 2 8 13 0.132047 0 12 0.132047 1
gene 1 3 20 -2.93267 0 18 -2.93267 1
gene 1 20 14 1.47313 0 19 1.47313 1
gene 1 5 39 0.671636 0 171 0.671636 1
gene 1 39 16 -2.03116 0 172 -2.03116 1
gene 3 8 39 2.69822 0 231 2.69822 1
gene 1 11 20 2.59447 0 275 2.59447 1
gene 1 4 39 -1.38954 0 422 -1.38954 1
genomeend 1107

/* Organism #5 Fitness: 0 Error: 0 */
genomestart 5
trait 1 0.1 0 0.032445 0.0522026 0.169602 0.285409 0.166031 0.000301699 
trait 2 0.116894 0.255204 0.00962769 0 1 0.00213975 0.185247 0.487152 
trait 3 0.471947 0 0.687097 0.42098 1 0 0.919736 0 
node 1 1 1 1
node 2 1 1 1
node 3 2 1 1
node 4 3 1 1
node 5 3 1 1
node 6 3 1 1
node 7 1 1 1
node 8 3 1 1
node 9 2 1 1
node 10 2 1 1
node 11 3 1 3
node 12 2 0 2
node 13 1 0 2
node 14 1 0 2
node 15 3 0 2
node 16 1 0 2
node 20 1 0 0
node 39 1 0 0
gene 3 1 12 -0.902323 0 1 -0.902323 1
gene 1 2 13 3.22037 0 2 3.22037 1
gene 1 3 14 3.67725 0 3 3.67725 1
gene 3 4 15 2.40379 0 4 2.40379 1
gene 1 5 16 -7.32773 0 5 -7.32773 1
gene 3 6 12 0.908167 0 2 0.908167 1
gene 2 7 12 1.92172 0 3 1.92172 1
gene 2 8 12 1.27812 0 4 1.27812 1
gene 1 9 12 3.59744 0 5 3.59744 1
gene 2 10 12 1.39485 0 6 1.39485 1
gene 2 11 12 1.91946 0 7 1.91946 1
gene 3 1 13 7.76905 0 5 7.76905 1
gene 1 2 14 4.3984 0 6 4.3984 1
gene 1 3 15 0.937671 0 7 0.937671 1
gene 2 8 13 0.132047 0 12 0.132047 1
gene 1 3 20 -2.66426 0 18 -2.66426 1
gene 1 20 14 3.8345 0 19 3.8345 1
gene 1 5 39 0.595264 0 171 0.595264 1
gene 1 39 16 -0.144659 0 172 -0.144659 1
gene 3 8 39 2.69822 0 231 2.69822 1
gene 1 11 20 2.59447 0 275 2.59447 1
gene 1 4 39 -1.38954 0 422 -1.38954 1
genomeend 5

/* Organism #476 Fitness: 0 Error: 0 */
genomestart 476
trait 1 0.1 0 0.032445 0.0522026 0.169602 0.285409 0.166031 0.000301699 
trait 2 0.116894 0.255204 0.00962769 0 1 0.00213975 0.185247 0.487152 
trait 3 0.471947 0 0.687097 0.42098 1 0 0.919736 0 
node 1 1 1 1
node 2 1 1 1
node 3 2 1 1
node 4 3 1 1
node 5 3 1 1
node 6 3 1 1
node 7 1 1 1
node 8 3 1 1
node 9 2 1 1
node 10 2 1 1
node 11 3 1 3
node 12 2 0 2
node 13 1 0 2
node 14 1 0 2
node 15 3 0 2
node 16 1 0 2
node 20 1 0 0
node 39 1 0 0
node 75 1 0 0
gene 3 1 12 -0.364282 0 1 -0.364282 1
gene 1 2 13 3.22037 0 2 3.22037 1
gene 1 3 14 4.02966 0 3 4.02966 1
gene 3 4 15 2.40379 0 4 2.40379 1
gene 1 5 16 -6.15712 0 5 -6.15712 1
gene 3 6 12 3.02653 0 2 3.02653 1
gene 2 7 12 1.92172 0 3 1.92172 1
gene 2 8 12 1.27812 0 4 1.27812 1
gene 1 9 12 3.59744 0 5 3.59744 1
gene 2 10 12 1.00482 0 6 1.00482 1
gene 2 11 12 -1.50067 0 7 -1.50067 1
gene 3 1 13 8 0 5 8 1
gene 1 2 14 0.929898 0 6 0.929898 1
gene 1 3 15 0.937671 0 7 0.937671 1
gene 2 8 13 2.18411 0 12 2.18411 0
gene 1 3 20 -2.66426 0 18 -2.66426 1
gene 1 20 14 3.8345 0 19 3.8345 1
gene 1 5 39 0.595264 0 171 0.595264 1
gene 1 39 16 -0.144659 0 172 -0.144659 1
gene 3 8 39 1.71606 0 231 1.71606 1
gene 1 11 20 2.59447 0 275 2.59447 1
gene 1 4 39 -0.356334 0 422 -0.356334 1
gene 2 8 75 1 0 443 0 1
gene 2 75 13 2.18411 0 444 0 1
genomeend 476

/* Organism #577 Fitness: 0 Error: 0 */
genomestart 577
trait 1 0.1 0 0.032445 0.0522026 0.169602 0.285409 0.166031 0.000301699 
trait 2 0.116894 0.255204 0.00962769 0 1 0.00213975 0.185247 0.487152 
trait 3 0.471947 0 0.687097 0.42098 1 0 0.919736 0 
node 1 1 1 1
node 2 1 1 1
node 3 2 1 1
node 4 3 1 1
node 5 3 1 1
node 6 3 1 1
node 7 1 1 1
node 8 3 1 1
node 9 2 1 1
node 10 2 1 1
node 11 3 1 3
node 12 2 0 2
node 13 1 0 2
node 14 1 0 2
node 15 3 0 2
node 16 1 0 2
node 20 1 0 0
node 39 1 0 0
node 77 1 0 0
gene 3 1 12 -0.364282 0 1 -0.364282 1
gene 1 2 13 3.22037 0 2 3.22037 1
gene 1 3 14 4.02966 0 3 4.02966 1
gene 3 4 15 2.40379 0 4 2.40379 1
gene 1 5 16 -6.15712 0 5 -6.15712 1
gene 3 6 12 3.02653 0 2 3.02653 1
gene 2 7 12 1.92172 0 3 1.92172 0
gene 2 8 12 1.27812 0 4 1.27812 1
gene 1 9 12 3.59744 0 5 3.59744 1
gene 2 10 12 1.00482 0 6 1.00482 1
gene 2 11 12 -1.50067 0 7 -1.50067 1
gene 3 1 13 8 0 5 8 1
gene 1 2 14 0.929898 0 6 0.929898 1
gene 1 3 15 0.937671 0 7 0.937671 1
gene 2 8 13 2.18411 0 12 2.18411 1
gene 1 3 20 -2.66426 0 18 -2.66426 1
gene 1 20 14 3.8345 0 19 3.8345 1
gene 1 5 39 0.595264 0 171 0.595264 1
gene 1 39 16 -0.144659 0 172 -0.144659 1
gene 3 8 39 1.71606 0 231 1.71606 1
gene 1 11 20 2.59447 0 275 2.59447 1
gene 1 4 39 -0.356334 0 422 -0.356334 1
gene 2 7 77 1 0 450 0 1
gene 2 77 12 1.92172 0 451 0 1
genomeend 577

/* Organism #2 Fitness: 0 Error: 0 */
genomestart 2
trait 1 0.1 0 0.032445 0.0522026 0.169602 0.285409 0.166031 0.000301699 
trait 2 0.116894 0.255204 0.00962769 0 1 0.00213975 0.185247 0.487152 
trait 3 0.471947 0 0.687097 0.42098 1 0 0.919736 0 
node 1 1 1 1
node 2 1 1 1
node 3 2 1 1
node 4 3 1 1
node 5 3 1 1
node 6 3 1 1
node 7 1 1 1
node 8 3 1 1
node 9 2 1 1
node 10 2 1 1
node 11 3 1 3
node 12 2 0 2
node 13 1 0 2
node 14 1 0 2
node 15 3 0 2
node 16 1 0 2
node 20 1 0 0
node 39 1 0 0
gene 3 1 12 -1.83058 0 1 -1.83058 1
gene 1 2 13 3.48199 0 2 3.48199 1
gene 1 3 14 2.11035 0 3 2.11035 1
gene 3 4 15 0.471169 0 4 0.471169 1
gene 1 5 16 -8 0 5 -8 1
gene 3 6 12 0.2281 0 2 0.2281 1
gene 2 7 12 1.69894 0 3 1.69894 1
gene 2 8 12 0.774832 0 4 0.774832 1
gene 1 9 12 5.06454 0 5 5.06454 1
gene 2 10 12 2.24208 0 6 2.24208 1
gene 2 11 12 -2.72954 0 7 -2.72954 1
gene 3 1 13 8 0 5 8 1
gene 1 2 14 3.49841 0 6 3.49841 1
gene 1 3 15 -2.33643 0 7 -2.33643 1
gene 2 8 13 0.914502 0 12 0.914502 1
gene 1 3 20 -2.07918 0 18 -2.07918 1
gene 1 20 14 2.65031 0 19 2.65031 1
gene 1 5 39 2.69349 0 171 2.69349 1
gene 1 39 16 2.64 0 172 2.64 1
gene 3 8 39 -0.610218 0 231 -0.610218 1
gene 1 11 20 2.59447 0 275 2.59447 1
gene 1 4 39 -0.356334 0 422 -0.356334 1
genomeend 2

/* Organism #6 Fitness: 80 Error: 0 */
genomestart 6
trait 1 0.1 0 0.032445 0.0522026 0.169602 0.285409 0.166031 0.000301699 
trait 2 0.116894 0.255204 0.00962769 0 1 0.00213975 0.185247 0.487152 
trait 3 0.471947 0 0.687097 0.42098 1 0 0.919736 0 
node 1 1 1 1
node 2 1 1 1
node 3 2 1 1
node 4 3 1 1
node 5 3 1 1
node 6 3 1 1
node 7 1 1 1
node 8 3 1 1
node 9 2 1 1
node 10 2 1 1
node 11 3 1 3
node 12 2 0 2
node 13 1 0 2
node 14 1 0 2
node 15 3 0 2
node 16 1 0 2
node 20 1 0 0
node 39 1 0 0
gene 3 1 12 -1.03302 0 1 -1.03302 1
gene 1 2 13 2.83576 0 2 2.83576 1
gene 1 3 14 3.59233 0 3 3.59233 1
gene 3 4 15 0.739921 0 4 0.739921 1
gene 1 5 16 -8 0 5 -8 1
gene 3 6 12 1.13332 0 2 1.13332 1
gene 2 7 12 4.02292 0 3 4.02292 1
gene 2 8 12 0.0705026 0 4 0.0705026 1
gene 1 9 12 1.11659 0 5 1.11659 1
gene 2 10 12 1.23905 0 6 1.23905 1
gene 2 11 12 3.94955 0 7 3.94955 1
gene 3 1 13 6.65329 0 5 6.65329 1
gene 1 2 14 3.70372 0 6 3.70372 1
gene 1 3 15 0.894945 0 7 0.894945 1
gene 2 8 13 1.97063 0 12 1.97063 1
gene 1 3 20 -1.64181 0 18 -1.64181 1
gene 1 20 14 4.95552 0 19 4.95552 1
gene 1 5 39 0.898999 0 171 0.898999 1
gene 1 39 16 -0.144659 0 172 -0.144659 1
gene 3 8 39 2.1189 0 231 2.1189 1
gene 1 11 20 2.59447 0 275 2.59447 1
gene 1 4 39 1.1639 0 422 1.1639 1
genomeend 6

/* Organism #10 Fitness: 0 Error: 0 */
genomestart 10
trait 1 0.1 0 0.032445 0.0522026 0.169602 0.285409 0.166031 0.000301699 
trait 2 0.116894 0.255204 0.00962769 0 1 0.00213975 0.185247 0.487152 
trait 3 0.471947 0 0.687097 0.42098 1 0 0.919736 0 
node 1 1 1 1
node 2 1 1 1
node 3 2 1 1
node 4 3 1 1
node 5 3 1 1
node 6 3 1 1
node 7 1 1 1
node 8 3 1 1
node 9 2 1 1
node 10 2 1 1
node 11 3 1 3
node 12 2 0 2
node 13 1 0 2
node 14 1 0 2
node 15 3 0 2
node 16 1 0 2
node 20 1 0 0
node 39 1 0 0
node 76 1 0 0
gene 3 1 12 -0.935363 0 1 -0.935363 1
gene 1 2 13 0.586393 0 2 0.586393 1
gene 1 3 14 3.85158 0 3 3.85158 1
gene 3 4 15 1.04656 0 4 1.04656 1
gene 1 5 16 2.00507 0 5 2.00507 1
gene 3 6 12 -2.07366 0 2 -2.07366 1
gene 2 7 12 1.87404 0 3 1.87404 1
gene 2 8 12 -1.75801 0 4 -1.75801 1
gene 1 9 12 5.85703 0 5 5.85703 1
gene 2 10 12 1.64373 0 6 1.64373 1
gene 2 11 12 1.56407 0 7 1.56407 1
gene 3 1 13 8 0 5 8 1
gene 1 2 14 5.24461 0 6 5.24461 1
gene 1 3 15 -1.64908 0 7 -1.64908 1
gene 2 8 13 2.51638 0 12 2.51638 1
gene 1 3 20 -1.48 0 18 -1.48 0
gene 1 20 14 -1.15162 0 19 -1.15162 1
gene 1 5 39 -1.08165 0 171 -1.08165 1
gene 1 39 16 0.580463 0 172 0.580463 1
gene 3 8 39 4.11733 0 231 4.11733 1
gene 1 11 20 4.46518 0 275 4.46518 1
gene 1 4 39 -1.78854 0 422 -1.78854 1
gene 1 3 76 3.15506 0 445 3.15506 1
gene 1 76 20 -4.0746 0 446 -4.0746 1
genomeend 10

/* Species #4 : (Size 3) (AF 0) (Age 1)  */


/* Organism #2269 Fitness: 1966 Error: 0 */
genomestart 2269
trait 1 0.1 0 0.032445 0.0522026 0.169602 0.285409 0.166031 0.000301699 
trait 2 0.116894 0.255204 0.00962769 0 1 0.00213975 0.185247 0.487152 
trait 3 0.35645 0 0.687097 0.42098 1 0 0.919736 0 
node 1 1 1 1
node 2 1 1 1
node 3 2 1 1
node 4 3 1 1
node 5 3 1 1
node 6 3 1 1
node 7 1 1 1
node 8 3 1 1
node 9 2 1 1
node 10 2 1 1
node 11 3 1 3
node 12 2 0 2
node 13 1 0 2
node 14 1 0 2
node 15 3 0 2
node 16 1 0 2
node 20 1 0 0
node 39 1 0 0
node 61 1 0 0
gene 3 1 12 -1.89502 0 1 -1.89502 1
gene 1 2 13 -0.01133 0 2 -0.01133 1
gene 1 3 14 1.27854 0 3 1.27854 0
gene 3 4 15 5.05989 0 4 5.05989 1
gene 1 5 16 -7.51716 0 5 -7.51716 1
gene 3 6 12 1.95662 0 2 1.95662 1
gene 2 7 12 2.25556 0 3 2.25556 1
gene 2 8 12 0.206553 0 4 0.206553 1
gene 1 9 12 -0.500997 0 5 -0.500997 1
gene 2 10 12 3.43084 0 6 3.43084 1
gene 2 11 12 3.42707 0 7 3.42707 1
gene 3 1 13 7.01074 0 5 7.01074 1
gene 1 2 14 5.39016 0 6 5.39016 0
gene 1 3 15 -1.67381 0 7 -1.67381 1
gene 2 8 13 8 0 12 8 1
gene 1 3 20 -1.16947 0 18 -1.16947 1
gene 1 20 14 2.06954 0 19 2.06954 1
gene 1 5 39 6.00169 0 171 6.00169 1
gene 1 39 16 1.49678 0 172 1.49678 1
gene 3 8 39 1.60333 0 231 1.60333 1
gene 1 2 61 1 0 346 0 1
gene 1 61 14 5.39016 0 347 0 1
genomeend 2269

/* Organism #785 Fitness: 110 Error: 0 */
genomestart 785
trait 1 0.1 0 0.032445 0.0522026 0.169602 0.285409 0.166031 0.000301699 
trait 2 0.116894 0.255204 0.00962769 0 1 0.00213975 0.185247 0.487152 
trait 3 0.35645 0 0.687097 0.42098 1 0 0.919736 0 
node 1 1 1 1
node 2 1 1 1
node 3 2 1 1
node 4 3 1 1
node 5 3 1 1
node 6 3 1 1
node 7 1 1 1
node 8 3 1 1
node 9 2 1 1
node 10 2 1 1
node 11 3 1 3
node 12 2 0 2
node 13 1 0 2
node 14 1 0 2
node 15 3 0 2
node 16 1 0 2
node 20 1 0 0
node 39 1 0 0
node 61 1 0 0
gene 3 1 12 -1.89502 0 1 -1.89502 1
gene 1 2 13 -0.01133 0 2 -0.01133 1
gene 1 3 14 1.27854 0 3 1.27854 0
gene 3 4 15 5.05989 0 4 5.05989 1
gene 1 5 16 -7.51716 0 5 -7.51716 1
gene 3 6 12 1.95662 0 2 1.95662 1
gene 2 7 12 2.25556 0 3 2.25556 1
gene 2 8 12 0.206553 0 4 0.206553 1
gene 1 9 12 -0.500997 0 5 -0.500997 1
gene 2 10 12 3.43084 0 6 3.43084 1
gene 2 11 12 3.42707 0 7 3.42707 1
gene 3 1 13 7.01074 0 5 7.01074 1
gene 1 2 14 5.39016 0 6 5.39016 0
gene 1 3 15 -1.67381 0 7 -1.67381 1
gene 2 8 13 8 0 12 8 1
gene 1 3 20 -1.16947 0 18 -1.16947 1
gene 1 20 14 2.06954 0 19 2.06954 1
gene 1 5 39 6.00169 0 171 6.00169 1
gene 1 39 16 1.49678 0 172 1.49678 1
gene 3 8 39 1.60333 0 231 1.60333 1
gene 1 2 61 1 0 346 0 1
gene 1 61 14 5.39016 0 347 0 1
gene 2 39 61 0.664327 0 468 0.664327 1
genomeend 785

/* Organism #26 Fitness: 5596 Error: 0 */
genomestart 26
trait 1 0.1 0 0.032445 0.0522026 0.169602 0.285409 0.166031 0.000301699 
trait 2 0.116894 0.255204 0.00962769 0 1 0.00213975 0.185247 0.487152 
trait 3 0.35645 0 0.687097 0.42098 1 0 0.919736 0 
node 1 1 1 1
node 2 1 1 1
node 3 2 1 1
node 4 3 1 1
node 5 3 1 1
node 6 3 1 1
node 7 1 1 1
node 8 3 1 1
node 9 2 1 1
node 10 2 1 1
node 11 3 1 3
node 12 2 0 2
node 13 1 0 2
node 14 1 0 2
node 15 3 0 2
node 16 1 0 2
node 20 1 0 0
node 39 1 0 0
node 61 1 0 0
gene 3 1 12 -0.977405 0 1 -0.977405 1
gene 1 2 13 -1.22604 0 2 -1.22604 1
gene 1 3 14 3.38653 0 3 3.38653 0
gene 3 4 15 4.21674 0 4 4.21674 1
gene 1 5 16 -8 0 5 -8 1
gene 3 6 12 -0.126955 0 2 -0.126955 1
gene 2 7 12 0.159701 0 3 0.159701 1
gene 2 8 12 -0.905618 0 4 -0.905618 1
gene 1 9 12 -0.00652085 0 5 -0.00652085 1
gene 2 10 12 1.09389 0 6 1.09389 1
gene 2 11 12 2.79366 0 7 2.79366 1
gene 3 1 13 4.93205 0 5 4.93205 1
gene 1 2 14 7.59627 0 6 7.59627 0
gene 1 3 15 -2.98954 0 7 -2.98954 1
gene 2 8 13 8 0 12 8 1
gene 1 3 20 1.32084 0 18 1.32084 1
gene 1 20 14 4.28434 0 19 4.28434 1
gene 1 5 39 6.37913 0 171 6.37913 1
gene 1 39 16 2.45689 0 172 2.45689 1
gene 3 8 39 2.0753 0 231 2.0753 1
gene 1 2 61 2.3838 0 346 2.3838 1
gene 1 61 14 5.39016 0 347 5.39016 1
genomeend 26

/* Species #6 : (Size 3) (AF 0) (Age 1)  */


/* Organism #211 Fitness: 0 Error: 0 */
genomestart 211
trait 1 1 0 0.0268685 0 0 0.249645 0.00815616 0 
trait 2 0.117952 0.132428 0.00875096 0.0354663 0.227404 0.00213975 0.182924 0.0705778 
trait 3 0 0.0388424 0.0473821 0.891301 0 0.393109 0 0.517069 
node 1 1 1 1
node 2 1 1 1
node 3 2 1 1
node 4 3 1 1
node 5 3 1 1
node 6 3 1 1
node 7 1 1 1
node 8 3 1 1
node 9 2 1 1
node 10 2 1 1
node 11 3 1 3
node 12 2 0 2
node 13 1 0 2
node 14 1 0 2
node 15 3 0 2
node 16 1 0 2
node 20 1 0 0
node 53 1 0 0
node 59 1 0 0
node 67 1 0 0
gene 3 1 12 8 0 1 8 1
gene 1 2 13 0.842444 0 2 0.842444 1
gene 1 3 14 1.75306 0 3 1.75306 0
gene 3 4 15 3.33678 0 4 3.33678 1
gene 1 5 16 4.03899 0 5 4.03899 1
gene 3 6 12 7.33248 0 2 7.33248 1
gene 2 7 12 -0.741463 0 3 -0.741463 1
gene 2 8 12 2.59231 0 4 2.59231 1
gene 1 9 12 3.86364 0 5 3.86364 1
gene 2 10 12 1.58483 0 6 1.58483 1
gene 2 11 12 2.33123 0 7 2.33123 1
gene 3 1 13 5.87647 0 5 5.87647 0
gene 1 2 14 -3.06907 0 6 -3.06907 1
gene 1 3 15 -4.02566 0 7 -4.02566 1
gene 2 8 13 2.70119 0 12 2.70119 0
gene 1 3 20 1.06757 0 18 1.06757 1
gene 1 20 14 3.52595 0 19 3.52595 1
gene 2 8 53 1.33686 0 294 1.33686 1
gene 2 53 13 8 0 295 8 1
gene 1 3 59 -2.89438 0 327 -2.89438 1
gene 1 59 20 2.87561 0 328 2.87561 1
gene 3 1 67 2.14547 0 382 2.14547 1
gene 3 67 13 7.39323 0 383 7.39323 1
gene 1 2 20 1.46518 0 405 1.46518 1
genomeend 211

/* Organism #172 Fitness: 0 Error: 0 */
genomestart 172
trait 1 1 0 0.0268685 0 0 0.249645 0.00815616 0 
trait 2 0.117952 0.132428 0.00875096 0.0354663 0.227404 0.00213975 0.182924 0.0705778 
trait 3 0 0.0388424 0.0473821 0.891301 0 0.393109 0 0.517069 
node 1 1 1 1
node 2 1 1 1
node 3 2 1 1
node 4 3 1 1
node 5 3 1 1
node 6 3 1 1
node 7 1 1 1
node 8 3 1 1
node 9 2 1 1
node 10 2 1 1
node 11 3 1 3
node 12 2 0 2
node 13 1 0 2
node 14 1 0 2
node 15 3 0 2
node 16 1 0 2
node 20 1 0 0
node 53 1 0 0
node 59 1 0 0
node 67 1 0 0
gene 3 1 12 8 0 1 8 1
gene 1 2 13 -1.38163 0 2 -1.38163 1
gene 1 3 14 -2.74636 0 3 -2.74636 0
gene 3 4 15 3.47827 0 4 3.47827 1
gene 1 5 16 3.33523 0 5 3.33523 1
gene 3 6 12 6.75668 0 2 6.75668 1
gene 2 7 12 -1.74818 0 3 -1.74818 1
gene 2 8 12 -0.010575 0 4 -0.010575 1
gene 1 9 12 -0.755716 0 5 -0.755716 1
gene 2 10 12 -0.129017 0 6 -0.129017 1
gene 2 11 12 -1.29057 0 7 -1.29057 1
gene 3 1 13 7.32968 0 5 7.32968 0
gene 1 2 14 -1.3023 0 6 -1.3023 1
gene 1 3 15 -5.04288 0 7 -5.04288 1
gene 2 8 13 5.09426 0 12 5.09426 0
gene 1 3 20 0.402383 0 18 0.402383 0
gene 1 20 14 1.58132 0 19 1.58132 1
gene 2 8 53 -4.63164 0 294 -4.63164 1
gene 2 53 13 -1.61855 0 295 -1.61855 1
gene 1 3 59 1.04671 0 327 1.04671 1
gene 1 59 20 -0.705893 0 328 -0.705893 1
gene 3 1 67 1.749 0 382 1.749 1
gene 3 67 13 7.56078 0 383 7.56078 1
gene 1 2 20 -1.45254 0 405 -1.45254 1
genomeend 172

/* Organism #1020 Fitness: 0 Error: 0 */
genomestart 1020
trait 1 1 0 0.0268685 0 0 0.249645 0.00815616 0 
trait 2 0.117952 0.132428 0.00875096 0.0354663 0.227404 0.00213975 0.182924 0.0705778 
trait 3 0 0.0388424 0.0473821 0.891301 0 0.393109 0 0.517069 
node 1 1 1 1
node 2 1 1 1
node 3 2 1 1
node 4 3 1 1
node 5 3 1 1
node 6 3 1 1
node 7 1 1 1
node 8 3 1 1
node 9 2 1 1
node 10 2 1 1
node 11 3 1 3
node 12 2 0 2
node 13 1 0 2
node 14 1 0 2
node 15 3 0 2
node 16 1 0 2
node 20 1 0 0
node 53 1 0 0
node 59 1 0 0
node 67 1 0 0
gene 3 1 12 7.25581 0 1 7.25581 1
gene 1 2 13 -1.6011 0 2 -1.6011 1
gene 1 3 14 -0.882519 0 3 -0.882519 0
gene 3 4 15 -1.339 0 4 -1.339 1
gene 1 5 16 7.59012 0 5 7.59012 1
gene 3 6 12 5.52632 0 2 5.52632 1
gene 2 7 12 -4.61747 0 3 -4.61747 1
gene 2 8 12 4.71159 0 4 4.71159 1
gene 1 9 12 2.57065 0 5 2.57065 1
gene 2 10 12 1.89108 0 6 1.89108 1
gene 2 11 12 5.04761 0 7 5.04761 1
gene 3 1 13 2.03732 0 5 2.03732 0
gene 1 2 14 -4.73302 0 6 -4.73302 1
gene 1 3 15 -4.88369 0 7 -4.88369 1
gene 2 8 13 1.67355 0 12 1.67355 0
gene 1 3 20 2.92592 0 18 2.92592 1
gene 1 20 14 6.5556 0 19 6.5556 1
gene 2 8 53 -1.18023 0 294 -1.18023 1
gene 2 53 13 1.90565 0 295 1.90565 1
gene 1 3 59 -1.28231 0 327 -1.28231 1
gene 1 59 20 -1.74917 0 328 -1.74917 1
gene 3 1 67 3.52443 0 382 3.52443 1
gene 3 67 13 3.82218 0 383 3.82218 1
gene 1 2 20 -1.79563 0 405 -1.79563 1
genomeend 1020

/* Species #7 : (Size 1) (AF 0) (Age 1)  */


/* Organism #4331 Fitness: 0 Error: 0 */
genomestart 4331
trait 1 0.1 0 0.032445 0.0522026 0.169602 0.285409 0.166031 0.000301699 
trait 2 0.116894 0.255204 0.00962769 0 1 0.00213975 0.185247 0.487152 
trait 3 0.35645 0 0.687097 0.42098 1 0 0.919736 0 
node 1 1 1 1
node 2 1 1 1
node 3 2 1 1
node 4 3 1 1
node 5 3 1 1
node 6 3 1 1
node 7 1 1 1
node 8 3 1 1
node 9 2 1 1
node 10 2 1 1
node 11 3 1 3
node 12 2 0 2
node 13 1 0 2
node 14 1 0 2
node 15 3 0 2
node 16 1 0 2
node 20 1 0 0
node 39 1 0 0
node 51 1 0 0
gene 3 1 12 -1.45432 0 1 -1.45432 1
gene 1 2 13 -0.621662 0 2 -0.621662 1
gene 1 3 14 0.19879 0 3 0.19879 0
gene 3 4 15 4.46658 0 4 4.46658 1
gene 1 5 16 -6.06864 0 5 -6.06864 0
gene 3 6 12 4.70099 0 2 4.70099 1
gene 2 7 12 0.750755 0 3 0.750755 0
gene 2 8 12 1.28124 0 4 1.28124 1
gene 1 9 12 -1.62713 0 5 -1.62713 1
gene 2 10 12 -1.16413 0 6 -1.16413 1
gene 2 11 12 4.23059 0 7 4.23059 1
gene 3 1 13 7.42068 0 5 7.42068 1
gene 1 2 14 5.76205 0 6 5.76205 1
gene 1 3 15 -2.18818 0 7 -2.18818 1
gene 2 8 13 8 0 12 8 1
gene 1 3 20 -0.548723 0 18 -0.548723 1
gene 1 20 14 2.82765 0 19 2.82765 1
gene 1 5 39 6.00169 0 171 6.00169 1
gene 1 39 16 -0.65363 0 172 -0.65363 1
gene 3 8 39 2.41369 0 231 2.41369 1
gene 2 7 51 1 0 286 0 1
gene 2 51 12 0.750755 0 287 0 1
genomeend 4331

/* Species #8 : (Size 1) (AF 0) (Age 1)  */


/* Organism #1 Fitness: 0 Error: 0 */
genomestart 1
trait 1 0.1 0 0.0297413 0.0523154 0.163837 0.268069 0.153408 0.000303915 
trait 2 0.117407 0.132428 0.00920261 0.0354663 0.227404 0.00213975 0.184121 0.070749 
trait 3 0.839112 0.0388424 0.0492459 0.42098 0.796838 0 0 0.0455855 
node 1 1 1 1
node 2 1 1 1
node 3 2 1 1
node 4 3 1 1
node 5 3 1 1
node 6 3 1 1
node 7 1 1 1
node 8 3 1 1
node 9 3 1 1
node 10 2 1 1
node 11 3 1 3
node 12 2 0 2
node 13 1 0 2
node 14 1 0 2
node 15 3 0 2
node 16 1 0 2
node 20 1 0 0
node 38 1 0 0
node 70 1 0 0
gene 3 1 12 1.59461 0 1 1.59461 1
gene 1 2 13 4.97336 0 2 4.97336 1
gene 1 3 14 -3.65643 0 3 -3.65643 1
gene 3 4 15 -1.77122 0 4 -1.77122 1
gene 1 5 16 2.03905 0 5 2.03905 1
gene 3 6 12 4.18348 0 2 4.18348 1
gene 2 7 12 -0.11832 0 3 -0.11832 1
gene 2 8 12 -2.62055 0 4 -2.62055 1
gene 1 9 12 4.5624 0 5 4.5624 1
gene 2 10 12 2.03459 0 6 2.03459 1
gene 2 11 12 0.889677 0 7 0.889677 1
gene 3 1 13 6.65447 0 5 6.65447 1
gene 1 2 14 -2.44419 0 6 -2.44419 1
gene 1 3 15 -3.49026 0 7 -3.49026 1
gene 2 8 13 1.60213 0 12 1.60213 1
gene 1 3 20 3.82329 0 18 3.82329 1
gene 1 20 14 -1.3984 0 19 -1.3984 0
gene 2 11 13 -1.08898 0 161 -1.08898 1
gene 3 4 38 -1.9398 0 169 -1.9398 1
gene 3 38 15 -2.9222 0 170 -2.9222 1
gene 1 20 70 1 0 417 0 1
gene 1 70 14 -1.3984 0 418 0 1
gene 1 38 12 -0.540635 0 477 -0.540635 1
genomeend 1
