
/* Species #1 : (Size 17) (AF 0) (Age 1)  */


/* Organism #646 Fitness: 9336 Error: 0 */
genomestart 646
trait 1 0.1 0 0 0 0.019138 0 0.0145529 0.000359546 
trait 2 0.575462 0.845916 0 0 0.211199 0.456345 0 0.0659175 
trait 3 0.462539 0.0194212 0.0299596 0.412389 0.214686 0 0 0.171901 
node 1 2 1 1
node 2 2 1 1
node 3 2 1 1
node 4 1 1 1
node 5 1 1 1
node 6 3 1 1
node 7 1 1 1
node 8 1 1 1
node 9 2 1 1
node 10 2 1 1
node 11 2 1 3
node 12 3 0 2
node 13 3 0 2
node 14 2 0 2
node 15 2 0 2
node 16 1 0 2
gene 3 1 12 -2.24364 0 1 -2.24364 1
gene 1 2 13 -8 0 2 -8 1
gene 1 3 14 -5.28367 0 3 -5.28367 1
gene 3 4 15 -5.29809 0 4 -5.29809 1
gene 1 5 16 5.73565 0 5 5.73565 1
gene 3 6 12 -4.36514 0 2 -4.36514 1
gene 1 7 12 -2.68822 0 3 -2.68822 1
gene 3 8 12 3.0033 0 4 3.0033 1
gene 3 9 12 -4.67833 0 5 -4.67833 1
gene 3 10 12 -1.97409 0 6 -1.97409 1
gene 2 11 12 -7.35672 0 7 -7.35672 1
gene 2 1 13 0.894955 0 5 0.894955 1
gene 1 2 14 0.35577 0 6 0.35577 1
gene 1 3 15 1.64708 0 7 1.64708 1
gene 3 16 12 2.1324 0 24 2.1324 1
gene 1 14 15 -0.377544 0 45 0 1
genomeend 646

/* Organism #816 Fitness: 9496 Error: 0 */
genomestart 816
trait 1 0.1 0 0 0.0693991 0.153831 0 0.083479 0.278582 
trait 2 0.575462 0.845916 0 0 0.211199 0.456345 0 0.0659175 
trait 3 0.462539 0.0194212 0.0299596 0.412389 0.214686 0 0 0.171901 
node 1 2 1 1
node 2 2 1 1
node 3 2 1 1
node 4 1 1 1
node 5 1 1 1
node 6 3 1 1
node 7 1 1 1
node 8 1 1 1
node 9 2 1 1
node 10 2 1 1
node 11 2 1 3
node 12 3 0 2
node 13 3 0 2
node 14 2 0 2
node 15 2 0 2
node 16 1 0 2
gene 3 1 12 -2.24364 0 1 -2.24364 1
gene 1 2 13 -7.56603 0 2 -7.56603 1
gene 1 3 14 -6.19274 0 3 -6.19274 1
gene 3 4 15 -5.29809 0 4 -5.29809 1
gene 1 5 16 5.73565 0 5 5.73565 1
gene 3 6 12 -4.1419 0 2 -4.1419 1
gene 1 7 12 -2.68822 0 3 -2.68822 1
gene 3 8 12 3.0033 0 4 3.0033 1
gene 3 9 12 -4.67833 0 5 -4.67833 1
gene 3 10 12 -4.79911 0 6 -4.79911 1
gene 2 11 12 -7.35672 0 7 -7.35672 1
gene 2 1 13 0.894955 0 5 0.894955 1
gene 1 2 14 0.35577 0 6 0.35577 1
gene 1 3 15 1.64708 0 7 1.64708 1
gene 3 16 12 -0.844371 0 24 -0.844371 1
genomeend 816

/* Organism #760 Fitness: 8202 Error: 0 */
genomestart 760
trait 1 0.1 0 0 0.138798 0.288525 0 0.152405 0.556804 
trait 2 0.575462 0.845916 0 0 0.211199 0.456345 0 0.0659175 
trait 3 0.462539 0.0194212 0.0299596 0.412389 0.214686 0 0 0.171901 
node 1 2 1 1
node 2 2 1 1
node 3 2 1 1
node 4 1 1 1
node 5 1 1 1
node 6 3 1 1
node 7 1 1 1
node 8 1 1 1
node 9 2 1 1
node 10 2 1 1
node 11 2 1 3
node 12 3 0 2
node 13 3 0 2
node 14 2 0 2
node 15 2 0 2
node 16 1 0 2
gene 3 1 12 -5.25025 0 1 -5.25025 1
gene 1 2 13 -5.71409 0 2 -5.71409 1
gene 1 3 14 -7.01445 0 3 -7.01445 1
gene 3 4 15 -7.59888 0 4 -7.59888 1
gene 1 5 16 6.5727 0 5 6.5727 1
gene 3 6 12 -4.06446 0 2 -4.06446 1
gene 1 7 12 -3.2168 0 3 -3.2168 1
gene 3 8 12 6.51666 0 4 6.51666 1
gene 3 9 12 -5.065 0 5 -5.065 1
gene 3 10 12 -4.05942 0 6 -4.05942 1
gene 2 11 12 -8 0 7 -8 1
gene 2 1 13 -1.4874 0 5 -1.4874 1
gene 1 2 14 1.41018 0 6 1.41018 1
gene 1 3 15 -1.29872 0 7 -1.29872 1
gene 3 16 12 -0.524689 0 24 -0.524689 1
genomeend 760

/* Organism #590 Fitness: 7946 Error: 0 */
genomestart 590
trait 1 0.1 0 0 0.138798 0.288525 0 0.0145529 0.000359546 
trait 2 0.575462 0.845916 0 0 0.211199 0.456345 0 0.0659175 
trait 3 0.462539 0.0194212 0.0299596 0.412389 0.214686 0 0 0.171901 
node 1 2 1 1
node 2 2 1 1
node 3 2 1 1
node 4 1 1 1
node 5 1 1 1
node 6 3 1 1
node 7 1 1 1
node 8 1 1 1
node 9 2 1 1
node 10 2 1 1
node 11 2 1 3
node 12 3 0 2
node 13 3 0 2
node 14 2 0 2
node 15 2 0 2
node 16 1 0 2
gene 3 1 12 -4.17142 0 1 -4.17142 1
gene 1 2 13 -8 0 2 -8 1
gene 1 3 14 -5.29984 0 3 -5.29984 1
gene 3 4 15 -7.08579 0 4 -7.08579 1
gene 1 5 16 6.98424 0 5 6.98424 1
gene 3 6 12 -3.39221 0 2 -3.39221 1
gene 1 7 12 -4.07491 0 3 -4.07491 1
gene 3 8 12 4.51877 0 4 4.51877 1
gene 3 9 12 -5.44992 0 5 -5.44992 1
gene 3 10 12 -4.45921 0 6 -4.45921 1
gene 2 11 12 -8 0 7 -8 1
gene 2 1 13 -0.55681 0 5 -0.55681 1
gene 1 2 14 1.79991 0 6 1.79991 1
gene 1 3 15 3.6848 0 7 3.6848 1
gene 3 16 12 0.673162 0 24 0.673162 1
genomeend 590

/* Organism #716 Fitness: 7649 Error: 0 */
genomestart 716
trait 1 0.1 0 0 0.138798 0.288525 0 0.152405 0.556804 
trait 2 0.575462 0.845916 0 0 0.211199 0.456345 0 0.0659175 
trait 3 0.462539 0.0194212 0.0299596 0.412389 0.214686 0 0 0.171901 
node 1 2 1 1
node 2 2 1 1
node 3 2 1 1
node 4 1 1 1
node 5 1 1 1
node 6 3 1 1
node 7 1 1 1
node 8 1 1 1
node 9 2 1 1
node 10 2 1 1
node 11 2 1 3
node 12 3 0 2
node 13 3 0 2
node 14 2 0 2
node 15 2 0 2
node 16 1 0 2
gene 3 1 12 -4.76096 0 1 -4.76096 1
gene 1 2 13 -7.56603 0 2 -7.56603 1
gene 1 3 14 -6.19274 0 3 -6.19274 1
gene 3 4 15 -7.23342 0 4 -7.23342 1
gene 1 5 16 6.23974 0 5 6.23974 1
gene 3 6 12 -4.1419 0 2 -4.1419 1
gene 1 7 12 -5.13695 0 3 -5.13695 1
gene 3 8 12 5.97923 0 4 5.97923 1
gene 3 9 12 -7.16498 0 5 -7.16498 1
gene 3 10 12 -4.79911 0 6 -4.79911 1
gene 2 11 12 -8 0 7 -8 1
gene 2 1 13 -1.41652 0 5 -1.41652 1
gene 1 2 14 3.87234 0 6 3.87234 1
gene 1 3 15 3.6848 0 7 3.6848 1
gene 3 16 12 -0.844371 0 24 -0.844371 1
genomeend 716

/* Organism #735 Fitness: 7147 Error: 0 */
genomestart 735
trait 1 0.1 0 0 0.138798 0.288525 0 0.083479 0.278582 
trait 2 0.575462 0.845916 0 0 0.211199 0.456345 0 0.0659175 
trait 3 0.462539 0.0194212 0.0299596 0.412389 0.214686 0 0 0.171901 
node 1 2 1 1
node 2 2 1 1
node 3 2 1 1
node 4 1 1 1
node 5 1 1 1
node 6 3 1 1
node 7 1 1 1
node 8 1 1 1
node 9 2 1 1
node 10 2 1 1
node 11 2 1 3
node 12 3 0 2
node 13 3 0 2
node 14 2 0 2
node 15 2 0 2
node 16 1 0 2
gene 3 1 12 -4.76096 0 1 -4.76096 1
gene 1 2 13 -8 0 2 -8 1
gene 1 3 14 -5.29984 0 3 -5.29984 1
gene 3 4 15 -7.23342 0 4 -7.23342 1
gene 1 5 16 6.23974 0 5 6.23974 1
gene 3 6 12 -3.39221 0 2 -3.39221 1
gene 1 7 12 -4.07491 0 3 -4.07491 1
gene 3 8 12 5.97923 0 4 5.97923 1
gene 3 9 12 -7.16498 0 5 -7.16498 1
gene 3 10 12 -4.45921 0 6 -4.45921 1
gene 2 11 12 -8 0 7 -8 1
gene 2 1 13 -0.55681 0 5 -0.55681 1
gene 1 2 14 1.79991 0 6 1.79991 1
gene 1 3 15 3.6848 0 7 3.6848 1
gene 3 16 12 0.673162 0 24 0.673162 1
genomeend 735

/* Organism #669 Fitness: 7045 Error: 0 */
genomestart 669
trait 1 0.1 0 0 0.0693991 0.153831 0 0.0145529 0.000359546 
trait 2 0.575462 0.845916 0 0 0.211199 0.456345 0 0.0659175 
trait 3 0.462539 0.0194212 0.0299596 0.412389 0.214686 0 0 0.171901 
node 1 2 1 1
node 2 2 1 1
node 3 2 1 1
node 4 1 1 1
node 5 1 1 1
node 6 3 1 1
node 7 1 1 1
node 8 1 1 1
node 9 2 1 1
node 10 2 1 1
node 11 2 1 3
node 12 3 0 2
node 13 3 0 2
node 14 2 0 2
node 15 2 0 2
node 16 1 0 2
gene 3 1 12 -3.20753 0 1 -3.20753 1
gene 1 2 13 -8 0 2 -8 1
gene 1 3 14 -5.29176 0 3 -5.29176 1
gene 3 4 15 -6.19194 0 4 -6.19194 1
gene 1 5 16 6.35994 0 5 6.35994 1
gene 3 6 12 -3.87867 0 2 -3.87867 1
gene 1 7 12 -3.38157 0 3 -3.38157 1
gene 3 8 12 3.76103 0 4 3.76103 1
gene 3 9 12 -5.06413 0 5 -5.06413 1
gene 3 10 12 -3.21665 0 6 -3.21665 1
gene 2 11 12 -7.67836 0 7 -7.67836 1
gene 2 1 13 0.169073 0 5 0.169073 1
gene 1 2 14 1.07784 0 6 1.07784 1
gene 1 3 15 2.66594 0 7 2.66594 1
gene 3 16 12 1.40278 0 24 1.40278 1
gene 1 5 13 0.0883206 0 57 0.0883206 1
genomeend 669

/* Organism #514 Fitness: 6410 Error: 0 */
genomestart 514
trait 1 0.1 0 0 0 0.019138 0 0.0145529 0.000359546 
trait 2 0.575462 0.845916 0 0 0.211199 0.456345 0 0.0659175 
trait 3 0.462539 0.0194212 0.0299596 0.412389 0.214686 0 0 0.171901 
node 1 2 1 1
node 2 2 1 1
node 3 2 1 1
node 4 1 1 1
node 5 1 1 1
node 6 3 1 1
node 7 1 1 1
node 8 1 1 1
node 9 2 1 1
node 10 2 1 1
node 11 2 1 3
node 12 3 0 2
node 13 3 0 2
node 14 2 0 2
node 15 2 0 2
node 16 1 0 2
gene 3 1 12 -2.24364 0 1 -2.24364 1
gene 1 2 13 -8 0 2 -8 1
gene 1 3 14 -5.28367 0 3 -5.28367 1
gene 3 4 15 -5.29809 0 4 -5.29809 1
gene 1 5 16 5.73565 0 5 5.73565 1
gene 3 6 12 -4.36514 0 2 -4.36514 1
gene 1 7 12 -2.68822 0 3 -2.68822 1
gene 3 8 12 3.0033 0 4 3.0033 1
gene 3 9 12 -4.67833 0 5 -4.67833 1
gene 3 10 12 -1.97409 0 6 -1.97409 1
gene 2 11 12 -7.35672 0 7 -7.35672 1
gene 2 1 13 0.894955 0 5 0.894955 1
gene 1 2 14 0.35577 0 6 0.35577 1
gene 1 3 15 1.64708 0 7 1.64708 1
gene 3 16 12 2.1324 0 24 2.1324 1
genomeend 514

/* Organism #820 Fitness: 176.896 Error: 0 */
genomestart 820
trait 1 0.1 0 0 0.0693991 0.153831 0 0.083479 0.278582 
trait 2 0.575462 0.845916 0 0 0.211199 0.456345 0 0.0659175 
trait 3 0.462539 0.0194212 0.0299596 0.412389 0.214686 0 0 0.171901 
node 1 2 1 1
node 2 2 1 1
node 3 2 1 1
node 4 1 1 1
node 5 1 1 1
node 6 3 1 1
node 7 1 1 1
node 8 1 1 1
node 9 2 1 1
node 10 2 1 1
node 11 2 1 3
node 12 3 0 2
node 13 3 0 2
node 14 2 0 2
node 15 2 0 2
node 16 1 0 2
gene 3 1 12 -5.69483 0 1 -5.69483 1
gene 1 2 13 -5.86378 0 2 -5.86378 1
gene 1 3 14 -7.75956 0 3 -7.75956 1
gene 3 4 15 -6.58856 0 4 -6.58856 1
gene 1 5 16 7.06946 0 5 7.06946 1
gene 3 6 12 -4.08704 0 2 -4.08704 1
gene 1 7 12 -2.6046 0 3 -2.6046 1
gene 3 8 12 4.11989 0 4 4.11989 1
gene 3 9 12 -5.90648 0 5 -5.90648 1
gene 3 10 12 -2.83944 0 6 -2.83944 1
gene 2 11 12 -8 0 7 -8 1
gene 2 1 13 3.21665 0 5 3.21665 1
gene 1 2 14 -1.37112 0 6 -1.37112 1
gene 1 3 15 1.79716 0 7 1.79716 1
gene 3 16 12 2.1324 0 24 2.1324 1
genomeend 820

/* Organism #610 Fitness: 5568 Error: 0 */
genomestart 610
trait 1 0.1 0 0 0.138798 0.288525 0 0.0145529 0.000359546 
trait 2 0.575462 0.845916 0 0 0.211199 0.456345 0 0.0659175 
trait 3 0.462539 0.0194212 0.0299596 0.412389 0.214686 0 0 0.171901 
node 1 2 1 1
node 2 2 1 1
node 3 2 1 1
node 4 1 1 1
node 5 1 1 1
node 6 3 1 1
node 7 1 1 1
node 8 1 1 1
node 9 2 1 1
node 10 2 1 1
node 11 2 1 3
node 12 3 0 2
node 13 3 0 2
node 14 2 0 2
node 15 2 0 2
node 16 1 0 2
gene 3 1 12 -5.89953 0 1 -5.89953 1
gene 1 2 13 -7.59159 0 2 -7.59159 1
gene 1 3 14 -4.39673 0 3 -4.39673 1
gene 3 4 15 -8 0 4 -8 1
gene 1 5 16 8 0 5 8 1
gene 3 6 12 -5.82179 0 2 -5.82179 1
gene 1 7 12 -2.50175 0 3 -2.50175 1
gene 3 8 12 3.27483 0 4 3.27483 1
gene 3 9 12 -4.98795 0 5 -4.98795 1
gene 3 10 12 -5.6505 0 6 -5.6505 1
gene 2 11 12 -8 0 7 -8 1
gene 2 1 13 -0.492111 0 5 -0.492111 1
gene 1 2 14 1.08806 0 6 1.08806 1
gene 1 3 15 4.93355 0 7 4.93355 1
gene 3 16 12 0.673162 0 24 0.673162 1
genomeend 610

/* Organism #762 Fitness: 5496 Error: 0 */
genomestart 762
trait 1 0.1 0 0 0.0693991 0.153831 0 0.0145529 0.000359546 
trait 2 0.575462 0.845916 0 0 0.211199 0.456345 0 0.0659175 
trait 3 0.462539 0.0194212 0.0299596 0.412389 0.214686 0 0 0.171901 
node 1 2 1 1
node 2 2 1 1
node 3 2 1 1
node 4 1 1 1
node 5 1 1 1
node 6 3 1 1
node 7 1 1 1
node 8 1 1 1
node 9 2 1 1
node 10 2 1 1
node 11 2 1 3
node 12 3 0 2
node 13 3 0 2
node 14 2 0 2
node 15 2 0 2
node 16 1 0 2
gene 3 1 12 -5.12486 0 1 -5.12486 1
gene 1 2 13 -8 0 2 -8 1
gene 1 3 14 -6.80754 0 3 -6.80754 1
gene 3 4 15 -8 0 4 -8 1
gene 1 5 16 0.537965 0 5 0.537965 1
gene 3 6 12 -3.2667 0 2 -3.2667 1
gene 1 7 12 -1.32317 0 3 -1.32317 1
gene 3 8 12 1.45467 0 4 1.45467 1
gene 3 9 12 -4.85012 0 5 -4.85012 1
gene 3 10 12 -5.5121 0 6 -5.5121 1
gene 2 11 12 -7.60099 0 7 -7.60099 1
gene 2 1 13 -1.25431 0 5 -1.25431 1
gene 1 2 14 1.50472 0 6 1.50472 1
gene 1 3 15 2.66594 0 7 2.66594 1
gene 3 16 12 -0.272835 0 24 -0.272835 1
genomeend 762

/* Organism #699 Fitness: 5299 Error: 0 */
genomestart 699
trait 1 0.1 0 0 0.0693991 0.153831 0 0.0145529 0.000359546 
trait 2 0.575462 0.845916 0 0 0.211199 0.456345 0 0.0659175 
trait 3 0.462539 0.0194212 0.0299596 0.412389 0.214686 0 0 0.171901 
node 1 2 1 1
node 2 2 1 1
node 3 2 1 1
node 4 1 1 1
node 5 1 1 1
node 6 3 1 1
node 7 1 1 1
node 8 1 1 1
node 9 2 1 1
node 10 2 1 1
node 11 2 1 3
node 12 3 0 2
node 13 3 0 2
node 14 2 0 2
node 15 2 0 2
node 16 1 0 2
gene 3 1 12 -3.20753 0 1 -3.20753 1
gene 1 2 13 -6.27326 0 2 -6.27326 1
gene 1 3 14 -7.51511 0 3 -7.51511 1
gene 3 4 15 -4.33222 0 4 -4.33222 1
gene 1 5 16 0.753044 0 5 0.753044 1
gene 3 6 12 -5.92387 0 2 -5.92387 1
gene 1 7 12 -5.46888 0 3 -5.46888 1
gene 3 8 12 1.28705 0 4 1.28705 1
gene 3 9 12 -4.74895 0 5 -4.74895 1
gene 3 10 12 -3.29852 0 6 -3.29852 1
gene 2 11 12 -8 0 7 -8 1
gene 2 1 13 -1.83485 0 5 -1.83485 1
gene 1 2 14 0.601444 0 6 0.601444 1
gene 1 3 15 2.04863 0 7 2.04863 1
gene 3 16 12 3.84526 0 24 3.84526 1
genomeend 699

/* Organism #684 Fitness: 5199 Error: 0 */
genomestart 684
trait 1 0.1 0 0 0.138798 0.288525 0 0.0145529 0.000359546 
trait 2 0.575462 0.845916 0 0 0.211199 0.456345 0 0.0659175 
trait 3 0.462539 0.0194212 0.0299596 0.412389 0.214686 0 0 0.171901 
node 1 2 1 1
node 2 2 1 1
node 3 2 1 1
node 4 1 1 1
node 5 1 1 1
node 6 3 1 1
node 7 1 1 1
node 8 1 1 1
node 9 2 1 1
node 10 2 1 1
node 11 2 1 3
node 12 3 0 2
node 13 3 0 2
node 14 2 0 2
node 15 2 0 2
node 16 1 0 2
gene 3 1 12 -3.14707 0 1 -3.14707 1
gene 1 2 13 -7.49553 0 2 -7.49553 1
gene 1 3 14 -5.57543 0 3 -5.57543 1
gene 3 4 15 -5.85406 0 4 -5.85406 1
gene 1 5 16 8 0 5 8 1
gene 3 6 12 -2.06549 0 2 -2.06549 1
gene 1 7 12 -4.80583 0 3 -4.80583 1
gene 3 8 12 6.55344 0 4 6.55344 1
gene 3 9 12 -4.50842 0 5 -4.50842 1
gene 3 10 12 -2.12386 0 6 -2.12386 1
gene 2 11 12 -8 0 7 -8 1
gene 2 1 13 0.388424 0 5 0.388424 1
gene 1 2 14 0.9682 0 6 0.9682 1
gene 1 3 15 -0.0769066 0 7 -0.0769066 1
gene 3 16 12 0.673162 0 24 0.673162 1
genomeend 684

/* Organism #783 Fitness: 5163 Error: 0 */
genomestart 783
trait 1 0.1 0 0 0.138798 0.288525 0 0.152405 0.556804 
trait 2 0.575462 0.845916 0 0 0.211199 0.456345 0 0.0659175 
trait 3 0.462539 0.0194212 0.0299596 0.412389 0.214686 0 0 0.171901 
node 1 2 1 1
node 2 2 1 1
node 3 2 1 1
node 4 1 1 1
node 5 1 1 1
node 6 3 1 1
node 7 1 1 1
node 8 1 1 1
node 9 2 1 1
node 10 2 1 1
node 11 2 1 3
node 12 3 0 2
node 13 3 0 2
node 14 2 0 2
node 15 2 0 2
node 16 1 0 2
gene 3 1 12 -6.05907 0 1 -6.05907 1
gene 1 2 13 -7.41984 0 2 -7.41984 1
gene 1 3 14 -8 0 3 -8 1
gene 3 4 15 -7.83837 0 4 -7.83837 1
gene 1 5 16 6.94914 0 5 6.94914 1
gene 3 6 12 -1.68409 0 2 -1.68409 1
gene 1 7 12 -2.09532 0 3 -2.09532 1
gene 3 8 12 8 0 4 8 1
gene 3 9 12 -5.87802 0 5 -5.87802 1
gene 3 10 12 -1.93251 0 6 -1.93251 1
gene 2 11 12 -7.82414 0 7 -7.82414 1
gene 2 1 13 -1.78365 0 5 -1.78365 1
gene 1 2 14 0.944929 0 6 0.944929 1
gene 1 3 15 0.479675 0 7 0.479675 1
gene 3 16 12 -0.524689 0 24 -0.524689 1
genomeend 783

/* Organism #780 Fitness: 5150 Error: 0 */
genomestart 780
trait 1 0.1 0 0.326884 0 0 0 0.405068 0.000359546 
trait 2 0.575462 0.845916 0 0 0.211199 0.456345 0 0.0659175 
trait 3 0.462539 0.0194212 0.0299596 0.412389 0.214686 0 0 0.171901 
node 1 2 1 1
node 2 2 1 1
node 3 2 1 1
node 4 1 1 1
node 5 1 1 1
node 6 3 1 1
node 7 1 1 1
node 8 1 1 1
node 9 2 1 1
node 10 2 1 1
node 11 2 1 3
node 12 3 0 2
node 13 3 0 2
node 14 2 0 2
node 15 2 0 2
node 16 1 0 2
gene 3 1 12 -1.00978 0 1 -1.00978 1
gene 1 2 13 -7.76997 0 2 -7.76997 1
gene 1 3 14 -4.11763 0 3 -4.11763 1
gene 3 4 15 -5.55811 0 4 -5.55811 1
gene 1 5 16 6.0155 0 5 6.0155 1
gene 3 6 12 -2.91139 0 2 -2.91139 1
gene 1 7 12 -4.1953 0 3 -4.1953 1
gene 3 8 12 0.599353 0 4 0.599353 1
gene 3 9 12 -4.79797 0 5 -4.79797 1
gene 3 10 12 -1.94899 0 6 -1.94899 1
gene 2 11 12 -8 0 7 -8 1
gene 2 1 13 0.0813318 0 5 0.0813318 1
gene 1 2 14 2.08007 0 6 2.08007 1
gene 1 3 15 1.7629 0 7 1.7629 1
gene 3 16 12 2.1324 0 24 2.1324 1
gene 1 14 15 1.83787 0 45 1.83787 1
genomeend 780

/* Organism #791 Fitness: 4072 Error: 0 */
genomestart 791
trait 1 0.1 0 0 0.138798 0.288525 0 0.0145529 0.000359546 
trait 2 0.575462 0.845916 0 0 0.211199 0.456345 0 0.0659175 
trait 3 0.462539 0.0194212 0.0299596 0.412389 0.214686 0 0 0.171901 
node 1 2 1 1
node 2 2 1 1
node 3 2 1 1
node 4 1 1 1
node 5 1 1 1
node 6 3 1 1
node 7 1 1 1
node 8 1 1 1
node 9 2 1 1
node 10 2 1 1
node 11 2 1 3
node 12 3 0 2
node 13 3 0 2
node 14 2 0 2
node 15 2 0 2
node 16 1 0 2
gene 3 1 12 -2.78169 0 1 -2.78169 1
gene 1 2 13 -8 0 2 -8 1
gene 1 3 14 -6.88475 0 3 -6.88475 1
gene 3 4 15 -4.75234 0 4 -4.75234 1
gene 1 5 16 4.98077 0 5 4.98077 1
gene 3 6 12 -5.55399 0 2 -5.55399 1
gene 1 7 12 2.45987 0 3 2.45987 1
gene 3 8 12 5.17026 0 4 5.17026 1
gene 3 9 12 -3.31675 0 5 -3.31675 1
gene 3 10 12 -4.45921 0 6 -4.45921 1
gene 2 11 12 -6.17186 0 7 -6.17186 1
gene 2 1 13 -0.20043 0 5 -0.20043 1
gene 1 2 14 2.22129 0 6 2.22129 1
gene 1 3 15 4.18172 0 7 4.18172 1
gene 3 16 12 2.2042 0 24 2.2042 1
genomeend 791

/* Organism #689 Fitness: 4014 Error: 0 */
genomestart 689
trait 1 0.1 0 0 0.0693991 0.153831 0 0.0145529 0.000359546 
trait 2 0.575462 0.845916 0 0 0.211199 0.456345 0 0.0659175 
trait 3 0.462539 0.0194212 0.0299596 0.412389 0.214686 0 0 0.171901 
node 1 2 1 1
node 2 2 1 1
node 3 2 1 1
node 4 1 1 1
node 5 1 1 1
node 6 3 1 1
node 7 1 1 1
node 8 1 1 1
node 9 2 1 1
node 10 2 1 1
node 11 2 1 3
node 12 3 0 2
node 13 3 0 2
node 14 2 0 2
node 15 2 0 2
node 16 1 0 2
gene 3 1 12 -3.20753 0 1 -3.20753 1
gene 1 2 13 -8 0 2 -8 1
gene 1 3 14 -5.29176 0 3 -5.29176 1
gene 3 4 15 -6.19194 0 4 -6.19194 1
gene 1 5 16 6.35994 0 5 6.35994 1
gene 3 6 12 -3.87867 0 2 -3.87867 1
gene 1 7 12 -3.38157 0 3 -3.38157 1
gene 3 8 12 3.76103 0 4 3.76103 1
gene 3 9 12 -5.06413 0 5 -5.06413 1
gene 3 10 12 -3.21665 0 6 -3.21665 1
gene 2 11 12 -7.67836 0 7 -7.67836 1
gene 2 1 13 0.169073 0 5 0.169073 1
gene 1 2 14 1.07784 0 6 1.07784 1
gene 1 3 15 2.66594 0 7 2.66594 1
gene 3 16 12 1.40278 0 24 1.40278 1
genomeend 689

/* Species #9 : (Size 23) (AF 0) (Age 1)  */


/* Organism #644 Fitness: 28339 Error: 0 */
genomestart 644
trait 1 0.1 0 0 0.15405 0.25294 0.222427 0.0145529 0.000269659 
trait 2 0.13125 0.00965237 0.0261222 0.0354663 0.0815258 0.00213975 0.15371 0.0617977 
trait 3 0.35645 0.0388424 0.0698721 0.42098 0.263388 0 0 0.182342 
node 1 1 1 1
node 2 1 1 1
node 3 2 1 1
node 4 3 1 1
node 5 3 1 1
node 6 3 1 1
node 7 1 1 1
node 8 3 1 1
node 9 2 1 1
node 10 2 1 1
node 11 3 1 3
node 12 2 0 2
node 13 1 0 2
node 14 1 0 2
node 15 3 0 2
node 16 1 0 2
node 20 1 0 0
gene 3 1 12 4.56855 0 1 4.56855 1
gene 1 2 13 -1.77586 0 2 -1.77586 1
gene 1 3 14 3.16807 0 3 3.16807 1
gene 3 4 15 2.94684 0 4 2.94684 1
gene 1 5 16 -1.49876 0 5 -1.49876 1
gene 3 6 12 1.81524 0 2 1.81524 1
gene 2 7 12 -2.72187 0 3 -2.72187 1
gene 2 8 12 8 0 4 8 1
gene 1 9 12 1.28712 0 5 1.28712 1
gene 2 10 12 3.33506 0 6 3.33506 1
gene 2 11 12 1.22845 0 7 1.22845 1
gene 3 1 13 6.23339 0 5 6.23339 1
gene 1 2 14 -1.09233 0 6 -1.09233 1
gene 1 3 15 -3.98385 0 7 -3.98385 1
gene 2 8 13 6.95486 0 12 6.95486 1
gene 1 3 20 -3.81603 0 18 -3.81603 1
gene 1 20 14 3.71586 0 19 3.71586 1
genomeend 644

/* Organism #460 Fitness: 18204 Error: 0 */
genomestart 460
trait 1 0.1 0 0 0.0385125 0.0775886 0.0556066 0.0145529 0.000337074 
trait 2 0.13125 0.00965237 0.000704072 0.0354663 0.0815258 0.00213975 0.15371 0.0659175 
trait 3 0.35645 0.0388424 0.0499158 0.42098 0.267963 0 0 0.182342 
node 1 1 1 1
node 2 1 1 1
node 3 2 1 1
node 4 3 1 1
node 5 3 1 1
node 6 3 1 1
node 7 1 1 1
node 8 3 1 1
node 9 2 1 1
node 10 2 1 1
node 11 3 1 3
node 12 2 0 2
node 13 1 0 2
node 14 1 0 2
node 15 3 0 2
node 16 1 0 2
node 20 1 0 0
gene 3 1 12 3.61388 0 1 3.61388 1
gene 1 2 13 -0.816555 0 2 -0.816555 1
gene 1 3 14 3.95858 0 3 3.95858 1
gene 3 4 15 1.44002 0 4 1.44002 1
gene 1 5 16 -2.33953 0 5 -2.33953 1
gene 3 6 12 2.91159 0 2 2.91159 1
gene 2 7 12 0.276521 0 3 0.276521 1
gene 2 8 12 4.65444 0 4 4.65444 1
gene 1 9 12 -0.922956 0 5 -0.922956 1
gene 2 10 12 0.381062 0 6 0.381062 1
gene 2 11 12 1.07974 0 7 1.07974 1
gene 3 1 13 4.68801 0 5 4.68801 1
gene 1 2 14 1.19928 0 6 1.19928 1
gene 1 3 15 -2.7886 0 7 -2.7886 1
gene 2 8 13 3.34359 0 12 3.34359 1
gene 1 3 20 -2.63283 0 18 -2.63283 1
gene 1 20 14 0.718289 0 19 0.718289 1
genomeend 460

/* Organism #799 Fitness: 9119 Error: 0 */
genomestart 799
trait 1 0.1 0 0 0.15405 0.25294 0.222427 0.0145529 0.000269659 
trait 2 0.13125 0.00965237 0.0261222 0.0354663 0.0815258 0.00213975 0.15371 0.0617977 
trait 3 0.35645 0.0388424 0.0698721 0.42098 0.263388 0 0 0.182342 
node 1 1 1 1
node 2 1 1 1
node 3 2 1 1
node 4 3 1 1
node 5 3 1 1
node 6 3 1 1
node 7 1 1 1
node 8 3 1 1
node 9 2 1 1
node 10 2 1 1
node 11 3 1 3
node 12 2 0 2
node 13 1 0 2
node 14 1 0 2
node 15 3 0 2
node 16 1 0 2
node 20 1 0 0
gene 3 1 12 2.81248 0 1 2.81248 1
gene 1 2 13 -2.43254 0 2 -2.43254 1
gene 1 3 14 1.87943 0 3 1.87943 1
gene 3 4 15 3.7214 0 4 3.7214 1
gene 1 5 16 0.259941 0 5 0.259941 1
gene 3 6 12 0.375072 0 2 0.375072 1
gene 2 7 12 -1.78697 0 3 -1.78697 1
gene 2 8 12 6.93784 0 4 6.93784 1
gene 1 9 12 2.59945 0 5 2.59945 1
gene 2 10 12 3.1943 0 6 3.1943 1
gene 2 11 12 2.55718 0 7 2.55718 1
gene 3 1 13 6.18997 0 5 6.18997 1
gene 1 2 14 0.0103763 0 6 0.0103763 1
gene 1 3 15 -3.07745 0 7 -3.07745 1
gene 2 8 13 3.86093 0 12 3.86093 1
gene 1 3 20 -2.0233 0 18 -2.0233 1
gene 1 20 14 2.98391 0 19 2.98391 1
genomeend 799

/* Organism #784 Fitness: 7608 Error: 0 */
genomestart 784
trait 1 0 0.950407 0.548112 0.15759 0 0.222427 0.0145529 0.000269659 
trait 2 0.13125 0.00965237 0.0197676 0.0354663 0.0815258 0.00213975 0.15371 0.0628276 
trait 3 0.35645 0.0388424 0.0798502 0.42098 0.261101 0 0 0.182342 
node 1 1 1 1
node 2 1 1 1
node 3 2 1 1
node 4 3 1 1
node 5 3 1 1
node 6 3 1 1
node 7 1 1 1
node 8 3 1 1
node 9 2 1 1
node 10 2 1 1
node 11 3 1 3
node 12 2 0 2
node 13 1 0 2
node 14 1 0 2
node 15 3 0 2
node 16 1 0 2
node 20 1 0 0
gene 3 1 12 3.59207 0 1 3.59207 1
gene 1 2 13 -2.77305 0 2 -2.77305 1
gene 1 3 14 3.35726 0 3 3.35726 1
gene 3 4 15 2.43542 0 4 2.43542 1
gene 1 5 16 -3.47137 0 5 -3.47137 1
gene 3 6 12 -0.464873 0 2 -0.464873 1
gene 2 7 12 -0.321509 0 3 -0.321509 1
gene 2 8 12 2.14026 0 4 2.14026 1
gene 1 9 12 1.28712 0 5 1.28712 1
gene 2 10 12 3.47518 0 6 3.47518 1
gene 2 11 12 1.13617 0 7 1.13617 1
gene 3 1 13 4.40716 0 5 4.40716 1
gene 1 2 14 -3.19403 0 6 -3.19403 1
gene 1 3 15 1.77 0 7 1.77 1
gene 2 8 13 4.34297 0 12 4.34297 1
gene 1 3 20 -0.755715 0 18 -0.755715 1
gene 1 20 14 3.83496 0 19 3.83496 1
genomeend 784

/* Organism #741 Fitness: 7468 Error: 0 */
genomestart 741
trait 1 0.1 0 0 0.15405 0.25294 0.222427 0.0145529 0.000269659 
trait 2 0.13125 0.00965237 0.0515403 0.0354663 0.0815258 0.00213975 0.15371 0.0576778 
trait 3 0.35645 0.0388424 0.0299596 0.42098 0.272538 0 0 0.182342 
node 1 1 1 1
node 2 1 1 1
node 3 2 1 1
node 4 3 1 1
node 5 3 1 1
node 6 3 1 1
node 7 1 1 1
node 8 3 1 1
node 9 2 1 1
node 10 2 1 1
node 11 3 1 3
node 12 2 0 2
node 13 1 0 2
node 14 1 0 2
node 15 3 0 2
node 16 1 0 2
node 20 1 0 0
gene 3 1 12 5.37886 0 1 5.37886 1
gene 1 2 13 -4.67954 0 2 -4.67954 1
gene 1 3 14 2.34872 0 3 2.34872 0
gene 3 4 15 -1.75779 0 4 -1.75779 1
gene 1 5 16 -7.6508 0 5 -7.6508 1
gene 3 6 12 1.79456 0 2 1.79456 1
gene 2 7 12 0.492496 0 3 0.492496 1
gene 2 8 12 -0.976516 0 4 -0.976516 1
gene 2 9 12 -3.56002 0 5 -3.56002 1
gene 3 10 12 -3.24969 0 6 -3.24969 1
gene 2 11 12 -3.92186 0 7 -3.92186 1
gene 3 1 13 8 0 5 8 1
gene 1 2 14 3.69415 0 6 3.69415 1
gene 1 3 15 1.97218 0 7 1.97218 1
gene 2 8 13 8 0 12 8 1
gene 1 3 20 -4.32829 0 18 -4.32829 1
gene 1 20 14 0.820109 0 19 0.820109 1
genomeend 741

/* Organism #373 Fitness: 7409 Error: 0 */
genomestart 373
trait 1 0.1 0 0 0.3081 0.486743 0.444853 0.0145529 0.000179773 
trait 2 0.13125 0.00965237 0.000704072 0.0354663 0.0815258 0.00213975 0.15371 0.0659175 
trait 3 0.35645 0.0388424 0.18961 0.42098 0.235939 0 0 0.182342 
node 1 1 1 1
node 2 1 1 1
node 3 2 1 1
node 4 3 1 1
node 5 3 1 1
node 6 3 1 1
node 7 1 1 1
node 8 3 1 1
node 9 2 1 1
node 10 2 1 1
node 11 3 1 3
node 12 2 0 2
node 13 1 0 2
node 14 1 0 2
node 15 3 0 2
node 16 1 0 2
node 20 1 0 0
gene 3 1 12 1.16985 0 1 1.16985 1
gene 1 2 13 1.05415 0 2 1.05415 1
gene 1 3 14 5.62943 0 3 5.62943 0
gene 3 4 15 3.0823 0 4 3.0823 1
gene 1 5 16 -5.03994 0 5 -5.03994 1
gene 3 6 12 5.06007 0 2 5.06007 1
gene 2 7 12 -1.39507 0 3 -1.39507 1
gene 2 8 12 4.32277 0 4 4.32277 1
gene 2 9 12 -2.27138 0 5 -2.27138 1
gene 2 10 12 -0.698073 0 6 -0.698073 1
gene 2 11 12 1.44154 0 7 1.44154 1
gene 3 1 13 3.8772 0 5 3.8772 1
gene 1 2 14 -1.26988 0 6 -1.26988 1
gene 1 3 15 -3.61229 0 7 -3.61229 1
gene 2 8 13 3.46057 0 12 3.46057 1
gene 1 3 20 1.39615 0 18 1.39615 1
gene 1 20 14 2.70633 0 19 2.70633 1
genomeend 373

/* Organism #739 Fitness: 7193 Error: 0 */
genomestart 739
trait 1 0.1 0 0 0.134794 0.223715 0.194623 0.0145529 0.000280895 
trait 2 0.13125 0.00965237 0.0134131 0.0354663 0.0815258 0.00213975 0.15371 0.0638576 
trait 3 0.35645 0.0388424 0.0798502 0.42098 0.261101 0 0 0.182342 
node 1 1 1 1
node 2 1 1 1
node 3 2 1 1
node 4 3 1 1
node 5 3 1 1
node 6 3 1 1
node 7 1 1 1
node 8 3 1 1
node 9 2 1 1
node 10 2 1 1
node 11 3 1 3
node 12 2 0 2
node 13 1 0 2
node 14 1 0 2
node 15 3 0 2
node 16 1 0 2
node 20 1 0 0
gene 3 1 12 6.82242 0 1 6.82242 1
gene 1 2 13 1.0323 0 2 1.0323 1
gene 1 3 14 -0.88023 0 3 -0.88023 0
gene 3 4 15 3.22654 0 4 3.22654 1
gene 1 5 16 -1.9524 0 5 -1.9524 1
gene 3 6 12 -1.27102 0 2 -1.27102 1
gene 2 7 12 -1.46847 0 3 -1.46847 1
gene 2 8 12 7.26354 0 4 7.26354 1
gene 1 9 12 0.332194 0 5 0.332194 1
gene 2 10 12 2.20779 0 6 2.20779 1
gene 2 11 12 2.73301 0 7 2.73301 1
gene 3 1 13 6.83033 0 5 6.83033 1
gene 1 2 14 1.53005 0 6 1.53005 1
gene 1 3 15 -7.37705 0 7 -7.37705 1
gene 2 8 13 8 0 12 8 1
gene 1 3 20 -3.38977 0 18 -3.38977 1
gene 1 20 14 -1.83339 0 19 -1.83339 1
genomeend 739

/* Organism #364 Fitness: 7069 Error: 0 */
genomestart 364
trait 1 0.1 0 0 0.462149 0.720545 0.66728 0.0145529 8.98865e-05 
trait 2 0.13125 0.00965237 0.0515403 0.0354663 0.0815258 0.00213975 0.15371 0.0576778 
trait 3 0.35645 0.0388424 0.18961 0.42098 0.235939 0 0 0.182342 
node 1 1 1 1
node 2 1 1 1
node 3 2 1 1
node 4 3 1 1
node 5 3 1 1
node 6 3 1 1
node 7 1 1 1
node 8 3 1 1
node 9 2 1 1
node 10 2 1 1
node 11 3 1 3
node 12 2 0 2
node 13 1 0 2
node 14 1 0 2
node 15 3 0 2
node 16 1 0 2
node 20 1 0 0
gene 3 1 12 4.20275 0 1 4.20275 1
gene 1 2 13 2.92172 0 2 2.92172 1
gene 1 3 14 6.00995 0 3 6.00995 1
gene 3 4 15 3.61679 0 4 3.61679 1
gene 1 5 16 -6.51948 0 5 -6.51948 1
gene 3 6 12 6.99811 0 2 6.99811 1
gene 2 7 12 3.62194 0 3 3.62194 1
gene 2 8 12 3.43442 0 4 3.43442 1
gene 2 9 12 -2.08712 0 5 -2.08712 1
gene 3 10 12 -0.0605792 0 6 -0.0605792 1
gene 2 11 12 -0.983081 0 7 -0.983081 1
gene 3 1 13 5.28569 0 5 5.28569 1
gene 1 2 14 -0.946532 0 6 -0.946532 1
gene 1 3 15 -1.23829 0 7 -1.23829 1
gene 2 8 13 0.46762 0 12 0.46762 1
gene 1 3 20 -0.156407 0 18 -0.156407 1
gene 1 20 14 3.24082 0 19 3.24082 1
gene 2 8 16 0.748955 0 48 0.748955 1
genomeend 364

/* Organism #813 Fitness: 6897 Error: 0 */
genomestart 813
trait 1 0.1 0 0 0.0385125 0.0775886 0.0556066 0.0145529 0.000337074 
trait 2 0.13125 0.00965237 0.000704072 0.0354663 0.0815258 0.00213975 0.15371 0.0659175 
trait 3 0.35645 0.0388424 0.0499158 0.42098 0.267963 0 0 0.182342 
node 1 1 1 1
node 2 1 1 1
node 3 2 1 1
node 4 3 1 1
node 5 3 1 1
node 6 3 1 1
node 7 1 1 1
node 8 3 1 1
node 9 2 1 1
node 10 2 1 1
node 11 3 1 3
node 12 2 0 2
node 13 1 0 2
node 14 1 0 2
node 15 3 0 2
node 16 1 0 2
node 20 1 0 0
gene 3 1 12 3.85589 0 1 3.85589 1
gene 1 2 13 -1.59401 0 2 -1.59401 1
gene 1 3 14 4.77923 0 3 4.77923 1
gene 3 4 15 2.61949 0 4 2.61949 1
gene 1 5 16 -3.24822 0 5 -3.24822 1
gene 3 6 12 4.4234 0 2 4.4234 1
gene 2 7 12 1.32682 0 3 1.32682 1
gene 2 8 12 5.39291 0 4 5.39291 1
gene 1 9 12 -0.572069 0 5 -0.572069 1
gene 2 10 12 0.403569 0 6 0.403569 1
gene 2 11 12 -1.18809 0 7 -1.18809 1
gene 3 1 13 6.486 0 5 6.486 1
gene 1 2 14 -0.764813 0 6 -0.764813 1
gene 1 3 15 -2.384 0 7 -2.384 1
gene 2 8 13 3.34359 0 12 3.34359 1
gene 1 3 20 -2.63283 0 18 -2.63283 1
gene 1 20 14 0.797179 0 19 0.797179 1
genomeend 813

/* Organism #345 Fitness: 6730 Error: 0 */
genomestart 345
trait 1 0.1 0 0 0.616199 0.954347 0.889706 0.0145529 0 
trait 2 0.13125 0.00965237 0.000704072 0.0354663 0.0815258 0.00213975 0.15371 0.0659175 
trait 3 0.35645 0.0388424 0.34926 0.42098 0.199339 0 0 0.182342 
node 1 1 1 1
node 2 1 1 1
node 3 2 1 1
node 4 3 1 1
node 5 3 1 1
node 6 3 1 1
node 7 1 1 1
node 8 3 1 1
node 9 2 1 1
node 10 2 1 1
node 11 3 1 3
node 12 2 0 2
node 13 1 0 2
node 14 1 0 2
node 15 3 0 2
node 16 1 0 2
node 20 1 0 0
gene 3 1 12 -1.62793 0 1 -1.62793 1
gene 1 2 13 2.2808 0 2 2.2808 1
gene 1 3 14 7.89371 0 3 7.89371 1
gene 3 4 15 3.61679 0 4 3.61679 1
gene 1 5 16 -8 0 5 -8 1
gene 3 6 12 7.63755 0 2 7.63755 1
gene 2 7 12 -0.908456 0 3 -0.908456 1
gene 2 8 12 -0.20745 0 4 -0.20745 1
gene 2 9 12 -3.26235 0 5 -3.26235 1
gene 2 10 12 0.640431 0 6 0.640431 1
gene 2 11 12 1.0876 0 7 1.0876 1
gene 3 1 13 4.29081 0 5 4.29081 1
gene 1 2 14 -2.94389 0 6 -2.94389 1
gene 1 3 15 -1.23829 0 7 -1.23829 1
gene 2 8 13 2.8048 0 12 2.8048 1
gene 1 3 20 -1.76176 0 18 -1.76176 1
gene 1 20 14 4.67633 0 19 4.67633 1
gene 1 4 14 0.957793 0 40 0.957793 1
genomeend 345

/* Organism #325 Fitness: 6623 Error: 0 */
genomestart 325
trait 1 0.1 0 0 0.15405 0.25294 0.222427 0.0145529 0.000269659 
trait 2 0.13125 0.00965237 0.204049 0.0354663 0.0815258 0.00213975 0.15371 0.0329588 
trait 3 0.35645 0.0388424 0.0299596 0.42098 0.272538 0 0 0.182342 
node 1 1 1 1
node 2 1 1 1
node 3 2 1 1
node 4 3 1 1
node 5 3 1 1
node 6 3 1 1
node 7 1 1 1
node 8 3 1 1
node 9 2 1 1
node 10 2 1 1
node 11 3 1 3
node 12 2 0 2
node 13 1 0 2
node 14 1 0 2
node 15 3 0 2
node 16 1 0 2
node 20 1 0 0
gene 3 1 12 4.24284 0 1 4.24284 1
gene 1 2 13 0.933458 0 2 0.933458 1
gene 1 3 14 2.30516 0 3 2.30516 1
gene 3 4 15 2.39399 0 4 2.39399 1
gene 1 5 16 -5.60316 0 5 -5.60316 1
gene 3 6 12 5.43408 0 2 5.43408 1
gene 2 7 12 3.22589 0 3 3.22589 1
gene 2 8 12 1.90491 0 4 1.90491 1
gene 2 9 12 -3.9322 0 5 -3.9322 1
gene 2 10 12 -0.356075 0 6 -0.356075 1
gene 2 11 12 -1.92702 0 7 -1.92702 1
gene 3 1 13 6.72662 0 5 6.72662 1
gene 1 2 14 3.89733 0 6 3.89733 1
gene 1 3 15 -5.42779 0 7 -5.42779 1
gene 2 8 13 4.62477 0 12 4.62477 1
gene 1 3 20 -0.429014 0 18 -0.429014 1
gene 1 20 14 1.96569 0 19 1.96569 1
genomeend 325

/* Organism #696 Fitness: 6145 Error: 0 */
genomestart 696
trait 1 0.1 0 0 0 0.019138 0 0.0145529 0.000359546 
trait 2 0.13125 0.00965237 0.000704072 0.0354663 0.0815258 0.00213975 0.15371 0.0659175 
trait 3 0.35645 0.0388424 0.0299596 0.42098 0.272538 0 0 0.182342 
node 1 1 1 1
node 2 1 1 1
node 3 2 1 1
node 4 3 1 1
node 5 3 1 1
node 6 3 1 1
node 7 1 1 1
node 8 3 1 1
node 9 2 1 1
node 10 2 1 1
node 11 3 1 3
node 12 2 0 2
node 13 1 0 2
node 14 1 0 2
node 15 3 0 2
node 16 1 0 2
node 20 1 0 0
gene 3 1 12 -3.36909 0 1 -3.36909 1
gene 1 2 13 1.33268 0 2 1.33268 1
gene 1 3 14 4.76793 0 3 4.76793 0
gene 3 4 15 1.48637 0 4 1.48637 1
gene 1 5 16 -1.85324 0 5 -1.85324 1
gene 3 6 12 5.47111 0 2 5.47111 1
gene 2 7 12 -2.09845 0 3 -2.09845 1
gene 2 8 12 5.01886 0 4 5.01886 1
gene 1 9 12 -0.394528 0 5 -0.394528 1
gene 2 10 12 1.31558 0 6 1.31558 1
gene 2 11 12 1.85949 0 7 1.85949 1
gene 3 1 13 6.32525 0 5 6.32525 1
gene 1 2 14 -0.0721 0 6 -0.0721 1
gene 1 3 15 -4.62249 0 7 -4.62249 1
gene 2 8 13 -2.16666 0 12 -2.16666 1
gene 1 3 20 0.295343 0 18 0.295343 1
gene 1 20 14 -2.20511 0 19 -2.20511 1
genomeend 696

/* Organism #803 Fitness: 5624.18 Error: 0 */
genomestart 803
trait 1 0.1 0 0 0.0962811 0.165264 0.139017 0.0145529 0.000303367 
trait 2 0.13125 0.00965237 0.0134131 0.0354663 0.0815258 0.00213975 0.15371 0.0638576 
trait 3 0.35645 0.0388424 0.059894 0.42098 0.265676 0 0 0.182342 
node 1 1 1 1
node 2 1 1 1
node 3 2 1 1
node 4 3 1 1
node 5 3 1 1
node 6 3 1 1
node 7 1 1 1
node 8 3 1 1
node 9 2 1 1
node 10 2 1 1
node 11 3 1 3
node 12 2 0 2
node 13 1 0 2
node 14 1 0 2
node 15 3 0 2
node 16 1 0 2
node 20 1 0 0
gene 3 1 12 4.06535 0 1 4.06535 1
gene 1 2 13 0.465092 0 2 0.465092 1
gene 1 3 14 3.56333 0 3 3.56333 1
gene 3 4 15 1.74359 0 4 1.74359 1
gene 1 5 16 -4.21757 0 5 -4.21757 1
gene 3 6 12 1.24751 0 2 1.24751 1
gene 2 7 12 -2.95223 0 3 -2.95223 1
gene 2 8 12 4.0542 0 4 4.0542 1
gene 1 9 12 2.38777 0 5 2.38777 1
gene 2 10 12 1.3658 0 6 1.3658 1
gene 2 11 12 0.782608 0 7 0.782608 1
gene 3 1 13 5.25142 0 5 5.25142 1
gene 1 2 14 -1.40043 0 6 -1.40043 1
gene 1 3 15 -5.13158 0 7 -5.13158 1
gene 2 8 13 3.06748 0 12 3.06748 1
gene 1 3 20 -5.18029 0 18 -5.18029 1
gene 1 20 14 1.27138 0 19 1.27138 1
genomeend 803

/* Organism #381 Fitness: 5416 Error: 0 */
genomestart 381
trait 1 0.1 0 0 0.3081 0.486743 0.444853 0.0145529 0.000179773 
trait 2 0.13125 0.00965237 0.102376 0.0354663 0.0815258 0.00213975 0.15371 0.0494381 
trait 3 0.35645 0.0388424 0.0299596 0.42098 0.272538 0 0 0.182342 
node 1 1 1 1
node 2 1 1 1
node 3 2 1 1
node 4 3 1 1
node 5 3 1 1
node 6 3 1 1
node 7 1 1 1
node 8 3 1 1
node 9 2 1 1
node 10 2 1 1
node 11 3 1 3
node 12 2 0 2
node 13 1 0 2
node 14 1 0 2
node 15 3 0 2
node 16 1 0 2
node 20 1 0 0
gene 3 1 12 6.17356 0 1 6.17356 1
gene 1 2 13 4.62175 0 2 4.62175 1
gene 1 3 14 5.31009 0 3 5.31009 0
gene 3 4 15 6.13499 0 4 6.13499 1
gene 1 5 16 -1.75714 0 5 -1.75714 1
gene 3 6 12 4.97321 0 2 4.97321 1
gene 2 7 12 2.61346 0 3 2.61346 1
gene 2 8 12 3.40674 0 4 3.40674 1
gene 2 9 12 -0.191618 0 5 -0.191618 1
gene 3 10 12 2.20809 0 6 2.20809 1
gene 2 11 12 0.199206 0 7 0.199206 1
gene 3 1 13 7.35111 0 5 7.35111 1
gene 1 2 14 4.28819 0 6 4.28819 1
gene 1 3 15 1.85835 0 7 1.85835 1
gene 2 8 13 4.62477 0 12 4.62477 1
gene 1 3 20 -0.961562 0 18 -0.961562 1
gene 1 20 14 2.3548 0 19 2.3548 1
genomeend 381

/* Organism #401 Fitness: 5179 Error: 0 */
genomestart 401
trait 1 0.1 0 0 0.15405 0.25294 0.222427 0.0145529 0.000269659 
trait 2 0.831009 0.00965237 0.000704072 0.0354663 0.0815258 0.00213975 0.15371 0.200535 
trait 3 0.35645 0.0388424 0.109785 0.42098 0.254238 0 0 0.182342 
node 1 1 1 1
node 2 1 1 1
node 3 2 1 1
node 4 3 1 1
node 5 3 1 1
node 6 3 1 1
node 7 1 1 1
node 8 3 1 1
node 9 2 1 1
node 10 2 1 1
node 11 3 1 3
node 12 2 0 2
node 13 1 0 2
node 14 1 0 2
node 15 3 0 2
node 16 1 0 2
node 20 1 0 0
gene 3 1 12 3.36631 0 1 3.36631 1
gene 1 2 13 2.29628 0 2 2.29628 1
gene 1 3 14 2.75891 0 3 2.75891 1
gene 3 4 15 4.74085 0 4 4.74085 1
gene 1 5 16 -1.93781 0 5 -1.93781 1
gene 3 6 12 3.16781 0 2 3.16781 1
gene 2 7 12 -2.23025 0 3 -2.23025 1
gene 2 8 12 1.7805 0 4 1.7805 1
gene 1 9 12 0.649148 0 5 0.649148 1
gene 2 10 12 4.93318 0 6 4.93318 1
gene 2 11 12 0.982197 0 7 0.982197 1
gene 3 1 13 5.76054 0 5 5.76054 1
gene 1 2 14 0.263489 0 6 0.263489 1
gene 1 3 15 -6.21778 0 7 -6.21778 1
gene 2 8 13 4.74586 0 12 4.74586 1
gene 1 3 20 -0.37635 0 18 -0.37635 1
gene 1 20 14 0.100687 0 19 0.100687 1
genomeend 401

/* Organism #663 Fitness: 4846 Error: 0 */
genomestart 663
trait 1 0.1 0 0 0.15405 0.25294 0.222427 0.0145529 0.000269659 
trait 2 0.13125 0.00965237 0.0515403 0.0354663 0.0815258 0.00213975 0.15371 0.0576778 
trait 3 0.35645 0.0388424 0.0299596 0.42098 0.272538 0 0 0.182342 
node 1 1 1 1
node 2 1 1 1
node 3 2 1 1
node 4 3 1 1
node 5 3 1 1
node 6 3 1 1
node 7 1 1 1
node 8 3 1 1
node 9 2 1 1
node 10 2 1 1
node 11 3 1 3
node 12 2 0 2
node 13 1 0 2
node 14 1 0 2
node 15 3 0 2
node 16 1 0 2
node 20 1 0 0
gene 3 1 12 5.50551 0 1 5.50551 1
gene 1 2 13 -3.36984 0 2 -3.36984 1
gene 1 3 14 3.67971 0 3 3.67971 0
gene 3 4 15 2.36576 0 4 2.36576 1
gene 1 5 16 -5.38236 0 5 -5.38236 1
gene 3 6 12 5.76875 0 2 5.76875 1
gene 2 7 12 0.594275 0 3 0.594275 1
gene 2 8 12 3.93622 0 4 3.93622 1
gene 2 9 12 -4.27118 0 5 -4.27118 1
gene 3 10 12 0.933256 0 6 0.933256 1
gene 2 11 12 -0.146565 0 7 -0.146565 1
gene 3 1 13 7.77448 0 5 7.77448 1
gene 1 2 14 4.91596 0 6 4.91596 1
gene 1 3 15 -2.49405 0 7 -2.49405 1
gene 2 8 13 1.44932 0 12 1.44932 1
gene 1 3 20 -3.55152 0 18 -3.55152 1
gene 1 20 14 -2.27287 0 19 -2.27287 1
genomeend 663

/* Organism #455 Fitness: 4844 Error: 0 */
genomestart 455
trait 1 0.1 0 0 0.0770249 0.136039 0.111213 0.0145529 0.000314603 
trait 2 0.13125 0.00965237 0.000704072 0.0354663 0.0815258 0.00213975 0.15371 0.0659175 
trait 3 0.35645 0.0388424 0.0698721 0.42098 0.263388 0 0 0.182342 
node 1 1 1 1
node 2 1 1 1
node 3 2 1 1
node 4 3 1 1
node 5 3 1 1
node 6 3 1 1
node 7 1 1 1
node 8 3 1 1
node 9 2 1 1
node 10 2 1 1
node 11 3 1 3
node 12 2 0 2
node 13 1 0 2
node 14 1 0 2
node 15 3 0 2
node 16 1 0 2
node 20 1 0 0
gene 3 1 12 4.80202 0 1 4.80202 1
gene 1 2 13 -0.591971 0 2 -0.591971 1
gene 1 3 14 4.10344 0 3 4.10344 1
gene 3 4 15 3.56961 0 4 3.56961 1
gene 1 5 16 -1.88637 0 5 -1.88637 1
gene 3 6 12 4.19129 0 2 4.19129 1
gene 2 7 12 -0.804693 0 3 -0.804693 1
gene 2 8 12 3.16559 0 4 3.16559 1
gene 1 9 12 -0.847728 0 5 -0.847728 1
gene 2 10 12 -0.158811 0 6 -0.158811 1
gene 2 11 12 0.438168 0 7 0.438168 1
gene 3 1 13 4.03403 0 5 4.03403 1
gene 1 2 14 0.0969726 0 6 0.0969726 1
gene 1 3 15 -4.17461 0 7 -4.17461 1
gene 2 8 13 3.70224 0 12 3.70224 1
gene 1 3 20 -2.44572 0 18 -2.44572 1
gene 1 20 14 -2.39959 0 19 -2.39959 1
genomeend 455

/* Organism #324 Fitness: 4825 Error: 0 */
genomestart 324
trait 1 0.1 0 0 0.15405 0.25294 0.222427 0.0145529 0.000269659 
trait 2 0.13125 0.00965237 0.204049 0.0354663 0.0815258 0.00213975 0.15371 0.0329588 
trait 3 0.35645 0.0388424 0.0299596 0.42098 0.272538 0 0 0.182342 
node 1 1 1 1
node 2 1 1 1
node 3 2 1 1
node 4 3 1 1
node 5 3 1 1
node 6 3 1 1
node 7 1 1 1
node 8 3 1 1
node 9 2 1 1
node 10 2 1 1
node 11 3 1 3
node 12 2 0 2
node 13 1 0 2
node 14 1 0 2
node 15 3 0 2
node 16 1 0 2
node 20 1 0 0
gene 3 1 12 6.27568 0 1 6.27568 1
gene 1 2 13 2.07012 0 2 2.07012 1
gene 1 3 14 0.247066 0 3 0.247066 0
gene 3 4 15 3.87819 0 4 3.87819 1
gene 1 5 16 -7.39689 0 5 -7.39689 1
gene 3 6 12 7.52406 0 2 7.52406 1
gene 2 7 12 2.60041 0 3 2.60041 1
gene 2 8 12 -0.541532 0 4 -0.541532 1
gene 2 9 12 -1.59722 0 5 -1.59722 1
gene 2 10 12 1.52081 0 6 1.52081 1
gene 2 11 12 -2.6616 0 7 -2.6616 1
gene 3 1 13 5.77551 0 5 5.77551 1
gene 1 2 14 2.03227 0 6 2.03227 1
gene 1 3 15 -3.46362 0 7 -3.46362 1
gene 2 8 13 4.62477 0 12 4.62477 1
gene 1 3 20 1.26644 0 18 1.26644 1
gene 1 20 14 3.25349 0 19 3.25349 1
genomeend 324

/* Organism #755 Fitness: 4063 Error: 0 */
genomestart 755
trait 1 0.1 0 0 0.15405 0.25294 0.222427 0.0145529 0.000269659 
trait 2 0.13125 0.00965237 0.0261222 0.0354663 0.0815258 0.00213975 0.15371 0.0617977 
trait 3 0.35645 0.0388424 0.0698721 0.42098 0.263388 0 0 0.182342 
node 1 1 1 1
node 2 1 1 1
node 3 2 1 1
node 4 3 1 1
node 5 3 1 1
node 6 3 1 1
node 7 1 1 1
node 8 3 1 1
node 9 2 1 1
node 10 2 1 1
node 11 3 1 3
node 12 2 0 2
node 13 1 0 2
node 14 1 0 2
node 15 3 0 2
node 16 1 0 2
node 20 1 0 0
gene 3 1 12 3.02882 0 1 3.02882 1
gene 1 2 13 -2.65197 0 2 -2.65197 1
gene 1 3 14 0.961886 0 3 0.961886 0
gene 3 4 15 5.16965 0 4 5.16965 1
gene 1 5 16 0.869701 0 5 0.869701 1
gene 3 6 12 0.739845 0 2 0.739845 1
gene 2 7 12 -3.22481 0 3 -3.22481 1
gene 2 8 12 8 0 4 8 1
gene 1 9 12 5.22668 0 5 5.22668 1
gene 2 10 12 4.88456 0 6 4.88456 1
gene 2 11 12 3.01653 0 7 3.01653 1
gene 3 1 13 6.37392 0 5 6.37392 1
gene 1 2 14 1.08249 0 6 1.08249 1
gene 1 3 15 -4.14964 0 7 -4.14964 1
gene 2 8 13 6.71384 0 12 6.71384 1
gene 1 3 20 -5.84315 0 18 -5.84315 1
gene 1 20 14 0.798517 0 19 0.798517 1
genomeend 755

/* Organism #823 Fitness: 3320 Error: 0 */
genomestart 823
trait 1 0.05 0.475204 0.274056 0.0980512 0.0387943 0.139017 0.0145529 0.000303367 
trait 2 0.13125 0.00965237 0.0102359 0.0354663 0.0815258 0.00213975 0.15371 0.0643726 
trait 3 0.35645 0.0388424 0.064883 0.42098 0.264532 0 0 0.182342 
node 1 1 1 1
node 2 1 1 1
node 3 2 1 1
node 4 3 1 1
node 5 3 1 1
node 6 3 1 1
node 7 1 1 1
node 8 3 1 1
node 9 2 1 1
node 10 2 1 1
node 11 3 1 3
node 12 2 0 2
node 13 1 0 2
node 14 1 0 2
node 15 3 0 2
node 16 1 0 2
node 20 1 0 0
gene 3 1 12 2.504 0 1 2.504 1
gene 1 2 13 -0.600146 0 2 -0.600146 1
gene 1 3 14 2.17457 0 3 2.17457 1
gene 3 4 15 3.38628 0 4 3.38628 1
gene 1 5 16 -2.90545 0 5 -2.90545 1
gene 3 6 12 -1.1812 0 2 -1.1812 1
gene 2 7 12 -1.88618 0 3 -1.88618 1
gene 2 8 12 3.52324 0 4 3.52324 1
gene 1 9 12 2.44098 0 5 2.44098 1
gene 2 10 12 1.23619 0 6 1.23619 1
gene 2 11 12 -0.722983 0 7 -0.722983 1
gene 3 1 13 5.6551 0 5 5.6551 1
gene 1 2 14 -1.64788 0 6 -1.64788 1
gene 1 3 15 1.35179 0 7 1.35179 1
gene 2 8 13 2.94222 0 12 2.94222 1
gene 1 3 20 -1.91263 0 18 -1.91263 1
gene 1 20 14 3.83268 0 19 3.83268 1
genomeend 823

/* Organism #793 Fitness: 1966.84 Error: 0 */
genomestart 793
trait 1 0.1 0 0 0.0192562 0.0483633 0.0278033 0.0145529 0.00034831 
trait 2 0.13125 0.00965237 0.000704072 0.0354663 0.0815258 0.00213975 0.15371 0.0659175 
trait 3 0.35645 0.0388424 0.0399377 0.42098 0.27025 0 0 0.182342 
node 1 1 1 1
node 2 1 1 1
node 3 2 1 1
node 4 3 1 1
node 5 3 1 1
node 6 3 1 1
node 7 1 1 1
node 8 3 1 1
node 9 2 1 1
node 10 2 1 1
node 11 3 1 3
node 12 2 0 2
node 13 1 0 2
node 14 1 0 2
node 15 3 0 2
node 16 1 0 2
node 20 1 0 0
gene 3 1 12 4.24297 0 1 4.24297 1
gene 1 2 13 -1.05301 0 2 -1.05301 1
gene 1 3 14 3.12825 0 3 3.12825 0
gene 3 4 15 1.68202 0 4 1.68202 1
gene 1 5 16 -2.34147 0 5 -2.34147 1
gene 3 6 12 4.19135 0 2 4.19135 1
gene 2 7 12 0.253126 0 3 0.253126 1
gene 2 8 12 4.53181 0 4 4.53181 1
gene 1 9 12 -0.645428 0 5 -0.645428 1
gene 2 10 12 1.24361 0 6 1.24361 1
gene 2 11 12 1.45348 0 7 1.45348 1
gene 3 1 13 5.50117 0 5 5.50117 1
gene 1 2 14 0.351182 0 6 0.351182 1
gene 1 3 15 -3.25688 0 7 -3.25688 1
gene 2 8 13 3.25731 0 12 3.25731 1
gene 1 3 20 -2.52609 0 18 -2.52609 1
gene 1 20 14 -0.858506 0 19 -0.858506 1
genomeend 793

/* Organism #822 Fitness: 334.101 Error: 0 */
genomestart 822
trait 1 0 0.950407 0.548112 0.15759 0 0.222427 0.0145529 0.000269659 
trait 2 0.13125 0.00965237 0.0197676 0.0354663 0.0815258 0.00213975 0.15371 0.0628276 
trait 3 0.35645 0.0388424 0.0798502 0.42098 0.261101 0 0 0.182342 
node 1 1 1 1
node 2 1 1 1
node 3 2 1 1
node 4 3 1 1
node 5 3 1 1
node 6 3 1 1
node 7 1 1 1
node 8 3 1 1
node 9 2 1 1
node 10 2 1 1
node 11 3 1 3
node 12 2 0 2
node 13 1 0 2
node 14 1 0 2
node 15 3 0 2
node 16 1 0 2
node 20 1 0 0
gene 3 1 12 5.0118 0 1 5.0118 1
gene 1 2 13 -0.882584 0 2 -0.882584 1
gene 1 3 14 4.02249 0 3 4.02249 1
gene 3 4 15 2.16358 0 4 2.16358 1
gene 1 5 16 -2.88755 0 5 -2.88755 1
gene 3 6 12 -1.71125 0 2 -1.71125 1
gene 2 7 12 1.59788 0 3 1.59788 1
gene 2 8 12 2.8692 0 4 2.8692 1
gene 1 9 12 1.35395 0 5 1.35395 1
gene 2 10 12 3.60542 0 6 3.60542 1
gene 2 11 12 -0.704024 0 7 -0.704024 1
gene 3 1 13 2.37608 0 5 2.37608 1
gene 1 2 14 -3.24576 0 6 -3.24576 1
gene 1 3 15 2.93771 0 7 2.93771 1
gene 2 8 13 0.850169 0 12 0.850169 1
gene 1 3 20 0.502182 0 18 0.502182 1
gene 1 20 14 -0.771126 0 19 -0.771126 1
genomeend 822

/* Organism #824 Fitness: 0 Error: 0 */
genomestart 824
trait 1 0.536099 0.475204 0.274056 0 0 0 0.0145529 0.000269659 
trait 2 0.13125 0.00965237 0.0229449 0.0354663 0.0815258 0.00213975 0.15371 0.0623126 
trait 3 0.35645 0.0388424 0.0748611 0.42098 0.262244 0 0 0.182342 
node 1 1 1 1
node 2 1 1 1
node 3 2 1 1
node 4 3 1 1
node 5 3 1 1
node 6 3 1 1
node 7 1 1 1
node 8 3 1 1
node 9 2 1 1
node 10 2 1 1
node 11 3 1 3
node 12 2 0 2
node 13 1 0 2
node 14 3 0 2
node 15 3 0 2
node 16 1 0 2
node 20 1 0 0
gene 3 1 12 3.48343 0 1 3.48343 1
gene 1 2 13 -1.80287 0 2 -1.80287 1
gene 1 3 14 3.93025 0 3 3.93025 1
gene 3 4 15 1.6675 0 4 1.6675 1
gene 1 5 16 -5.06443 0 5 -5.06443 1
gene 3 6 12 1.52921 0 2 1.52921 1
gene 2 7 12 -2.47821 0 3 -2.47821 1
gene 2 8 12 8 0 4 8 1
gene 1 9 12 3.21066 0 5 3.21066 1
gene 2 10 12 2.3233 0 6 2.3233 1
gene 2 11 12 3.291 0 7 3.291 1
gene 3 1 13 5.78209 0 5 5.78209 1
gene 1 2 14 0.0661489 0 6 0.0661489 1
gene 1 3 15 2.388 0 7 2.388 1
gene 2 8 13 1.41404 0 12 1.41404 1
gene 1 3 20 -1.7497 0 18 -1.7497 1
gene 1 20 14 2.09243 0 19 2.09243 1
genomeend 824
