
/* Species #1 : (Size 19) (AF 0) (Age 1)  */


/* Organism #34 Fitness: 13187.4 Error: 0 */
genomestart 34
trait 1 0.1 0 0 0 0.019138 0 0.0145529 0.000359546 
trait 2 0.13125 0.00965237 0.000704072 0.0354663 0.0815258 0.00213975 0.15371 0.0659175 
trait 3 0.466408 0 0.193951 0.110561 0.0787912 0.141606 0 0.121095 
node 1 1 1 1
node 2 1 1 1
node 3 3 1 1
node 4 2 1 1
node 5 3 1 1
node 6 3 1 1
node 7 2 1 1
node 8 3 1 1
node 9 1 1 1
node 10 1 1 1
node 11 1 1 3
node 12 2 0 2
node 13 2 0 2
node 14 3 0 2
node 15 1 0 2
node 16 1 0 2
gene 2 1 12 -3.2166 0 1 -3.2166 1
gene 1 2 13 -3.45676 0 2 -3.45676 1
gene 2 3 14 -5.04477 0 3 -5.04477 1
gene 3 4 15 1.69125 0 4 1.69125 1
gene 1 5 16 0.698034 0 5 0.698034 1
gene 2 6 12 1.98889 0 2 1.98889 1
gene 1 7 12 2.30513 0 3 2.30513 1
gene 2 8 12 7.05798 0 4 7.05798 1
gene 2 9 12 4.11512 0 5 4.11512 1
gene 2 10 12 -0.628605 0 6 -0.628605 1
gene 1 11 12 2.78901 0 7 2.78901 1
gene 1 1 13 0.647111 0 5 0.647111 1
gene 2 2 14 -0.833563 0 6 -0.833563 1
gene 1 3 15 -2.52373 0 7 -2.52373 1
gene 3 12 15 -0.180364 0 23 -0.180364 1
genomeend 34

/* Organism #49 Fitness: 12053.1 Error: 0 */
genomestart 49
trait 1 0.208451 0.122524 0 0.0338565 0.0565804 0.0978461 0.0127338 0.000359546 
trait 2 0.13125 0.00965237 0.000352036 0.328257 0.0815258 0.393662 0.076855 0.0659014 
trait 3 0.455465 0 0.183862 0.110561 0.0739437 0.132894 0 0.123579 
node 1 1 1 1
node 2 1 1 1
node 3 3 1 1
node 4 2 1 1
node 5 3 1 1
node 6 3 1 1
node 7 2 1 1
node 8 3 1 1
node 9 1 1 1
node 10 2 1 1
node 11 1 1 3
node 12 2 0 2
node 13 2 0 2
node 14 3 0 2
node 15 1 0 2
node 16 1 0 2
gene 2 1 12 1.21693 0 1 1.21693 1
gene 1 2 13 -2.48032 0 2 -2.48032 1
gene 2 3 14 2.40958 0 3 2.40958 1
gene 3 4 15 -1.11939 0 4 -1.11939 1
gene 1 5 16 -4.69329 0 5 -4.69329 1
gene 2 6 12 -1.96287 0 2 -1.96287 1
gene 1 7 12 0.880001 0 3 0.880001 1
gene 2 8 12 0.0732247 0 4 0.0732247 0
gene 2 9 12 -0.355312 0 5 -0.355312 1
gene 2 10 12 -2.80242 0 6 -2.80242 1
gene 1 11 12 -1.19282 0 7 -1.19282 1
gene 1 1 13 3.79576 0 5 3.79576 0
gene 2 2 14 1.60649 0 6 1.60649 1
gene 1 3 15 -3.51894 0 7 -3.51894 1
genomeend 49

/* Organism #44 Fitness: 11860.4 Error: 0 */
genomestart 44
trait 1 0.1 0 0 0 0.019138 0 0.0145529 0.000359546 
trait 2 0.13125 0.00965237 0.000704072 0.035436 0.0815258 0.00213975 0.154263 0.0657888 
trait 3 0.378866 0 0.113236 0.110561 0.0400112 0.0719093 0 0.140963 
node 1 1 1 1
node 2 2 1 1
node 3 2 1 1
node 4 2 1 1
node 5 1 1 1
node 6 3 1 1
node 7 2 1 1
node 8 1 1 1
node 9 3 1 1
node 10 2 1 1
node 11 2 1 3
node 12 1 0 2
node 13 3 0 2
node 14 2 0 2
node 15 1 0 2
node 16 3 0 2
gene 2 1 12 5.58481 0 1 5.58481 1
gene 3 2 13 4.27389 0 2 4.27389 1
gene 2 3 14 -5.94112 0 3 -5.94112 1
gene 3 4 15 -1.13115 0 4 -1.13115 1
gene 1 5 16 2.28135 0 5 2.28135 1
gene 2 6 12 -1.03144 0 2 -1.03144 1
gene 1 7 12 -0.828836 0 3 -0.828836 1
gene 3 8 12 -0.861427 0 4 -0.861427 0
gene 3 9 12 -0.00891023 0 5 -0.00891023 1
gene 3 10 12 -4.54009 0 6 -4.54009 1
gene 2 11 12 4.4717 0 7 4.4717 1
gene 1 1 13 -0.1666 0 5 -0.1666 1
gene 2 2 14 2.0338 0 6 2.0338 1
gene 2 3 15 0.0103 0 7 0.0103 1
genomeend 44

/* Organism #37 Fitness: 11548.6 Error: 0 */
genomestart 37
trait 1 0.1 0 0 0 0.019138 0 0.0145529 0.000359546 
trait 2 0.13125 0.00965237 0.000704072 0.0354549 0.0815258 0.00213975 0.153917 0.0658692 
trait 3 0.444696 0 0.173932 0.110561 0.0691731 0.12432 0 0.126023 
node 1 2 1 1
node 2 2 1 1
node 3 2 1 1
node 4 1 1 1
node 5 1 1 1
node 6 3 1 1
node 7 2 1 1
node 8 1 1 1
node 9 2 1 1
node 10 2 1 1
node 11 2 1 3
node 12 1 0 2
node 13 3 0 2
node 14 2 0 2
node 15 1 0 2
node 16 3 0 2
gene 2 1 12 0.115271 0 1 0.115271 1
gene 3 2 13 0.760103 0 2 0.760103 1
gene 2 3 14 -4.10225 0 3 -4.10225 1
gene 3 4 15 0.440908 0 4 0.440908 1
gene 1 5 16 -6.52106 0 5 -6.52106 1
gene 2 6 12 3.11048 0 2 3.11048 1
gene 1 7 12 2.82875 0 3 2.82875 1
gene 2 8 12 -2.07898 0 4 -2.07898 0
gene 2 9 12 2.19436 0 5 2.19436 1
gene 2 10 12 -1.26842 0 6 -1.26842 1
gene 1 11 12 2.91831 0 7 2.91831 1
gene 1 1 13 4.66197 0 5 4.66197 1
gene 2 2 14 0.0639856 0 6 0.0639856 1
gene 1 3 15 -2.26897 0 7 -2.26897 1
genomeend 37

/* Organism #15 Fitness: 11541.8 Error: 0 */
genomestart 15
trait 1 0.1 0 0 0 0.019138 0 0.0145529 0.000359546 
trait 2 0.13125 0.00965237 0.000704072 0.0354057 0.0815258 0.00213975 0.154816 0.06566 
trait 3 0.380255 0 0.114517 0.110561 0.0406267 0.0730156 0 0.140647 
node 1 1 1 1
node 2 2 1 1
node 3 2 1 1
node 4 1 1 1
node 5 1 1 1
node 6 3 1 1
node 7 2 1 1
node 8 1 1 1
node 9 3 1 1
node 10 2 1 1
node 11 2 1 3
node 12 1 0 2
node 13 3 0 2
node 14 2 0 2
node 15 1 0 2
node 16 3 0 2
gene 2 1 12 7.81377 0 1 7.81377 1
gene 3 2 13 3.852 0 2 3.852 1
gene 2 3 14 -4.5336 0 3 -4.5336 1
gene 3 4 15 -2.33152 0 4 -2.33152 1
gene 1 5 16 0.994788 0 5 0.994788 1
gene 2 6 12 1.18833 0 2 1.18833 1
gene 1 7 12 2.36332 0 3 2.36332 1
gene 3 8 12 -2.4221 0 4 -2.4221 0
gene 3 9 12 -2.00871 0 5 -2.00871 1
gene 3 10 12 -3.71296 0 6 -3.71296 1
gene 2 11 12 4.72855 0 7 4.72855 1
gene 1 1 13 0.304606 0 5 0.304606 1
gene 2 2 14 1.74955 0 6 1.74955 1
gene 2 3 15 -2.80422 0 7 -2.80422 1
genomeend 15

/* Organism #3 Fitness: 11305 Error: 0 */
genomestart 3
trait 1 0.208452 0.122524 0 0.0338565 0.0565804 0.097846 0.0127338 0.000359546 
trait 2 0.13125 0.00965237 0.000352036 0.32825 0.0815258 0.393662 0.0769935 0.0658692 
trait 3 0.43358 0 0.163683 0.110561 0.0642487 0.11547 0 0.128546 
node 1 1 1 1
node 2 1 1 1
node 3 3 1 1
node 4 2 1 1
node 5 3 1 1
node 6 3 1 1
node 7 2 1 1
node 8 3 1 1
node 9 1 1 1
node 10 2 1 1
node 11 1 1 3
node 12 2 0 2
node 13 2 0 2
node 14 3 0 2
node 15 1 0 2
node 16 1 0 2
gene 2 1 12 -1.50534 0 1 -1.50534 1
gene 1 2 13 -3.50147 0 2 -3.50147 1
gene 2 3 14 -7.53737 0 3 -7.53737 1
gene 3 4 15 -2.85112 0 4 -2.85112 1
gene 1 5 16 -1.22722 0 5 -1.22722 1
gene 2 6 12 1.44819 0 2 1.44819 1
gene 1 7 12 4.35037 0 3 4.35037 1
gene 2 8 12 5.33392 0 4 5.33392 0
gene 2 9 12 2.8496 0 5 2.8496 1
gene 2 10 12 -0.605104 0 6 -0.605104 1
gene 1 11 12 0.777007 0 7 0.777007 1
gene 1 1 13 0.304606 0 5 0.304606 1
gene 2 2 14 -1.37783 0 6 -1.37783 1
gene 1 3 15 2.43393 0 7 2.43393 1
genomeend 3

/* Organism #2 Fitness: 11278.6 Error: 0 */
genomestart 2
trait 1 0.1 0 0 0 0.019138 0 0.0145529 0.000359546 
trait 2 0.13125 0.00965237 0.000704072 0.0354663 0.0815258 0.00213975 0.15371 0.0659175 
trait 3 0.466408 0 0.193951 0.110561 0.0787912 0.141606 0 0.121095 
node 1 1 1 1
node 2 1 1 1
node 3 3 1 1
node 4 2 1 1
node 5 3 1 1
node 6 3 1 1
node 7 2 1 1
node 8 3 1 1
node 9 1 1 1
node 10 1 1 1
node 11 1 1 3
node 12 2 0 2
node 13 2 0 2
node 14 3 0 2
node 15 1 0 2
node 16 1 0 2
gene 2 1 12 -4.25324 0 1 -4.25324 1
gene 1 2 13 -3.8638 0 2 -3.8638 1
gene 2 3 14 -3.10654 0 3 -3.10654 1
gene 3 4 15 2.84416 0 4 2.84416 1
gene 1 5 16 2.85958 0 5 2.85958 1
gene 2 6 12 1.31039 0 2 1.31039 1
gene 1 7 12 0.182873 0 3 0.182873 1
gene 2 8 12 8 0 4 8 1
gene 2 9 12 4.15167 0 5 4.15167 1
gene 2 10 12 -2.11333 0 6 -2.11333 1
gene 1 11 12 1.44391 0 7 1.44391 1
gene 2 1 13 0.946498 0 5 0.946498 1
gene 2 2 14 -1.78284 0 6 -1.78284 1
gene 1 3 15 -3.8995 0 7 -3.8995 1
gene 3 12 15 -0.180364 0 23 -0.180364 1
genomeend 2

/* Organism #33 Fitness: 11076.5 Error: 0 */
genomestart 33
trait 1 0.1 0 0 0 0.019138 0 0.0145529 0.000359546 
trait 2 0.13125 0.00965237 0.000704072 0.035436 0.0815258 0.00213975 0.154263 0.0657888 
trait 3 0.378866 0 0.113236 0.110561 0.0400112 0.0719093 0 0.140963 
node 1 1 1 1
node 2 2 1 1
node 3 2 1 1
node 4 1 1 1
node 5 1 1 1
node 6 3 1 1
node 7 2 1 1
node 8 1 1 1
node 9 3 1 1
node 10 2 1 1
node 11 2 1 3
node 12 1 0 2
node 13 3 0 2
node 14 2 0 2
node 15 1 0 2
node 16 3 0 2
gene 2 1 12 7.10578 0 1 7.10578 1
gene 3 2 13 3.65826 0 2 3.65826 1
gene 2 3 14 -4.29167 0 3 -4.29167 1
gene 3 4 15 -2.33152 0 4 -2.33152 1
gene 1 5 16 0.494341 0 5 0.494341 1
gene 2 6 12 1.44819 0 2 1.44819 1
gene 1 7 12 1.38429 0 3 1.38429 1
gene 3 8 12 -2.6756 0 4 -2.6756 0
gene 3 9 12 -2.02008 0 5 -2.02008 1
gene 3 10 12 -3.59989 0 6 -3.59989 1
gene 2 11 12 3.55729 0 7 3.55729 1
gene 1 1 13 0.304606 0 5 0.304606 1
gene 2 2 14 1.3572 0 6 1.3572 1
gene 2 3 15 -1.58291 0 7 -1.58291 1
genomeend 33

/* Organism #40 Fitness: 10944.3 Error: 0 */
genomestart 40
trait 1 0.1 0 0 0 0.019138 0 0.0145529 0.000359546 
trait 2 0.13125 0.00965237 0.000704072 0.0354663 0.0815258 0.00213975 0.15371 0.0659175 
trait 3 0.466408 0 0.193951 0.110561 0.0787912 0.141606 0 0.121095 
node 1 1 1 1
node 2 1 1 1
node 3 3 1 1
node 4 2 1 1
node 5 3 1 1
node 6 3 1 1
node 7 2 1 1
node 8 3 1 1
node 9 1 1 1
node 10 2 1 1
node 11 1 1 3
node 12 2 0 2
node 13 2 0 2
node 14 3 0 2
node 15 1 0 2
node 16 1 0 2
gene 2 1 12 1.98294 0 1 1.98294 1
gene 1 2 13 1.39744 0 2 1.39744 1
gene 2 3 14 -3.51213 0 3 -3.51213 1
gene 3 4 15 0.577327 0 4 0.577327 1
gene 2 5 16 -2.07344 0 5 -2.07344 1
gene 2 6 12 1.10759 0 2 1.10759 1
gene 1 7 12 4.46446 0 3 4.46446 1
gene 2 8 12 3.87078 0 4 3.87078 1
gene 2 9 12 1.50196 0 5 1.50196 1
gene 2 10 12 -0.194328 0 6 -0.194328 1
gene 1 11 12 -2.14331 0 7 -2.14331 1
gene 1 1 13 4.07556 0 5 4.07556 1
gene 2 2 14 2.54796 0 6 2.54796 1
gene 1 3 15 -4.71015 0 7 -4.71015 1
gene 3 12 15 -2.31399 0 23 -2.31399 1
genomeend 40

/* Organism #1 Fitness: 10680.7 Error: 0 */
genomestart 1
trait 1 0.425354 0.367572 0 0.101569 0.131465 0.293538 0.00909557 0.000359546 
trait 2 0.13125 0.00965237 0.000704072 0.0354663 0.0815258 0.00213975 0.15371 0.0659175 
trait 3 0.466408 0 0.193951 0.110561 0.0787912 0.141606 0 0.121095 
node 1 1 1 1
node 2 1 1 1
node 3 3 1 1
node 4 2 1 1
node 5 3 1 1
node 6 3 1 1
node 7 2 1 1
node 8 3 1 1
node 9 1 1 1
node 10 2 1 1
node 11 1 1 3
node 12 2 0 2
node 13 2 0 2
node 14 3 0 2
node 15 1 0 2
node 16 1 0 2
gene 2 1 12 -4.5601 0 1 -4.5601 1
gene 1 2 13 -4.39284 0 2 -4.39284 1
gene 2 3 14 -5.59768 0 3 -5.59768 1
gene 3 4 15 -0.20818 0 4 -0.20818 1
gene 1 5 16 -6.44025 0 5 -6.44025 1
gene 2 6 12 1.45123 0 2 1.45123 1
gene 1 7 12 1.31202 0 3 1.31202 1
gene 2 8 12 5.86001 0 4 5.86001 1
gene 2 9 12 2.7879 0 5 2.7879 1
gene 2 10 12 -1.53168 0 6 -1.53168 1
gene 1 11 12 4.44846 0 7 4.44846 1
gene 1 1 13 4.82556 0 5 4.82556 1
gene 3 2 14 1.19368 0 6 1.19368 1
gene 1 3 15 -3.92865 0 7 -3.92865 1
gene 3 12 15 -0.875081 0 23 -0.875081 1
genomeend 1

/* Organism #83 Fitness: 9911.01 Error: 0 */
genomestart 83
trait 1 0.1 0 0 0 0.019138 0 0.0145529 0.000359546 
trait 2 0.13125 0.00965237 0.000704072 0.0354057 0.0815258 0.00213975 0.154816 0.06566 
trait 3 0.424721 0 0.155515 0.110561 0.0603245 0.108417 0 0.130556 
node 1 1 1 1
node 2 3 1 1
node 3 2 1 1
node 4 1 1 1
node 5 1 1 1
node 6 3 1 1
node 7 2 1 1
node 8 1 1 1
node 9 3 1 1
node 10 1 1 1
node 11 2 1 3
node 12 1 0 2
node 13 3 0 2
node 14 2 0 2
node 15 1 0 2
node 16 3 0 2
gene 2 1 12 -2.12342 0 1 -2.12342 1
gene 1 2 13 1.91465 0 2 1.91465 1
gene 2 3 14 -1.152 0 3 -1.152 1
gene 3 4 15 -1.17558 0 4 -1.17558 1
gene 1 5 16 0.848415 0 5 0.848415 1
gene 2 6 12 -1.64563 0 2 -1.64563 1
gene 1 7 12 0.817485 0 3 0.817485 1
gene 2 8 12 0.117878 0 4 0.117878 1
gene 2 9 12 -1.26804 0 5 -1.26804 1
gene 3 10 12 -3.76591 0 6 -3.76591 1
gene 2 11 12 -0.452725 0 7 -0.452725 1
gene 1 1 13 -0.761558 0 5 -0.761558 0
gene 2 2 14 -3.7978 0 6 -3.7978 1
gene 2 3 15 -2.1274 0 7 -2.1274 1
gene 3 9 14 -1.06697 0 35 -1.06697 1
genomeend 83

/* Organism #43 Fitness: 9736.31 Error: 0 */
genomestart 43
trait 1 0.1 0 0 0 0.019138 0 0.0145529 0.000359546 
trait 2 0.13125 0.00965237 0.000704072 0.0354057 0.0815258 0.00213975 0.154816 0.06566 
trait 3 0.424721 0 0.155515 0.110561 0.0603245 0.108417 0 0.130556 
node 1 1 1 1
node 2 2 1 1
node 3 2 1 1
node 4 1 1 1
node 5 1 1 1
node 6 3 1 1
node 7 2 1 1
node 8 1 1 1
node 9 3 1 1
node 10 1 1 1
node 11 2 1 3
node 12 1 0 2
node 13 3 0 2
node 14 2 0 2
node 15 1 0 2
node 16 3 0 2
gene 2 1 12 -0.00352725 0 1 -0.00352725 1
gene 1 2 13 -2.28828 0 2 -2.28828 1
gene 2 3 14 -3.34994 0 3 -3.34994 1
gene 3 4 15 -1.38128 0 4 -1.38128 1
gene 1 5 16 0.934095 0 5 0.934095 1
gene 2 6 12 -1.22768 0 2 -1.22768 1
gene 1 7 12 -1.21192 0 3 -1.21192 1
gene 2 8 12 1.11881 0 4 1.11881 1
gene 2 9 12 -0.00152583 0 5 -0.00152583 1
gene 3 10 12 -1.47878 0 6 -1.47878 1
gene 2 11 12 0.988359 0 7 0.988359 1
gene 1 1 13 0.403562 0 5 0.403562 0
gene 2 2 14 -1.75375 0 6 -1.75375 1
gene 2 3 15 -1.44646 0 7 -1.44646 1
gene 3 9 14 -1.06697 0 35 -1.06697 1
genomeend 43

/* Organism #10 Fitness: 9662.4 Error: 0 */
genomestart 10
trait 1 0.1 0 0 0 0.019138 0 0.0145529 0.000359546 
trait 2 0.13125 0.00965237 0.000704072 0.0354512 0.0815258 0.00213975 0.153987 0.0658531 
trait 3 0.422637 0 0.153593 0.110561 0.0594012 0.106758 0 0.131029 
node 1 1 1 1
node 2 1 1 1
node 3 3 1 1
node 4 2 1 1
node 5 3 1 1
node 6 3 1 1
node 7 2 1 1
node 8 3 1 1
node 9 1 1 1
node 10 2 1 1
node 11 1 1 3
node 12 2 0 2
node 13 2 0 2
node 14 3 0 2
node 15 1 0 2
node 16 1 0 2
gene 2 1 12 -1.50534 0 1 -1.50534 1
gene 1 2 13 -1.88894 0 2 -1.88894 1
gene 2 3 14 -7.53737 0 3 -7.53737 1
gene 3 4 15 -2.85112 0 4 -2.85112 1
gene 1 5 16 0.494341 0 5 0.494341 1
gene 2 6 12 1.44819 0 2 1.44819 1
gene 1 7 12 4.09771 0 3 4.09771 1
gene 2 8 12 5.33392 0 4 5.33392 0
gene 3 9 12 -2.02008 0 5 -2.02008 1
gene 2 10 12 -1.19655 0 6 -1.19655 1
gene 1 11 12 0.777007 0 7 0.777007 1
gene 1 1 13 0.304606 0 5 0.304606 1
gene 2 2 14 -1.37783 0 6 -1.37783 1
gene 1 3 15 -0.101245 0 7 -0.101245 1
genomeend 10

/* Organism #45 Fitness: 9501.34 Error: 0 */
genomestart 45
trait 1 0.1 0 0 0 0.019138 0 0.0145529 0.000359546 
trait 2 0.13125 0.00965237 0.000704072 0.0354512 0.0815258 0.00213975 0.153987 0.0658531 
trait 3 0.422637 0 0.153593 0.110561 0.0594012 0.106758 0 0.131029 
node 1 1 1 1
node 2 2 1 1
node 3 2 1 1
node 4 2 1 1
node 5 1 1 1
node 6 3 1 1
node 7 2 1 1
node 8 1 1 1
node 9 3 1 1
node 10 2 1 1
node 11 2 1 3
node 12 1 0 2
node 13 3 0 2
node 14 2 0 2
node 15 1 0 2
node 16 3 0 2
gene 2 1 12 6.93449 0 1 6.93449 1
gene 1 2 13 -1.66182 0 2 -1.66182 1
gene 2 3 14 -3.58105 0 3 -3.58105 1
gene 3 4 15 0.135749 0 4 0.135749 1
gene 1 5 16 1.26356 0 5 1.26356 1
gene 2 6 12 -3.37366 0 2 -3.37366 1
gene 1 7 12 1.21865 0 3 1.21865 1
gene 2 8 12 5.54266 0 4 5.54266 0
gene 3 9 12 -0.122897 0 5 -0.122897 1
gene 3 10 12 -4.81491 0 6 -4.81491 1
gene 1 11 12 3.9063 0 7 3.9063 1
gene 1 1 13 1.17927 0 5 1.17927 1
gene 2 2 14 1.7686 0 6 1.7686 1
gene 1 3 15 -3.48666 0 7 -3.48666 1
genomeend 45

/* Organism #19 Fitness: 9145.75 Error: 0 */
genomestart 19
trait 1 0.1 0 0 0 0.019138 0 0.0145529 0.000359546 
trait 2 0.13125 0.00965237 0.000704072 0.0354663 0.0815258 0.00213975 0.15371 0.0659175 
trait 3 0.466408 0 0.193951 0.110561 0.0787912 0.141606 0 0.121095 
node 1 1 1 1
node 2 1 1 1
node 3 3 1 1
node 4 2 1 1
node 5 3 1 1
node 6 3 1 1
node 7 2 1 1
node 8 3 1 1
node 9 1 1 1
node 10 3 1 1
node 11 1 1 3
node 12 2 0 2
node 13 2 0 2
node 14 3 0 2
node 15 1 0 2
node 16 1 0 2
gene 2 1 12 0.428153 0 1 0.428153 1
gene 1 2 13 -3.62164 0 2 -3.62164 1
gene 2 3 14 -6.04844 0 3 -6.04844 1
gene 3 4 15 1.1671 0 4 1.1671 1
gene 1 5 16 -2.59592 0 5 -2.59592 1
gene 2 6 12 0.781041 0 2 0.781041 1
gene 1 7 12 1.86543 0 3 1.86543 1
gene 2 8 12 3.72002 0 4 3.72002 1
gene 2 9 12 0.710013 0 5 0.710013 1
gene 2 10 12 -1.42369 0 6 -1.42369 1
gene 1 11 12 1.96387 0 7 1.96387 1
gene 1 1 13 2.09384 0 5 2.09384 1
gene 2 2 14 1.28053 0 6 1.28053 1
gene 1 3 15 -3.15874 0 7 -3.15874 1
gene 3 12 15 -1.30589 0 23 -1.30589 1
genomeend 19

/* Organism #41 Fitness: 8540.14 Error: 0 */
genomestart 41
trait 1 0.1 0 0 0 0.019138 0 0.0145529 0.000359546 
trait 2 0.13125 0.00965237 0.000704072 0.0354512 0.0815258 0.00213975 0.153986 0.0658531 
trait 3 0.422637 0 0.153594 0.110561 0.0594012 0.106758 0 0.131029 
node 1 2 1 1
node 2 2 1 1
node 3 2 1 1
node 4 1 1 1
node 5 1 1 1
node 6 3 1 1
node 7 2 1 1
node 8 1 1 1
node 9 3 1 1
node 10 2 1 1
node 11 2 1 3
node 12 1 0 2
node 13 3 0 2
node 14 2 0 2
node 15 1 0 2
node 16 3 0 2
gene 2 1 12 4.97628 0 1 4.97628 1
gene 3 2 13 1.83249 0 2 1.83249 1
gene 2 3 14 -4.29167 0 3 -4.29167 1
gene 3 4 15 -0.96569 0 4 -0.96569 1
gene 1 5 16 0.504776 0 5 0.504776 1
gene 2 6 12 1.23066 0 2 1.23066 1
gene 1 7 12 4.38656 0 3 4.38656 1
gene 2 8 12 8 0 4 8 0
gene 2 9 12 1.27674 0 5 1.27674 1
gene 3 10 12 -1.5009 0 6 -1.5009 1
gene 1 11 12 1.72881 0 7 1.72881 1
gene 1 1 13 0.820839 0 5 0.820839 1
gene 2 2 14 0.587378 0 6 0.587378 1
gene 1 3 15 -5.13413 0 7 -5.13413 1
genomeend 41

/* Organism #18 Fitness: 6657.56 Error: 0 */
genomestart 18
trait 1 0.533806 0.490096 0 0.135426 0.168907 0.391385 0.00727645 0.000359546 
trait 2 0.13125 0.00965237 0.000704072 0.0354663 0.0815258 0.00213975 0.15371 0.0659175 
trait 3 0.466408 0 0.193951 0.110561 0.0787912 0.141606 0 0.121095 
node 1 1 1 1
node 2 1 1 1
node 3 3 1 1
node 4 2 1 1
node 5 3 1 1
node 6 3 1 1
node 7 2 1 1
node 8 3 1 1
node 9 1 1 1
node 10 2 1 1
node 11 1 1 3
node 12 2 0 2
node 13 2 0 2
node 14 3 0 2
node 15 1 0 2
node 16 1 0 2
gene 2 1 12 -4.5601 0 1 -4.5601 1
gene 1 2 13 -4.39284 0 2 -4.39284 1
gene 2 3 14 -5.59768 0 3 -5.59768 1
gene 3 4 15 -1.58346 0 4 -1.58346 1
gene 1 5 16 -6.44025 0 5 -6.44025 1
gene 2 6 12 2.12142 0 2 2.12142 1
gene 1 7 12 0.758613 0 3 0.758613 1
gene 2 8 12 8 0 4 8 1
gene 2 9 12 4.86579 0 5 4.86579 1
gene 2 10 12 -1.63968 0 6 -1.63968 1
gene 1 11 12 4.44846 0 7 4.44846 1
gene 1 1 13 4.82556 0 5 4.82556 1
gene 2 2 14 1.10683 0 6 1.10683 1
gene 1 3 15 -4.69856 0 7 -4.69856 1
gene 3 12 15 -0.444273 0 23 -0.444273 1
genomeend 18

/* Organism #29 Fitness: 5998.39 Error: 0 */
genomestart 29
trait 1 0.316903 0.245048 0 0.067713 0.0940227 0.195692 0.0109147 0.000359546 
trait 2 0.13125 0.00965237 0 0.621048 0.0815258 0.785184 0 0.0658853 
trait 3 0.444522 0 0.173772 0.110561 0.0690962 0.124182 0 0.126062 
node 1 1 1 1
node 2 1 1 1
node 3 3 1 1
node 4 2 1 1
node 5 3 1 1
node 6 3 1 1
node 7 2 1 1
node 8 3 1 1
node 9 1 1 1
node 10 2 1 1
node 11 1 1 3
node 12 2 0 2
node 13 2 0 2
node 14 3 0 2
node 15 1 0 2
node 16 1 0 2
gene 2 1 12 -2.76805 0 1 -2.76805 1
gene 1 2 13 -3.50147 0 2 -3.50147 1
gene 2 3 14 -4.47174 0 3 -4.47174 1
gene 3 4 15 -2.31457 0 4 -2.31457 1
gene 1 5 16 -1.22722 0 5 -1.22722 1
gene 2 6 12 3.36536 0 2 3.36536 1
gene 1 7 12 4.35037 0 3 4.35037 1
gene 2 8 12 4.69211 0 4 4.69211 0
gene 2 9 12 2.8496 0 5 2.8496 1
gene 2 10 12 -0.605104 0 6 -0.605104 1
gene 1 11 12 4.76978 0 7 4.76978 1
gene 1 1 13 4.72007 0 5 4.72007 1
gene 2 2 14 -1.32557 0 6 -1.32557 1
gene 1 3 15 2.43393 0 7 2.43393 1
genomeend 29

/* Organism #4 Fitness: 5834.97 Error: 0 */
genomestart 4
trait 1 0.208451 0.122524 0 0.0338565 0.0565804 0.0978461 0.0127338 0.000359546 
trait 2 0.13125 0.00965237 0.000352036 0.328257 0.0815258 0.393662 0.076855 0.0659014 
trait 3 0.455465 0 0.183862 0.110561 0.0739437 0.132894 0 0.123579 
node 1 1 1 1
node 2 1 1 1
node 3 3 1 1
node 4 2 1 1
node 5 3 1 1
node 6 3 1 1
node 7 2 1 1
node 8 3 1 1
node 9 1 1 1
node 10 2 1 1
node 11 1 1 3
node 12 2 0 2
node 13 2 0 2
node 14 3 0 2
node 15 1 0 2
node 16 1 0 2
gene 2 1 12 -0.347983 0 1 -0.347983 1
gene 1 2 13 0.00785408 0 2 0.00785408 1
gene 2 3 14 3.99692 0 3 3.99692 1
gene 3 4 15 -2.48395 0 4 -2.48395 1
gene 1 5 16 -6.88383 0 5 -6.88383 1
gene 2 6 12 -1.66142 0 2 -1.66142 1
gene 1 7 12 -0.936918 0 3 -0.936918 1
gene 2 8 12 1.99177 0 4 1.99177 0
gene 2 9 12 -2.43584 0 5 -2.43584 1
gene 2 10 12 -4.79505 0 6 -4.79505 1
gene 1 11 12 -2.75872 0 7 -2.75872 1
gene 1 1 13 5.95838 0 5 5.95838 0
gene 2 2 14 2.93351 0 6 2.93351 1
gene 1 3 15 -3.51612 0 7 -3.51612 1
genomeend 4

/* Species #2 : (Size 2) (AF 0) (Age 1)  */


/* Organism #4 Fitness: 13120.1 Error: 0 */
genomestart 4
trait 1 0.1 0 0 0 0.019138 0 0.0145529 0.000359546 
trait 2 0.13125 0.00965237 0.000704072 0.0354663 0.0815258 0.00213975 0.15371 0.0659175 
trait 3 0.466408 0 0.193951 0.110561 0.0787912 0.141606 0 0.121095 
node 1 1 1 1
node 2 1 1 1
node 3 3 1 1
node 4 2 1 1
node 5 3 1 1
node 6 3 1 1
node 7 2 1 1
node 8 3 1 1
node 9 1 1 1
node 10 2 1 1
node 11 1 1 3
node 12 2 0 2
node 13 2 0 2
node 14 3 0 2
node 15 1 0 2
node 16 1 0 2
node 26 1 0 0
gene 2 1 12 -1.73797 0 1 -1.73797 1
gene 1 2 13 -3.19525 0 2 -3.19525 1
gene 2 3 14 -4.30454 0 3 -4.30454 1
gene 3 4 15 0.016358 0 4 0.016358 1
gene 1 5 16 -3.87243 0 5 -3.87243 1
gene 2 6 12 -0.16175 0 2 -0.16175 1
gene 1 7 12 2.63301 0 3 2.63301 1
gene 2 8 12 6.28014 0 4 6.28014 1
gene 2 9 12 2.15403 0 5 2.15403 1
gene 2 10 12 -2.2124 0 6 -2.2124 1
gene 1 11 12 2.59919 0 7 2.59919 1
gene 1 1 13 2.95881 0 5 2.95881 0
gene 2 2 14 0.141045 0 6 0.141045 1
gene 1 3 15 -5.33769 0 7 -5.33769 1
gene 3 12 15 -0.444273 0 23 -0.444273 1
gene 1 1 26 1 0 40 0 1
gene 1 26 13 2.95881 0 41 0 1
genomeend 4

/* Organism #43 Fitness: 11426.2 Error: 0 */
genomestart 43
trait 1 0.1 0 0 0 0.019138 0 0.0145529 0.000359546 
trait 2 0.13125 0.00965237 0.000704072 0.0354663 0.0815258 0.00213975 0.15371 0.0659175 
trait 3 0.466408 0 0.193951 0.110561 0.0787912 0.141606 0 0.121095 
node 1 1 1 1
node 2 1 1 1
node 3 3 1 1
node 4 2 1 1
node 5 3 1 1
node 6 3 1 1
node 7 2 1 1
node 8 3 1 1
node 9 1 1 1
node 10 2 1 1
node 11 1 1 3
node 12 2 0 2
node 13 2 0 2
node 14 3 0 2
node 15 1 0 2
node 16 1 0 2
node 26 1 0 0
gene 2 1 12 -0.622883 0 1 -0.622883 1
gene 1 2 13 -3.19525 0 2 -3.19525 1
gene 2 3 14 2.18436 0 3 2.18436 1
gene 3 4 15 -0.137684 0 4 -0.137684 1
gene 1 5 16 -1.49763 0 5 -1.49763 1
gene 2 6 12 -0.845899 0 2 -0.845899 1
gene 1 7 12 3.98971 0 3 3.98971 1
gene 2 8 12 -2.49359 0 4 -2.49359 1
gene 2 9 12 2.31788 0 5 2.31788 1
gene 2 10 12 -0.418598 0 6 -0.418598 1
gene 1 11 12 2.59919 0 7 2.59919 1
gene 1 1 13 3.97439 0 5 3.97439 0
gene 2 2 14 -1.74294 0 6 -1.74294 1
gene 1 3 15 -3.11342 0 7 -3.11342 1
gene 3 12 15 -0.89053 0 23 -0.89053 1
gene 1 1 26 -0.482437 0 40 -0.482437 1
gene 1 26 13 0.642531 0 41 0.642531 1
genomeend 43

/* Species #3 : (Size 13) (AF 0) (Age 1)  */


/* Organism #32 Fitness: 10433.7 Error: 0 */
genomestart 32
trait 1 0.1 0 0 0 0.019138 0 0.0145529 0.000359546 
trait 2 0.123047 0.022947 0.000704072 0.0341941 0.10171 0.00200601 0.15371 0.0659175 
trait 3 0.466408 0 0.193951 0.110561 0.0787912 0.141606 0 0.121095 
node 1 1 1 1
node 2 2 1 1
node 3 2 1 1
node 4 1 1 1
node 5 1 1 1
node 6 3 1 1
node 7 2 1 1
node 8 1 1 1
node 9 3 1 1
node 10 1 1 1
node 11 2 1 3
node 12 2 0 2
node 13 3 0 2
node 14 2 0 2
node 15 1 0 2
node 16 3 0 2
node 19 1 0 0
gene 2 1 12 5.65894 0 1 5.65894 1
gene 3 2 13 -2.11516 0 2 -2.11516 1
gene 2 3 14 -5.24864 0 3 -5.24864 1
gene 3 4 15 -1.17241 0 4 -1.17241 1
gene 1 5 16 -1.5268 0 5 -1.5268 1
gene 2 6 12 1.61017 0 2 1.61017 1
gene 1 7 12 -2.38601 0 3 -2.38601 1
gene 3 8 12 -0.719965 0 4 -0.719965 0
gene 1 9 12 -2.69833 0 5 -2.69833 1
gene 3 10 12 -5.17248 0 6 -5.17248 1
gene 2 11 12 0.0766966 0 7 0.0766966 1
gene 1 1 13 1.92894 0 5 1.92894 0
gene 2 2 14 0.780091 0 6 0.780091 1
gene 2 3 15 -0.562337 0 7 -0.562337 1
gene 1 1 19 3.57317 0 18 3.57317 1
gene 1 19 13 2.05557 0 19 2.05557 1
gene 3 6 14 -2.49947 0 22 -2.49947 1
genomeend 32

/* Organism #41 Fitness: 10393.1 Error: 0 */
genomestart 41
trait 1 0.1 0 0 0 0.019138 0 0.0145529 0.000359546 
trait 2 0.114844 0.0362416 0.000704072 0.0329218 0.121894 0.00187228 0.15371 0.0659175 
trait 3 0.466408 0 0.193951 0.110561 0.0787912 0.141606 0 0.121095 
node 1 1 1 1
node 2 2 1 1
node 3 2 1 1
node 4 1 1 1
node 5 1 1 1
node 6 3 1 1
node 7 2 1 1
node 8 1 1 1
node 9 3 1 1
node 10 1 1 1
node 11 2 1 3
node 12 2 0 2
node 13 3 0 2
node 14 2 0 2
node 15 1 0 2
node 16 3 0 2
node 19 1 0 0
gene 2 1 12 3.63412 0 1 3.63412 1
gene 3 2 13 -3.29012 0 2 -3.29012 1
gene 2 3 14 -0.65672 0 3 -0.65672 1
gene 3 4 15 -1.10994 0 4 -1.10994 1
gene 1 5 16 -1.2685 0 5 -1.2685 1
gene 2 6 12 2.27357 0 2 2.27357 1
gene 1 7 12 -2.55359 0 3 -2.55359 1
gene 3 8 12 -0.662942 0 4 -0.662942 0
gene 1 9 12 -2.81853 0 5 -2.81853 1
gene 3 10 12 -6.25736 0 6 -6.25736 1
gene 2 11 12 -2.32557 0 7 -2.32557 1
gene 1 1 13 0.522279 0 5 0.522279 1
gene 2 2 14 -1.10389 0 6 -1.10389 1
gene 2 3 15 -0.8549 0 7 -0.8549 1
gene 1 1 19 1.67692 0 18 1.67692 1
gene 1 19 13 0.824381 0 19 0.824381 1
gene 3 6 14 -3.66085 0 22 -3.66085 1
genomeend 41

/* Organism #26 Fitness: 9561.69 Error: 0 */
genomestart 26
trait 1 0.1 0 0 0 0.019138 0 0.0145529 0.000359546 
trait 2 0.13125 0.00965237 0.000704072 0.0354663 0.0815258 0.00213975 0.15371 0.0659175 
trait 3 0.466408 0 0.193951 0.110561 0.0787912 0.141606 0 0.121095 
node 1 1 1 1
node 2 2 1 1
node 3 2 1 1
node 4 1 1 1
node 5 1 1 1
node 6 3 1 1
node 7 2 1 1
node 8 1 1 1
node 9 3 1 1
node 10 1 1 1
node 11 2 1 3
node 12 2 0 2
node 13 3 0 2
node 14 2 0 2
node 15 1 0 2
node 16 3 0 2
node 19 1 0 0
gene 2 1 12 1.42544 0 1 1.42544 1
gene 3 2 13 5.35603 0 2 5.35603 1
gene 2 3 14 -4.44076 0 3 -4.44076 1
gene 3 4 15 -6.30032 0 4 -6.30032 1
gene 1 5 16 -1.90497 0 5 -1.90497 1
gene 2 6 12 6.4349 0 2 6.4349 1
gene 1 7 12 -1.05144 0 3 -1.05144 1
gene 3 8 12 -0.356661 0 4 -0.356661 0
gene 1 9 12 -0.795618 0 5 -0.795618 1
gene 3 10 12 1.63739 0 6 1.63739 1
gene 2 11 12 1.95867 0 7 1.95867 1
gene 1 1 13 -0.910978 0 5 -0.910978 1
gene 2 2 14 3.49666 0 6 3.49666 1
gene 2 3 15 -1.85964 0 7 -1.85964 1
gene 1 1 19 -0.0883511 0 18 -0.0883511 1
gene 1 19 13 -3.46744 0 19 -3.46744 1
gene 3 6 14 -4.46219 0 22 -4.46219 1
genomeend 26

/* Organism #164 Fitness: 11302.7 Error: 0 */
genomestart 164
trait 1 0.1 0 0 0 0.019138 0 0.0145529 0.000359546 
trait 2 0.114844 0.0362416 0.000704072 0.0329218 0.121894 0.00187228 0.15371 0.0659175 
trait 3 0.466408 0 0.193951 0.110561 0.0787912 0.141606 0 0.121095 
node 1 1 1 1
node 2 2 1 1
node 3 2 1 1
node 4 1 1 1
node 5 1 1 1
node 6 3 1 1
node 7 2 1 1
node 8 1 1 1
node 9 3 1 1
node 10 1 1 1
node 11 2 1 3
node 12 2 0 2
node 13 3 0 2
node 14 2 0 2
node 15 1 0 2
node 16 3 0 2
node 19 1 0 0
gene 2 1 12 0.923764 0 1 0.923764 0
gene 3 2 13 2.55244 0 2 2.55244 1
gene 2 3 14 -0.00751485 0 3 -0.00751485 1
gene 3 4 15 -0.0800582 0 4 -0.0800582 1
gene 1 5 16 -0.112597 0 5 -0.112597 1
gene 2 6 12 1.1791 0 2 1.1791 0
gene 1 7 12 -3.00359 0 3 -3.00359 1
gene 3 8 12 0.836513 0 4 0.836513 0
gene 1 9 12 1.1137 0 5 1.1137 1
gene 3 10 12 -4.97997 0 6 -4.97997 1
gene 2 11 12 3.86656 0 7 3.86656 1
gene 1 1 13 1.14375 0 5 1.14375 0
gene 2 2 14 -0.0428213 0 6 -0.0428213 1
gene 2 3 15 3.06914 0 7 3.06914 1
gene 1 1 19 5.76466 0 18 5.76466 1
gene 1 19 13 -1.54963 0 19 -1.54963 1
gene 3 6 14 2.35803 0 22 2.35803 1
genomeend 164

/* Organism #31 Fitness: 9362.15 Error: 0 */
genomestart 31
trait 1 0.1 0 0 0 0.019138 0 0.0145529 0.000359546 
trait 2 0.13125 0.00965237 0.000704072 0.0354663 0.0815258 0.00213975 0.15371 0.0659175 
trait 3 0.466408 0 0.193951 0.110561 0.0787912 0.141606 0 0.121095 
node 1 1 1 1
node 2 2 1 1
node 3 2 1 1
node 4 1 1 1
node 5 1 1 1
node 6 3 1 1
node 7 2 1 1
node 8 1 1 1
node 9 3 1 1
node 10 1 1 1
node 11 2 1 3
node 12 2 0 2
node 13 3 0 2
node 14 2 0 2
node 15 1 0 2
node 16 3 0 2
node 19 1 0 0
gene 2 1 12 6.2758 0 1 6.2758 1
gene 3 2 13 6.50879 0 2 6.50879 1
gene 2 3 14 -0.92501 0 3 -0.92501 1
gene 3 4 15 -4.96031 0 4 -4.96031 1
gene 1 5 16 -1.93037 0 5 -1.93037 1
gene 2 6 12 7.56965 0 2 7.56965 1
gene 1 7 12 -0.929289 0 3 -0.929289 1
gene 3 8 12 -4.49072 0 4 -4.49072 0
gene 1 9 12 1.27622 0 5 1.27622 1
gene 3 10 12 -8 0 6 -8 1
gene 2 11 12 2.02077 0 7 2.02077 1
gene 1 1 13 3.16403 0 5 3.16403 1
gene 2 2 14 3.568 0 6 3.568 1
gene 2 3 15 -1.26221 0 7 -1.26221 1
gene 1 1 19 5.13686 0 18 5.13686 1
gene 1 19 13 -3.46744 0 19 -3.46744 1
gene 3 6 14 -2.40211 0 22 -2.40211 1
genomeend 31

/* Organism #15 Fitness: 10467.1 Error: 0 */
genomestart 15
trait 1 0.1 0 0 0 0.019138 0 0.0145529 0.000359546 
trait 2 0.13125 0.00965237 0.000704072 0.0354663 0.0815258 0.00213975 0.15371 0.0659175 
trait 3 0.466408 0 0.193951 0.110561 0.0787912 0.141606 0 0.121095 
node 1 1 1 1
node 2 2 1 1
node 3 2 1 1
node 4 1 1 1
node 5 1 1 1
node 6 3 1 1
node 7 2 1 1
node 8 1 1 1
node 9 3 1 1
node 10 1 1 1
node 11 2 1 3
node 12 2 0 2
node 13 3 0 2
node 14 2 0 2
node 15 1 0 2
node 16 3 0 2
node 19 1 0 0
gene 2 1 12 5.43896 0 1 5.43896 1
gene 3 2 13 5.35603 0 2 5.35603 1
gene 2 3 14 -3.4853 0 3 -3.4853 1
gene 3 4 15 -3.81886 0 4 -3.81886 1
gene 1 5 16 -0.580391 0 5 -0.580391 1
gene 2 6 12 4.05339 0 2 4.05339 1
gene 1 7 12 3.22597 0 3 3.22597 1
gene 3 8 12 -2.4719 0 4 -2.4719 0
gene 1 9 12 3.12573 0 5 3.12573 1
gene 3 10 12 -7.65917 0 6 -7.65917 1
gene 2 11 12 -0.168929 0 7 -0.168929 1
gene 1 1 13 4.23452 0 5 4.23452 1
gene 2 2 14 3.65483 0 6 3.65483 1
gene 2 3 15 -1.64594 0 7 -1.64594 1
gene 1 1 19 -0.0261696 0 18 -0.0261696 1
gene 1 19 13 -3.46744 0 19 -3.46744 1
gene 3 6 14 -2.49596 0 22 -2.49596 1
genomeend 15

/* Organism #28 Fitness: 9893.26 Error: 0 */
genomestart 28
trait 1 0.1 0 0 0 0.019138 0 0.0145529 0.000359546 
trait 2 0.13125 0.00965237 0.000704072 0.0354663 0.0815258 0.00213975 0.15371 0.0659175 
trait 3 0.466408 0 0.193951 0.110561 0.0787912 0.141606 0 0.121095 
node 1 1 1 1
node 2 2 1 1
node 3 2 1 1
node 4 1 1 1
node 5 1 1 1
node 6 3 1 1
node 7 2 1 1
node 8 1 1 1
node 9 3 1 1
node 10 1 1 1
node 11 2 1 3
node 12 2 0 2
node 13 3 0 2
node 14 2 0 2
node 15 1 0 2
node 16 3 0 2
node 19 1 0 0
gene 2 1 12 5.48605 0 1 5.48605 1
gene 3 2 13 5.76476 0 2 5.76476 1
gene 2 3 14 -1.92652 0 3 -1.92652 1
gene 3 4 15 -2.0841 0 4 -2.0841 1
gene 1 5 16 -1.63015 0 5 -1.63015 1
gene 2 6 12 3.6061 0 2 3.6061 1
gene 1 7 12 0.966621 0 3 0.966621 1
gene 3 8 12 -1.57852 0 4 -1.57852 1
gene 1 9 12 -0.604686 0 5 -0.604686 1
gene 3 10 12 -6.06189 0 6 -6.06189 1
gene 2 11 12 0.977856 0 7 0.977856 1
gene 1 1 13 1.38168 0 5 1.38168 0
gene 2 2 14 -1.128 0 6 -1.128 1
gene 2 3 15 -0.99147 0 7 -0.99147 1
gene 1 1 19 5.85248 0 18 5.85248 1
gene 1 19 13 -2.01657 0 19 -2.01657 1
gene 3 6 14 -0.564728 0 22 -0.564728 1
genomeend 28

/* Organism #73 Fitness: 10765.9 Error: 0 */
genomestart 73
trait 1 0.1 0 0 0 0.019138 0 0.0145529 0.000359546 
trait 2 0.13125 0.00965237 0.000704072 0.0354663 0.0815258 0.00213975 0.15371 0.0659175 
trait 3 0.466408 0 0.193951 0.110561 0.0787912 0.141606 0 0.121095 
node 1 1 1 1
node 2 2 1 1
node 3 2 1 1
node 4 1 1 1
node 5 1 1 1
node 6 3 1 1
node 7 2 1 1
node 8 1 1 1
node 9 3 1 1
node 10 1 1 1
node 11 2 1 3
node 12 2 0 2
node 13 3 0 2
node 14 2 0 2
node 15 1 0 2
node 16 3 0 2
node 19 1 0 0
gene 2 1 12 5.68192 0 1 5.68192 1
gene 3 2 13 4.96975 0 2 4.96975 1
gene 2 3 14 -1.67972 0 3 -1.67972 1
gene 3 4 15 -2.70793 0 4 -2.70793 1
gene 1 5 16 -2.32498 0 5 -2.32498 1
gene 2 6 12 3.75299 0 2 3.75299 1
gene 1 7 12 0.963113 0 3 0.963113 1
gene 3 8 12 -3.05901 0 4 -3.05901 0
gene 1 9 12 1.14398 0 5 1.14398 1
gene 3 10 12 -6.2278 0 6 -6.2278 1
gene 2 11 12 -0.558211 0 7 -0.558211 1
gene 1 1 13 2.09701 0 5 2.09701 1
gene 2 2 14 3.41785 0 6 3.41785 1
gene 2 3 15 -0.403414 0 7 -0.403414 1
gene 1 1 19 5.13686 0 18 5.13686 1
gene 1 19 13 -1.23216 0 19 -1.23216 1
gene 3 6 14 1.99978 0 22 1.99978 1
genomeend 73

/* Organism #71 Fitness: 10687.1 Error: 0 */
genomestart 71
trait 1 0.1 0 0 0 0.019138 0 0.0145529 0.000359546 
trait 2 0.13125 0.00965237 0.000704072 0.0354663 0.0815258 0.00213975 0.15371 0.0659175 
trait 3 0.466408 0 0.193951 0.592814 0 0 0 0 
node 1 1 1 1
node 2 2 1 1
node 3 2 1 1
node 4 1 1 1
node 5 1 1 1
node 6 3 1 1
node 7 2 1 1
node 8 1 1 1
node 9 3 1 1
node 10 1 1 1
node 11 2 1 3
node 12 2 0 2
node 13 3 0 2
node 14 2 0 2
node 15 1 0 2
node 16 3 0 2
node 19 1 0 0
gene 2 1 12 -1.89879 0 1 -1.89879 1
gene 3 2 13 4.42605 0 2 4.42605 1
gene 2 3 14 -3.97492 0 3 -3.97492 1
gene 3 4 15 -0.980941 0 4 -0.980941 1
gene 1 5 16 -4.72961 0 5 -4.72961 1
gene 2 6 12 0.903364 0 2 0.903364 1
gene 1 7 12 2.68312 0 3 2.68312 1
gene 3 8 12 -1.56064 0 4 -1.56064 0
gene 1 9 12 1.98637 0 5 1.98637 1
gene 3 10 12 -2.12462 0 6 -2.12462 1
gene 3 11 12 1.66251 0 7 1.66251 1
gene 1 1 13 2.17154 0 5 2.17154 1
gene 2 2 14 -2.30079 0 6 -2.30079 1
gene 2 3 15 -2.60956 0 7 -2.60956 1
gene 1 1 19 4.54648 0 18 4.54648 1
gene 1 19 13 -3.53188 0 19 -3.53188 1
gene 3 6 14 -2.42565 0 22 -2.42565 1
genomeend 71

/* Organism #23 Fitness: 10445.8 Error: 0 */
genomestart 23
trait 1 0.1 0 0 0 0.019138 0 0.0145529 0.000359546 
trait 2 0.13125 0.00965237 0.000704072 0.0354663 0.0815258 0.00213975 0.15371 0.0659175 
trait 3 0.466408 0 0.193951 0.110561 0.0787912 0.141606 0 0.121095 
node 1 1 1 1
node 2 2 1 1
node 3 2 1 1
node 4 1 1 1
node 5 1 1 1
node 6 3 1 1
node 7 2 1 1
node 8 1 1 1
node 9 3 1 1
node 10 1 1 1
node 11 2 1 3
node 12 2 0 2
node 13 3 0 2
node 14 2 0 2
node 15 1 0 2
node 16 3 0 2
node 19 1 0 0
gene 2 1 12 5.68192 0 1 5.68192 1
gene 3 2 13 4.93574 0 2 4.93574 1
gene 2 3 14 -1.76755 0 3 -1.76755 1
gene 3 4 15 -2.70793 0 4 -2.70793 1
gene 1 5 16 -2.27981 0 5 -2.27981 1
gene 2 6 12 4.14115 0 2 4.14115 1
gene 1 7 12 0.963113 0 3 0.963113 1
gene 3 8 12 -3.32606 0 4 -3.32606 0
gene 1 9 12 1.05191 0 5 1.05191 1
gene 3 10 12 -6.84095 0 6 -6.84095 1
gene 2 11 12 -0.294112 0 7 -0.294112 1
gene 1 1 13 2.09701 0 5 2.09701 1
gene 2 2 14 3.66032 0 6 3.66032 1
gene 2 3 15 -0.403414 0 7 -0.403414 1
gene 1 1 19 5.13686 0 18 5.13686 1
gene 1 19 13 -0.253075 0 19 -0.253075 1
gene 3 6 14 1.99978 0 22 1.99978 1
genomeend 23

/* Organism #79 Fitness: 10321.7 Error: 0 */
genomestart 79
trait 1 0.1 0 0 0 0.019138 0 0.0145529 0.000359546 
trait 2 0.13125 0.00965237 0.000704072 0.0354663 0.0815258 0.00213975 0.15371 0.0659175 
trait 3 0.466408 0 0.193951 0.110561 0.0787912 0.141606 0 0.121095 
node 1 1 1 1
node 2 2 1 1
node 3 2 1 1
node 4 1 1 1
node 5 1 1 1
node 6 3 1 1
node 7 2 1 1
node 8 1 1 1
node 9 3 1 1
node 10 1 1 1
node 11 2 1 3
node 12 2 0 2
node 13 3 0 2
node 14 2 0 2
node 15 1 0 2
node 16 3 0 2
node 19 1 0 0
gene 2 1 12 6.33172 0 1 6.33172 1
gene 3 2 13 4.53874 0 2 4.53874 1
gene 2 3 14 -5.96518 0 3 -5.96518 1
gene 3 4 15 -1.8974 0 4 -1.8974 1
gene 1 5 16 0.48818 0 5 0.48818 1
gene 3 6 12 1.25101 0 2 1.25101 1
gene 1 7 12 2.51141 0 3 2.51141 1
gene 3 8 12 -0.359551 0 4 -0.359551 0
gene 1 9 12 2.10342 0 5 2.10342 1
gene 3 10 12 -6.82256 0 6 -6.82256 1
gene 2 11 12 2.69544 0 7 2.69544 1
gene 1 1 13 -0.814615 0 5 -0.814615 0
gene 2 2 14 1.04893 0 6 1.04893 1
gene 2 3 15 -0.294272 0 7 -0.294272 1
gene 1 1 19 5.36506 0 18 5.36506 1
gene 1 19 13 1.84668 0 19 1.84668 1
gene 3 6 14 1.62747 0 22 1.62747 1
genomeend 79

/* Organism #177 Fitness: 8690.99 Error: 0 */
genomestart 177
trait 1 0.1 0 0 0 0.019138 0 0.0145529 0.000359546 
trait 2 0.114844 0.0362416 0.000704072 0.0329218 0.121894 0.00187228 0.15371 0.0659175 
trait 3 0.466408 0 0.193951 0.110561 0.0787912 0.141606 0 0.121095 
node 1 1 1 1
node 2 2 1 1
node 3 2 1 1
node 4 1 1 1
node 5 1 1 1
node 6 3 1 1
node 7 2 1 1
node 8 1 1 1
node 9 3 1 1
node 10 1 1 1
node 11 2 1 3
node 12 2 0 2
node 13 3 0 2
node 14 2 0 2
node 15 1 0 2
node 16 3 0 2
node 19 1 0 0
gene 2 1 12 3.7655 0 1 3.7655 1
gene 3 2 13 -1.9248 0 2 -1.9248 1
gene 2 3 14 0.495964 0 3 0.495964 1
gene 3 4 15 -1.10994 0 4 -1.10994 1
gene 1 5 16 -3.64975 0 5 -3.64975 1
gene 2 6 12 -0.204078 0 2 -0.204078 1
gene 1 7 12 -2.14418 0 3 -2.14418 1
gene 3 8 12 1.16443 0 4 1.16443 0
gene 1 9 12 -0.823153 0 5 -0.823153 1
gene 3 10 12 -6.25736 0 6 -6.25736 1
gene 2 11 12 -1.36866 0 7 -1.36866 1
gene 1 1 13 0.610096 0 5 0.610096 1
gene 2 2 14 0.780091 0 6 0.780091 1
gene 2 3 15 -1.45947 0 7 -1.45947 1
gene 1 1 19 5.13686 0 18 5.13686 1
gene 1 19 13 2.05557 0 19 2.05557 1
gene 3 6 14 -2.49947 0 22 -2.49947 1
genomeend 177

/* Organism #47 Fitness: 9419.68 Error: 0 */
genomestart 47
trait 1 0.1 0 0 0 0.019138 0 0.0145529 0.000359546 
trait 2 0.123047 0.022947 0.000704072 0.0341941 0.10171 0.00200601 0.15371 0.0659175 
trait 3 0.466408 0 0.193951 0.110561 0.0787912 0.141606 0 0.121095 
node 1 1 1 1
node 2 2 1 1
node 3 2 1 1
node 4 1 1 1
node 5 1 1 1
node 6 3 1 1
node 7 2 1 1
node 8 1 1 1
node 9 3 1 1
node 10 1 1 1
node 11 2 1 3
node 12 2 0 2
node 13 3 0 2
node 14 2 0 2
node 15 1 0 2
node 16 3 0 2
node 19 1 0 0
gene 2 1 12 7.22126 0 1 7.22126 1
gene 3 2 13 -1.37211 0 2 -1.37211 1
gene 2 3 14 -3.63314 0 3 -3.63314 1
gene 3 4 15 0.117453 0 4 0.117453 1
gene 1 5 16 -2.99413 0 5 -2.99413 1
gene 2 6 12 -0.413588 0 2 -0.413588 1
gene 1 7 12 -2.47353 0 3 -2.47353 1
gene 3 8 12 0.843498 0 4 0.843498 0
gene 1 9 12 -3.50364 0 5 -3.50364 1
gene 3 10 12 -5.5648 0 6 -5.5648 1
gene 2 11 12 -1.63303 0 7 -1.63303 1
gene 1 1 13 2.71846 0 5 2.71846 0
gene 2 2 14 0.667707 0 6 0.667707 1
gene 2 3 15 0.262121 0 7 0.262121 1
gene 1 1 19 -1.36303 0 18 -1.36303 1
gene 1 19 13 2.05557 0 19 2.05557 1
gene 3 6 14 -2.49947 0 22 -2.49947 1
genomeend 47

/* Species #4 : (Size 4) (AF 0) (Age 1)  */


/* Organism #21 Fitness: 10853.6 Error: 0 */
genomestart 21
trait 1 0.1 0 0 0 0.019138 0 0.0145529 0.000359546 
trait 2 0.13125 0.00965237 0.000704072 0.0354663 0.0815258 0.00213975 0.15371 0.0659175 
trait 3 0.466408 0 0.193951 0.110561 0.0787912 0.141606 0 0.121095 
node 1 1 1 1
node 2 2 1 1
node 3 2 1 1
node 4 1 1 1
node 5 1 1 1
node 6 3 1 1
node 7 2 1 1
node 8 1 1 1
node 9 3 1 1
node 10 1 1 1
node 11 2 1 3
node 12 1 0 2
node 13 3 0 2
node 14 2 0 2
node 15 1 0 2
node 16 3 0 2
node 19 1 0 0
node 22 1 0 0
gene 2 1 12 3.96166 0 1 3.96166 0
gene 3 2 13 1.59916 0 2 1.59916 1
gene 2 3 14 -3.00066 0 3 -3.00066 1
gene 3 4 15 0.0285497 0 4 0.0285497 1
gene 1 5 16 0.748235 0 5 0.748235 1
gene 2 6 12 -2.48236 0 2 -2.48236 1
gene 1 7 12 1.74486 0 3 1.74486 1
gene 3 8 12 -0.833688 0 4 -0.833688 0
gene 1 9 12 -0.799874 0 5 -0.799874 1
gene 3 10 12 -2.89537 0 6 -2.89537 1
gene 2 11 12 2.29783 0 7 2.29783 1
gene 1 1 13 -1.69367 0 5 -1.69367 0
gene 2 2 14 5.21172 0 6 5.21172 1
gene 2 3 15 5.74691 0 7 5.74691 1
gene 1 1 19 4.93743 0 18 4.93743 1
gene 1 19 13 -3.78099 0 19 -3.78099 1
gene 3 6 14 0.19512 0 22 0.19512 1
gene 2 1 22 0.811473 0 28 0.811473 1
gene 2 22 12 2.44374 0 29 2.44374 1
genomeend 21

/* Organism #19 Fitness: 10683.5 Error: 0 */
genomestart 19
trait 1 0.1 0 0 0 0.019138 0 0.0145529 0.000359546 
trait 2 0 0 0.000704072 0 0.0815258 0.00213975 0.286801 0 
trait 3 0.466408 0 0.193951 0.110561 0.0787912 0.141606 0 0.121095 
node 1 1 1 1
node 2 2 1 1
node 3 2 1 1
node 4 1 1 1
node 5 1 1 1
node 6 3 1 1
node 7 2 1 1
node 8 1 1 1
node 9 3 1 1
node 10 1 1 1
node 11 2 1 3
node 12 1 0 2
node 13 3 0 2
node 14 2 0 2
node 15 1 0 2
node 16 3 0 2
node 19 1 0 0
node 22 1 0 0
gene 2 1 12 -0.0928526 0 1 -0.0928526 0
gene 3 2 13 4.61629 0 2 4.61629 1
gene 2 3 14 0.650117 0 3 0.650117 1
gene 3 4 15 3.47874 0 4 3.47874 1
gene 1 5 16 -1.82119 0 5 -1.82119 1
gene 2 6 12 -3.65473 0 2 -3.65473 1
gene 1 7 12 2.42222 0 3 2.42222 1
gene 3 8 12 2.83273 0 4 2.83273 0
gene 1 9 12 -0.219336 0 5 -0.219336 1
gene 3 10 12 -3.91362 0 6 -3.91362 1
gene 2 11 12 -2.29261 0 7 -2.29261 1
gene 1 1 13 -0.604953 0 5 -0.604953 0
gene 2 2 14 3.54015 0 6 3.54015 1
gene 2 3 15 3.79174 0 7 3.79174 1
gene 1 1 19 5.29037 0 18 5.29037 1
gene 1 19 13 -3.9686 0 19 -3.9686 1
gene 3 6 14 2.04225 0 22 2.04225 1
gene 2 1 22 0.612583 0 28 0.612583 1
gene 2 22 12 5.37573 0 29 5.37573 1
genomeend 19

/* Organism #50 Fitness: 10681.7 Error: 0 */
genomestart 50
trait 1 0.1 0 0 0 0.019138 0 0.0145529 0.000359546 
trait 2 0 0 0.000704072 0 0.0815258 0.00213975 0.286801 0 
trait 3 0.466408 0 0.193951 0.110561 0.0787912 0.141606 0 0.121095 
node 1 1 1 1
node 2 2 1 1
node 3 2 1 1
node 4 1 1 1
node 5 1 1 1
node 6 2 1 1
node 7 2 1 1
node 8 1 1 1
node 9 3 1 1
node 10 1 1 1
node 11 2 1 3
node 12 1 0 2
node 13 3 0 2
node 14 2 0 2
node 15 1 0 2
node 16 3 0 2
node 19 1 0 0
node 22 1 0 0
gene 2 1 12 0.48265 0 1 0.48265 0
gene 3 2 13 4.61629 0 2 4.61629 1
gene 2 3 14 3.04895 0 3 3.04895 1
gene 3 4 15 3.47874 0 4 3.47874 1
gene 1 5 16 -0.783792 0 5 -0.783792 1
gene 2 6 12 -3.82265 0 2 -3.82265 1
gene 1 7 12 2.64379 0 3 2.64379 1
gene 3 8 12 1.3947 0 4 1.3947 0
gene 1 9 12 1.33894 0 5 1.33894 1
gene 3 10 12 -2.39959 0 6 -2.39959 1
gene 2 11 12 -0.395428 0 7 -0.395428 1
gene 1 1 13 1.71361 0 5 1.71361 0
gene 2 2 14 2.38456 0 6 2.38456 1
gene 2 3 15 5.0816 0 7 5.0816 1
gene 1 1 19 7.15818 0 18 7.15818 1
gene 1 19 13 -6.36911 0 19 -6.36911 1
gene 3 6 14 1.08298 0 22 1.08298 1
gene 2 1 22 2.45354 0 28 2.45354 1
gene 2 22 12 5.37573 0 29 5.37573 1
genomeend 50

/* Organism #134 Fitness: 10719.6 Error: 0 */
genomestart 134
trait 1 0.1 0 0 0 0.019138 0 0.0145529 0.000359546 
trait 2 0.13125 0.00965237 0.000704072 0.0354663 0.0815258 0.00213975 0.15371 0.0659175 
trait 3 0.466408 0 0.193951 0.110561 0.0787912 0.141606 0 0.121095 
node 1 1 1 1
node 2 2 1 1
node 3 2 1 1
node 4 1 1 1
node 5 1 1 1
node 6 3 1 1
node 7 2 1 1
node 8 1 1 1
node 9 3 1 1
node 10 1 1 1
node 11 2 1 3
node 12 1 0 2
node 13 3 0 2
node 14 2 0 2
node 15 1 0 2
node 16 3 0 2
node 19 1 0 0
node 22 1 0 0
gene 2 1 12 4.51305 0 1 4.51305 0
gene 3 2 13 2.63503 0 2 2.63503 1
gene 2 3 14 -1.22227 0 3 -1.22227 1
gene 3 4 15 1.68189 0 4 1.68189 1
gene 1 5 16 -0.912506 0 5 -0.912506 1
gene 2 6 12 -1.18906 0 2 -1.18906 1
gene 1 7 12 1.19103 0 3 1.19103 1
gene 3 8 12 1.24096 0 4 1.24096 0
gene 1 9 12 0.742226 0 5 0.742226 1
gene 3 10 12 -3.77644 0 6 -3.77644 1
gene 2 11 12 -0.103061 0 7 -0.103061 1
gene 1 1 13 -2.54895 0 5 -2.54895 0
gene 2 2 14 3.58913 0 6 3.58913 1
gene 2 3 15 3.79174 0 7 3.79174 1
gene 1 1 19 3.93291 0 18 3.93291 1
gene 1 19 13 -4.35443 0 19 -4.35443 1
gene 3 6 14 0.0126194 0 22 0.0126194 1
gene 2 1 22 1.03998 0 28 1.03998 1
gene 2 22 12 4.39387 0 29 4.39387 1
genomeend 134

/* Species #5 : (Size 2) (AF 0) (Age 1)  */


/* Organism #42 Fitness: 11024.3 Error: 0 */
genomestart 42
trait 1 0.1 0 0 0 0.019138 0 0.0145529 0.000359546 
trait 2 0.13125 0.00965237 0.000704072 0.0354663 0.0815258 0.00213975 0.15371 0.0659175 
trait 3 0.466408 0 0.193951 0.110561 0.0787912 0.141606 0 0.121095 
node 1 1 1 1
node 2 1 1 1
node 3 3 1 1
node 4 2 1 1
node 5 3 1 1
node 6 3 1 1
node 7 2 1 1
node 8 3 1 1
node 9 1 1 1
node 10 2 1 1
node 11 1 1 3
node 12 2 0 2
node 13 2 0 2
node 14 3 0 2
node 15 1 0 2
node 16 1 0 2
gene 2 1 12 1.98294 0 1 1.98294 1
gene 1 2 13 1.39744 0 2 1.39744 1
gene 2 3 14 -3.51213 0 3 -3.51213 1
gene 3 4 15 0.577327 0 4 0.577327 1
gene 2 5 16 -2.07344 0 5 -2.07344 1
gene 2 6 12 1.10759 0 2 1.10759 1
gene 1 7 12 4.46446 0 3 4.46446 1
gene 2 8 12 3.87078 0 4 3.87078 1
gene 2 9 12 1.50196 0 5 1.50196 1
gene 2 10 12 -0.194328 0 6 -0.194328 1
gene 1 11 12 -2.14331 0 7 -2.14331 1
gene 1 1 13 4.07556 0 5 4.07556 1
gene 2 2 14 2.54796 0 6 2.54796 1
gene 1 3 15 -4.71015 0 7 -4.71015 1
gene 3 12 15 -2.31399 0 23 -2.31399 1
gene 1 8 13 0.0878933 0 43 0.0878933 1
genomeend 42

/* Organism #46 Fitness: 11164.3 Error: 0 */
genomestart 46
trait 1 0.1 0 0 0 0.019138 0 0.0145529 0.000359546 
trait 2 0.13125 0.00965237 0.000704072 0.0354663 0.0815258 0.00213975 0.15371 0.0659175 
trait 3 0.466408 0 0.193951 0.110561 0.0787912 0.141606 0 0.121095 
node 1 1 1 1
node 2 1 1 1
node 3 3 1 1
node 4 2 1 1
node 5 3 1 1
node 6 3 1 1
node 7 2 1 1
node 8 3 1 1
node 9 1 1 1
node 10 2 1 1
node 11 1 1 3
node 12 2 0 2
node 13 2 0 2
node 14 3 0 2
node 15 1 0 2
node 16 1 0 2
gene 2 1 12 1.98294 0 1 1.98294 1
gene 1 2 13 1.39744 0 2 1.39744 1
gene 2 3 14 -3.51213 0 3 -3.51213 1
gene 3 4 15 0.577327 0 4 0.577327 1
gene 2 5 16 -2.07344 0 5 -2.07344 1
gene 2 6 12 1.10759 0 2 1.10759 1
gene 1 7 12 4.46446 0 3 4.46446 1
gene 2 8 12 3.87078 0 4 3.87078 1
gene 2 9 12 1.50196 0 5 1.50196 1
gene 2 10 12 -0.194328 0 6 -0.194328 1
gene 1 11 12 -2.14331 0 7 -2.14331 1
gene 1 1 13 4.07556 0 5 4.07556 1
gene 2 2 14 2.54796 0 6 2.54796 1
gene 1 3 15 -4.71015 0 7 -4.71015 1
gene 3 12 15 -2.31399 0 23 -2.31399 1
gene 1 8 13 0.0878933 0 43 0.0878933 1
genomeend 46
