
/* Species #1 : (Size 6) (AF 0) (Age 1)  */


/* Organism #544 Fitness: 7033 Error: 0 */
genomestart 544
trait 1 0.1 0 0 0 0.019138 0 0.0145529 0.000359546 
trait 2 0.575462 0.845916 0 0 0.211199 0.456345 0 0.0659175 
trait 3 0.462539 0.0194212 0.0299596 0.412389 0.214686 0 0 0.171901 
node 1 2 1 1
node 2 2 1 1
node 3 2 1 1
node 4 1 1 1
node 5 1 1 1
node 6 3 1 1
node 7 1 1 1
node 8 1 1 1
node 9 2 1 1
node 10 2 1 1
node 11 2 1 3
node 12 3 0 2
node 13 3 0 2
node 14 2 0 2
node 15 2 0 2
node 16 1 0 2
gene 3 1 12 0.948134 0 1 0.948134 1
gene 1 2 13 -7.11969 0 2 -7.11969 1
gene 1 3 14 -5.66744 0 3 -5.66744 1
gene 3 4 15 -7.06961 0 4 -7.06961 1
gene 1 5 16 7.87721 0 5 7.87721 1
gene 3 6 12 -2.17635 0 2 -2.17635 1
gene 1 7 12 0.218741 0 3 0.218741 1
gene 3 8 12 1.21209 0 4 1.21209 1
gene 3 9 12 -6.68996 0 5 -6.68996 1
gene 3 10 12 0.109638 0 6 0.109638 1
gene 2 11 12 -8 0 7 -8 1
gene 2 1 13 0.860546 0 5 0.860546 1
gene 1 2 14 0.641575 0 6 0.641575 1
gene 1 3 15 2.0658 0 7 2.0658 1
gene 3 16 12 2.1324 0 24 2.1324 1
genomeend 544

/* Organism #514 Fitness: 6410 Error: 0 */
genomestart 514
trait 1 0.1 0 0 0 0.019138 0 0.0145529 0.000359546 
trait 2 0.575462 0.845916 0 0 0.211199 0.456345 0 0.0659175 
trait 3 0.462539 0.0194212 0.0299596 0.412389 0.214686 0 0 0.171901 
node 1 2 1 1
node 2 2 1 1
node 3 2 1 1
node 4 1 1 1
node 5 1 1 1
node 6 3 1 1
node 7 1 1 1
node 8 1 1 1
node 9 2 1 1
node 10 2 1 1
node 11 2 1 3
node 12 3 0 2
node 13 3 0 2
node 14 2 0 2
node 15 2 0 2
node 16 1 0 2
gene 3 1 12 -2.24364 0 1 -2.24364 1
gene 1 2 13 -8 0 2 -8 1
gene 1 3 14 -5.28367 0 3 -5.28367 1
gene 3 4 15 -5.29809 0 4 -5.29809 1
gene 1 5 16 5.73565 0 5 5.73565 1
gene 3 6 12 -4.36514 0 2 -4.36514 1
gene 1 7 12 -2.68822 0 3 -2.68822 1
gene 3 8 12 3.0033 0 4 3.0033 1
gene 3 9 12 -4.67833 0 5 -4.67833 1
gene 3 10 12 -1.97409 0 6 -1.97409 1
gene 2 11 12 -7.35672 0 7 -7.35672 1
gene 2 1 13 0.894955 0 5 0.894955 1
gene 1 2 14 0.35577 0 6 0.35577 1
gene 1 3 15 1.64708 0 7 1.64708 1
gene 3 16 12 2.1324 0 24 2.1324 1
genomeend 514

/* Organism #501 Fitness: 5717 Error: 0 */
genomestart 501
trait 1 0.1 0 0 0 0.019138 0 0.0145529 0.000359546 
trait 2 0.575462 0.845916 0 0 0.211199 0.456345 0 0.0659175 
trait 3 0.462539 0.0194212 0.0299596 0.412389 0.214686 0 0 0.171901 
node 1 2 1 1
node 2 2 1 1
node 3 2 1 1
node 4 1 1 1
node 5 1 1 1
node 6 3 1 1
node 7 1 1 1
node 8 1 1 1
node 9 2 1 1
node 10 2 1 1
node 11 2 1 3
node 12 3 0 2
node 13 3 0 2
node 14 2 0 2
node 15 2 0 2
node 16 1 0 2
gene 3 1 12 0.448469 0 1 0.448469 1
gene 1 2 13 -6.62664 0 2 -6.62664 1
gene 1 3 14 -3.85983 0 3 -3.85983 1
gene 3 4 15 -7.13263 0 4 -7.13263 1
gene 1 5 16 8 0 5 8 1
gene 1 6 12 -4.41992 0 2 -4.41992 1
gene 1 7 12 -4.4602 0 3 -4.4602 1
gene 3 8 12 1.09157 0 4 1.09157 1
gene 3 9 12 -1.44772 0 5 -1.44772 1
gene 2 10 12 2.12302 0 6 2.12302 1
gene 2 11 12 -4.65865 0 7 -4.65865 1
gene 2 1 13 1.87361 0 5 1.87361 1
gene 1 2 14 -1.32069 0 6 -1.32069 1
gene 1 3 15 1.38508 0 7 1.38508 1
gene 3 16 12 0.316904 0 24 0.316904 1
genomeend 501

/* Organism #535 Fitness: 5181 Error: 0 */
genomestart 535
trait 1 0.1 0 0 0 0.019138 0 0.0145529 0.000359546 
trait 2 0.575462 0.845916 0 0 0.211199 0.456345 0 0.0659175 
trait 3 0.462539 0.0194212 0.0299596 0.412389 0.214686 0 0 0.171901 
node 1 2 1 1
node 2 2 1 1
node 3 2 1 1
node 4 1 1 1
node 5 1 1 1
node 6 3 1 1
node 7 1 1 1
node 8 1 1 1
node 9 2 1 1
node 10 2 1 1
node 11 2 1 3
node 12 3 0 2
node 13 3 0 2
node 14 2 0 2
node 15 2 0 2
node 16 1 0 2
gene 3 1 12 -2.18673 0 1 -2.18673 1
gene 1 2 13 -6.93693 0 2 -6.93693 1
gene 1 3 14 -6.57834 0 3 -6.57834 1
gene 3 4 15 -1.65647 0 4 -1.65647 1
gene 1 5 16 -2.47177 0 5 -2.47177 1
gene 3 6 12 -6.21158 0 2 -6.21158 1
gene 1 7 12 0.946226 0 3 0.946226 1
gene 3 8 12 -2.24166 0 4 -2.24166 1
gene 3 9 12 -4.8291 0 5 -4.8291 1
gene 3 10 12 -1.65098 0 6 -1.65098 1
gene 2 11 12 -5.04418 0 7 -5.04418 1
gene 2 1 13 3.16568 0 5 3.16568 1
gene 1 2 14 -2.0146 0 6 -2.0146 1
gene 1 3 15 1.92289 0 7 1.92289 1
gene 3 16 12 4.19263 0 24 4.19263 1
genomeend 535

/* Organism #558 Fitness: 3375 Error: 0 */
genomestart 558
trait 1 0.1 0 0 0 0.019138 0 0.0145529 0.000359546 
trait 2 0.575462 0.845916 0 0 0.211199 0.456345 0 0.0659175 
trait 3 0.462539 0.0194212 0.0299596 0.412389 0.214686 0 0 0.171901 
node 1 2 1 1
node 2 2 1 1
node 3 2 1 1
node 4 1 1 1
node 5 1 1 1
node 6 3 1 1
node 7 1 1 1
node 8 1 1 1
node 9 2 1 1
node 10 2 1 1
node 11 2 1 3
node 12 3 0 2
node 13 3 0 2
node 14 2 0 2
node 15 2 0 2
node 16 1 0 2
gene 2 1 12 -0.407727 0 1 -0.407727 1
gene 1 2 13 -6.31111 0 2 -6.31111 1
gene 1 3 14 -6.03984 0 3 -6.03984 1
gene 3 4 15 -3.55625 0 4 -3.55625 1
gene 1 5 16 7.38235 0 5 7.38235 1
gene 3 6 12 -3.59745 0 2 -3.59745 1
gene 1 7 12 -2.93245 0 3 -2.93245 1
gene 3 8 12 2.17823 0 4 2.17823 1
gene 3 9 12 -6.16253 0 5 -6.16253 1
gene 3 10 12 -2.17719 0 6 -2.17719 1
gene 2 11 12 -8 0 7 -8 1
gene 2 1 13 -3.17148 0 5 -3.17148 1
gene 1 2 14 2.75819 0 6 2.75819 1
gene 1 3 15 0.389798 0 7 0.389798 1
gene 3 16 12 2.1324 0 24 2.1324 1
genomeend 558

/* Organism #581 Fitness: 2361 Error: 0 */
genomestart 581
trait 1 0.1 0 0 0 0.019138 0 0.0145529 0.000359546 
trait 2 0.575462 0.845916 0 0 0.211199 0.456345 0 0.0659175 
trait 3 0.462539 0.0194212 0.0299596 0.412389 0.214686 0 0 0.171901 
node 1 2 1 1
node 2 2 1 1
node 3 2 1 1
node 4 1 1 1
node 5 1 1 1
node 6 3 1 1
node 7 1 1 1
node 8 1 1 1
node 9 2 1 1
node 10 2 1 1
node 11 2 1 3
node 12 3 0 2
node 13 3 0 2
node 14 2 0 2
node 15 2 0 2
node 16 1 0 2
gene 3 1 12 -1.31817 0 1 -1.31817 1
gene 1 2 13 -7.65125 0 2 -7.65125 1
gene 1 3 14 -4.04096 0 3 -4.04096 1
gene 3 4 15 -5.29809 0 4 -5.29809 1
gene 1 5 16 -1.94189 0 5 -1.94189 1
gene 3 6 12 -4.61196 0 2 -4.61196 1
gene 1 7 12 -1.18809 0 3 -1.18809 1
gene 3 8 12 2.80836 0 4 2.80836 1
gene 3 9 12 -3.36787 0 5 -3.36787 1
gene 3 10 12 -2.79008 0 6 -2.79008 1
gene 2 11 12 -4.89074 0 7 -4.89074 1
gene 2 1 13 -0.0292978 0 5 -0.0292978 1
gene 1 2 14 0.623798 0 6 0.623798 1
gene 1 3 15 3.76667 0 7 3.76667 1
gene 3 16 12 1.92022 0 24 1.92022 1
genomeend 581

/* Species #9 : (Size 34) (AF 0) (Age 1)  */


/* Organism #321 Fitness: 251016 Error: 0 */
genomestart 321
trait 1 0.1 0 0 0 0.019138 0 0.0145529 0.000359546 
trait 2 0.13125 0.00965237 0.000704072 0.0354663 0.0815258 0.00213975 0.15371 0.0659175 
trait 3 0.35645 0.0388424 0.0299596 0.42098 0.272538 0 0 0.182342 
node 1 1 1 1
node 2 1 1 1
node 3 2 1 1
node 4 3 1 1
node 5 3 1 1
node 6 3 1 1
node 7 1 1 1
node 8 3 1 1
node 9 2 1 1
node 10 2 1 1
node 11 3 1 3
node 12 2 0 2
node 13 1 0 2
node 14 1 0 2
node 15 3 0 2
node 16 1 0 2
node 20 1 0 0
gene 3 1 12 4.87206 0 1 4.87206 1
gene 1 2 13 -1.28947 0 2 -1.28947 1
gene 1 3 14 2.29791 0 3 2.29791 0
gene 3 4 15 1.92401 0 4 1.92401 1
gene 1 5 16 -2.3434 0 5 -2.3434 1
gene 3 6 12 5.47111 0 2 5.47111 1
gene 2 7 12 0.229732 0 3 0.229732 1
gene 2 8 12 4.40918 0 4 4.40918 1
gene 1 9 12 -0.367901 0 5 -0.367901 1
gene 2 10 12 2.10616 0 6 2.10616 1
gene 2 11 12 1.82722 0 7 1.82722 1
gene 3 1 13 6.31434 0 5 6.31434 1
gene 1 2 14 -0.496918 0 6 -0.496918 1
gene 1 3 15 -3.72517 0 7 -3.72517 1
gene 2 8 13 3.17103 0 12 3.17103 1
gene 1 3 20 -2.41935 0 18 -2.41935 1
gene 1 20 14 -2.4353 0 19 -2.4353 1
genomeend 321

/* Organism #399 Fitness: 243455 Error: 0 */
genomestart 399
trait 1 0.1 0 0 0.15405 0.25294 0.222427 0.0145529 0.000269659 
trait 2 0.13125 0.00965237 0.000704072 0.0354663 0.0815258 0.00213975 0.15371 0.0659175 
trait 3 0.35645 0.0388424 0.109785 0.42098 0.254238 0 0 0.182342 
node 1 1 1 1
node 2 1 1 1
node 3 2 1 1
node 4 3 1 1
node 5 3 1 1
node 6 3 1 1
node 7 1 1 1
node 8 3 1 1
node 9 2 1 1
node 10 2 1 1
node 11 3 1 3
node 12 2 0 2
node 13 1 0 2
node 14 1 0 2
node 15 3 0 2
node 16 1 0 2
node 20 1 0 0
gene 3 1 12 6.33977 0 1 6.33977 1
gene 1 2 13 -0.897309 0 2 -0.897309 1
gene 1 3 14 5.75951 0 3 5.75951 0
gene 3 4 15 1.92401 0 4 1.92401 1
gene 1 5 16 -1.8347 0 5 -1.8347 1
gene 3 6 12 -0.509659 0 2 -0.509659 1
gene 2 7 12 1.71804 0 3 1.71804 1
gene 2 8 12 6.49787 0 4 6.49787 1
gene 1 9 12 0.578631 0 5 0.578631 1
gene 2 10 12 2.10616 0 6 2.10616 1
gene 2 11 12 0.831629 0 7 0.831629 1
gene 3 1 13 6.73076 0 5 6.73076 1
gene 1 2 14 -1.07379 0 6 -1.07379 1
gene 1 3 15 -5.5586 0 7 -5.5586 1
gene 2 8 13 1.73109 0 12 1.73109 1
gene 1 3 20 -2.26478 0 18 -2.26478 1
gene 1 20 14 2.51788 0 19 2.51788 1
genomeend 399

/* Organism #409 Fitness: 169725 Error: 0 */
genomestart 409
trait 1 0.1 0 0 0.0770249 0.136039 0.111213 0.0145529 0.000314603 
trait 2 0.13125 0.00965237 0.000704072 0.0354663 0.0815258 0.00213975 0.15371 0.0659175 
trait 3 0.35645 0.0388424 0.0698721 0.42098 0.263388 0 0 0.182342 
node 1 1 1 1
node 2 1 1 1
node 3 2 1 1
node 4 3 1 1
node 5 3 1 1
node 6 3 1 1
node 7 1 1 1
node 8 3 1 1
node 9 2 1 1
node 10 2 1 1
node 11 3 1 3
node 12 2 0 2
node 13 1 0 2
node 14 1 0 2
node 15 3 0 2
node 16 1 0 2
node 20 1 0 0
gene 3 1 12 3.96348 0 1 3.96348 1
gene 1 2 13 1.23783 0 2 1.23783 1
gene 1 3 14 4.02871 0 3 4.02871 0
gene 3 4 15 1.02753 0 4 1.02753 1
gene 1 5 16 -0.0877407 0 5 -0.0877407 1
gene 3 6 12 0.352062 0 2 0.352062 1
gene 2 7 12 -0.0407002 0 3 -0.0407002 1
gene 2 8 12 6.94756 0 4 6.94756 1
gene 1 9 12 0.105365 0 5 0.105365 1
gene 2 10 12 2.10616 0 6 2.10616 1
gene 2 11 12 2.41585 0 7 2.41585 1
gene 3 1 13 4.37359 0 5 4.37359 1
gene 1 2 14 1.25603 0 6 1.25603 1
gene 1 3 15 -3.13206 0 7 -3.13206 1
gene 2 8 13 4.93984 0 12 4.93984 1
gene 1 3 20 -2.97197 0 18 -2.97197 1
gene 1 20 14 -1.29405 0 19 -1.29405 1
genomeend 409

/* Organism #470 Fitness: 169404 Error: 0 */
genomestart 470
trait 1 0.1 0 0 0.115537 0.19449 0.16682 0.0145529 0.000292131 
trait 2 0.13125 0.00965237 0.000704072 0.0354663 0.0815258 0.00213975 0.15371 0.0659175 
trait 3 0.35645 0.0388424 0.0898283 0.42098 0.258813 0 0 0.182342 
node 1 1 1 1
node 2 1 1 1
node 3 2 1 1
node 4 3 1 1
node 5 3 1 1
node 6 3 1 1
node 7 1 1 1
node 8 3 1 1
node 9 2 1 1
node 10 2 1 1
node 11 3 1 3
node 12 2 0 2
node 13 1 0 2
node 14 1 0 2
node 15 3 0 2
node 16 1 0 2
node 20 1 0 0
gene 3 1 12 6.52227 0 1 6.52227 1
gene 1 2 13 -1.29664 0 2 -1.29664 1
gene 1 3 14 2.90235 0 3 2.90235 0
gene 3 4 15 2.54102 0 4 2.54102 1
gene 1 5 16 -2.02633 0 5 -2.02633 1
gene 3 6 12 1.42692 0 2 1.42692 1
gene 2 7 12 1.48435 0 3 1.48435 1
gene 2 8 12 6.17349 0 4 6.17349 1
gene 1 9 12 0.125813 0 5 0.125813 1
gene 2 10 12 1.03214 0 6 1.03214 1
gene 2 11 12 0.567568 0 7 0.567568 1
gene 3 1 13 7.34479 0 5 7.34479 1
gene 1 2 14 0.223243 0 6 0.223243 1
gene 1 3 15 -4.89925 0 7 -4.89925 1
gene 2 8 13 1.39397 0 12 1.39397 1
gene 1 3 20 -2.26478 0 18 -2.26478 1
gene 1 20 14 -0.715721 0 19 -0.715721 1
genomeend 470

/* Organism #431 Fitness: 129950 Error: 0 */
genomestart 431
trait 1 0.1 0 0 0.231075 0.369841 0.33364 0.0145529 0.000224716 
trait 2 0.13125 0.00965237 0.000704072 0.0354663 0.0815258 0.00213975 0.15371 0.0659175 
trait 3 0.35645 0.0388424 0.0698721 0.42098 0.263388 0 0 0.182342 
node 1 1 1 1
node 2 1 1 1
node 3 2 1 1
node 4 3 1 1
node 5 3 1 1
node 6 3 1 1
node 7 1 1 1
node 8 3 1 1
node 9 2 1 1
node 10 2 1 1
node 11 3 1 3
node 12 2 0 2
node 13 1 0 2
node 14 1 0 2
node 15 3 0 2
node 16 1 0 2
node 20 1 0 0
gene 3 1 12 5.08243 0 1 5.08243 1
gene 1 2 13 -1.27965 0 2 -1.27965 1
gene 1 3 14 0.0867489 0 3 0.0867489 0
gene 3 4 15 2.70702 0 4 2.70702 1
gene 1 5 16 -4.17422 0 5 -4.17422 1
gene 3 6 12 0.918516 0 2 0.918516 1
gene 2 7 12 -1.32778 0 3 -1.32778 1
gene 2 8 12 7.02439 0 4 7.02439 1
gene 1 9 12 -1.80095 0 5 -1.80095 1
gene 2 10 12 2.76481 0 6 2.76481 1
gene 2 11 12 1.14114 0 7 1.14114 1
gene 3 1 13 5.73227 0 5 5.73227 1
gene 1 2 14 0.0568216 0 6 0.0568216 1
gene 1 3 15 -5.2051 0 7 -5.2051 1
gene 2 8 13 0.768609 0 12 0.768609 1
gene 1 3 20 -3.29381 0 18 -3.29381 1
gene 1 20 14 -0.944548 0 19 -0.944548 1
genomeend 431

/* Organism #516 Fitness: 122185 Error: 0 */
genomestart 516
trait 1 0.1 0 0 0.15405 0.25294 0.222427 0.0145529 0.000269659 
trait 2 0.13125 0.00965237 0.0261222 0.0354663 0.0815258 0.00213975 0.15371 0.0617977 
trait 3 0.35645 0.0388424 0.0698721 0.42098 0.263388 0 0 0.182342 
node 1 1 1 1
node 2 1 1 1
node 3 2 1 1
node 4 3 1 1
node 5 3 1 1
node 6 3 1 1
node 7 1 1 1
node 8 3 1 1
node 9 2 1 1
node 10 2 1 1
node 11 3 1 3
node 12 2 0 2
node 13 1 0 2
node 14 1 0 2
node 15 3 0 2
node 16 1 0 2
node 20 1 0 0
gene 3 1 12 5.47327 0 1 5.47327 1
gene 1 2 13 -3.36824 0 2 -3.36824 1
gene 1 3 14 0.694163 0 3 0.694163 0
gene 3 4 15 2.30618 0 4 2.30618 1
gene 1 5 16 -0.457854 0 5 -0.457854 1
gene 3 6 12 1.74734 0 2 1.74734 1
gene 2 7 12 -2.68814 0 3 -2.68814 1
gene 2 8 12 7.81459 0 4 7.81459 1
gene 1 9 12 2.80915 0 5 2.80915 1
gene 2 10 12 3.13181 0 6 3.13181 1
gene 2 11 12 0.704901 0 7 0.704901 1
gene 3 1 13 4.60011 0 5 4.60011 1
gene 1 2 14 -0.218741 0 6 -0.218741 1
gene 1 3 15 -5.60774 0 7 -5.60774 1
gene 2 8 13 6.95486 0 12 6.95486 1
gene 1 3 20 -3.38977 0 18 -3.38977 1
gene 1 20 14 1.35525 0 19 1.35525 1
genomeend 516

/* Organism #521 Fitness: 105075 Error: 0 */
genomestart 521
trait 1 0.1 0 0 0.0962811 0.165264 0.139017 0.0145529 0.000303367 
trait 2 0.13125 0.00965237 0.000704072 0.0354663 0.0815258 0.00213975 0.15371 0.0659175 
trait 3 0.35645 0.0388424 0.0798502 0.42098 0.261101 0 0 0.182342 
node 1 1 1 1
node 2 1 1 1
node 3 2 1 1
node 4 3 1 1
node 5 3 1 1
node 6 3 1 1
node 7 1 1 1
node 8 3 1 1
node 9 2 1 1
node 10 2 1 1
node 11 3 1 3
node 12 2 0 2
node 13 1 0 2
node 14 1 0 2
node 15 3 0 2
node 16 1 0 2
node 20 1 0 0
node 25 1 0 0
gene 3 1 12 5.24288 0 1 5.24288 1
gene 1 2 13 -0.0294065 0 2 -0.0294065 1
gene 1 3 14 3.46553 0 3 3.46553 0
gene 3 4 15 1.78427 0 4 1.78427 1
gene 1 5 16 -1.05704 0 5 -1.05704 1
gene 3 6 12 0.889492 0 2 0.889492 0
gene 2 7 12 0.721824 0 3 0.721824 1
gene 2 8 12 6.56053 0 4 6.56053 1
gene 1 9 12 0.115589 0 5 0.115589 1
gene 2 10 12 1.56915 0 6 1.56915 1
gene 2 11 12 1.49171 0 7 1.49171 1
gene 3 1 13 5.85919 0 5 5.85919 1
gene 1 2 14 0.739635 0 6 0.739635 1
gene 1 3 15 -4.01565 0 7 -4.01565 1
gene 2 8 13 3.16691 0 12 3.16691 1
gene 1 3 20 -2.61837 0 18 -2.61837 1
gene 1 20 14 -1.00488 0 19 -1.00488 1
gene 3 6 25 1 0 33 0 1
gene 3 25 12 0.889492 0 34 0 1
genomeend 521

/* Organism #374 Fitness: 47076 Error: 0 */
genomestart 374
trait 1 0.1 0 0 0.15405 0.25294 0.222427 0.0145529 0.000269659 
trait 2 0.13125 0.00965237 0.0515403 0.0354663 0.0815258 0.00213975 0.15371 0.0576778 
trait 3 0.35645 0.0388424 0.0299596 0.42098 0.272538 0 0 0.182342 
node 1 1 1 1
node 2 1 1 1
node 3 2 1 1
node 4 3 1 1
node 5 3 1 1
node 6 3 1 1
node 7 1 1 1
node 8 3 1 1
node 9 2 1 1
node 10 2 1 1
node 11 3 1 3
node 12 2 0 2
node 13 1 0 2
node 14 1 0 2
node 15 3 0 2
node 16 1 0 2
node 20 1 0 0
gene 3 1 12 6.02333 0 1 6.02333 1
gene 1 2 13 -5.15128 0 2 -5.15128 1
gene 1 3 14 1.89064 0 3 1.89064 0
gene 3 4 15 2.99635 0 4 2.99635 1
gene 1 5 16 -5.38236 0 5 -5.38236 1
gene 3 6 12 5.76875 0 2 5.76875 1
gene 2 7 12 -1.68416 0 3 -1.68416 1
gene 2 8 12 3.44739 0 4 3.44739 1
gene 2 9 12 -3.94601 0 5 -3.94601 1
gene 3 10 12 -1.36822 0 6 -1.36822 1
gene 2 11 12 -1.4874 0 7 -1.4874 1
gene 3 1 13 7.20576 0 5 7.20576 1
gene 1 2 14 3.43436 0 6 3.43436 1
gene 1 3 15 -4.81918 0 7 -4.81918 1
gene 2 8 13 6.95486 0 12 6.95486 1
gene 1 3 20 -2.29369 0 18 -2.29369 1
gene 1 20 14 -0.609531 0 19 -0.609531 1
genomeend 374

/* Organism #485 Fitness: 42175 Error: 0 */
genomestart 485
trait 1 0.1 0 0 0.0962811 0.165264 0.139017 0.0145529 0.000303367 
trait 2 0.13125 0.00965237 0.000704072 0.0354663 0.0815258 0.00213975 0.15371 0.0659175 
trait 3 0.35645 0.0388424 0.0798502 0.42098 0.261101 0 0 0.182342 
node 1 1 1 1
node 2 1 1 1
node 3 2 1 1
node 4 3 1 1
node 5 3 1 1
node 6 3 1 1
node 7 1 1 1
node 8 3 1 1
node 9 2 1 1
node 10 2 1 1
node 11 3 1 3
node 12 2 0 2
node 13 1 0 2
node 14 1 0 2
node 15 3 0 2
node 16 1 0 2
node 20 1 0 0
gene 3 1 12 6.70477 0 1 6.70477 1
gene 1 2 13 -1.69598 0 2 -1.69598 1
gene 1 3 14 2.90235 0 3 2.90235 0
gene 3 4 15 2.54102 0 4 2.54102 1
gene 1 5 16 -2.02633 0 5 -2.02633 1
gene 3 6 12 3.36351 0 2 3.36351 1
gene 2 7 12 1.25065 0 3 1.25065 1
gene 2 8 12 5.84912 0 4 5.84912 1
gene 1 9 12 0.125813 0 5 0.125813 1
gene 2 10 12 1.03214 0 6 1.03214 1
gene 2 11 12 0.303507 0 7 0.303507 1
gene 3 1 13 7.95883 0 5 7.95883 1
gene 1 2 14 1.52028 0 6 1.52028 1
gene 1 3 15 -4.89925 0 7 -4.89925 1
gene 2 8 13 1.05686 0 12 1.05686 1
gene 1 3 20 -2.26478 0 18 -2.26478 1
gene 1 20 14 -0.715721 0 19 -0.715721 1
genomeend 485

/* Organism #534 Fitness: 40436.6 Error: 0 */
genomestart 534
trait 1 0.1 0 0 0.134794 0.223715 0.194623 0.0145529 0.000280895 
trait 2 0.13125 0.00965237 0.0134131 0.0354663 0.0815258 0.00213975 0.15371 0.0638576 
trait 3 0.35645 0.0388424 0.0798502 0.42098 0.261101 0 0 0.182342 
node 1 1 1 1
node 2 1 1 1
node 3 2 1 1
node 4 3 1 1
node 5 3 1 1
node 6 3 1 1
node 7 1 1 1
node 8 3 1 1
node 9 2 1 1
node 10 2 1 1
node 11 3 1 3
node 12 2 0 2
node 13 1 0 2
node 14 1 0 2
node 15 3 0 2
node 16 1 0 2
node 20 1 0 0
gene 3 1 12 4.83475 0 1 4.83475 1
gene 1 2 13 -5.37354 0 2 -5.37354 1
gene 1 3 14 -0.20537 0 3 -0.20537 0
gene 3 4 15 2.11673 0 4 2.11673 1
gene 1 5 16 1.60482 0 5 1.60482 1
gene 3 6 12 -0.939329 0 2 -0.939329 1
gene 2 7 12 -3.64208 0 3 -3.64208 1
gene 2 8 12 8 0 4 8 1
gene 1 9 12 3.58539 0 5 3.58539 1
gene 2 10 12 2.49802 0 6 2.49802 1
gene 2 11 12 1.38844 0 7 1.38844 1
gene 3 1 13 8 0 5 8 1
gene 1 2 14 1.09233 0 6 1.09233 1
gene 1 3 15 -3.4323 0 7 -3.4323 1
gene 2 8 13 0.824114 0 12 0.824114 1
gene 1 3 20 -5.73389 0 18 -5.73389 1
gene 1 20 14 -0.782189 0 19 -0.782189 1
genomeend 534

/* Organism #582 Fitness: 9567 Error: 0 */
genomestart 582
trait 1 0.1 0 0 0.15405 0.25294 0.222427 0.0145529 0.000269659 
trait 2 0.13125 0.00965237 0.000704072 0.0354663 0.0815258 0.00213975 0.15371 0.0659175 
trait 3 0.35645 0.0388424 0.0698721 0.42098 0.263388 0 0 0.182342 
node 1 1 1 1
node 2 1 1 1
node 3 2 1 1
node 4 3 1 1
node 5 3 1 1
node 6 3 1 1
node 7 1 1 1
node 8 3 1 1
node 9 2 1 1
node 10 2 1 1
node 11 3 1 3
node 12 2 0 2
node 13 1 0 2
node 14 1 0 2
node 15 3 0 2
node 16 1 0 2
node 20 1 0 0
gene 3 1 12 0.897778 0 1 0.897778 1
gene 1 2 13 -1.43445 0 2 -1.43445 1
gene 1 3 14 3.741 0 3 3.741 0
gene 3 4 15 -1.18915 0 4 -1.18915 1
gene 1 5 16 0.381558 0 5 0.381558 1
gene 3 6 12 -0.649663 0 2 -0.649663 1
gene 2 7 12 -0.415052 0 3 -0.415052 1
gene 2 8 12 4.58443 0 4 4.58443 1
gene 1 9 12 1.2431 0 5 1.2431 1
gene 2 10 12 2.10616 0 6 2.10616 1
gene 2 11 12 0.400098 0 7 0.400098 1
gene 3 1 13 8 0 5 8 1
gene 1 2 14 -0.826174 0 6 -0.826174 1
gene 1 3 15 -5.39043 0 7 -5.39043 1
gene 2 8 13 0.683157 0 12 0.683157 1
gene 1 3 20 -4.72268 0 18 -4.72268 1
gene 1 20 14 2.08983 0 19 2.08983 1
genomeend 582

/* Organism #349 Fitness: 8622 Error: 0 */
genomestart 349
trait 1 0.1 0 0 0.3081 0.486743 0.444853 0.0145529 0.000179773 
trait 2 0.13125 0.00965237 0.102376 0.0354663 0.0815258 0.00213975 0.15371 0.0494381 
trait 3 0.35645 0.0388424 0.0299596 0.42098 0.272538 0 0 0.182342 
node 1 1 1 1
node 2 1 1 1
node 3 2 1 1
node 4 3 1 1
node 5 3 1 1
node 6 3 1 1
node 7 1 1 1
node 8 3 1 1
node 9 2 1 1
node 10 2 1 1
node 11 3 1 3
node 12 2 0 2
node 13 1 0 2
node 14 1 0 2
node 15 3 0 2
node 16 1 0 2
node 20 1 0 0
gene 3 1 12 4.20275 0 1 4.20275 1
gene 1 2 13 2.92172 0 2 2.92172 1
gene 1 3 14 3.43564 0 3 3.43564 0
gene 3 4 15 4.59625 0 4 4.59625 1
gene 1 5 16 -3.45656 0 5 -3.45656 1
gene 3 6 12 5.44221 0 2 5.44221 1
gene 2 7 12 3.62194 0 3 3.62194 1
gene 2 8 12 2.31151 0 4 2.31151 1
gene 2 9 12 -2.08712 0 5 -2.08712 1
gene 3 10 12 -0.0605792 0 6 -0.0605792 1
gene 2 11 12 -0.983081 0 7 -0.983081 1
gene 3 1 13 5.28569 0 5 5.28569 1
gene 1 2 14 2.60975 0 6 2.60975 1
gene 1 3 15 -0.469604 0 7 -0.469604 1
gene 2 8 13 4.62477 0 12 4.62477 1
gene 1 3 20 -0.961562 0 18 -0.961562 1
gene 1 20 14 2.20121 0 19 2.20121 1
genomeend 349

/* Organism #583 Fitness: 7822 Error: 0 */
genomestart 583
trait 1 0.1 0 0 0 0.019138 0 0.0145529 0.000359546 
trait 2 0.13125 0.00965237 0.000704072 0.0354663 0.0815258 0.00213975 0.15371 0.0659175 
trait 3 0.35645 0.0388424 0.0299596 0.42098 0.272538 0 0 0.182342 
node 1 1 1 1
node 2 1 1 1
node 3 2 1 1
node 4 3 1 1
node 5 3 1 1
node 6 3 1 1
node 7 1 1 1
node 8 3 1 1
node 9 2 1 1
node 10 2 1 1
node 11 3 1 3
node 12 2 0 2
node 13 1 0 2
node 14 1 0 2
node 15 3 0 2
node 16 1 0 2
node 20 1 0 0
gene 3 1 12 5.0467 0 1 5.0467 1
gene 1 2 13 -3.26326 0 2 -3.26326 1
gene 1 3 14 3.47165 0 3 3.47165 0
gene 3 4 15 3.88879 0 4 3.88879 1
gene 1 5 16 -0.0886944 0 5 -0.0886944 1
gene 3 6 12 6.62563 0 2 6.62563 1
gene 2 7 12 1.79648 0 3 1.79648 1
gene 2 8 12 5.48839 0 4 5.48839 1
gene 1 9 12 -0.985519 0 5 -0.985519 1
gene 2 10 12 3.66649 0 6 3.66649 1
gene 2 11 12 2.59491 0 7 2.59491 1
gene 3 1 13 8 0 5 8 1
gene 1 2 14 -1.78343 0 6 -1.78343 1
gene 1 3 15 -3.60637 0 7 -3.60637 1
gene 2 8 13 0.789666 0 12 0.789666 1
gene 1 3 20 2.24403 0 18 2.24403 1
gene 1 20 14 -1.6583 0 19 -1.6583 1
genomeend 583

/* Organism #373 Fitness: 7409 Error: 0 */
genomestart 373
trait 1 0.1 0 0 0.3081 0.486743 0.444853 0.0145529 0.000179773 
trait 2 0.13125 0.00965237 0.000704072 0.0354663 0.0815258 0.00213975 0.15371 0.0659175 
trait 3 0.35645 0.0388424 0.18961 0.42098 0.235939 0 0 0.182342 
node 1 1 1 1
node 2 1 1 1
node 3 2 1 1
node 4 3 1 1
node 5 3 1 1
node 6 3 1 1
node 7 1 1 1
node 8 3 1 1
node 9 2 1 1
node 10 2 1 1
node 11 3 1 3
node 12 2 0 2
node 13 1 0 2
node 14 1 0 2
node 15 3 0 2
node 16 1 0 2
node 20 1 0 0
gene 3 1 12 1.16985 0 1 1.16985 1
gene 1 2 13 1.05415 0 2 1.05415 1
gene 1 3 14 5.62943 0 3 5.62943 0
gene 3 4 15 3.0823 0 4 3.0823 1
gene 1 5 16 -5.03994 0 5 -5.03994 1
gene 3 6 12 5.06007 0 2 5.06007 1
gene 2 7 12 -1.39507 0 3 -1.39507 1
gene 2 8 12 4.32277 0 4 4.32277 1
gene 2 9 12 -2.27138 0 5 -2.27138 1
gene 2 10 12 -0.698073 0 6 -0.698073 1
gene 2 11 12 1.44154 0 7 1.44154 1
gene 3 1 13 3.8772 0 5 3.8772 1
gene 1 2 14 -1.26988 0 6 -1.26988 1
gene 1 3 15 -3.61229 0 7 -3.61229 1
gene 2 8 13 3.46057 0 12 3.46057 1
gene 1 3 20 1.39615 0 18 1.39615 1
gene 1 20 14 2.70633 0 19 2.70633 1
genomeend 373

/* Organism #364 Fitness: 7069 Error: 0 */
genomestart 364
trait 1 0.1 0 0 0.462149 0.720545 0.66728 0.0145529 8.98865e-05 
trait 2 0.13125 0.00965237 0.0515403 0.0354663 0.0815258 0.00213975 0.15371 0.0576778 
trait 3 0.35645 0.0388424 0.18961 0.42098 0.235939 0 0 0.182342 
node 1 1 1 1
node 2 1 1 1
node 3 2 1 1
node 4 3 1 1
node 5 3 1 1
node 6 3 1 1
node 7 1 1 1
node 8 3 1 1
node 9 2 1 1
node 10 2 1 1
node 11 3 1 3
node 12 2 0 2
node 13 1 0 2
node 14 1 0 2
node 15 3 0 2
node 16 1 0 2
node 20 1 0 0
gene 3 1 12 4.20275 0 1 4.20275 1
gene 1 2 13 2.92172 0 2 2.92172 1
gene 1 3 14 6.00995 0 3 6.00995 1
gene 3 4 15 3.61679 0 4 3.61679 1
gene 1 5 16 -6.51948 0 5 -6.51948 1
gene 3 6 12 6.99811 0 2 6.99811 1
gene 2 7 12 3.62194 0 3 3.62194 1
gene 2 8 12 3.43442 0 4 3.43442 1
gene 2 9 12 -2.08712 0 5 -2.08712 1
gene 3 10 12 -0.0605792 0 6 -0.0605792 1
gene 2 11 12 -0.983081 0 7 -0.983081 1
gene 3 1 13 5.28569 0 5 5.28569 1
gene 1 2 14 -0.946532 0 6 -0.946532 1
gene 1 3 15 -1.23829 0 7 -1.23829 1
gene 2 8 13 0.46762 0 12 0.46762 1
gene 1 3 20 -0.156407 0 18 -0.156407 1
gene 1 20 14 3.24082 0 19 3.24082 1
gene 2 8 16 0.748955 0 48 0.748955 1
genomeend 364

/* Organism #345 Fitness: 6730 Error: 0 */
genomestart 345
trait 1 0.1 0 0 0.616199 0.954347 0.889706 0.0145529 0 
trait 2 0.13125 0.00965237 0.000704072 0.0354663 0.0815258 0.00213975 0.15371 0.0659175 
trait 3 0.35645 0.0388424 0.34926 0.42098 0.199339 0 0 0.182342 
node 1 1 1 1
node 2 1 1 1
node 3 2 1 1
node 4 3 1 1
node 5 3 1 1
node 6 3 1 1
node 7 1 1 1
node 8 3 1 1
node 9 2 1 1
node 10 2 1 1
node 11 3 1 3
node 12 2 0 2
node 13 1 0 2
node 14 1 0 2
node 15 3 0 2
node 16 1 0 2
node 20 1 0 0
gene 3 1 12 -1.62793 0 1 -1.62793 1
gene 1 2 13 2.2808 0 2 2.2808 1
gene 1 3 14 7.89371 0 3 7.89371 1
gene 3 4 15 3.61679 0 4 3.61679 1
gene 1 5 16 -8 0 5 -8 1
gene 3 6 12 7.63755 0 2 7.63755 1
gene 2 7 12 -0.908456 0 3 -0.908456 1
gene 2 8 12 -0.20745 0 4 -0.20745 1
gene 2 9 12 -3.26235 0 5 -3.26235 1
gene 2 10 12 0.640431 0 6 0.640431 1
gene 2 11 12 1.0876 0 7 1.0876 1
gene 3 1 13 4.29081 0 5 4.29081 1
gene 1 2 14 -2.94389 0 6 -2.94389 1
gene 1 3 15 -1.23829 0 7 -1.23829 1
gene 2 8 13 2.8048 0 12 2.8048 1
gene 1 3 20 -1.76176 0 18 -1.76176 1
gene 1 20 14 4.67633 0 19 4.67633 1
gene 1 4 14 0.957793 0 40 0.957793 1
genomeend 345

/* Organism #325 Fitness: 6623 Error: 0 */
genomestart 325
trait 1 0.1 0 0 0.15405 0.25294 0.222427 0.0145529 0.000269659 
trait 2 0.13125 0.00965237 0.204049 0.0354663 0.0815258 0.00213975 0.15371 0.0329588 
trait 3 0.35645 0.0388424 0.0299596 0.42098 0.272538 0 0 0.182342 
node 1 1 1 1
node 2 1 1 1
node 3 2 1 1
node 4 3 1 1
node 5 3 1 1
node 6 3 1 1
node 7 1 1 1
node 8 3 1 1
node 9 2 1 1
node 10 2 1 1
node 11 3 1 3
node 12 2 0 2
node 13 1 0 2
node 14 1 0 2
node 15 3 0 2
node 16 1 0 2
node 20 1 0 0
gene 3 1 12 4.24284 0 1 4.24284 1
gene 1 2 13 0.933458 0 2 0.933458 1
gene 1 3 14 2.30516 0 3 2.30516 1
gene 3 4 15 2.39399 0 4 2.39399 1
gene 1 5 16 -5.60316 0 5 -5.60316 1
gene 3 6 12 5.43408 0 2 5.43408 1
gene 2 7 12 3.22589 0 3 3.22589 1
gene 2 8 12 1.90491 0 4 1.90491 1
gene 2 9 12 -3.9322 0 5 -3.9322 1
gene 2 10 12 -0.356075 0 6 -0.356075 1
gene 2 11 12 -1.92702 0 7 -1.92702 1
gene 3 1 13 6.72662 0 5 6.72662 1
gene 1 2 14 3.89733 0 6 3.89733 1
gene 1 3 15 -5.42779 0 7 -5.42779 1
gene 2 8 13 4.62477 0 12 4.62477 1
gene 1 3 20 -0.429014 0 18 -0.429014 1
gene 1 20 14 1.96569 0 19 1.96569 1
genomeend 325

/* Organism #395 Fitness: 6467 Error: 0 */
genomestart 395
trait 1 0.1 0 0 0.3081 0.486743 0.444853 0.0145529 0.000179773 
trait 2 0.13125 0.00965237 0.000704072 0.0354663 0.0815258 0.00213975 0.15371 0.0659175 
trait 3 0.35645 0.0388424 0.18961 0.42098 0.235939 0 0 0.182342 
node 1 1 1 1
node 2 1 1 1
node 3 2 1 1
node 4 3 1 1
node 5 3 1 1
node 6 3 1 1
node 7 1 1 1
node 8 3 1 1
node 9 2 1 1
node 10 2 1 1
node 11 3 1 3
node 12 2 0 2
node 13 1 0 2
node 14 1 0 2
node 15 3 0 2
node 16 1 0 2
node 20 1 0 0
gene 3 1 12 1.16985 0 1 1.16985 1
gene 1 2 13 1.05415 0 2 1.05415 1
gene 1 3 14 5.62943 0 3 5.62943 0
gene 3 4 15 3.0823 0 4 3.0823 1
gene 1 5 16 -5.03994 0 5 -5.03994 1
gene 3 6 12 5.06007 0 2 5.06007 1
gene 2 7 12 -1.39507 0 3 -1.39507 1
gene 2 8 12 4.32277 0 4 4.32277 1
gene 2 9 12 -2.27138 0 5 -2.27138 1
gene 2 10 12 -0.698073 0 6 -0.698073 1
gene 2 11 12 1.44154 0 7 1.44154 1
gene 3 1 13 3.8772 0 5 3.8772 1
gene 1 2 14 -1.26988 0 6 -1.26988 1
gene 1 3 15 -3.61229 0 7 -3.61229 1
gene 2 8 13 3.46057 0 12 3.46057 1
gene 1 3 20 1.39615 0 18 1.39615 1
gene 1 20 14 2.70633 0 19 2.70633 1
gene 1 11 16 -0.829157 0 50 -0.829157 1
genomeend 395

/* Organism #577 Fitness: 6405 Error: 0 */
genomestart 577
trait 1 0.1 0 0 0.086653 0.150652 0.125115 0.0145529 0.000308985 
trait 2 0.13125 0.00965237 0.000704072 0.0354663 0.0815258 0.00213975 0.15371 0.0659175 
trait 3 0.35645 0.0388424 0.0748611 0.42098 0.262244 0 0 0.182342 
node 1 1 1 1
node 2 1 1 1
node 3 2 1 1
node 4 3 1 1
node 5 3 1 1
node 6 3 1 1
node 7 1 1 1
node 8 3 1 1
node 9 2 1 1
node 10 2 1 1
node 11 3 1 3
node 12 2 0 2
node 13 1 0 2
node 14 1 0 2
node 15 3 0 2
node 16 1 0 2
node 20 1 0 0
gene 3 1 12 3.96348 0 1 3.96348 1
gene 1 2 13 2.93428 0 2 2.93428 1
gene 1 3 14 2.88213 0 3 2.88213 0
gene 3 4 15 3.48076 0 4 3.48076 1
gene 1 5 16 -2.06743 0 5 -2.06743 1
gene 3 6 12 0.889492 0 2 0.889492 0
gene 2 7 12 0.869991 0 3 0.869991 1
gene 2 8 12 1.83912 0 4 1.83912 1
gene 1 9 12 2.24807 0 5 2.24807 1
gene 2 10 12 1.0522 0 6 1.0522 1
gene 2 11 12 2.86695 0 7 2.86695 1
gene 3 1 13 4.01446 0 5 4.01446 1
gene 1 2 14 2.22289 0 6 2.22289 1
gene 1 3 15 -6.19155 0 7 -6.19155 1
gene 2 8 13 -2.4237 0 12 -2.4237 1
gene 1 3 20 -3.49254 0 18 -3.49254 1
gene 1 20 14 -3.03955 0 19 -3.03955 1
genomeend 577

/* Organism #523 Fitness: 6172 Error: 0 */
genomestart 523
trait 1 0.1 0 0 0.15405 0.25294 0.222427 0.0145529 0.000269659 
trait 2 0.13125 0.00965237 0.0261222 0.0354663 0.0815258 0.00213975 0.15371 0.0617977 
trait 3 0.35645 0.0388424 0 0.151318 0.263388 0.421125 0 0.182342 
node 1 1 1 1
node 2 1 1 1
node 3 2 1 1
node 4 3 1 1
node 5 3 1 1
node 6 3 1 1
node 7 1 1 1
node 8 3 1 1
node 9 2 1 1
node 10 2 1 1
node 11 3 1 3
node 12 2 0 2
node 13 1 0 2
node 14 1 0 2
node 15 3 0 2
node 16 1 0 2
node 20 1 0 0
gene 3 1 12 5.98783 0 1 5.98783 1
gene 1 2 13 -4.71846 0 2 -4.71846 1
gene 1 3 14 5.20672 0 3 5.20672 0
gene 3 4 15 4.448 0 4 4.448 1
gene 1 5 16 -5.44315 0 5 -5.44315 1
gene 3 6 12 2.02398 0 2 2.02398 1
gene 2 7 12 -0.494396 0 3 -0.494396 1
gene 2 8 12 2.98046 0 4 2.98046 1
gene 1 9 12 0.163217 0 5 0.163217 1
gene 3 10 12 -0.0600452 0 6 -0.0600452 1
gene 2 11 12 0.473607 0 7 0.473607 1
gene 3 1 13 5.47888 0 5 5.47888 1
gene 1 2 14 1.90235 0 6 1.90235 1
gene 1 3 15 -3.88308 0 7 -3.88308 1
gene 2 8 13 5.40006 0 12 5.40006 1
gene 1 3 20 -2.27924 0 18 -2.27924 1
gene 1 20 14 3.04042 0 19 3.04042 1
genomeend 523

/* Organism #460 Fitness: 5684 Error: 0 */
genomestart 460
trait 1 0.1 0 0 0.0385125 0.0775886 0.0556066 0.0145529 0.000337074 
trait 2 0.13125 0.00965237 0.000704072 0.0354663 0.0815258 0.00213975 0.15371 0.0659175 
trait 3 0.35645 0.0388424 0.0499158 0.42098 0.267963 0 0 0.182342 
node 1 1 1 1
node 2 1 1 1
node 3 2 1 1
node 4 3 1 1
node 5 3 1 1
node 6 3 1 1
node 7 1 1 1
node 8 3 1 1
node 9 2 1 1
node 10 2 1 1
node 11 3 1 3
node 12 2 0 2
node 13 1 0 2
node 14 1 0 2
node 15 3 0 2
node 16 1 0 2
node 20 1 0 0
gene 3 1 12 3.61388 0 1 3.61388 1
gene 1 2 13 -0.816555 0 2 -0.816555 1
gene 1 3 14 3.95858 0 3 3.95858 1
gene 3 4 15 1.44002 0 4 1.44002 1
gene 1 5 16 -2.33953 0 5 -2.33953 1
gene 3 6 12 2.91159 0 2 2.91159 1
gene 2 7 12 0.276521 0 3 0.276521 1
gene 2 8 12 4.65444 0 4 4.65444 1
gene 1 9 12 -0.922956 0 5 -0.922956 1
gene 2 10 12 0.381062 0 6 0.381062 1
gene 2 11 12 1.07974 0 7 1.07974 1
gene 3 1 13 4.68801 0 5 4.68801 1
gene 1 2 14 1.19928 0 6 1.19928 1
gene 1 3 15 -2.7886 0 7 -2.7886 1
gene 2 8 13 3.34359 0 12 3.34359 1
gene 1 3 20 -2.63283 0 18 -2.63283 1
gene 1 20 14 0.718289 0 19 0.718289 1
genomeend 460

/* Organism #565 Fitness: 5457 Error: 0 */
genomestart 565
trait 1 0.1 0 0 0.15405 0.25294 0.222427 0.0145529 0.000269659 
trait 2 0.13125 0.00965237 0.000704072 0.0354663 0.0815258 0.00213975 0.15371 0.0659175 
trait 3 0.35645 0.0388424 0.109785 0.42098 0.254238 0 0 0.182342 
node 1 1 1 1
node 2 1 1 1
node 3 2 1 1
node 4 3 1 1
node 5 3 1 1
node 6 3 1 1
node 7 1 1 1
node 8 3 1 1
node 9 2 1 1
node 10 2 1 1
node 11 3 1 3
node 12 2 0 2
node 13 1 0 2
node 14 1 0 2
node 15 3 0 2
node 16 1 0 2
node 20 1 0 0
gene 3 1 12 -1.09584 0 1 -1.09584 1
gene 1 2 13 -1.43016 0 2 -1.43016 1
gene 1 3 14 6.71649 0 3 6.71649 0
gene 3 4 15 -2.37602 0 4 -2.37602 1
gene 1 5 16 -3.53595 0 5 -3.53595 1
gene 3 6 12 -0.509659 0 2 -0.509659 1
gene 2 7 12 3.46736 0 3 3.46736 1
gene 2 8 12 1.06265 0 4 1.06265 1
gene 1 9 12 -0.970031 0 5 -0.970031 1
gene 2 10 12 1.93945 0 6 1.93945 1
gene 2 11 12 0.447783 0 7 0.447783 1
gene 3 1 13 6.73076 0 5 6.73076 1
gene 1 2 14 -2.2589 0 6 -2.2589 1
gene 1 3 15 1.73139 0 7 1.73139 1
gene 2 8 13 -2.41348 0 12 -2.41348 1
gene 1 3 20 -1.01154 0 18 -1.01154 1
gene 1 20 14 4.70972 0 19 4.70972 1
genomeend 565

/* Organism #381 Fitness: 5416 Error: 0 */
genomestart 381
trait 1 0.1 0 0 0.3081 0.486743 0.444853 0.0145529 0.000179773 
trait 2 0.13125 0.00965237 0.102376 0.0354663 0.0815258 0.00213975 0.15371 0.0494381 
trait 3 0.35645 0.0388424 0.0299596 0.42098 0.272538 0 0 0.182342 
node 1 1 1 1
node 2 1 1 1
node 3 2 1 1
node 4 3 1 1
node 5 3 1 1
node 6 3 1 1
node 7 1 1 1
node 8 3 1 1
node 9 2 1 1
node 10 2 1 1
node 11 3 1 3
node 12 2 0 2
node 13 1 0 2
node 14 1 0 2
node 15 3 0 2
node 16 1 0 2
node 20 1 0 0
gene 3 1 12 6.17356 0 1 6.17356 1
gene 1 2 13 4.62175 0 2 4.62175 1
gene 1 3 14 5.31009 0 3 5.31009 0
gene 3 4 15 6.13499 0 4 6.13499 1
gene 1 5 16 -1.75714 0 5 -1.75714 1
gene 3 6 12 4.97321 0 2 4.97321 1
gene 2 7 12 2.61346 0 3 2.61346 1
gene 2 8 12 3.40674 0 4 3.40674 1
gene 2 9 12 -0.191618 0 5 -0.191618 1
gene 3 10 12 2.20809 0 6 2.20809 1
gene 2 11 12 0.199206 0 7 0.199206 1
gene 3 1 13 7.35111 0 5 7.35111 1
gene 1 2 14 4.28819 0 6 4.28819 1
gene 1 3 15 1.85835 0 7 1.85835 1
gene 2 8 13 4.62477 0 12 4.62477 1
gene 1 3 20 -0.961562 0 18 -0.961562 1
gene 1 20 14 2.3548 0 19 2.3548 1
genomeend 381

/* Organism #537 Fitness: 5378 Error: 0 */
genomestart 537
trait 1 0.1 0 0 0.134794 0.223715 0.194623 0.0145529 0.000280895 
trait 2 0.13125 0.00965237 0.0134131 0.0354663 0.0815258 0.00213975 0.15371 0.0638576 
trait 3 0.35645 0.0388424 0.0798502 0.42098 0.261101 0 0 0.182342 
node 1 1 1 1
node 2 1 1 1
node 3 2 1 1
node 4 3 1 1
node 5 3 1 1
node 6 3 1 1
node 7 1 1 1
node 8 3 1 1
node 9 2 1 1
node 10 2 1 1
node 11 3 1 3
node 12 2 0 2
node 13 1 0 2
node 14 1 0 2
node 15 3 0 2
node 16 1 0 2
node 20 1 0 0
gene 3 1 12 7.54292 0 1 7.54292 1
gene 1 2 13 -0.640496 0 2 -0.640496 1
gene 1 3 14 1.87387 0 3 1.87387 1
gene 3 4 15 1.82119 0 4 1.82119 1
gene 1 5 16 0.999643 0 5 0.999643 1
gene 3 6 12 2.00348 0 2 2.00348 1
gene 2 7 12 1.82387 0 3 1.82387 1
gene 2 8 12 8 0 4 8 1
gene 1 9 12 1.35525 0 5 1.35525 1
gene 2 10 12 3.39068 0 6 3.39068 1
gene 2 11 12 -0.411237 0 7 -0.411237 1
gene 3 1 13 5.97245 0 5 5.97245 1
gene 1 2 14 0.942984 0 6 0.942984 1
gene 1 3 15 0.035783 0 7 0.035783 1
gene 2 8 13 3.86519 0 12 3.86519 1
gene 1 3 20 0.560091 0 18 0.560091 1
gene 1 20 14 0.520958 0 19 0.520958 1
genomeend 537

/* Organism #401 Fitness: 5179 Error: 0 */
genomestart 401
trait 1 0.1 0 0 0.15405 0.25294 0.222427 0.0145529 0.000269659 
trait 2 0.831009 0.00965237 0.000704072 0.0354663 0.0815258 0.00213975 0.15371 0.200535 
trait 3 0.35645 0.0388424 0.109785 0.42098 0.254238 0 0 0.182342 
node 1 1 1 1
node 2 1 1 1
node 3 2 1 1
node 4 3 1 1
node 5 3 1 1
node 6 3 1 1
node 7 1 1 1
node 8 3 1 1
node 9 2 1 1
node 10 2 1 1
node 11 3 1 3
node 12 2 0 2
node 13 1 0 2
node 14 1 0 2
node 15 3 0 2
node 16 1 0 2
node 20 1 0 0
gene 3 1 12 3.36631 0 1 3.36631 1
gene 1 2 13 2.29628 0 2 2.29628 1
gene 1 3 14 2.75891 0 3 2.75891 1
gene 3 4 15 4.74085 0 4 4.74085 1
gene 1 5 16 -1.93781 0 5 -1.93781 1
gene 3 6 12 3.16781 0 2 3.16781 1
gene 2 7 12 -2.23025 0 3 -2.23025 1
gene 2 8 12 1.7805 0 4 1.7805 1
gene 1 9 12 0.649148 0 5 0.649148 1
gene 2 10 12 4.93318 0 6 4.93318 1
gene 2 11 12 0.982197 0 7 0.982197 1
gene 3 1 13 5.76054 0 5 5.76054 1
gene 1 2 14 0.263489 0 6 0.263489 1
gene 1 3 15 -6.21778 0 7 -6.21778 1
gene 2 8 13 4.74586 0 12 4.74586 1
gene 1 3 20 -0.37635 0 18 -0.37635 1
gene 1 20 14 0.100687 0 19 0.100687 1
genomeend 401

/* Organism #388 Fitness: 5172 Error: 0 */
genomestart 388
trait 1 0.1 0 0 0.15405 0.25294 0.222427 0.0145529 0.000269659 
trait 2 0.13125 0.00965237 0.0515403 0.0354663 0.0815258 0.00213975 0.15371 0.0576778 
trait 3 0.35645 0.0388424 0.0299596 0.42098 0.272538 0 0 0.182342 
node 1 1 1 1
node 2 1 1 1
node 3 2 1 1
node 4 3 1 1
node 5 3 1 1
node 6 3 1 1
node 7 1 1 1
node 8 3 1 1
node 9 2 1 1
node 10 2 1 1
node 11 3 1 3
node 12 2 0 2
node 13 1 0 2
node 14 1 0 2
node 15 3 0 2
node 16 1 0 2
node 20 1 0 0
gene 3 1 12 4.14772 0 1 4.14772 1
gene 1 2 13 -2.42559 0 2 -2.42559 1
gene 1 3 14 -0.842235 0 3 -0.842235 1
gene 3 4 15 -1.49174 0 4 -1.49174 1
gene 1 5 16 -2.12462 0 5 -2.12462 1
gene 3 6 12 1.97419 0 2 1.97419 1
gene 3 7 12 0.567991 0 3 0.567991 1
gene 2 8 12 2.81685 0 4 2.81685 1
gene 2 9 12 -0.430864 0 5 -0.430864 1
gene 3 10 12 -2.55112 0 6 -2.55112 1
gene 2 11 12 -0.302213 0 7 -0.302213 1
gene 3 1 13 5.10454 0 5 5.10454 1
gene 1 2 14 -0.712455 0 6 -0.712455 1
gene 1 3 15 1.99217 0 7 1.99217 1
gene 2 8 13 3.12998 0 12 3.12998 1
gene 1 3 20 -1.91946 0 18 -1.91946 1
gene 1 20 14 0.258821 0 19 0.258821 1
genomeend 388

/* Organism #455 Fitness: 4844 Error: 0 */
genomestart 455
trait 1 0.1 0 0 0.0770249 0.136039 0.111213 0.0145529 0.000314603 
trait 2 0.13125 0.00965237 0.000704072 0.0354663 0.0815258 0.00213975 0.15371 0.0659175 
trait 3 0.35645 0.0388424 0.0698721 0.42098 0.263388 0 0 0.182342 
node 1 1 1 1
node 2 1 1 1
node 3 2 1 1
node 4 3 1 1
node 5 3 1 1
node 6 3 1 1
node 7 1 1 1
node 8 3 1 1
node 9 2 1 1
node 10 2 1 1
node 11 3 1 3
node 12 2 0 2
node 13 1 0 2
node 14 1 0 2
node 15 3 0 2
node 16 1 0 2
node 20 1 0 0
gene 3 1 12 4.80202 0 1 4.80202 1
gene 1 2 13 -0.591971 0 2 -0.591971 1
gene 1 3 14 4.10344 0 3 4.10344 1
gene 3 4 15 3.56961 0 4 3.56961 1
gene 1 5 16 -1.88637 0 5 -1.88637 1
gene 3 6 12 4.19129 0 2 4.19129 1
gene 2 7 12 -0.804693 0 3 -0.804693 1
gene 2 8 12 3.16559 0 4 3.16559 1
gene 1 9 12 -0.847728 0 5 -0.847728 1
gene 2 10 12 -0.158811 0 6 -0.158811 1
gene 2 11 12 0.438168 0 7 0.438168 1
gene 3 1 13 4.03403 0 5 4.03403 1
gene 1 2 14 0.0969726 0 6 0.0969726 1
gene 1 3 15 -4.17461 0 7 -4.17461 1
gene 2 8 13 3.70224 0 12 3.70224 1
gene 1 3 20 -2.44572 0 18 -2.44572 1
gene 1 20 14 -2.39959 0 19 -2.39959 1
genomeend 455

/* Organism #324 Fitness: 4825 Error: 0 */
genomestart 324
trait 1 0.1 0 0 0.15405 0.25294 0.222427 0.0145529 0.000269659 
trait 2 0.13125 0.00965237 0.204049 0.0354663 0.0815258 0.00213975 0.15371 0.0329588 
trait 3 0.35645 0.0388424 0.0299596 0.42098 0.272538 0 0 0.182342 
node 1 1 1 1
node 2 1 1 1
node 3 2 1 1
node 4 3 1 1
node 5 3 1 1
node 6 3 1 1
node 7 1 1 1
node 8 3 1 1
node 9 2 1 1
node 10 2 1 1
node 11 3 1 3
node 12 2 0 2
node 13 1 0 2
node 14 1 0 2
node 15 3 0 2
node 16 1 0 2
node 20 1 0 0
gene 3 1 12 6.27568 0 1 6.27568 1
gene 1 2 13 2.07012 0 2 2.07012 1
gene 1 3 14 0.247066 0 3 0.247066 0
gene 3 4 15 3.87819 0 4 3.87819 1
gene 1 5 16 -7.39689 0 5 -7.39689 1
gene 3 6 12 7.52406 0 2 7.52406 1
gene 2 7 12 2.60041 0 3 2.60041 1
gene 2 8 12 -0.541532 0 4 -0.541532 1
gene 2 9 12 -1.59722 0 5 -1.59722 1
gene 2 10 12 1.52081 0 6 1.52081 1
gene 2 11 12 -2.6616 0 7 -2.6616 1
gene 3 1 13 5.77551 0 5 5.77551 1
gene 1 2 14 2.03227 0 6 2.03227 1
gene 1 3 15 -3.46362 0 7 -3.46362 1
gene 2 8 13 4.62477 0 12 4.62477 1
gene 1 3 20 1.26644 0 18 1.26644 1
gene 1 20 14 3.25349 0 19 3.25349 1
genomeend 324

/* Organism #377 Fitness: 4631 Error: 0 */
genomestart 377
trait 1 0.1 0 0.12479 0.3081 0.486743 0.444853 0.0145529 0.000179773 
trait 2 0.13125 0.00965237 0.102376 0.0354663 0.0815258 0.00213975 0.15371 0.0494381 
trait 3 0.35645 0.0388424 0.0299596 0.42098 0.272538 0 0 0.182342 
node 1 1 1 1
node 2 1 1 1
node 3 2 1 1
node 4 3 1 1
node 5 3 1 1
node 6 3 1 1
node 7 1 1 1
node 8 3 1 1
node 9 2 1 1
node 10 2 1 1
node 11 3 1 3
node 12 2 0 2
node 13 1 0 2
node 14 1 0 2
node 15 3 0 2
node 16 1 0 2
node 20 1 0 0
gene 3 1 12 1.48412 0 1 1.48412 1
gene 1 2 13 1.89203 0 2 1.89203 1
gene 1 3 14 3.38376 0 3 3.38376 0
gene 3 4 15 6.32718 0 4 6.32718 1
gene 1 5 16 -2.87069 0 5 -2.87069 1
gene 3 6 12 5.61898 0 2 5.61898 1
gene 2 7 12 3.73074 0 3 3.73074 1
gene 2 8 12 0.194975 0 4 0.194975 1
gene 2 9 12 -3.01336 0 5 -3.01336 1
gene 3 10 12 -1.15429 0 6 -1.15429 1
gene 2 11 12 1.09202 0 7 1.09202 1
gene 3 1 13 4.03336 0 5 4.03336 1
gene 1 2 14 0.988075 0 6 0.988075 1
gene 1 3 15 -0.196997 0 7 -0.196997 1
gene 2 8 13 4.62477 0 12 4.62477 1
gene 1 3 20 1.01871 0 18 1.01871 1
gene 1 20 14 4.32828 0 19 4.32828 1
genomeend 377

/* Organism #584 Fitness: 4326 Error: 0 */
genomestart 584
trait 1 0.1 0 0 0.15405 0.25294 0.222427 0.0145529 0.000269659 
trait 2 0.13125 0.00965237 0.0134131 0.0354663 0.0815258 0.00213975 0.15371 0.0638576 
trait 3 0.35645 0.0388424 0.0898283 0.42098 0.258813 0 0 0.182342 
node 1 1 1 1
node 2 1 1 1
node 3 2 1 1
node 4 3 1 1
node 5 3 1 1
node 6 3 1 1
node 7 1 1 1
node 8 3 1 1
node 9 2 1 1
node 10 2 1 1
node 11 3 1 3
node 12 2 0 2
node 13 1 0 2
node 14 1 0 2
node 15 3 0 2
node 16 1 0 2
node 20 1 0 0
gene 3 1 12 4.85417 0 1 4.85417 1
gene 1 2 13 -2.36395 0 2 -2.36395 1
gene 1 3 14 1.81047 0 3 1.81047 0
gene 3 4 15 0.550249 0 4 0.550249 1
gene 1 5 16 -2.30392 0 5 -2.30392 1
gene 3 6 12 -1.62763 0 2 -1.62763 1
gene 2 7 12 -1.52043 0 3 -1.52043 1
gene 2 8 12 6.09907 0 4 6.09907 1
gene 1 9 12 1.69389 0 5 1.69389 1
gene 2 10 12 0.773453 0 6 0.773453 1
gene 2 11 12 2.60624 0 7 2.60624 1
gene 3 1 13 5.91309 0 5 5.91309 1
gene 1 2 14 -2.52239 0 6 -2.52239 1
gene 1 3 15 1.84805 0 7 1.84805 1
gene 2 8 13 3.28368 0 12 3.28368 1
gene 1 3 20 -2.08068 0 18 -2.08068 1
gene 1 20 14 0.530807 0 19 0.530807 1
genomeend 584

/* Organism #566 Fitness: 3429 Error: 0 */
genomestart 566
trait 1 0.1 0 0 0.086653 0.150652 0.125115 0.0145529 0.000308985 
trait 2 0.13125 0.00965237 0.000704072 0.0354663 0.0815258 0.00213975 0.15371 0.0659175 
trait 3 0.35645 0.0388424 0.0748611 0.42098 0.262244 0 0 0.182342 
node 1 1 1 1
node 2 1 1 1
node 3 2 1 1
node 4 3 1 1
node 5 3 1 1
node 6 3 1 1
node 7 1 1 1
node 8 3 1 1
node 9 2 1 1
node 10 2 1 1
node 11 3 1 3
node 12 2 0 2
node 13 1 0 2
node 14 1 0 2
node 15 3 0 2
node 16 1 0 2
node 20 1 0 0
gene 3 1 12 5.24288 0 1 5.24288 1
gene 1 2 13 -0.0294065 0 2 -0.0294065 1
gene 1 3 14 3.46553 0 3 3.46553 0
gene 3 4 15 1.02753 0 4 1.02753 1
gene 1 5 16 -1.05704 0 5 -1.05704 1
gene 3 6 12 0.889492 0 2 0.889492 0
gene 2 7 12 0.721824 0 3 0.721824 1
gene 2 8 12 6.94756 0 4 6.94756 1
gene 1 9 12 0.105365 0 5 0.105365 1
gene 2 10 12 1.56915 0 6 1.56915 1
gene 2 11 12 2.41585 0 7 2.41585 1
gene 3 1 13 4.37359 0 5 4.37359 1
gene 1 2 14 1.25603 0 6 1.25603 1
gene 1 3 15 -4.01565 0 7 -4.01565 1
gene 2 8 13 4.93984 0 12 4.93984 1
gene 1 3 20 -2.97197 0 18 -2.97197 1
gene 1 20 14 -1.29405 0 19 -1.29405 1
genomeend 566

/* Organism #530 Fitness: 2393 Error: 0 */
genomestart 530
trait 1 0.1 0 0 0.15405 0.25294 0.222427 0.0145529 0.000269659 
trait 2 0.13125 0.00965237 0.0388312 0.0354663 0.0815258 0.00213975 0.15371 0.0597377 
trait 3 0.35645 0.0388424 0.0499158 0.42098 0.267963 0 0 0.182342 
node 1 1 1 1
node 2 1 1 1
node 3 2 1 1
node 4 3 1 1
node 5 3 1 1
node 6 3 1 1
node 7 1 1 1
node 8 3 1 1
node 9 2 1 1
node 10 2 1 1
node 11 3 1 3
node 12 2 0 2
node 13 1 0 2
node 14 1 0 2
node 15 3 0 2
node 16 1 0 2
node 20 1 0 0
gene 3 1 12 4.9635 0 1 4.9635 1
gene 1 2 13 -5.101 0 2 -5.101 1
gene 1 3 14 3.25718 0 3 3.25718 0
gene 3 4 15 3.11927 0 4 3.11927 1
gene 1 5 16 -1.74123 0 5 -1.74123 1
gene 3 6 12 5.94225 0 2 5.94225 1
gene 2 7 12 -2.9728 0 3 -2.9728 1
gene 2 8 12 1.87805 0 4 1.87805 1
gene 1 9 12 3.99297 0 5 3.99297 1
gene 2 10 12 5.51241 0 6 5.51241 1
gene 2 11 12 -0.485324 0 7 -0.485324 1
gene 3 1 13 6.92446 0 5 6.92446 1
gene 1 2 14 2.53376 0 6 2.53376 1
gene 1 3 15 -3.59565 0 7 -3.59565 1
gene 2 8 13 6.95486 0 12 6.95486 1
gene 1 3 20 -3.69984 0 18 -3.69984 1
gene 1 20 14 -0.609531 0 19 -0.609531 1
genomeend 530

/* Organism #575 Fitness: 2380 Error: 0 */
genomestart 575
trait 1 0.1 0 0 0 0.019138 0 0.0145529 0.000359546 
trait 2 0.13125 0.00965237 0.000704072 0.0354663 0.0815258 0.00213975 0.15371 0.0659175 
trait 3 0.35645 0.0388424 0.0299596 0.42098 0.272538 0 0 0.182342 
node 1 1 1 1
node 2 1 1 1
node 3 2 1 1
node 4 3 1 1
node 5 3 1 1
node 6 3 1 1
node 7 1 1 1
node 8 3 1 1
node 9 2 1 1
node 10 2 1 1
node 11 3 1 3
node 12 2 0 2
node 13 1 0 2
node 14 1 0 2
node 15 3 0 2
node 16 1 0 2
node 20 1 0 0
gene 3 1 12 -1.45367 0 1 -1.45367 1
gene 1 2 13 1.19718 0 2 1.19718 1
gene 1 3 14 4.43299 0 3 4.43299 0
gene 3 4 15 3.76466 0 4 3.76466 1
gene 1 5 16 -2.28343 0 5 -2.28343 1
gene 3 6 12 5.47111 0 2 5.47111 1
gene 2 7 12 -0.954085 0 3 -0.954085 1
gene 2 8 12 2.94345 0 4 2.94345 1
gene 1 9 12 -1.57437 0 5 -1.57437 1
gene 2 10 12 -1.03763 0 6 -1.03763 1
gene 2 11 12 2.13797 0 7 2.13797 1
gene 3 1 13 6.6653 0 5 6.6653 1
gene 1 2 14 -0.0721 0 6 -0.0721 1
gene 1 3 15 -5.14664 0 7 -5.14664 1
gene 2 8 13 -0.237434 0 12 -0.237434 1
gene 1 3 20 -2.02429 0 18 -2.02429 1
gene 1 20 14 -2.8515 0 19 -2.8515 1
genomeend 575

/* Organism #585 Fitness: 0 Error: 0 */
genomestart 585
trait 1 0.1 0 0 0.15405 0.25294 0.222427 0.0145529 0.000269659 
trait 2 0.13125 0.00965237 0.000704072 0.0354663 0.0815258 0.00213975 0.15371 0.0659175 
trait 3 0.35645 0.0388424 0.0698721 0.42098 0.263388 0 0 0.182342 
node 1 1 1 1
node 2 1 1 1
node 3 2 1 1
node 4 3 1 1
node 5 3 1 1
node 6 3 1 1
node 7 1 1 1
node 8 3 1 1
node 9 2 1 1
node 10 2 1 1
node 11 3 1 3
node 12 2 0 2
node 13 1 0 2
node 14 1 0 2
node 15 3 0 2
node 16 1 0 2
node 20 1 0 0
gene 3 1 12 2.8562 0 1 2.8562 1
gene 1 2 13 -1.59178 0 2 -1.59178 1
gene 1 3 14 2.0951 0 3 2.0951 0
gene 3 4 15 -0.566149 0 4 -0.566149 1
gene 1 5 16 0.584964 0 5 0.584964 1
gene 3 6 12 -1.47002 0 2 -1.47002 1
gene 2 7 12 2.05111 0 3 2.05111 1
gene 2 8 12 7.32515 0 4 7.32515 1
gene 1 9 12 -0.647813 0 5 -0.647813 1
gene 2 10 12 1.9598 0 6 1.9598 1
gene 2 11 12 0.936918 0 7 0.936918 1
gene 3 1 13 5.11748 0 5 5.11748 1
gene 1 2 14 2.08216 0 6 2.08216 1
gene 1 3 15 -5.09012 0 7 -5.09012 1
gene 2 8 13 0.768609 0 12 0.768609 1
gene 1 3 20 -3.55901 0 18 -3.55901 1
gene 1 20 14 1.54309 0 19 1.54309 1
genomeend 585
