
/* Species #1 : (Size 40) (AF 0) (Age 1)  */


/* Organism #2 Fitness: 1173.04 Error: 0 */
genomestart 2
trait 1 0.1 0 0 0 0.019138 0 0.0145529 0.000359546 
trait 2 0.13125 0.00965237 0.000704072 0.0354663 0.0815258 0.00213975 0.15371 0.0659175 
trait 3 0.288544 0 0.0299596 0.110561 0 0 0 0.16146 
node 1 3 1 1
node 2 2 1 1
node 3 3 1 1
node 4 2 1 1
node 5 2 1 1
node 6 1 1 1
node 7 3 1 1
node 8 3 1 1
node 9 3 1 1
node 10 3 1 1
node 11 3 1 3
node 12 2 0 2
node 13 2 0 2
node 14 3 0 2
node 15 1 0 2
node 16 1 0 2
gene 1 1 12 0.616779 0 1 0.616779 1
gene 3 2 13 -0.267647 0 2 -0.267647 1
gene 3 3 14 -0.357219 0 3 -0.357219 1
gene 3 4 15 0.230079 0 4 0.230079 1
gene 3 5 16 0.00796533 0 5 0.00796533 1
gene 3 6 12 -0.421949 0 2 -0.421949 1
gene 2 7 12 0.544053 0 3 0.544053 1
gene 2 8 12 -0.718375 0 4 -0.718375 1
gene 3 9 12 -0.591021 0 5 -0.591021 1
gene 1 10 12 -0.803827 0 6 -0.803827 1
gene 3 11 12 0.363628 0 7 0.363628 1
gene 1 1 13 -0.0481277 0 5 -0.0481277 1
gene 3 2 14 -0.803003 0 6 -0.803003 1
gene 2 3 15 0.341777 0 7 0.341777 1
genomeend 2

/* Organism #37 Fitness: 870.656 Error: 0 */
genomestart 37
trait 1 0.1 0 0 0 0.019138 0 0.0145529 0.000359546 
trait 2 0.13125 0.00965237 0.000704072 0.0354663 0.0815258 0.00213975 0.15371 0.0659175 
trait 3 0.288544 0 0.0299596 0.110561 0 0 0 0.16146 
node 1 1 1 1
node 2 2 1 1
node 3 1 1 1
node 4 2 1 1
node 5 3 1 1
node 6 1 1 1
node 7 3 1 1
node 8 2 1 1
node 9 1 1 1
node 10 1 1 1
node 11 3 1 3
node 12 1 0 2
node 13 1 0 2
node 14 2 0 2
node 15 2 0 2
node 16 2 0 2
gene 2 1 12 -0.585559 0 1 -0.585559 1
gene 3 2 13 -0.0505387 0 2 -0.0505387 1
gene 2 3 14 0.0889004 0 3 0.0889004 1
gene 3 4 15 -0.523209 0 4 -0.523209 1
gene 3 5 16 -0.366649 0 5 -0.366649 1
gene 2 6 12 -0.965056 0 2 -0.965056 1
gene 1 7 12 -0.371563 0 3 -0.371563 1
gene 1 8 12 -0.339305 0 4 -0.339305 1
gene 3 9 12 -0.477004 0 5 -0.477004 1
gene 2 10 12 -0.992676 0 6 -0.992676 1
gene 1 11 12 -0.177313 0 7 -0.177313 1
gene 1 1 13 0.707083 0 5 0.707083 1
gene 2 2 14 -0.780633 0 6 -0.780633 1
gene 1 3 15 -0.759239 0 7 -0.759239 1
genomeend 37

/* Organism #28 Fitness: 865.874 Error: 0 */
genomestart 28
trait 1 0.1 0 0 0 0.019138 0 0.0145529 0.000359546 
trait 2 0.13125 0.00965237 0.000704072 0.0354663 0.0815258 0.00213975 0.15371 0.0659175 
trait 3 0.288544 0 0.0299596 0.110561 0 0 0 0.16146 
node 1 2 1 1
node 2 2 1 1
node 3 1 1 1
node 4 1 1 1
node 5 3 1 1
node 6 2 1 1
node 7 1 1 1
node 8 3 1 1
node 9 1 1 1
node 10 1 1 1
node 11 3 1 3
node 12 3 0 2
node 13 3 0 2
node 14 1 0 2
node 15 1 0 2
node 16 1 0 2
gene 2 1 12 0.589892 0 1 0.589892 1
gene 1 2 13 0.722434 0 2 0.722434 1
gene 3 3 14 -0.205023 0 3 -0.205023 1
gene 2 4 15 -0.61388 0 4 -0.61388 1
gene 3 5 16 -0.994842 0 5 -0.994842 1
gene 1 6 12 -0.755028 0 2 -0.755028 1
gene 1 7 12 -0.756859 0 3 -0.756859 1
gene 3 8 12 0.797632 0 4 0.797632 1
gene 2 9 12 -0.619953 0 5 -0.619953 1
gene 3 10 12 0.265572 0 6 0.265572 1
gene 2 11 12 0.577593 0 7 0.577593 1
gene 2 1 13 0.604877 0 5 0.604877 1
gene 3 2 14 -0.187109 0 6 -0.187109 1
gene 1 3 15 -0.7275 0 7 -0.7275 1
genomeend 28

/* Organism #10 Fitness: 859.909 Error: 0 */
genomestart 10
trait 1 0.1 0 0 0 0.019138 0 0.0145529 0.000359546 
trait 2 0.13125 0.00965237 0.000704072 0.0354663 0.0815258 0.00213975 0.15371 0.0659175 
trait 3 0.288544 0 0.0299596 0.110561 0 0 0 0.16146 
node 1 1 1 1
node 2 1 1 1
node 3 3 1 1
node 4 2 1 1
node 5 3 1 1
node 6 1 1 1
node 7 3 1 1
node 8 2 1 1
node 9 1 1 1
node 10 1 1 1
node 11 2 1 3
node 12 3 0 2
node 13 1 0 2
node 14 1 0 2
node 15 3 0 2
node 16 3 0 2
gene 1 1 12 0.819727 0 1 0.819727 1
gene 2 2 13 -0.824305 0 2 -0.824305 1
gene 2 3 14 0.340159 0 3 0.340159 1
gene 1 4 15 -0.0564898 0 4 -0.0564898 1
gene 1 5 16 -0.3708 0 5 -0.3708 1
gene 1 6 12 -0.870113 0 2 -0.870113 1
gene 1 7 12 -0.167333 0 3 -0.167333 1
gene 1 8 12 -0.00122074 0 4 -0.00122074 1
gene 2 9 12 -0.266182 0 5 -0.266182 1
gene 1 10 12 -0.477798 0 6 -0.477798 1
gene 3 11 12 -0.719932 0 7 -0.719932 1
gene 1 1 13 0.988647 0 5 0.988647 1
gene 3 2 14 0.670614 0 6 0.670614 1
gene 1 3 15 0.293863 0 7 0.293863 1
genomeend 10

/* Organism #14 Fitness: 833.704 Error: 0 */
genomestart 14
trait 1 0.1 0 0 0 0.019138 0 0.0145529 0.000359546 
trait 2 0.13125 0.00965237 0.000704072 0.0354663 0.0815258 0.00213975 0.15371 0.0659175 
trait 3 0.288544 0 0.0299596 0.110561 0 0 0 0.16146 
node 1 3 1 1
node 2 3 1 1
node 3 3 1 1
node 4 2 1 1
node 5 1 1 1
node 6 1 1 1
node 7 3 1 1
node 8 1 1 1
node 9 3 1 1
node 10 1 1 1
node 11 1 1 3
node 12 3 0 2
node 13 2 0 2
node 14 1 0 2
node 15 3 0 2
node 16 1 0 2
gene 2 1 12 -0.227577 0 1 -0.227577 1
gene 2 2 13 0.702719 0 2 0.702719 1
gene 1 3 14 0.621509 0 3 0.621509 1
gene 1 4 15 -0.539842 0 4 -0.539842 1
gene 3 5 16 -0.41493 0 5 -0.41493 1
gene 2 6 12 -0.709189 0 2 -0.709189 1
gene 3 7 12 0.455245 0 3 0.455245 1
gene 2 8 12 0.0379345 0 4 0.0379345 1
gene 1 9 12 0.988922 0 5 0.988922 1
gene 2 10 12 -0.959624 0 6 -0.959624 1
gene 2 11 12 -0.859676 0 7 -0.859676 1
gene 2 1 13 0.549211 0 5 0.549211 1
gene 3 2 14 0.0760216 0 6 0.0760216 1
gene 2 3 15 -0.880947 0 7 -0.880947 1
genomeend 14

/* Organism #17 Fitness: 811.935 Error: 0 */
genomestart 17
trait 1 0.1 0 0 0 0.019138 0 0.0145529 0.000359546 
trait 2 0.13125 0.00965237 0.000704072 0.0354663 0.0815258 0.00213975 0.15371 0.0659175 
trait 3 0.288544 0 0.0299596 0.110561 0 0 0 0.16146 
node 1 1 1 1
node 2 2 1 1
node 3 1 1 1
node 4 2 1 1
node 5 2 1 1
node 6 2 1 1
node 7 3 1 1
node 8 1 1 1
node 9 1 1 1
node 10 3 1 1
node 11 1 1 3
node 12 1 0 2
node 13 1 0 2
node 14 2 0 2
node 15 2 0 2
node 16 2 0 2
gene 1 1 12 -0.331355 0 1 -0.331355 1
gene 2 2 13 0.517441 0 2 0.517441 1
gene 3 3 14 1.93669 0 3 1.93669 1
gene 1 4 15 -1.93391 0 4 -1.93391 1
gene 2 5 16 -0.747475 0 5 -0.747475 1
gene 1 6 12 -2.72999 0 2 -2.72999 1
gene 1 7 12 -0.835841 0 3 -0.835841 1
gene 1 8 12 -1.49457 0 4 -1.49457 1
gene 2 9 12 0.435057 0 5 0.435057 1
gene 3 10 12 -0.0084994 0 6 -0.0084994 1
gene 3 11 12 -1.57018 0 7 -1.57018 1
gene 3 1 13 2.08226 0 5 2.08226 1
gene 1 2 14 0.354076 0 6 0.354076 1
gene 1 3 15 -2.06095 0 7 -2.06095 1
genomeend 17

/* Organism #27 Fitness: 704.374 Error: 0 */
genomestart 27
trait 1 0.1 0 0 0 0.019138 0 0.0145529 0.000359546 
trait 2 0.13125 0.00965237 0.000704072 0.0354663 0.0815258 0.00213975 0.15371 0.0659175 
trait 3 0.288544 0 0.0299596 0.110561 0 0 0 0.16146 
node 1 1 1 1
node 2 2 1 1
node 3 2 1 1
node 4 1 1 1
node 5 1 1 1
node 6 2 1 1
node 7 2 1 1
node 8 1 1 1
node 9 2 1 1
node 10 3 1 1
node 11 3 1 3
node 12 3 0 2
node 13 1 0 2
node 14 3 0 2
node 15 2 0 2
node 16 3 0 2
gene 2 1 12 0.885861 0 1 0.885861 1
gene 3 2 13 -0.762871 0 2 -0.762871 1
gene 3 3 14 -0.203955 0 3 -0.203955 1
gene 1 4 15 -0.996521 0 4 -0.996521 1
gene 1 5 16 -0.335093 0 5 -0.335093 1
gene 3 6 12 0.901059 0 2 0.901059 1
gene 2 7 12 -0.585437 0 3 -0.585437 1
gene 2 8 12 -0.228492 0 4 -0.228492 1
gene 2 9 12 -0.578509 0 5 -0.578509 1
gene 1 10 12 -0.266884 0 6 -0.266884 1
gene 2 11 12 -0.131626 0 7 -0.131626 1
gene 2 1 13 -0.604083 0 5 -0.604083 1
gene 2 2 14 -0.608417 0 6 -0.608417 1
gene 3 3 15 -0.763024 0 7 -0.763024 1
genomeend 27

/* Organism #31 Fitness: 693.836 Error: 0 */
genomestart 31
trait 1 0.1 0 0 0 0.019138 0 0.0145529 0.000359546 
trait 2 0.13125 0.00965237 0.000704072 0.0354663 0.0815258 0.00213975 0.15371 0.0659175 
trait 3 0.288544 0 0.0299596 0.110561 0 0 0 0.16146 
node 1 2 1 1
node 2 3 1 1
node 3 3 1 1
node 4 2 1 1
node 5 1 1 1
node 6 2 1 1
node 7 3 1 1
node 8 2 1 1
node 9 1 1 1
node 10 2 1 1
node 11 3 1 3
node 12 2 0 2
node 13 2 0 2
node 14 3 0 2
node 15 1 0 2
node 16 3 0 2
gene 2 1 12 0.403211 0 1 0.403211 1
gene 3 2 13 -0.925321 0 2 -0.925321 1
gene 1 3 14 0.826441 0 3 0.826441 1
gene 2 4 15 0.0119938 0 4 0.0119938 1
gene 2 5 16 -0.647298 0 5 -0.647298 1
gene 2 6 12 0.615009 0 2 0.615009 1
gene 1 7 12 0.675375 0 3 0.675375 1
gene 1 8 12 0.255684 0 4 0.255684 1
gene 2 9 12 -0.721793 0 5 -0.721793 1
gene 1 10 12 -0.297433 0 6 -0.297433 1
gene 3 11 12 0.628071 0 7 0.628071 1
gene 2 1 13 0.455916 0 5 0.455916 1
gene 3 2 14 0.109653 0 6 0.109653 1
gene 3 3 15 -0.639546 0 7 -0.639546 1
genomeend 31

/* Organism #17 Fitness: 691.275 Error: 0 */
genomestart 17
trait 1 0.1 0 0 0 0.019138 0 0.0145529 0.000359546 
trait 2 0.13125 0.00965237 0.000704072 0.0354663 0.0815258 0.00213975 0.15371 0.0659175 
trait 3 0.288544 0 0.0299596 0.110561 0 0 0 0.16146 
node 1 1 1 1
node 2 3 1 1
node 3 2 1 1
node 4 3 1 1
node 5 1 1 1
node 6 2 1 1
node 7 2 1 1
node 8 2 1 1
node 9 3 1 1
node 10 2 1 1
node 11 3 1 3
node 12 2 0 2
node 13 1 0 2
node 14 2 0 2
node 15 1 0 2
node 16 2 0 2
gene 2 1 12 0.459517 0 1 0.459517 1
gene 3 2 13 -0.497909 0 2 -0.497909 1
gene 1 3 14 0.496567 0 3 0.496567 1
gene 3 4 15 0.941588 0 4 0.941588 1
gene 1 5 16 -0.930265 0 5 -0.930265 1
gene 1 6 12 0.359813 0 2 0.359813 1
gene 3 7 12 -0.936277 0 3 -0.936277 1
gene 1 8 12 0.897702 0 4 0.897702 1
gene 2 9 12 -0.548326 0 5 -0.548326 1
gene 2 10 12 -0.727897 0 6 -0.727897 1
gene 2 11 12 -0.289651 0 7 -0.289651 1
gene 3 1 13 -0.83346 0 5 -0.83346 1
gene 1 2 14 0.71749 0 6 0.71749 1
gene 1 3 15 -0.432661 0 7 -0.432661 1
genomeend 17

/* Organism #23 Fitness: 688.352 Error: 0 */
genomestart 23
trait 1 0.1 0 0 0 0.019138 0 0.0145529 0.000359546 
trait 2 0.13125 0.00965237 0.000704072 0.0354663 0.0815258 0.00213975 0.15371 0.0659175 
trait 3 0.288544 0 0.0299596 0.110561 0 0 0 0.16146 
node 1 1 1 1
node 2 2 1 1
node 3 1 1 1
node 4 2 1 1
node 5 2 1 1
node 6 2 1 1
node 7 3 1 1
node 8 1 1 1
node 9 1 1 1
node 10 3 1 1
node 11 1 1 3
node 12 1 0 2
node 13 1 0 2
node 14 2 0 2
node 15 2 0 2
node 16 2 0 2
gene 3 1 12 0.31959 0 1 0.31959 1
gene 2 2 13 -0.950468 0 2 -0.950468 1
gene 3 3 14 -0.275216 0 3 -0.275216 1
gene 2 4 15 -0.486587 0 4 -0.486587 1
gene 2 5 16 -0.658742 0 5 -0.658742 1
gene 2 6 12 0.381909 0 2 0.381909 1
gene 1 7 12 -0.63152 0 3 -0.63152 1
gene 1 8 12 -0.929502 0 4 -0.929502 1
gene 3 9 12 0.149052 0 5 0.149052 1
gene 3 10 12 -0.0630512 0 6 -0.0630512 1
gene 1 11 12 0.168279 0 7 0.168279 1
gene 3 1 13 0.124729 0 5 0.124729 1
gene 1 2 14 -0.835688 0 6 -0.835688 1
gene 1 3 15 -0.954802 0 7 -0.954802 1
genomeend 23

/* Organism #16 Fitness: 652.169 Error: 0 */
genomestart 16
trait 1 0.1 0 0 0 0.019138 0 0.0145529 0.000359546 
trait 2 0.13125 0.00965237 0.000704072 0.0354663 0.0815258 0.00213975 0.15371 0.0659175 
trait 3 0.288544 0 0.0299596 0.110561 0 0 0 0.16146 
node 1 1 1 1
node 2 1 1 1
node 3 3 1 1
node 4 2 1 1
node 5 3 1 1
node 6 3 1 1
node 7 2 1 1
node 8 3 1 1
node 9 1 1 1
node 10 2 1 1
node 11 1 1 3
node 12 2 0 2
node 13 2 0 2
node 14 3 0 2
node 15 1 0 2
node 16 1 0 2
gene 2 1 12 0.531022 0 1 0.531022 1
gene 1 2 13 0.0743736 0 2 0.0743736 1
gene 2 3 14 -0.231056 0 3 -0.231056 1
gene 3 4 15 -0.906339 0 4 -0.906339 1
gene 1 5 16 -0.0757775 0 5 -0.0757775 1
gene 3 6 12 -0.402814 0 2 -0.402814 1
gene 2 7 12 0.23954 0 3 0.23954 1
gene 2 8 12 -0.447707 0 4 -0.447707 1
gene 2 9 12 0.105014 0 5 0.105014 1
gene 2 10 12 -0.979186 0 6 -0.979186 1
gene 3 11 12 -0.697256 0 7 -0.697256 1
gene 1 1 13 0.154668 0 5 0.154668 1
gene 3 2 14 -0.176763 0 6 -0.176763 1
gene 1 3 15 0.505722 0 7 0.505722 1
genomeend 16

/* Organism #18 Fitness: 642.368 Error: 0 */
genomestart 18
trait 1 0.1 0 0 0 0.019138 0 0.0145529 0.000359546 
trait 2 0.13125 0.00965237 0.000704072 0.0354663 0.0815258 0.00213975 0.15371 0.0659175 
trait 3 0.288544 0 0.0299596 0.110561 0 0 0 0.16146 
node 1 1 1 1
node 2 2 1 1
node 3 1 1 1
node 4 2 1 1
node 5 2 1 1
node 6 2 1 1
node 7 3 1 1
node 8 1 1 1
node 9 1 1 1
node 10 3 1 1
node 11 1 1 3
node 12 1 0 2
node 13 1 0 2
node 14 2 0 2
node 15 2 0 2
node 16 2 0 2
gene 2 1 12 0.853679 0 1 0.853679 1
gene 3 2 13 0.420316 0 2 0.420316 1
gene 3 3 14 1.99713 0 3 1.99713 1
gene 3 4 15 -0.630558 0 4 -0.630558 1
gene 2 5 16 2.27409 0 5 2.27409 1
gene 2 6 12 0.621082 0 2 0.621082 1
gene 1 7 12 -1.95804 0 3 -1.95804 1
gene 1 8 12 -0.832774 0 4 -0.832774 1
gene 3 9 12 0.0600299 0 5 0.0600299 1
gene 3 10 12 -1.8645 0 6 -1.8645 1
gene 1 11 12 -1.29856 0 7 -1.29856 1
gene 1 1 13 -0.727699 0 5 -0.727699 1
gene 1 2 14 -1.07505 0 6 -1.07505 1
gene 1 3 15 1.21883 0 7 1.21883 1
genomeend 18

/* Organism #22 Fitness: 611.18 Error: 0 */
genomestart 22
trait 1 0.1 0 0 0 0.019138 0 0.0145529 0.000359546 
trait 2 0.13125 0.00965237 0.000704072 0.0354663 0.0815258 0.00213975 0.15371 0.0659175 
trait 3 0.288544 0 0.0299596 0.110561 0 0 0 0.16146 
node 1 1 1 1
node 2 2 1 1
node 3 2 1 1
node 4 1 1 1
node 5 1 1 1
node 6 3 1 1
node 7 2 1 1
node 8 1 1 1
node 9 3 1 1
node 10 1 1 1
node 11 2 1 3
node 12 2 0 2
node 13 3 0 2
node 14 2 0 2
node 15 1 0 2
node 16 3 0 2
gene 2 1 12 0.725394 0 1 0.725394 1
gene 1 2 13 -0.212806 0 2 -0.212806 1
gene 1 3 14 0.373272 0 3 0.373272 1
gene 3 4 15 0.767479 0 4 0.767479 1
gene 2 5 16 -0.760186 0 5 -0.760186 1
gene 2 6 12 0.750999 0 2 0.750999 1
gene 1 7 12 -0.633137 0 3 -0.633137 1
gene 3 8 12 -0.368358 0 4 -0.368358 1
gene 1 9 12 0.169622 0 5 0.169622 1
gene 3 10 12 -0.21424 0 6 -0.21424 1
gene 2 11 12 0.695608 0 7 0.695608 1
gene 1 1 13 -0.984191 0 5 -0.984191 1
gene 1 2 14 -0.334727 0 6 -0.334727 1
gene 2 3 15 -0.570269 0 7 -0.570269 1
genomeend 22

/* Organism #20 Fitness: 605.878 Error: 0 */
genomestart 20
trait 1 0.1 0 0 0 0.019138 0 0.0145529 0.000359546 
trait 2 0.13125 0.00965237 0.000704072 0.0354663 0.0815258 0.00213975 0.15371 0.0659175 
trait 3 0.288544 0 0.0299596 0.110561 0 0 0 0.16146 
node 1 2 1 1
node 2 2 1 1
node 3 1 1 1
node 4 2 1 1
node 5 3 1 1
node 6 3 1 1
node 7 3 1 1
node 8 3 1 1
node 9 3 1 1
node 10 2 1 1
node 11 3 1 3
node 12 2 0 2
node 13 3 0 2
node 14 2 0 2
node 15 2 0 2
node 16 1 0 2
gene 1 1 12 0.532884 0 1 0.532884 1
gene 3 2 13 -0.163762 0 2 -0.163762 1
gene 3 3 14 0.335948 0 3 0.335948 1
gene 2 4 15 0.353893 0 4 0.353893 1
gene 2 5 16 -0.906095 0 5 -0.906095 1
gene 2 6 12 0.974242 0 2 0.974242 1
gene 1 7 12 0.711051 0 3 0.711051 1
gene 1 8 12 0.598498 0 4 0.598498 1
gene 3 9 12 -0.19248 0 5 -0.19248 1
gene 1 10 12 -0.706809 0 6 -0.706809 1
gene 1 11 12 -0.21543 0 7 -0.21543 1
gene 2 1 13 -0.979766 0 5 -0.979766 1
gene 2 2 14 0.964843 0 6 0.964843 1
gene 2 3 15 0.617878 0 7 0.617878 1
genomeend 20

/* Organism #9 Fitness: 601.417 Error: 0 */
genomestart 9
trait 1 0.1 0 0 0 0.019138 0 0.0145529 0.000359546 
trait 2 0.13125 0.00965237 0.000704072 0.0354663 0.0815258 0.00213975 0.15371 0.0659175 
trait 3 0.288544 0 0.0299596 0.110561 0 0 0 0.16146 
node 1 3 1 1
node 2 2 1 1
node 3 1 1 1
node 4 3 1 1
node 5 1 1 1
node 6 3 1 1
node 7 2 1 1
node 8 1 1 1
node 9 3 1 1
node 10 2 1 1
node 11 1 1 3
node 12 1 0 2
node 13 1 0 2
node 14 2 0 2
node 15 2 0 2
node 16 1 0 2
gene 3 1 12 -0.829005 0 1 -0.829005 1
gene 2 2 13 0.584429 0 2 0.584429 1
gene 2 3 14 -0.121586 0 3 -0.121586 1
gene 3 4 15 -0.0848109 0 4 -0.0848109 1
gene 2 5 16 -0.441542 0 5 -0.441542 1
gene 3 6 12 -0.117679 0 2 -0.117679 1
gene 3 7 12 0.822077 0 3 0.822077 1
gene 2 8 12 -0.0744652 0 4 -0.0744652 1
gene 1 9 12 0.806696 0 5 0.806696 1
gene 2 10 12 0.960723 0 6 0.960723 1
gene 1 11 12 0.323283 0 7 0.323283 1
gene 2 1 13 -0.812128 0 5 -0.812128 1
gene 3 2 14 0.492813 0 6 0.492813 1
gene 2 3 15 0.169927 0 7 0.169927 1
genomeend 9

/* Organism #8 Fitness: 567.983 Error: 0 */
genomestart 8
trait 1 0.1 0 0 0 0.019138 0 0.0145529 0.000359546 
trait 2 0.13125 0.00965237 0.000704072 0.0354663 0.0815258 0.00213975 0.15371 0.0659175 
trait 3 0.288544 0 0.0299596 0.110561 0 0 0 0.16146 
node 1 2 1 1
node 2 1 1 1
node 3 3 1 1
node 4 2 1 1
node 5 2 1 1
node 6 1 1 1
node 7 2 1 1
node 8 2 1 1
node 9 2 1 1
node 10 1 1 1
node 11 2 1 3
node 12 2 0 2
node 13 1 0 2
node 14 3 0 2
node 15 3 0 2
node 16 1 0 2
gene 2 1 12 -0.877316 0 1 -0.877316 1
gene 2 2 13 0.582049 0 2 0.582049 1
gene 2 3 14 0.419904 0 3 0.419904 1
gene 1 4 15 0.0632954 0 4 0.0632954 1
gene 3 5 16 -0.578845 0 5 -0.578845 1
gene 1 6 12 -0.94821 0 2 -0.94821 1
gene 1 7 12 0.703665 0 3 0.703665 1
gene 2 8 12 -0.153264 0 4 -0.153264 1
gene 3 9 12 -0.978576 0 5 -0.978576 1
gene 3 10 12 -0.746971 0 6 -0.746971 1
gene 3 11 12 -0.71923 0 7 -0.71923 1
gene 1 1 13 -0.872433 0 5 -0.872433 1
gene 1 2 14 -0.929685 0 6 -0.929685 1
gene 2 3 15 0.00830103 0 7 0.00830103 1
genomeend 8

/* Organism #21 Fitness: 539.121 Error: 0 */
genomestart 21
trait 1 0.1 0 0 0 0.019138 0 0.0145529 0.000359546 
trait 2 0.13125 0.00965237 0.000704072 0.0354663 0.0815258 0.00213975 0.15371 0.0659175 
trait 3 0.288544 0 0.0299596 0.110561 0 0 0 0.16146 
node 1 2 1 1
node 2 3 1 1
node 3 1 1 1
node 4 2 1 1
node 5 2 1 1
node 6 2 1 1
node 7 2 1 1
node 8 1 1 1
node 9 3 1 1
node 10 3 1 1
node 11 3 1 3
node 12 3 0 2
node 13 2 0 2
node 14 1 0 2
node 15 1 0 2
node 16 3 0 2
gene 1 1 12 -0.482101 0 1 -0.482101 1
gene 1 2 13 0.324076 0 2 0.324076 1
gene 2 3 14 -0.814142 0 3 -0.814142 1
gene 2 4 15 -0.283425 0 4 -0.283425 1
gene 1 5 16 -0.665151 0 5 -0.665151 1
gene 1 6 12 -0.182623 0 2 -0.182623 1
gene 3 7 12 0.519608 0 3 0.519608 1
gene 3 8 12 0.140324 0 4 0.140324 1
gene 1 9 12 -0.27427 0 5 -0.27427 1
gene 3 10 12 0.689535 0 6 0.689535 1
gene 3 11 12 -0.88345 0 7 -0.88345 1
gene 3 1 13 -0.833888 0 5 -0.833888 1
gene 2 2 14 0.11536 0 6 0.11536 1
gene 2 3 15 -0.105899 0 7 -0.105899 1
genomeend 21

/* Organism #5 Fitness: 327.777 Error: 0 */
genomestart 5
trait 1 0.1 0 0 0 0.019138 0 0.0145529 0.000359546 
trait 2 0.13125 0.00965237 0.000704072 0.0354663 0.0815258 0.00213975 0.15371 0.0659175 
trait 3 0.288544 0 0.0299596 0.110561 0 0 0 0.16146 
node 1 3 1 1
node 2 3 1 1
node 3 1 1 1
node 4 3 1 1
node 5 1 1 1
node 6 2 1 1
node 7 3 1 1
node 8 2 1 1
node 9 2 1 1
node 10 3 1 1
node 11 1 1 3
node 12 2 0 2
node 13 2 0 2
node 14 2 0 2
node 15 2 0 2
node 16 2 0 2
gene 1 1 12 0.550371 0 1 0.550371 1
gene 2 2 13 0.75161 0 2 0.75161 1
gene 3 3 14 0.219062 0 3 0.219062 1
gene 1 4 15 0.84698 0 4 0.84698 1
gene 1 5 16 -0.0802942 0 5 -0.0802942 1
gene 3 6 12 -0.11829 0 2 -0.11829 1
gene 2 7 12 -0.0643025 0 3 -0.0643025 1
gene 3 8 12 0.131535 0 4 0.131535 1
gene 3 9 12 -0.401502 0 5 -0.401502 1
gene 3 10 12 -0.535539 0 6 -0.535539 1
gene 2 11 12 0.536027 0 7 0.536027 1
gene 3 1 13 -0.538438 0 5 -0.538438 1
gene 1 2 14 -0.194403 0 6 -0.194403 1
gene 2 3 15 -0.670766 0 7 -0.670766 1
genomeend 5

/* Organism #35 Fitness: 327.625 Error: 0 */
genomestart 35
trait 1 0.1 0 0 0 0.019138 0 0.0145529 0.000359546 
trait 2 0.13125 0.00965237 0.000704072 0.0354663 0.0815258 0.00213975 0.15371 0.0659175 
trait 3 0.288544 0 0.0299596 0.110561 0 0 0 0.16146 
node 1 2 1 1
node 2 2 1 1
node 3 2 1 1
node 4 1 1 1
node 5 3 1 1
node 6 2 1 1
node 7 2 1 1
node 8 2 1 1
node 9 2 1 1
node 10 2 1 1
node 11 2 1 3
node 12 3 0 2
node 13 2 0 2
node 14 2 0 2
node 15 3 0 2
node 16 1 0 2
gene 3 1 12 0.859462 0 1 0.859462 1
gene 1 2 13 0.755089 0 2 0.755089 1
gene 1 3 14 -0.517136 0 3 -0.517136 1
gene 3 4 15 0.930723 0 4 0.930723 1
gene 1 5 16 -0.834437 0 5 -0.834437 1
gene 3 6 12 -0.0372021 0 2 -0.0372021 1
gene 1 7 12 -0.317545 0 3 -0.317545 1
gene 2 8 12 -0.77105 0 4 -0.77105 1
gene 2 9 12 0.757408 0 5 0.757408 1
gene 3 10 12 -0.91937 0 6 -0.91937 1
gene 1 11 12 0.0193793 0 7 0.0193793 1
gene 1 1 13 0.58565 0 5 0.58565 1
gene 3 2 14 -0.903684 0 6 -0.903684 1
gene 3 3 15 0.397534 0 7 0.397534 1
genomeend 35

/* Organism #4 Fitness: 324.132 Error: 0 */
genomestart 4
trait 1 0.1 0 0 0 0.019138 0 0.0145529 0.000359546 
trait 2 0.13125 0.00965237 0.000704072 0.0354663 0.0815258 0.00213975 0.15371 0.0659175 
trait 3 0.288544 0 0.0299596 0.110561 0 0 0 0.16146 
node 1 1 1 1
node 2 1 1 1
node 3 1 1 1
node 4 3 1 1
node 5 2 1 1
node 6 1 1 1
node 7 2 1 1
node 8 2 1 1
node 9 1 1 1
node 10 1 1 1
node 11 2 1 3
node 12 3 0 2
node 13 1 0 2
node 14 2 0 2
node 15 2 0 2
node 16 1 0 2
gene 2 1 12 -0.928159 0 1 -0.928159 1
gene 3 2 13 -0.502609 0 2 -0.502609 1
gene 2 3 14 -0.387463 0 3 -0.387463 1
gene 2 4 15 -0.140172 0 4 -0.140172 1
gene 3 5 16 -0.372112 0 5 -0.372112 1
gene 1 6 12 0.129551 0 2 0.129551 1
gene 1 7 12 -0.210517 0 3 -0.210517 1
gene 1 8 12 0.405988 0 4 0.405988 1
gene 1 9 12 -0.176366 0 5 -0.176366 1
gene 2 10 12 -0.336558 0 6 -0.336558 1
gene 3 11 12 -0.60921 0 7 -0.60921 1
gene 2 1 13 -0.406629 0 5 -0.406629 1
gene 1 2 14 -0.899411 0 6 -0.899411 1
gene 3 3 15 0.580889 0 7 0.580889 1
genomeend 4

/* Organism #11 Fitness: 320.525 Error: 0 */
genomestart 11
trait 1 0.1 0 0 0 0.019138 0 0.0145529 0.000359546 
trait 2 0.13125 0.00965237 0.000704072 0.0354663 0.0815258 0.00213975 0.15371 0.0659175 
trait 3 0.288544 0 0.0299596 0.110561 0 0 0 0.16146 
node 1 2 1 1
node 2 3 1 1
node 3 1 1 1
node 4 3 1 1
node 5 2 1 1
node 6 1 1 1
node 7 1 1 1
node 8 1 1 1
node 9 3 1 1
node 10 1 1 1
node 11 3 1 3
node 12 1 0 2
node 13 2 0 2
node 14 1 0 2
node 15 3 0 2
node 16 2 0 2
gene 2 1 12 -0.541215 0 1 -0.541215 1
gene 3 2 13 0.292611 0 2 0.292611 1
gene 3 3 14 -0.379742 0 3 -0.379742 1
gene 3 4 15 0.331919 0 4 0.331919 1
gene 1 5 16 -0.434553 0 5 -0.434553 1
gene 1 6 12 0.0826746 0 2 0.0826746 1
gene 2 7 12 0.951872 0 3 0.951872 1
gene 1 8 12 -0.661611 0 4 -0.661611 1
gene 2 9 12 0.564074 0 5 0.564074 1
gene 2 10 12 0.0195624 0 6 0.0195624 1
gene 3 11 12 -0.82757 0 7 -0.82757 1
gene 2 1 13 -0.598315 0 5 -0.598315 1
gene 3 2 14 0.626423 0 6 0.626423 1
gene 2 3 15 0.398358 0 7 0.398358 1
genomeend 11

/* Organism #33 Fitness: 290.321 Error: 0 */
genomestart 33
trait 1 0.1 0 0 0 0.019138 0 0.0145529 0.000359546 
trait 2 0.13125 0.00965237 0.000704072 0.0354663 0.0815258 0.00213975 0.15371 0.0659175 
trait 3 0.288544 0 0.0299596 0.110561 0 0 0 0.16146 
node 1 2 1 1
node 2 2 1 1
node 3 3 1 1
node 4 1 1 1
node 5 3 1 1
node 6 3 1 1
node 7 1 1 1
node 8 1 1 1
node 9 3 1 1
node 10 2 1 1
node 11 3 1 3
node 12 1 0 2
node 13 2 0 2
node 14 3 0 2
node 15 1 0 2
node 16 1 0 2
gene 1 1 12 -0.995087 0 1 -0.995087 1
gene 2 2 13 -0.161809 0 2 -0.161809 1
gene 1 3 14 0.88525 0 3 0.88525 1
gene 2 4 15 0.620685 0 4 0.620685 1
gene 1 5 16 -0.363536 0 5 -0.363536 1
gene 2 6 12 -0.0323496 0 2 -0.0323496 1
gene 1 7 12 -0.109256 0 3 -0.109256 1
gene 1 8 12 0.524918 0 4 0.524918 1
gene 3 9 12 0.978515 0 5 0.978515 1
gene 1 10 12 -0.230934 0 6 -0.230934 1
gene 3 11 12 -0.121738 0 7 -0.121738 1
gene 1 1 13 -0.510086 0 5 -0.510086 1
gene 3 2 14 -0.354656 0 6 -0.354656 1
gene 2 3 15 0.25898 0 7 0.25898 1
genomeend 33

/* Organism #34 Fitness: 289.961 Error: 0 */
genomestart 34
trait 1 0.1 0 0 0 0.019138 0 0.0145529 0.000359546 
trait 2 0.13125 0.00965237 0.000704072 0.0354663 0.0815258 0.00213975 0.15371 0.0659175 
trait 3 0.288544 0 0.0299596 0.110561 0 0 0 0.16146 
node 1 3 1 1
node 2 1 1 1
node 3 3 1 1
node 4 3 1 1
node 5 1 1 1
node 6 1 1 1
node 7 2 1 1
node 8 1 1 1
node 9 2 1 1
node 10 3 1 1
node 11 1 1 3
node 12 3 0 2
node 13 2 0 2
node 14 3 0 2
node 15 2 0 2
node 16 1 0 2
gene 2 1 12 -0.656789 0 1 -0.656789 1
gene 3 2 13 0.243263 0 2 0.243263 1
gene 2 3 14 0.500687 0 3 0.500687 1
gene 3 4 15 0.804743 0 4 0.804743 1
gene 2 5 16 -0.00961333 0 5 -0.00961333 1
gene 2 6 12 0.308359 0 2 0.308359 1
gene 2 7 12 0.232704 0 3 0.232704 1
gene 2 8 12 0.973998 0 4 0.973998 1
gene 1 9 12 0.152684 0 5 0.152684 1
gene 3 10 12 -0.690695 0 6 -0.690695 1
gene 3 11 12 0.16773 0 7 0.16773 1
gene 2 1 13 0.601276 0 5 0.601276 1
gene 2 2 14 -0.598193 0 6 -0.598193 1
gene 3 3 15 0.914518 0 7 0.914518 1
genomeend 34

/* Organism #29 Fitness: 282.656 Error: 0 */
genomestart 29
trait 1 0.1 0 0 0 0.019138 0 0.0145529 0.000359546 
trait 2 0.13125 0.00965237 0.000704072 0.0354663 0.0815258 0.00213975 0.15371 0.0659175 
trait 3 0.288544 0 0.0299596 0.110561 0 0 0 0.16146 
node 1 2 1 1
node 2 2 1 1
node 3 3 1 1
node 4 1 1 1
node 5 3 1 1
node 6 2 1 1
node 7 2 1 1
node 8 3 1 1
node 9 3 1 1
node 10 1 1 1
node 11 1 1 3
node 12 3 0 2
node 13 1 0 2
node 14 3 0 2
node 15 1 0 2
node 16 1 0 2
gene 1 1 12 0.0707724 0 1 0.0707724 1
gene 2 2 13 0.486984 0 2 0.486984 1
gene 2 3 14 -0.847407 0 3 -0.847407 1
gene 3 4 15 0.824946 0 4 0.824946 1
gene 3 5 16 -0.853206 0 5 -0.853206 1
gene 2 6 12 0.416669 0 2 0.416669 1
gene 1 7 12 0.432844 0 3 0.432844 1
gene 3 8 12 0.531449 0 4 0.531449 1
gene 3 9 12 0.700735 0 5 0.700735 1
gene 3 10 12 0.352641 0 6 0.352641 1
gene 3 11 12 -0.832484 0 7 -0.832484 1
gene 2 1 13 -0.93585 0 5 -0.93585 1
gene 2 2 14 0.561724 0 6 0.561724 1
gene 1 3 15 -0.834315 0 7 -0.834315 1
genomeend 29

/* Organism #26 Fitness: 274.602 Error: 0 */
genomestart 26
trait 1 0.1 0 0 0 0.019138 0 0.0145529 0.000359546 
trait 2 0.13125 0.00965237 0.000704072 0.0354663 0.0815258 0.00213975 0.15371 0.0659175 
trait 3 0.288544 0 0.0299596 0.110561 0 0 0 0.16146 
node 1 2 1 1
node 2 2 1 1
node 3 2 1 1
node 4 2 1 1
node 5 2 1 1
node 6 3 1 1
node 7 3 1 1
node 8 3 1 1
node 9 3 1 1
node 10 1 1 1
node 11 1 1 3
node 12 1 0 2
node 13 2 0 2
node 14 1 0 2
node 15 3 0 2
node 16 1 0 2
gene 1 1 12 -0.516007 0 1 -0.516007 1
gene 3 2 13 -0.742546 0 2 -0.742546 1
gene 3 3 14 -0.108341 0 3 -0.108341 1
gene 3 4 15 -0.258522 0 4 -0.258522 1
gene 3 5 16 -0.494095 0 5 -0.494095 1
gene 2 6 12 0.512436 0 2 0.512436 1
gene 2 7 12 -0.260292 0 3 -0.260292 1
gene 1 8 12 -0.182165 0 4 -0.182165 1
gene 1 9 12 -0.551561 0 5 -0.551561 1
gene 1 10 12 -0.716666 0 6 -0.716666 1
gene 3 11 12 0.900998 0 7 0.900998 1
gene 1 1 13 -0.997223 0 5 -0.997223 1
gene 1 2 14 -0.17954 0 6 -0.17954 1
gene 3 3 15 0.293344 0 7 0.293344 1
genomeend 26

/* Organism #15 Fitness: 273.616 Error: 0 */
genomestart 15
trait 1 0.1 0 0 0 0.019138 0 0.0145529 0.000359546 
trait 2 0.13125 0.00965237 0.000704072 0.0354663 0.0815258 0.00213975 0.15371 0.0659175 
trait 3 0.288544 0 0.0299596 0.110561 0 0 0 0.16146 
node 1 2 1 1
node 2 2 1 1
node 3 1 1 1
node 4 1 1 1
node 5 3 1 1
node 6 2 1 1
node 7 1 1 1
node 8 3 1 1
node 9 1 1 1
node 10 1 1 1
node 11 3 1 3
node 12 3 0 2
node 13 3 0 2
node 14 1 0 2
node 15 1 0 2
node 16 1 0 2
gene 2 1 12 0.589892 0 1 0.589892 1
gene 3 2 13 -0.0505387 0 2 -0.0505387 1
gene 3 3 14 -0.205023 0 3 -0.205023 1
gene 2 4 15 -0.61388 0 4 -0.61388 1
gene 3 5 16 -0.994842 0 5 -0.994842 1
gene 1 6 12 -0.755028 0 2 -0.755028 1
gene 1 7 12 -0.756859 0 3 -0.756859 1
gene 3 8 12 0.797632 0 4 0.797632 1
gene 3 9 12 -0.477004 0 5 -0.477004 1
gene 3 10 12 0.265572 0 6 0.265572 1
gene 2 11 12 0.577593 0 7 0.577593 1
gene 1 1 13 0.707083 0 5 0.707083 1
gene 3 2 14 -0.187109 0 6 -0.187109 1
gene 1 3 15 -0.7275 0 7 -0.7275 1
genomeend 15

/* Organism #1 Fitness: 247.277 Error: 0 */
genomestart 1
trait 1 0.1 0 0 0 0.019138 0 0.0145529 0.000359546 
trait 2 0.13125 0.00965237 0.000704072 0.0354663 0.0815258 0.00213975 0.15371 0.0659175 
trait 3 0.288544 0 0.0299596 0.110561 0 0 0 0.16146 
node 1 2 1 1
node 2 1 1 1
node 3 3 1 1
node 4 3 1 1
node 5 2 1 1
node 6 1 1 1
node 7 3 1 1
node 8 3 1 1
node 9 3 1 1
node 10 1 1 1
node 11 2 1 3
node 12 1 0 2
node 13 1 0 2
node 14 1 0 2
node 15 2 0 2
node 16 2 0 2
gene 3 1 12 0.710379 0 1 0.710379 1
gene 1 2 13 0.238319 0 2 0.238319 1
gene 3 3 14 -0.968322 0 3 -0.968322 1
gene 3 4 15 0.692557 0 4 0.692557 1
gene 1 5 16 -0.727744 0 5 -0.727744 1
gene 1 6 12 -0.858791 0 2 -0.858791 1
gene 2 7 12 -0.807031 0 3 -0.807031 1
gene 2 8 12 0.235908 0 4 0.235908 1
gene 1 9 12 0.900754 0 5 0.900754 1
gene 1 10 12 0.912137 0 6 0.912137 1
gene 3 11 12 0.334178 0 7 0.334178 1
gene 1 1 13 -0.605335 0 5 -0.605335 1
gene 3 2 14 -0.679281 0 6 -0.679281 1
gene 2 3 15 -0.455947 0 7 -0.455947 1
genomeend 1

/* Organism #0 Fitness: 238.252 Error: 0 */
genomestart 0
trait 1 0.1 0 0 0 0.019138 0 0.0145529 0.000359546 
trait 2 0.13125 0.00965237 0.000704072 0.0354663 0.0815258 0.00213975 0.15371 0.0659175 
trait 3 0.288544 0 0.0299596 0.110561 0 0 0 0.16146 
node 1 1 1 1
node 2 1 1 1
node 3 3 1 1
node 4 1 1 1
node 5 2 1 1
node 6 2 1 1
node 7 2 1 1
node 8 2 1 1
node 9 1 1 1
node 10 3 1 1
node 11 2 1 3
node 12 2 0 2
node 13 2 0 2
node 14 1 0 2
node 15 1 0 2
node 16 2 0 2
gene 3 1 12 -0.267312 0 1 -0.267312 1
gene 2 2 13 2.32113 0 2 2.32113 1
gene 2 3 14 0.741142 0 3 0.741142 1
gene 3 4 15 1.85369 0 4 1.85369 1
gene 1 5 16 -0.727744 0 5 -0.727744 1
gene 1 6 12 0.712302 0 2 0.712302 1
gene 1 7 12 0.223701 0 3 0.223701 1
gene 2 8 12 0.417188 0 4 0.417188 1
gene 3 9 12 -2.30438 0 5 -2.30438 1
gene 3 10 12 -2.22755 0 6 -2.22755 1
gene 2 11 12 2.57216 0 7 2.57216 1
gene 1 1 13 -2.35023 0 5 -2.35023 1
gene 3 2 14 1.64257 0 6 1.64257 1
gene 2 3 15 -2.86149 0 7 -2.86149 1
genomeend 0

/* Organism #14 Fitness: 152.533 Error: 0 */
genomestart 14
trait 1 0.1 0 0 0 0.019138 0 0.0145529 0.000359546 
trait 2 0.13125 0.00965237 0.000704072 0.0354663 0.0815258 0.00213975 0.15371 0.0659175 
trait 3 0.288544 0 0.0299596 0.110561 0 0 0 0.16146 
node 1 2 1 1
node 2 1 1 1
node 3 3 1 1
node 4 2 1 1
node 5 2 1 1
node 6 1 1 1
node 7 2 1 1
node 8 2 1 1
node 9 2 1 1
node 10 1 1 1
node 11 2 1 3
node 12 2 0 2
node 13 1 0 2
node 14 3 0 2
node 15 3 0 2
node 16 1 0 2
gene 2 1 12 -0.877316 0 1 -0.877316 1
gene 2 2 13 0.582049 0 2 0.582049 1
gene 2 3 14 0.419904 0 3 0.419904 1
gene 1 4 15 0.0632954 0 4 0.0632954 1
gene 3 5 16 -0.578845 0 5 -0.578845 1
gene 1 6 12 -0.94821 0 2 -0.94821 1
gene 1 7 12 0.703665 0 3 0.703665 1
gene 2 8 12 -0.153264 0 4 -0.153264 1
gene 3 9 12 -0.978576 0 5 -0.978576 1
gene 3 10 12 -0.746971 0 6 -0.746971 1
gene 3 11 12 -0.71923 0 7 -0.71923 1
gene 1 1 13 -0.872433 0 5 -0.872433 1
gene 1 2 14 -0.929685 0 6 -0.929685 1
gene 2 3 15 0.00830103 0 7 0.00830103 1
gene 3 14 13 -0.0536515 0 9 -0.0536515 1
genomeend 14

/* Organism #9 Fitness: 144.894 Error: 0 */
genomestart 9
trait 1 0.1 0 0 0 0.019138 0 0.0145529 0.000359546 
trait 2 0.13125 0.00965237 0.000704072 0.0354663 0.0815258 0.00213975 0.15371 0.0659175 
trait 3 0.887836 0 0 0.110561 0.28312 0 0 0.16146 
node 1 2 1 1
node 2 1 1 1
node 3 3 1 1
node 4 2 1 1
node 5 2 1 1
node 6 1 1 1
node 7 2 1 1
node 8 1 1 1
node 9 2 1 1
node 10 1 1 1
node 11 2 1 3
node 12 2 0 2
node 13 1 0 2
node 14 3 0 2
node 15 3 0 2
node 16 1 0 2
gene 1 1 12 0.550371 0 1 0.550371 1
gene 2 2 13 0.582049 0 2 0.582049 1
gene 2 3 14 0.419904 0 3 0.419904 1
gene 1 4 15 0.0632954 0 4 0.0632954 1
gene 1 5 16 -0.0802942 0 5 -0.0802942 1
gene 1 6 12 -0.94821 0 2 -0.94821 1
gene 2 7 12 -0.0643025 0 3 -0.0643025 1
gene 2 8 12 -0.153264 0 4 -0.153264 1
gene 3 9 12 -0.978576 0 5 -0.978576 1
gene 3 10 12 -0.746971 0 6 -0.746971 1
gene 3 11 12 -0.71923 0 7 -0.71923 1
gene 3 1 13 -0.538438 0 5 -0.538438 1
gene 1 2 14 -0.194403 0 6 -0.194403 1
gene 2 3 15 0.00830103 0 7 0.00830103 1
genomeend 9

/* Organism #10 Fitness: 132.32 Error: 0 */
genomestart 10
trait 1 0.1 0 0 0 0.019138 0 0.0145529 0.000359546 
trait 2 0.13125 0.00965237 0.000704072 0.0354663 0.0815258 0.00213975 0.15371 0.0659175 
trait 3 0.288544 0 0.0299596 0.110561 0 0 0 0.16146 
node 1 2 1 1
node 2 2 1 1
node 3 1 1 1
node 4 1 1 1
node 5 3 1 1
node 6 2 1 1
node 7 1 1 1
node 8 3 1 1
node 9 1 1 1
node 10 1 1 1
node 11 3 1 3
node 12 3 0 2
node 13 3 0 2
node 14 1 0 2
node 15 1 0 2
node 16 1 0 2
gene 2 1 12 0.031785 0 1 0.031785 1
gene 2 2 13 0.686987 0 2 0.686987 1
gene 3 3 14 2.20971 0 3 2.20971 1
gene 1 4 15 2.9127 0 4 2.9127 1
gene 1 5 16 -2.17142 0 5 -2.17142 1
gene 1 6 12 0.931959 0 2 0.931959 1
gene 2 7 12 0.995453 0 3 0.995453 1
gene 3 8 12 1.56262 0 4 1.56262 1
gene 2 9 12 -1.63828 0 5 -1.63828 1
gene 3 10 12 0.973144 0 6 0.973144 1
gene 2 11 12 -1.73182 0 7 -1.73182 1
gene 3 1 13 0.499878 0 5 0.499878 1
gene 3 2 14 -0.187109 0 6 -0.187109 1
gene 1 3 15 -2.79658 0 7 -2.79658 1
genomeend 10

/* Organism #12 Fitness: 48.0927 Error: 0 */
genomestart 12
trait 1 0.1 0 0 0 0.019138 0 0.0145529 0.000359546 
trait 2 0.13125 0.00965237 0.000704072 0.0354663 0.0815258 0.00213975 0.15371 0.0659175 
trait 3 0.288544 0 0.0299596 0.110561 0 0 0 0.16146 
node 1 2 1 1
node 2 3 1 1
node 3 1 1 1
node 4 2 1 1
node 5 2 1 1
node 6 2 1 1
node 7 2 1 1
node 8 1 1 1
node 9 3 1 1
node 10 3 1 1
node 11 3 1 3
node 12 3 0 2
node 13 2 0 2
node 14 1 0 2
node 15 1 0 2
node 16 3 0 2
gene 1 1 12 -0.482101 0 1 -0.482101 1
gene 1 2 13 0.324076 0 2 0.324076 1
gene 2 3 14 -0.814142 0 3 -0.814142 1
gene 2 4 15 -0.283425 0 4 -0.283425 1
gene 1 5 16 -0.665151 0 5 -0.665151 1
gene 1 6 12 -0.182623 0 2 -0.182623 1
gene 3 7 12 0.519608 0 3 0.519608 1
gene 3 8 12 0.140324 0 4 0.140324 1
gene 1 9 12 -0.27427 0 5 -0.27427 1
gene 3 10 12 0.689535 0 6 0.689535 1
gene 3 11 12 -0.88345 0 7 -0.88345 1
gene 3 1 13 -0.833888 0 5 -0.833888 1
gene 2 2 14 0.11536 0 6 0.11536 1
gene 2 3 15 -0.105899 0 7 -0.105899 1
gene 3 4 12 -0.984069 0 8 -0.984069 1
genomeend 12

/* Organism #4 Fitness: 36.5351 Error: 0 */
genomestart 4
trait 1 0.1 0 0 0 0.019138 0 0.0145529 0.000359546 
trait 2 0.13125 0.00965237 0.000704072 0.0354663 0.0815258 0.00213975 0.15371 0.0659175 
trait 3 0.288544 0 0.0299596 0.110561 0 0 0 0.16146 
node 1 2 1 1
node 2 1 1 1
node 3 3 1 1
node 4 2 1 1
node 5 2 1 1
node 6 1 1 1
node 7 2 1 1
node 8 2 1 1
node 9 2 1 1
node 10 1 1 1
node 11 2 1 3
node 12 2 0 2
node 13 1 0 2
node 14 3 0 2
node 15 3 0 2
node 16 1 0 2
gene 1 1 12 -0.679708 0 1 -0.679708 1
gene 2 2 13 0.453063 0 2 0.453063 1
gene 2 3 14 -0.197119 0 3 -0.197119 1
gene 1 4 15 -0.110065 0 4 -0.110065 1
gene 3 5 16 -0.621998 0 5 -0.621998 1
gene 1 6 12 -0.565416 0 2 -0.565416 1
gene 3 7 12 0.611637 0 3 0.611637 1
gene 3 8 12 -0.00646992 0 4 -0.00646992 1
gene 1 9 12 -0.626423 0 5 -0.626423 1
gene 3 10 12 -0.0287179 0 6 -0.0287179 1
gene 3 11 12 -0.80134 0 7 -0.80134 1
gene 3 1 13 -0.85316 0 5 -0.85316 1
gene 2 2 14 -0.407163 0 6 -0.407163 1
gene 2 3 15 -0.0487991 0 7 -0.0487991 1
genomeend 4

/* Organism #16 Fitness: 0 Error: 0 */
genomestart 16
trait 1 0.1 0 0 0 0.019138 0 0.0145529 0.000359546 
trait 2 0.13125 0.00965237 0.000704072 0.0354663 0.0815258 0.00213975 0.15371 0.0659175 
trait 3 0.288544 0 0.0299596 0.110561 0 0 0 0.16146 
node 1 3 1 1
node 2 2 1 1
node 3 3 1 1
node 4 2 1 1
node 5 2 1 1
node 6 1 1 1
node 7 3 1 1
node 8 3 1 1
node 9 3 1 1
node 10 3 1 1
node 11 3 1 3
node 12 2 0 2
node 13 2 0 2
node 14 1 0 2
node 15 1 0 2
node 16 1 0 2
gene 1 1 12 0.676672 0 1 0.676672 1
gene 3 2 13 -0.422071 0 2 -0.422071 1
gene 3 3 14 0.0649281 0 3 0.0649281 1
gene 3 4 15 -1.67168 0 4 -1.67168 1
gene 3 5 16 2.31471 0 5 2.31471 1
gene 3 6 12 -0.421949 0 2 -0.421949 1
gene 2 7 12 2.71598 0 3 2.71598 1
gene 2 8 12 -2.88023 0 4 -2.88023 1
gene 3 9 12 -0.191382 0 5 -0.191382 1
gene 1 10 12 -1.30189 0 6 -1.30189 1
gene 3 11 12 -0.650502 0 7 -0.650502 1
gene 1 1 13 2.39319 0 5 2.39319 1
gene 3 2 14 -0.415799 0 6 -0.415799 1
gene 2 3 15 -0.401349 0 7 -0.401349 1
genomeend 16

/* Organism #11 Fitness: 0 Error: 0 */
genomestart 11
trait 1 0.1 0 0 0 0.019138 0 0.0145529 0.000359546 
trait 2 0.13125 0.00965237 0.000704072 0.0354663 0.0815258 0.00213975 0.15371 0.0659175 
trait 3 0.288544 0 0.0299596 0.110561 0 0 0 0.16146 
node 1 2 1 1
node 2 3 1 1
node 3 1 1 1
node 4 2 1 1
node 5 2 1 1
node 6 2 1 1
node 7 2 1 1
node 8 1 1 1
node 9 3 1 1
node 10 3 1 1
node 11 3 1 3
node 12 3 0 2
node 13 2 0 2
node 14 1 0 2
node 15 1 0 2
node 16 3 0 2
gene 2 1 12 -2.37425 0 1 -2.37425 1
gene 1 2 13 -0.611728 0 2 -0.611728 1
gene 2 3 14 -2.32945 0 3 -2.32945 1
gene 1 4 15 0.131489 0 4 0.131489 1
gene 3 5 16 -0.414014 0 5 -0.414014 1
gene 1 6 12 -1.48509 0 2 -1.48509 1
gene 3 7 12 2.49036 0 3 2.49036 1
gene 2 8 12 1.75185 0 4 1.75185 1
gene 1 9 12 -0.931532 0 5 -0.931532 1
gene 3 10 12 1.13564 0 6 1.13564 1
gene 3 11 12 -2.75674 0 7 -2.75674 1
gene 3 1 13 0.824061 0 5 0.824061 1
gene 1 2 14 1.80444 0 6 1.80444 1
gene 2 3 15 -0.0487991 0 7 -0.0487991 1
genomeend 11

/* Organism #13 Fitness: 0 Error: 0 */
genomestart 13
trait 1 0.1 0 0 0 0.019138 0 0.0145529 0.000359546 
trait 2 0.13125 0.00965237 0.000704072 0.0354663 0.0815258 0.00213975 0.15371 0.0659175 
trait 3 0.288544 0 0.0299596 0.110561 0 0 0 0.16146 
node 1 3 1 1
node 2 2 1 1
node 3 3 1 1
node 4 2 1 1
node 5 2 1 1
node 6 1 1 1
node 7 3 1 1
node 8 3 1 1
node 9 3 1 1
node 10 3 1 1
node 11 3 1 3
node 12 2 0 2
node 13 2 0 2
node 14 3 0 2
node 15 1 0 2
node 16 1 0 2
gene 1 1 12 2.01262 0 1 2.01262 1
gene 3 2 13 -1.1803 0 2 -1.1803 1
gene 3 3 14 -0.357219 0 3 -0.357219 1
gene 3 4 15 2.2074 0 4 2.2074 1
gene 3 5 16 0.937635 0 5 0.937635 1
gene 3 6 12 -0.421949 0 2 -0.421949 1
gene 2 7 12 1.08911 0 3 1.08911 1
gene 2 8 12 -1.48843 0 4 -1.48843 1
gene 3 9 12 -1.8704 0 5 -1.8704 1
gene 1 10 12 -1.7013 0 6 -1.7013 1
gene 3 11 12 1.02222 0 7 1.02222 1
gene 1 1 13 0.874599 0 5 0.874599 1
gene 3 2 14 -1.06502 0 6 -1.06502 1
gene 2 3 15 2.74175 0 7 2.74175 1
genomeend 13

/* Organism #8 Fitness: 0 Error: 0 */
genomestart 8
trait 1 0.1 0 0 0 0.019138 0 0.0145529 0.000359546 
trait 2 0.13125 0.00965237 0.000704072 0.0354663 0.0815258 0.00213975 0.15371 0.0659175 
trait 3 0.288544 0 0.0299596 0.110561 0 0 0 0.16146 
node 1 1 1 1
node 2 1 1 1
node 3 3 1 1
node 4 2 1 1
node 5 3 1 1
node 6 3 1 1
node 7 2 1 1
node 8 3 1 1
node 9 1 1 1
node 10 2 1 1
node 11 1 1 3
node 12 2 0 2
node 13 2 0 2
node 14 3 0 2
node 15 1 0 2
node 16 1 0 2
gene 1 1 12 -1.34846 0 1 -1.34846 1
gene 1 2 13 0.0743736 0 2 0.0743736 1
gene 2 3 14 -2.27453 0 3 -2.27453 1
gene 3 4 15 -0.971343 0 4 -0.971343 1
gene 1 5 16 0.995972 0 5 0.995972 1
gene 3 6 12 -0.050325 0 2 -0.050325 1
gene 3 7 12 -1.35751 0 3 -1.35751 1
gene 3 8 12 -1.73305 0 4 -1.73305 1
gene 1 9 12 1.0191 0 5 1.0191 1
gene 3 10 12 -0.947249 0 6 -0.947249 1
gene 3 11 12 -2.36807 0 7 -2.36807 1
gene 3 1 13 -1.20629 0 5 -1.20629 1
gene 2 2 14 2.38601 0 6 2.38601 1
gene 1 3 15 0.323801 0 7 0.323801 1
genomeend 8

/* Organism #7 Fitness: 0 Error: 0 */
genomestart 7
trait 1 0.1 0 0 0 0.318647 0 0.0145529 0 
trait 2 0.13125 0.00965237 0.000704072 0.0354663 0.0815258 0.00213975 0.15371 0.0659175 
trait 3 0.288544 0 0.0299596 0.110561 0 0 0 0.16146 
node 1 2 1 1
node 2 2 1 1
node 3 2 1 1
node 4 1 1 1
node 5 3 1 1
node 6 2 1 1
node 7 2 1 1
node 8 2 1 1
node 9 2 1 1
node 10 2 1 1
node 11 2 1 3
node 12 3 0 2
node 13 2 0 2
node 14 2 0 2
node 15 3 0 2
node 16 1 0 2
gene 3 1 12 -0.623661 0 1 -0.623661 1
gene 1 2 13 0.408551 0 2 0.408551 1
gene 1 3 14 -1.98622 0 3 -1.98622 1
gene 3 4 15 -0.822642 0 4 -0.822642 1
gene 1 5 16 0.3979 0 5 0.3979 1
gene 3 6 12 0.701804 0 2 0.701804 1
gene 1 7 12 -2.24242 0 3 -2.24242 1
gene 2 8 12 -0.752968 0 4 -0.752968 1
gene 2 9 12 -0.203619 0 5 -0.203619 1
gene 3 10 12 -1.73795 0 6 -1.73795 1
gene 1 11 12 -1.57834 0 7 -1.57834 1
gene 1 1 13 -0.782723 0 5 -0.782723 1
gene 3 2 14 -0.903684 0 6 -0.903684 1
gene 3 3 15 1.02858 0 7 1.02858 1
genomeend 7

/* Organism #6 Fitness: 0 Error: 0 */
genomestart 6
trait 1 0.1 0 0 0 0.019138 0 0.0145529 0.000359546 
trait 2 0.13125 0.00965237 0.000704072 0.0354663 0.0815258 0.00213975 0.15371 0.0659175 
trait 3 0.288544 0 0.0299596 0.110561 0 0 0 0.16146 
node 1 1 1 1
node 2 2 1 1
node 3 1 1 1
node 4 2 1 1
node 5 3 1 1
node 6 1 1 1
node 7 3 1 1
node 8 2 1 1
node 9 1 1 1
node 10 1 1 1
node 11 3 1 3
node 12 1 0 2
node 13 1 0 2
node 14 2 0 2
node 15 2 0 2
node 16 2 0 2
gene 2 1 12 -2.92915 0 1 -2.92915 1
gene 3 2 13 -0.242958 0 2 -0.242958 1
gene 2 3 14 -1.51401 0 3 -1.51401 1
gene 3 4 15 -0.426313 0 4 -0.426313 1
gene 3 5 16 1.8625 0 5 1.8625 1
gene 2 6 12 -3.11509 0 2 -3.11509 1
gene 1 7 12 -2.85447 0 3 -2.85447 1
gene 1 8 12 -1.93123 0 4 -1.93123 1
gene 3 9 12 0.593585 0 5 0.593585 1
gene 2 10 12 0.0348064 0 6 0.0348064 1
gene 1 11 12 -2.17544 0 7 -2.17544 1
gene 1 1 13 1.76821 0 5 1.76821 1
gene 2 2 14 1.78053 0 6 1.78053 1
gene 1 3 15 -0.759239 0 7 -0.759239 1
genomeend 6

/* Organism #19 Fitness: 547.299 Error: 0 */
genomestart 19
trait 1 0.1 0 0 0 0.019138 0 0.0145529 0.000359546 
trait 2 0.13125 0.00965237 0.000704072 0.0354663 0.0815258 0.00213975 0.15371 0.0659175 
trait 3 0.288544 0 0.0299596 0.110561 0 0 0 0.16146 
node 1 3 1 1
node 2 2 1 1
node 3 3 1 1
node 4 2 1 1
node 5 2 1 1
node 6 1 1 1
node 7 3 1 1
node 8 3 1 1
node 9 3 1 1
node 10 3 1 1
node 11 3 1 3
node 12 2 0 2
node 13 2 0 2
node 14 3 0 2
node 15 1 0 2
node 16 1 0 2
gene 1 1 12 1.44749 0 1 1.44749 1
gene 3 2 13 1.31466 0 2 1.31466 1
gene 2 3 14 -2.03565 0 3 -2.03565 1
gene 3 4 15 -0.0331126 0 4 -0.0331126 1
gene 3 5 16 -1.50914 0 5 -1.50914 1
gene 2 6 12 -0.965056 0 2 -0.965056 1
gene 1 7 12 1.80136 0 3 1.80136 1
gene 2 8 12 0.264321 0 4 0.264321 1
gene 3 9 12 -0.728858 0 5 -0.728858 1
gene 2 10 12 -2.38424 0 6 -2.38424 1
gene 1 11 12 0.139622 0 7 0.139622 1
gene 1 1 13 0.394726 0 5 0.394726 1
gene 3 2 14 -2.13857 0 6 -2.13857 1
gene 2 3 15 1.27915 0 7 1.27915 1
genomeend 19
