
/* Species #1 : (Size 15) (AF 0) (Age 1)  */


/* Organism #23 Fitness: 23768 Error: 0 */
genomestart 23
trait 1 0.1 0 0 0 0.019138 0 0.0145529 0.000359546 
trait 2 0.13125 0.00965237 0.000704072 0.0354663 0.0815258 0.00213975 0.15371 0.0659175 
trait 3 0.288544 0 0.0299596 0.110561 0 0 0 0.16146 
node 1 2 1 1
node 2 1 1 1
node 3 1 1 1
node 4 1 1 1
node 5 3 1 1
node 6 1 1 1
node 7 1 1 1
node 8 1 1 1
node 9 1 1 1
node 10 2 1 1
node 11 3 1 3
node 12 3 0 2
node 13 2 0 2
node 14 3 0 2
node 15 1 0 2
node 16 3 0 2
gene 2 1 12 -0.14246 0 1 -0.14246 1
gene 2 2 13 -0.130467 0 2 -0.130467 1
gene 2 3 14 -0.985412 0 3 -0.985412 1
gene 1 4 15 -0.994995 0 4 -0.994995 1
gene 2 5 16 -0.219642 0 5 -0.219642 1
gene 1 6 12 -0.866756 0 2 -0.866756 1
gene 2 7 12 0.3773 0 3 0.3773 1
gene 1 8 12 0.162358 0 4 0.162358 1
gene 2 9 12 0.211371 0 5 0.211371 1
gene 3 10 12 0.494949 0 6 0.494949 1
gene 1 11 12 0.409497 0 7 0.409497 1
gene 2 1 13 0.214148 0 5 0.214148 1
gene 2 2 14 -0.0622272 0 6 -0.0622272 1
gene 3 3 15 0.400769 0 7 0.400769 1
genomeend 23

/* Organism #5 Fitness: 17121 Error: 0 */
genomestart 5
trait 1 0.1 0 0 0 0.019138 0 0.0145529 0.000359546 
trait 2 0.13125 0.00965237 0.000704072 0.0354663 0.0815258 0.00213975 0.15371 0.0659175 
trait 3 0.288544 0 0.0299596 0.110561 0 0 0 0.16146 
node 1 2 1 1
node 2 1 1 1
node 3 1 1 1
node 4 1 1 1
node 5 3 1 1
node 6 1 1 1
node 7 1 1 1
node 8 1 1 1
node 9 1 1 1
node 10 2 1 1
node 11 3 1 3
node 12 3 0 2
node 13 2 0 2
node 14 3 0 2
node 15 1 0 2
node 16 3 0 2
gene 2 1 12 -0.14246 0 1 -0.14246 1
gene 2 2 13 -0.130467 0 2 -0.130467 1
gene 2 3 14 -0.985412 0 3 -0.985412 1
gene 1 4 15 -0.994995 0 4 -0.994995 1
gene 2 5 16 -0.219642 0 5 -0.219642 1
gene 1 6 12 -0.866756 0 2 -0.866756 1
gene 2 7 12 0.3773 0 3 0.3773 1
gene 1 8 12 0.162358 0 4 0.162358 1
gene 2 9 12 0.211371 0 5 0.211371 1
gene 3 10 12 0.494949 0 6 0.494949 1
gene 1 11 12 0.409497 0 7 0.409497 1
gene 2 1 13 0.214148 0 5 0.214148 1
gene 2 2 14 -0.0622272 0 6 -0.0622272 1
gene 3 3 15 0.400769 0 7 0.400769 1
genomeend 5

/* Organism #93 Fitness: 6415 Error: 0 */
genomestart 93
trait 1 0.1 0 0 0 0.019138 0 0.0145529 0.000359546 
trait 2 0.13125 0.00965237 0.000704072 0.0354663 0.0815258 0.00213975 0.15371 0.0659175 
trait 3 0.288544 0 0.0299596 0.110561 0 0 0 0.16146 
node 1 2 1 1
node 2 3 1 1
node 3 3 1 1
node 4 2 1 1
node 5 1 1 1
node 6 1 1 1
node 7 3 1 1
node 8 3 1 1
node 9 1 1 1
node 10 1 1 1
node 11 2 1 3
node 12 2 0 2
node 13 1 0 2
node 14 3 0 2
node 15 3 0 2
node 16 1 0 2
gene 2 1 12 -0.299402 0 1 -0.299402 1
gene 3 2 13 2.88881 0 2 2.88881 1
gene 2 3 14 -5.17636 0 3 -5.17636 1
gene 1 4 15 -5.11513 0 4 -5.11513 1
gene 2 5 16 0.322077 0 5 0.322077 1
gene 1 6 12 0.41345 0 2 0.41345 1
gene 2 7 12 -1.25185 0 3 -1.25185 1
gene 1 8 12 -0.526254 0 4 -0.526254 1
gene 2 9 12 3.19127 0 5 3.19127 1
gene 3 10 12 1.44436 0 6 1.44436 1
gene 1 11 12 3.34132 0 7 3.34132 1
gene 2 1 13 -1.60909 0 5 -1.60909 1
gene 2 2 14 -2.10555 0 6 -2.10555 1
gene 2 3 15 -3.01149 0 7 -3.01149 1
genomeend 93

/* Organism #56 Fitness: 1845.16 Error: 0 */
genomestart 56
trait 1 0.1 0 0 0 0.019138 0 0.0145529 0.000359546 
trait 2 0.13125 0.00965237 0.000704072 0.0354663 0.0815258 0.00213975 0.15371 0.0659175 
trait 3 0.288544 0 0.0299596 0.110561 0 0 0 0.16146 
node 1 2 1 1
node 2 3 1 1
node 3 3 1 1
node 4 2 1 1
node 5 1 1 1
node 6 1 1 1
node 7 3 1 1
node 8 3 1 1
node 9 1 1 1
node 10 1 1 1
node 11 2 1 3
node 12 2 0 2
node 13 1 0 2
node 14 3 0 2
node 15 3 0 2
node 16 1 0 2
gene 2 1 12 -0.0828272 0 1 -0.0828272 1
gene 3 2 13 -0.0474563 0 2 -0.0474563 1
gene 1 3 14 0.7022 0 3 0.7022 1
gene 3 4 15 0.940214 0 4 0.940214 1
gene 2 5 16 0.754845 0 5 0.754845 1
gene 1 6 12 0.540574 0 2 0.540574 1
gene 1 7 12 -0.246712 0 3 -0.246712 1
gene 1 8 12 -0.854244 0 4 -0.854244 1
gene 3 9 12 -0.201575 0 5 -0.201575 1
gene 2 10 12 0.896634 0 6 0.896634 1
gene 3 11 12 -0.656362 0 7 -0.656362 1
gene 2 1 13 -0.353923 0 5 -0.353923 1
gene 2 2 14 0.649098 0 6 0.649098 1
gene 2 3 15 0.435926 0 7 0.435926 1
genomeend 56

/* Organism #3 Fitness: 1288.28 Error: 0 */
genomestart 3
trait 1 0.1 0 0 0 0.019138 0 0.0145529 0.000359546 
trait 2 0.13125 0.00965237 0.000704072 0.0354663 0.0815258 0.00213975 0.15371 0.0659175 
trait 3 0.288544 0 0.0299596 0.110561 0 0 0 0.16146 
node 1 2 1 1
node 2 3 1 1
node 3 3 1 1
node 4 2 1 1
node 5 1 1 1
node 6 1 1 1
node 7 3 1 1
node 8 3 1 1
node 9 1 1 1
node 10 1 1 1
node 11 2 1 3
node 12 2 0 2
node 13 1 0 2
node 14 3 0 2
node 15 3 0 2
node 16 1 0 2
gene 2 1 12 -0.0828272 0 1 -0.0828272 1
gene 3 2 13 -0.0474563 0 2 -0.0474563 1
gene 1 3 14 0.7022 0 3 0.7022 1
gene 3 4 15 0.940214 0 4 0.940214 1
gene 2 5 16 0.754845 0 5 0.754845 1
gene 1 6 12 0.540574 0 2 0.540574 1
gene 1 7 12 -0.246712 0 3 -0.246712 1
gene 2 8 12 -0.854244 0 4 -0.854244 1
gene 3 9 12 -0.201575 0 5 -0.201575 1
gene 2 10 12 0.896634 0 6 0.896634 1
gene 3 11 12 -0.656362 0 7 -0.656362 1
gene 2 1 13 -0.353923 0 5 -0.353923 1
gene 2 2 14 0.649098 0 6 0.649098 1
gene 2 3 15 0.435926 0 7 0.435926 1
genomeend 3

/* Organism #81 Fitness: 312.908 Error: 0 */
genomestart 81
trait 1 0.1 0 0 0 0.019138 0 0.0145529 0.000359546 
trait 2 0.13125 0.00965237 0.000704072 0.0354663 0.0815258 0.00213975 0.15371 0.0659175 
trait 3 0.288544 0 0.0299596 0.110561 0 0 0 0.16146 
node 1 2 1 1
node 2 3 1 1
node 3 3 1 1
node 4 2 1 1
node 5 1 1 1
node 6 1 1 1
node 7 3 1 1
node 8 3 1 1
node 9 1 1 1
node 10 1 1 1
node 11 2 1 3
node 12 2 0 2
node 13 1 0 2
node 14 3 0 2
node 15 3 0 2
node 16 1 0 2
gene 2 1 12 -1.17429 0 1 -1.17429 1
gene 2 2 13 1.19694 0 2 1.19694 1
gene 2 3 14 -2.22453 0 3 -2.22453 1
gene 1 4 15 -2.40173 0 4 -2.40173 1
gene 2 5 16 1.98465 0 5 1.98465 1
gene 1 6 12 -0.23339 0 2 -0.23339 1
gene 2 7 12 1.70135 0 3 1.70135 1
gene 1 8 12 -0.785051 0 4 -0.785051 1
gene 2 9 12 3.47266 0 5 3.47266 1
gene 3 10 12 -0.72161 0 6 -0.72161 1
gene 1 11 12 0.688955 0 7 0.688955 1
gene 2 1 13 0.27253 0 5 0.27253 1
gene 2 2 14 0.460555 0 6 0.460555 1
gene 2 3 15 -0.392186 0 7 -0.392186 1
genomeend 81

/* Organism #66 Fitness: 60.7396 Error: 0 */
genomestart 66
trait 1 0.1 0 0 0 0.019138 0 0.0145529 0.000359546 
trait 2 0.13125 0.00965237 0.000704072 0.0354663 0.0815258 0.00213975 0.15371 0.0659175 
trait 3 0.288544 0 0.0299596 0.110561 0 0 0 0.16146 
node 1 2 1 1
node 2 1 1 1
node 3 1 1 1
node 4 1 1 1
node 5 3 1 1
node 6 1 1 1
node 7 1 1 1
node 8 1 1 1
node 9 1 1 1
node 10 2 1 1
node 11 3 1 3
node 12 3 0 2
node 13 2 0 2
node 14 3 0 2
node 15 1 0 2
node 16 3 0 2
node 18 1 0 0
gene 2 1 12 -0.109035 0 1 -0.109035 1
gene 2 2 13 0.489288 0 2 0.489288 1
gene 2 3 14 -1.13312 0 3 -1.13312 1
gene 1 4 15 0.538186 0 4 0.538186 1
gene 2 5 16 -0.555345 0 5 -0.555345 1
gene 1 6 12 -1.60981 0 2 -1.60981 1
gene 2 7 12 -0.411229 0 3 -0.411229 1
gene 1 8 12 0.162358 0 4 0.162358 1
gene 2 9 12 0.881176 0 5 0.881176 1
gene 3 10 12 -0.655797 0 6 -0.655797 1
gene 1 11 12 -0.3183 0 7 -0.3183 1
gene 2 1 13 0.206023 0 5 0.206023 0
gene 2 2 14 0.0130619 0 6 0.0130619 1
gene 3 3 15 1.57695 0 7 1.57695 1
gene 2 1 18 1 0 12 0 1
gene 2 18 13 0.206023 0 13 0 1
genomeend 66

/* Organism #83 Fitness: 52.2026 Error: 0 */
genomestart 83
trait 1 0.1 0 0 0 0.019138 0 0.0145529 0.000359546 
trait 2 0.13125 0.00965237 0.000704072 0.0354663 0.0815258 0.00213975 0.15371 0.0659175 
trait 3 0.288544 0 0.0299596 0.110561 0 0 0 0.16146 
node 1 2 1 1
node 2 1 1 1
node 3 1 1 1
node 4 1 1 1
node 5 3 1 1
node 6 1 1 1
node 7 1 1 1
node 8 1 1 1
node 9 1 1 1
node 10 2 1 1
node 11 3 1 3
node 12 3 0 2
node 13 2 0 2
node 14 3 0 2
node 15 1 0 2
node 16 3 0 2
gene 2 1 12 0.373913 0 1 0.373913 1
gene 2 2 13 -1.92701 0 2 -1.92701 1
gene 2 3 14 -1.70946 0 3 -1.70946 1
gene 1 4 15 -2.10823 0 4 -2.10823 1
gene 2 5 16 0.840205 0 5 0.840205 1
gene 1 6 12 0.4785 0 2 0.4785 1
gene 2 7 12 -0.262535 0 3 -0.262535 1
gene 1 8 12 -1.79773 0 4 -1.79773 1
gene 2 9 12 0.916196 0 5 0.916196 1
gene 3 10 12 -0.939741 0 6 -0.939741 1
gene 1 11 12 -1.44131 0 7 -1.44131 1
gene 2 1 13 1.93823 0 5 1.93823 1
gene 2 2 14 -0.840602 0 6 -0.840602 1
gene 3 3 15 0.153035 0 7 0.153035 1
genomeend 83

/* Organism #84 Fitness: 50.4229 Error: 0 */
genomestart 84
trait 1 0.1 0 0 0 0.019138 0 0.0145529 0.000359546 
trait 2 0.13125 0.00965237 0.000704072 0.0354663 0.0815258 0.00213975 0.15371 0.0659175 
trait 3 0.288544 0 0.0299596 0.110561 0 0 0 0.16146 
node 1 2 1 1
node 2 1 1 1
node 3 1 1 1
node 4 1 1 1
node 5 3 1 1
node 6 1 1 1
node 7 1 1 1
node 8 1 1 1
node 9 1 1 1
node 10 2 1 1
node 11 3 1 3
node 12 3 0 2
node 13 2 0 2
node 14 3 0 2
node 15 1 0 2
node 16 3 0 2
gene 2 1 12 1.63852 0 1 1.63852 1
gene 2 2 13 1.82264 0 2 1.82264 1
gene 2 3 14 -1.04164 0 3 -1.04164 1
gene 1 4 15 0.161809 0 4 0.161809 1
gene 2 5 16 0.664174 0 5 0.664174 1
gene 1 6 12 -2.02638 0 2 -2.02638 1
gene 2 7 12 -0.22544 0 3 -0.22544 1
gene 1 8 12 -0.769677 0 4 -0.769677 1
gene 2 9 12 -1.73869 0 5 -1.73869 1
gene 3 10 12 -0.938276 0 6 -0.938276 1
gene 1 11 12 0.417508 0 7 0.417508 1
gene 2 1 13 2.554 0 5 2.554 1
gene 2 2 14 -2.50203 0 6 -2.50203 1
gene 3 3 15 0.400769 0 7 0.400769 1
genomeend 84

/* Organism #85 Fitness: 8.7954 Error: 0 */
genomestart 85
trait 1 0.1 0 0 0 0.019138 0 0.0145529 0.000359546 
trait 2 0.13125 0.00965237 0.000704072 0.0354663 0.0815258 0.00213975 0.15371 0.0659175 
trait 3 0.288544 0 0.0299596 0.110561 0 0 0 0.16146 
node 1 2 1 1
node 2 3 1 1
node 3 3 1 1
node 4 2 1 1
node 5 1 1 1
node 6 1 1 1
node 7 3 1 1
node 8 3 1 1
node 9 1 1 1
node 10 1 1 1
node 11 2 1 3
node 12 2 0 2
node 13 1 0 2
node 14 3 0 2
node 15 3 0 2
node 16 1 0 2
gene 2 1 12 -2.23946 0 1 -2.23946 1
gene 3 2 13 0.821863 0 2 0.821863 1
gene 2 3 14 -3.58451 0 3 -3.58451 1
gene 1 4 15 -2.88949 0 4 -2.88949 1
gene 2 5 16 1.09717 0 5 1.09717 1
gene 1 6 12 0.393765 0 2 0.393765 1
gene 2 7 12 -0.271905 0 3 -0.271905 1
gene 1 8 12 -0.931768 0 4 -0.931768 1
gene 2 9 12 2.13007 0 5 2.13007 1
gene 3 10 12 0.305414 0 6 0.305414 1
gene 1 11 12 2.96785 0 7 2.96785 1
gene 2 1 13 0.0820948 0 5 0.0820948 1
gene 2 2 14 0.365642 0 6 0.365642 1
gene 2 3 15 -1.61473 0 7 -1.61473 1
genomeend 85

/* Organism #86 Fitness: 0 Error: 0 */
genomestart 86
trait 1 0.1 0 0 0 0.019138 0 0.0145529 0.000359546 
trait 2 0.13125 0.00965237 0.000704072 0.0354663 0.0815258 0.00213975 0.15371 0.0659175 
trait 3 0.288544 0 0.0299596 0.110561 0 0 0 0.16146 
node 1 2 1 1
node 2 1 1 1
node 3 1 1 1
node 4 1 1 1
node 5 3 1 1
node 6 1 1 1
node 7 1 1 1
node 8 1 1 1
node 9 1 1 1
node 10 2 1 1
node 11 3 1 3
node 12 3 0 2
node 13 2 0 2
node 14 3 0 2
node 15 1 0 2
node 16 3 0 2
gene 2 1 12 -1.85737 0 1 -1.85737 1
gene 2 2 13 -0.130467 0 2 -0.130467 1
gene 2 3 14 -1.93988 0 3 -1.93988 1
gene 1 4 15 0.765084 0 4 0.765084 1
gene 2 5 16 2.27502 0 5 2.27502 1
gene 1 6 12 1.12519 0 2 1.12519 1
gene 2 7 12 -0.717109 0 3 -0.717109 1
gene 1 8 12 -1.43048 0 4 -1.43048 1
gene 2 9 12 -1.65265 0 5 -1.65265 1
gene 3 10 12 2.53626 0 6 2.53626 1
gene 1 11 12 0.170003 0 7 0.170003 1
gene 2 1 13 1.97095 0 5 1.97095 1
gene 2 2 14 -1.67612 0 6 -1.67612 1
gene 3 3 15 -2.33291 0 7 -2.33291 1
genomeend 86

/* Organism #79 Fitness: 0 Error: 0 */
genomestart 79
trait 1 0.1 0 0 0 0.019138 0 0.0145529 0.000359546 
trait 2 0.13125 0.00965237 0.000704072 0.0354663 0.0815258 0.00213975 0.15371 0.0659175 
trait 3 0.288544 0 0.0299596 0.110561 0 0 0 0.16146 
node 1 2 1 1
node 2 3 1 1
node 3 3 1 1
node 4 2 1 1
node 5 1 1 1
node 6 1 1 1
node 7 3 1 1
node 8 3 1 1
node 9 1 1 1
node 10 1 1 1
node 11 2 1 3
node 12 2 0 2
node 13 1 0 2
node 14 3 0 2
node 15 3 0 2
node 16 1 0 2
gene 2 1 12 2.22562 0 1 2.22562 1
gene 3 2 13 2.06091 0 2 2.06091 1
gene 1 3 14 0.64597 0 3 0.64597 1
gene 3 4 15 -0.560686 0 4 -0.560686 1
gene 2 5 16 0.491623 0 5 0.491623 1
gene 1 6 12 -2.8426 0 2 -2.8426 1
gene 2 7 12 1.31803 0 3 1.31803 1
gene 1 8 12 -1.73246 0 4 -1.73246 1
gene 2 9 12 1.97229 0 5 1.97229 1
gene 3 10 12 0.283227 0 6 0.283227 1
gene 3 11 12 -2.28246 0 7 -2.28246 1
gene 2 1 13 -2.61794 0 5 -2.61794 1
gene 2 2 14 -0.0622272 0 6 -0.0622272 1
gene 2 3 15 -0.346187 0 7 -0.346187 1
genomeend 79

/* Organism #76 Fitness: 0 Error: 0 */
genomestart 76
trait 1 0.1 0 0 0 0.019138 0 0.0145529 0.000359546 
trait 2 0.13125 0.00965237 0.000704072 0.0354663 0.0815258 0.00213975 0.15371 0.0659175 
trait 3 0.288544 0 0.0299596 0.110561 0 0 0 0.16146 
node 1 2 1 1
node 2 3 1 1
node 3 3 1 1
node 4 2 1 1
node 5 1 1 1
node 6 1 1 1
node 7 3 1 1
node 8 3 1 1
node 9 1 1 1
node 10 1 1 1
node 11 2 1 3
node 12 2 0 2
node 13 1 0 2
node 14 3 0 2
node 15 3 0 2
node 16 1 0 2
gene 2 1 12 -0.14246 0 1 -0.14246 1
gene 3 2 13 -0.0474563 0 2 -0.0474563 1
gene 1 3 14 0.7022 0 3 0.7022 1
gene 3 4 15 0.940214 0 4 0.940214 1
gene 2 5 16 -0.219642 0 5 -0.219642 1
gene 1 6 12 0.540574 0 2 0.540574 1
gene 2 7 12 0.3773 0 3 0.3773 1
gene 1 8 12 0.162358 0 4 0.162358 1
gene 2 9 12 0.211371 0 5 0.211371 1
gene 3 10 12 0.494949 0 6 0.494949 1
gene 3 11 12 -0.656362 0 7 -0.656362 1
gene 2 1 13 -0.353923 0 5 -0.353923 1
gene 2 2 14 -0.0622272 0 6 -0.0622272 1
gene 3 3 15 0.400769 0 7 0.400769 1
genomeend 76

/* Organism #89 Fitness: 0 Error: 0 */
genomestart 89
trait 1 0.1 0 0 0 0.019138 0 0.0145529 0.000359546 
trait 2 0.13125 0.00965237 0.000704072 0.0354663 0.0815258 0.00213975 0.15371 0.0659175 
trait 3 0.288544 0 0.0299596 0.110561 0 0 0 0.16146 
node 1 2 1 1
node 2 1 1 1
node 3 1 1 1
node 4 1 1 1
node 5 3 1 1
node 6 1 1 1
node 7 1 1 1
node 8 1 1 1
node 9 1 1 1
node 10 2 1 1
node 11 3 1 3
node 12 3 0 2
node 13 2 0 2
node 14 3 0 2
node 15 1 0 2
node 16 3 0 2
gene 2 1 12 -1.85737 0 1 -1.85737 1
gene 2 2 13 -0.130467 0 2 -0.130467 1
gene 2 3 14 -1.93988 0 3 -1.93988 1
gene 1 4 15 0.765084 0 4 0.765084 1
gene 2 5 16 2.27502 0 5 2.27502 1
gene 1 6 12 1.12519 0 2 1.12519 1
gene 2 7 12 0.3773 0 3 0.3773 1
gene 1 8 12 0.162358 0 4 0.162358 1
gene 2 9 12 -1.65265 0 5 -1.65265 1
gene 3 10 12 2.53626 0 6 2.53626 1
gene 1 11 12 0.170003 0 7 0.170003 1
gene 2 1 13 0.214148 0 5 0.214148 1
gene 2 2 14 -1.67612 0 6 -1.67612 1
gene 3 3 15 -2.33291 0 7 -2.33291 1
genomeend 89

/* Organism #94 Fitness: 0 Error: 0 */
genomestart 94
trait 1 0.1 0 0 0 0.019138 0 0.0145529 0.000359546 
trait 2 0.13125 0.00965237 0.000704072 0.0354663 0.0815258 0.00213975 0.15371 0.0659175 
trait 3 0.288544 0 0.0299596 0.110561 0 0 0 0.16146 
node 1 2 1 1
node 2 3 1 1
node 3 3 1 1
node 4 2 1 1
node 5 1 1 1
node 6 1 1 1
node 7 3 1 1
node 8 3 1 1
node 9 1 1 1
node 10 1 1 1
node 11 2 1 3
node 12 2 0 2
node 13 1 0 2
node 14 3 0 2
node 15 3 0 2
node 16 1 0 2
gene 2 1 12 -2.36783 0 1 -2.36783 1
gene 3 2 13 1.50803 0 2 1.50803 1
gene 2 3 14 -3.94143 0 3 -3.94143 1
gene 1 4 15 -3.91904 0 4 -3.91904 1
gene 2 5 16 -1.47738 0 5 -1.47738 1
gene 1 6 12 0.518838 0 2 0.518838 1
gene 2 7 12 -2.0163 0 3 -2.0163 1
gene 1 8 12 0.681879 0 4 0.681879 1
gene 2 9 12 -0.169156 0 5 -0.169156 1
gene 3 10 12 -0.458609 0 6 -0.458609 1
gene 1 11 12 2.52248 0 7 2.52248 1
gene 2 1 13 -2.82591 0 5 -2.82591 1
gene 2 2 14 -1.08389 0 6 -1.08389 1
gene 2 3 15 -1.99844 0 7 -1.99844 1
genomeend 94

/* Species #3 : (Size 24) (AF 0) (Age 1)  */


/* Organism #69 Fitness: 8863 Error: 0 */
genomestart 69
trait 1 0.1 0.0968963 0.706442 0.950957 1 0 0.505936 0.000359546 
trait 2 0.13125 0.00965237 0.000704072 0.0354663 0.0815258 0.00213975 0.15371 0.0659175 
trait 3 0.288544 0 0.0299596 0.110561 0 0 0 0.16146 
node 1 2 1 1
node 2 2 1 1
node 3 3 1 1
node 4 3 1 1
node 5 2 1 1
node 6 3 1 1
node 7 1 1 1
node 8 3 1 1
node 9 3 1 1
node 10 2 1 1
node 11 1 1 3
node 12 2 0 2
node 13 3 0 2
node 14 1 0 2
node 15 2 0 2
node 16 1 0 2
node 17 1 0 0
gene 1 1 12 0.0776315 0 1 0.0776315 1
gene 2 2 13 3.75629 0 2 3.75629 1
gene 2 3 14 -1.68058 0 3 -1.68058 1
gene 3 4 15 6.38546 0 4 6.38546 1
gene 3 5 16 3.38607 0 5 3.38607 1
gene 1 6 12 -0.491882 0 2 -0.491882 1
gene 3 7 12 0.0299844 0 3 0.0299844 1
gene 2 8 12 -1.05844 0 4 -1.05844 1
gene 2 9 12 0.318461 0 5 0.318461 1
gene 3 10 12 4.13347 0 6 4.13347 1
gene 2 11 12 -1.09841 0 7 -1.09841 1
gene 1 1 13 0.654622 0 5 0.654622 1
gene 1 2 14 3.89107 0 6 3.89107 1
gene 3 3 15 3.3076 0 7 3.3076 1
gene 3 7 17 2.04114 0 10 2.04114 1
gene 3 17 12 5.04219 0 11 5.04219 1
genomeend 69

/* Organism #91 Fitness: 8897.42 Error: 0 */
genomestart 91
trait 1 0.1 0.0484481 0.353221 0.950957 0.70913 0 0.252968 0.000359546 
trait 2 0.13125 0.00965237 0.000704072 0.0354663 0.0815258 0.00213975 0.15371 0.0659175 
trait 3 0.288544 0 0.0299596 0.110561 0 0 0 0.16146 
node 1 2 1 1
node 2 2 1 1
node 3 3 1 1
node 4 3 1 1
node 5 2 1 1
node 6 3 1 1
node 7 1 1 1
node 8 3 1 1
node 9 3 1 1
node 10 2 1 1
node 11 1 1 3
node 12 2 0 2
node 13 3 0 2
node 14 1 0 2
node 15 2 0 2
node 16 1 0 2
node 17 1 0 0
gene 1 1 12 0.0418867 0 1 0.0418867 1
gene 2 2 13 -0.369121 0 2 -0.369121 1
gene 2 3 14 0.966521 0 3 0.966521 1
gene 1 4 15 7.21236 0 4 7.21236 1
gene 3 5 16 3.05029 0 5 3.05029 1
gene 1 6 12 -0.377438 0 2 -0.377438 1
gene 3 7 12 0.152364 0 3 0.152364 1
gene 2 8 12 -1.05844 0 4 -1.05844 1
gene 2 9 12 2.15239 0 5 2.15239 1
gene 3 10 12 7.2597 0 6 7.2597 1
gene 2 11 12 -2.09587 0 7 -2.09587 1
gene 1 1 13 0.408338 0 5 0.408338 1
gene 1 2 14 4.81967 0 6 4.81967 1
gene 3 3 15 0.499893 0 7 0.499893 1
gene 3 7 17 1.42169 0 10 1.42169 1
gene 3 17 12 3.91148 0 11 3.91148 1
genomeend 91

/* Organism #74 Fitness: 6217 Error: 0 */
genomestart 74
trait 1 0 0 0 0.950957 0 0 0 0.000359546 
trait 2 0.13125 0.00965237 0.000704072 0.0354663 0.0815258 0.00213975 0.15371 0.0659175 
trait 3 0.288544 0 0.0299596 0.110561 0 0 0 0.16146 
node 1 2 1 1
node 2 2 1 1
node 3 3 1 1
node 4 3 1 1
node 5 2 1 1
node 6 3 1 1
node 7 1 1 1
node 8 3 1 1
node 9 3 1 1
node 10 2 1 1
node 11 1 1 3
node 12 2 0 2
node 13 3 0 2
node 14 1 0 2
node 15 2 0 2
node 16 1 0 2
node 17 1 0 0
gene 1 1 12 1.39355 0 1 1.39355 1
gene 2 2 13 0.631466 0 2 0.631466 1
gene 2 3 14 0.670492 0 3 0.670492 1
gene 1 4 15 5.14145 0 4 5.14145 1
gene 3 5 16 0.398923 0 5 0.398923 1
gene 1 6 12 0.497375 0 2 0.497375 1
gene 3 7 12 -3.27982 0 3 -3.27982 1
gene 2 8 12 -3.66857 0 4 -3.66857 1
gene 2 9 12 2.53906 0 5 2.53906 1
gene 3 10 12 5.61827 0 6 5.61827 1
gene 2 11 12 0.289224 0 7 0.289224 1
gene 1 1 13 3.06993 0 5 3.06993 1
gene 1 2 14 2.63421 0 6 2.63421 1
gene 3 3 15 1.75253 0 7 1.75253 1
gene 3 7 17 2.01619 0 10 2.01619 1
gene 3 17 12 1.43826 0 11 1.43826 1
genomeend 74

/* Organism #52 Fitness: 6140 Error: 0 */
genomestart 52
trait 1 0.1 0 0 0.950957 0.418259 0 0 0.000359546 
trait 2 0.13125 0.00965237 0.000704072 0.0354663 0.0815258 0.00213975 0.15371 0.0659175 
trait 3 0.288544 0 0.0299596 0.110561 0 0 0 0.16146 
node 1 2 1 1
node 2 2 1 1
node 3 3 1 1
node 4 3 1 1
node 5 2 1 1
node 6 3 1 1
node 7 1 1 1
node 8 3 1 1
node 9 3 1 1
node 10 2 1 1
node 11 1 1 3
node 12 2 0 2
node 13 3 0 2
node 14 1 0 2
node 15 2 0 2
node 16 1 0 2
node 17 1 0 0
gene 1 1 12 -0.174261 0 1 -0.174261 1
gene 2 2 13 2.74594 0 2 2.74594 1
gene 2 3 14 1.55179 0 3 1.55179 1
gene 1 4 15 5.36545 0 4 5.36545 1
gene 3 5 16 1.56084 0 5 1.56084 1
gene 1 6 12 0.108341 0 2 0.108341 1
gene 3 7 12 -1.17832 0 3 -1.17832 1
gene 2 8 12 -3.67689 0 4 -3.67689 1
gene 2 9 12 1.62458 0 5 1.62458 1
gene 3 10 12 5.1289 0 6 5.1289 1
gene 2 11 12 -1.15873 0 7 -1.15873 1
gene 1 1 13 1.43536 0 5 1.43536 1
gene 1 2 14 2.96625 0 6 2.96625 1
gene 3 3 15 3.66863 0 7 3.66863 1
gene 3 7 17 1.09331 0 10 1.09331 1
gene 3 17 12 3.7788 0 11 3.7788 1
genomeend 52

/* Organism #71 Fitness: 6105 Error: 0 */
genomestart 71
trait 1 0.1 0 0 0.950957 0.418259 0 0 0.000359546 
trait 2 0.13125 0.00965237 0 0 0.0815258 0.00213975 0.15371 0 
trait 3 0.288544 0 0.0299596 0.110561 0 0 0 0.16146 
node 1 2 1 1
node 2 2 1 1
node 3 3 1 1
node 4 3 1 1
node 5 2 1 1
node 6 3 1 1
node 7 1 1 1
node 8 3 1 1
node 9 3 1 1
node 10 2 1 1
node 11 1 1 3
node 12 2 0 2
node 13 3 0 2
node 14 1 0 2
node 15 2 0 2
node 16 1 0 2
node 17 1 0 0
gene 1 1 12 2.00632 0 1 2.00632 1
gene 2 2 13 -1.14025 0 2 -1.14025 1
gene 2 3 14 3.0322 0 3 3.0322 1
gene 1 4 15 4.34156 0 4 4.34156 1
gene 3 5 16 -1.6066 0 5 -1.6066 1
gene 1 6 12 -0.529878 0 2 -0.529878 1
gene 3 7 12 -6.75176 0 3 -6.75176 1
gene 2 8 12 2.13903 0 4 2.13903 1
gene 2 9 12 2.84963 0 5 2.84963 1
gene 3 10 12 6.3525 0 6 6.3525 1
gene 2 11 12 3.20779 0 7 3.20779 1
gene 1 1 13 5.04646 0 5 5.04646 1
gene 1 2 14 1.57441 0 6 1.57441 1
gene 3 3 15 1.74753 0 7 1.74753 1
gene 3 7 17 1.86238 0 10 1.86238 1
gene 3 17 12 0.339366 0 11 0.339366 1
genomeend 71

/* Organism #53 Fitness: 6018 Error: 0 */
genomestart 53
trait 1 0.1 0 0 0.950957 0.418259 0 0 0.000359546 
trait 2 0.13125 0.00965237 0.000704072 0.0354663 0.0815258 0.00213975 0.15371 0.0659175 
trait 3 0.288544 0 0.0299596 0.110561 0 0 0 0.16146 
node 1 2 1 1
node 2 2 1 1
node 3 3 1 1
node 4 3 1 1
node 5 2 1 1
node 6 3 1 1
node 7 1 1 1
node 8 3 1 1
node 9 3 1 1
node 10 2 1 1
node 11 1 1 3
node 12 2 0 2
node 13 3 0 2
node 14 1 0 2
node 15 2 0 2
node 16 1 0 2
node 17 1 0 0
gene 1 1 12 -0.277718 0 1 -0.277718 1
gene 2 2 13 -0.188185 0 2 -0.188185 1
gene 2 3 14 0.817057 0 3 0.817057 1
gene 1 4 15 6.49624 0 4 6.49624 1
gene 3 5 16 0.398923 0 5 0.398923 1
gene 1 6 12 0.375988 0 2 0.375988 1
gene 3 7 12 -5.7474 0 3 -5.7474 1
gene 2 8 12 1.35685 0 4 1.35685 1
gene 2 9 12 2.53906 0 5 2.53906 1
gene 3 10 12 4.12591 0 6 4.12591 1
gene 2 11 12 -0.657155 0 7 -0.657155 1
gene 1 1 13 5.09575 0 5 5.09575 1
gene 1 2 14 1.04991 0 6 1.04991 1
gene 3 3 15 3.8873 0 7 3.8873 1
gene 3 7 17 0.968963 0 10 0.968963 1
gene 3 17 12 1.43826 0 11 1.43826 1
genomeend 53

/* Organism #47 Fitness: 5991 Error: 0 */
genomestart 47
trait 1 0.1 0 0 0.950957 0.418259 0 0 0.000359546 
trait 2 0.13125 0.00965237 0.000704072 0.0354663 0.0815258 0.00213975 0.15371 0.0659175 
trait 3 0.288544 0 0.0299596 0.110561 0 0 0 0.16146 
node 1 2 1 1
node 2 2 1 1
node 3 3 1 1
node 4 3 1 1
node 5 2 1 1
node 6 3 1 1
node 7 1 1 1
node 8 3 1 1
node 9 3 1 1
node 10 2 1 1
node 11 1 1 3
node 12 2 0 2
node 13 3 0 2
node 14 1 0 2
node 15 2 0 2
node 16 1 0 2
node 17 1 0 0
gene 1 1 12 1.39355 0 1 1.39355 1
gene 2 2 13 0.631466 0 2 0.631466 1
gene 2 3 14 0.670492 0 3 0.670492 1
gene 1 4 15 5.14145 0 4 5.14145 1
gene 3 5 16 0.398923 0 5 0.398923 1
gene 1 6 12 0.497375 0 2 0.497375 1
gene 3 7 12 -3.27982 0 3 -3.27982 1
gene 2 8 12 -3.66857 0 4 -3.66857 1
gene 2 9 12 2.53906 0 5 2.53906 1
gene 3 10 12 5.61827 0 6 5.61827 1
gene 2 11 12 0.289224 0 7 0.289224 1
gene 1 1 13 3.06993 0 5 3.06993 1
gene 1 2 14 2.63421 0 6 2.63421 1
gene 3 3 15 1.75253 0 7 1.75253 1
gene 3 7 17 2.01619 0 10 2.01619 1
gene 3 17 12 1.43826 0 11 1.43826 1
genomeend 47

/* Organism #49 Fitness: 5973 Error: 0 */
genomestart 49
trait 1 0.1 0 0 0.950957 0.418259 0 0 0.000359546 
trait 2 0.13125 0.00965237 0.000704072 0.0354663 0.0815258 0.00213975 0.15371 0.0659175 
trait 3 0.288544 0 0.0299596 0.110561 0 0 0 0.16146 
node 1 2 1 1
node 2 2 1 1
node 3 3 1 1
node 4 3 1 1
node 5 2 1 1
node 6 3 1 1
node 7 1 1 1
node 8 3 1 1
node 9 3 1 1
node 10 2 1 1
node 11 1 1 3
node 12 2 0 2
node 13 3 0 2
node 14 1 0 2
node 15 2 0 2
node 16 1 0 2
node 17 1 0 0
gene 1 1 12 1.56598 0 1 1.56598 1
gene 2 2 13 1.27724 0 2 1.27724 1
gene 2 3 14 2.30903 0 3 2.30903 1
gene 1 4 15 6.35387 0 4 6.35387 1
gene 3 5 16 -0.950606 0 5 -0.950606 1
gene 1 6 12 -0.388806 0 2 -0.388806 1
gene 3 7 12 -5.2559 0 3 -5.2559 1
gene 2 8 12 -1.52884 0 4 -1.52884 1
gene 2 9 12 2.43751 0 5 2.43751 1
gene 3 10 12 5.66107 0 6 5.66107 1
gene 2 11 12 2.77892 0 7 2.77892 1
gene 1 1 13 3.05559 0 5 3.05559 1
gene 1 2 14 2.63421 0 6 2.63421 1
gene 3 3 15 3.61438 0 7 3.61438 1
gene 3 7 17 3.9059 0 10 3.9059 1
gene 3 17 12 -0.759529 0 11 -0.759529 1
genomeend 49

/* Organism #90 Fitness: 0 Error: 0 */
genomestart 90
trait 1 0.1 0.0968963 0.706442 0.950957 1 0 0.505936 0.000359546 
trait 2 0.13125 0.00965237 0.000704072 0.0354663 0.0815258 0.00213975 0.15371 0.0659175 
trait 3 0.288544 0 0.0299596 0.110561 0 0 0 0.16146 
node 1 2 1 1
node 2 2 1 1
node 3 3 1 1
node 4 3 1 1
node 5 2 1 1
node 6 3 1 1
node 7 1 1 1
node 8 3 1 1
node 9 3 1 1
node 10 2 1 1
node 11 1 1 3
node 12 2 0 2
node 13 3 0 2
node 14 1 0 2
node 15 2 0 2
node 16 1 0 2
node 17 1 0 0
gene 1 1 12 -1.05323 0 1 -1.05323 1
gene 2 2 13 5.52156 0 2 5.52156 1
gene 2 3 14 -1.68058 0 3 -1.68058 1
gene 3 4 15 6.60885 0 4 6.60885 1
gene 3 5 16 5.82763 0 5 5.82763 1
gene 1 6 12 -1.06281 0 2 -1.06281 1
gene 3 7 12 1.74772 0 3 1.74772 1
gene 2 8 12 -0.545801 0 4 -0.545801 1
gene 2 9 12 -1.60718 0 5 -1.60718 1
gene 3 10 12 2.91189 0 6 2.91189 1
gene 2 11 12 1.9731 0 7 1.9731 1
gene 1 1 13 2.93565 0 5 2.93565 1
gene 1 2 14 -0.0728629 0 6 -0.0728629 1
gene 3 3 15 3.33766 0 7 3.33766 1
gene 3 7 17 3.06641 0 10 3.06641 1
gene 3 17 12 5.04219 0 11 5.04219 1
genomeend 90

/* Organism #55 Fitness: 5672 Error: 0 */
genomestart 55
trait 1 0.1 0 0 0.950957 0.418259 0 0 0.000359546 
trait 2 0.13125 0.00965237 0.000704072 0.0354663 0.0815258 0.00213975 0.15371 0.0659175 
trait 3 0.288544 0 0.0299596 0.110561 0 0 0 0.16146 
node 1 2 1 1
node 2 2 1 1
node 3 3 1 1
node 4 3 1 1
node 5 2 1 1
node 6 3 1 1
node 7 1 1 1
node 8 3 1 1
node 9 3 1 1
node 10 2 1 1
node 11 1 1 3
node 12 2 0 2
node 13 3 0 2
node 14 1 0 2
node 15 2 0 2
node 16 1 0 2
node 17 1 0 0
gene 1 1 12 1.667 0 1 1.667 1
gene 2 2 13 2.59846 0 2 2.59846 1
gene 2 3 14 1.30512 0 3 1.30512 1
gene 1 4 15 4.15318 0 4 4.15318 1
gene 1 5 16 0.398923 0 5 0.398923 1
gene 1 6 12 -0.95996 0 2 -0.95996 1
gene 3 7 12 -2.26058 0 3 -2.26058 1
gene 2 8 12 -1.48688 0 4 -1.48688 1
gene 2 9 12 1.18496 0 5 1.18496 1
gene 3 10 12 5.71982 0 6 5.71982 1
gene 2 11 12 2.18534 0 7 2.18534 1
gene 1 1 13 2.22449 0 5 2.22449 1
gene 1 2 14 4.03554 0 6 4.03554 1
gene 3 3 15 -0.445189 0 7 -0.445189 1
gene 3 7 17 -0.159169 0 10 -0.159169 1
gene 3 17 12 1.13376 0 11 1.13376 1
genomeend 55

/* Organism #61 Fitness: 5622 Error: 0 */
genomestart 61
trait 1 0.1 0 0 0.950957 0.418259 0 0 0.000359546 
trait 2 0.13125 0.00965237 0.000704072 0.0354663 0.0815258 0.00213975 0.15371 0.0659175 
trait 3 0.288544 0 0.0299596 0.110561 0 0 0 0.16146 
node 1 2 1 1
node 2 2 1 1
node 3 3 1 1
node 4 3 1 1
node 5 2 1 1
node 6 3 1 1
node 7 1 1 1
node 8 3 1 1
node 9 3 1 1
node 10 2 1 1
node 11 1 1 3
node 12 2 0 2
node 13 3 0 2
node 14 1 0 2
node 15 2 0 2
node 16 1 0 2
node 17 1 0 0
gene 1 1 12 1.39355 0 1 1.39355 1
gene 2 2 13 0.631466 0 2 0.631466 1
gene 2 3 14 0.670492 0 3 0.670492 1
gene 1 4 15 5.14145 0 4 5.14145 1
gene 3 5 16 0.398923 0 5 0.398923 1
gene 1 6 12 0.497375 0 2 0.497375 1
gene 3 7 12 -3.27982 0 3 -3.27982 1
gene 2 8 12 -3.66857 0 4 -3.66857 1
gene 2 9 12 2.53906 0 5 2.53906 1
gene 3 10 12 5.61827 0 6 5.61827 1
gene 2 11 12 0.289224 0 7 0.289224 1
gene 1 1 13 3.06993 0 5 3.06993 1
gene 1 2 14 2.63421 0 6 2.63421 1
gene 3 3 15 1.75253 0 7 1.75253 1
gene 3 7 17 2.01619 0 10 2.01619 1
gene 3 17 12 1.43826 0 11 1.43826 1
genomeend 61

/* Organism #48 Fitness: 4745 Error: 0 */
genomestart 48
trait 1 0.1 0 0 0 0.019138 0 0.0145529 0.000359546 
trait 2 0.13125 0.00965237 0.000704072 0.0354663 0.0815258 0.00213975 0.15371 0.0659175 
trait 3 0.288544 0 0.0299596 0.110561 0 0 0 0.16146 
node 1 2 1 1
node 2 2 1 1
node 3 3 1 1
node 4 3 1 1
node 5 2 1 1
node 6 3 1 1
node 7 1 1 1
node 8 3 1 1
node 9 3 1 1
node 10 2 1 1
node 11 1 1 3
node 12 2 0 2
node 13 3 0 2
node 14 1 0 2
node 15 2 0 2
node 16 1 0 2
node 17 1 0 0
gene 1 1 12 1.23211 0 1 1.23211 1
gene 2 2 13 3.06341 0 2 3.06341 1
gene 3 3 14 2.99463 0 3 2.99463 1
gene 1 4 15 1.72574 0 4 1.72574 1
gene 3 5 16 2.36195 0 5 2.36195 1
gene 1 6 12 5.74524 0 2 5.74524 1
gene 3 7 12 -5.76586 0 3 -5.76586 0
gene 2 8 12 -3.32188 0 4 -3.32188 1
gene 2 9 12 0.393765 0 5 0.393765 1
gene 3 10 12 3.12956 0 6 3.12956 1
gene 2 11 12 -0.610385 0 7 -0.610385 1
gene 1 1 13 0.295114 0 5 0.295114 1
gene 1 2 14 5.76601 0 6 5.76601 1
gene 3 3 15 4.76032 0 7 4.76032 1
gene 3 7 17 1.0473 0 10 1.0473 1
gene 3 17 12 -3.20093 0 11 -3.20093 1
genomeend 48

/* Organism #54 Fitness: 3648 Error: 0 */
genomestart 54
trait 1 0.1 0 0 0.950957 0.418259 0 0 0.000359546 
trait 2 0.13125 0.00965237 0.000704072 0.0354663 0.0815258 0.00213975 0.15371 0.0659175 
trait 3 0.288544 0 0.0299596 0.110561 0 0 0 0.16146 
node 1 2 1 1
node 2 2 1 1
node 3 3 1 1
node 4 3 1 1
node 5 2 1 1
node 6 3 1 1
node 7 1 1 1
node 8 3 1 1
node 9 3 1 1
node 10 2 1 1
node 11 1 1 3
node 12 2 0 2
node 13 3 0 2
node 14 1 0 2
node 15 2 0 2
node 16 1 0 2
node 17 1 0 0
gene 1 1 12 1.91282 0 1 1.91282 1
gene 2 2 13 3.56773 0 2 3.56773 1
gene 2 3 14 2.93977 0 3 2.93977 1
gene 1 4 15 4.27976 0 4 4.27976 1
gene 3 5 16 4.05458 0 5 4.05458 1
gene 1 6 12 0.328608 0 2 0.328608 1
gene 3 7 12 -2.64595 0 3 -2.64595 1
gene 2 8 12 -3.18958 0 4 -3.18958 1
gene 2 9 12 2.38098 0 5 2.38098 1
gene 3 10 12 7.57946 0 6 7.57946 1
gene 2 11 12 0.384899 0 7 0.384899 1
gene 1 1 13 2.04634 0 5 2.04634 1
gene 1 2 14 2.80061 0 6 2.80061 1
gene 3 3 15 3.66863 0 7 3.66863 1
gene 3 7 17 0.439756 0 10 0.439756 1
gene 3 17 12 2.29614 0 11 2.29614 1
genomeend 54

/* Organism #78 Fitness: 3295 Error: 0 */
genomestart 78
trait 1 0.1 0 0 0.950957 0.418259 0 0 0.000359546 
trait 2 0.13125 0.00965237 0 0 0.0815258 0.00213975 0.15371 0 
trait 3 0.948751 0 0 0.110561 0.0737327 0 0.0512101 0.16146 
node 1 2 1 1
node 2 2 1 1
node 3 3 1 1
node 4 3 1 1
node 5 2 1 1
node 6 3 1 1
node 7 1 1 1
node 8 3 1 1
node 9 3 1 1
node 10 2 1 1
node 11 1 1 3
node 12 2 0 2
node 13 3 0 2
node 14 1 0 2
node 15 2 0 2
node 16 1 0 2
node 17 1 0 0
gene 1 1 12 1.66299 0 1 1.66299 1
gene 2 2 13 -2.11005 0 2 -2.11005 1
gene 2 3 14 3.74527 0 3 3.74527 1
gene 1 4 15 2.63809 0 4 2.63809 1
gene 3 5 16 -2.52574 0 5 -2.52574 1
gene 1 6 12 1.0033 0 2 1.0033 1
gene 3 7 12 -7.50061 0 3 -7.50061 1
gene 2 8 12 2.90543 0 4 2.90543 1
gene 2 9 12 2.08102 0 5 2.08102 1
gene 3 10 12 7.92138 0 6 7.92138 1
gene 2 11 12 2.3976 0 7 2.3976 1
gene 1 1 13 5.40345 0 5 5.40345 1
gene 1 2 14 2.84413 0 6 2.84413 1
gene 3 3 15 1.74753 0 7 1.74753 1
gene 3 7 17 1.86238 0 10 1.86238 1
gene 3 17 12 -0.807978 0 11 -0.807978 1
genomeend 78

/* Organism #60 Fitness: 54.4904 Error: 0 */
genomestart 60
trait 1 0.1 0 0 0.950957 0.418259 0 0 0.000359546 
trait 2 0.13125 0.00965237 0.000704072 0.0354663 0.0815258 0.00213975 0.15371 0.0659175 
trait 3 0.288544 0 0.0299596 0.110561 0 0 0 0.16146 
node 1 2 1 1
node 2 2 1 1
node 3 3 1 1
node 4 3 1 1
node 5 2 1 1
node 6 3 1 1
node 7 1 1 1
node 8 3 1 1
node 9 3 1 1
node 10 3 1 1
node 11 1 1 3
node 12 2 0 2
node 13 3 0 2
node 14 1 0 2
node 15 2 0 2
node 16 1 0 2
node 17 1 0 0
gene 1 1 12 1.61321 0 1 1.61321 1
gene 2 2 13 4.3432 0 2 4.3432 1
gene 2 3 14 -0.615329 0 3 -0.615329 1
gene 1 4 15 6.8955 0 4 6.8955 1
gene 3 5 16 -0.614826 0 5 -0.614826 1
gene 1 6 12 1.16321 0 2 1.16321 1
gene 3 7 12 -6.72658 0 3 -6.72658 1
gene 2 8 12 -2.99846 0 4 -2.99846 1
gene 2 9 12 -1.14666 0 5 -1.14666 1
gene 3 10 12 4.37281 0 6 4.37281 1
gene 2 11 12 1.79334 0 7 1.79334 1
gene 1 1 13 3.91583 0 5 3.91583 1
gene 1 2 14 2.94084 0 6 2.94084 1
gene 3 3 15 0.882214 0 7 0.882214 1
gene 3 7 17 -0.15717 0 10 -0.15717 1
gene 3 17 12 -0.535829 0 11 -0.535829 1
genomeend 60

/* Organism #70 Fitness: 54.4239 Error: 0 */
genomestart 70
trait 1 0.1 0.0484481 0.353221 0.950957 0.70913 0 0.252968 0.000359546 
trait 2 0.13125 0.00965237 0.000704072 0.0354663 0.0815258 0.00213975 0.15371 0.0659175 
trait 3 0.288544 0 0.0299596 0.110561 0 0 0 0.16146 
node 1 2 1 1
node 2 2 1 1
node 3 3 1 1
node 4 3 1 1
node 5 2 1 1
node 6 3 1 1
node 7 1 1 1
node 8 3 1 1
node 9 3 1 1
node 10 2 1 1
node 11 1 1 3
node 12 2 0 2
node 13 3 0 2
node 14 1 0 2
node 15 2 0 2
node 16 1 0 2
node 17 1 0 0
gene 1 1 12 -0.940981 0 1 -0.940981 1
gene 2 2 13 3.73846 0 2 3.73846 1
gene 2 3 14 -0.0627155 0 3 -0.0627155 1
gene 1 4 15 4.88898 0 4 4.88898 1
gene 3 5 16 0.620411 0 5 0.620411 1
gene 1 6 12 -1.17698 0 2 -1.17698 1
gene 3 7 12 -4.55988 0 3 -4.55988 1
gene 2 8 12 -0.328635 0 4 -0.328635 1
gene 2 9 12 -1.00013 0 5 -1.00013 1
gene 3 10 12 4.64339 0 6 4.64339 1
gene 2 11 12 0.746258 0 7 0.746258 1
gene 1 1 13 5.35756 0 5 5.35756 1
gene 1 2 14 1.28042 0 6 1.28042 1
gene 3 3 15 1.09935 0 7 1.09935 1
gene 3 7 17 1.22237 0 10 1.22237 1
gene 3 17 12 1.53607 0 11 1.53607 1
genomeend 70

/* Organism #88 Fitness: 25.1197 Error: 0 */
genomestart 88
trait 1 0.05 0 0 0.950957 0.20913 0 0 0.000359546 
trait 2 0.13125 0.00965237 0.000704072 0.0354663 0.0815258 0.00213975 0.15371 0.0659175 
trait 3 0.288544 0 0.0299596 0.110561 0 0 0 0.16146 
node 1 2 1 1
node 2 2 1 1
node 3 3 1 1
node 4 3 1 1
node 5 2 1 1
node 6 3 1 1
node 7 1 1 1
node 8 3 1 1
node 9 3 1 1
node 10 2 1 1
node 11 1 1 3
node 12 2 0 2
node 13 3 0 2
node 14 1 0 2
node 15 2 0 2
node 16 1 0 2
node 17 1 0 0
gene 1 1 12 0.525452 0 1 0.525452 1
gene 2 2 13 -1.943 0 2 -1.943 1
gene 2 3 14 -0.291223 0 3 -0.291223 1
gene 1 4 15 6.49624 0 4 6.49624 1
gene 3 5 16 0.398923 0 5 0.398923 1
gene 1 6 12 0.497375 0 2 0.497375 1
gene 3 7 12 -2.88514 0 3 -2.88514 1
gene 2 8 12 -3.66857 0 4 -3.66857 1
gene 2 9 12 1.18496 0 5 1.18496 1
gene 3 10 12 -2.05786 0 6 -2.05786 1
gene 2 11 12 1.90275 0 7 1.90275 1
gene 1 1 13 0.973083 0 5 0.973083 1
gene 1 2 14 2.89125 0 6 2.89125 1
gene 3 3 15 2.34863 0 7 2.34863 1
gene 3 7 17 2.01619 0 10 2.01619 1
gene 3 17 12 -0.388272 0 11 -0.388272 1
genomeend 88

/* Organism #87 Fitness: 88.5188 Error: 0 */
genomestart 87
trait 1 0.1 0.0484481 0.353221 0.950957 0.70913 0 0.252968 0.000359546 
trait 2 0.13125 0.00965237 0.000352036 0.0177331 0.0815258 0.00213975 0.15371 0.0329588 
trait 3 0.288544 0 0.0299596 0.110561 0 0 0 0.16146 
node 1 2 1 1
node 2 2 1 1
node 3 3 1 1
node 4 3 1 1
node 5 2 1 1
node 6 3 1 1
node 7 1 1 1
node 8 3 1 1
node 9 3 1 1
node 10 2 1 1
node 11 1 1 3
node 12 2 0 2
node 13 1 0 2
node 14 1 0 2
node 15 2 0 2
node 16 1 0 2
node 17 1 0 0
gene 1 1 12 1.49705 0 1 1.49705 1
gene 2 2 13 -1.07837 0 2 -1.07837 1
gene 2 3 14 -2.73415 0 3 -2.73415 1
gene 3 4 15 8 0 4 8 1
gene 3 5 16 -0.527543 0 5 -0.527543 1
gene 1 6 12 2.48062 0 2 2.48062 1
gene 3 7 12 -8 0 3 -8 1
gene 2 8 12 1.28943 0 4 1.28943 1
gene 2 9 12 -0.27543 0 5 -0.27543 1
gene 3 10 12 7.6574 0 6 7.6574 1
gene 2 11 12 0.890553 0 7 0.890553 1
gene 1 1 13 4.47134 0 5 4.47134 1
gene 1 2 14 5.1215 0 6 5.1215 1
gene 3 3 15 1.302 0 7 1.302 1
gene 3 7 17 3.82571 0 10 3.82571 1
gene 3 17 12 -0.031663 0 11 -0.031663 1
genomeend 87

/* Organism #80 Fitness: 24.7089 Error: 0 */
genomestart 80
trait 1 0.1 0 0 0.950957 0.418259 0 0 0.000359546 
trait 2 0.13125 0.00965237 0.000704072 0.0354663 0.0815258 0.00213975 0.15371 0.0659175 
trait 3 0.288544 0 0.0299596 0.110561 0 0 0 0.16146 
node 1 2 1 1
node 2 2 1 1
node 3 3 1 1
node 4 3 1 1
node 5 2 1 1
node 6 3 1 1
node 7 1 1 1
node 8 3 1 1
node 9 3 1 1
node 10 2 1 1
node 11 1 1 3
node 12 2 0 2
node 13 3 0 2
node 14 1 0 2
node 15 2 0 2
node 16 1 0 2
node 17 1 0 0
gene 1 1 12 0.241554 0 1 0.241554 1
gene 2 2 13 -0.62315 0 2 -0.62315 1
gene 2 3 14 0.368435 0 3 0.368435 1
gene 1 4 15 7.59513 0 4 7.59513 1
gene 3 5 16 1.6321 0 5 1.6321 1
gene 1 6 12 1.76992 0 2 1.76992 1
gene 3 7 12 -2.49741 0 3 -2.49741 1
gene 2 8 12 -4.12322 0 4 -4.12322 1
gene 2 9 12 1.7922 0 5 1.7922 1
gene 3 10 12 6.37368 0 6 6.37368 1
gene 2 11 12 -0.338389 0 7 -0.338389 1
gene 1 1 13 3.78727 0 5 3.78727 1
gene 1 2 14 0.697424 0 6 0.697424 1
gene 3 3 15 1.75253 0 7 1.75253 1
gene 3 7 17 0.0503403 0 10 0.0503403 1
gene 3 17 12 -1.03809 0 11 -1.03809 1
genomeend 80

/* Organism #82 Fitness: 40 Error: 0 */
genomestart 82
trait 1 0.424168 0 0 1 1 0 0 0 
trait 2 0.13125 0.00965237 0 0 0.0815258 0.00213975 0.15371 0 
trait 3 0.288544 0 0.0299596 0.110561 0 0 0 0.16146 
node 1 2 1 1
node 2 2 1 1
node 3 3 1 1
node 4 3 1 1
node 5 2 1 1
node 6 3 1 1
node 7 1 1 1
node 8 3 1 1
node 9 3 1 1
node 10 2 1 1
node 11 1 1 3
node 12 2 0 2
node 13 3 0 2
node 14 1 0 2
node 15 2 0 2
node 16 1 0 2
node 17 1 0 0
gene 1 1 12 2.00632 0 1 2.00632 1
gene 2 2 13 -1.14025 0 2 -1.14025 1
gene 2 3 14 3.0322 0 3 3.0322 1
gene 1 4 15 4.34156 0 4 4.34156 1
gene 3 5 16 -1.6066 0 5 -1.6066 1
gene 1 6 12 -0.529878 0 2 -0.529878 1
gene 3 7 12 -6.75176 0 3 -6.75176 1
gene 2 8 12 2.13903 0 4 2.13903 1
gene 2 9 12 2.84963 0 5 2.84963 1
gene 3 10 12 6.3525 0 6 6.3525 1
gene 2 11 12 3.20779 0 7 3.20779 1
gene 1 1 13 5.04646 0 5 5.04646 1
gene 1 2 14 1.57441 0 6 1.57441 1
gene 3 3 15 1.74753 0 7 1.74753 1
gene 3 7 17 1.86238 0 10 1.86238 1
gene 3 17 12 0.339366 0 11 0.339366 1
genomeend 82

/* Organism #77 Fitness: 0 Error: 0 */
genomestart 77
trait 1 0.05 0 0 0.950957 0.20913 0 0 0.000359546 
trait 2 0.13125 0.00965237 0.000704072 0.0354663 0.0815258 0.00213975 0.15371 0.0659175 
trait 3 0.288544 0 0.0299596 0.110561 0 0 0 0.16146 
node 1 2 1 1
node 2 2 1 1
node 3 3 1 1
node 4 3 1 1
node 5 2 1 1
node 6 3 1 1
node 7 1 1 1
node 8 3 1 1
node 9 3 1 1
node 10 2 1 1
node 11 1 1 3
node 12 2 0 2
node 13 3 0 2
node 14 1 0 2
node 15 2 0 2
node 16 1 0 2
node 17 1 0 0
gene 1 1 12 2.34787 0 1 2.34787 1
gene 2 2 13 4.7504 0 2 4.7504 1
gene 2 3 14 -0.440535 0 3 -0.440535 1
gene 2 4 15 5.68704 0 4 5.68704 1
gene 3 5 16 3.16123 0 5 3.16123 1
gene 1 6 12 2.23251 0 2 2.23251 1
gene 3 7 12 0.806833 0 3 0.806833 1
gene 2 8 12 -1.78939 0 4 -1.78939 1
gene 2 9 12 3.73241 0 5 3.73241 1
gene 3 10 12 5.14698 0 6 5.14698 1
gene 2 11 12 0.671163 0 7 0.671163 1
gene 1 1 13 1.2949 0 5 1.2949 1
gene 1 2 14 1.82081 0 6 1.82081 1
gene 3 3 15 0.320826 0 7 0.320826 1
gene 3 7 17 -1.26324 0 10 -1.26324 1
gene 3 17 12 -0.686514 0 11 -0.686514 1
genomeend 77

/* Organism #75 Fitness: 0 Error: 0 */
genomestart 75
trait 1 0 0 0 0.950957 0 0 0 0.000359546 
trait 2 0.13125 0.00965237 0.488268 0.0354663 0.0815258 0 0.15371 0.0659175 
trait 3 0.288544 0 0.0299596 0.110561 0 0 0 0.16146 
node 1 2 1 1
node 2 2 1 1
node 3 3 1 1
node 4 3 1 1
node 5 2 1 1
node 6 3 1 1
node 7 1 1 1
node 8 3 1 1
node 9 3 1 1
node 10 2 1 1
node 11 1 1 3
node 12 2 0 2
node 13 3 0 2
node 14 1 0 2
node 15 2 0 2
node 16 1 0 2
node 17 1 0 0
gene 1 1 12 2.1334 0 1 2.1334 1
gene 2 2 13 -0.263871 0 2 -0.263871 1
gene 2 3 14 -0.611896 0 3 -0.611896 1
gene 1 4 15 3.75179 0 4 3.75179 1
gene 3 5 16 0.917203 0 5 0.917203 1
gene 1 6 12 -0.505463 0 2 -0.505463 1
gene 3 7 12 -2.95656 0 3 -2.95656 1
gene 2 8 12 -2.73196 0 4 -2.73196 1
gene 2 9 12 2.94588 0 5 2.94588 1
gene 3 10 12 4.95777 0 6 4.95777 1
gene 2 11 12 -1.15743 0 7 -1.15743 1
gene 1 1 13 1.24142 0 5 1.24142 1
gene 1 2 14 0.34814 0 6 0.34814 1
gene 3 3 15 -0.0176244 0 7 -0.0176244 1
gene 3 7 17 2.46826 0 10 2.46826 1
gene 3 17 12 1.43826 0 11 1.43826 1
genomeend 75

/* Organism #73 Fitness: 0 Error: 0 */
genomestart 73
trait 1 0.1 0.0968963 0.706442 0.950957 1 0 0.505936 0.000359546 
trait 2 0.13125 0.00965237 0.000704072 0.0354663 0.0815258 0.00213975 0.15371 0.0659175 
trait 3 0.288544 0 0.0299596 0.110561 0 0 0 0.16146 
node 1 2 1 1
node 2 2 1 1
node 3 3 1 1
node 4 3 1 1
node 5 2 1 1
node 6 3 1 1
node 7 1 1 1
node 8 3 1 1
node 9 3 1 1
node 10 2 1 1
node 11 1 1 3
node 12 2 0 2
node 13 3 0 2
node 14 1 0 2
node 15 2 0 2
node 16 1 0 2
node 17 1 0 0
gene 1 1 12 2.42733 0 1 2.42733 1
gene 2 2 13 -0.627537 0 2 -0.627537 1
gene 2 3 14 0.540483 0 3 0.540483 1
gene 3 4 15 4.17904 0 4 4.17904 1
gene 3 5 16 3.38607 0 5 3.38607 1
gene 1 6 12 -0.705664 0 2 -0.705664 1
gene 3 7 12 0.508362 0 3 0.508362 1
gene 2 8 12 -1.7918 0 4 -1.7918 1
gene 2 9 12 -1.82791 0 5 -1.82791 1
gene 3 10 12 4.01185 0 6 4.01185 1
gene 2 11 12 0.999123 0 7 0.999123 1
gene 1 1 13 -0.893658 0 5 -0.893658 1
gene 1 2 14 4.15315 0 6 4.15315 1
gene 3 3 15 4.51674 0 7 4.51674 1
gene 3 7 17 3.95373 0 10 3.95373 1
gene 3 17 12 2.74232 0 11 2.74232 1
genomeend 73

/* Organism #92 Fitness: 5893 Error: 0 */
genomestart 92
trait 1 0.1 0.0968963 0.706442 0.950957 1 0 0.505936 0.000359546 
trait 2 0.13125 0.00965237 0.000704072 0.0354663 0.0815258 0.00213975 0.15371 0.0659175 
trait 3 0.288544 0 0.0299596 0.110561 0 0 0 0.16146 
node 1 2 1 1
node 2 2 1 1
node 3 3 1 1
node 4 3 1 1
node 5 2 1 1
node 6 3 1 1
node 7 1 1 1
node 8 3 1 1
node 9 3 1 1
node 10 2 1 1
node 11 1 1 3
node 12 2 0 2
node 13 3 0 2
node 14 1 0 2
node 15 2 0 2
node 16 1 0 2
node 17 1 0 0
gene 1 1 12 -0.774178 0 1 -0.774178 1
gene 2 2 13 4.5365 0 2 4.5365 1
gene 2 3 14 -2.88873 0 3 -2.88873 1
gene 3 4 15 4.21323 0 4 4.21323 1
gene 3 5 16 4.0529 0 5 4.0529 1
gene 1 6 12 0.394223 0 2 0.394223 1
gene 3 7 12 0.0299844 0 3 0.0299844 1
gene 2 8 12 -1.41863 0 4 -1.41863 1
gene 2 9 12 -0.404294 0 5 -0.404294 1
gene 3 10 12 2.93279 0 6 2.93279 1
gene 2 11 12 -1.03257 0 7 -1.03257 1
gene 1 1 13 -1.22333 0 5 -1.22333 1
gene 1 2 14 1.73318 0 6 1.73318 1
gene 3 3 15 3.3076 0 7 3.3076 1
gene 2 7 17 4.21886 0 10 4.21886 1
gene 3 17 12 4.91623 0 11 4.91623 1
genomeend 92

/* Species #5 : (Size 1) (AF 0) (Age 1)  */


/* Organism #72 Fitness: 6136 Error: 0 */
genomestart 72
trait 1 0.1 0 0 0.950957 0.418259 0 0 0.000359546 
trait 2 0.13125 0.00965237 0.000704072 0.0354663 0.0815258 0.00213975 0.15371 0.0659175 
trait 3 0.288544 0 0.0299596 0.110561 0 0 0 0.16146 
node 1 2 1 1
node 2 2 1 1
node 3 3 1 1
node 4 3 1 1
node 5 2 1 1
node 6 3 1 1
node 7 1 1 1
node 8 3 1 1
node 9 3 1 1
node 10 2 1 1
node 11 1 1 3
node 12 2 0 2
node 13 3 0 2
node 14 1 0 2
node 15 2 0 2
node 16 1 0 2
node 17 1 0 0
node 19 1 0 0
gene 1 1 12 1.56598 0 1 1.56598 1
gene 2 2 13 1.27724 0 2 1.27724 0
gene 2 3 14 2.30903 0 3 2.30903 1
gene 1 4 15 6.35387 0 4 6.35387 1
gene 3 5 16 -0.950606 0 5 -0.950606 1
gene 1 6 12 -0.388806 0 2 -0.388806 1
gene 3 7 12 -5.2559 0 3 -5.2559 1
gene 2 8 12 -1.52884 0 4 -1.52884 1
gene 2 9 12 2.43751 0 5 2.43751 1
gene 3 10 12 5.66107 0 6 5.66107 1
gene 2 11 12 2.77892 0 7 2.77892 1
gene 1 1 13 3.05559 0 5 3.05559 1
gene 1 2 14 2.63421 0 6 2.63421 1
gene 3 3 15 3.61438 0 7 3.61438 1
gene 3 7 17 3.9059 0 10 3.9059 1
gene 3 17 12 -0.759529 0 11 -0.759529 1
gene 2 2 19 1 0 14 0 1
gene 2 19 13 1.27724 0 15 0 1
genomeend 72
