
/* Species #2 : (Size 30) (AF 0) (Age 1)  */


/* Organism #1293 Fitness: 1.73358e+07 Error: 0 */
genomestart 1293
trait 1 0.1 0 0.0243338 0.0525411 0.152307 0.233389 0.128162 0.000308348 
trait 2 0.118433 0.132428 0.00835244 0.0354663 0.227404 0.00213975 0.181868 0.0704269 
trait 3 0.35645 0.0388424 0.0457376 0.42098 0.18379 0 0 0.182342 
node 1 1 1 1
node 2 1 1 1
node 3 2 1 1
node 4 3 1 1
node 5 3 1 1
node 6 3 1 1
node 7 1 1 1
node 8 3 1 1
node 9 2 1 1
node 10 2 1 1
node 11 3 1 3
node 12 2 0 2
node 13 1 0 2
node 14 1 0 2
node 15 3 0 2
node 16 1 0 2
node 20 1 0 0
gene 3 1 12 5.07587 0 1 5.07587 1
gene 1 2 13 -0.714811 0 2 -0.714811 1
gene 1 3 14 -1.45449 0 3 -1.45449 0
gene 3 4 15 3.19315 0 4 3.19315 1
gene 1 5 16 -3.65171 0 5 -3.65171 1
gene 3 6 12 0.0819105 0 2 0.0819105 1
gene 2 7 12 0.040825 0 3 0.040825 1
gene 2 8 12 0.0152588 0 4 0.0152588 1
gene 1 9 12 1.1451 0 5 1.1451 1
gene 2 10 12 4.90862 0 6 4.90862 1
gene 2 11 12 6.43738 0 7 6.43738 1
gene 3 1 13 5.90347 0 5 5.90347 1
gene 1 2 14 0.214952 0 6 0.214952 1
gene 1 3 15 -7.03144 0 7 -7.03144 1
gene 2 8 13 5.55445 0 12 5.55445 1
gene 1 3 20 -1.18572 0 18 -1.18572 1
gene 1 20 14 1.22717 0 19 1.22717 1
genomeend 1293

/* Organism #163 Fitness: 1.7314e+07 Error: 0 */
genomestart 163
trait 1 0.1 0 0.0270375 0.0524282 0.158072 0.250729 0.140785 0.000306132 
trait 2 0.11792 0.132428 0.00877753 0.0354663 0.227404 0.00213975 0.182995 0.0705879 
trait 3 0.35645 0.0388424 0.0474917 0.42098 0.185571 0 0 0.182342 
node 1 1 1 1
node 2 1 1 1
node 3 2 1 1
node 4 3 1 1
node 5 3 1 1
node 6 3 1 1
node 7 1 1 1
node 8 3 1 1
node 9 2 1 1
node 10 2 1 1
node 11 3 1 3
node 12 2 0 2
node 13 1 0 2
node 14 1 0 2
node 15 3 0 2
node 16 1 0 2
node 20 1 0 0
gene 3 1 12 6.39022 0 1 6.39022 1
gene 1 2 13 1.97556 0 2 1.97556 1
gene 1 3 14 3.0473 0 3 3.0473 0
gene 3 4 15 3.81443 0 4 3.81443 1
gene 1 5 16 -1.02086 0 5 -1.02086 1
gene 3 6 12 8 0 2 8 1
gene 2 7 12 -1.49758 0 3 -1.49758 1
gene 2 8 12 0.999328 0 4 0.999328 1
gene 1 9 12 3.64197 0 5 3.64197 1
gene 2 10 12 1.86471 0 6 1.86471 1
gene 2 11 12 8 0 7 8 1
gene 3 1 13 6.35133 0 5 6.35133 1
gene 1 2 14 -0.0711893 0 6 -0.0711893 1
gene 1 3 15 -8 0 7 -8 1
gene 2 8 13 6.46482 0 12 6.46482 1
gene 1 3 20 -1.18572 0 18 -1.18572 1
gene 1 20 14 -0.152138 0 19 -0.152138 1
genomeend 163

/* Organism #104 Fitness: 1.72888e+07 Error: 0 */
genomestart 104
trait 1 0.1 0 0.0270375 0.0524282 0.158072 0.250729 0.140785 0.000306132 
trait 2 0.11792 0.132428 0.00877753 0.0354663 0.227404 0.00213975 0.182995 0.0705879 
trait 3 0.35645 0.0388424 0.0474917 0.42098 0.185571 0 0 0.182342 
node 1 1 1 1
node 2 1 1 1
node 3 2 1 1
node 4 3 1 1
node 5 3 1 1
node 6 3 1 1
node 7 1 1 1
node 8 3 1 1
node 9 2 1 1
node 10 2 1 1
node 11 3 1 3
node 12 2 0 2
node 13 1 0 2
node 14 1 0 2
node 15 3 0 2
node 16 1 0 2
node 20 1 0 0
gene 3 1 12 6.1582 0 1 6.1582 1
gene 1 2 13 1.00751 0 2 1.00751 1
gene 1 3 14 -2.77418 0 3 -2.77418 0
gene 3 4 15 4.36792 0 4 4.36792 1
gene 1 5 16 1.81791 0 5 1.81791 1
gene 3 6 12 -0.466812 0 2 -0.466812 1
gene 2 7 12 -2.45609 0 3 -2.45609 1
gene 2 8 12 7.77672 0 4 7.77672 1
gene 1 9 12 3.26926 0 5 3.26926 1
gene 2 10 12 -0.183994 0 6 -0.183994 1
gene 2 11 12 1.38199 0 7 1.38199 1
gene 3 1 13 2.34344 0 5 2.34344 1
gene 1 2 14 0.412059 0 6 0.412059 1
gene 1 3 15 -8 0 7 -8 1
gene 2 8 13 5.94486 0 12 5.94486 1
gene 1 3 20 -2.9149 0 18 -2.9149 1
gene 1 20 14 -0.808667 0 19 -0.808667 1
genomeend 104

/* Organism #1842 Fitness: 1.72251e+07 Error: 0 */
genomestart 1842
trait 1 0.1 0 0.0270375 0.0524282 0.158072 0.250729 0.140785 0.000306132 
trait 2 0.11792 0.132428 0.00877753 0.0354663 0.227404 0.00213975 0.182995 0.0705879 
trait 3 0.35645 0.0388424 0.0474917 0.42098 0.185571 0 0 0.182342 
node 1 1 1 1
node 2 1 1 1
node 3 2 1 1
node 4 3 1 1
node 5 3 1 1
node 6 3 1 1
node 7 1 1 1
node 8 3 1 1
node 9 2 1 1
node 10 2 1 1
node 11 3 1 3
node 12 2 0 2
node 13 1 0 2
node 14 1 0 2
node 15 3 0 2
node 16 1 0 2
node 20 1 0 0
gene 3 1 12 6.1582 0 1 6.1582 1
gene 1 2 13 1.00751 0 2 1.00751 1
gene 1 3 14 -2.77418 0 3 -2.77418 0
gene 3 4 15 3.81443 0 4 3.81443 1
gene 1 5 16 1.81791 0 5 1.81791 1
gene 3 6 12 8 0 2 8 1
gene 2 7 12 -2.45609 0 3 -2.45609 1
gene 2 8 12 7.77672 0 4 7.77672 1
gene 1 9 12 3.64197 0 5 3.64197 1
gene 2 10 12 1.86471 0 6 1.86471 1
gene 3 11 12 1.38199 0 7 1.38199 1
gene 3 1 13 2.34344 0 5 2.34344 1
gene 1 2 14 0.412059 0 6 0.412059 1
gene 1 3 15 -8 0 7 -8 1
gene 2 8 13 6.46482 0 12 6.46482 1
gene 1 3 20 -2.9149 0 18 -2.9149 1
gene 1 20 14 -0.152138 0 19 -0.152138 1
genomeend 1842

/* Organism #2187 Fitness: 1.70164e+07 Error: 0 */
genomestart 2187
trait 1 0.1 0 0.032445 0.0522026 0.169602 0.285409 0.166031 0.000301699 
trait 2 0.116894 0.255204 0.00962769 0 1 0.00213975 0.185247 0.487152 
trait 3 0.35645 0.0388424 0.0510001 0.42098 0.189132 0 0 0.182342 
node 1 1 1 1
node 2 1 1 1
node 3 2 1 1
node 4 3 1 1
node 5 3 1 1
node 6 3 1 1
node 7 1 1 1
node 8 3 1 1
node 9 2 1 1
node 10 1 1 1
node 11 3 1 3
node 12 2 0 2
node 13 1 0 2
node 14 1 0 2
node 15 3 0 2
node 16 1 0 2
node 20 1 0 0
node 39 1 0 0
gene 3 1 12 3.37636 0 1 3.37636 1
gene 1 2 13 -0.338069 0 2 -0.338069 1
gene 1 3 14 0.448496 0 3 0.448496 0
gene 3 4 15 4.3466 0 4 4.3466 1
gene 1 5 16 -1.17725 0 5 -1.17725 0
gene 3 6 12 3.07646 0 2 3.07646 1
gene 2 7 12 -1.46306 0 3 -1.46306 1
gene 2 8 12 -1.66906 0 4 -1.66906 1
gene 1 9 12 -0.228238 0 5 -0.228238 1
gene 2 10 12 2.81254 0 6 2.81254 1
gene 2 11 12 2.88601 0 7 2.88601 1
gene 3 1 13 6.86807 0 5 6.86807 1
gene 1 2 14 1.29551 0 6 1.29551 1
gene 1 3 15 -8 0 7 -8 1
gene 2 8 13 6.02474 0 12 6.02474 1
gene 1 3 20 2.45041 0 18 2.45041 1
gene 1 20 14 -0.152138 0 19 -0.152138 1
gene 1 5 39 3.01788 0 171 3.01788 1
gene 1 39 16 -4.543 0 172 -4.543 1
genomeend 2187

/* Organism #648 Fitness: 1.68792e+07 Error: 0 */
genomestart 648
trait 1 0.1 0 0.0270375 0.0524282 0.158072 0.250729 0.140785 0.000306132 
trait 2 0.11792 0.132428 0.00877753 0.0354663 0.227404 0.00213975 0.182995 0.0705879 
trait 3 0.35645 0.0388424 0.0474917 0.42098 0.185571 0 0 0.182342 
node 1 1 1 1
node 2 1 1 1
node 3 2 1 1
node 4 3 1 1
node 5 3 1 1
node 6 3 1 1
node 7 1 1 1
node 8 3 1 1
node 9 2 1 1
node 10 2 1 1
node 11 3 1 3
node 12 2 0 2
node 13 1 0 2
node 14 1 0 2
node 15 3 0 2
node 16 1 0 2
node 20 1 0 0
gene 3 1 12 6.1582 0 1 6.1582 1
gene 1 2 13 1.00751 0 2 1.00751 1
gene 1 3 14 -2.77418 0 3 -2.77418 0
gene 3 4 15 3.81443 0 4 3.81443 1
gene 1 5 16 1.81791 0 5 1.81791 1
gene 3 6 12 8 0 2 8 1
gene 2 7 12 -2.45609 0 3 -2.45609 1
gene 2 8 12 7.77672 0 4 7.77672 1
gene 1 9 12 3.64197 0 5 3.64197 1
gene 2 10 12 1.86471 0 6 1.86471 1
gene 2 11 12 1.38199 0 7 1.38199 1
gene 3 1 13 2.34344 0 5 2.34344 1
gene 1 2 14 0.412059 0 6 0.412059 1
gene 1 3 15 -8 0 7 -8 1
gene 2 8 13 6.46482 0 12 6.46482 1
gene 1 3 20 -2.9149 0 18 -2.9149 1
gene 1 20 14 -0.152138 0 19 -0.152138 1
genomeend 648

/* Organism #2277 Fitness: 1.66802e+07 Error: 0 */
genomestart 2277
trait 1 0.1 0 0.0256856 0.0524847 0.15519 0.242059 0.134474 0.00030724 
trait 2 0.50718 0.156324 0.00417622 0.42447 0.227404 0.00106988 0.182431 0.53387 
trait 3 0.35645 0.0388424 0.0466147 0.42098 0.18468 0 0 0.182342 
node 1 1 1 1
node 2 1 1 1
node 3 2 1 1
node 4 3 1 1
node 5 3 1 1
node 6 3 1 1
node 7 1 1 1
node 8 3 1 1
node 9 2 1 1
node 10 2 1 1
node 11 3 1 3
node 12 2 0 2
node 13 1 0 2
node 14 1 0 2
node 15 3 0 2
node 16 1 0 2
node 20 1 0 0
gene 3 1 12 3.01132 0 1 3.01132 1
gene 1 2 13 -0.252678 0 2 -0.252678 1
gene 1 3 14 -1.4133 0 3 -1.4133 0
gene 3 4 15 2.7583 0 4 2.7583 1
gene 1 5 16 -0.906638 0 5 -0.906638 1
gene 3 6 12 4.04096 0 2 4.04096 1
gene 2 7 12 -0.968005 0 3 -0.968005 1
gene 2 8 12 2.48508 0 4 2.48508 1
gene 1 9 12 0.274115 0 5 0.274115 1
gene 2 10 12 4.32641 0 6 4.32641 1
gene 2 11 12 4.98559 0 7 4.98559 1
gene 3 1 13 5.35664 0 5 5.35664 1
gene 1 2 14 -0.31902 0 6 -0.31902 1
gene 1 3 15 -6.79312 0 7 -6.79312 1
gene 2 8 13 4.80026 0 12 4.80026 1
gene 1 3 20 -1.75081 0 18 -1.75081 1
gene 1 20 14 0.245265 0 19 0.245265 1
genomeend 2277

/* Organism #2719 Fitness: 1.63347e+07 Error: 0 */
genomestart 2719
trait 1 0.1 0 0.0256856 0.0524847 0.15519 0.242059 0.134474 0.00030724 
trait 2 0.118176 0.132428 0.00856498 0.0354663 0.227404 0.00213975 0.182431 0.0705074 
trait 3 0.35645 0.0388424 0.0466147 0.42098 0.18468 0 0 0.182342 
node 1 1 1 1
node 2 1 1 1
node 3 2 1 1
node 4 3 1 1
node 5 3 1 1
node 6 3 1 1
node 7 1 1 1
node 8 3 1 1
node 9 2 1 1
node 10 2 1 1
node 11 3 1 3
node 12 2 0 2
node 13 1 0 2
node 14 1 0 2
node 15 3 0 2
node 16 1 0 2
node 20 1 0 0
gene 3 1 12 6.1582 0 1 6.1582 1
gene 1 2 13 -0.714811 0 2 -0.714811 1
gene 1 3 14 -1.45449 0 3 -1.45449 0
gene 3 4 15 4.36792 0 4 4.36792 1
gene 1 5 16 1.81791 0 5 1.81791 1
gene 3 6 12 0.0819105 0 2 0.0819105 1
gene 2 7 12 -2.45609 0 3 -2.45609 1
gene 2 8 12 7.77672 0 4 7.77672 1
gene 1 9 12 3.26926 0 5 3.26926 1
gene 2 10 12 -0.183994 0 6 -0.183994 1
gene 2 11 12 6.43738 0 7 6.43738 1
gene 3 1 13 2.34344 0 5 2.34344 1
gene 1 2 14 0.412059 0 6 0.412059 1
gene 1 3 15 -8 0 7 -8 1
gene 2 8 13 5.94486 0 12 5.94486 1
gene 1 3 20 -2.9149 0 18 -2.9149 1
gene 1 20 14 1.22717 0 19 1.22717 1
gene 1 16 12 0.298715 0 205 0 1
genomeend 2719

/* Organism #3517 Fitness: 1.54019e+07 Error: 0 */
genomestart 3517
trait 1 0.1 0 0.0256856 0.0524847 0.15519 0.242059 0.134474 0.00030724 
trait 2 0.118176 0.132428 0.00856498 0.0354663 0.227404 0.00213975 0.182431 0.0705074 
trait 3 0.35645 0.0388424 0.0466147 0.42098 0.18468 0 0 0.182342 
node 1 1 1 1
node 2 1 1 1
node 3 2 1 1
node 4 3 1 1
node 5 3 1 1
node 6 3 1 1
node 7 1 1 1
node 8 3 1 1
node 9 2 1 1
node 10 2 1 1
node 11 3 1 3
node 12 2 0 2
node 13 1 0 2
node 14 1 0 2
node 15 3 0 2
node 16 1 0 2
node 20 1 0 0
gene 3 1 12 5.07587 0 1 5.07587 1
gene 1 2 13 -0.714811 0 2 -0.714811 1
gene 1 3 14 -2.77418 0 3 -2.77418 0
gene 3 4 15 3.19315 0 4 3.19315 1
gene 1 5 16 -3.65171 0 5 -3.65171 1
gene 3 6 12 0.0819105 0 2 0.0819105 1
gene 2 7 12 -2.45609 0 3 -2.45609 1
gene 2 8 12 0.0152588 0 4 0.0152588 1
gene 1 9 12 1.1451 0 5 1.1451 1
gene 2 10 12 4.90862 0 6 4.90862 1
gene 2 11 12 6.43738 0 7 6.43738 1
gene 3 1 13 2.34344 0 5 2.34344 1
gene 1 2 14 0.214952 0 6 0.214952 1
gene 1 3 15 -7.03144 0 7 -7.03144 1
gene 2 8 13 5.94486 0 12 5.94486 1
gene 1 3 20 -1.18572 0 18 -1.18572 1
gene 1 20 14 1.22717 0 19 1.22717 1
genomeend 3517

/* Organism #4815 Fitness: 1.39286e+07 Error: 0 */
genomestart 4815
trait 1 0.1 0 0.0297413 0.0523154 0.163837 0.268069 0.153408 0.000303915 
trait 2 0.117407 0.132428 0.00920261 0.0354663 0.227404 0.00213975 0.184121 0.070749 
trait 3 0.35645 0.0388424 0.0492459 0.42098 0.187351 0 0 0.182342 
node 1 1 1 1
node 2 1 1 1
node 3 2 1 1
node 4 3 1 1
node 5 3 1 1
node 6 3 1 1
node 7 1 1 1
node 8 3 1 1
node 9 2 1 1
node 10 2 1 1
node 11 3 1 3
node 12 2 0 2
node 13 1 0 2
node 14 1 0 2
node 15 3 0 2
node 16 1 0 2
node 20 1 0 0
gene 3 1 12 4.68923 0 1 4.68923 1
gene 1 2 13 2.39753 0 2 2.39753 0
gene 1 3 14 -2.25677 0 3 -2.25677 0
gene 3 4 15 4.38575 0 4 4.38575 1
gene 1 5 16 -1.6213 0 5 -1.6213 1
gene 3 6 12 2.67488 0 2 2.67488 1
gene 2 7 12 0.21279 0 3 0.21279 1
gene 2 8 12 1.99828 0 4 1.99828 1
gene 1 9 12 1.24111 0 5 1.24111 1
gene 2 10 12 1.86471 0 6 1.86471 1
gene 2 11 12 7.20269 0 7 7.20269 1
gene 3 1 13 0.284433 0 5 0.284433 1
gene 1 2 14 -2.11089 0 6 -2.11089 1
gene 1 3 15 -6.34557 0 7 -6.34557 1
gene 2 8 13 1.97867 0 12 1.97867 1
gene 1 3 20 -0.154881 0 18 -0.154881 1
gene 1 20 14 0.204016 0 19 0.204016 1
gene 2 11 13 2.15392 0 161 2.15392 1
genomeend 4815

/* Organism #7605 Fitness: 1.1151e+07 Error: 0 */
genomestart 7605
trait 1 0.1 0 0.0297413 0.0523154 0.163837 0.268069 0.153408 0.000303915 
trait 2 0.117407 0.132428 0.00920261 0.0354663 0.227404 0.00213975 0.184121 0.070749 
trait 3 0.35645 0.0388424 0.0492459 0.42098 0.187351 0 0 0.182342 
node 1 1 1 1
node 2 1 1 1
node 3 2 1 1
node 4 3 1 1
node 5 3 1 1
node 6 3 1 1
node 7 1 1 1
node 8 3 1 1
node 9 2 1 1
node 10 2 1 1
node 11 3 1 3
node 12 2 0 2
node 13 1 0 2
node 14 1 0 2
node 15 3 0 2
node 16 1 0 2
node 20 1 0 0
gene 3 1 12 4.87043 0 1 4.87043 1
gene 1 2 13 0.620653 0 2 0.620653 0
gene 1 3 14 -0.0167926 0 3 -0.0167926 0
gene 3 4 15 3.12564 0 4 3.12564 1
gene 1 5 16 -2.65479 0 5 -2.65479 1
gene 3 6 12 0.321443 0 2 0.321443 1
gene 2 7 12 -3.19594 0 3 -3.19594 1
gene 2 8 12 0.999328 0 4 0.999328 1
gene 1 9 12 1.42407 0 5 1.42407 1
gene 2 10 12 1.86471 0 6 1.86471 1
gene 2 11 12 6.79191 0 7 6.79191 1
gene 3 1 13 6.95174 0 5 6.95174 1
gene 1 2 14 -0.0711893 0 6 -0.0711893 1
gene 1 3 15 -6.05694 0 7 -6.05694 1
gene 2 8 13 6.46482 0 12 6.46482 1
gene 1 3 20 -1.39885 0 18 -1.39885 1
gene 1 20 14 0.38865 0 19 0.38865 1
gene 2 11 13 0.60036 0 161 0.60036 1
gene 3 12 13 0.649373 0 258 0 1
genomeend 7605

/* Organism #1820 Fitness: 9.60042e+06 Error: 0 */
genomestart 1820
trait 1 0.1 0 0.0270375 0.0524282 0.158072 0.250729 0.140785 0.000306132 
trait 2 0.895928 0.18022 0 0.813475 0.227404 0 0.182995 0.997313 
trait 3 0.35645 0.0388424 0.0474917 0.42098 0.185571 0 0 0.182342 
node 1 1 1 1
node 2 1 1 1
node 3 2 1 1
node 4 3 1 1
node 5 3 1 1
node 6 3 1 1
node 7 1 1 1
node 8 3 1 1
node 9 2 1 1
node 10 2 1 1
node 11 3 1 3
node 12 2 0 2
node 13 1 0 2
node 14 1 0 2
node 15 3 0 2
node 16 1 0 2
node 20 1 0 0
gene 3 1 12 0.94676 0 1 0.94676 1
gene 1 2 13 0.209454 0 2 0.209454 1
gene 1 3 14 -1.37212 0 3 -1.37212 0
gene 3 4 15 2.32345 0 4 2.32345 1
gene 1 5 16 1.83844 0 5 1.83844 1
gene 3 6 12 8 0 2 8 1
gene 2 7 12 -1.97684 0 3 -1.97684 1
gene 2 8 12 4.95491 0 4 4.95491 1
gene 1 9 12 -0.596866 0 5 -0.596866 1
gene 2 10 12 3.7442 0 6 3.7442 1
gene 2 11 12 3.53381 0 7 3.53381 1
gene 3 1 13 4.80982 0 5 4.80982 1
gene 1 2 14 -0.852992 0 6 -0.852992 1
gene 1 3 15 -6.5548 0 7 -6.5548 1
gene 2 8 13 4.04607 0 12 4.04607 1
gene 1 3 20 -2.3159 0 18 -2.3159 1
gene 1 20 14 -0.736644 0 19 -0.736644 1
genomeend 1820

/* Organism #6320 Fitness: 1.00089e+06 Error: 0 */
genomestart 6320
trait 1 0.1 0 0.0297413 0.0523154 0.163837 0.268069 0.153408 0.000303915 
trait 2 0 0.132428 0 0.0354663 0.227404 0.00213975 0 0.753692 
trait 3 0.35645 0.0388424 0.0492459 0.42098 0.187351 0 0 0.182342 
node 1 1 1 1
node 2 1 1 1
node 3 2 1 1
node 4 3 1 1
node 5 3 1 1
node 6 3 1 1
node 7 1 1 1
node 8 3 1 1
node 9 2 1 1
node 10 2 1 1
node 11 3 1 3
node 12 2 0 2
node 13 1 0 2
node 14 1 0 2
node 15 3 0 2
node 16 1 0 2
node 20 1 0 0
gene 3 1 12 4.87043 0 1 4.87043 1
gene 1 2 13 -0.0743295 0 2 -0.0743295 0
gene 1 3 14 -1.09478 0 3 -1.09478 0
gene 3 4 15 4.42215 0 4 4.42215 1
gene 1 5 16 -3.54989 0 5 -3.54989 1
gene 3 6 12 0.900143 0 2 0.900143 1
gene 2 7 12 -2.25635 0 3 -2.25635 1
gene 2 8 12 -1.13338 0 4 -1.13338 1
gene 1 9 12 0.173424 0 5 0.173424 1
gene 2 10 12 1.03575 0 6 1.03575 1
gene 2 11 12 0.496384 0 7 0.496384 1
gene 3 1 13 6.95174 0 5 6.95174 1
gene 1 2 14 -0.0711893 0 6 -0.0711893 1
gene 1 3 15 -5.18472 0 7 -5.18472 1
gene 2 8 13 6.84981 0 12 6.84981 1
gene 1 3 20 0.904111 0 18 0.904111 1
gene 1 20 14 2.56531 0 19 2.56531 1
gene 2 11 13 -1.62482 0 161 -1.62482 1
genomeend 6320

/* Organism #1283 Fitness: 20056 Error: 0 */
genomestart 1283
trait 1 0.1 0 0.0243338 0.0525411 0.152307 0.233389 0.128162 0.000308348 
trait 2 0.118433 0.0710404 0.00835244 0.0354663 0.154465 0.00213975 0.181868 0.0704269 
trait 3 0.35645 0.0388424 0.0457376 0.42098 0.18379 0 0 0.182342 
node 1 1 1 1
node 2 1 1 1
node 3 2 1 1
node 4 3 1 1
node 5 3 1 1
node 6 3 1 1
node 7 1 1 1
node 8 3 1 1
node 9 2 1 1
node 10 2 1 1
node 11 3 1 3
node 12 2 0 2
node 13 1 0 2
node 14 1 0 2
node 15 3 0 2
node 16 1 0 2
node 20 1 0 0
gene 3 1 12 6.14229 0 1 6.14229 1
gene 1 2 13 2.13727 0 2 2.13727 0
gene 1 3 14 -0.1011 0 3 -0.1011 0
gene 3 4 15 2.51214 0 4 2.51214 1
gene 1 5 16 -0.336828 0 5 -0.336828 1
gene 3 6 12 0.169155 0 2 0.169155 1
gene 2 7 12 0.967291 0 3 0.967291 1
gene 2 8 12 3.78332 0 4 3.78332 1
gene 1 9 12 -0.922724 0 5 -0.922724 1
gene 2 10 12 4.75165 0 6 4.75165 1
gene 2 11 12 4.5021 0 7 4.5021 1
gene 3 1 13 4.85199 0 5 4.85199 1
gene 1 2 14 0.808613 0 6 0.808613 1
gene 1 3 15 -4.07873 0 7 -4.07873 1
gene 2 8 13 7.85158 0 12 7.85158 1
gene 1 3 20 -0.439886 0 18 -0.439886 1
gene 1 20 14 2.9929 0 19 2.9929 1
genomeend 1283

/* Organism #2430 Fitness: 9608 Error: 0 */
genomestart 2430
trait 1 0.1 0 0.032445 0.0522026 0.169602 0.285409 0.166031 0.000301699 
trait 2 0.116894 0.255204 0.00962769 0 1 0.00213975 0.185247 0.487152 
trait 3 0.35645 0.0388424 0.0510001 0.42098 0.189132 0 0 0.182342 
node 1 1 1 1
node 2 1 1 1
node 3 2 1 1
node 4 3 1 1
node 5 3 1 1
node 6 3 1 1
node 7 1 1 1
node 8 3 1 1
node 9 2 1 1
node 10 2 1 1
node 11 3 1 3
node 12 2 0 2
node 13 1 0 2
node 14 1 0 2
node 15 3 0 2
node 16 1 0 2
node 20 1 0 0
node 39 1 0 0
gene 3 1 12 4.55361 0 1 4.55361 1
gene 1 2 13 -1.99474 0 2 -1.99474 1
gene 1 3 14 -0.99068 0 3 -0.99068 1
gene 3 4 15 4.14701 0 4 4.14701 1
gene 1 5 16 -6.10181 0 5 -6.10181 0
gene 3 6 12 -0.115621 0 2 -0.115621 1
gene 2 7 12 -4.72407 0 3 -4.72407 1
gene 2 8 12 -0.0210582 0 4 -0.0210582 1
gene 1 9 12 -0.092125 0 5 -0.092125 1
gene 2 10 12 4.38486 0 6 4.38486 1
gene 2 11 12 4.76672 0 7 4.76672 1
gene 3 1 13 8 0 5 8 1
gene 1 2 14 1.67256 0 6 1.67256 1
gene 1 3 15 -6.69716 0 7 -6.69716 1
gene 2 8 13 6.03252 0 12 6.03252 1
gene 1 3 20 -0.0800344 0 18 -0.0800344 1
gene 1 20 14 -0.152138 0 19 -0.152138 1
gene 1 5 39 2.39622 0 171 2.39622 1
gene 1 39 16 -3.21308 0 172 -3.21308 1
genomeend 2430

/* Organism #12098 Fitness: 8532 Error: 0 */
genomestart 12098
trait 1 0.1 0 0.0297413 0.0523154 0.163837 0.268069 0.153408 0.000303915 
trait 2 0.117407 0.132428 0.00920261 0.0354663 0.227404 0.00213975 0.184121 0.070749 
trait 3 0.35645 0.0388424 0.0492459 0.42098 0.187351 0 0 0.182342 
node 1 1 1 1
node 2 1 1 1
node 3 2 1 1
node 4 3 1 1
node 5 3 1 1
node 6 3 1 1
node 7 1 1 1
node 8 3 1 1
node 9 2 1 1
node 10 2 1 1
node 11 3 1 3
node 12 2 0 2
node 13 1 0 2
node 14 1 0 2
node 15 3 0 2
node 16 1 0 2
node 20 1 0 0
gene 3 1 12 7.04007 0 1 7.04007 1
gene 1 2 13 1.48854 0 2 1.48854 0
gene 1 3 14 -0.498832 0 3 -0.498832 0
gene 3 4 15 -1.31054 0 4 -1.31054 1
gene 1 5 16 2.42523 0 5 2.42523 1
gene 3 6 12 2.0555 0 2 2.0555 1
gene 2 7 12 -4.66166 0 3 -4.66166 1
gene 2 8 12 1.55766 0 4 1.55766 1
gene 1 9 12 1.31466 0 5 1.31466 1
gene 2 10 12 1.60894 0 6 1.60894 1
gene 2 11 12 8 0 7 8 1
gene 3 1 13 5.84056 0 5 5.84056 1
gene 1 2 14 1.59855 0 6 1.59855 1
gene 1 3 15 2.38418 0 7 2.38418 1
gene 2 8 13 6.44788 0 12 6.44788 1
gene 1 3 20 1.99087 0 18 1.99087 1
gene 1 20 14 0.584884 0 19 0.584884 1
gene 2 11 13 -0.260872 0 161 -0.260872 1
genomeend 12098

/* Organism #3046 Fitness: 8122 Error: 0 */
genomestart 3046
trait 1 0.1 0 0.0256856 0.0524847 0.15519 0.242059 0.134474 0.00030724 
trait 2 0.118176 0.132428 0.00856498 0.0354663 0.227404 0.00213975 0.182431 0.0705074 
trait 3 0.35645 0.0388424 0.0466147 0.42098 0.18468 0 0 0.182342 
node 1 1 1 1
node 2 1 1 1
node 3 2 1 1
node 4 3 1 1
node 5 3 1 1
node 6 3 1 1
node 7 1 1 1
node 8 3 1 1
node 9 2 1 1
node 10 2 1 1
node 11 3 1 3
node 12 2 0 2
node 13 1 0 2
node 14 1 0 2
node 15 2 0 2
node 16 1 0 2
node 20 1 0 0
gene 3 1 12 5.32048 0 1 5.32048 1
gene 1 2 13 0.598706 0 2 0.598706 1
gene 1 3 14 -0.681909 0 3 -0.681909 0
gene 3 4 15 3.81443 0 4 3.81443 1
gene 1 5 16 1.57659 0 5 1.57659 1
gene 3 6 12 8 0 2 8 1
gene 2 7 12 -2.63203 0 3 -2.63203 1
gene 2 8 12 7.77672 0 4 7.77672 1
gene 1 9 12 3.97431 0 5 3.97431 1
gene 2 10 12 2.8819 0 6 2.8819 1
gene 3 11 12 0.53701 0 7 0.53701 1
gene 3 1 13 6.33714 0 5 6.33714 1
gene 1 2 14 0.58186 0 6 0.58186 1
gene 1 3 15 1.58536 0 7 1.58536 1
gene 2 8 13 7.78802 0 12 7.78802 1
gene 1 3 20 -3.16752 0 18 -3.16752 1
gene 1 20 14 2.17996 0 19 2.17996 1
genomeend 3046

/* Organism #9245 Fitness: 7567 Error: 0 */
genomestart 9245
trait 1 0.1 0 0.0297413 0.0523154 0.163837 0.268069 0.153408 0.000303915 
trait 2 0.117407 0.132428 0.00920261 0.0354663 0.227404 0.00213975 0.184121 0.070749 
trait 3 0.35645 0.0388424 0.0492459 0.42098 0.187351 0 0 0.182342 
node 1 1 1 1
node 2 1 1 1
node 3 2 1 1
node 4 3 1 1
node 5 3 1 1
node 6 3 1 1
node 7 1 1 1
node 8 3 1 1
node 9 2 1 1
node 10 2 1 1
node 11 3 1 3
node 12 2 0 2
node 13 1 0 2
node 14 1 0 2
node 15 3 0 2
node 16 1 0 2
node 20 1 0 0
gene 3 1 12 -0.256737 0 1 -0.256737 1
gene 1 2 13 -2.18528 0 2 -2.18528 0
gene 1 3 14 -0.682852 0 3 -0.682852 0
gene 3 4 15 -0.0856044 0 4 -0.0856044 1
gene 1 5 16 -0.635299 0 5 -0.635299 1
gene 3 6 12 2.68915 0 2 2.68915 1
gene 2 7 12 -4.27278 0 3 -4.27278 1
gene 2 8 12 -0.0803404 0 4 -0.0803404 1
gene 1 9 12 -0.491956 0 5 -0.491956 1
gene 2 10 12 -0.481779 0 6 -0.481779 1
gene 2 11 12 6.79191 0 7 6.79191 1
gene 3 1 13 4.75959 0 5 4.75959 1
gene 1 2 14 -0.0711893 0 6 -0.0711893 1
gene 1 3 15 1.17328 0 7 1.17328 1
gene 2 8 13 6.46482 0 12 6.46482 1
gene 1 3 20 -2.70756 0 18 -2.70756 1
gene 1 20 14 0.38865 0 19 0.38865 1
gene 3 11 13 0.744789 0 161 0.744789 1
genomeend 9245

/* Organism #17596 Fitness: 7222 Error: 0 */
genomestart 17596
trait 1 0.1 0 0.0297413 0.0523154 0.163837 0.268069 0.153408 0.000303915 
trait 2 0.117407 0.132428 0.00920261 0.0354663 0.227404 0.00213975 0.184121 0.070749 
trait 3 0.35645 0.0388424 0.0492459 0.42098 0.187351 0 0 0.182342 
node 1 1 1 1
node 2 1 1 1
node 3 2 1 1
node 4 3 1 1
node 5 3 1 1
node 6 3 1 1
node 7 1 1 1
node 8 3 1 1
node 9 2 1 1
node 10 2 1 1
node 11 3 1 3
node 12 2 0 2
node 13 1 0 2
node 14 1 0 2
node 15 3 0 2
node 16 1 0 2
node 20 1 0 0
gene 3 1 12 5.09017 0 1 5.09017 1
gene 1 2 13 -0.856748 0 2 -0.856748 0
gene 1 3 14 1.78578 0 3 1.78578 0
gene 3 4 15 5.60482 0 4 5.60482 1
gene 1 5 16 -3.58514 0 5 -3.58514 1
gene 3 6 12 -0.635312 0 2 -0.635312 1
gene 2 7 12 -1.40324 0 3 -1.40324 1
gene 2 8 12 0.172277 0 4 0.172277 1
gene 1 9 12 1.59582 0 5 1.59582 1
gene 2 10 12 -0.0172107 0 6 -0.0172107 1
gene 2 11 12 8 0 7 8 1
gene 3 1 13 4.47752 0 5 4.47752 1
gene 1 2 14 -0.386217 0 6 -0.386217 1
gene 1 3 15 -6.05694 0 7 -6.05694 1
gene 2 8 13 6.5405 0 12 6.5405 1
gene 1 3 20 -2.1617 0 18 -2.1617 1
gene 1 20 14 -2.10609 0 19 -2.10609 1
gene 2 11 13 0.560778 0 161 0.560778 1
genomeend 17596

/* Organism #16662 Fitness: 7148 Error: 0 */
genomestart 16662
trait 1 0.1 0 0.0297413 0.0523154 0.163837 0.268069 0.153408 0.000303915 
trait 2 0.117407 0.132428 0.00920261 0.0354663 0.227404 0.00213975 0.184121 0.070749 
trait 3 0.35645 0.0388424 0.0492459 0.42098 0.187351 0 0 0.182342 
node 1 1 1 1
node 2 1 1 1
node 3 2 1 1
node 4 3 1 1
node 5 3 1 1
node 6 3 1 1
node 7 1 1 1
node 8 3 1 1
node 9 2 1 1
node 10 2 1 1
node 11 3 1 3
node 12 2 0 2
node 13 1 0 2
node 14 1 0 2
node 15 3 0 2
node 16 1 0 2
node 20 1 0 0
gene 3 1 12 2.49899 0 1 2.49899 1
gene 1 2 13 2.0081 0 2 2.0081 0
gene 1 3 14 1.15054 0 3 1.15054 0
gene 3 4 15 3.67956 0 4 3.67956 1
gene 1 5 16 -3.69501 0 5 -3.69501 1
gene 3 6 12 1.67593 0 2 1.67593 1
gene 2 7 12 -3.07905 0 3 -3.07905 1
gene 2 8 12 3.27013 0 4 3.27013 1
gene 1 9 12 0.183648 0 5 0.183648 1
gene 2 10 12 1.88569 0 6 1.88569 1
gene 2 11 12 6.1408 0 7 6.1408 1
gene 3 1 13 7.22434 0 5 7.22434 1
gene 1 2 14 -0.802184 0 6 -0.802184 1
gene 1 3 15 -3.63911 0 7 -3.63911 1
gene 2 8 13 4.65438 0 12 4.65438 1
gene 1 3 20 -2.35092 0 18 -2.35092 1
gene 1 20 14 -1.18137 0 19 -1.18137 1
gene 2 11 13 -1.29383 0 161 -1.29383 1
genomeend 16662

/* Organism #12603 Fitness: 7062 Error: 0 */
genomestart 12603
trait 1 0.1 0 0.0297413 0.0523154 0.163837 0.268069 0.153408 0.000303915 
trait 2 0.117407 0.132428 0.00920261 0.0354663 0.227404 0.00213975 0.184121 0.070749 
trait 3 0.35645 0.0388424 0.0492459 0.42098 0.187351 0 0 0.182342 
node 1 1 1 1
node 2 1 1 1
node 3 2 1 1
node 4 3 1 1
node 5 3 1 1
node 6 3 1 1
node 7 1 1 1
node 8 3 1 1
node 9 2 1 1
node 10 2 1 1
node 11 3 1 3
node 12 2 0 2
node 13 1 0 2
node 14 1 0 2
node 15 3 0 2
node 16 1 0 2
node 20 1 0 0
gene 3 1 12 4.87043 0 1 4.87043 1
gene 1 2 13 0.620653 0 2 0.620653 0
gene 1 3 14 -0.0167926 0 3 -0.0167926 0
gene 3 4 15 3.12564 0 4 3.12564 1
gene 1 5 16 -2.65479 0 5 -2.65479 1
gene 3 6 12 0.321443 0 2 0.321443 1
gene 2 7 12 -3.19594 0 3 -3.19594 1
gene 2 8 12 0.999328 0 4 0.999328 1
gene 1 9 12 1.42407 0 5 1.42407 1
gene 2 10 12 1.86471 0 6 1.86471 1
gene 2 11 12 6.79191 0 7 6.79191 1
gene 3 1 13 6.95174 0 5 6.95174 1
gene 1 2 14 -0.0711893 0 6 -0.0711893 1
gene 1 3 15 -6.05694 0 7 -6.05694 1
gene 2 8 13 6.46482 0 12 6.46482 1
gene 1 3 20 -1.39885 0 18 -1.39885 1
gene 1 20 14 0.38865 0 19 0.38865 1
gene 2 11 13 0.60036 0 161 0.60036 1
gene 2 9 20 0.188421 0 273 0 1
genomeend 12603

/* Organism #16947 Fitness: 7038 Error: 0 */
genomestart 16947
trait 1 0.1 0 0.0270375 0.0524282 0.158072 0.250729 0.140785 0.000306132 
trait 2 0.11792 0.132428 0.00877753 0.0354663 0.227404 0.00213975 0.182995 0.0705879 
trait 3 0.35645 0.0388424 0.0474917 0.42098 0.185571 0 0 0.182342 
node 1 1 1 1
node 2 1 1 1
node 3 2 1 1
node 4 3 1 1
node 5 3 1 1
node 6 3 1 1
node 7 1 1 1
node 8 3 1 1
node 9 2 1 1
node 10 2 1 1
node 11 3 1 3
node 12 2 0 2
node 13 1 0 2
node 14 1 0 2
node 15 3 0 2
node 16 1 0 2
node 20 1 0 0
gene 3 1 12 6.1582 0 1 6.1582 1
gene 1 2 13 1.00751 0 2 1.00751 1
gene 1 3 14 -2.77418 0 3 -2.77418 0
gene 3 4 15 3.81443 0 4 3.81443 1
gene 1 5 16 1.81791 0 5 1.81791 1
gene 3 6 12 8 0 2 8 1
gene 2 7 12 -2.45609 0 3 -2.45609 1
gene 2 8 12 7.77672 0 4 7.77672 1
gene 1 9 12 3.64197 0 5 3.64197 1
gene 2 10 12 1.86471 0 6 1.86471 1
gene 3 11 12 1.38199 0 7 1.38199 1
gene 3 1 13 2.34344 0 5 2.34344 1
gene 1 2 14 0.412059 0 6 0.412059 1
gene 1 3 15 -8 0 7 -8 1
gene 2 8 13 6.46482 0 12 6.46482 1
gene 1 3 20 -2.9149 0 18 -2.9149 1
gene 1 20 14 -0.152138 0 19 -0.152138 1
genomeend 16947

/* Organism #11431 Fitness: 6984 Error: 0 */
genomestart 11431
trait 1 0.1 0 0.0270375 0.0524282 0.158072 0.250729 0.140785 0.000306132 
trait 2 0.11792 0.132428 0.00877753 0.0354663 0.227404 0.00213975 0.182995 0.0705879 
trait 3 0.35645 0.0388424 0.0474917 0.42098 0.185571 0 0 0.182342 
node 1 1 1 1
node 2 1 1 1
node 3 2 1 1
node 4 3 1 1
node 5 3 1 1
node 6 3 1 1
node 7 1 1 1
node 8 3 1 1
node 9 2 1 1
node 10 2 1 1
node 11 3 1 3
node 12 2 0 2
node 13 1 0 2
node 14 1 0 2
node 15 3 0 2
node 16 1 0 2
node 20 1 0 0
gene 3 1 12 6.1582 0 1 6.1582 1
gene 1 2 13 2.81566 0 2 2.81566 1
gene 1 3 14 -0.587302 0 3 -0.587302 0
gene 3 4 15 0.359966 0 4 0.359966 1
gene 1 5 16 3.36032 0 5 3.36032 1
gene 3 6 12 5.77757 0 2 5.77757 1
gene 2 7 12 0.892285 0 3 0.892285 1
gene 2 8 12 1.26446 0 4 1.26446 1
gene 1 9 12 2.32292 0 5 2.32292 1
gene 2 10 12 3.45129 0 6 3.45129 1
gene 2 11 12 1.55228 0 7 1.55228 1
gene 3 1 13 3.27761 0 5 3.27761 1
gene 1 2 14 -0.206322 0 6 -0.206322 1
gene 1 3 15 1.32595 0 7 1.32595 1
gene 2 8 13 7.26082 0 12 7.26082 1
gene 1 3 20 -0.720236 0 18 -0.720236 1
gene 1 20 14 2.31994 0 19 2.31994 1
genomeend 11431

/* Organism #14699 Fitness: 6922 Error: 0 */
genomestart 14699
trait 1 0.1 0 0.032445 0.0522026 0.169602 0.285409 0.166031 0.000301699 
trait 2 0.116894 0.255204 0.00962769 0 1 0.00213975 0.185247 0.487152 
trait 3 0.35645 0.0388424 0.0510001 0.42098 0.189132 0 0 0.182342 
node 1 1 1 1
node 2 1 1 1
node 3 2 1 1
node 4 3 1 1
node 5 3 1 1
node 6 3 1 1
node 7 1 1 1
node 8 3 1 1
node 9 2 1 1
node 10 2 1 1
node 11 3 1 3
node 12 2 0 2
node 13 1 0 2
node 14 1 0 2
node 15 3 0 2
node 16 1 0 2
node 20 1 0 0
node 39 1 0 0
gene 3 1 12 4.89016 0 1 4.89016 1
gene 1 2 13 0.0606768 0 2 0.0606768 1
gene 1 3 14 0.954112 0 3 0.954112 0
gene 3 4 15 5.26314 0 4 5.26314 1
gene 1 5 16 -5.76825 0 5 -5.76825 1
gene 3 6 12 -2.1261 0 2 -2.1261 1
gene 2 7 12 -5.3716 0 3 -5.3716 1
gene 2 8 12 -2.12577 0 4 -2.12577 1
gene 1 9 12 -0.938327 0 5 -0.938327 1
gene 2 10 12 4.93495 0 6 4.93495 1
gene 2 11 12 6.98907 0 7 6.98907 1
gene 3 1 13 7.79324 0 5 7.79324 1
gene 1 2 14 1.90374 0 6 1.90374 1
gene 1 3 15 -8 0 7 -8 1
gene 2 8 13 6.66624 0 12 6.66624 1
gene 1 3 20 -1.94868 0 18 -1.94868 1
gene 1 20 14 1.58147 0 19 1.58147 1
gene 1 5 39 2.45367 0 171 2.45367 1
gene 1 39 16 -2.35574 0 172 -2.35574 1
genomeend 14699

/* Organism #16498 Fitness: 6875 Error: 0 */
genomestart 16498
trait 1 0.1 0 0.0297413 0.0523154 0.163837 0.268069 0.153408 0.000303915 
trait 2 0.91275 0.132428 0.00920261 0 0.837347 0.00213975 0.805905 0.070749 
trait 3 0.35645 0.0388424 0.0492459 0.42098 0.187351 0 0 0.182342 
node 1 1 1 1
node 2 1 1 1
node 3 2 1 1
node 4 3 1 1
node 5 3 1 1
node 6 3 1 1
node 7 1 1 1
node 8 3 1 1
node 9 2 1 1
node 10 2 1 1
node 11 3 1 3
node 12 2 0 2
node 13 1 0 2
node 14 1 0 2
node 15 3 0 2
node 16 1 0 2
node 20 1 0 0
gene 3 1 12 -0.0679037 0 1 -0.0679037 1
gene 1 2 13 -0.544162 0 2 -0.544162 0
gene 1 3 14 -0.0167926 0 3 -0.0167926 0
gene 3 4 15 1.7871 0 4 1.7871 1
gene 1 5 16 -2.68607 0 5 -2.68607 1
gene 3 6 12 -1.7265 0 2 -1.7265 1
gene 2 7 12 2.47063 0 3 2.47063 1
gene 2 8 12 2.41302 0 4 2.41302 1
gene 1 9 12 2.90117 0 5 2.90117 1
gene 2 10 12 -2.23548 0 6 -2.23548 1
gene 2 11 12 -2.35145 0 7 -2.35145 1
gene 3 1 13 5.31999 0 5 5.31999 1
gene 1 2 14 -0.0711893 0 6 -0.0711893 1
gene 1 3 15 -3.76943 0 7 -3.76943 1
gene 2 8 13 -0.160375 0 12 -0.160375 1
gene 1 3 20 0.240143 0 18 0.240143 1
gene 1 20 14 -0.484637 0 19 -0.484637 1
gene 2 11 13 0.129154 0 161 0.129154 1
genomeend 16498

/* Organism #11459 Fitness: 6871 Error: 0 */
genomestart 11459
trait 1 0.1 0 0.0297413 0.0523154 0.163837 0.268069 0.153408 0.000303915 
trait 2 0.117407 0.132428 0.00920261 0.0354663 0.227404 0.00213975 0.184121 0.070749 
trait 3 0.35645 0.0388424 0.0492459 0.42098 0.187351 0 0 0.182342 
node 1 1 1 1
node 2 1 1 1
node 3 2 1 1
node 4 3 1 1
node 5 3 1 1
node 6 3 1 1
node 7 1 1 1
node 8 3 1 1
node 9 2 1 1
node 10 2 1 1
node 11 3 1 3
node 12 2 0 2
node 13 1 0 2
node 14 1 0 2
node 15 3 0 2
node 16 1 0 2
node 20 1 0 0
gene 3 1 12 4.0797 0 1 4.0797 1
gene 1 2 13 3.02971 0 2 3.02971 0
gene 1 3 14 1.99384 0 3 1.99384 0
gene 3 4 15 4.51927 0 4 4.51927 1
gene 1 5 16 -1.79248 0 5 -1.79248 1
gene 3 6 12 2.2963 0 2 2.2963 1
gene 2 7 12 -1.80528 0 3 -1.80528 1
gene 2 8 12 -0.206306 0 4 -0.206306 1
gene 1 9 12 3.84282 0 5 3.84282 1
gene 2 10 12 3.78257 0 6 3.78257 1
gene 2 11 12 8 0 7 8 1
gene 3 1 13 5.74267 0 5 5.74267 1
gene 1 2 14 0.37873 0 6 0.37873 1
gene 1 3 15 -7.79795 0 7 -7.79795 1
gene 2 8 13 4.69162 0 12 4.69162 1
gene 1 3 20 -1.7745 0 18 -1.7745 1
gene 1 20 14 2.44461 0 19 2.44461 1
gene 2 11 13 -1.45193 0 161 -1.45193 1
genomeend 11459

/* Organism #19371 Fitness: 6568 Error: 0 */
genomestart 19371
trait 1 0.1 0 0.0270375 0.0524282 0.158072 0.250729 0.140785 0.000306132 
trait 2 0.11792 0.132428 0.00877753 0.0354663 0.227404 0.00213975 0.182995 0.0705879 
trait 3 0.35645 0.0388424 0.0474917 0.42098 0.185571 0 0 0.182342 
node 1 1 1 1
node 2 1 1 1
node 3 2 1 1
node 4 3 1 1
node 5 1 1 1
node 6 3 1 1
node 7 1 1 1
node 8 3 1 1
node 9 2 1 1
node 10 2 1 1
node 11 3 1 3
node 12 2 0 2
node 13 1 0 2
node 14 1 0 2
node 15 3 0 2
node 16 1 0 2
node 20 1 0 0
gene 3 1 12 5.59182 0 1 5.59182 1
gene 1 2 13 -0.40412 0 2 -0.40412 1
gene 1 3 14 2.60856 0 3 2.60856 0
gene 3 4 15 5.45442 0 4 5.45442 1
gene 1 5 16 0.747275 0 5 0.747275 1
gene 3 6 12 7.78698 0 2 7.78698 1
gene 2 7 12 -0.118335 0 3 -0.118335 1
gene 2 8 12 2.26897 0 4 2.26897 1
gene 1 9 12 4.43263 0 5 4.43263 1
gene 2 10 12 3.25735 0 6 3.25735 1
gene 3 11 12 6.33312 0 7 6.33312 1
gene 3 1 13 3.75456 0 5 3.75456 1
gene 1 2 14 -0.471674 0 6 -0.471674 1
gene 1 3 15 -6.64025 0 7 -6.64025 1
gene 2 8 13 1.44566 0 12 1.44566 1
gene 1 3 20 -1.61962 0 18 -1.61962 1
gene 1 20 14 -1.17473 0 19 -1.17473 1
genomeend 19371

/* Organism #19562 Fitness: 6498 Error: 0 */
genomestart 19562
trait 1 0.1 0 0.0243338 0.0525411 0.152307 0.233389 0.128162 0.000308348 
trait 2 0.118433 0.132428 0.00835244 0.0354663 0.227404 0.00213975 0.181868 0.0704269 
trait 3 0.35645 0.0388424 0.0457376 0.42098 0.18379 0 0 0.182342 
node 1 1 1 1
node 2 1 1 1
node 3 2 1 1
node 4 3 1 1
node 5 3 1 1
node 6 3 1 1
node 7 1 1 1
node 8 3 1 1
node 9 2 1 1
node 10 2 1 1
node 11 3 1 3
node 12 2 0 2
node 13 1 0 2
node 14 1 0 2
node 15 3 0 2
node 16 1 0 2
node 20 1 0 0
gene 3 1 12 4.5341 0 1 4.5341 1
gene 1 2 13 -2.12538 0 2 -2.12538 1
gene 1 3 14 -1.26413 0 3 -1.26413 0
gene 3 4 15 2.12638 0 4 2.12638 1
gene 1 5 16 -2.11167 0 5 -2.11167 1
gene 3 6 12 -1.96504 0 2 -1.96504 1
gene 2 7 12 -1.54286 0 3 -1.54286 1
gene 2 8 12 -1.89238 0 4 -1.89238 1
gene 1 9 12 -0.501607 0 5 -0.501607 1
gene 2 10 12 4.51454 0 6 4.51454 1
gene 2 11 12 8 0 7 8 1
gene 3 1 13 3.9528 0 5 3.9528 1
gene 1 2 14 -0.514517 0 6 -0.514517 1
gene 1 3 15 -4.73888 0 7 -4.73888 1
gene 2 8 13 5.80569 0 12 5.80569 1
gene 1 3 20 0.87054 0 18 0.87054 1
gene 1 20 14 3.09315 0 19 3.09315 1
genomeend 19562

/* Organism #18406 Fitness: 6306 Error: 0 */
genomestart 18406
trait 1 0.1 0 0.0297413 0.0523154 0.163837 0.268069 0.153408 0.000303915 
trait 2 0.117407 0.132428 0.00920261 0.0354663 0.227404 0.00213975 0.184121 0.070749 
trait 3 0.35645 0.0388424 0.0492459 0.42098 0.187351 0 0 0.182342 
node 1 1 1 1
node 2 1 1 1
node 3 2 1 1
node 4 3 1 1
node 5 3 1 1
node 6 3 1 1
node 7 1 1 1
node 8 3 1 1
node 9 2 1 1
node 10 2 1 1
node 11 3 1 3
node 12 2 0 2
node 13 1 0 2
node 14 1 0 2
node 15 3 0 2
node 16 1 0 2
node 20 1 0 0
gene 3 1 12 6.13848 0 1 6.13848 1
gene 1 2 13 -1.47559 0 2 -1.47559 0
gene 1 3 14 1.54247 0 3 1.54247 0
gene 3 4 15 5.44848 0 4 5.44848 1
gene 1 5 16 -1.07545 0 5 -1.07545 1
gene 3 6 12 0.463964 0 2 0.463964 1
gene 2 7 12 -3.55148 0 3 -3.55148 1
gene 2 8 12 1.38958 0 4 1.38958 1
gene 1 9 12 0.156944 0 5 0.156944 1
gene 2 10 12 3.53659 0 6 3.53659 1
gene 2 11 12 8 0 7 8 1
gene 3 1 13 8 0 5 8 1
gene 1 2 14 -0.528967 0 6 -0.528967 1
gene 1 3 15 -5.07043 0 7 -5.07043 1
gene 2 8 13 7.71501 0 12 7.71501 1
gene 1 3 20 1.7307 0 18 1.7307 1
gene 1 20 14 2.65015 0 19 2.65015 1
gene 2 11 13 2.7304 0 161 2.7304 1
genomeend 18406

/* Organism #19568 Fitness: 0 Error: 0 */
genomestart 19568
trait 1 0.1 0 0.032445 0.0522026 0.169602 0.285409 0.166031 0.000301699 
trait 2 0.116894 0.255204 0.00962769 0 1 0.00213975 0.185247 0.487152 
trait 3 0.35645 0.0388424 0.0510001 0.42098 0.189132 0 0 0.182342 
node 1 1 1 1
node 2 1 1 1
node 3 2 1 1
node 4 3 1 1
node 5 3 1 1
node 6 3 1 1
node 7 1 1 1
node 8 3 1 1
node 9 2 1 1
node 10 2 1 1
node 11 3 1 3
node 12 2 0 2
node 13 1 0 2
node 14 1 0 2
node 15 3 0 2
node 16 1 0 2
node 20 1 0 0
node 39 1 0 0
gene 3 1 12 5.471 0 1 5.471 1
gene 1 2 13 -4.23007 0 2 -4.23007 1
gene 1 3 14 -0.493152 0 3 -0.493152 0
gene 3 4 15 5.54109 0 4 5.54109 1
gene 1 5 16 -5.58552 0 5 -5.58552 0
gene 3 6 12 -2.54779 0 2 -2.54779 1
gene 2 7 12 -2.71206 0 3 -2.71206 1
gene 2 8 12 -0.60503 0 4 -0.60503 1
gene 1 9 12 0.653976 0 5 0.653976 1
gene 2 10 12 6.79887 0 6 6.79887 1
gene 2 11 12 6.19864 0 7 6.19864 1
gene 3 1 13 7.17425 0 5 7.17425 1
gene 1 2 14 2.69791 0 6 2.69791 1
gene 1 3 15 -8 0 7 -8 1
gene 2 8 13 4.95392 0 12 4.95392 1
gene 1 3 20 -1.78266 0 18 -1.78266 1
gene 1 20 14 -1.14643 0 19 -1.14643 1
gene 1 5 39 3.32627 0 171 3.32627 1
gene 1 39 16 -2.49802 0 172 -2.49802 1
genomeend 19568

/* Species #9 : (Size 3) (AF 0) (Age 1)  */


/* Organism #220 Fitness: 1.72379e+07 Error: 0 */
genomestart 220
trait 1 0.1 0 0.0297413 0.0523154 0.163837 0.268069 0.153408 0.000303915 
trait 2 0.117407 0.132428 0.00920261 0.0354663 0.227404 0.00213975 0.184121 0.070749 
trait 3 0.35645 0.0388424 0.0492459 0.42098 0.187351 0 0 0.182342 
node 1 1 1 1
node 2 1 1 1
node 3 2 1 1
node 4 3 1 1
node 5 3 1 1
node 6 3 1 1
node 7 1 1 1
node 8 3 1 1
node 9 2 1 1
node 10 2 1 1
node 11 3 1 3
node 12 2 0 2
node 13 1 0 2
node 14 1 0 2
node 15 3 0 2
node 16 1 0 2
node 20 1 0 0
gene 3 1 12 4.87043 0 1 4.87043 1
gene 1 2 13 0.620653 0 2 0.620653 0
gene 1 3 14 -0.0167926 0 3 -0.0167926 0
gene 3 4 15 3.12564 0 4 3.12564 1
gene 1 5 16 -2.65479 0 5 -2.65479 1
gene 3 6 12 0.321443 0 2 0.321443 1
gene 2 7 12 -3.19594 0 3 -3.19594 1
gene 2 8 12 0.999328 0 4 0.999328 1
gene 1 9 12 1.42407 0 5 1.42407 1
gene 2 10 12 1.86471 0 6 1.86471 1
gene 2 11 12 6.79191 0 7 6.79191 1
gene 3 1 13 6.95174 0 5 6.95174 1
gene 1 2 14 -0.0711893 0 6 -0.0711893 1
gene 1 3 15 -6.05694 0 7 -6.05694 1
gene 2 8 13 6.46482 0 12 6.46482 1
gene 1 3 20 -1.39885 0 18 -1.39885 1
gene 1 20 14 0.38865 0 19 0.38865 1
gene 2 11 13 0.60036 0 161 0.60036 1
genomeend 220

/* Organism #19564 Fitness: 5584 Error: 0 */
genomestart 19564
trait 1 0.1 0 0.0297413 0.0523154 0.163837 0.268069 0.153408 0.000303915 
trait 2 0.117407 0.132428 0.00920261 0.0354663 0.227404 0.00213975 0.184121 0.070749 
trait 3 0.35645 0.0388424 0.0492459 0.42098 0.187351 0 0 0.182342 
node 1 1 1 1
node 2 1 1 1
node 3 2 1 1
node 4 3 1 1
node 5 3 1 1
node 6 3 1 1
node 7 1 1 1
node 8 3 1 1
node 9 2 1 1
node 10 2 1 1
node 11 3 1 3
node 12 2 0 2
node 13 1 0 2
node 14 1 0 2
node 15 3 0 2
node 16 1 0 2
node 20 1 0 0
node 38 1 0 0
gene 3 1 12 4.87043 0 1 4.87043 1
gene 1 2 13 0.620653 0 2 0.620653 0
gene 1 3 14 -0.0167926 0 3 -0.0167926 0
gene 3 4 15 3.12564 0 4 3.12564 0
gene 1 5 16 -2.65479 0 5 -2.65479 1
gene 3 6 12 0.321443 0 2 0.321443 1
gene 2 7 12 -3.19594 0 3 -3.19594 1
gene 2 8 12 0.999328 0 4 0.999328 1
gene 1 9 12 1.42407 0 5 1.42407 1
gene 2 10 12 1.86471 0 6 1.86471 1
gene 2 11 12 6.79191 0 7 6.79191 1
gene 3 1 13 6.95174 0 5 6.95174 1
gene 1 2 14 -0.0711893 0 6 -0.0711893 1
gene 1 3 15 -6.05694 0 7 -6.05694 1
gene 2 8 13 6.46482 0 12 6.46482 1
gene 1 3 20 -1.39885 0 18 -1.39885 1
gene 1 20 14 0.38865 0 19 0.38865 1
gene 2 11 13 0.60036 0 161 0.60036 1
gene 3 4 38 1 0 169 0 1
gene 3 38 15 3.12564 0 170 0 1
genomeend 19564

/* Organism #12121 Fitness: 3731 Error: 0 */
genomestart 12121
trait 1 0.1 0 0.0297413 0.0523154 0.163837 0.268069 0.153408 0.000303915 
trait 2 0.117407 0.132428 0.00920261 0.0354663 0.227404 0.00213975 0.184121 0.070749 
trait 3 0.35645 0.0388424 0.0492459 0.42098 0.187351 0 0 0.182342 
node 1 1 1 1
node 2 1 1 1
node 3 2 1 1
node 4 3 1 1
node 5 3 1 1
node 6 3 1 1
node 7 1 1 1
node 8 3 1 1
node 9 2 1 1
node 10 2 1 1
node 11 3 1 3
node 12 2 0 2
node 13 1 0 2
node 14 1 0 2
node 15 3 0 2
node 16 1 0 2
node 20 1 0 0
node 47 1 0 0
gene 3 1 12 4.87043 0 1 4.87043 1
gene 1 2 13 0.620653 0 2 0.620653 0
gene 1 3 14 -0.0167926 0 3 -0.0167926 0
gene 3 4 15 3.12564 0 4 3.12564 1
gene 1 5 16 -2.65479 0 5 -2.65479 1
gene 3 6 12 0.321443 0 2 0.321443 1
gene 2 7 12 -3.19594 0 3 -3.19594 0
gene 2 8 12 0.999328 0 4 0.999328 1
gene 1 9 12 1.42407 0 5 1.42407 1
gene 2 10 12 1.86471 0 6 1.86471 1
gene 2 11 12 6.79191 0 7 6.79191 1
gene 3 1 13 6.95174 0 5 6.95174 1
gene 1 2 14 -0.0711893 0 6 -0.0711893 1
gene 1 3 15 -6.05694 0 7 -6.05694 1
gene 2 8 13 6.46482 0 12 6.46482 1
gene 1 3 20 -1.39885 0 18 -1.39885 1
gene 1 20 14 0.38865 0 19 0.38865 1
gene 2 11 13 0.60036 0 161 0.60036 1
gene 2 7 47 1 0 211 0 1
gene 2 47 12 -3.19594 0 212 0 1
genomeend 12121

/* Species #17 : (Size 7) (AF 0) (Age 1)  */


/* Organism #1125 Fitness: 1.62949e+07 Error: 0 */
genomestart 1125
trait 1 0.1 0 0.032445 0.0522026 0.169602 0.285409 0.166031 0.000301699 
trait 2 0.116894 0.255204 0.00962769 0 1 0.00213975 0.185247 0.487152 
trait 3 0.35645 0.0388424 0.0510001 0.42098 0.189132 0 0 0.182342 
node 1 1 1 1
node 2 1 1 1
node 3 2 1 1
node 4 3 1 1
node 5 3 1 1
node 6 3 1 1
node 7 1 1 1
node 8 3 1 1
node 9 2 1 1
node 10 2 1 1
node 11 3 1 3
node 12 2 0 2
node 13 1 0 2
node 14 1 0 2
node 15 3 0 2
node 16 1 0 2
node 20 1 0 0
node 39 1 0 0
gene 3 1 12 4.55361 0 1 4.55361 1
gene 1 2 13 -1.99474 0 2 -1.99474 1
gene 1 3 14 -0.99068 0 3 -0.99068 0
gene 3 4 15 4.14701 0 4 4.14701 1
gene 1 5 16 -6.10181 0 5 -6.10181 0
gene 3 6 12 -0.115621 0 2 -0.115621 1
gene 2 7 12 -4.72407 0 3 -4.72407 1
gene 2 8 12 -0.0210582 0 4 -0.0210582 1
gene 1 9 12 -0.092125 0 5 -0.092125 1
gene 2 10 12 4.38486 0 6 4.38486 1
gene 2 11 12 4.76672 0 7 4.76672 1
gene 3 1 13 8 0 5 8 1
gene 1 2 14 1.67256 0 6 1.67256 1
gene 1 3 15 -6.69716 0 7 -6.69716 1
gene 2 8 13 6.03252 0 12 6.03252 1
gene 1 3 20 -0.0800344 0 18 -0.0800344 1
gene 1 20 14 -0.152138 0 19 -0.152138 1
gene 1 5 39 2.39622 0 171 2.39622 1
gene 1 39 16 -3.21308 0 172 -3.21308 1
genomeend 1125

/* Organism #1947 Fitness: 9.58437e+06 Error: 0 */
genomestart 1947
trait 1 0.1 0 0.032445 0.0522026 0.169602 0.285409 0.166031 0.000301699 
trait 2 0.116894 0.255204 0.00962769 0 1 0.00213975 0.185247 0.487152 
trait 3 0.35645 0.0388424 0.0510001 0.42098 0.189132 0 0 0.182342 
node 1 1 1 1
node 2 1 1 1
node 3 2 1 1
node 4 3 1 1
node 5 3 1 1
node 6 3 1 1
node 7 1 1 1
node 8 3 1 1
node 9 2 1 1
node 10 2 1 1
node 11 3 1 3
node 12 2 0 2
node 13 1 0 2
node 14 1 0 2
node 15 3 0 2
node 16 1 0 2
node 20 1 0 0
node 39 1 0 0
gene 3 1 12 4.55361 0 1 4.55361 1
gene 1 2 13 -1.99474 0 2 -1.99474 1
gene 1 3 14 -0.99068 0 3 -0.99068 0
gene 3 4 15 4.14701 0 4 4.14701 1
gene 1 5 16 -6.10181 0 5 -6.10181 0
gene 3 6 12 -0.115621 0 2 -0.115621 1
gene 2 7 12 -4.72407 0 3 -4.72407 1
gene 2 8 12 -0.0210582 0 4 -0.0210582 1
gene 1 9 12 -0.092125 0 5 -0.092125 1
gene 2 10 12 4.38486 0 6 4.38486 1
gene 2 11 12 4.76672 0 7 4.76672 1
gene 3 1 13 8 0 5 8 1
gene 1 2 14 1.67256 0 6 1.67256 1
gene 1 3 15 -6.69716 0 7 -6.69716 1
gene 2 8 13 6.03252 0 12 6.03252 1
gene 1 3 20 -0.0800344 0 18 -0.0800344 1
gene 1 20 14 -0.152138 0 19 -0.152138 1
gene 1 5 39 2.39622 0 171 2.39622 1
gene 1 39 16 -3.21308 0 172 -3.21308 1
genomeend 1947

/* Organism #1806 Fitness: 9.5837e+06 Error: 0 */
genomestart 1806
trait 1 0.1 0 0.032445 0.0522026 0.169602 0.285409 0.166031 0.000301699 
trait 2 0.116894 0.255204 0.00962769 0 1 0.00213975 0.185247 0.487152 
trait 3 0.35645 0.0388424 0.0510001 0.42098 0.189132 0 0 0.182342 
node 1 1 1 1
node 2 1 1 1
node 3 2 1 1
node 4 3 1 1
node 5 3 1 1
node 6 3 1 1
node 7 1 1 1
node 8 3 1 1
node 9 2 1 1
node 10 2 1 1
node 11 3 1 3
node 12 2 0 2
node 13 1 0 2
node 14 1 0 2
node 15 3 0 2
node 16 1 0 2
node 20 1 0 0
node 39 1 0 0
gene 3 1 12 4.55361 0 1 4.55361 1
gene 1 2 13 -1.99474 0 2 -1.99474 1
gene 1 3 14 -0.99068 0 3 -0.99068 0
gene 3 4 15 4.14701 0 4 4.14701 1
gene 1 5 16 -6.10181 0 5 -6.10181 0
gene 3 6 12 -0.115621 0 2 -0.115621 1
gene 2 7 12 -4.72407 0 3 -4.72407 1
gene 2 8 12 -0.0210582 0 4 -0.0210582 1
gene 1 9 12 -0.092125 0 5 -0.092125 1
gene 2 10 12 4.38486 0 6 4.38486 1
gene 2 11 12 4.76672 0 7 4.76672 1
gene 3 1 13 8 0 5 8 1
gene 1 2 14 1.67256 0 6 1.67256 1
gene 1 3 15 -6.69716 0 7 -6.69716 1
gene 2 8 13 6.03252 0 12 6.03252 1
gene 1 3 20 -0.0800344 0 18 -0.0800344 1
gene 1 20 14 -0.152138 0 19 -0.152138 1
gene 1 5 39 2.39622 0 171 2.39622 1
gene 1 39 16 -3.21308 0 172 -3.21308 1
gene 1 8 39 -0.911496 0 231 -0.911496 1
genomeend 1806

/* Organism #1949 Fitness: 11282 Error: 0 */
genomestart 1949
trait 1 0.1 0 0.032445 0.0522026 0.169602 0.285409 0.166031 0.000301699 
trait 2 0.116894 0.255204 0.00962769 0 1 0.00213975 0.185247 0.487152 
trait 3 0.35645 0.0388424 0.0510001 0.42098 0.189132 0 0 0.182342 
node 1 1 1 1
node 2 1 1 1
node 3 2 1 1
node 4 3 1 1
node 5 3 1 1
node 6 3 1 1
node 7 1 1 1
node 8 3 1 1
node 9 2 1 1
node 10 2 1 1
node 11 3 1 3
node 12 2 0 2
node 13 1 0 2
node 14 1 0 2
node 15 3 0 2
node 16 1 0 2
node 20 1 0 0
node 39 1 0 0
gene 3 1 12 4.55361 0 1 4.55361 1
gene 1 2 13 -1.99474 0 2 -1.99474 1
gene 1 3 14 -0.99068 0 3 -0.99068 1
gene 3 4 15 4.14701 0 4 4.14701 1
gene 1 5 16 -6.10181 0 5 -6.10181 0
gene 3 6 12 -0.115621 0 2 -0.115621 1
gene 2 7 12 -4.72407 0 3 -4.72407 1
gene 2 8 12 -0.0210582 0 4 -0.0210582 1
gene 1 9 12 -0.092125 0 5 -0.092125 1
gene 2 10 12 4.38486 0 6 4.38486 1
gene 2 11 12 4.76672 0 7 4.76672 1
gene 3 1 13 8 0 5 8 1
gene 1 2 14 1.67256 0 6 1.67256 1
gene 1 3 15 -6.69716 0 7 -6.69716 1
gene 2 8 13 6.03252 0 12 6.03252 1
gene 1 3 20 -0.0800344 0 18 -0.0800344 1
gene 1 20 14 -0.152138 0 19 -0.152138 1
gene 1 5 39 2.39622 0 171 2.39622 1
gene 1 39 16 -3.21308 0 172 -3.21308 1
gene 1 8 39 -0.911496 0 231 -0.911496 1
gene 2 4 13 0.416272 0 237 0.416272 1
genomeend 1949

/* Organism #12264 Fitness: 5569 Error: 0 */
genomestart 12264
trait 1 0.1 0 0.032445 0.0522026 0.169602 0.285409 0.166031 0.000301699 
trait 2 0.116894 0.255204 0.00962769 0 1 0.00213975 0.185247 0.487152 
trait 3 0.35645 0.0388424 0.0510001 0.42098 0.189132 0 0 0.182342 
node 1 1 1 1
node 2 1 1 1
node 3 2 1 1
node 4 3 1 1
node 5 3 1 1
node 6 3 1 1
node 7 1 1 1
node 8 3 1 1
node 9 2 1 1
node 10 2 1 1
node 11 3 1 3
node 12 2 0 2
node 13 1 0 2
node 14 1 0 2
node 15 3 0 2
node 16 1 0 2
node 20 1 0 0
node 39 1 0 0
gene 3 1 12 3.44053 0 1 3.44053 1
gene 1 2 13 -1.38422 0 2 -1.38422 1
gene 1 3 14 -1.88762 0 3 -1.88762 0
gene 3 4 15 3.08633 0 4 3.08633 1
gene 1 5 16 -2.43439 0 5 -2.43439 0
gene 3 6 12 -1.73951 0 2 -1.73951 1
gene 2 7 12 -6.62149 0 3 -6.62149 1
gene 2 8 12 -0.496308 0 4 -0.496308 1
gene 1 9 12 1.27617 0 5 1.27617 1
gene 2 10 12 4.00917 0 6 4.00917 1
gene 2 11 12 4.32984 0 7 4.32984 1
gene 3 1 13 8 0 5 8 1
gene 1 2 14 1.67256 0 6 1.67256 1
gene 1 3 15 -6.69716 0 7 -6.69716 1
gene 2 8 13 1.30955 0 12 1.30955 1
gene 1 3 20 0.461135 0 18 0.461135 1
gene 1 20 14 1.59513 0 19 1.59513 1
gene 1 5 39 4.28455 0 171 4.28455 1
gene 1 39 16 -1.6281 0 172 -1.6281 1
gene 1 8 39 -0.911496 0 231 -0.911496 1
genomeend 12264

/* Organism #8449 Fitness: 4748 Error: 0 */
genomestart 8449
trait 1 0.1 0 0.032445 0.0522026 0.169602 0.285409 0.166031 0.000301699 
trait 2 0.116894 0.255204 0.00962769 0 1 0.00213975 0.185247 0.487152 
trait 3 0.35645 0.0388424 0.0510001 0.42098 0.189132 0 0 0.182342 
node 1 1 1 1
node 2 1 1 1
node 3 2 1 1
node 4 3 1 1
node 5 3 1 1
node 6 3 1 1
node 7 1 1 1
node 8 3 1 1
node 9 2 1 1
node 10 2 1 1
node 11 3 1 3
node 12 2 0 2
node 13 1 0 2
node 14 1 0 2
node 15 2 0 2
node 16 1 0 2
node 20 1 0 0
node 39 1 0 0
gene 3 1 12 5.96151 0 1 5.96151 1
gene 1 2 13 -1.99474 0 2 -1.99474 1
gene 1 3 14 -0.99068 0 3 -0.99068 0
gene 3 4 15 3.05101 0 4 3.05101 1
gene 1 5 16 -1.27102 0 5 -1.27102 0
gene 3 6 12 -0.115621 0 2 -0.115621 1
gene 2 7 12 -2.44533 0 3 -2.44533 1
gene 2 8 12 1.70095 0 4 1.70095 1
gene 1 9 12 -1.44223 0 5 -1.44223 1
gene 2 10 12 4.12392 0 6 4.12392 1
gene 2 11 12 4.99644 0 7 4.99644 1
gene 3 1 13 8 0 5 8 1
gene 1 2 14 -0.42467 0 6 -0.42467 1
gene 1 3 15 -8 0 7 -8 1
gene 2 8 13 7.71814 0 12 7.71814 1
gene 1 3 20 1.52799 0 18 1.52799 1
gene 1 20 14 1.48747 0 19 1.48747 1
gene 1 5 39 2.39622 0 171 2.39622 1
gene 1 39 16 -0.797162 0 172 -0.797162 1
genomeend 8449

/* Organism #10799 Fitness: 4666 Error: 0 */
genomestart 10799
trait 1 0.1 0 0.032445 0.0522026 0.169602 0.285409 0.166031 0.000301699 
trait 2 0.116894 0.255204 0.00962769 0 1 0.00213975 0.185247 0.487152 
trait 3 0.35645 0.0388424 0.0510001 0.42098 0.189132 0 0 0.182342 
node 1 1 1 1
node 2 1 1 1
node 3 2 1 1
node 4 3 1 1
node 5 3 1 1
node 6 3 1 1
node 7 1 1 1
node 8 3 1 1
node 9 2 1 1
node 10 2 1 1
node 11 3 1 3
node 12 2 0 2
node 13 1 0 2
node 14 1 0 2
node 15 3 0 2
node 16 1 0 2
node 20 1 0 0
node 39 1 0 0
gene 3 1 12 5.67364 0 1 5.67364 1
gene 1 2 13 -2.3319 0 2 -2.3319 1
gene 1 3 14 -2.75526 0 3 -2.75526 1
gene 3 4 15 -1.20853 0 4 -1.20853 1
gene 1 5 16 1.86758 0 5 1.86758 0
gene 3 6 12 -1.29875 0 2 -1.29875 1
gene 2 7 12 -4.72407 0 3 -4.72407 1
gene 2 8 12 -0.601291 0 4 -0.601291 1
gene 1 9 12 -0.812133 0 5 -0.812133 1
gene 2 10 12 5.36503 0 6 5.36503 1
gene 2 11 12 6.13517 0 7 6.13517 1
gene 3 1 13 8 0 5 8 1
gene 1 2 14 -0.421237 0 6 -0.421237 1
gene 1 3 15 -7.38054 0 7 -7.38054 1
gene 2 8 13 8 0 12 8 1
gene 1 3 20 2.47337 0 18 2.47337 1
gene 1 20 14 -2.25051 0 19 -2.25051 1
gene 1 5 39 1.25567 0 171 1.25567 1
gene 1 39 16 -1.06321 0 172 -1.06321 1
genomeend 10799
