
/* Species #1 : (Size 4) (AF 0) (Age 1)  */


/* Organism #64 Fitness: 11729.1 Error: 0 */
genomestart 64
trait 1 0.1 0 0 0 0.019138 0 0.0145529 0.000359546 
trait 2 0.13125 0.00965237 0.000704072 0.0354663 0.0815258 0.00213975 0.15371 0.0659175 
trait 3 0.288544 0 0.0299596 0.110561 0 0 0 0.16146 
node 1 3 1 1
node 2 3 1 1
node 3 1 1 1
node 4 2 1 1
node 5 2 1 1
node 6 1 1 1
node 7 3 1 1
node 8 2 1 1
node 9 3 1 1
node 10 3 1 1
node 11 2 1 3
node 12 1 0 2
node 13 3 0 2
node 14 2 0 2
node 15 3 0 2
node 16 3 0 2
gene 2 1 12 -1.45764 0 1 -1.45764 1
gene 3 2 13 2.1093 0 2 2.1093 1
gene 3 3 14 -3.21085 0 3 -3.21085 1
gene 3 4 15 -1.0538 0 4 -1.0538 1
gene 1 5 16 5.93748 0 5 5.93748 1
gene 3 6 12 1.59574 0 2 1.59574 1
gene 2 7 12 6.64223 0 3 6.64223 1
gene 1 8 12 2.96083 0 4 2.96083 1
gene 3 9 12 -4.28045 0 5 -4.28045 1
gene 1 10 12 1.21311 0 6 1.21311 1
gene 3 11 12 -8 0 7 -8 1
gene 1 1 13 -0.995819 0 5 -0.995819 1
gene 3 2 14 -2.92761 0 6 -2.92761 1
gene 1 3 15 8 0 7 8 1
gene 3 12 15 -1.16016 0 9 -1.16016 1
genomeend 64

/* Organism #60 Fitness: 8573.25 Error: 0 */
genomestart 60
trait 1 0.1 0 0 0 0.019138 0 0.0145529 0.000359546 
trait 2 0.13125 0.00965237 0.000704072 0.0354663 0.0815258 0.00213975 0.15371 0.0659175 
trait 3 0.288544 0 0.0299596 0.110561 0 0 0 0.16146 
node 1 3 1 1
node 2 3 1 1
node 3 1 1 1
node 4 2 1 1
node 5 2 1 1
node 6 1 1 1
node 7 3 1 1
node 8 2 1 1
node 9 3 1 1
node 10 3 1 1
node 11 2 1 3
node 12 1 0 2
node 13 3 0 2
node 14 2 0 2
node 15 3 0 2
node 16 3 0 2
gene 2 1 12 0.858638 0 1 0.858638 1
gene 3 2 13 1.21419 0 2 1.21419 1
gene 3 3 14 2.08403 0 3 2.08403 1
gene 3 4 15 0.899533 0 4 0.899533 1
gene 1 5 16 1.52669 0 5 1.52669 1
gene 3 6 12 7.19146 0 2 7.19146 1
gene 2 7 12 8 0 3 8 1
gene 1 8 12 4.35415 0 4 4.35415 1
gene 3 9 12 -7.81152 0 5 -7.81152 1
gene 1 10 12 -0.635395 0 6 -0.635395 1
gene 3 11 12 -1.04526 0 7 -1.04526 1
gene 1 1 13 -0.96469 0 5 -0.96469 1
gene 3 2 14 1.07418 0 6 1.07418 1
gene 1 3 15 6.36016 0 7 6.36016 1
gene 3 12 15 -0.360881 0 9 -0.360881 1
genomeend 60

/* Organism #61 Fitness: 8523.93 Error: 0 */
genomestart 61
trait 1 0.1 0 0 0 0.019138 0 0.0145529 0.000359546 
trait 2 0.13125 0.00965237 0.000704072 0.0354663 0.0815258 0.00213975 0.15371 0.0659175 
trait 3 0.288544 0 0.0299596 0.110561 0 0 0 0.16146 
node 1 3 1 1
node 2 3 1 1
node 3 1 1 1
node 4 2 1 1
node 5 2 1 1
node 6 1 1 1
node 7 3 1 1
node 8 2 1 1
node 9 3 1 1
node 10 3 1 1
node 11 2 1 3
node 12 1 0 2
node 13 3 0 2
node 14 2 0 2
node 15 3 0 2
node 16 3 0 2
gene 2 1 12 -0.674383 0 1 -0.674383 1
gene 3 2 13 -0.707953 0 2 -0.707953 1
gene 3 3 14 0.303735 0 3 0.303735 1
gene 3 4 15 -0.370647 0 4 -0.370647 1
gene 1 5 16 6.33621 0 5 6.33621 1
gene 3 6 12 3.4563 0 2 3.4563 1
gene 2 7 12 6.13532 0 3 6.13532 1
gene 1 8 12 2.49275 0 4 2.49275 1
gene 3 9 12 -5.92097 0 5 -5.92097 1
gene 1 10 12 3.66604 0 6 3.66604 1
gene 3 11 12 -5.85813 0 7 -5.85813 1
gene 1 1 13 -0.623569 0 5 -0.623569 1
gene 3 2 14 -1.51265 0 6 -1.51265 1
gene 1 3 15 8 0 7 8 1
gene 3 12 15 -1.94143 0 9 -1.94143 1
genomeend 61

/* Organism #65 Fitness: 5587.16 Error: 0 */
genomestart 65
trait 1 0.1 0 0 0 0.019138 0 0.0145529 0.000359546 
trait 2 0.13125 0.00965237 0.000704072 0.0354663 0.0815258 0.00213975 0.15371 0.0659175 
trait 3 0.288544 0 0.0299596 0.110561 0 0 0 0.16146 
node 1 3 1 1
node 2 3 1 1
node 3 1 1 1
node 4 2 1 1
node 5 2 1 1
node 6 1 1 1
node 7 3 1 1
node 8 2 1 1
node 9 3 1 1
node 10 3 1 1
node 11 2 1 3
node 12 1 0 2
node 13 3 0 2
node 14 2 0 2
node 15 3 0 2
node 16 3 0 2
gene 2 1 12 -0.106815 0 1 -0.106815 1
gene 3 2 13 3.47523 0 2 3.47523 1
gene 3 3 14 -1.32504 0 3 -1.32504 1
gene 3 4 15 -0.176016 0 4 -0.176016 1
gene 1 5 16 3.77647 0 5 3.77647 1
gene 3 6 12 1.61939 0 2 1.61939 1
gene 2 7 12 6.64223 0 3 6.64223 1
gene 1 8 12 0.733818 0 4 0.733818 1
gene 3 9 12 -3.60286 0 5 -3.60286 1
gene 1 10 12 1.21311 0 6 1.21311 1
gene 3 11 12 -8 0 7 -8 1
gene 1 1 13 1.36624 0 5 1.36624 1
gene 3 2 14 -1.035 0 6 -1.035 1
gene 1 3 15 8 0 7 8 1
gene 3 12 15 -0.611744 0 9 -0.611744 1
genomeend 65
