
/* Species #1 : (Size 14) (AF 0) (Age 1)  */


/* Organism #2651 Fitness: 308401 Error: 0 */
genomestart 2651
trait 1 0.1 0 0.026784 0.0524388 0.157532 0.249103 0.139602 0.00030634 
trait 2 0.117968 0.132428 0.00873768 0.0354663 0.227404 0.00213975 0.182889 0.0705728 
trait 3 0.35645 0.0388424 0.0473273 0.42098 0.185404 0 0 0.182342 
node 1 1 1 1
node 2 1 1 1
node 3 2 1 1
node 4 3 1 1
node 5 3 1 1
node 6 3 1 1
node 7 1 1 1
node 8 3 1 1
node 9 2 1 1
node 10 2 1 1
node 11 3 1 3
node 12 2 0 2
node 13 1 0 2
node 14 1 0 2
node 15 3 0 2
node 16 1 0 2
node 20 1 0 0
gene 3 1 12 4.73756 0 1 4.73756 1
gene 1 2 13 0.939455 0 2 0.939455 1
gene 1 3 14 0.0274667 0 3 0.0274667 0
gene 3 4 15 0.179983 0 4 0.179983 1
gene 1 5 16 2.47409 0 5 2.47409 1
gene 3 6 12 7.61142 0 2 7.61142 1
gene 2 7 12 -4.15952 0 3 -4.15952 1
gene 2 8 12 3.89324 0 4 3.89324 1
gene 2 9 12 5.6246 0 5 5.6246 1
gene 2 10 12 2.14037 0 6 2.14037 1
gene 2 11 12 6.62778 0 7 6.62778 1
gene 3 1 13 -0.750069 0 5 -0.750069 1
gene 1 2 14 0.629357 0 6 0.629357 1
gene 1 3 15 1.72948 0 7 1.72948 1
gene 2 8 13 7.21512 0 12 7.21512 1
gene 1 3 20 1.12453 0 18 1.12453 1
gene 1 20 14 0.989331 0 19 0.989331 1
genomeend 2651

/* Organism #2243 Fitness: 302600 Error: 0 */
genomestart 2243
trait 1 0.1 0 0.0266995 0.0524423 0.157351 0.248561 0.139207 0.000306409 
trait 2 0.117984 0.132428 0.00872439 0.0354663 0.227404 0.00213975 0.182854 0.0705678 
trait 3 0.35645 0.0388424 0.0472725 0.42098 0.185348 0 0 0.182342 
node 1 1 1 1
node 2 1 1 1
node 3 2 1 1
node 4 3 1 1
node 5 3 1 1
node 6 3 1 1
node 7 1 1 1
node 8 3 1 1
node 9 2 1 1
node 10 2 1 1
node 11 3 1 3
node 12 2 0 2
node 13 1 0 2
node 14 1 0 2
node 15 3 0 2
node 16 1 0 2
node 20 1 0 0
gene 3 1 12 4.73756 0 1 4.73756 1
gene 1 2 13 1.34596 0 2 1.34596 1
gene 1 3 14 0.0274667 0 3 0.0274667 0
gene 3 4 15 0.179983 0 4 0.179983 1
gene 1 5 16 -0.191856 0 5 -0.191856 1
gene 3 6 12 -1.62732 0 2 -1.62732 1
gene 2 7 12 -4.15952 0 3 -4.15952 1
gene 2 8 12 3.89324 0 4 3.89324 1
gene 2 9 12 5.6246 0 5 5.6246 1
gene 2 10 12 2.14037 0 6 2.14037 1
gene 2 11 12 3.95191 0 7 3.95191 1
gene 3 1 13 -0.750069 0 5 -0.750069 1
gene 1 2 14 0.629357 0 6 0.629357 1
gene 1 3 15 1.72948 0 7 1.72948 1
gene 2 8 13 7.21512 0 12 7.21512 1
gene 1 3 20 1.12453 0 18 1.12453 1
gene 1 20 14 0.989331 0 19 0.989331 1
gene 1 1 16 0.338511 0 310 0.338511 1
genomeend 2243

/* Organism #3365 Fitness: 226091 Error: 0 */
genomestart 3365
trait 1 0.1 0 0.0267418 0.0524406 0.157442 0.248832 0.139404 0.000306374 
trait 2 0.117976 0.132428 0.00873103 0.0354663 0.227404 0.00213975 0.182872 0.0705703 
trait 3 0.35645 0.0388424 0.0472999 0.42098 0.185376 0 0 0.182342 
node 1 1 1 1
node 2 1 1 1
node 3 2 1 1
node 4 3 1 1
node 5 3 1 1
node 6 3 1 1
node 7 1 1 1
node 8 3 1 1
node 9 2 1 1
node 10 2 1 1
node 11 3 1 3
node 12 2 0 2
node 13 1 0 2
node 14 1 0 2
node 15 3 0 2
node 16 1 0 2
node 20 1 0 0
gene 3 1 12 4.73756 0 1 4.73756 1
gene 1 2 13 1.34596 0 2 1.34596 1
gene 1 3 14 0.0274667 0 3 0.0274667 0
gene 3 4 15 0.179983 0 4 0.179983 1
gene 1 5 16 2.47409 0 5 2.47409 1
gene 3 6 12 7.61142 0 2 7.61142 1
gene 2 7 12 -4.15952 0 3 -4.15952 1
gene 2 8 12 3.89324 0 4 3.89324 1
gene 2 9 12 5.6246 0 5 5.6246 1
gene 2 10 12 2.14037 0 6 2.14037 1
gene 2 11 12 6.62778 0 7 6.62778 1
gene 3 1 13 -0.750069 0 5 -0.750069 1
gene 1 2 14 0.629357 0 6 0.629357 1
gene 1 3 15 1.72948 0 7 1.72948 1
gene 2 8 13 7.21512 0 12 7.21512 1
gene 1 3 20 1.12453 0 18 1.12453 1
gene 1 20 14 0.989331 0 19 0.989331 1
genomeend 3365

/* Organism #4115 Fitness: 139492 Error: 0 */
genomestart 4115
trait 1 0.1 0 0.0267629 0.0524397 0.157487 0.248968 0.139503 0.000306357 
trait 2 0.117972 0.132428 0.00873436 0.0354663 0.227404 0.00213975 0.18288 0.0705715 
trait 3 0.35645 0.0388424 0.0473136 0.42098 0.18539 0 0 0.182342 
node 1 1 1 1
node 2 1 1 1
node 3 2 1 1
node 4 3 1 1
node 5 3 1 1
node 6 3 1 1
node 7 1 1 1
node 8 3 1 1
node 9 2 1 1
node 10 2 1 1
node 11 3 1 3
node 12 2 0 2
node 13 1 0 2
node 14 1 0 2
node 15 3 0 2
node 16 1 0 2
node 20 1 0 0
gene 3 1 12 4.73756 0 1 4.73756 1
gene 1 2 13 1.34596 0 2 1.34596 1
gene 1 3 14 0.0274667 0 3 0.0274667 0
gene 3 4 15 0.179983 0 4 0.179983 1
gene 1 5 16 2.47409 0 5 2.47409 1
gene 3 6 12 7.61142 0 2 7.61142 1
gene 2 7 12 -4.15952 0 3 -4.15952 1
gene 2 8 12 3.89324 0 4 3.89324 1
gene 2 9 12 5.6246 0 5 5.6246 1
gene 2 10 12 2.14037 0 6 2.14037 1
gene 2 11 12 6.62778 0 7 6.62778 1
gene 3 1 13 -0.750069 0 5 -0.750069 1
gene 1 2 14 0.629357 0 6 0.629357 1
gene 1 3 15 1.72948 0 7 1.72948 1
gene 2 8 13 7.21512 0 12 7.21512 1
gene 1 3 20 1.12453 0 18 1.12453 1
gene 1 20 14 0.989331 0 19 0.989331 1
genomeend 4115

/* Organism #4044 Fitness: 137443 Error: 0 */
genomestart 4044
trait 1 0.1 0 0.0267629 0.0524397 0.157487 0.248968 0.139503 0.000306357 
trait 2 0.117972 0.132428 0.00873436 0.0354663 0.227404 0.00213975 0.18288 0.0705715 
trait 3 0.35645 0.0388424 0.0473136 0.42098 0.18539 0 0 0.182342 
node 1 1 1 1
node 2 1 1 1
node 3 2 1 1
node 4 3 1 1
node 5 3 1 1
node 6 3 1 1
node 7 1 1 1
node 8 3 1 1
node 9 2 1 1
node 10 2 1 1
node 11 3 1 3
node 12 2 0 2
node 13 1 0 2
node 14 1 0 2
node 15 3 0 2
node 16 1 0 2
node 20 1 0 0
node 49 1 0 0
gene 3 1 12 4.73756 0 1 4.73756 1
gene 1 2 13 1.14271 0 2 1.14271 1
gene 1 3 14 0.0274667 0 3 0.0274667 1
gene 3 4 15 0.179983 0 4 0.179983 1
gene 1 5 16 2.47409 0 5 2.47409 0
gene 3 6 12 7.61142 0 2 7.61142 1
gene 2 7 12 -4.15952 0 3 -4.15952 1
gene 2 8 12 3.89324 0 4 3.89324 1
gene 2 9 12 5.6246 0 5 5.6246 1
gene 2 10 12 2.14037 0 6 2.14037 1
gene 2 11 12 6.62778 0 7 6.62778 1
gene 3 1 13 -0.750069 0 5 -0.750069 1
gene 1 2 14 0.629357 0 6 0.629357 1
gene 1 3 15 1.72948 0 7 1.72948 1
gene 2 8 13 7.21512 0 12 7.21512 1
gene 1 3 20 1.12453 0 18 1.12453 1
gene 1 20 14 0.989331 0 19 0.989331 1
gene 1 5 49 1 0 279 0 1
gene 1 49 16 2.47409 0 280 0 1
genomeend 4044

/* Organism #4077 Fitness: 137307 Error: 0 */
genomestart 4077
trait 1 0.1 0 0.0267629 0.0524397 0.157487 0.248968 0.139503 0.000306357 
trait 2 0.117972 0.132428 0.00873436 0.0354663 0.227404 0.00213975 0.18288 0.0705715 
trait 3 0.35645 0.0388424 0.0473136 0.42098 0.18539 0 0 0.182342 
node 1 1 1 1
node 2 1 1 1
node 3 2 1 1
node 4 3 1 1
node 5 3 1 1
node 6 3 1 1
node 7 1 1 1
node 8 3 1 1
node 9 2 1 1
node 10 2 1 1
node 11 3 1 3
node 12 2 0 2
node 13 1 0 2
node 14 1 0 2
node 15 3 0 2
node 16 1 0 2
node 20 1 0 0
gene 3 1 12 4.73756 0 1 4.73756 1
gene 1 2 13 1.14271 0 2 1.14271 1
gene 1 3 14 0.0274667 0 3 0.0274667 1
gene 3 4 15 0.179983 0 4 0.179983 1
gene 1 5 16 2.47409 0 5 2.47409 1
gene 3 6 12 7.61142 0 2 7.61142 1
gene 2 7 12 -4.15952 0 3 -4.15952 1
gene 2 8 12 3.89324 0 4 3.89324 1
gene 2 9 12 5.6246 0 5 5.6246 1
gene 2 10 12 2.14037 0 6 2.14037 1
gene 2 11 12 6.62778 0 7 6.62778 1
gene 3 1 13 -0.750069 0 5 -0.750069 1
gene 1 2 14 0.629357 0 6 0.629357 1
gene 1 3 15 1.72948 0 7 1.72948 1
gene 2 8 13 7.21512 0 12 7.21512 1
gene 1 3 20 1.12453 0 18 1.12453 1
gene 1 20 14 0.989331 0 19 0.989331 1
genomeend 4077

/* Organism #3816 Fitness: 77240 Error: 0 */
genomestart 3816
trait 1 0.1 0 0.0267629 0.0524397 0.157487 0.248968 0.139503 0.000306357 
trait 2 0.117972 0.132428 0.00873436 0.0354663 0.227404 0.00213975 0.18288 0.0705715 
trait 3 0.35645 0.0388424 0.0473136 0.42098 0.18539 0 0 0.182342 
node 1 1 1 1
node 2 1 1 1
node 3 2 1 1
node 4 3 1 1
node 5 3 1 1
node 6 3 1 1
node 7 1 1 1
node 8 3 1 1
node 9 2 1 1
node 10 2 1 1
node 11 3 1 3
node 12 2 0 2
node 13 1 0 2
node 14 1 0 2
node 15 3 0 2
node 16 1 0 2
node 20 1 0 0
gene 3 1 12 3.12023 0 1 3.12023 1
gene 1 2 13 2.97145 0 2 2.97145 1
gene 1 3 14 1.98836 0 3 1.98836 0
gene 3 4 15 0.280236 0 4 0.280236 1
gene 1 5 16 3.89808 0 5 3.89808 1
gene 3 6 12 5.1897 0 2 5.1897 1
gene 2 7 12 -5.7461 0 3 -5.7461 1
gene 2 8 12 2.23891 0 4 2.23891 1
gene 2 9 12 7.84315 0 5 7.84315 1
gene 2 10 12 2.43991 0 6 2.43991 1
gene 2 11 12 6.43185 0 7 6.43185 1
gene 3 1 13 -0.946379 0 5 -0.946379 1
gene 1 2 14 3.10876 0 6 3.10876 1
gene 1 3 15 3.01027 0 7 3.01027 1
gene 2 8 13 7.21512 0 12 7.21512 1
gene 1 3 20 2.1012 0 18 2.1012 1
gene 1 20 14 0.989331 0 19 0.989331 1
genomeend 3816

/* Organism #4607 Fitness: 71183 Error: 0 */
genomestart 4607
trait 1 0.1 0 0.0267629 0.0524397 0.157487 0.248968 0.139503 0.000306357 
trait 2 0.117972 0.132428 0.00873436 0.0354663 0.227404 0.00213975 0.18288 0.0705715 
trait 3 0.35645 0.0388424 0.0473136 0.42098 0.18539 0 0 0.182342 
node 1 1 1 1
node 2 1 1 1
node 3 2 1 1
node 4 3 1 1
node 5 3 1 1
node 6 3 1 1
node 7 1 1 1
node 8 3 1 1
node 9 2 1 1
node 10 2 1 1
node 11 3 1 3
node 12 2 0 2
node 13 1 0 2
node 14 1 0 2
node 15 3 0 2
node 16 1 0 2
node 20 1 0 0
gene 3 1 12 4.73756 0 1 4.73756 1
gene 1 2 13 1.14271 0 2 1.14271 1
gene 1 3 14 0.0274667 0 3 0.0274667 0
gene 3 4 15 0.179983 0 4 0.179983 1
gene 1 5 16 2.47409 0 5 2.47409 1
gene 3 6 12 7.61142 0 2 7.61142 1
gene 2 7 12 -4.15952 0 3 -4.15952 1
gene 2 8 12 3.89324 0 4 3.89324 1
gene 2 9 12 5.6246 0 5 5.6246 1
gene 2 10 12 2.14037 0 6 2.14037 1
gene 2 11 12 6.62778 0 7 6.62778 1
gene 3 1 13 -0.750069 0 5 -0.750069 1
gene 1 2 14 0.629357 0 6 0.629357 1
gene 1 3 15 1.72948 0 7 1.72948 1
gene 2 8 13 7.21512 0 12 7.21512 1
gene 1 3 20 1.12453 0 18 1.12453 1
gene 1 20 14 0.989331 0 19 0.989331 1
genomeend 4607

/* Organism #4747 Fitness: 55673 Error: 0 */
genomestart 4747
trait 1 0.1 0 0.0267418 0.0524406 0.157442 0.248832 0.139404 0.000306374 
trait 2 0.117976 0.132428 0.00873103 0.0354663 0.227404 0.00213975 0.182872 0.0705703 
trait 3 0.35645 0.0388424 0.0472999 0.42098 0.185376 0 0 0.182342 
node 1 1 1 1
node 2 1 1 1
node 3 2 1 1
node 4 3 1 1
node 5 3 1 1
node 6 3 1 1
node 7 1 1 1
node 8 3 1 1
node 9 2 1 1
node 10 2 1 1
node 11 3 1 3
node 12 2 0 2
node 13 1 0 2
node 14 1 0 2
node 15 3 0 2
node 16 1 0 2
node 20 1 0 0
gene 3 1 12 4.73756 0 1 4.73756 1
gene 1 2 13 1.34596 0 2 1.34596 1
gene 1 3 14 0.0274667 0 3 0.0274667 0
gene 3 4 15 0.179983 0 4 0.179983 1
gene 1 5 16 2.47409 0 5 2.47409 1
gene 3 6 12 -1.62732 0 2 -1.62732 1
gene 2 7 12 -4.15952 0 3 -4.15952 1
gene 2 8 12 3.89324 0 4 3.89324 1
gene 2 9 12 5.6246 0 5 5.6246 1
gene 2 10 12 2.14037 0 6 2.14037 1
gene 2 11 12 3.95191 0 7 3.95191 1
gene 3 1 13 -0.750069 0 5 -0.750069 1
gene 1 2 14 0.629357 0 6 0.629357 1
gene 1 3 15 1.72948 0 7 1.72948 1
gene 2 8 13 7.21512 0 12 7.21512 1
gene 1 3 20 1.12453 0 18 1.12453 1
gene 1 20 14 0.989331 0 19 0.989331 1
genomeend 4747

/* Organism #4896 Fitness: 20499 Error: 0 */
genomestart 4896
trait 1 0.1 0 0.0267206 0.0524414 0.157397 0.248697 0.139306 0.000306392 
trait 2 0.11798 0.132428 0.00872771 0.0354663 0.227404 0.00213975 0.182863 0.070569 
trait 3 0.35645 0.0388424 0.0472862 0.42098 0 0 0.507736 0.44236 
node 1 1 1 1
node 2 1 1 1
node 3 2 1 1
node 4 3 1 1
node 5 3 1 1
node 6 3 1 1
node 7 1 1 1
node 8 3 1 1
node 9 1 1 1
node 10 2 1 1
node 11 3 1 3
node 12 2 0 2
node 13 1 0 2
node 14 1 0 2
node 15 3 0 2
node 16 1 0 2
node 20 1 0 0
gene 3 1 12 4.73756 0 1 4.73756 1
gene 1 2 13 1.34596 0 2 1.34596 1
gene 1 3 14 0.0274667 0 3 0.0274667 1
gene 3 4 15 0.179983 0 4 0.179983 1
gene 1 5 16 1.14112 0 5 1.14112 1
gene 3 6 12 2.99205 0 2 2.99205 1
gene 2 7 12 -4.15952 0 3 -4.15952 1
gene 2 8 12 3.89324 0 4 3.89324 1
gene 2 9 12 5.6246 0 5 5.6246 1
gene 2 10 12 2.14037 0 6 2.14037 1
gene 2 11 12 5.28984 0 7 5.28984 1
gene 3 1 13 -0.750069 0 5 -0.750069 1
gene 1 2 14 0.629357 0 6 0.629357 1
gene 1 3 15 1.72948 0 7 1.72948 1
gene 2 8 13 7.21512 0 12 7.21512 1
gene 1 3 20 1.12453 0 18 1.12453 1
gene 1 20 14 0.989331 0 19 0.989331 1
genomeend 4896

/* Organism #4862 Fitness: 15738 Error: 0 */
genomestart 4862
trait 1 0.1 0 0.0267418 0.0524406 0.157442 0.248832 0.139404 0.000306374 
trait 2 0.117976 0.132428 0.00873103 0.0354663 0.227404 0.00213975 0.182872 0.0705703 
trait 3 0.35645 0.0388424 0.0472999 0.42098 0.185376 0 0 0.182342 
node 1 1 1 1
node 2 1 1 1
node 3 2 1 1
node 4 3 1 1
node 5 3 1 1
node 6 3 1 1
node 7 1 1 1
node 8 3 1 1
node 9 2 1 1
node 10 2 1 1
node 11 3 1 3
node 12 2 0 2
node 13 1 0 2
node 14 1 0 2
node 15 3 0 2
node 16 1 0 2
node 20 1 0 0
node 56 1 0 0
gene 3 1 12 4.73756 0 1 4.73756 1
gene 1 2 13 1.34596 0 2 1.34596 1
gene 1 3 14 0.0274667 0 3 0.0274667 0
gene 3 4 15 0.179983 0 4 0.179983 1
gene 1 5 16 2.47409 0 5 2.47409 1
gene 3 6 12 7.61142 0 2 7.61142 1
gene 2 7 12 -4.15952 0 3 -4.15952 1
gene 2 8 12 3.89324 0 4 3.89324 1
gene 2 9 12 5.6246 0 5 5.6246 1
gene 2 10 12 2.14037 0 6 2.14037 1
gene 2 11 12 6.62778 0 7 6.62778 1
gene 3 1 13 -0.750069 0 5 -0.750069 1
gene 1 2 14 0.629357 0 6 0.629357 1
gene 1 3 15 1.72948 0 7 1.72948 0
gene 2 8 13 7.21512 0 12 7.21512 1
gene 1 3 20 1.12453 0 18 1.12453 1
gene 1 20 14 0.989331 0 19 0.989331 1
gene 1 3 56 1 0 306 0 1
gene 1 56 15 1.72948 0 307 0 1
genomeend 4862

/* Organism #3838 Fitness: 12326 Error: 0 */
genomestart 3838
trait 1 0.1 0 0.0267418 0.0524406 0.157442 0.248832 0.139404 0.000306374 
trait 2 0.117976 0.132428 0.00873103 0.0354663 0.227404 0.00213975 0.182872 0.0705703 
trait 3 0.35645 0.0388424 0.0472999 0.42098 0.185376 0 0 0.182342 
node 1 1 1 1
node 2 1 1 1
node 3 2 1 1
node 4 3 1 1
node 5 3 1 1
node 6 3 1 1
node 7 1 1 1
node 8 3 1 1
node 9 2 1 1
node 10 2 1 1
node 11 3 1 3
node 12 2 0 2
node 13 1 0 2
node 14 1 0 2
node 15 3 0 2
node 16 1 0 2
node 20 1 0 0
gene 3 1 12 4.76389 0 1 4.76389 1
gene 1 2 13 -1.47839 0 2 -1.47839 1
gene 1 3 14 -2.39937 0 3 -2.39937 1
gene 3 4 15 -1.86346 0 4 -1.86346 1
gene 1 5 16 2.47409 0 5 2.47409 1
gene 3 6 12 1.70598 0 2 1.70598 1
gene 2 7 12 -2.76673 0 3 -2.76673 1
gene 2 8 12 2.34061 0 4 2.34061 1
gene 2 9 12 3.86079 0 5 3.86079 1
gene 2 10 12 3.62067 0 6 3.62067 1
gene 2 11 12 6.2601 0 7 6.2601 1
gene 3 1 13 0.144353 0 5 0.144353 1
gene 1 2 14 -1.34847 0 6 -1.34847 1
gene 1 3 15 4.21598 0 7 4.21598 1
gene 2 8 13 1.78472 0 12 1.78472 1
gene 1 3 20 -1.74329 0 18 -1.74329 1
gene 1 20 14 -0.546895 0 19 -0.546895 1
genomeend 3838

/* Organism #3782 Fitness: 12155 Error: 0 */
genomestart 3782
trait 1 0.1 0 0.0266995 0.0524423 0.157351 0.248561 0.139207 0.000306409 
trait 2 0.117984 0.132428 0.00872439 0.0354663 0.227404 0.00213975 0.182854 0.0705678 
trait 3 0.35645 0.0388424 0.0472725 0.42098 0.185348 0 0 0.182342 
node 1 1 1 1
node 2 1 1 1
node 3 2 1 1
node 4 3 1 1
node 5 3 1 1
node 6 3 1 1
node 7 1 1 1
node 8 3 1 1
node 9 2 1 1
node 10 2 1 1
node 11 3 1 3
node 12 2 0 2
node 13 1 0 2
node 14 1 0 2
node 15 3 0 2
node 16 1 0 2
node 20 1 0 0
gene 3 1 12 2.33637 0 1 2.33637 1
gene 1 2 13 1.49085 0 2 1.49085 1
gene 1 3 14 1.35907 0 3 1.35907 0
gene 3 4 15 0.49501 0 4 0.49501 1
gene 1 5 16 1.40197 0 5 1.40197 1
gene 3 6 12 1.01367 0 2 1.01367 1
gene 2 7 12 -2.52006 0 3 -2.52006 1
gene 2 8 12 1.87902 0 4 1.87902 1
gene 2 9 12 4.8708 0 5 4.8708 1
gene 2 10 12 -2.16033 0 6 -2.16033 1
gene 2 11 12 3.53259 0 7 3.53259 1
gene 3 1 13 0.0345622 0 5 0.0345622 1
gene 1 2 14 2.08746 0 6 2.08746 1
gene 1 3 15 2.75262 0 7 2.75262 1
gene 2 8 13 7.52938 0 12 7.52938 1
gene 1 3 20 -0.797678 0 18 -0.797678 1
gene 1 20 14 -0.688119 0 19 -0.688119 1
gene 1 1 16 0.338511 0 310 0.338511 1
genomeend 3782

/* Organism #5269 Fitness: 0 Error: 0 */
genomestart 5269
trait 1 0.1 0 0.0267418 0.0524406 0.157442 0.248832 0.139404 0.000306374 
trait 2 0.117976 0.132428 0.00873103 0.0354663 0.227404 0.00213975 0.182872 0.0705703 
trait 3 0.35645 0.0388424 0.0472999 0.42098 0.185376 0 0 0.182342 
node 1 1 1 1
node 2 1 1 1
node 3 2 1 1
node 4 3 1 1
node 5 3 1 1
node 6 3 1 1
node 7 1 1 1
node 8 3 1 1
node 9 2 1 1
node 10 2 1 1
node 11 3 1 3
node 12 2 0 2
node 13 1 0 2
node 14 1 0 2
node 15 3 0 2
node 16 1 0 2
node 20 1 0 0
gene 3 1 12 6.16705 0 1 6.16705 1
gene 1 2 13 1.14271 0 2 1.14271 1
gene 1 3 14 -1.8508 0 3 -1.8508 0
gene 3 4 15 -1.86377 0 4 -1.86377 1
gene 1 5 16 -1.54408 0 5 -1.54408 1
gene 3 6 12 3.2008 0 2 3.2008 1
gene 2 7 12 -5.12078 0 3 -5.12078 1
gene 2 8 12 3.89324 0 4 3.89324 1
gene 2 9 12 7.72985 0 5 7.72985 1
gene 2 10 12 3.39216 0 6 3.39216 1
gene 2 11 12 5.90899 0 7 5.90899 1
gene 3 1 13 -0.0167089 0 5 -0.0167089 1
gene 1 2 14 1.89542 0 6 1.89542 1
gene 1 3 15 1.72948 0 7 1.72948 1
gene 2 8 13 5.38172 0 12 5.38172 1
gene 1 3 20 2.23075 0 18 2.23075 1
gene 1 20 14 -0.106208 0 19 -0.106208 1
genomeend 5269

/* Species #2 : (Size 7) (AF 0) (Age 1)  */


/* Organism #4052 Fitness: 10152 Error: 0 */
genomestart 4052
trait 1 0.1 0 0.0297413 0.0523154 0.163837 0.268069 0.153408 0.000303915 
trait 2 0.117407 0.132428 0.00920261 0.0354663 0.227404 0.00213975 0.184121 0.070749 
trait 3 0.35645 0.0388424 0.0492459 0.42098 0.187351 0 0 0.182342 
node 1 1 1 1
node 2 1 1 1
node 3 2 1 1
node 4 3 1 1
node 5 3 1 1
node 6 3 1 1
node 7 1 1 1
node 8 3 1 1
node 9 3 1 1
node 10 2 1 1
node 11 3 1 3
node 12 2 0 2
node 13 1 0 2
node 14 1 0 2
node 15 3 0 2
node 16 1 0 2
node 20 1 0 0
node 38 1 0 0
gene 3 1 12 0.691092 0 1 0.691092 1
gene 1 2 13 4.08298 0 2 4.08298 1
gene 1 3 14 -1.98661 0 3 -1.98661 1
gene 3 4 15 -0.781884 0 4 -0.781884 0
gene 1 5 16 1.535 0 5 1.535 1
gene 3 6 12 1.1375 0 2 1.1375 1
gene 2 7 12 -2.59541 0 3 -2.59541 1
gene 2 8 12 -2.48848 0 4 -2.48848 1
gene 1 9 12 5.5694 0 5 5.5694 1
gene 2 10 12 2.4044 0 6 2.4044 1
gene 2 11 12 -0.672094 0 7 -0.672094 1
gene 3 1 13 4.66171 0 5 4.66171 1
gene 1 2 14 -4.39757 0 6 -4.39757 1
gene 1 3 15 -3.47088 0 7 -3.47088 1
gene 2 8 13 8 0 12 8 1
gene 1 3 20 1.45444 0 18 1.45444 1
gene 1 20 14 -0.233161 0 19 -0.233161 1
gene 2 11 13 4.77483 0 161 4.77483 1
gene 3 4 38 0.161443 0 169 0.161443 1
gene 3 38 15 -0.44144 0 170 -0.44144 1
genomeend 4052

/* Organism #2462 Fitness: 7764 Error: 0 */
genomestart 2462
trait 1 0.1 0 0.0297413 0.0523154 0.163837 0.268069 0.153408 0.000303915 
trait 2 0.117407 0.132428 0.00920261 0.0354663 0.227404 0.00213975 0.184121 0.070749 
trait 3 0.35645 0.0388424 0.0492459 0.42098 0.187351 0 0 0.182342 
node 1 1 1 1
node 2 1 1 1
node 3 2 1 1
node 4 3 1 1
node 5 3 1 1
node 6 3 1 1
node 7 1 1 1
node 8 3 1 1
node 9 2 1 1
node 10 2 1 1
node 11 3 1 3
node 12 2 0 2
node 13 1 0 2
node 14 1 0 2
node 15 3 0 2
node 16 1 0 2
node 20 1 0 0
node 38 1 0 0
gene 3 1 12 1.11566 0 1 1.11566 1
gene 1 2 13 2.20533 0 2 2.20533 1
gene 1 3 14 -2.95573 0 3 -2.95573 1
gene 3 4 15 4.68422 0 4 4.68422 0
gene 1 5 16 -1.56017 0 5 -1.56017 1
gene 3 6 12 0.357607 0 2 0.357607 1
gene 2 7 12 -5.2168 0 3 -5.2168 1
gene 2 8 12 1.95845 0 4 1.95845 1
gene 1 9 12 4.15418 0 5 4.15418 1
gene 2 10 12 2.49911 0 6 2.49911 1
gene 2 11 12 3.78065 0 7 3.78065 1
gene 3 1 13 5.46953 0 5 5.46953 1
gene 1 2 14 -1.63732 0 6 -1.63732 1
gene 1 3 15 -3.6176 0 7 -3.6176 1
gene 2 8 13 8 0 12 8 1
gene 1 3 20 -0.483524 0 18 -0.483524 1
gene 1 20 14 2.01125 0 19 2.01125 1
gene 2 11 13 3.36663 0 161 3.36663 1
gene 3 4 38 -1.15467 0 169 -1.15467 1
gene 3 38 15 -0.970173 0 170 -0.970173 1
genomeend 2462

/* Organism #3418 Fitness: 7087 Error: 0 */
genomestart 3418
trait 1 0.1 0 0.0297413 0.0523154 0.163837 0.268069 0.153408 0.000303915 
trait 2 0.117407 0.132428 0.00920261 0.0354663 0.227404 0.00213975 0.184121 0.070749 
trait 3 0.35645 0.0388424 0.0492459 0.42098 0.187351 0 0 0.182342 
node 1 1 1 1
node 2 2 1 1
node 3 2 1 1
node 4 3 1 1
node 5 3 1 1
node 6 3 1 1
node 7 1 1 1
node 8 3 1 1
node 9 2 1 1
node 10 2 1 1
node 11 3 1 3
node 12 2 0 2
node 13 1 0 2
node 14 1 0 2
node 15 3 0 2
node 16 1 0 2
node 20 1 0 0
node 38 1 0 0
gene 3 1 12 0.911311 0 1 0.911311 1
gene 1 2 13 4.2597 0 2 4.2597 1
gene 1 3 14 -1.60505 0 3 -1.60505 1
gene 3 4 15 -1.67219 0 4 -1.67219 0
gene 1 5 16 0.811945 0 5 0.811945 1
gene 3 6 12 3.00143 0 2 3.00143 1
gene 2 7 12 -3.59444 0 3 -3.59444 1
gene 2 8 12 -2.76648 0 4 -2.76648 1
gene 1 9 12 2.72881 0 5 2.72881 1
gene 2 10 12 0.914249 0 6 0.914249 1
gene 2 11 12 2.95424 0 7 2.95424 1
gene 3 1 13 4.60841 0 5 4.60841 1
gene 1 2 14 -0.938597 0 6 -0.938597 1
gene 1 3 15 -2.29206 0 7 -2.29206 1
gene 2 8 13 3.56141 0 12 3.56141 1
gene 1 3 20 1.08704 0 18 1.08704 1
gene 1 20 14 1.59886 0 19 1.59886 1
gene 2 11 13 7.0918 0 161 7.0918 1
gene 3 4 38 -4.4171 0 169 -4.4171 1
gene 3 38 15 -2.11624 0 170 -2.11624 1
gene 1 11 20 -2.63739 0 275 -2.63739 1
genomeend 3418

/* Organism #5249 Fitness: 6983 Error: 0 */
genomestart 5249
trait 1 0.1 0 0.0297413 0.0523154 0.163837 0.268069 0.153408 0.000303915 
trait 2 0.117407 0.132428 0.00920261 0.0354663 0.227404 0.00213975 0.184121 0.070749 
trait 3 0.35645 0.0388424 0.0492459 0.42098 0.187351 0 0 0.182342 
node 1 1 1 1
node 2 1 1 1
node 3 2 1 1
node 4 3 1 1
node 5 3 1 1
node 6 3 1 1
node 7 1 1 1
node 8 3 1 1
node 9 3 1 1
node 10 2 1 1
node 11 3 1 3
node 12 2 0 2
node 13 1 0 2
node 14 1 0 2
node 15 3 0 2
node 16 1 0 2
node 20 1 0 0
node 38 1 0 0
gene 3 1 12 2.56691 0 1 2.56691 1
gene 1 2 13 5.10695 0 2 5.10695 1
gene 1 3 14 -1.38433 0 3 -1.38433 1
gene 3 4 15 0.615558 0 4 0.615558 0
gene 1 5 16 -0.206534 0 5 -0.206534 1
gene 3 6 12 -0.784021 0 2 -0.784021 1
gene 2 7 12 -2.04516 0 3 -2.04516 1
gene 2 8 12 1.36166 0 4 1.36166 1
gene 1 9 12 4.84481 0 5 4.84481 1
gene 2 10 12 1.16268 0 6 1.16268 1
gene 2 11 12 -0.672094 0 7 -0.672094 1
gene 3 1 13 4.54978 0 5 4.54978 1
gene 1 2 14 -1.89765 0 6 -1.89765 1
gene 1 3 15 -2.11578 0 7 -2.11578 1
gene 2 8 13 8 0 12 8 1
gene 1 3 20 3.79795 0 18 3.79795 1
gene 1 20 14 -0.233161 0 19 -0.233161 1
gene 2 11 13 4.77483 0 161 4.77483 1
gene 3 4 38 2.34672 0 169 2.34672 1
gene 3 38 15 -0.44144 0 170 -0.44144 1
genomeend 5249

/* Organism #4433 Fitness: 6333 Error: 0 */
genomestart 4433
trait 1 0.1 0 0.0297413 0.0523154 0.163837 0.268069 0.153408 0.000303915 
trait 2 0.117407 0.132428 0.00920261 0.0354663 0.227404 0.00213975 0.184121 0.070749 
trait 3 0.35645 0.0388424 0.0492459 0.42098 0.187351 0 0 0.182342 
node 1 1 1 1
node 2 1 1 1
node 3 2 1 1
node 4 3 1 1
node 5 3 1 1
node 6 3 1 1
node 7 1 1 1
node 8 3 1 1
node 9 3 1 1
node 10 2 1 1
node 11 3 1 3
node 12 2 0 2
node 13 1 0 2
node 14 1 0 2
node 15 3 0 2
node 16 1 0 2
node 20 1 0 0
node 38 1 0 0
gene 3 1 12 -1.58483 0 1 -1.58483 1
gene 1 2 13 4.08298 0 2 4.08298 1
gene 1 3 14 -2.76765 0 3 -2.76765 1
gene 3 4 15 0.400937 0 4 0.400937 0
gene 1 5 16 1.97676 0 5 1.97676 1
gene 3 6 12 -0.867336 0 2 -0.867336 1
gene 2 7 12 -3.41361 0 3 -3.41361 1
gene 2 8 12 1.95845 0 4 1.95845 1
gene 1 9 12 5.5694 0 5 5.5694 1
gene 2 10 12 0.764565 0 6 0.764565 1
gene 2 11 12 1.9461 0 7 1.9461 1
gene 3 1 13 2.63085 0 5 2.63085 1
gene 1 2 14 -1.09196 0 6 -1.09196 1
gene 1 3 15 -3.84336 0 7 -3.84336 1
gene 2 8 13 7.38734 0 12 7.38734 1
gene 1 3 20 1.31741 0 18 1.31741 1
gene 1 20 14 -0.233161 0 19 -0.233161 1
gene 2 11 13 2.41758 0 161 2.41758 1
gene 3 4 38 -1.03801 0 169 -1.03801 1
gene 3 38 15 -0.970173 0 170 -0.970173 1
gene 2 4 13 0.194159 0 351 0 1
genomeend 4433

/* Organism #4182 Fitness: 5797 Error: 0 */
genomestart 4182
trait 1 0.1 0 0.0297413 0.0523154 0.163837 0.268069 0.153408 0.000303915 
trait 2 0.117407 0.132428 0.00920261 0.0354663 0.227404 0.00213975 0.184121 0.070749 
trait 3 0.35645 0.0388424 0.500248 0.42098 0.187351 0 0 0.182342 
node 1 1 1 1
node 2 1 1 1
node 3 2 1 1
node 4 3 1 1
node 5 3 1 1
node 6 3 1 1
node 7 1 1 1
node 8 3 1 1
node 9 2 1 1
node 10 2 1 1
node 11 3 1 3
node 12 2 0 2
node 13 1 0 2
node 14 1 0 2
node 15 3 0 2
node 16 1 0 2
node 20 1 0 0
node 38 1 0 0
gene 3 1 12 2.51478 0 1 2.51478 1
gene 1 2 13 -0.262934 0 2 -0.262934 1
gene 1 3 14 2.22831 0 3 2.22831 1
gene 3 4 15 3.64285 0 4 3.64285 0
gene 1 5 16 1.15322 0 5 1.15322 1
gene 3 6 12 1.34106 0 2 1.34106 1
gene 2 7 12 -2.51461 0 3 -2.51461 1
gene 2 8 12 3.07054 0 4 3.07054 1
gene 1 9 12 -0.749992 0 5 -0.749992 1
gene 2 10 12 2.67696 0 6 2.67696 1
gene 2 11 12 2.66688 0 7 2.66688 1
gene 3 1 13 7.04108 0 5 7.04108 1
gene 1 2 14 -3.12075 0 6 -3.12075 1
gene 1 3 15 -2.93917 0 7 -2.93917 1
gene 2 8 13 8 0 12 8 1
gene 1 3 20 1.55164 0 18 1.55164 1
gene 1 20 14 -1.87498 0 19 -1.87498 1
gene 2 11 13 3.48543 0 161 3.48543 1
gene 3 4 38 0.298929 0 169 0.298929 1
gene 3 38 15 -1.1909 0 170 -1.1909 1
genomeend 4182

/* Organism #5268 Fitness: 5562.83 Error: 0 */
genomestart 5268
trait 1 0.1 0 0.0297413 0.0523154 0.163837 0.268069 0.153408 0.000303915 
trait 2 0.117407 0.132428 0.00920261 0.0354663 0.227404 0.00213975 0.184121 0.070749 
trait 3 0.35645 0.0388424 0.0492459 0.42098 0.187351 0 0 0.182342 
node 1 1 1 1
node 2 1 1 1
node 3 2 1 1
node 4 3 1 1
node 5 3 1 1
node 6 3 1 1
node 7 1 1 1
node 8 3 1 1
node 9 2 1 1
node 10 2 1 1
node 11 3 1 3
node 12 2 0 2
node 13 1 0 2
node 14 1 0 2
node 15 3 0 2
node 16 1 0 2
node 20 1 0 0
node 38 1 0 0
gene 3 1 12 0.242451 0 1 0.242451 1
gene 1 2 13 2.20533 0 2 2.20533 1
gene 1 3 14 1.38676 0 3 1.38676 1
gene 3 4 15 4.02739 0 4 4.02739 0
gene 1 5 16 -1.03182 0 5 -1.03182 1
gene 3 6 12 0.478759 0 2 0.478759 1
gene 2 7 12 -3.8781 0 3 -3.8781 1
gene 2 8 12 3.31668 0 4 3.31668 1
gene 1 9 12 3.12593 0 5 3.12593 1
gene 2 10 12 4.35815 0 6 4.35815 1
gene 2 11 12 -0.931806 0 7 -0.931806 1
gene 3 1 13 -1.97241 0 5 -1.97241 1
gene 1 2 14 -0.0184686 0 6 -0.0184686 1
gene 1 3 15 -5.78883 0 7 -5.78883 1
gene 2 8 13 2.19817 0 12 2.19817 1
gene 1 3 20 -0.133137 0 18 -0.133137 1
gene 1 20 14 -0.383007 0 19 -0.383007 1
gene 2 11 13 4.11266 0 161 4.11266 1
gene 3 4 38 0.499588 0 169 0.499588 1
gene 3 38 15 1.15781 0 170 1.15781 1
genomeend 5268

/* Species #4 : (Size 6) (AF 0) (Age 1)  */


/* Organism #2242 Fitness: 11478 Error: 0 */
genomestart 2242
trait 1 0.1 0 0.032445 0.0522026 0.169602 0.285409 0.166031 0.000301699 
trait 2 0.116894 0.255204 0.00962769 0 1 0.00213975 0.185247 0.487152 
trait 3 0.433448 0 0.687097 0.42098 1 0 0.919736 0 
node 1 1 1 1
node 2 1 1 1
node 3 2 1 1
node 4 3 1 1
node 5 3 1 1
node 6 3 1 1
node 7 1 1 1
node 8 3 1 1
node 9 2 1 1
node 10 2 1 1
node 11 3 1 3
node 12 2 0 2
node 13 1 0 2
node 14 1 0 2
node 15 3 0 2
node 16 1 0 2
node 20 1 0 0
node 39 1 0 0
gene 3 1 12 -1.96254 0 1 -1.96254 1
gene 1 2 13 -0.361775 0 2 -0.361775 1
gene 1 3 14 0.554686 0 3 0.554686 0
gene 3 4 15 4.33473 0 4 4.33473 1
gene 1 5 16 -6.50716 0 5 -6.50716 1
gene 3 6 12 2.45565 0 2 2.45565 1
gene 2 7 12 2.24935 0 3 2.24935 1
gene 2 8 12 0.475023 0 4 0.475023 1
gene 1 9 12 -0.797098 0 5 -0.797098 1
gene 2 10 12 2.61936 0 6 2.61936 1
gene 2 11 12 3.39978 0 7 3.39978 1
gene 3 1 13 7.11913 0 5 7.11913 1
gene 1 2 14 5.39684 0 6 5.39684 1
gene 1 3 15 -1.48436 0 7 -1.48436 1
gene 2 8 13 6.77584 0 12 6.77584 1
gene 1 3 20 -1.18528 0 18 -1.18528 1
gene 1 20 14 2.45482 0 19 2.45482 1
gene 1 5 39 5.60302 0 171 5.60302 1
gene 1 39 16 0.963703 0 172 0.963703 1
gene 3 8 39 1.48771 0 231 1.48771 1
gene 3 10 16 -0.866787 0 303 0 1
genomeend 2242

/* Organism #4827 Fitness: 8503 Error: 0 */
genomestart 4827
trait 1 0.1 0 0.032445 0.0522026 0.169602 0.285409 0.166031 0.000301699 
trait 2 0.116894 0.255204 0.00962769 0 1 0.00213975 0.185247 0.487152 
trait 3 0.394949 0 0.687097 0.42098 1 0 0.919736 0 
node 1 1 1 1
node 2 1 1 1
node 3 2 1 1
node 4 3 1 1
node 5 3 1 1
node 6 3 1 1
node 7 1 1 1
node 8 3 1 1
node 9 2 1 1
node 10 2 1 1
node 11 3 1 3
node 12 2 0 2
node 13 1 0 2
node 14 1 0 2
node 15 3 0 2
node 16 1 0 2
node 20 1 0 0
node 39 1 0 0
gene 3 1 12 -1.88723 0 1 -1.88723 1
gene 1 2 13 -1.23661 0 2 -1.23661 1
gene 1 3 14 0.806909 0 3 0.806909 0
gene 3 4 15 2.19501 0 4 2.19501 1
gene 1 5 16 -8 0 5 -8 0
gene 3 6 12 5.88198 0 2 5.88198 1
gene 2 7 12 -1.657 0 3 -1.657 1
gene 2 8 12 -1.5804 0 4 -1.5804 1
gene 1 9 12 -1.45569 0 5 -1.45569 1
gene 2 10 12 0.625972 0 6 0.625972 1
gene 2 11 12 3.21211 0 7 3.21211 1
gene 3 1 13 5.67545 0 5 5.67545 1
gene 1 2 14 5.6769 0 6 5.6769 1
gene 1 3 15 -1.76239 0 7 -1.76239 1
gene 2 8 13 4.66137 0 12 4.66137 1
gene 1 3 20 0.871592 0 18 0.871592 1
gene 1 20 14 1.21131 0 19 1.21131 1
gene 1 5 39 7.24158 0 171 7.24158 1
gene 1 39 16 1.21556 0 172 1.21556 1
gene 3 8 39 3.23185 0 231 3.23185 1
genomeend 4827

/* Organism #1389 Fitness: 7859 Error: 0 */
genomestart 1389
trait 1 0.1 0 0.032445 0.0522026 0.169602 0.285409 0.166031 0.000301699 
trait 2 0.116894 0.255204 0.00962769 0 1 0.00213975 0.185247 0.487152 
trait 3 0.35645 0 0.687097 0.42098 1 0 0.919736 0 
node 1 1 1 1
node 2 1 1 1
node 3 2 1 1
node 4 3 1 1
node 5 3 1 1
node 6 3 1 1
node 7 1 1 1
node 8 3 1 1
node 9 2 1 1
node 10 2 1 1
node 11 3 1 3
node 12 2 0 2
node 13 1 0 2
node 14 1 0 2
node 15 3 0 2
node 16 1 0 2
node 20 1 0 0
node 39 1 0 0
gene 3 1 12 -1.45432 0 1 -1.45432 1
gene 1 2 13 -0.621662 0 2 -0.621662 1
gene 1 3 14 0.19879 0 3 0.19879 0
gene 3 4 15 4.46658 0 4 4.46658 1
gene 1 5 16 -6.06864 0 5 -6.06864 0
gene 3 6 12 4.70099 0 2 4.70099 1
gene 2 7 12 0.750755 0 3 0.750755 1
gene 2 8 12 1.28124 0 4 1.28124 1
gene 1 9 12 -1.62713 0 5 -1.62713 1
gene 2 10 12 -1.16413 0 6 -1.16413 1
gene 2 11 12 4.23059 0 7 4.23059 1
gene 3 1 13 7.42068 0 5 7.42068 1
gene 1 2 14 5.76205 0 6 5.76205 1
gene 1 3 15 -2.18818 0 7 -2.18818 1
gene 2 8 13 8 0 12 8 1
gene 1 3 20 -0.548723 0 18 -0.548723 1
gene 1 20 14 2.82765 0 19 2.82765 1
gene 1 5 39 6.00169 0 171 6.00169 1
gene 1 39 16 -0.65363 0 172 -0.65363 1
gene 3 8 39 2.41369 0 231 2.41369 1
genomeend 1389

/* Organism #5089 Fitness: 7444 Error: 0 */
genomestart 5089
trait 1 0.1 0 0.032445 0.0522026 0.169602 0.285409 0.166031 0.000301699 
trait 2 0.116894 0.255204 0.00962769 0 1 0.00213975 0.185247 0.487152 
trait 3 0.433448 0 0.687097 0.42098 1 0 0.919736 0 
node 1 1 1 1
node 2 1 1 1
node 3 2 1 1
node 4 3 1 1
node 5 3 1 1
node 6 3 1 1
node 7 1 1 1
node 8 3 1 1
node 9 2 1 1
node 10 2 1 1
node 11 3 1 3
node 12 2 0 2
node 13 1 0 2
node 14 1 0 2
node 15 3 0 2
node 16 1 0 2
node 20 1 0 0
node 39 1 0 0
gene 3 1 12 0.643788 0 1 0.643788 1
gene 1 2 13 1.55288 0 2 1.55288 1
gene 1 3 14 -1.79989 0 3 -1.79989 0
gene 3 4 15 6.71937 0 4 6.71937 1
gene 1 5 16 -5.92433 0 5 -5.92433 1
gene 3 6 12 4.88256 0 2 4.88256 1
gene 2 7 12 1.37186 0 3 1.37186 1
gene 2 8 12 1.3226 0 4 1.3226 1
gene 1 9 12 -0.790842 0 5 -0.790842 1
gene 2 10 12 0.901325 0 6 0.901325 1
gene 2 11 12 2.99702 0 7 2.99702 1
gene 3 1 13 -1.08951 0 5 -1.08951 1
gene 1 2 14 6.54037 0 6 6.54037 1
gene 1 3 15 -3.14839 0 7 -3.14839 1
gene 2 8 13 6.17806 0 12 6.17806 1
gene 1 3 20 -3.42442 0 18 -3.42442 1
gene 1 20 14 -2.28233 0 19 -2.28233 1
gene 1 5 39 6.77539 0 171 6.77539 1
gene 1 39 16 -1.46618 0 172 -1.46618 1
gene 3 8 39 2.2161 0 231 2.2161 1
gene 3 10 16 1.04344 0 303 1.04344 1
genomeend 5089

/* Organism #2269 Fitness: 7349 Error: 0 */
genomestart 2269
trait 1 0.1 0 0.032445 0.0522026 0.169602 0.285409 0.166031 0.000301699 
trait 2 0.116894 0.255204 0.00962769 0 1 0.00213975 0.185247 0.487152 
trait 3 0.35645 0 0.687097 0.42098 1 0 0.919736 0 
node 1 1 1 1
node 2 1 1 1
node 3 2 1 1
node 4 3 1 1
node 5 3 1 1
node 6 3 1 1
node 7 1 1 1
node 8 3 1 1
node 9 2 1 1
node 10 2 1 1
node 11 3 1 3
node 12 2 0 2
node 13 1 0 2
node 14 1 0 2
node 15 3 0 2
node 16 1 0 2
node 20 1 0 0
node 39 1 0 0
node 61 1 0 0
gene 3 1 12 -1.89502 0 1 -1.89502 1
gene 1 2 13 -0.01133 0 2 -0.01133 1
gene 1 3 14 1.27854 0 3 1.27854 0
gene 3 4 15 5.05989 0 4 5.05989 1
gene 1 5 16 -7.51716 0 5 -7.51716 1
gene 3 6 12 1.95662 0 2 1.95662 1
gene 2 7 12 2.25556 0 3 2.25556 1
gene 2 8 12 0.206553 0 4 0.206553 1
gene 1 9 12 -0.500997 0 5 -0.500997 1
gene 2 10 12 3.43084 0 6 3.43084 1
gene 2 11 12 3.42707 0 7 3.42707 1
gene 3 1 13 7.01074 0 5 7.01074 1
gene 1 2 14 5.39016 0 6 5.39016 0
gene 1 3 15 -1.67381 0 7 -1.67381 1
gene 2 8 13 8 0 12 8 1
gene 1 3 20 -1.16947 0 18 -1.16947 1
gene 1 20 14 2.06954 0 19 2.06954 1
gene 1 5 39 6.00169 0 171 6.00169 1
gene 1 39 16 1.49678 0 172 1.49678 1
gene 3 8 39 1.60333 0 231 1.60333 1
gene 1 2 61 1 0 346 0 1
gene 1 61 14 5.39016 0 347 0 1
genomeend 2269

/* Organism #4130 Fitness: 6223 Error: 0 */
genomestart 4130
trait 1 0.1 0 0.032445 0.0522026 0.169602 0.285409 0.166031 0.000301699 
trait 2 0.116894 0.255204 0.00962769 0 1 0.00213975 0.185247 0.487152 
trait 3 0.471947 0 0.687097 0.42098 1 0 0.919736 0 
node 1 1 1 1
node 2 1 1 1
node 3 2 1 1
node 4 3 1 1
node 5 3 1 1
node 6 3 1 1
node 7 1 1 1
node 8 3 1 1
node 9 2 1 1
node 10 2 1 1
node 11 3 1 3
node 12 2 0 2
node 13 1 0 2
node 14 1 0 2
node 15 3 0 2
node 16 1 0 2
node 20 1 0 0
node 39 1 0 0
gene 3 1 12 -2.48425 0 1 -2.48425 1
gene 1 2 13 1.73625 0 2 1.73625 1
gene 1 3 14 4.16295 0 3 4.16295 1
gene 3 4 15 2.39845 0 4 2.39845 1
gene 1 5 16 -7.00782 0 5 -7.00782 1
gene 3 6 12 1.93603 0 2 1.93603 1
gene 2 7 12 3.40255 0 3 3.40255 1
gene 2 8 12 0.0485244 0 4 0.0485244 1
gene 1 9 12 2.3838 0 5 2.3838 1
gene 2 10 12 0.911283 0 6 0.911283 1
gene 2 11 12 -1.4539 0 7 -1.4539 1
gene 3 1 13 8 0 5 8 1
gene 1 2 14 1.62366 0 6 1.62366 1
gene 1 3 15 -0.822942 0 7 -0.822942 1
gene 2 8 13 3.87911 0 12 3.87911 1
gene 1 3 20 -3.14744 0 18 -3.14744 1
gene 1 20 14 1.85377 0 19 1.85377 1
gene 1 5 39 0.785928 0 171 0.785928 1
gene 1 39 16 2.35412 0 172 2.35412 1
gene 3 8 39 2.29652 0 231 2.29652 1
gene 1 11 20 0.197012 0 275 0.197012 1
genomeend 4130

/* Species #7 : (Size 8) (AF 0) (Age 1)  */


/* Organism #2916 Fitness: 19839 Error: 0 */
genomestart 2916
trait 1 1 0 0.0268685 0 0 0.249645 0.00815616 0 
trait 2 0.117952 0.132428 0.00875096 0.0354663 0.227404 0.00213975 0.182924 0.0705778 
trait 3 0.35645 0.0388424 0.0473821 0.42098 0.18546 0 0 0.182342 
node 1 1 1 1
node 2 1 1 1
node 3 2 1 1
node 4 3 1 1
node 5 3 1 1
node 6 3 1 1
node 7 1 1 1
node 8 3 1 1
node 9 2 1 1
node 10 2 1 1
node 11 3 1 3
node 12 2 0 2
node 13 1 0 2
node 14 1 0 2
node 15 3 0 2
node 16 1 0 2
node 20 1 0 0
node 53 1 0 0
node 59 1 0 0
gene 3 1 12 7.03394 0 1 7.03394 1
gene 1 2 13 0.164132 0 2 0.164132 1
gene 1 3 14 -0.405667 0 3 -0.405667 0
gene 3 4 15 3.83122 0 4 3.83122 1
gene 1 5 16 4.3621 0 5 4.3621 1
gene 3 6 12 8 0 2 8 1
gene 2 7 12 -3.37296 0 3 -3.37296 1
gene 2 8 12 1.71662 0 4 1.71662 1
gene 1 9 12 3.05391 0 5 3.05391 1
gene 2 10 12 0.672018 0 6 0.672018 1
gene 2 11 12 2.19472 0 7 2.19472 1
gene 3 1 13 5.51017 0 5 5.51017 1
gene 1 2 14 -1.093 0 6 -1.093 1
gene 1 3 15 -3.54244 0 7 -3.54244 1
gene 2 8 13 4.54546 0 12 4.54546 0
gene 1 3 20 2.40249 0 18 2.40249 0
gene 1 20 14 2.84379 0 19 2.84379 1
gene 2 8 53 0.112156 0 294 0.112156 1
gene 2 53 13 8 0 295 8 1
gene 1 3 59 -1.73582 0 327 -1.73582 1
gene 1 59 20 0.981399 0 328 0.981399 1
genomeend 2916

/* Organism #3843 Fitness: 11628 Error: 0 */
genomestart 3843
trait 1 1 0 0.0268685 0 0 0.249645 0.00815616 0 
trait 2 0.117952 0.132428 0.00875096 0.0354663 0.227404 0.00213975 0.182924 0.0705778 
trait 3 0.35645 0.0388424 0.0473821 0.42098 0.18546 0 0 0.182342 
node 1 1 1 1
node 2 1 1 1
node 3 2 1 1
node 4 3 1 1
node 5 3 1 1
node 6 3 1 1
node 7 1 1 1
node 8 3 1 1
node 9 2 1 1
node 10 2 1 1
node 11 3 1 3
node 12 2 0 2
node 13 1 0 2
node 14 1 0 2
node 15 3 0 2
node 16 1 0 2
node 20 1 0 0
node 53 1 0 0
node 59 1 0 0
node 67 1 0 0
gene 3 1 12 7.03394 0 1 7.03394 1
gene 1 2 13 0.164132 0 2 0.164132 1
gene 1 3 14 -0.405667 0 3 -0.405667 0
gene 3 4 15 3.83122 0 4 3.83122 1
gene 1 5 16 4.3621 0 5 4.3621 1
gene 3 6 12 8 0 2 8 1
gene 2 7 12 -3.37296 0 3 -3.37296 1
gene 2 8 12 1.71662 0 4 1.71662 1
gene 1 9 12 3.05391 0 5 3.05391 1
gene 2 10 12 0.672018 0 6 0.672018 1
gene 2 11 12 2.19472 0 7 2.19472 1
gene 3 1 13 5.51017 0 5 5.51017 0
gene 1 2 14 -1.093 0 6 -1.093 1
gene 1 3 15 -3.54244 0 7 -3.54244 1
gene 2 8 13 4.54546 0 12 4.54546 0
gene 1 3 20 2.40249 0 18 2.40249 0
gene 1 20 14 2.84379 0 19 2.84379 1
gene 2 8 53 0.112156 0 294 0.112156 1
gene 2 53 13 8 0 295 8 1
gene 1 3 59 -1.73582 0 327 -1.73582 1
gene 1 59 20 0.981399 0 328 0.981399 1
gene 3 1 67 1 0 382 0 1
gene 3 67 13 5.51017 0 383 0 1
genomeend 3843

/* Organism #4040 Fitness: 9620 Error: 0 */
genomestart 4040
trait 1 1 0 0.0268685 0 0 0.249645 0.00815616 0 
trait 2 0.117952 0.132428 0.00875096 0.0354663 0.227404 0.00213975 0.182924 0.0705778 
trait 3 0.35645 0.0388424 0.0473821 0.42098 0.18546 0 0 0.182342 
node 1 1 1 1
node 2 1 1 1
node 3 2 1 1
node 4 3 1 1
node 5 3 1 1
node 6 3 1 1
node 7 1 1 1
node 8 3 1 1
node 9 2 1 1
node 10 2 1 1
node 11 3 1 3
node 12 2 0 2
node 13 1 0 2
node 14 1 0 2
node 15 3 0 2
node 16 1 0 2
node 20 1 0 0
node 53 1 0 0
node 59 1 0 0
node 67 1 0 0
gene 3 1 12 6.29585 0 1 6.29585 1
gene 1 2 13 0.0726525 0 2 0.0726525 1
gene 1 3 14 -1.24691 0 3 -1.24691 0
gene 3 4 15 3.03667 0 4 3.03667 1
gene 1 5 16 2.46415 0 5 2.46415 1
gene 3 6 12 8 0 2 8 1
gene 2 7 12 -3.78664 0 3 -3.78664 1
gene 2 8 12 3.73153 0 4 3.73153 1
gene 1 9 12 2.94649 0 5 2.94649 1
gene 2 10 12 -1.05846 0 6 -1.05846 1
gene 2 11 12 0.117016 0 7 0.117016 1
gene 3 1 13 4.1836 0 5 4.1836 0
gene 1 2 14 0.437736 0 6 0.437736 1
gene 1 3 15 -4.69581 0 7 -4.69581 1
gene 2 8 13 3.47357 0 12 3.47357 0
gene 1 3 20 0.273751 0 18 0.273751 0
gene 1 20 14 3.40296 0 19 3.40296 1
gene 2 8 53 -1.26102 0 294 -1.26102 1
gene 2 53 13 8 0 295 8 1
gene 1 3 59 0.336543 0 327 0.336543 1
gene 1 59 20 0.981399 0 328 0.981399 1
gene 3 1 67 1 0 382 1 1
gene 3 67 13 4.09869 0 383 4.09869 1
genomeend 4040

/* Organism #4508 Fitness: 8883 Error: 0 */
genomestart 4508
trait 1 1 0 0.0268685 0 0 0.249645 0.00815616 0 
trait 2 0.117952 0.132428 0.00875096 0.0354663 0.227404 0.00213975 0.182924 0.0705778 
trait 3 0.35645 0.0388424 0.0473821 0.42098 0.18546 0 0 0.182342 
node 1 1 1 1
node 2 1 1 1
node 3 2 1 1
node 4 3 1 1
node 5 3 1 1
node 6 3 1 1
node 7 1 1 1
node 8 3 1 1
node 9 2 1 1
node 10 2 1 1
node 11 3 1 3
node 12 2 0 2
node 13 1 0 2
node 14 1 0 2
node 15 3 0 2
node 16 1 0 2
node 20 1 0 0
node 53 1 0 0
node 59 1 0 0
node 67 1 0 0
gene 3 1 12 7.03394 0 1 7.03394 1
gene 1 2 13 0.164132 0 2 0.164132 1
gene 1 3 14 -0.405667 0 3 -0.405667 0
gene 3 4 15 3.83122 0 4 3.83122 1
gene 1 5 16 4.3621 0 5 4.3621 1
gene 3 6 12 8 0 2 8 1
gene 2 7 12 -3.37296 0 3 -3.37296 1
gene 2 8 12 1.71662 0 4 1.71662 1
gene 1 9 12 3.05391 0 5 3.05391 1
gene 2 10 12 0.672018 0 6 0.672018 1
gene 2 11 12 2.19472 0 7 2.19472 1
gene 3 1 13 5.51017 0 5 5.51017 0
gene 1 2 14 -1.093 0 6 -1.093 1
gene 1 3 15 -3.54244 0 7 -3.54244 1
gene 2 8 13 4.54546 0 12 4.54546 0
gene 1 3 20 2.40249 0 18 2.40249 0
gene 1 20 14 2.84379 0 19 2.84379 1
gene 2 8 53 0.112156 0 294 0.112156 1
gene 2 53 13 8 0 295 8 1
gene 1 3 59 -1.73582 0 327 -1.73582 1
gene 1 59 20 0.981399 0 328 0.981399 1
gene 3 1 67 1 0 382 0 1
gene 3 67 13 5.51017 0 383 0 1
genomeend 4508

/* Organism #2992 Fitness: 6996 Error: 0 */
genomestart 2992
trait 1 0.634078 0 0.0268685 0 0.0788559 0.249645 0.00815616 0 
trait 2 0.117952 0.132428 0.00875096 0.0354663 0.227404 0.00213975 0.182924 0.0705778 
trait 3 0.35645 0.0388424 0.0473821 0.42098 0.18546 0 0 0.182342 
node 1 1 1 1
node 2 1 1 1
node 3 2 1 1
node 4 3 1 1
node 5 3 1 1
node 6 3 1 1
node 7 1 1 1
node 8 3 1 1
node 9 2 1 1
node 10 2 1 1
node 11 3 1 3
node 12 2 0 2
node 13 1 0 2
node 14 1 0 2
node 15 3 0 2
node 16 1 0 2
node 20 1 0 0
node 53 1 0 0
node 59 1 0 0
gene 3 1 12 7.51697 0 1 7.51697 1
gene 1 2 13 0.610274 0 2 0.610274 1
gene 1 3 14 0.339747 0 3 0.339747 0
gene 3 4 15 3.26948 0 4 3.26948 1
gene 1 5 16 3.26973 0 5 3.26973 1
gene 3 6 12 7.95483 0 2 7.95483 1
gene 2 7 12 -3.34927 0 3 -3.34927 1
gene 2 8 12 2.1625 0 4 2.1625 1
gene 1 9 12 2.48325 0 5 2.48325 1
gene 2 10 12 0.87096 0 6 0.87096 1
gene 2 11 12 2.14802 0 7 2.14802 1
gene 3 1 13 4.75102 0 5 4.75102 1
gene 1 2 14 0.112103 0 6 0.112103 1
gene 1 3 15 -2.60868 0 7 -2.60868 1
gene 2 8 13 5.59747 0 12 5.59747 1
gene 1 3 20 3.30729 0 18 3.30729 1
gene 1 20 14 1.7772 0 19 1.7772 1
gene 2 8 53 0.112156 0 294 0.112156 1
gene 2 53 13 8 0 295 8 1
gene 1 3 59 0.928022 0 327 0.928022 1
gene 1 59 20 0.981399 0 328 0.981399 1
genomeend 2992

/* Organism #3851 Fitness: 6643 Error: 0 */
genomestart 3851
trait 1 0.268157 0 0.0268685 0 0.157712 0.249645 0.00815616 0 
trait 2 0.117952 0.132428 0.00875096 0.0354663 0.227404 0.00213975 0.182924 0.0705778 
trait 3 0.35645 0.0388424 0.0473821 0.42098 0.18546 0 0 0.182342 
node 1 1 1 1
node 2 1 1 1
node 3 2 1 1
node 4 3 1 1
node 5 3 1 1
node 6 3 1 1
node 7 1 1 1
node 8 3 1 1
node 9 2 1 1
node 10 2 1 1
node 11 3 1 3
node 12 2 0 2
node 13 1 0 2
node 14 1 0 2
node 15 3 0 2
node 16 1 0 2
node 20 1 0 0
node 53 3 0 0
node 59 1 0 0
gene 3 1 12 8 0 1 8 1
gene 1 2 13 -0.365593 0 2 -0.365593 1
gene 1 3 14 1.53729 0 3 1.53729 0
gene 3 4 15 3.0298 0 4 3.0298 1
gene 1 5 16 3.40916 0 5 3.40916 1
gene 3 6 12 8 0 2 8 1
gene 2 7 12 -5.27487 0 3 -5.27487 1
gene 2 8 12 1.80734 0 4 1.80734 1
gene 1 9 12 3.31103 0 5 3.31103 1
gene 2 10 12 2.91505 0 6 2.91505 1
gene 2 11 12 1.11924 0 7 1.11924 1
gene 3 1 13 3.40889 0 5 3.40889 1
gene 1 2 14 3.22659 0 6 3.22659 1
gene 1 3 15 -1.22021 0 7 -1.22021 1
gene 2 8 13 5.19428 0 12 5.19428 0
gene 1 3 20 6.70675 0 18 6.70675 0
gene 1 20 14 1.49342 0 19 1.49342 1
gene 2 8 53 1.01794 0 294 1.01794 1
gene 2 53 13 8 0 295 8 1
gene 1 3 59 5.25008 0 327 5.25008 1
gene 1 59 20 1.85255 0 328 1.85255 1
gene 3 20 15 0.876766 0 401 0.876766 1
genomeend 3851

/* Organism #2996 Fitness: 6619 Error: 0 */
genomestart 2996
trait 1 0.634078 0 0.0268685 0 0.0788559 0.249645 0.00815616 0 
trait 2 0.117952 0.132428 0.00875096 0.0354663 0.227404 0.00213975 0.182924 0.0705778 
trait 3 0.35645 0.0388424 0.0473821 0.42098 0.18546 0 0 0.182342 
node 1 1 1 1
node 2 1 1 1
node 3 2 1 1
node 4 3 1 1
node 5 3 1 1
node 6 3 1 1
node 7 1 1 1
node 8 3 1 1
node 9 2 1 1
node 10 2 1 1
node 11 3 1 3
node 12 2 0 2
node 13 1 0 2
node 14 1 0 2
node 15 3 0 2
node 16 1 0 2
node 20 1 0 0
node 53 1 0 0
node 59 1 0 0
gene 3 1 12 7.51697 0 1 7.51697 1
gene 1 2 13 0.610274 0 2 0.610274 1
gene 1 3 14 0.339747 0 3 0.339747 0
gene 3 4 15 3.26948 0 4 3.26948 1
gene 1 5 16 3.26973 0 5 3.26973 1
gene 3 6 12 7.95483 0 2 7.95483 1
gene 2 7 12 -3.34927 0 3 -3.34927 1
gene 2 8 12 2.1625 0 4 2.1625 1
gene 1 9 12 2.48325 0 5 2.48325 1
gene 2 10 12 0.87096 0 6 0.87096 1
gene 2 11 12 2.14802 0 7 2.14802 1
gene 3 1 13 4.75102 0 5 4.75102 1
gene 1 2 14 0.112103 0 6 0.112103 1
gene 1 3 15 -2.60868 0 7 -2.60868 1
gene 2 8 13 5.59747 0 12 5.59747 0
gene 1 3 20 3.30729 0 18 3.30729 0
gene 1 20 14 1.7772 0 19 1.7772 1
gene 2 8 53 0.112156 0 294 0.112156 1
gene 2 53 13 8 0 295 8 1
gene 1 3 59 0.928022 0 327 0.928022 1
gene 1 59 20 0.981399 0 328 0.981399 1
genomeend 2996

/* Organism #5232 Fitness: 7198 Error: 0 */
genomestart 5232
trait 1 1 0 0.0268685 0 0 0.249645 0.00815616 0 
trait 2 0.117952 0.132428 0.00875096 0.0354663 0.227404 0.00213975 0.182924 0.0705778 
trait 3 0.35645 0.0388424 0.0473821 0.42098 0.18546 0 0 0.182342 
node 1 1 1 1
node 2 1 1 1
node 3 2 1 1
node 4 3 1 1
node 5 3 1 1
node 6 3 1 1
node 7 1 1 1
node 8 3 1 1
node 9 2 1 1
node 10 2 1 1
node 11 3 1 3
node 12 2 0 2
node 13 1 0 2
node 14 1 0 2
node 15 3 0 2
node 16 1 0 2
node 20 1 0 0
node 53 1 0 0
node 59 1 0 0
gene 3 1 12 7.03394 0 1 7.03394 1
gene 1 2 13 0.164132 0 2 0.164132 1
gene 1 3 14 -0.405667 0 3 -0.405667 0
gene 3 4 15 3.83122 0 4 3.83122 1
gene 1 5 16 4.3621 0 5 4.3621 1
gene 3 6 12 8 0 2 8 1
gene 2 7 12 -3.37296 0 3 -3.37296 1
gene 2 8 12 1.71662 0 4 1.71662 1
gene 1 9 12 3.05391 0 5 3.05391 1
gene 2 10 12 0.672018 0 6 0.672018 1
gene 2 11 12 2.19472 0 7 2.19472 1
gene 3 1 13 5.51017 0 5 5.51017 0
gene 1 2 14 -1.093 0 6 -1.093 1
gene 1 3 15 -3.54244 0 7 -3.54244 1
gene 2 8 13 4.54546 0 12 4.54546 0
gene 1 3 20 2.40249 0 18 2.40249 0
gene 1 20 14 2.84379 0 19 2.84379 1
gene 2 8 53 0.112156 0 294 0.112156 1
gene 2 53 13 8 0 295 8 1
gene 1 3 59 -1.73582 0 327 -1.73582 1
gene 1 59 20 0.981399 0 328 0.981399 1
genomeend 5232

/* Species #23 : (Size 1) (AF 0) (Age 1)  */


/* Organism #2972 Fitness: 267063 Error: 0 */
genomestart 2972
trait 1 0.1 0 0.026784 0.0524388 0.157532 0.249103 0.139602 0.00030634 
trait 2 0.117968 0.132428 0.00873768 0.0354663 0.227404 0.00213975 0.182889 0.0705728 
trait 3 0.35645 0.0388424 0.0473273 0.42098 0.185404 0 0 0.182342 
node 1 1 1 1
node 2 1 1 1
node 3 2 1 1
node 4 3 1 1
node 5 3 1 1
node 6 3 1 1
node 7 1 1 1
node 8 3 1 1
node 9 2 1 1
node 10 2 1 1
node 11 3 1 3
node 12 2 0 2
node 13 1 0 2
node 14 1 0 2
node 15 3 0 2
node 16 1 0 2
node 20 1 0 0
node 50 1 0 0
gene 3 1 12 4.73756 0 1 4.73756 1
gene 1 2 13 0.939455 0 2 0.939455 1
gene 1 3 14 0.0274667 0 3 0.0274667 0
gene 3 4 15 0.179983 0 4 0.179983 0
gene 1 5 16 2.47409 0 5 2.47409 1
gene 3 6 12 7.61142 0 2 7.61142 1
gene 2 7 12 -4.15952 0 3 -4.15952 1
gene 2 8 12 3.89324 0 4 3.89324 1
gene 2 9 12 5.6246 0 5 5.6246 1
gene 2 10 12 2.14037 0 6 2.14037 1
gene 2 11 12 6.62778 0 7 6.62778 1
gene 3 1 13 -0.750069 0 5 -0.750069 1
gene 1 2 14 0.629357 0 6 0.629357 1
gene 1 3 15 1.72948 0 7 1.72948 1
gene 2 8 13 7.21512 0 12 7.21512 1
gene 1 3 20 1.12453 0 18 1.12453 1
gene 1 20 14 0.989331 0 19 0.989331 1
gene 3 4 50 1 0 281 0 1
gene 3 50 15 0.179983 0 282 0 1
genomeend 2972

/* Species #33 : (Size 3) (AF 0) (Age 1)  */


/* Organism #5063 Fitness: 5933.28 Error: 0 */
genomestart 5063
trait 1 1 0 0.0268685 0 0 0.249645 0.00815616 0 
trait 2 0.117952 0.132428 0.00875096 0.0354663 0.227404 0.00213975 0.182924 0.0705778 
trait 3 0.35645 0.0388424 0.0473821 0.42098 0.18546 0 0 0.182342 
node 1 1 1 1
node 2 1 1 1
node 3 2 1 1
node 4 3 1 1
node 5 3 1 1
node 6 3 1 1
node 7 1 1 1
node 8 3 1 1
node 9 2 1 1
node 10 2 1 1
node 11 3 1 3
node 12 2 0 2
node 13 1 0 2
node 14 1 0 2
node 15 3 0 2
node 16 1 0 2
node 20 1 0 0
node 53 1 0 0
node 59 1 0 0
node 67 1 0 0
gene 3 1 12 7.03394 0 1 7.03394 1
gene 1 2 13 -1.64829 0 2 -1.64829 1
gene 1 3 14 -1.02252 0 3 -1.02252 0
gene 3 4 15 4.81292 0 4 4.81292 1
gene 1 5 16 2.77476 0 5 2.77476 1
gene 3 6 12 6.98534 0 2 6.98534 1
gene 2 7 12 -1.43877 0 3 -1.43877 1
gene 2 8 12 -0.863292 0 4 -0.863292 1
gene 1 9 12 3.05391 0 5 3.05391 1
gene 2 10 12 0.612278 0 6 0.612278 1
gene 2 11 12 2.62953 0 7 2.62953 1
gene 3 1 13 5.51017 0 5 5.51017 0
gene 1 2 14 0.131559 0 6 0.131559 1
gene 1 3 15 -5.48265 0 7 -5.48265 1
gene 2 8 13 4.54546 0 12 4.54546 0
gene 1 3 20 1.94342 0 18 1.94342 0
gene 1 20 14 2.15834 0 19 2.15834 1
gene 2 8 53 0.112156 0 294 0.112156 1
gene 2 53 13 8 0 295 8 1
gene 1 3 59 2.28805 0 327 2.28805 1
gene 1 59 20 -1.69729 0 328 -1.69729 1
gene 3 1 67 0.549409 0 382 0.549409 1
gene 3 67 13 7.01259 0 383 7.01259 1
gene 1 2 20 -1.9071 0 405 -1.9071 1
genomeend 5063

/* Organism #4164 Fitness: 5882 Error: 0 */
genomestart 4164
trait 1 1 0 0.0268685 0 0 0.249645 0.00815616 0 
trait 2 0.117952 0.132428 0.00875096 0.0354663 0.227404 0.00213975 0.182924 0.0705778 
trait 3 0.35645 0.0388424 0.0473821 0.42098 0.18546 0 0 0.182342 
node 1 1 1 1
node 2 1 1 1
node 3 2 1 1
node 4 3 1 1
node 5 3 1 1
node 6 3 1 1
node 7 1 1 1
node 8 3 1 1
node 9 2 1 1
node 10 2 1 1
node 11 3 1 3
node 12 2 0 2
node 13 1 0 2
node 14 1 0 2
node 15 3 0 2
node 16 1 0 2
node 20 1 0 0
node 53 1 0 0
node 59 1 0 0
node 67 1 0 0
gene 3 1 12 7.03394 0 1 7.03394 1
gene 1 2 13 0.164132 0 2 0.164132 1
gene 1 3 14 -0.405667 0 3 -0.405667 0
gene 3 4 15 3.83122 0 4 3.83122 1
gene 1 5 16 4.3621 0 5 4.3621 1
gene 3 6 12 8 0 2 8 1
gene 2 7 12 -3.37296 0 3 -3.37296 1
gene 2 8 12 1.71662 0 4 1.71662 1
gene 1 9 12 3.05391 0 5 3.05391 1
gene 2 10 12 0.672018 0 6 0.672018 1
gene 2 11 12 2.19472 0 7 2.19472 1
gene 3 1 13 5.51017 0 5 5.51017 0
gene 1 2 14 -1.093 0 6 -1.093 1
gene 1 3 15 -3.54244 0 7 -3.54244 1
gene 2 8 13 4.54546 0 12 4.54546 0
gene 1 3 20 2.40249 0 18 2.40249 0
gene 1 20 14 2.84379 0 19 2.84379 1
gene 2 8 53 0.112156 0 294 0.112156 1
gene 2 53 13 8 0 295 8 1
gene 1 3 59 -1.73582 0 327 -1.73582 1
gene 1 59 20 0.981399 0 328 0.981399 1
gene 3 1 67 1 0 382 0 1
gene 3 67 13 5.51017 0 383 0 1
gene 1 2 20 0.79873 0 405 0.79873 1
genomeend 4164

/* Organism #4806 Fitness: 4056 Error: 0 */
genomestart 4806
trait 1 1 0 0.0268685 0 0 0.249645 0.00815616 0 
trait 2 0.117952 0.132428 0.00875096 0.0354663 0.227404 0.00213975 0.182924 0.0705778 
trait 3 0.35645 0.0388424 0.0473821 0.42098 0.18546 0 0 0.182342 
node 1 1 1 1
node 2 1 1 1
node 3 2 1 1
node 4 3 1 1
node 5 3 1 1
node 6 3 1 1
node 7 1 1 1
node 8 3 1 1
node 9 2 1 1
node 10 2 1 1
node 11 3 1 3
node 12 2 0 2
node 13 1 0 2
node 14 1 0 2
node 15 3 0 2
node 16 1 0 2
node 20 1 0 0
node 53 1 0 0
node 59 1 0 0
node 67 1 0 0
gene 3 1 12 7.03394 0 1 7.03394 1
gene 1 2 13 0.164132 0 2 0.164132 1
gene 1 3 14 -0.405667 0 3 -0.405667 0
gene 3 4 15 3.83122 0 4 3.83122 1
gene 1 5 16 4.3621 0 5 4.3621 1
gene 3 6 12 8 0 2 8 1
gene 2 7 12 -3.37296 0 3 -3.37296 1
gene 2 8 12 1.71662 0 4 1.71662 1
gene 1 9 12 3.05391 0 5 3.05391 1
gene 2 10 12 0.672018 0 6 0.672018 1
gene 2 11 12 2.19472 0 7 2.19472 1
gene 3 1 13 5.51017 0 5 5.51017 0
gene 1 2 14 -1.093 0 6 -1.093 1
gene 1 3 15 -3.54244 0 7 -3.54244 1
gene 2 8 13 4.54546 0 12 4.54546 0
gene 1 3 20 2.40249 0 18 2.40249 0
gene 1 20 14 2.84379 0 19 2.84379 1
gene 2 8 53 0.112156 0 294 0.112156 1
gene 2 53 13 8 0 295 8 1
gene 1 3 59 -1.73582 0 327 -1.73582 1
gene 1 59 20 0.981399 0 328 0.981399 1
gene 3 1 67 1 0 382 0 1
gene 3 67 13 5.51017 0 383 0 1
gene 1 2 20 0.79873 0 405 0.79873 1
genomeend 4806

/* Species #36 : (Size 1) (AF 0) (Age 1)  */


/* Organism #4331 Fitness: 4244 Error: 0 */
genomestart 4331
trait 1 0.1 0 0.032445 0.0522026 0.169602 0.285409 0.166031 0.000301699 
trait 2 0.116894 0.255204 0.00962769 0 1 0.00213975 0.185247 0.487152 
trait 3 0.35645 0 0.687097 0.42098 1 0 0.919736 0 
node 1 1 1 1
node 2 1 1 1
node 3 2 1 1
node 4 3 1 1
node 5 3 1 1
node 6 3 1 1
node 7 1 1 1
node 8 3 1 1
node 9 2 1 1
node 10 2 1 1
node 11 3 1 3
node 12 2 0 2
node 13 1 0 2
node 14 1 0 2
node 15 3 0 2
node 16 1 0 2
node 20 1 0 0
node 39 1 0 0
node 51 1 0 0
gene 3 1 12 -1.45432 0 1 -1.45432 1
gene 1 2 13 -0.621662 0 2 -0.621662 1
gene 1 3 14 0.19879 0 3 0.19879 0
gene 3 4 15 4.46658 0 4 4.46658 1
gene 1 5 16 -6.06864 0 5 -6.06864 0
gene 3 6 12 4.70099 0 2 4.70099 1
gene 2 7 12 0.750755 0 3 0.750755 0
gene 2 8 12 1.28124 0 4 1.28124 1
gene 1 9 12 -1.62713 0 5 -1.62713 1
gene 2 10 12 -1.16413 0 6 -1.16413 1
gene 2 11 12 4.23059 0 7 4.23059 1
gene 3 1 13 7.42068 0 5 7.42068 1
gene 1 2 14 5.76205 0 6 5.76205 1
gene 1 3 15 -2.18818 0 7 -2.18818 1
gene 2 8 13 8 0 12 8 1
gene 1 3 20 -0.548723 0 18 -0.548723 1
gene 1 20 14 2.82765 0 19 2.82765 1
gene 1 5 39 6.00169 0 171 6.00169 1
gene 1 39 16 -0.65363 0 172 -0.65363 1
gene 3 8 39 2.41369 0 231 2.41369 1
gene 2 7 51 1 0 286 0 1
gene 2 51 12 0.750755 0 287 0 1
genomeend 4331
