
/* Species #1 : (Size 3) (AF 0) (Age 1)  */


/* Organism #1079 Fitness: 3585.26 Error: 0 */
genomestart 1079
trait 1 0.1 0 0.0267734 0.0524392 0.409501 0 0.396457 0 
trait 2 0.11797 0.132428 0.369038 0.0354663 0 0 0.182885 0.0705722 
trait 3 0.35645 0.0388424 0 1 0.185397 0 0 0.182342 
node 1 1 1 1
node 2 1 1 1
node 3 2 1 1
node 4 3 1 1
node 5 3 1 1
node 6 1 1 1
node 7 1 1 1
node 8 2 1 1
node 9 2 1 1
node 10 2 1 1
node 11 3 1 3
node 12 2 0 2
node 13 1 0 2
node 14 1 0 2
node 15 3 0 2
node 16 1 0 2
node 20 1 0 0
node 50 1 0 0
node 85 1 0 0
gene 3 1 12 -0.14275 0 1 -0.14275 1
gene 1 2 13 4.66788 0 2 4.66788 1
gene 1 3 14 6.00414 0 3 6.00414 1
gene 2 4 15 -4.17874 0 4 -4.17874 1
gene 1 5 16 6.4233 0 5 6.4233 0
gene 3 6 12 -0.987121 0 2 -0.987121 1
gene 2 7 12 4.52994 0 3 4.52994 1
gene 2 8 12 6.59706 0 4 6.59706 1
gene 2 9 12 -0.930013 0 5 -0.930013 1
gene 2 10 12 3.83064 0 6 3.83064 1
gene 2 11 12 -1.61939 0 7 -1.61939 1
gene 3 1 13 -2.87072 0 5 -2.87072 1
gene 1 2 14 0.274514 0 6 0.274514 1
gene 1 3 15 8 0 7 8 1
gene 2 8 13 5.1403 0 12 5.1403 1
gene 1 3 20 4.10512 0 18 4.10512 1
gene 1 20 14 3.74031 0 19 3.74031 1
gene 3 4 50 -5.7627 0 281 -5.7627 1
gene 3 50 15 8 0 282 8 1
gene 2 10 85 -1.66936 0 499 -1.66936 1
gene 2 85 12 1.29292 0 500 1.29292 1
gene 3 85 50 -0.699637 0 531 -0.699637 1
gene 3 6 85 -0.633045 0 563 -0.633045 1
genomeend 1079

/* Organism #1475 Fitness: 3272.82 Error: 0 */
genomestart 1475
trait 1 0.1 0 0.0267734 0.0524392 0.409501 0 0.396457 0 
trait 2 0.11797 0.132428 0.369038 0.0354663 0 0 0.182885 0.0705722 
trait 3 0.35645 0.0388424 0 1 0.185397 0 0 0.182342 
node 1 1 1 1
node 2 1 1 1
node 3 2 1 1
node 4 3 1 1
node 5 3 1 1
node 6 1 1 1
node 7 1 1 1
node 8 2 1 1
node 9 2 1 1
node 10 2 1 1
node 11 3 1 3
node 12 2 0 2
node 13 1 0 2
node 14 1 0 2
node 15 3 0 2
node 16 1 0 2
node 20 1 0 0
node 50 1 0 0
node 85 1 0 0
gene 3 1 12 1.80235 0 1 1.80235 1
gene 1 2 13 7.05733 0 2 7.05733 1
gene 1 3 14 5.5916 0 3 5.5916 1
gene 2 4 15 -3.65153 0 4 -3.65153 1
gene 1 5 16 7.80052 0 5 7.80052 0
gene 3 6 12 -0.932798 0 2 -0.932798 1
gene 2 7 12 5.03166 0 3 5.03166 1
gene 2 8 12 7.05461 0 4 7.05461 1
gene 2 9 12 -1.072 0 5 -1.072 1
gene 2 10 12 1.6903 0 6 1.6903 1
gene 2 11 12 -0.934095 0 7 -0.934095 1
gene 3 1 13 -0.578249 0 5 -0.578249 1
gene 1 2 14 -0.676061 0 6 -0.676061 1
gene 1 3 15 8 0 7 8 1
gene 2 8 13 5.29175 0 12 5.29175 1
gene 1 3 20 5.95248 0 18 5.95248 1
gene 1 20 14 5.16186 0 19 5.16186 1
gene 3 4 50 -4.00475 0 281 -4.00475 1
gene 3 50 15 6.09786 0 282 6.09786 1
gene 2 10 85 -2.16643 0 499 -2.16643 1
gene 2 85 12 1.76412 0 500 1.76412 1
gene 3 85 50 -0.674841 0 531 -0.674841 1
gene 3 6 85 1.27398 0 563 1.27398 1
genomeend 1475

/* Organism #1409 Fitness: 3101.55 Error: 0 */
genomestart 1409
trait 1 0.1 0.645863 0.0267734 0.0524392 0.329298 0 0.570443 0 
trait 2 0.11797 0.132428 1 0.175333 0 0 0.182885 0.0705722 
trait 3 0.35645 0.0388424 0 1 0.185397 0 0 0.182342 
node 1 1 1 1
node 2 1 1 1
node 3 2 1 1
node 4 3 1 1
node 5 3 1 1
node 6 1 1 1
node 7 1 1 1
node 8 2 1 1
node 9 2 1 1
node 10 2 1 1
node 11 3 1 3
node 12 2 0 2
node 13 1 0 2
node 14 1 0 2
node 15 3 0 2
node 16 1 0 2
node 20 1 0 0
node 50 1 0 0
node 85 1 0 0
gene 3 1 12 -2.28774 0 1 -2.28774 1
gene 1 2 13 5.54994 0 2 5.54994 1
gene 1 3 14 5.30953 0 3 5.30953 1
gene 2 4 15 -6.21738 0 4 -6.21738 1
gene 1 5 16 5.48432 0 5 5.48432 0
gene 3 6 12 -0.43527 0 2 -0.43527 1
gene 2 7 12 5.93249 0 3 5.93249 1
gene 2 8 12 8 0 4 8 1
gene 2 9 12 -3.23675 0 5 -3.23675 1
gene 2 10 12 3.39133 0 6 3.39133 1
gene 2 11 12 -0.687811 0 7 -0.687811 1
gene 3 1 13 -2.1102 0 5 -2.1102 1
gene 1 2 14 -2.01483 0 6 -2.01483 1
gene 1 3 15 7.81971 0 7 7.81971 1
gene 2 8 13 5.02982 0 12 5.02982 1
gene 1 3 20 3.17698 0 18 3.17698 1
gene 1 20 14 3.0969 0 19 3.0969 1
gene 3 4 50 -5.3703 0 281 -5.3703 1
gene 3 50 15 6.23504 0 282 6.23504 1
gene 2 10 85 -0.375454 0 499 -0.375454 1
gene 2 85 12 2.82739 0 500 2.82739 1
gene 3 85 50 -0.699637 0 531 -0.699637 1
gene 3 6 85 -0.633045 0 563 -0.633045 1
genomeend 1409

/* Species #2 : (Size 5) (AF 0) (Age 1)  */


/* Organism #1151 Fitness: 4163.95 Error: 0 */
genomestart 1151
trait 1 0.1 0 0.0297413 0.0523154 0.163837 0.268069 0.153408 0.000303915 
trait 2 0.117407 0.132428 0.00920261 0.0354663 0.227404 0.00213975 0.184121 0.070749 
trait 3 0.839112 0.0388424 0.0492459 0.42098 0.796838 0 0 0.0455855 
node 1 1 1 1
node 2 1 1 1
node 3 2 1 1
node 4 3 1 1
node 5 3 1 1
node 6 3 1 1
node 7 1 1 1
node 8 3 1 1
node 9 3 1 1
node 10 2 1 1
node 11 3 1 3
node 12 2 0 2
node 13 1 0 2
node 14 1 0 2
node 15 3 0 2
node 16 1 0 2
node 20 1 0 0
node 38 1 0 0
node 79 1 0 0
gene 3 1 12 -0.276803 0 1 -0.276803 0
gene 1 2 13 1.49493 0 2 1.49493 0
gene 1 3 14 -0.223325 0 3 -0.223325 1
gene 3 4 15 0.477233 0 4 0.477233 1
gene 1 5 16 -1.1774 0 5 -1.1774 1
gene 3 6 12 6.05896 0 2 6.05896 1
gene 2 7 12 -1.03168 0 3 -1.03168 1
gene 2 8 12 4.72442 0 4 4.72442 1
gene 1 9 12 6.16173 0 5 6.16173 1
gene 2 10 12 0.605182 0 6 0.605182 1
gene 2 11 12 0.785691 0 7 0.785691 1
gene 3 1 13 -0.154118 0 5 -0.154118 1
gene 1 2 14 -7.05394 0 6 -7.05394 1
gene 1 3 15 -5.29268 0 7 -5.29268 1
gene 2 8 13 1.33831 0 12 1.33831 1
gene 1 3 20 -2.36541 0 18 -2.36541 1
gene 1 20 14 -6.22135 0 19 -6.22135 1
gene 2 11 13 -1.76367 0 161 -1.76367 1
gene 3 4 38 -1.18908 0 169 -1.18908 1
gene 3 38 15 -5.54819 0 170 -5.54819 1
gene 3 1 79 -2.86515 0 480 -2.86515 1
gene 3 79 12 -2.31025 0 481 -2.31025 1
genomeend 1151

/* Organism #834 Fitness: 4341.28 Error: 0 */
genomestart 834
trait 1 0.1 0 0.0297413 0.0523154 0.163837 0.268069 0.153408 0.000303915 
trait 2 0.117407 0.132428 0.00920261 0.0354663 0.227404 0.00213975 0.184121 0.070749 
trait 3 0.839112 0.0388424 0.0492459 0.42098 0.796838 0 0 0.0455855 
node 1 1 1 1
node 2 1 1 1
node 3 2 1 1
node 4 3 1 1
node 5 3 1 1
node 6 3 1 1
node 7 1 1 1
node 8 3 1 1
node 9 3 1 1
node 10 2 1 1
node 11 3 1 3
node 12 2 0 2
node 13 1 0 2
node 14 1 0 2
node 15 3 0 2
node 16 1 0 2
node 20 1 0 0
node 38 1 0 0
node 79 1 0 0
gene 3 1 12 0.95439 0 1 0.95439 0
gene 1 2 13 1.92959 0 2 1.92959 0
gene 1 3 14 -2.19146 0 3 -2.19146 1
gene 3 4 15 0.41612 0 4 0.41612 1
gene 1 5 16 -1.12056 0 5 -1.12056 1
gene 3 6 12 4.44278 0 2 4.44278 1
gene 2 7 12 1.01299 0 3 1.01299 1
gene 2 8 12 2.71744 0 4 2.71744 1
gene 1 9 12 4.01711 0 5 4.01711 1
gene 2 10 12 0.242622 0 6 0.242622 1
gene 2 11 12 1.5865 0 7 1.5865 1
gene 3 1 13 -1.90931 0 5 -1.90931 1
gene 1 2 14 -5.98876 0 6 -5.98876 1
gene 1 3 15 -4.06026 0 7 -4.06026 1
gene 2 8 13 1.05174 0 12 1.05174 1
gene 1 3 20 -1.70171 0 18 -1.70171 1
gene 1 20 14 -4.1081 0 19 -4.1081 1
gene 2 11 13 -0.865279 0 161 -0.865279 1
gene 3 4 38 -0.199438 0 169 -0.199438 1
gene 3 38 15 -3.66405 0 170 -3.66405 1
gene 3 1 79 -2.86515 0 480 -2.86515 1
gene 3 79 12 -0.940733 0 481 -0.940733 1
genomeend 834

/* Organism #1478 Fitness: 4140.77 Error: 0 */
genomestart 1478
trait 1 0.1 0 0.0297413 0.0523154 0.163837 0.268069 0.153408 0.000303915 
trait 2 0.117407 0.132428 0.00920261 0.0354663 0.227404 0.00213975 0.184121 0.070749 
trait 3 0.839112 0.0388424 0.0492459 0.42098 0.796838 0 0 0.0455855 
node 1 1 1 1
node 2 1 1 1
node 3 2 1 1
node 4 3 1 1
node 5 3 1 1
node 6 3 1 1
node 7 1 1 1
node 8 3 1 1
node 9 3 1 1
node 10 2 1 1
node 11 3 1 3
node 12 2 0 2
node 13 1 0 2
node 14 1 0 2
node 15 3 0 2
node 16 1 0 2
node 20 1 0 0
node 38 1 0 0
node 79 1 0 0
gene 3 1 12 1.04228 0 1 1.04228 0
gene 1 2 13 0.808588 0 2 0.808588 0
gene 1 3 14 1.11019 0 3 1.11019 1
gene 3 4 15 -0.765404 0 4 -0.765404 1
gene 1 5 16 0.23423 0 5 0.23423 1
gene 3 6 12 -1.27743 0 2 -1.27743 1
gene 2 7 12 1.99744 0 3 1.99744 1
gene 2 8 12 3.34712 0 4 3.34712 1
gene 1 9 12 5.2744 0 5 5.2744 1
gene 2 10 12 -0.61388 0 6 -0.61388 1
gene 2 11 12 2.01262 0 7 2.01262 1
gene 3 1 13 -1.74192 0 5 -1.74192 1
gene 1 2 14 -8 0 6 -8 1
gene 1 3 15 2.49657 0 7 2.49657 1
gene 2 8 13 1.69621 0 12 1.69621 1
gene 1 3 20 -0.540407 0 18 -0.540407 1
gene 1 20 14 0.348369 0 19 0.348369 1
gene 2 11 13 -0.865279 0 161 -0.865279 1
gene 3 4 38 -0.127644 0 169 -0.127644 1
gene 3 38 15 -0.908994 0 170 -0.908994 1
gene 3 1 79 -2.4057 0 480 -2.4057 1
gene 3 79 12 0.0204474 0 481 0.0204474 1
genomeend 1478

/* Organism #1443 Fitness: 4225.83 Error: 0 */
genomestart 1443
trait 1 0.1 0 0.0297413 0.0523154 0.163837 0.268069 0.153408 0.000303915 
trait 2 0.117407 0.132428 0.00920261 0.0354663 0.227404 0.00213975 0.184121 0.070749 
trait 3 0.839112 0.0388424 0.0492459 0.42098 0.796838 0 0 0.0455855 
node 1 1 1 1
node 2 1 1 1
node 3 2 1 1
node 4 3 1 1
node 5 3 1 1
node 6 3 1 1
node 7 1 1 1
node 8 3 1 1
node 9 3 1 1
node 10 2 1 1
node 11 3 1 3
node 12 2 0 2
node 13 1 0 2
node 14 1 0 2
node 15 3 0 2
node 16 1 0 2
node 20 1 0 0
node 38 1 0 0
node 79 1 0 0
gene 3 1 12 2.24967 0 1 2.24967 0
gene 1 2 13 4.07131 0 2 4.07131 0
gene 1 3 14 -1.54951 0 3 -1.54951 1
gene 3 4 15 -1.97035 0 4 -1.97035 1
gene 1 5 16 -0.830714 0 5 -0.830714 1
gene 3 6 12 1.5894 0 2 1.5894 1
gene 2 7 12 2.84524 0 3 2.84524 1
gene 2 8 12 0.548647 0 4 0.548647 1
gene 1 9 12 2.83651 0 5 2.83651 1
gene 2 10 12 -1.45856 0 6 -1.45856 1
gene 2 11 12 1.95897 0 7 1.95897 1
gene 3 1 13 -0.0305185 0 5 -0.0305185 1
gene 1 2 14 -6.94064 0 6 -6.94064 1
gene 1 3 15 -4.25436 0 7 -4.25436 1
gene 2 8 13 -0.295045 0 12 -0.295045 1
gene 1 3 20 -3.4064 0 18 -3.4064 1
gene 1 20 14 -4.1081 0 19 -4.1081 1
gene 2 11 13 1.37005 0 161 1.37005 1
gene 3 4 38 -0.829417 0 169 -0.829417 1
gene 3 38 15 -2.57805 0 170 -2.57805 1
gene 3 1 79 -3.42723 0 480 -3.42723 1
gene 3 79 12 0.114368 0 481 0.114368 1
genomeend 1443

/* Organism #1519 Fitness: 4707.64 Error: 0 */
genomestart 1519
trait 1 0.1 0 0.0297413 0.0523154 0.163837 0.268069 0.153408 0.000303915 
trait 2 0.117407 0.132428 0.00920261 0.0354663 0.227404 0.00213975 0.184121 0.070749 
trait 3 0.839112 0.0388424 0.0492459 0.42098 0.796838 0 0 0.0455855 
node 1 1 1 1
node 2 1 1 1
node 3 2 1 1
node 4 3 1 1
node 5 3 1 1
node 6 3 1 1
node 7 1 1 1
node 8 3 1 1
node 9 3 1 1
node 10 2 1 1
node 11 3 1 3
node 12 2 0 2
node 13 1 0 2
node 14 1 0 2
node 15 3 0 2
node 16 1 0 2
node 20 1 0 0
node 38 1 0 0
node 79 1 0 0
gene 3 1 12 1.97098 0 1 1.97098 0
gene 1 2 13 6.01518 0 2 6.01518 0
gene 1 3 14 -0.794244 0 3 -0.794244 1
gene 3 4 15 0.713981 0 4 0.713981 1
gene 1 5 16 1.19388 0 5 1.19388 1
gene 3 6 12 7.34432 0 2 7.34432 1
gene 2 7 12 2.7083 0 3 2.7083 1
gene 2 8 12 -0.021325 0 4 -0.021325 1
gene 1 9 12 3.61679 0 5 3.61679 1
gene 2 10 12 0.523392 0 6 0.523392 1
gene 2 11 12 2.06304 0 7 2.06304 1
gene 3 1 13 0.529801 0 5 0.529801 1
gene 1 2 14 2.2187 0 6 2.2187 1
gene 1 3 15 -0.844523 0 7 -0.844523 1
gene 2 8 13 8 0 12 8 1
gene 1 3 20 -3.70602 0 18 -3.70602 1
gene 1 20 14 0.75966 0 19 0.75966 1
gene 2 11 13 1.03068 0 161 1.03068 1
gene 3 4 38 -1.08585 0 169 -1.08585 1
gene 3 38 15 0.269936 0 170 0.269936 1
gene 3 1 79 2.54761 0 480 2.54761 1
gene 3 79 12 4.63898 0 481 4.63898 1
genomeend 1519

/* Species #3 : (Size 7) (AF 0) (Age 1)  */


/* Organism #1326 Fitness: 6025.92 Error: 0 */
genomestart 1326
trait 1 0.1 0 0.032445 0.0522026 0.169602 0.285409 0.166031 0.000301699 
trait 2 0.116894 0.913 0.00962769 0 1 0 0.588274 0.857128 
trait 3 0.471947 0 0.687097 0.42098 1 0 0.919736 0 
node 1 1 1 1
node 2 1 1 1
node 3 2 1 1
node 4 3 1 1
node 5 3 1 1
node 6 3 1 1
node 7 1 1 1
node 8 3 1 1
node 9 2 1 1
node 10 2 1 1
node 11 3 1 3
node 12 2 0 2
node 13 1 0 2
node 14 1 0 2
node 15 3 0 2
node 16 1 0 2
node 20 1 0 0
node 39 1 0 0
node 78 1 0 0
gene 3 1 12 2.49431 0 1 2.49431 1
gene 1 2 13 0.527131 0 2 0.527131 0
gene 1 3 14 -1.5392 0 3 -1.5392 1
gene 3 4 15 -0.706426 0 4 -0.706426 1
gene 1 5 16 -0.845592 0 5 -0.845592 1
gene 3 6 12 6.67044 0 2 6.67044 1
gene 2 7 12 1.32538 0 3 1.32538 1
gene 2 8 12 2.56035 0 4 2.56035 1
gene 1 9 12 -2.57431 0 5 -2.57431 1
gene 2 10 12 1.16428 0 6 1.16428 1
gene 2 11 12 -2.33604 0 7 -2.33604 1
gene 3 1 13 3.58855 0 5 3.58855 1
gene 1 2 14 1.22997 0 6 1.22997 1
gene 1 3 15 2.22936 0 7 2.22936 1
gene 2 8 13 -1.49625 0 12 -1.49625 1
gene 1 3 20 0.814005 0 18 0.814005 1
gene 1 20 14 -0.0440977 0 19 -0.0440977 1
gene 1 5 39 4.13907 0 171 4.13907 1
gene 1 39 16 -0.679571 0 172 -0.679571 1
gene 3 8 39 -0.09888 0 231 -0.09888 1
gene 1 11 20 1.78282 0 275 1.78282 1
gene 1 4 39 -3.60981 0 422 -3.60981 1
gene 1 2 78 3.26409 0 477 3.26409 1
gene 1 78 13 -1.43345 0 478 -1.43345 1
genomeend 1326

/* Organism #1509 Fitness: 4619.97 Error: 0 */
genomestart 1509
trait 1 0.1 0 0.032445 0.0522026 0.169602 0.285409 0.166031 0.000301699 
trait 2 0.116894 0.913 0.00962769 0 1 0 0.588274 0.857128 
trait 3 0.471947 0 0.687097 0.42098 1 0 0.919736 0 
node 1 1 1 1
node 2 1 1 1
node 3 2 1 1
node 4 3 1 1
node 5 3 1 1
node 6 3 1 1
node 7 1 1 1
node 8 3 1 1
node 9 2 1 1
node 10 2 1 1
node 11 3 1 3
node 12 2 0 2
node 13 1 0 2
node 14 1 0 2
node 15 3 0 2
node 16 1 0 2
node 20 1 0 0
node 39 1 0 0
gene 3 1 12 3.50356 0 1 3.50356 1
gene 1 2 13 0.100787 0 2 0.100787 1
gene 1 3 14 5.26322 0 3 5.26322 1
gene 3 4 15 -1.00192 0 4 -1.00192 1
gene 1 5 16 1.96356 0 5 1.96356 1
gene 3 6 12 2.1563 0 2 2.1563 1
gene 2 7 12 -1.34758 0 3 -1.34758 1
gene 2 8 12 0.0650807 0 4 0.0650807 1
gene 1 9 12 0.516449 0 5 0.516449 1
gene 2 10 12 2.60514 0 6 2.60514 1
gene 2 11 12 1.96432 0 7 1.96432 1
gene 3 1 13 4.19739 0 5 4.19739 1
gene 1 2 14 0.458922 0 6 0.458922 1
gene 1 3 15 4.05246 0 7 4.05246 1
gene 2 8 13 1.11599 0 12 1.11599 1
gene 1 3 20 0.941191 0 18 0.941191 1
gene 1 20 14 -3.89904 0 19 -3.89904 1
gene 1 5 39 0.79516 0 171 0.79516 1
gene 1 39 16 1.66272 0 172 1.66272 1
gene 3 8 39 -0.378275 0 231 -0.378275 1
gene 1 11 20 -0.343944 0 275 -0.343944 1
gene 1 4 39 -3.25793 0 422 -3.25793 1
genomeend 1509

/* Organism #1102 Fitness: 4612.81 Error: 0 */
genomestart 1102
trait 1 0.1 0 0.032445 0.0522026 0.169602 0.285409 0.166031 0.000301699 
trait 2 0.116894 0.913 0 0 1 0.816401 0.831324 0.857128 
trait 3 0.471947 0 0.687097 0.42098 1 0 0.919736 0 
node 1 1 1 1
node 2 1 1 1
node 3 2 1 1
node 4 3 1 1
node 5 3 1 1
node 6 3 1 1
node 7 1 1 1
node 8 3 1 1
node 9 2 1 1
node 10 2 1 1
node 11 3 1 3
node 12 2 0 2
node 13 1 0 2
node 14 1 0 2
node 15 3 0 2
node 16 1 0 2
node 20 1 0 0
node 39 1 0 0
gene 3 1 12 -1.98561 0 1 -1.98561 1
gene 1 2 13 2.6294 0 2 2.6294 1
gene 1 3 14 1.06937 0 3 1.06937 1
gene 3 4 15 -3.30622 0 4 -3.30622 1
gene 1 5 16 2.82388 0 5 2.82388 1
gene 3 6 12 6.6133 0 2 6.6133 1
gene 2 7 12 -2.14419 0 3 -2.14419 1
gene 2 8 12 3.67519 0 4 3.67519 1
gene 1 9 12 -1.21685 0 5 -1.21685 1
gene 2 10 12 -1.22707 0 6 -1.22707 1
gene 2 11 12 2.4649 0 7 2.4649 1
gene 3 1 13 4.14452 0 5 4.14452 1
gene 1 2 14 4.50049 0 6 4.50049 1
gene 1 3 15 3.89934 0 7 3.89934 1
gene 2 8 13 2.77558 0 12 2.77558 1
gene 1 3 20 -0.0880459 0 18 -0.0880459 1
gene 1 20 14 0.464187 0 19 0.464187 1
gene 1 5 39 0.949507 0 171 0.949507 1
gene 1 39 16 1.66311 0 172 1.66311 1
gene 3 8 39 -3.89599 0 231 -3.89599 1
gene 1 11 20 0.754952 0 275 0.754952 1
gene 1 4 39 -0.318079 0 422 -0.318079 1
genomeend 1102

/* Organism #1184 Fitness: 4228.47 Error: 0 */
genomestart 1184
trait 1 0.1 0 0.032445 0.0522026 0.169602 0.285409 0.166031 0.000301699 
trait 2 0.116894 0.913 0.00962769 0 1 0 0.588274 0.857128 
trait 3 0.471947 0 0.687097 0.42098 1 0 0.919736 0 
node 1 1 1 1
node 2 1 1 1
node 3 2 1 1
node 4 3 1 1
node 5 3 1 1
node 6 3 1 1
node 7 1 1 1
node 8 3 1 1
node 9 2 1 1
node 10 2 1 1
node 11 3 1 3
node 12 2 0 2
node 13 1 0 2
node 14 1 0 2
node 15 3 0 2
node 16 1 0 2
node 20 1 0 0
node 39 1 0 0
gene 3 1 12 1.4373 0 1 1.4373 1
gene 1 2 13 0.150685 0 2 0.150685 1
gene 1 3 14 3.67725 0 3 3.67725 1
gene 3 4 15 -2.08083 0 4 -2.08083 1
gene 1 5 16 0.606632 0 5 0.606632 1
gene 3 6 12 4.48448 0 2 4.48448 1
gene 2 7 12 -0.45568 0 3 -0.45568 1
gene 2 8 12 2.56035 0 4 2.56035 1
gene 1 9 12 -0.459456 0 5 -0.459456 1
gene 2 10 12 0.523087 0 6 0.523087 1
gene 2 11 12 -0.34463 0 7 -0.34463 1
gene 3 1 13 3.25346 0 5 3.25346 1
gene 1 2 14 2.41951 0 6 2.41951 1
gene 1 3 15 2.90154 0 7 2.90154 1
gene 2 8 13 0.977584 0 12 0.977584 1
gene 1 3 20 0.779824 0 18 0.779824 1
gene 1 20 14 -1.63175 0 19 -1.63175 1
gene 1 5 39 2.60384 0 171 2.60384 1
gene 1 39 16 -0.601291 0 172 -0.601291 1
gene 3 8 39 0.245447 0 231 0.245447 1
gene 1 11 20 -0.343944 0 275 -0.343944 1
gene 1 4 39 -4.09154 0 422 -4.09154 1
genomeend 1184

/* Organism #1017 Fitness: 4221.04 Error: 0 */
genomestart 1017
trait 1 0.1 0 0.032445 0.0522026 0.169602 0.285409 0.166031 0.000301699 
trait 2 0.43302 0.9565 0.00962769 0 0.989257 0.300012 0.794137 0.857128 
trait 3 0.471947 0 0.687097 0.42098 1 0 0.919736 0 
node 1 1 1 1
node 2 1 1 1
node 3 2 1 1
node 4 3 1 1
node 5 3 1 1
node 6 3 1 1
node 7 1 1 1
node 8 2 1 1
node 9 2 1 1
node 10 2 1 1
node 11 3 1 3
node 12 2 0 2
node 13 1 0 2
node 14 1 0 2
node 15 3 0 2
node 16 1 0 2
node 20 1 0 0
node 39 1 0 0
gene 3 1 12 0.840589 0 1 0.840589 1
gene 1 2 13 2.6925 0 2 2.6925 1
gene 1 3 14 4.74818 0 3 4.74818 1
gene 3 4 15 -0.961447 0 4 -0.961447 1
gene 1 5 16 2.39227 0 5 2.39227 1
gene 3 6 12 -1.79993 0 2 -1.79993 1
gene 2 7 12 1.61782 0 3 1.61782 1
gene 2 8 12 2.27573 0 4 2.27573 1
gene 1 9 12 -3.8974 0 5 -3.8974 1
gene 2 10 12 2.64748 0 6 2.64748 1
gene 2 11 12 1.44208 0 7 1.44208 1
gene 3 1 13 1.29752 0 5 1.29752 1
gene 1 2 14 2.86576 0 6 2.86576 1
gene 1 3 15 -0.782621 0 7 -0.782621 1
gene 2 8 13 -2.09822 0 12 -2.09822 1
gene 1 3 20 -0.295343 0 18 -0.295343 1
gene 1 20 14 -3.17915 0 19 -3.17915 1
gene 1 5 39 -1.47294 0 171 -1.47294 1
gene 1 39 16 0.0543611 0 172 0.0543611 1
gene 3 8 39 -3.69426 0 231 -3.69426 1
gene 1 11 20 -0.290994 0 275 -0.290994 1
gene 1 4 39 -3.9927 0 422 -3.9927 1
genomeend 1017

/* Organism #1460 Fitness: 4160.03 Error: 0 */
genomestart 1460
trait 1 0.1 0 0.032445 0.0522026 0.169602 0.285409 0.166031 0.000301699 
trait 2 0.116894 0.913 0.00962769 0 1 0 0.588274 0.857128 
trait 3 0.471947 0 0.687097 0.42098 1 0 0.919736 0 
node 1 1 1 1
node 2 1 1 1
node 3 2 1 1
node 4 3 1 1
node 5 3 1 1
node 6 3 1 1
node 7 1 1 1
node 8 3 1 1
node 9 2 1 1
node 10 2 1 1
node 11 3 1 3
node 12 2 0 2
node 13 1 0 2
node 14 1 0 2
node 15 3 0 2
node 16 1 0 2
node 20 1 0 0
node 39 1 0 0
gene 3 1 12 1.98831 0 1 1.98831 1
gene 1 2 13 -2.18352 0 2 -2.18352 1
gene 1 3 14 6.14131 0 3 6.14131 1
gene 3 4 15 -0.690861 0 4 -0.690861 1
gene 1 5 16 1.53989 0 5 1.53989 1
gene 3 6 12 3.84328 0 2 3.84328 1
gene 2 7 12 1.59837 0 3 1.59837 1
gene 2 8 12 4.90234 0 4 4.90234 1
gene 1 9 12 -0.978729 0 5 -0.978729 1
gene 2 10 12 2.18871 0 6 2.18871 1
gene 2 11 12 -2.23792 0 7 -2.23792 1
gene 3 1 13 5.34069 0 5 5.34069 1
gene 1 2 14 2.08022 0 6 2.08022 1
gene 1 3 15 3.69257 0 7 3.69257 1
gene 2 8 13 1.04411 0 12 1.04411 1
gene 1 3 20 0.610828 0 18 0.610828 1
gene 1 20 14 -0.223928 0 19 -0.223928 1
gene 1 5 39 0.169149 0 171 0.169149 1
gene 1 39 16 1.90565 0 172 1.90565 1
gene 3 8 39 -0.867257 0 231 -0.867257 1
gene 1 11 20 0.050737 0 275 0.050737 1
gene 1 4 39 -2.58469 0 422 -2.58469 1
genomeend 1460

/* Organism #1515 Fitness: 3416.68 Error: 0 */
genomestart 1515
trait 1 0.1 0 0.032445 0.0522026 0.169602 0.285409 0.166031 0.000301699 
trait 2 0.116894 0.913 0.00962769 0 1 0 0.588274 0.857128 
trait 3 0.471947 0 0.687097 0.42098 1 0 0.919736 0 
node 1 1 1 1
node 2 1 1 1
node 3 2 1 1
node 4 3 1 1
node 5 3 1 1
node 6 3 1 1
node 7 1 1 1
node 8 3 1 1
node 9 2 1 1
node 10 2 1 1
node 11 3 1 3
node 12 2 0 2
node 13 1 0 2
node 14 1 0 2
node 15 3 0 2
node 16 1 0 2
node 20 1 0 0
node 39 1 0 0
gene 3 1 12 -1.05362 0 1 -1.05362 1
gene 1 2 13 -0.539415 0 2 -0.539415 1
gene 1 3 14 5.53453 0 3 5.53453 1
gene 3 4 15 -1.11087 0 4 -1.11087 1
gene 1 5 16 0.606632 0 5 0.606632 1
gene 3 6 12 1.73223 0 2 1.73223 1
gene 2 7 12 -0.45568 0 3 -0.45568 1
gene 2 8 12 2.56035 0 4 2.56035 1
gene 1 9 12 -0.459456 0 5 -0.459456 1
gene 2 10 12 0.600604 0 6 0.600604 1
gene 2 11 12 1.51128 0 7 1.51128 1
gene 3 1 13 3.25346 0 5 3.25346 1
gene 1 2 14 4.036 0 6 4.036 1
gene 1 3 15 0.923338 0 7 0.923338 1
gene 2 8 13 -1.26514 0 12 -1.26514 1
gene 1 3 20 1.51776 0 18 1.51776 1
gene 1 20 14 -0.716649 0 19 -0.716649 1
gene 1 5 39 0.169073 0 171 0.169073 1
gene 1 39 16 -0.429472 0 172 -0.429472 1
gene 3 8 39 2.22213 0 231 2.22213 1
gene 1 11 20 1.25629 0 275 1.25629 1
gene 1 4 39 0.19364 0 422 0.19364 1
genomeend 1515

/* Species #4 : (Size 4) (AF 0) (Age 1)  */


/* Organism #945 Fitness: 4567.32 Error: 0 */
genomestart 945
trait 1 0.1 0 0.032445 0.0522026 0.169602 0.285409 0.166031 0.000301699 
trait 2 0.116894 0.255204 0.00962769 0 1 0.00213975 0.185247 0.487152 
trait 3 0.35645 0 0.687097 0.42098 1 0 0.919736 0 
node 1 1 1 1
node 2 1 1 1
node 3 2 1 1
node 4 3 1 1
node 5 3 1 1
node 6 3 1 1
node 7 1 1 1
node 8 3 1 1
node 9 2 1 1
node 10 2 1 1
node 11 3 1 3
node 12 2 0 2
node 13 1 0 2
node 14 1 0 2
node 15 3 0 2
node 16 1 0 2
node 20 1 0 0
node 39 1 0 0
node 61 1 0 0
gene 3 1 12 2.49789 0 1 2.49789 1
gene 1 2 13 -1.26343 0 2 -1.26343 1
gene 1 3 14 0.389492 0 3 0.389492 0
gene 3 4 15 -1.77343 0 4 -1.77343 1
gene 1 5 16 -1.81371 0 5 -1.81371 1
gene 3 6 12 -1.27461 0 2 -1.27461 1
gene 2 7 12 1.15596 0 3 1.15596 1
gene 2 8 12 -0.499874 0 4 -0.499874 1
gene 1 9 12 -1.79292 0 5 -1.79292 1
gene 2 10 12 3.18471 0 6 3.18471 1
gene 2 11 12 -0.751671 0 7 -0.751671 1
gene 3 1 13 1.89291 0 5 1.89291 1
gene 1 2 14 0.80546 0 6 0.80546 0
gene 1 3 15 -1.11431 0 7 -1.11431 1
gene 2 8 13 7.03294 0 12 7.03294 1
gene 1 3 20 0.0406652 0 18 0.0406652 1
gene 1 20 14 1.52806 0 19 1.52806 1
gene 1 5 39 -0.203558 0 171 -0.203558 1
gene 1 39 16 1.41926 0 172 1.41926 1
gene 3 8 39 0.403342 0 231 0.403342 1
gene 1 2 61 4.52725 0 346 4.52725 1
gene 1 61 14 4.60454 0 347 4.60454 1
genomeend 945

/* Organism #1216 Fitness: 3629.08 Error: 0 */
genomestart 1216
trait 1 0.1 0 0.032445 0.0522026 0.169602 0.285409 0.166031 0.000301699 
trait 2 0.116894 0.255204 0.00962769 0 1 0.00213975 0.185247 0.487152 
trait 3 0.35645 0 0.687097 0.42098 1 0 0.919736 0 
node 1 1 1 1
node 2 1 1 1
node 3 2 1 1
node 4 3 1 1
node 5 3 1 1
node 6 3 1 1
node 7 1 1 1
node 8 3 1 1
node 9 2 1 1
node 10 2 1 1
node 11 3 1 3
node 12 2 0 2
node 13 1 0 2
node 14 1 0 2
node 15 3 0 2
node 16 1 0 2
node 20 1 0 0
node 39 1 0 0
node 61 1 0 0
gene 3 1 12 3.36683 0 1 3.36683 1
gene 1 2 13 -1.39245 0 2 -1.39245 1
gene 1 3 14 0.162053 0 3 0.162053 0
gene 3 4 15 -3.64948 0 4 -3.64948 1
gene 1 5 16 -2.12095 0 5 -2.12095 1
gene 3 6 12 -2.36145 0 2 -2.36145 1
gene 2 7 12 3.29714 0 3 3.29714 1
gene 2 8 12 -2.26667 0 4 -2.26667 1
gene 1 9 12 -0.655802 0 5 -0.655802 1
gene 2 10 12 4.25568 0 6 4.25568 1
gene 2 11 12 0.828883 0 7 0.828883 1
gene 3 1 13 3.35528 0 5 3.35528 1
gene 1 2 14 -0.643025 0 6 -0.643025 0
gene 1 3 15 -0.431837 0 7 -0.431837 1
gene 2 8 13 7.06941 0 12 7.06941 1
gene 1 3 20 -1.99416 0 18 -1.99416 1
gene 1 20 14 2.42668 0 19 2.42668 1
gene 1 5 39 -2.6838 0 171 -2.6838 1
gene 1 39 16 1.41926 0 172 1.41926 1
gene 3 8 39 0.403342 0 231 0.403342 1
gene 1 2 61 4.52725 0 346 4.52725 1
gene 1 61 14 2.32953 0 347 2.32953 1
genomeend 1216

/* Organism #1257 Fitness: 4122.09 Error: 0 */
genomestart 1257
trait 1 0.1 0 0.032445 0.0522026 0.169602 0.285409 0.166031 0.000301699 
trait 2 0.116894 0.255204 0.00962769 0 1 0.00213975 0.185247 0.487152 
trait 3 0.35645 0 0.687097 0.42098 1 0 0.919736 0 
node 1 1 1 1
node 2 1 1 1
node 3 2 1 1
node 4 3 1 1
node 5 3 1 1
node 6 3 1 1
node 7 1 1 1
node 8 3 1 1
node 9 2 1 1
node 10 2 1 1
node 11 3 1 3
node 12 2 0 2
node 13 1 0 2
node 14 1 0 2
node 15 3 0 2
node 16 1 0 2
node 20 1 0 0
node 39 1 0 0
node 61 1 0 0
gene 3 1 12 2.47142 0 1 2.47142 1
gene 1 2 13 0.789171 0 2 0.789171 1
gene 1 3 14 1.09416 0 3 1.09416 0
gene 3 4 15 -4.62241 0 4 -4.62241 1
gene 1 5 16 -2.38318 0 5 -2.38318 1
gene 3 6 12 -2.96014 0 2 -2.96014 1
gene 2 7 12 3.56212 0 3 3.56212 1
gene 2 8 12 -4.13738 0 4 -4.13738 1
gene 1 9 12 -2.06744 0 5 -2.06744 1
gene 2 10 12 3.44503 0 6 3.44503 1
gene 2 11 12 -1.6261 0 7 -1.6261 1
gene 3 1 13 3.85182 0 5 3.85182 1
gene 1 2 14 -3.07421 0 6 -3.07421 0
gene 1 3 15 0.288629 0 7 0.288629 1
gene 2 8 13 7.54398 0 12 7.54398 1
gene 1 3 20 -2.45346 0 18 -2.45346 1
gene 1 20 14 3.37107 0 19 3.37107 1
gene 1 5 39 -2.02567 0 171 -2.02567 1
gene 1 39 16 3.2445 0 172 3.2445 1
gene 3 8 39 -0.239683 0 231 -0.239683 1
gene 1 2 61 4.52725 0 346 4.52725 1
gene 1 61 14 1.65576 0 347 1.65576 1
genomeend 1257

/* Organism #1497 Fitness: 3313.59 Error: 0 */
genomestart 1497
trait 1 0.1 0 0.032445 0.0522026 0.169602 0.285409 0.166031 0.000301699 
trait 2 0.116894 0.255204 0.00962769 0 1 0.00213975 0.185247 0.487152 
trait 3 0.35645 0 0.687097 0.42098 1 0 0.919736 0 
node 1 1 1 1
node 2 1 1 1
node 3 2 1 1
node 4 3 1 1
node 5 3 1 1
node 6 3 1 1
node 7 1 1 1
node 8 3 1 1
node 9 2 1 1
node 10 2 1 1
node 11 3 1 3
node 12 2 0 2
node 13 1 0 2
node 14 1 0 2
node 15 3 0 2
node 16 1 0 2
node 20 1 0 0
node 39 1 0 0
node 61 1 0 0
gene 3 1 12 2.49789 0 1 2.49789 1
gene 1 2 13 -1.26343 0 2 -1.26343 1
gene 1 3 14 0.389492 0 3 0.389492 0
gene 3 4 15 -1.77343 0 4 -1.77343 1
gene 1 5 16 -1.81371 0 5 -1.81371 1
gene 3 6 12 -1.27461 0 2 -1.27461 1
gene 2 7 12 1.15596 0 3 1.15596 1
gene 2 8 12 -0.499874 0 4 -0.499874 1
gene 1 9 12 -1.79292 0 5 -1.79292 1
gene 2 10 12 3.18471 0 6 3.18471 1
gene 2 11 12 -0.751671 0 7 -0.751671 1
gene 3 1 13 1.89291 0 5 1.89291 1
gene 1 2 14 0.80546 0 6 0.80546 0
gene 1 3 15 -1.11431 0 7 -1.11431 1
gene 2 8 13 7.03294 0 12 7.03294 1
gene 1 3 20 0.0406652 0 18 0.0406652 1
gene 1 20 14 1.52806 0 19 1.52806 1
gene 1 5 39 -0.203558 0 171 -0.203558 1
gene 1 39 16 1.41926 0 172 1.41926 1
gene 3 8 39 0.403342 0 231 0.403342 1
gene 1 2 61 4.52725 0 346 4.52725 1
gene 1 61 14 4.60454 0 347 4.60454 1
genomeend 1497

/* Species #5 : (Size 5) (AF 0) (Age 1)  */


/* Organism #1487 Fitness: 4584.71 Error: 0 */
genomestart 1487
trait 1 0.268157 0 0.0268685 0 0.157712 0.249645 0.00815616 0 
trait 2 0.117952 0.132428 0.00875096 0.0354663 0.227404 0.00213975 0.182924 0.0705778 
trait 3 0.927726 0.0388424 0 1 0 0.69161 0.885617 0.144102 
node 1 1 1 1
node 2 1 1 1
node 3 2 1 1
node 4 3 1 1
node 5 2 1 1
node 6 3 1 1
node 7 1 1 1
node 8 3 1 1
node 9 2 1 1
node 10 2 1 1
node 11 3 1 3
node 12 2 0 2
node 13 1 0 2
node 14 1 0 2
node 15 1 0 2
node 16 1 0 2
node 20 1 0 0
node 53 3 0 0
node 59 1 0 0
gene 3 1 12 6.17553 0 1 6.17553 1
gene 1 2 13 0.482803 0 2 0.482803 1
gene 1 3 14 -2.3188 0 3 -2.3188 0
gene 3 4 15 3.37374 0 4 3.37374 1
gene 1 5 16 -5.34225 0 5 -5.34225 1
gene 3 6 12 -1.05678 0 2 -1.05678 1
gene 2 7 12 0.604829 0 3 0.604829 1
gene 2 8 12 -3.5677 0 4 -3.5677 1
gene 1 9 12 2.60635 0 5 2.60635 1
gene 2 10 12 5.88301 0 6 5.88301 1
gene 2 11 12 -4.14426 0 7 -4.14426 1
gene 3 1 13 5.96286 0 5 5.96286 1
gene 1 2 14 -0.681862 0 6 -0.681862 1
gene 1 3 15 7.14713 0 7 7.14713 1
gene 2 8 13 2.56378 0 12 2.56378 1
gene 1 3 20 0.948366 0 18 0.948366 1
gene 1 20 14 -3.33155 0 19 -3.33155 1
gene 2 8 53 4.0622 0 294 4.0622 1
gene 3 53 13 -1.94342 0 295 -1.94342 1
gene 1 3 59 2.35221 0 327 2.35221 1
gene 1 59 20 2.42897 0 328 2.42897 1
gene 3 20 15 0.468841 0 401 0.468841 1
gene 3 20 16 3.29615 0 483 3.29615 1
gene 3 8 15 0.965697 0 514 0 1
genomeend 1487

/* Organism #1429 Fitness: 4420.01 Error: 0 */
genomestart 1429
trait 1 0.268157 0 0.0268685 0 0.157712 0.249645 0.00815616 0 
trait 2 0.117952 0.132428 0.00875096 0.0354663 0.227404 0.00213975 0.182924 0.0705778 
trait 3 0.927726 0.0388424 0 1 0 0.69161 0.885617 0.144102 
node 1 1 1 1
node 2 1 1 1
node 3 2 1 1
node 4 3 1 1
node 5 2 1 1
node 6 3 1 1
node 7 1 1 1
node 8 3 1 1
node 9 2 1 1
node 10 2 1 1
node 11 3 1 3
node 12 2 0 2
node 13 1 0 2
node 14 1 0 2
node 15 1 0 2
node 16 1 0 2
node 20 1 0 0
node 53 3 0 0
node 59 1 0 0
gene 3 1 12 6.17553 0 1 6.17553 1
gene 1 2 13 0.482803 0 2 0.482803 1
gene 1 3 14 -2.3188 0 3 -2.3188 0
gene 3 4 15 3.37374 0 4 3.37374 1
gene 1 5 16 -5.34225 0 5 -5.34225 1
gene 3 6 12 -1.05678 0 2 -1.05678 1
gene 2 7 12 0.604829 0 3 0.604829 1
gene 2 8 12 -3.5677 0 4 -3.5677 1
gene 1 9 12 2.60635 0 5 2.60635 1
gene 2 10 12 5.88301 0 6 5.88301 1
gene 2 11 12 -4.14426 0 7 -4.14426 1
gene 3 1 13 5.96286 0 5 5.96286 1
gene 1 2 14 -0.681862 0 6 -0.681862 1
gene 1 3 15 7.14713 0 7 7.14713 1
gene 2 8 13 2.56378 0 12 2.56378 1
gene 1 3 20 0.948366 0 18 0.948366 1
gene 1 20 14 -3.33155 0 19 -3.33155 1
gene 2 8 53 4.0622 0 294 4.0622 1
gene 3 53 13 -1.94342 0 295 -1.94342 1
gene 1 3 59 2.35221 0 327 2.35221 1
gene 1 59 20 2.42897 0 328 2.42897 1
gene 3 20 15 0.468841 0 401 0.468841 1
gene 3 20 16 3.29615 0 483 3.29615 1
genomeend 1429

/* Organism #1367 Fitness: 4219.74 Error: 0 */
genomestart 1367
trait 1 0.268157 0 0.0268685 0 0.157712 0.249645 0.00815616 0 
trait 2 0.117952 0.132428 0.00875096 0.0354663 0.227404 0.00213975 0.182924 0.0705778 
trait 3 1 0.0388424 0 1 0 1 1 0.922752 
node 1 1 1 1
node 2 1 1 1
node 3 2 1 1
node 4 3 1 1
node 5 2 1 1
node 6 3 1 1
node 7 1 1 1
node 8 3 1 1
node 9 2 1 1
node 10 2 1 1
node 11 3 1 3
node 12 2 0 2
node 13 1 0 2
node 14 1 0 2
node 15 1 0 2
node 16 1 0 2
node 20 1 0 0
node 53 3 0 0
node 59 1 0 0
gene 3 1 12 8 0 1 8 1
gene 1 2 13 3.43867 0 2 3.43867 1
gene 1 3 14 0.855434 0 3 0.855434 0
gene 3 4 15 0.153429 0 4 0.153429 1
gene 1 5 16 -6.28589 0 5 -6.28589 1
gene 3 6 12 0.849025 0 2 0.849025 1
gene 2 7 12 0.288476 0 3 0.288476 1
gene 2 8 12 -5.05243 0 4 -5.05243 1
gene 1 9 12 0.0903348 0 5 0.0903348 1
gene 2 10 12 2.17795 0 6 2.17795 1
gene 2 11 12 -5.17472 0 7 -5.17472 1
gene 3 1 13 4.08849 0 5 4.08849 1
gene 1 2 14 -2.42851 0 6 -2.42851 1
gene 1 3 15 3.1579 0 7 3.1579 1
gene 2 8 13 1.75909 0 12 1.75909 1
gene 1 3 20 4.3025 0 18 4.3025 1
gene 1 20 14 -0.980941 0 19 -0.980941 1
gene 2 8 53 5.05176 0 294 5.05176 1
gene 3 53 13 1.72994 0 295 1.72994 1
gene 1 3 59 2.18123 0 327 2.18123 1
gene 1 59 20 -0.650044 0 328 -0.650044 1
gene 3 20 15 3.86891 0 401 3.86891 1
gene 3 20 16 1.48534 0 483 1.48534 1
genomeend 1367

/* Organism #1496 Fitness: 4139.86 Error: 0 */
genomestart 1496
trait 1 0.268157 0 0.0268685 0 0.157712 0.249645 0.00815616 0 
trait 2 0.117952 0.132428 0.00875096 0.0354663 0.227404 0.00213975 0.182924 0.0705778 
trait 3 0.927726 0.0388424 0 1 0 0.69161 0.885617 0.144102 
node 1 1 1 1
node 2 1 1 1
node 3 2 1 1
node 4 3 1 1
node 5 2 1 1
node 6 3 1 1
node 7 1 1 1
node 8 3 1 1
node 9 2 1 1
node 10 2 1 1
node 11 3 1 3
node 12 2 0 2
node 13 1 0 2
node 14 1 0 2
node 15 1 0 2
node 16 1 0 2
node 20 1 0 0
node 53 3 0 0
node 59 1 0 0
node 86 1 0 0
gene 3 1 12 7.04538 0 1 7.04538 1
gene 1 2 13 2.46406 0 2 2.46406 1
gene 1 3 14 -2.16109 0 3 -2.16109 0
gene 3 4 15 2.59644 0 4 2.59644 1
gene 1 5 16 -4.23802 0 5 -4.23802 1
gene 3 6 12 0.871532 0 2 0.871532 1
gene 2 7 12 -0.927048 0 3 -0.927048 1
gene 2 8 12 -2.75286 0 4 -2.75286 1
gene 1 9 12 4.76157 0 5 4.76157 1
gene 2 10 12 5.05115 0 6 5.05115 1
gene 2 11 12 -2.55341 0 7 -2.55341 1
gene 3 1 13 4.28343 0 5 4.28343 1
gene 1 2 14 -0.252314 0 6 -0.252314 1
gene 1 3 15 5.43077 0 7 5.43077 1
gene 2 8 13 0.692694 0 12 0.692694 1
gene 1 3 20 -0.927989 0 18 -0.927989 1
gene 1 20 14 -1.91023 0 19 -1.91023 0
gene 2 8 53 2.91607 0 294 2.91607 1
gene 3 53 13 -1.29131 0 295 -1.29131 1
gene 1 3 59 3.45927 0 327 3.45927 1
gene 1 59 20 2.45254 0 328 2.45254 1
gene 3 20 15 1.34846 0 401 1.34846 1
gene 3 20 16 2.53166 0 483 2.53166 1
gene 1 20 86 3.28568 0 501 3.28568 1
gene 1 86 14 0.582064 0 502 0.582064 1
genomeend 1496

/* Organism #1507 Fitness: 2800.49 Error: 0 */
genomestart 1507
trait 1 0.268157 0 0.0268685 0 0.157712 0.249645 0.00815616 0 
trait 2 0.117952 0.132428 0.00875096 0.0354663 0.227404 0.00213975 0.182924 0.0705778 
trait 3 0.927726 0.0388424 0 1 0 0.69161 0.885617 0.144102 
node 1 1 1 1
node 2 1 1 1
node 3 2 1 1
node 4 3 1 1
node 5 2 1 1
node 6 3 1 1
node 7 1 1 1
node 8 3 1 1
node 9 2 1 1
node 10 2 1 1
node 11 3 1 3
node 12 2 0 2
node 13 1 0 2
node 14 1 0 2
node 15 1 0 2
node 16 1 0 2
node 20 1 0 0
node 53 3 0 0
node 59 1 0 0
node 86 1 0 0
gene 3 1 12 5.73278 0 1 5.73278 1
gene 1 2 13 -1.48274 0 2 -1.48274 1
gene 1 3 14 -4.4026 0 3 -4.4026 0
gene 3 4 15 5.54773 0 4 5.54773 1
gene 1 5 16 -6.36737 0 5 -6.36737 1
gene 3 6 12 -1.19304 0 2 -1.19304 1
gene 2 7 12 -0.91339 0 3 -0.91339 1
gene 2 8 12 -2.67725 0 4 -2.67725 1
gene 1 9 12 2.1913 0 5 2.1913 1
gene 2 10 12 4.52623 0 6 4.52623 1
gene 2 11 12 -3.33369 0 7 -3.33369 1
gene 3 1 13 6.35006 0 5 6.35006 1
gene 1 2 14 -1.67951 0 6 -1.67951 1
gene 1 3 15 8 0 7 8 1
gene 2 8 13 3.79879 0 12 3.79879 1
gene 1 3 20 -0.737324 0 18 -0.737324 1
gene 1 20 14 -2.50473 0 19 -2.50473 0
gene 2 8 53 5.19153 0 294 5.19153 1
gene 3 53 13 -2.45926 0 295 -2.45926 1
gene 1 3 59 3.12548 0 327 3.12548 1
gene 1 59 20 2.24097 0 328 2.24097 1
gene 3 20 15 1.7066 0 401 1.7066 1
gene 3 20 16 3.29615 0 483 3.29615 1
gene 1 20 86 1 0 501 1 1
gene 1 86 14 -3.49704 0 502 -3.49704 1
genomeend 1507

/* Species #6 : (Size 7) (AF 0) (Age 1)  */


/* Organism #1471 Fitness: 5101.67 Error: 0 */
genomestart 1471
trait 1 1 0 0.0268685 0 0 0.249645 0.00815616 0 
trait 2 0.117952 0.132428 0.00875096 0.0354663 0.227404 0.00213975 0.182924 0.0705778 
trait 3 0 0.0388424 0.0473821 0.52041 0 0.393109 0 0.517069 
node 1 1 1 1
node 2 1 1 1
node 3 2 1 1
node 4 3 1 1
node 5 3 1 1
node 6 3 1 1
node 7 1 1 1
node 8 3 1 1
node 9 2 1 1
node 10 2 1 1
node 11 3 1 3
node 12 2 0 2
node 13 1 0 2
node 14 1 0 2
node 15 3 0 2
node 16 1 0 2
node 20 1 0 0
node 53 1 0 0
node 59 1 0 0
node 67 1 0 0
gene 3 1 12 2.80435 0 1 2.80435 1
gene 1 2 13 -2.11768 0 2 -2.11768 1
gene 1 3 14 -0.736564 0 3 -0.736564 0
gene 3 4 15 -2.03707 0 4 -2.03707 1
gene 1 5 16 -0.320292 0 5 -0.320292 1
gene 3 6 12 7.64484 0 2 7.64484 1
gene 2 7 12 -1.10622 0 3 -1.10622 1
gene 2 8 12 1.15798 0 4 1.15798 1
gene 1 9 12 -1.53443 0 5 -1.53443 1
gene 2 10 12 -0.550401 0 6 -0.550401 1
gene 2 11 12 -0.0522629 0 7 -0.0522629 1
gene 1 1 13 -1.00309 0 5 -1.00309 1
gene 1 2 14 2.5776 0 6 2.5776 1
gene 1 3 15 4.72907 0 7 4.72907 1
gene 2 8 13 1.5031 0 12 1.5031 1
gene 1 3 20 5.06813 0 18 5.06813 1
gene 1 20 14 4.49522 0 19 4.49522 1
gene 2 8 53 -6.12606 0 294 -6.12606 1
gene 2 53 13 -4.06308 0 295 -4.06308 1
gene 1 3 59 -2.19699 0 327 -2.19699 1
gene 1 59 20 -3.86158 0 328 -3.86158 1
gene 3 1 67 6.63911 0 382 6.63911 1
gene 3 67 13 4.63756 0 383 4.63756 1
gene 1 2 20 2.70547 0 405 2.70547 1
gene 2 9 67 0.977432 0 479 0.977432 1
gene 2 13 12 0.212088 0 482 0.212088 1
genomeend 1471

/* Organism #1419 Fitness: 5020.31 Error: 0 */
genomestart 1419
trait 1 1 0 0.0268685 0 0 0.249645 0.00815616 0 
trait 2 0.117952 0.132428 0.00875096 0.0354663 0.227404 0.00213975 0.182924 0.0705778 
trait 3 0 0.0388424 0.0473821 0.52041 0 0.393109 0 0.517069 
node 1 1 1 1
node 2 1 1 1
node 3 2 1 1
node 4 3 1 1
node 5 3 1 1
node 6 3 1 1
node 7 1 1 1
node 8 3 1 1
node 9 2 1 1
node 10 2 1 1
node 11 3 1 3
node 12 2 0 2
node 13 1 0 2
node 14 1 0 2
node 15 3 0 2
node 16 1 0 2
node 20 1 0 0
node 53 1 0 0
node 59 1 0 0
node 67 1 0 0
gene 3 1 12 0.890454 0 1 0.890454 1
gene 1 2 13 -0.508133 0 2 -0.508133 1
gene 1 3 14 1.24714 0 3 1.24714 0
gene 3 4 15 -1.47073 0 4 -1.47073 1
gene 1 5 16 -1.54187 0 5 -1.54187 1
gene 3 6 12 7.32279 0 2 7.32279 1
gene 2 7 12 -0.462661 0 3 -0.462661 1
gene 2 8 12 0.601095 0 4 0.601095 1
gene 1 9 12 0.811907 0 5 0.811907 1
gene 2 10 12 1.68134 0 6 1.68134 1
gene 2 11 12 -0.975372 0 7 -0.975372 1
gene 1 1 13 1.28244 0 5 1.28244 1
gene 1 2 14 1.1353 0 6 1.1353 1
gene 1 3 15 2.3339 0 7 2.3339 1
gene 2 8 13 0.0144875 0 12 0.0144875 1
gene 1 3 20 3.27044 0 18 3.27044 1
gene 1 20 14 2.22884 0 19 2.22884 1
gene 2 8 53 -7.80107 0 294 -7.80107 1
gene 2 53 13 -2.79763 0 295 -2.79763 1
gene 1 3 59 -3.29802 0 327 -3.29802 1
gene 1 59 20 -2.37136 0 328 -2.37136 1
gene 3 1 67 4.71278 0 382 4.71278 1
gene 3 67 13 4.63756 0 383 4.63756 1
gene 1 2 20 5.12574 0 405 5.12574 1
gene 2 9 67 2.13527 0 479 2.13527 1
gene 2 13 12 1.48364 0 482 1.48364 1
genomeend 1419

/* Organism #1504 Fitness: 4101.66 Error: 0 */
genomestart 1504
trait 1 1 0 0.0268685 0 0 0.249645 0.00815616 0 
trait 2 0.117952 0.132428 0.00875096 0.0354663 0.227404 0.00213975 0.182924 0.0705778 
trait 3 0 0.0388424 0.0473821 0.52041 0 0.393109 0 0.517069 
node 1 1 1 1
node 2 1 1 1
node 3 2 1 1
node 4 3 1 1
node 5 3 1 1
node 6 3 1 1
node 7 1 1 1
node 8 3 1 1
node 9 2 1 1
node 10 2 1 1
node 11 3 1 3
node 12 2 0 2
node 13 1 0 2
node 14 1 0 2
node 15 3 0 2
node 16 1 0 2
node 20 1 0 0
node 53 1 0 0
node 59 1 0 0
node 67 1 0 0
gene 3 1 12 1.46245 0 1 1.46245 1
gene 1 2 13 -4.32371 0 2 -4.32371 1
gene 1 3 14 0.149541 0 3 0.149541 0
gene 3 4 15 -0.807177 0 4 -0.807177 1
gene 1 5 16 -2.44385 0 5 -2.44385 1
gene 3 6 12 7.6411 0 2 7.6411 1
gene 2 7 12 0.0155644 0 3 0.0155644 1
gene 2 8 12 2.29335 0 4 2.29335 1
gene 1 9 12 -2.39353 0 5 -2.39353 1
gene 2 10 12 0.198981 0 6 0.198981 1
gene 2 11 12 0.400784 0 7 0.400784 1
gene 1 1 13 -0.00536014 0 5 -0.00536014 1
gene 1 2 14 3.52902 0 6 3.52902 1
gene 1 3 15 6.36021 0 7 6.36021 1
gene 2 8 13 1.3174 0 12 1.3174 1
gene 1 3 20 5.70261 0 18 5.70261 1
gene 1 20 14 2.80808 0 19 2.80808 1
gene 2 8 53 -7.55005 0 294 -7.55005 1
gene 2 53 13 -4.22834 0 295 -4.22834 1
gene 1 3 59 -3.80356 0 327 -3.80356 1
gene 1 59 20 -2.81259 0 328 -2.81259 1
gene 3 1 67 -2.15522 0 382 -2.15522 1
gene 3 67 13 6.88525 0 383 6.88525 1
gene 1 2 20 -1.87849 0 405 -1.87849 1
gene 2 9 67 1.00764 0 479 1.00764 1
gene 2 13 12 -0.584277 0 482 -0.584277 1
genomeend 1504

/* Organism #1364 Fitness: 4098.94 Error: 0 */
genomestart 1364
trait 1 1 0 0.0268685 0 0 0.249645 0.00815616 0 
trait 2 0.117952 0.132428 0.00875096 0.0354663 0.227404 0.00213975 0.182924 0.0705778 
trait 3 0.45143 0.0388424 0.0473821 0 0 0.257943 0 0 
node 1 1 1 1
node 2 1 1 1
node 3 2 1 1
node 4 3 1 1
node 5 3 1 1
node 6 3 1 1
node 7 1 1 1
node 8 3 1 1
node 9 2 1 1
node 10 2 1 1
node 11 3 1 3
node 12 3 0 2
node 13 1 0 2
node 14 1 0 2
node 15 3 0 2
node 16 1 0 2
node 20 1 0 0
node 53 1 0 0
node 59 1 0 0
node 67 1 0 0
gene 3 1 12 -1.48808 0 1 -1.48808 1
gene 1 2 13 5.49701 0 2 5.49701 1
gene 1 3 14 0.582141 0 3 0.582141 0
gene 3 4 15 -4.73727 0 4 -4.73727 1
gene 1 5 16 -0.602054 0 5 -0.602054 1
gene 3 6 12 8 0 2 8 1
gene 2 7 12 0.26986 0 3 0.26986 1
gene 2 8 12 3.04448 0 4 3.04448 1
gene 1 9 12 -1.46966 0 5 -1.46966 1
gene 2 10 12 1.28109 0 6 1.28109 1
gene 2 11 12 -2.2705 0 7 -2.2705 1
gene 1 1 13 -0.351211 0 5 -0.351211 1
gene 1 2 14 2.37365 0 6 2.37365 1
gene 1 3 15 -1.83531 0 7 -1.83531 1
gene 2 8 13 1.38965 0 12 1.38965 1
gene 1 3 20 -0.707572 0 18 -0.707572 1
gene 1 20 14 3.09465 0 19 3.09465 1
gene 2 8 53 -8 0 294 -8 1
gene 2 53 13 2.91207 0 295 2.91207 1
gene 1 3 59 -8 0 327 -8 1
gene 1 59 20 -2.24212 0 328 -2.24212 1
gene 3 1 67 4.84348 0 382 4.84348 1
gene 3 67 13 3.00161 0 383 3.00161 1
gene 1 2 20 3.26914 0 405 3.26914 1
gene 2 9 67 -1.0932 0 479 -1.0932 1
gene 2 13 12 2.41285 0 482 2.41285 1
genomeend 1364

/* Organism #1490 Fitness: 4075.46 Error: 0 */
genomestart 1490
trait 1 1 0 0.0268685 0 0 0.249645 0.00815616 0 
trait 2 0.117952 0.132428 0.00875096 0.0354663 0.227404 0.00213975 0.182924 0.0705778 
trait 3 0 0.0388424 0.0473821 0.52041 0 0.393109 0 0.517069 
node 1 1 1 1
node 2 1 1 1
node 3 2 1 1
node 4 3 1 1
node 5 3 1 1
node 6 3 1 1
node 7 1 1 1
node 8 3 1 1
node 9 2 1 1
node 10 2 1 1
node 11 3 1 3
node 12 2 0 2
node 13 1 0 2
node 14 1 0 2
node 15 3 0 2
node 16 1 0 2
node 20 1 0 0
node 53 1 0 0
node 59 1 0 0
node 67 1 0 0
gene 3 1 12 1.35197 0 1 1.35197 1
gene 1 2 13 2.13889 0 2 2.13889 1
gene 1 3 14 -0.0317393 0 3 -0.0317393 0
gene 3 4 15 -3.31763 0 4 -3.31763 1
gene 1 5 16 -1.34449 0 5 -1.34449 1
gene 3 6 12 7.64484 0 2 7.64484 1
gene 2 7 12 -1.10622 0 3 -1.10622 1
gene 2 8 12 0.300302 0 4 0.300302 1
gene 1 9 12 -0.870579 0 5 -0.870579 1
gene 2 10 12 2.00728 0 6 2.00728 1
gene 2 11 12 -0.498291 0 7 -0.498291 1
gene 1 1 13 -2.98786 0 5 -2.98786 1
gene 1 2 14 3.76042 0 6 3.76042 1
gene 1 3 15 6.3892 0 7 6.3892 1
gene 2 8 13 1.64327 0 12 1.64327 1
gene 1 3 20 7.54234 0 18 7.54234 1
gene 1 20 14 4.49522 0 19 4.49522 1
gene 2 8 53 -0.524995 0 294 -0.524995 1
gene 2 53 13 -1.63976 0 295 -1.63976 1
gene 1 3 59 -1.83767 0 327 -1.83767 1
gene 1 59 20 -4.79057 0 328 -4.79057 1
gene 3 1 67 6.93751 0 382 6.93751 1
gene 3 67 13 3.01794 0 383 3.01794 1
gene 1 2 20 2.52686 0 405 2.52686 1
gene 2 9 67 -0.434126 0 479 -0.434126 1
gene 2 13 12 1.01671 0 482 1.01671 1
genomeend 1490

/* Organism #1173 Fitness: 3606.64 Error: 0 */
genomestart 1173
trait 1 1 0 0.0268685 0 0 0.249645 0.00815616 0 
trait 2 0.117952 0.132428 0.00875096 0.0354663 0.227404 0.00213975 0.182924 0.0705778 
trait 3 0 0.0388424 0.0473821 0.52041 0 0.393109 0 0.517069 
node 1 1 1 1
node 2 1 1 1
node 3 2 1 1
node 4 3 1 1
node 5 3 1 1
node 6 3 1 1
node 7 3 1 1
node 8 3 1 1
node 9 2 1 1
node 10 2 1 1
node 11 3 1 3
node 12 2 0 2
node 13 1 0 2
node 14 1 0 2
node 15 3 0 2
node 16 1 0 2
node 20 1 0 0
node 53 1 0 0
node 59 1 0 0
node 67 1 0 0
gene 3 1 12 6.61851 0 1 6.61851 1
gene 1 2 13 0.75634 0 2 0.75634 1
gene 1 3 14 -2.60376 0 3 -2.60376 0
gene 3 4 15 1.83107 0 4 1.83107 1
gene 1 5 16 -0.24163 0 5 -0.24163 1
gene 3 6 12 5.85844 0 2 5.85844 1
gene 2 7 12 -0.284299 0 3 -0.284299 1
gene 2 8 12 4.16673 0 4 4.16673 1
gene 1 9 12 2.80026 0 5 2.80026 1
gene 2 10 12 2.38136 0 6 2.38136 1
gene 2 11 12 -1.98157 0 7 -1.98157 1
gene 1 1 13 5.21086 0 5 5.21086 1
gene 1 2 14 2.67763 0 6 2.67763 1
gene 1 3 15 -0.276421 0 7 -0.276421 1
gene 2 8 13 1.47396 0 12 1.47396 1
gene 1 3 20 5.37362 0 18 5.37362 1
gene 1 20 14 -2.27218 0 19 -2.27218 1
gene 2 8 53 -2.24441 0 294 -2.24441 1
gene 2 53 13 -1.95059 0 295 -1.95059 1
gene 1 3 59 -3.39408 0 327 -3.39408 1
gene 1 59 20 -0.836894 0 328 -0.836894 1
gene 3 1 67 0.191885 0 382 0.191885 1
gene 3 67 13 0.962977 0 383 0.962977 1
gene 1 2 20 0.225532 0 405 0.225532 1
gene 2 9 67 0.71749 0 479 0.71749 1
gene 2 13 12 -1.18877 0 482 -1.18877 1
genomeend 1173

/* Organism #1521 Fitness: 277.829 Error: 0 */
genomestart 1521
trait 1 1 0 0.0268685 0 0 0.249645 0.00815616 0 
trait 2 0.117952 0.132428 0.00875096 0.0354663 0.227404 0.00213975 0.182924 0.0705778 
trait 3 0 0.0388424 0.0473821 0.52041 0 0.393109 0 0.517069 
node 1 1 1 1
node 2 1 1 1
node 3 2 1 1
node 4 3 1 1
node 5 3 1 1
node 6 3 1 1
node 7 1 1 1
node 8 3 1 1
node 9 2 1 1
node 10 2 1 1
node 11 3 1 3
node 12 2 0 2
node 13 1 0 2
node 14 1 0 2
node 15 3 0 2
node 16 1 0 2
node 20 1 0 0
node 53 1 0 0
node 59 1 0 0
node 67 1 0 0
gene 3 1 12 2.95274 0 1 2.95274 1
gene 1 2 13 0.171438 0 2 0.171438 1
gene 1 3 14 0.713523 0 3 0.713523 0
gene 3 4 15 -0.380528 0 4 -0.380528 1
gene 1 5 16 -0.971099 0 5 -0.971099 1
gene 3 6 12 5.98883 0 2 5.98883 1
gene 2 7 12 -0.970183 0 3 -0.970183 1
gene 2 8 12 1.06059 0 4 1.06059 1
gene 1 9 12 -1.89615 0 5 -1.89615 1
gene 2 10 12 -0.896558 0 6 -0.896558 1
gene 2 11 12 -1.32763 0 7 -1.32763 1
gene 1 1 13 -3.43305 0 5 -3.43305 1
gene 1 2 14 5.04686 0 6 5.04686 1
gene 1 3 15 4.72907 0 7 4.72907 1
gene 2 8 13 1.13887 0 12 1.13887 1
gene 1 3 20 5.45877 0 18 5.45877 1
gene 1 20 14 4.49522 0 19 4.49522 1
gene 2 8 53 -6.97386 0 294 -6.97386 1
gene 2 53 13 -5.38751 0 295 -5.38751 1
gene 1 3 59 -0.558525 0 327 -0.558525 1
gene 1 59 20 -2.49886 0 328 -2.49886 1
gene 3 1 67 0.575426 0 382 0.575426 1
gene 3 67 13 4.25615 0 383 4.25615 1
gene 1 2 20 2.06503 0 405 2.06503 1
gene 2 9 67 0.496536 0 479 0.496536 1
gene 2 13 12 -2.09693 0 482 -2.09693 1
genomeend 1521

/* Species #8 : (Size 4) (AF 0) (Age 1)  */


/* Organism #1242 Fitness: 4845 Error: 0 */
genomestart 1242
trait 1 0.1 0 0.032445 0.0522026 0.169602 0.285409 0.166031 0.000301699 
trait 2 0.116894 0.255204 0.00962769 0 1 0.00213975 0.185247 0.487152 
trait 3 0.471947 0 0.687097 0.42098 1 0 0.919736 0 
node 1 1 1 1
node 2 1 1 1
node 3 2 1 1
node 4 3 1 1
node 5 3 1 1
node 6 3 1 1
node 7 1 1 1
node 8 3 1 1
node 9 2 1 1
node 10 2 1 1
node 11 3 1 3
node 12 2 0 2
node 13 1 0 2
node 14 1 0 2
node 15 3 0 2
node 16 1 0 2
node 20 1 0 0
node 39 1 0 0
node 77 1 0 0
gene 3 1 12 -2.25364 0 1 -2.25364 1
gene 1 2 13 1.383 0 2 1.383 1
gene 1 3 14 -1.73566 0 3 -1.73566 1
gene 3 4 15 1.63671 0 4 1.63671 1
gene 1 5 16 -6.40195 0 5 -6.40195 1
gene 3 6 12 -0.391705 0 2 -0.391705 1
gene 2 7 12 -1.97356 0 3 -1.97356 0
gene 2 8 12 -0.587705 0 4 -0.587705 1
gene 1 9 12 8 0 5 8 1
gene 2 10 12 -1.24111 0 6 -1.24111 1
gene 2 11 12 3.09336 0 7 3.09336 1
gene 3 1 13 8 0 5 8 1
gene 1 2 14 8 0 6 8 1
gene 1 3 15 -1.07556 0 7 -1.07556 1
gene 2 8 13 -0.905637 0 12 -0.905637 1
gene 1 3 20 -5.85558 0 18 -5.85558 1
gene 1 20 14 1.90077 0 19 1.90077 1
gene 1 5 39 1.01192 0 171 1.01192 1
gene 1 39 16 0.348139 0 172 0.348139 1
gene 3 8 39 -0.153428 0 231 -0.153428 1
gene 1 11 20 -3.02889 0 275 -3.02889 1
gene 1 4 39 1.36705 0 422 1.36705 1
gene 2 7 77 -0.894589 0 450 -0.894589 1
gene 2 77 12 2.27699 0 451 2.27699 1
genomeend 1242

/* Organism #1323 Fitness: 3697.4 Error: 0 */
genomestart 1323
trait 1 0.1 0 0.032445 0.0522026 0.169602 0.285409 0.166031 0.000301699 
trait 2 0.116894 0.255204 0.00962769 0 1 0.00213975 0.185247 0.487152 
trait 3 0.471947 0 0.687097 0.42098 1 0 0.919736 0 
node 1 1 1 1
node 2 1 1 1
node 3 2 1 1
node 4 3 1 1
node 5 3 1 1
node 6 3 1 1
node 7 1 1 1
node 8 3 1 1
node 9 2 1 1
node 10 2 1 1
node 11 3 1 3
node 12 2 0 2
node 13 1 0 2
node 14 1 0 2
node 15 3 0 2
node 16 1 0 2
node 20 1 0 0
node 39 1 0 0
node 77 1 0 0
gene 3 1 12 -2.25364 0 1 -2.25364 1
gene 1 2 13 1.383 0 2 1.383 1
gene 1 3 14 -1.73566 0 3 -1.73566 1
gene 3 4 15 1.63671 0 4 1.63671 1
gene 1 5 16 -6.40195 0 5 -6.40195 1
gene 3 6 12 -0.391705 0 2 -0.391705 1
gene 2 7 12 -1.97356 0 3 -1.97356 0
gene 2 8 12 -0.587705 0 4 -0.587705 1
gene 1 9 12 8 0 5 8 1
gene 2 10 12 -1.24111 0 6 -1.24111 1
gene 2 11 12 3.09336 0 7 3.09336 1
gene 3 1 13 8 0 5 8 1
gene 1 2 14 8 0 6 8 1
gene 1 3 15 -1.07556 0 7 -1.07556 1
gene 2 8 13 -0.905637 0 12 -0.905637 1
gene 1 3 20 -5.85558 0 18 -5.85558 1
gene 1 20 14 1.90077 0 19 1.90077 1
gene 1 5 39 1.01192 0 171 1.01192 1
gene 1 39 16 0.348139 0 172 0.348139 1
gene 3 8 39 -0.153428 0 231 -0.153428 1
gene 1 11 20 -3.02889 0 275 -3.02889 1
gene 1 4 39 1.36705 0 422 1.36705 1
gene 2 7 77 -0.894589 0 450 -0.894589 1
gene 2 77 12 2.27699 0 451 2.27699 1
genomeend 1323

/* Organism #1500 Fitness: 2171.52 Error: 0 */
genomestart 1500
trait 1 0.1 0 0.032445 0.0522026 0.169602 0.285409 0.166031 0.000301699 
trait 2 0.116894 0.255204 0.00962769 0 1 0.00213975 0.185247 0.487152 
trait 3 0.471947 0 0.687097 0.42098 1 0 0.919736 0 
node 1 1 1 1
node 2 1 1 1
node 3 2 1 1
node 4 3 1 1
node 5 3 1 1
node 6 3 1 1
node 7 1 1 1
node 8 3 1 1
node 9 2 1 1
node 10 2 1 1
node 11 3 1 3
node 12 2 0 2
node 13 1 0 2
node 14 1 0 2
node 15 3 0 2
node 16 1 0 2
node 20 1 0 0
node 39 1 0 0
node 77 1 0 0
gene 3 1 12 -4.26847 0 1 -4.26847 1
gene 1 2 13 1.9212 0 2 1.9212 1
gene 1 3 14 -2.34741 0 3 -2.34741 1
gene 3 4 15 0.408185 0 4 0.408185 1
gene 1 5 16 -6.73423 0 5 -6.73423 1
gene 3 6 12 -2.62238 0 2 -2.62238 1
gene 2 7 12 -3.72356 0 3 -3.72356 0
gene 2 8 12 -2.67555 0 4 -2.67555 1
gene 1 9 12 5.93619 0 5 5.93619 1
gene 2 10 12 0.982315 0 6 0.982315 1
gene 2 11 12 3.59119 0 7 3.59119 1
gene 3 1 13 6.12792 0 5 6.12792 1
gene 1 2 14 8 0 6 8 1
gene 1 3 15 -3.14983 0 7 -3.14983 1
gene 2 8 13 1.18542 0 12 1.18542 1
gene 1 3 20 -4.62263 0 18 -4.62263 1
gene 1 20 14 3.70518 0 19 3.70518 1
gene 1 5 39 3.2445 0 171 3.2445 1
gene 1 39 16 -1.63679 0 172 -1.63679 1
gene 3 8 39 0.966983 0 231 0.966983 1
gene 1 11 20 -3.02889 0 275 -3.02889 1
gene 1 4 39 1.36705 0 422 1.36705 1
gene 2 7 77 0.734733 0 450 0.734733 1
gene 2 77 12 2.27699 0 451 2.27699 1
genomeend 1500

/* Organism #1369 Fitness: 4168.07 Error: 0 */
genomestart 1369
trait 1 0.1 0 0.032445 0.0522026 0.169602 0.285409 0.166031 0.000301699 
trait 2 0.116894 0.255204 0.00962769 0 1 0.00213975 0.185247 0.487152 
trait 3 0.471947 0 0.687097 0.42098 1 0 0.919736 0 
node 1 1 1 1
node 2 1 1 1
node 3 2 1 1
node 4 3 1 1
node 5 3 1 1
node 6 3 1 1
node 7 1 1 1
node 8 3 1 1
node 9 2 1 1
node 10 2 1 1
node 11 3 1 3
node 12 2 0 2
node 13 1 0 2
node 14 1 0 2
node 15 3 0 2
node 16 1 0 2
node 20 1 0 0
node 39 1 0 0
node 77 1 0 0
gene 3 1 12 -1.56018 0 1 -1.56018 1
gene 1 2 13 1.383 0 2 1.383 1
gene 1 3 14 0.575503 0 3 0.575503 1
gene 3 4 15 1.07555 0 4 1.07555 1
gene 1 5 16 -7.4859 0 5 -7.4859 1
gene 3 6 12 -0.833766 0 2 -0.833766 1
gene 2 7 12 0.353404 0 3 0.353404 0
gene 2 8 12 -1.96211 0 4 -1.96211 1
gene 1 9 12 8 0 5 8 1
gene 2 10 12 0.121158 0 6 0.121158 1
gene 2 11 12 4.79759 0 7 4.79759 1
gene 3 1 13 -2.19382 0 5 -2.19382 1
gene 1 2 14 8 0 6 8 1
gene 1 3 15 -3.53283 0 7 -3.53283 1
gene 2 8 13 -2.65038 0 12 -2.65038 1
gene 1 3 20 -4.46172 0 18 -4.46172 1
gene 1 20 14 1.90077 0 19 1.90077 1
gene 1 5 39 -0.268105 0 171 -0.268105 1
gene 1 39 16 2.11524 0 172 2.11524 1
gene 3 8 39 0.430315 0 231 0.430315 1
gene 1 11 20 -2.80297 0 275 -2.80297 1
gene 1 4 39 3.81677 0 422 3.81677 1
gene 2 7 77 -0.838511 0 450 -0.838511 1
gene 2 77 12 3.95947 0 451 3.95947 1
genomeend 1369

/* Species #9 : (Size 1) (AF 0) (Age 1)  */


/* Organism #1442 Fitness: 1894.46 Error: 0 */
genomestart 1442
trait 1 0.1 0 0.0297413 0.0523154 0.163837 0.268069 0.153408 0.000303915 
trait 2 0.117407 0.132428 0.00920261 0.0354663 0.227404 0.00213975 0.184121 0.070749 
trait 3 0.839112 0.0388424 0.0492459 0.42098 0.796838 0 0 0.0455855 
node 1 1 1 1
node 2 1 1 1
node 3 2 1 1
node 4 3 1 1
node 5 3 1 1
node 6 3 1 1
node 7 1 1 1
node 8 3 1 1
node 9 3 1 1
node 10 2 1 1
node 11 3 1 3
node 12 2 0 2
node 13 1 0 2
node 14 1 0 2
node 15 3 0 2
node 16 1 0 2
node 20 1 0 0
node 38 1 0 0
node 79 1 0 0
gene 3 1 12 1.97098 0 1 1.97098 0
gene 1 2 13 6.01518 0 2 6.01518 0
gene 1 3 14 -0.610376 0 3 -0.610376 1
gene 3 4 15 -0.570315 0 4 -0.570315 1
gene 1 5 16 -0.529196 0 5 -0.529196 1
gene 3 6 12 7.49692 0 2 7.49692 1
gene 2 7 12 0.396061 0 3 0.396061 1
gene 2 8 12 -1.8754 0 4 -1.8754 1
gene 1 9 12 3.83652 0 5 3.83652 1
gene 2 10 12 2.39764 0 6 2.39764 1
gene 2 11 12 4.42632 0 7 4.42632 1
gene 3 1 13 6.71749 0 5 6.71749 1
gene 1 2 14 -3.35235 0 6 -3.35235 1
gene 1 3 15 -5.04777 0 7 -5.04777 1
gene 2 8 13 6.67782 0 12 6.67782 1
gene 1 3 20 -2.23579 0 18 -2.23579 1
gene 1 20 14 -1.03132 0 19 -1.03132 1
gene 2 11 13 1.10851 0 161 1.10851 1
gene 3 4 38 0.734657 0 169 0.734657 1
gene 3 38 15 0.880688 0 170 0.880688 1
gene 3 1 79 2.22846 0 480 2.22846 1
gene 3 79 12 3.30876 0 481 3.30876 1
genomeend 1442

/* Species #10 : (Size 1) (AF 0) (Age 1)  */


/* Organism #87 Fitness: 3295.41 Error: 0 */
genomestart 87
trait 1 1 0 0.0268685 0 0 0.249645 0.00815616 0 
trait 2 0.117952 0.132428 0.00875096 0.0354663 0.227404 0.00213975 0.182924 0.0705778 
trait 3 0 0.0388424 0.0473821 0.52041 0 0.393109 0 0.517069 
node 1 1 1 1
node 2 1 1 1
node 3 2 1 1
node 4 3 1 1
node 5 3 1 1
node 6 3 1 1
node 7 1 1 1
node 8 3 1 1
node 9 2 1 1
node 10 2 1 1
node 11 3 1 3
node 12 2 0 2
node 13 1 0 2
node 14 1 0 2
node 15 3 0 2
node 16 1 0 2
node 20 1 0 0
node 53 1 0 0
node 59 1 0 0
node 67 1 0 0
gene 3 1 12 5.62215 0 1 5.62215 1
gene 1 2 13 0.019471 0 2 0.019471 1
gene 1 3 14 1.20663 0 3 1.20663 0
gene 3 4 15 -0.136304 0 4 -0.136304 1
gene 1 5 16 -2.11791 0 5 -2.11791 1
gene 3 6 12 8 0 2 8 1
gene 2 7 12 -3.3334 0 3 -3.3334 1
gene 2 8 12 2.6292 0 4 2.6292 1
gene 1 9 12 0.811907 0 5 0.811907 1
gene 2 10 12 2.61071 0 6 2.61071 1
gene 2 11 12 1.12575 0 7 1.12575 1
gene 1 1 13 2.37867 0 5 2.37867 1
gene 1 2 14 -0.590066 0 6 -0.590066 1
gene 1 3 15 -0.728498 0 7 -0.728498 1
gene 2 8 13 0.278015 0 12 0.278015 1
gene 1 3 20 2.3896 0 18 2.3896 1
gene 1 20 14 -0.108419 0 19 -0.108419 1
gene 2 8 53 -5.53629 0 294 -5.53629 1
gene 2 53 13 -0.553074 0 295 -0.553074 1
gene 1 3 59 -4.22037 0 327 -4.22037 1
gene 1 59 20 -1.4095 0 328 -1.4095 1
gene 3 1 67 4.71278 0 382 4.71278 1
gene 3 67 13 3.41636 0 383 3.41636 1
gene 1 2 20 3.30012 0 405 3.30012 1
gene 2 9 67 0.491699 0 479 0.491699 1
gene 2 13 12 0.518265 0 482 0.518265 1
genomeend 87

/* Species #11 : (Size 2) (AF 0) (Age 1)  */


/* Organism #89 Fitness: 4985.18 Error: 0 */
genomestart 89
trait 1 0.1 0 0.032445 0.0522026 0.169602 0.285409 0.166031 0.000301699 
trait 2 0.116894 0.913 0.00962769 0 1 0 0.588274 0.857128 
trait 3 0.471947 0 0.687097 0.42098 1 0 0.919736 0 
node 1 1 1 1
node 2 1 1 1
node 3 2 1 1
node 4 3 1 1
node 5 3 1 1
node 6 3 1 1
node 7 1 1 1
node 8 3 1 1
node 9 2 1 1
node 10 2 1 1
node 11 3 1 3
node 12 2 0 2
node 13 1 0 2
node 14 1 0 2
node 15 3 0 2
node 16 1 0 2
node 20 1 0 0
node 39 1 0 0
gene 3 1 12 1.4373 0 1 1.4373 1
gene 1 2 13 0.150685 0 2 0.150685 1
gene 1 3 14 3.67725 0 3 3.67725 1
gene 3 4 15 -2.08083 0 4 -2.08083 1
gene 1 5 16 0.606632 0 5 0.606632 1
gene 3 6 12 4.48448 0 2 4.48448 1
gene 2 7 12 -0.45568 0 3 -0.45568 1
gene 2 8 12 2.56035 0 4 2.56035 1
gene 1 9 12 -0.459456 0 5 -0.459456 1
gene 2 10 12 0.523087 0 6 0.523087 1
gene 2 11 12 -0.34463 0 7 -0.34463 1
gene 3 1 13 3.25346 0 5 3.25346 1
gene 1 2 14 2.41951 0 6 2.41951 1
gene 1 3 15 2.90154 0 7 2.90154 1
gene 2 8 13 0.977584 0 12 0.977584 1
gene 1 3 20 0.779824 0 18 0.779824 1
gene 1 20 14 -1.63175 0 19 -1.63175 1
gene 1 5 39 2.60384 0 171 2.60384 1
gene 1 39 16 -0.601291 0 172 -0.601291 1
gene 3 8 39 0.245447 0 231 0.245447 1
gene 1 11 20 -0.343944 0 275 -0.343944 1
gene 1 4 39 -4.09154 0 422 -4.09154 1
genomeend 89

/* Organism #1484 Fitness: 4110.97 Error: 0 */
genomestart 1484
trait 1 0.1 0 0.032445 0.0522026 0.169602 0.285409 0.166031 0.000301699 
trait 2 0.116894 0.913 0.00962769 0 1 0 0.588274 0.857128 
trait 3 0.471947 0 0.687097 0.42098 1 0 0.919736 0 
node 1 1 1 1
node 2 1 1 1
node 3 2 1 1
node 4 3 1 1
node 5 3 1 1
node 6 3 1 1
node 7 1 1 1
node 8 3 1 1
node 9 2 1 1
node 10 2 1 1
node 11 3 1 3
node 12 2 0 2
node 13 1 0 2
node 14 1 0 2
node 15 3 0 2
node 16 1 0 2
node 20 1 0 0
node 39 1 0 0
gene 3 1 12 1.4373 0 1 1.4373 1
gene 1 2 13 0.150685 0 2 0.150685 1
gene 1 3 14 3.67725 0 3 3.67725 1
gene 3 4 15 -2.08083 0 4 -2.08083 1
gene 1 5 16 0.606632 0 5 0.606632 1
gene 3 6 12 4.48448 0 2 4.48448 1
gene 2 7 12 -0.45568 0 3 -0.45568 1
gene 2 8 12 2.56035 0 4 2.56035 1
gene 1 9 12 -0.459456 0 5 -0.459456 1
gene 2 10 12 0.523087 0 6 0.523087 1
gene 2 11 12 -0.34463 0 7 -0.34463 1
gene 3 1 13 3.25346 0 5 3.25346 1
gene 1 2 14 2.41951 0 6 2.41951 1
gene 1 3 15 2.90154 0 7 2.90154 1
gene 2 8 13 0.977584 0 12 0.977584 1
gene 1 3 20 0.779824 0 18 0.779824 1
gene 1 20 14 -1.63175 0 19 -1.63175 1
gene 1 5 39 2.60384 0 171 2.60384 1
gene 1 39 16 -0.601291 0 172 -0.601291 1
gene 3 8 39 0.245447 0 231 0.245447 1
gene 1 11 20 -0.343944 0 275 -0.343944 1
gene 1 4 39 -4.09154 0 422 -4.09154 1
gene 1 2 12 0.757439 0 588 0.757439 1
genomeend 1484

/* Species #12 : (Size 1) (AF 0) (Age 1)  */


/* Organism #1498 Fitness: 2547.89 Error: 0 */
genomestart 1498
trait 1 0.268157 0 0.0268685 0 0.157712 0.249645 0.00815616 0 
trait 2 0.117952 0.132428 0.00875096 0.0354663 0.227404 0.00213975 0.182924 0.0705778 
trait 3 0.927726 0.0388424 0 1 0 0.69161 0.885617 0.144102 
node 1 1 1 1
node 2 1 1 1
node 3 2 1 1
node 4 3 1 1
node 5 2 1 1
node 6 3 1 1
node 7 1 1 1
node 8 3 1 1
node 9 2 1 1
node 10 2 1 1
node 11 3 1 3
node 12 2 0 2
node 13 1 0 2
node 14 1 0 2
node 15 1 0 2
node 16 1 0 2
node 20 1 0 0
node 53 3 0 0
node 59 1 0 0
gene 3 1 12 6.17553 0 1 6.17553 1
gene 1 2 13 0.482803 0 2 0.482803 1
gene 1 3 14 -2.3188 0 3 -2.3188 0
gene 3 4 15 3.37374 0 4 3.37374 1
gene 1 5 16 -5.34225 0 5 -5.34225 1
gene 3 6 12 -1.05678 0 2 -1.05678 1
gene 2 7 12 0.604829 0 3 0.604829 1
gene 2 8 12 -3.5677 0 4 -3.5677 1
gene 1 9 12 2.60635 0 5 2.60635 1
gene 2 10 12 5.88301 0 6 5.88301 1
gene 2 11 12 -4.14426 0 7 -4.14426 1
gene 3 1 13 5.96286 0 5 5.96286 1
gene 1 2 14 -0.681862 0 6 -0.681862 1
gene 1 3 15 7.14713 0 7 7.14713 1
gene 2 8 13 2.56378 0 12 2.56378 1
gene 1 3 20 0.948366 0 18 0.948366 1
gene 1 20 14 -3.33155 0 19 -3.33155 1
gene 2 8 53 4.0622 0 294 4.0622 1
gene 3 53 13 -1.94342 0 295 -1.94342 1
gene 1 3 59 2.35221 0 327 2.35221 1
gene 1 59 20 2.42897 0 328 2.42897 1
gene 3 20 15 0.468841 0 401 0.468841 1
gene 3 20 16 3.29615 0 483 3.29615 1
gene 3 8 15 0.965697 0 514 0 1
genomeend 1498
