
/* Species #1 : (Size 8) (AF 0) (Age 1)  */


/* Organism #4 Fitness: 7.8158 Error: 0 */
genomestart 4
trait 1 0.1 0 0 0 0.019138 0 0.0145529 0.000359546 
trait 2 0.13125 0.00965237 0.000704072 0.0354663 0.0815258 0.00213975 0.15371 0.0659175 
trait 3 0.288544 0 0.0299596 0.110561 0 0 0 0.16146 
node 1 2 1 1
node 2 2 1 1
node 3 3 1 1
node 4 2 1 1
node 5 2 1 1
node 6 2 1 1
node 7 1 1 1
node 8 1 1 1
node 9 1 1 1
node 10 3 1 1
node 11 3 1 3
node 12 3 0 2
node 13 2 0 2
node 14 2 0 2
node 15 1 0 2
gene 2 1 12 -0.0191351 0 1 -0.0191351 1
gene 2 2 12 0.864406 0 2 0.864406 1
gene 2 3 12 -0.0410779 0 3 -0.0410779 1
gene 1 4 12 0.196203 0 4 0.196203 1
gene 2 5 12 -0.921171 0 5 -0.921171 1
gene 2 6 12 0.496536 0 2 0.496536 1
gene 1 7 12 -0.649495 0 3 -0.649495 1
gene 2 8 12 -0.345042 0 4 -0.345042 1
gene 1 9 12 0.0518204 0 5 0.0518204 1
gene 2 10 12 0.212958 0 6 0.212958 1
gene 2 11 12 -0.164159 0 7 -0.164159 1
gene 3 12 13 0.865749 0 5 0.865749 1
gene 1 13 14 -0.31547 0 6 -0.31547 1
gene 1 11 15 0.573046 0 7 0.573046 1
genomeend 4

/* Organism #3 Fitness: 7.73216 Error: 0 */
genomestart 3
trait 1 0.1 0 0 0 0.019138 0 0.0145529 0.000359546 
trait 2 0.13125 0.00965237 0.000704072 0.0354663 0.0815258 0.00213975 0.15371 0.0659175 
trait 3 0.288544 0 0.0299596 0.110561 0 0 0 0.16146 
node 1 1 1 1
node 2 3 1 1
node 3 3 1 1
node 4 3 1 1
node 5 3 1 1
node 6 3 1 1
node 7 3 1 1
node 8 1 1 1
node 9 3 1 1
node 10 2 1 1
node 11 2 1 3
node 12 1 0 2
node 13 3 0 2
node 14 2 0 2
node 15 2 0 2
gene 2 1 12 0.289651 0 1 0.289651 1
gene 2 2 12 0.572283 0 2 0.572283 1
gene 3 3 12 0.342723 0 3 0.342723 1
gene 2 4 12 -0.420698 0 4 -0.420698 1
gene 2 5 12 -0.594653 0 5 -0.594653 1
gene 3 6 12 0.0886563 0 2 0.0886563 1
gene 3 7 12 -0.889737 0 3 -0.889737 1
gene 3 8 12 0.17835 0 4 0.17835 1
gene 1 9 12 -0.720267 0 5 -0.720267 1
gene 1 10 12 -0.317423 0 6 -0.317423 1
gene 2 11 12 -0.163244 0 7 -0.163244 1
gene 1 12 13 0.429731 0 5 0.429731 1
gene 1 13 14 0.929258 0 6 0.929258 1
gene 3 11 15 -0.737327 0 7 -0.737327 1
genomeend 3

/* Organism #5 Fitness: 7.7317 Error: 0 */
genomestart 5
trait 1 0.1 0 0 0 0.019138 0 0.0145529 0.000359546 
trait 2 0.13125 0.00965237 0.000704072 0.0354663 0.0815258 0.00213975 0.15371 0.0659175 
trait 3 0.288544 0 0.0299596 0.110561 0 0 0 0.16146 
node 1 2 1 1
node 2 3 1 1
node 3 3 1 1
node 4 3 1 1
node 5 2 1 1
node 6 3 1 1
node 7 3 1 1
node 8 3 1 1
node 9 3 1 1
node 10 3 1 1
node 11 1 1 3
node 12 1 0 2
node 13 1 0 2
node 14 3 0 2
node 15 3 0 2
gene 3 1 12 0.0226753 0 1 0.0226753 1
gene 1 2 12 -0.235878 0 2 -0.235878 1
gene 1 3 12 -0.779839 0 3 -0.779839 1
gene 3 4 12 0.867 0 4 0.867 1
gene 3 5 12 0.47496 0 5 0.47496 1
gene 3 6 12 0.237739 0 2 0.237739 1
gene 2 7 12 -0.631123 0 3 -0.631123 1
gene 3 8 12 -0.118748 0 4 -0.118748 1
gene 3 9 12 0.754906 0 5 0.754906 1
gene 1 10 12 -0.211035 0 6 -0.211035 1
gene 3 11 12 -0.429853 0 7 -0.429853 1
gene 2 12 13 -0.236488 0 5 -0.236488 1
gene 1 13 14 0.380627 0 6 0.380627 1
gene 3 11 15 -0.764702 0 7 -0.764702 1
genomeend 5

/* Organism #2 Fitness: 7.7317 Error: 0 */
genomestart 2
trait 1 0.1 0 0 0 0.019138 0 0.0145529 0.000359546 
trait 2 0.13125 0.00965237 0.000704072 0.0354663 0.0815258 0.00213975 0.15371 0.0659175 
trait 3 0.288544 0 0.0299596 0.110561 0 0 0 0.16146 
node 1 3 1 1
node 2 1 1 1
node 3 2 1 1
node 4 2 1 1
node 5 1 1 1
node 6 3 1 1
node 7 3 1 1
node 8 1 1 1
node 9 2 1 1
node 10 1 1 1
node 11 3 1 3
node 12 1 0 2
node 13 1 0 2
node 14 2 0 2
node 15 3 0 2
gene 1 1 12 -0.944151 0 1 -0.944151 1
gene 2 2 12 0.0983001 0 2 0.0983001 1
gene 3 3 12 0.77813 0 3 0.77813 1
gene 1 4 12 -0.999725 0 4 -0.999725 1
gene 1 5 12 -0.177435 0 5 -0.177435 1
gene 1 6 12 0.713095 0 2 0.713095 1
gene 2 7 12 -0.524979 0 3 -0.524979 1
gene 1 8 12 0.849422 0 4 0.849422 1
gene 2 9 12 -0.804712 0 5 -0.804712 1
gene 3 10 12 0.632466 0 6 0.632466 1
gene 2 11 12 -0.344432 0 7 -0.344432 1
gene 2 12 13 0.834132 0 5 0.834132 1
gene 1 13 14 -0.482528 0 6 -0.482528 1
gene 3 11 15 0.0239265 0 7 0.0239265 1
genomeend 2

/* Organism #7 Fitness: 7.6476 Error: 0 */
genomestart 7
trait 1 0.1 0 0 0 0.019138 0 0.0145529 0.000359546 
trait 2 0.13125 0.00965237 0.000704072 0.0354663 0.0815258 0.00213975 0.15371 0.0659175 
trait 3 0.288544 0 0.0299596 0.110561 0 0 0 0.16146 
node 1 3 1 1
node 2 2 1 1
node 3 3 1 1
node 4 1 1 1
node 5 2 1 1
node 6 2 1 1
node 7 2 1 1
node 8 1 1 1
node 9 1 1 1
node 10 1 1 1
node 11 3 1 3
node 12 1 0 2
node 13 2 0 2
node 14 3 0 2
node 15 2 0 2
gene 3 1 12 -0.0112308 0 1 -0.0112308 1
gene 1 2 12 -0.707724 0 2 -0.707724 1
gene 3 3 12 0.110477 0 3 0.110477 1
gene 2 4 12 0.849666 0 4 0.849666 1
gene 2 5 12 -0.857051 0 5 -0.857051 1
gene 2 6 12 -0.851863 0 2 -0.851863 1
gene 3 7 12 0.538652 0 3 0.538652 1
gene 2 8 12 -0.403363 0 4 -0.403363 1
gene 1 9 12 -0.615223 0 5 -0.615223 1
gene 1 10 12 0.572771 0 6 0.572771 1
gene 2 11 12 0.0730003 0 7 0.0730003 1
gene 2 12 13 0.793542 0 5 0.793542 1
gene 3 13 14 0.897 0 6 0.897 1
gene 1 11 15 -0.189337 0 7 -0.189337 1
genomeend 7

/* Organism #9 Fitness: 4.15354 Error: 0 */
genomestart 9
trait 1 0.1 0 0 0 0.019138 0 0.0145529 0.000359546 
trait 2 0.13125 0.00965237 0.000704072 0.0354663 0.0815258 0.00213975 0.15371 0.0659175 
trait 3 0.288544 0 0.0299596 0.110561 0 0 0 0.16146 
node 1 2 1 1
node 2 2 1 1
node 3 3 1 1
node 4 2 1 1
node 5 2 1 1
node 6 2 1 1
node 7 1 1 1
node 8 1 1 1
node 9 1 1 1
node 10 3 1 1
node 11 3 1 3
node 12 3 0 2
node 13 2 0 2
node 14 2 0 2
node 15 1 0 2
gene 2 1 12 -0.0191351 0 1 -0.0191351 1
gene 2 2 12 0.864406 0 2 0.864406 1
gene 2 3 12 -0.0410779 0 3 -0.0410779 1
gene 1 4 12 0.196203 0 4 0.196203 1
gene 2 5 12 -0.921171 0 5 -0.921171 1
gene 2 6 12 0.496536 0 2 0.496536 1
gene 1 7 12 -0.649495 0 3 -0.649495 1
gene 2 8 12 -0.345042 0 4 -0.345042 1
gene 1 9 12 0.0518204 0 5 0.0518204 1
gene 2 10 12 0.212958 0 6 0.212958 1
gene 2 11 12 -0.164159 0 7 -0.164159 1
gene 3 12 13 0.865749 0 5 0.865749 1
gene 1 13 14 -0.31547 0 6 -0.31547 1
gene 1 11 15 0.573046 0 7 0.573046 1
genomeend 9

/* Organism #1 Fitness: 3.49406 Error: 0 */
genomestart 1
trait 1 0.1 0 0 0 0.019138 0 0.0145529 0.000359546 
trait 2 0.13125 0.00965237 0.000704072 0.0354663 0.0815258 0.00213975 0.15371 0.0659175 
trait 3 0.288544 0 0.0299596 0.110561 0 0 0 0.16146 
node 1 1 1 1
node 2 1 1 1
node 3 2 1 1
node 4 1 1 1
node 5 2 1 1
node 6 2 1 1
node 7 2 1 1
node 8 1 1 1
node 9 1 1 1
node 10 2 1 1
node 11 3 1 3
node 12 1 0 2
node 13 2 0 2
node 14 1 0 2
node 15 3 0 2
gene 2 1 12 -0.0634785 0 1 -0.0634785 1
gene 2 2 12 0.322733 0 2 0.322733 1
gene 2 3 12 0.134098 0 3 0.134098 1
gene 3 4 12 -0.801874 0 4 -0.801874 1
gene 1 5 12 -0.0221564 0 5 -0.0221564 1
gene 3 6 12 0.825312 0 2 0.825312 1
gene 1 7 12 -0.889218 0 3 -0.889218 1
gene 1 8 12 -0.397046 0 4 -0.397046 1
gene 2 9 12 -0.220405 0 5 -0.220405 1
gene 2 10 12 -0.557237 0 6 -0.557237 1
gene 1 11 12 -0.0520646 0 7 -0.0520646 1
gene 3 12 13 0.79516 0 5 0.79516 1
gene 2 13 14 -0.339702 0 6 -0.339702 1
gene 3 11 15 -0.279061 0 7 -0.279061 1
genomeend 1

/* Organism #20 Fitness: 3.33146 Error: 0 */
/* ##------$ WINNER 20 SPECIES #1 $------## */
genomestart 20
trait 1 0.1 0 0 0 0.019138 0 0.0145529 0.000359546 
trait 2 0.13125 0.00965237 0.000704072 0.0354663 0.0815258 0.00213975 0.15371 0.0659175 
trait 3 0.288544 0 0.0299596 0.110561 0 0 0 0.16146 
node 1 2 1 1
node 2 2 1 1
node 3 3 1 1
node 4 2 1 1
node 5 2 1 1
node 6 2 1 1
node 7 1 1 1
node 8 1 1 1
node 9 1 1 1
node 10 3 1 1
node 11 3 1 3
node 12 3 0 2
node 13 2 0 2
node 14 2 0 2
node 15 1 0 2
gene 2 1 12 0.289651 0 1 0.289651 1
gene 2 2 12 0.864406 0 2 0.864406 1
gene 3 3 12 0.342723 0 3 0.342723 1
gene 2 4 12 -0.420698 0 4 -0.420698 1
gene 2 5 12 -0.921171 0 5 -0.921171 1
gene 2 6 12 0.496536 0 2 0.496536 1
gene 3 7 12 -0.889737 0 3 -0.889737 1
gene 2 8 12 -0.345042 0 4 -0.345042 1
gene 1 9 12 -0.720267 0 5 -0.720267 1
gene 2 10 12 0.212958 0 6 0.212958 1
gene 2 11 12 -0.164159 0 7 -0.164159 1
gene 1 12 13 0.429731 0 5 0.429731 1
gene 1 13 14 -0.31547 0 6 -0.31547 1
gene 1 11 15 0.573046 0 7 0.573046 1
genomeend 20
