
/* Species #1 : (Size 8) (AF 0) (Age 1)  */


/* Organism #28 Fitness: 3.75263 Error: 0 */
genomestart 28
trait 1 0.1 0 0 0 0.019138 0 0.0145529 0.000359546 
trait 2 0.13125 0.00965237 0.000704072 0.0354663 0.0815258 0.00213975 0.15371 0.0659175 
trait 3 0.288544 0 0.0299596 0.110561 0 0 0 0.16146 
node 1 3 1 1
node 2 1 1 1
node 3 3 1 1
node 4 2 1 1
node 5 2 1 1
node 6 1 1 1
node 7 1 1 3
node 8 2 0 2
node 9 3 0 2
node 10 3 0 2
node 11 1 0 2
gene 2 1 8 -0.405038 0 1 -0.405038 1
gene 1 2 8 -6.49944 0 2 -6.49944 1
gene 1 3 8 -4.88324 0 3 -4.88324 1
gene 2 4 8 -0.43659 0 4 -0.43659 1
gene 2 5 8 2.76994 0 5 2.76994 1
gene 3 6 8 1.1611 0 6 1.1611 1
gene 3 7 8 -1.04839 0 7 -1.04839 1
gene 1 5 9 3.13925 0 5 3.13925 1
gene 1 6 10 2.70204 0 6 2.70204 1
gene 1 7 11 1.66146 0 7 1.66146 1
genomeend 28

/* Organism #27 Fitness: 3.653 Error: 0 */
genomestart 27
trait 1 0.1 0 0 0 0.019138 0 0.0145529 0.000359546 
trait 2 0.13125 0.00965237 0.000704072 0.0354663 0.0815258 0.00213975 0.15371 0.0659175 
trait 3 0.288544 0 0.0299596 0.110561 0 0 0 0.16146 
node 1 3 1 1
node 2 1 1 1
node 3 3 1 1
node 4 2 1 1
node 5 2 1 1
node 6 1 1 1
node 7 1 1 3
node 8 2 0 2
node 9 3 0 2
node 10 3 0 2
node 11 2 0 2
gene 2 1 8 0.393555 0 1 0.393555 1
gene 1 2 8 -5.65888 0 2 -5.65888 1
gene 1 3 8 -4.50336 0 3 -4.50336 1
gene 2 4 8 -2.29723 0 4 -2.29723 1
gene 2 5 8 0.740837 0 5 0.740837 1
gene 3 6 8 1.72042 0 6 1.72042 1
gene 3 7 8 1.44467 0 7 1.44467 1
gene 1 5 9 5.20886 0 5 5.20886 1
gene 1 6 10 0.924871 0 6 0.924871 1
gene 1 7 11 1.65757 0 7 1.65757 1
genomeend 27

/* Organism #23 Fitness: 3.58213 Error: 0 */
genomestart 23
trait 1 0.1 0 0 0 0.019138 0 0.0145529 0.000359546 
trait 2 0.13125 0.00965237 0.000704072 0.0354663 0.0815258 0.00213975 0.15371 0.0659175 
trait 3 0.288544 0 0.0299596 0.110561 0 0 0 0.16146 
node 1 3 1 1
node 2 1 1 1
node 3 3 1 1
node 4 2 1 1
node 5 2 1 1
node 6 1 1 1
node 7 1 1 3
node 8 2 0 2
node 9 3 0 2
node 10 3 0 2
node 11 2 0 2
gene 2 1 8 -0.04017 0 1 -0.04017 1
gene 1 2 8 -5.50194 0 2 -5.50194 1
gene 1 3 8 -4.92883 0 3 -4.92883 1
gene 2 4 8 -2.60909 0 4 -2.60909 1
gene 2 5 8 0.364391 0 5 0.364391 1
gene 3 6 8 2.17463 0 6 2.17463 1
gene 3 7 8 1.36013 0 7 1.36013 1
gene 1 5 9 4.69924 0 5 4.69924 1
gene 1 6 10 1.52956 0 6 1.52956 1
gene 1 7 11 1.65757 0 7 1.65757 1
genomeend 23

/* Organism #32 Fitness: 3.54462 Error: 0 */
genomestart 32
trait 1 0.1 0 0 0 0.019138 0 0.0145529 0.000359546 
trait 2 0.13125 0.00965237 0.000704072 0.0354663 0.0815258 0.00213975 0.15371 0.0659175 
trait 3 0.288544 0 0.0299596 0.110561 0 0 0 0.16146 
node 1 3 1 1
node 2 1 1 1
node 3 3 1 1
node 4 2 1 1
node 5 2 1 1
node 6 1 1 1
node 7 1 1 3
node 8 2 0 2
node 9 3 0 2
node 10 3 0 2
node 11 1 0 2
gene 2 1 8 0.393555 0 1 0.393555 1
gene 1 2 8 -5.65888 0 2 -5.65888 1
gene 1 3 8 -4.50336 0 3 -4.50336 1
gene 2 4 8 -0.43659 0 4 -0.43659 1
gene 2 5 8 2.76994 0 5 2.76994 1
gene 3 6 8 1.1611 0 6 1.1611 1
gene 3 7 8 -1.04839 0 7 -1.04839 1
gene 1 5 9 3.13925 0 5 3.13925 1
gene 1 6 10 2.70204 0 6 2.70204 1
gene 1 7 11 1.65757 0 7 1.65757 1
genomeend 32

/* Organism #21 Fitness: 3.46396 Error: 0 */
genomestart 21
trait 1 0.1 0 0 0 0.019138 0 0.0145529 0.000359546 
trait 2 0.13125 0.00965237 0.000704072 0.0354663 0.0815258 0.00213975 0.15371 0.0659175 
trait 3 0.288544 0 0.0299596 0.110561 0 0 0 0.16146 
node 1 3 1 1
node 2 1 1 1
node 3 3 1 1
node 4 2 1 1
node 5 2 1 1
node 6 1 1 1
node 7 1 1 3
node 8 2 0 2
node 9 3 0 2
node 10 3 0 2
node 11 2 0 2
gene 2 1 8 0.82728 0 1 0.82728 1
gene 1 2 8 -5.81582 0 2 -5.81582 1
gene 1 3 8 -4.0779 0 3 -4.0779 1
gene 2 4 8 -1.98537 0 4 -1.98537 1
gene 2 5 8 1.11728 0 5 1.11728 1
gene 3 6 8 1.26621 0 6 1.26621 1
gene 3 7 8 1.52921 0 7 1.52921 1
gene 1 5 9 5.71848 0 5 5.71848 1
gene 1 6 10 0.320185 0 6 0.320185 1
gene 1 7 11 1.65757 0 7 1.65757 1
genomeend 21

/* Organism #18 Fitness: 3.2808 Error: 0 */
genomestart 18
trait 1 0.1 0 0 0 0.019138 0 0.0145529 0.000359546 
trait 2 0.13125 0.00965237 0.000704072 0.0354663 0.0815258 0.00213975 0.15371 0.0659175 
trait 3 0.288544 0 0.0299596 0.110561 0 0 0 0.16146 
node 1 3 1 1
node 2 1 1 1
node 3 3 1 1
node 4 2 1 1
node 5 2 1 1
node 6 1 1 1
node 7 1 1 3
node 8 2 0 2
node 9 3 0 2
node 10 3 0 2
node 11 2 0 2
gene 2 1 8 -0.90762 0 1 -0.90762 1
gene 1 2 8 -5.18806 0 2 -5.18806 1
gene 1 3 8 -5.77976 0 3 -5.77976 1
gene 2 4 8 -3.23281 0 4 -3.23281 1
gene 2 5 8 -0.388501 0 5 -0.388501 1
gene 3 6 8 3.08306 0 6 3.08306 1
gene 3 7 8 1.19106 0 7 1.19106 1
gene 1 5 9 3.68 0 5 3.68 1
gene 1 6 10 2.73893 0 6 2.73893 1
gene 1 7 11 1.65757 0 7 1.65757 1
genomeend 18

/* Organism #20 Fitness: 3.09506 Error: 0 */
genomestart 20
trait 1 0.1 0 0 0 0.019138 0 0.0145529 0.000359546 
trait 2 0.13125 0.00965237 0.000704072 0.0354663 0.0815258 0.00213975 0.15371 0.0659175 
trait 3 0.288544 0 0.0299596 0.110561 0 0 0 0.16146 
node 1 3 1 1
node 2 1 1 1
node 3 3 1 1
node 4 2 1 1
node 5 2 1 1
node 6 1 1 1
node 7 1 1 3
node 8 2 0 2
node 9 3 0 2
node 10 3 0 2
node 11 2 0 2
gene 2 1 8 -0.90762 0 1 -0.90762 1
gene 1 2 8 -5.18806 0 2 -5.18806 1
gene 1 3 8 -5.77976 0 3 -5.77976 1
gene 2 4 8 -3.23281 0 4 -3.23281 1
gene 2 5 8 -0.388501 0 5 -0.388501 1
gene 3 6 8 3.08306 0 6 3.08306 1
gene 3 7 8 1.19106 0 7 1.19106 1
gene 1 5 9 3.68 0 5 3.68 1
gene 1 6 10 2.73893 0 6 2.73893 1
gene 1 7 11 1.65757 0 7 1.65757 1
genomeend 20

/* Organism #33 Fitness: 3.06969 Error: 0 */
/* ##------$ WINNER 33 SPECIES #1 $------## */
genomestart 33
trait 1 0.1 0 0 0 0.019138 0 0.0145529 0.000359546 
trait 2 0.13125 0.00965237 0.000704072 0.0354663 0.0815258 0.00213975 0.15371 0.0659175 
trait 3 0.288544 0 0.0299596 0.110561 0 0 0 0.16146 
node 1 3 1 1
node 2 1 1 1
node 3 3 1 1
node 4 2 1 1
node 5 2 1 1
node 6 1 1 1
node 7 1 1 3
node 8 2 0 2
node 9 3 0 2
node 10 3 0 2
node 11 2 0 2
gene 2 1 8 -0.405038 0 1 -0.405038 1
gene 1 2 8 -6.49944 0 2 -6.49944 1
gene 1 3 8 -4.88324 0 3 -4.88324 1
gene 2 4 8 -0.43659 0 4 -0.43659 1
gene 2 5 8 0.740837 0 5 0.740837 1
gene 3 6 8 1.1611 0 6 1.1611 1
gene 3 7 8 -1.04839 0 7 -1.04839 1
gene 1 5 9 3.13925 0 5 3.13925 1
gene 1 6 10 2.70204 0 6 2.70204 1
gene 1 7 11 1.66146 0 7 1.66146 1
genomeend 33
