
/* Species #1 : (Size 15) (AF 0) (Age 1)  */


/* Organism #1 Fitness: 0 Error: 0 */
genomestart 1
trait 1 0.1 0 0 0 0 0 0 0 
trait 2 0.2 0 0 0 0 0 0 0 
trait 3 0.3 0 0 0 0 0 0 0 
node 1 1 1 1
node 2 1 1 1
node 3 1 1 1
node 4 2 1 1
node 5 3 1 1
node 6 2 1 1
node 7 2 1 3
node 8 1 0 2
node 9 2 0 2
node 10 1 0 2
node 11 1 0 2
gene 3 1 8 -0.854854 0 1 -0.854854 1
gene 2 2 8 -0.483779 0 2 -0.483779 1
gene 1 3 8 0.153508 0 3 0.153508 1
gene 1 4 8 0.192206 0 4 0.192206 1
gene 1 5 8 -0.366283 0 5 -0.366283 1
gene 1 6 8 -0.684622 0 6 -0.684622 1
gene 3 7 8 -0.888791 0 7 -0.888791 1
gene 1 5 9 -0.746178 0 5 -0.746178 1
gene 3 6 10 -0.575732 0 6 -0.575732 1
gene 3 7 11 -0.227973 0 7 -0.227973 1
genomeend 1

/* Organism #2 Fitness: 0 Error: 0 */
genomestart 2
trait 1 0.1 0 0 0 0 0 0 0 
trait 2 0.2 0 0 0 0 0 0 0 
trait 3 0.3 0 0 0 0 0 0 0 
node 1 1 1 1
node 2 1 1 1
node 3 2 1 1
node 4 3 1 1
node 5 2 1 1
node 6 2 1 1
node 7 1 1 3
node 8 1 0 2
node 9 2 0 2
node 10 2 0 2
node 11 2 0 2
gene 3 1 8 0.21601 0 1 0.21601 1
gene 2 2 8 -0.989288 0 2 -0.989288 1
gene 2 3 8 0.0635395 0 3 0.0635395 1
gene 1 4 8 -0.395459 0 4 -0.395459 1
gene 2 5 8 -0.0128483 0 5 -0.0128483 1
gene 2 6 8 -0.184179 0 6 -0.184179 1
gene 2 7 8 0.72985 0 7 0.72985 1
gene 1 5 9 0.927488 0 5 0.927488 1
gene 3 6 10 0.573992 0 6 0.573992 1
gene 2 7 11 0.768426 0 7 0.768426 1
genomeend 2

/* Organism #3 Fitness: 0 Error: 0 */
genomestart 3
trait 1 0.1 0 0 0 0 0 0 0 
trait 2 0.2 0 0 0 0 0 0 0 
trait 3 0.3 0 0 0 0 0 0 0 
node 1 1 1 1
node 2 2 1 1
node 3 3 1 1
node 4 1 1 1
node 5 3 1 1
node 6 3 1 1
node 7 2 1 3
node 8 2 0 2
node 9 2 0 2
node 10 1 0 2
node 11 2 0 2
gene 2 1 8 0.43199 0 1 0.43199 1
gene 1 2 8 -0.844539 0 2 -0.844539 1
gene 3 3 8 -0.585986 0 3 -0.585986 1
gene 1 4 8 -0.395642 0 4 -0.395642 1
gene 3 5 8 0.286996 0 5 0.286996 1
gene 1 6 8 -0.605457 0 6 -0.605457 1
gene 1 7 8 0.484787 0 7 0.484787 1
gene 1 5 9 0.808985 0 5 0.808985 1
gene 3 6 10 0.656301 0 6 0.656301 1
gene 2 7 11 -0.403851 0 7 -0.403851 1
genomeend 3

/* Organism #4 Fitness: 0 Error: 0 */
genomestart 4
trait 1 0.1 0 0 0 0 0 0 0 
trait 2 0.2 0 0 0 0 0 0 0 
trait 3 0.3 0 0 0 0 0 0 0 
node 1 3 1 1
node 2 3 1 1
node 3 1 1 1
node 4 1 1 1
node 5 3 1 1
node 6 1 1 1
node 7 3 1 3
node 8 2 0 2
node 9 1 0 2
node 10 3 0 2
node 11 2 0 2
gene 3 1 8 -0.406873 0 1 -0.406873 1
gene 1 2 8 0.31904 0 2 0.31904 1
gene 3 3 8 0.906308 0 3 0.906308 1
gene 1 4 8 0.139073 0 4 0.139073 1
gene 2 5 8 -0.721366 0 5 -0.721366 1
gene 1 6 8 -0.957701 0 6 -0.957701 1
gene 3 7 8 -0.568346 0 7 -0.568346 1
gene 2 5 9 0.0932951 0 5 0.0932951 1
gene 2 6 10 0.16242 0 6 0.16242 1
gene 2 7 11 -0.620624 0 7 -0.620624 1
genomeend 4

/* Organism #5 Fitness: 0 Error: 0 */
genomestart 5
trait 1 0.1 0 0 0 0 0 0 0 
trait 2 0.2 0 0 0 0 0 0 0 
trait 3 0.3 0 0 0 0 0 0 0 
node 1 2 1 1
node 2 1 1 1
node 3 2 1 1
node 4 2 1 1
node 5 2 1 1
node 6 1 1 1
node 7 2 1 3
node 8 3 0 2
node 9 2 0 2
node 10 2 0 2
node 11 1 0 2
gene 2 1 8 -0.525773 0 1 -0.525773 1
gene 1 2 8 0.00543229 0 2 0.00543229 1
gene 3 3 8 -0.00930815 0 3 -0.00930815 1
gene 1 4 8 0.805506 0 4 0.805506 1
gene 1 5 8 -0.0624409 0 5 -0.0624409 1
gene 2 6 8 0.341075 0 6 0.341075 1
gene 2 7 8 0.845332 0 7 0.845332 1
gene 3 5 9 0.0588702 0 5 0.0588702 1
gene 1 6 10 0.421949 0 6 0.421949 1
gene 1 7 11 0.930235 0 7 0.930235 1
genomeend 5

/* Organism #6 Fitness: 0 Error: 0 */
genomestart 6
trait 1 0.1 0 0 0 0 0 0 0 
trait 2 0.2 0 0 0 0 0 0 0 
trait 3 0.3 0 0 0 0 0 0 0 
node 1 1 1 1
node 2 3 1 1
node 3 3 1 1
node 4 1 1 1
node 5 3 1 1
node 6 1 1 1
node 7 2 1 3
node 8 1 0 2
node 9 2 0 2
node 10 2 0 2
node 11 2 0 2
gene 2 1 8 0.896084 0 1 0.896084 1
gene 3 2 8 -0.806085 0 2 -0.806085 1
gene 2 3 8 0.269509 0 3 0.269509 1
gene 1 4 8 0.514603 0 4 0.514603 1
gene 2 5 8 0.580035 0 5 0.580035 1
gene 3 6 8 0.221015 0 6 0.221015 1
gene 3 7 8 -0.507797 0 7 -0.507797 1
gene 2 5 9 -0.0419935 0 5 -0.0419935 1
gene 3 6 10 0.616291 0 6 0.616291 1
gene 2 7 11 0.136784 0 7 0.136784 1
genomeend 6

/* Organism #7 Fitness: 0 Error: 0 */
genomestart 7
trait 1 0.1 0 0 0 0 0 0 0 
trait 2 0.2 0 0 0 0 0 0 0 
trait 3 0.3 0 0 0 0 0 0 0 
node 1 3 1 1
node 2 2 1 1
node 3 1 1 1
node 4 1 1 1
node 5 3 1 1
node 6 3 1 1
node 7 2 1 3
node 8 3 0 2
node 9 1 0 2
node 10 1 0 2
node 11 2 0 2
gene 3 1 8 -0.340159 0 1 -0.340159 1
gene 3 2 8 -0.853023 0 2 -0.853023 1
gene 3 3 8 0.530351 0 3 0.530351 1
gene 1 4 8 0.623524 0 4 0.623524 1
gene 3 5 8 0.408643 0 5 0.408643 1
gene 1 6 8 0.749779 0 6 0.749779 1
gene 1 7 8 -0.0800806 0 7 -0.0800806 1
gene 1 5 9 -0.459853 0 5 -0.459853 1
gene 3 6 10 0.137089 0 6 0.137089 1
gene 1 7 11 -0.945189 0 7 -0.945189 1
genomeend 7

/* Organism #8 Fitness: 0 Error: 0 */
genomestart 8
trait 1 0.1 0 0 0 0 0 0 0 
trait 2 0.2 0 0 0 0 0 0 0 
trait 3 0.3 0 0 0 0 0 0 0 
node 1 2 1 1
node 2 1 1 1
node 3 2 1 1
node 4 3 1 1
node 5 3 1 1
node 6 3 1 1
node 7 3 1 3
node 8 3 0 2
node 9 3 0 2
node 10 3 0 2
node 11 2 0 2
gene 1 1 8 0.789666 0 1 0.789666 1
gene 1 2 8 -0.264534 0 2 -0.264534 1
gene 2 3 8 -0.0534989 0 3 -0.0534989 1
gene 1 4 8 -0.261727 0 4 -0.261727 1
gene 1 5 8 -0.985534 0 5 -0.985534 1
gene 2 6 8 -0.426252 0 6 -0.426252 1
gene 2 7 8 -0.781579 0 7 -0.781579 1
gene 3 5 9 -0.580859 0 5 -0.580859 1
gene 2 6 10 -0.137333 0 6 -0.137333 1
gene 3 7 11 -0.252724 0 7 -0.252724 1
genomeend 8

/* Organism #9 Fitness: 0 Error: 0 */
genomestart 9
trait 1 0.1 0 0 0 0 0 0 0 
trait 2 0.2 0 0 0 0 0 0 0 
trait 3 0.3 0 0 0 0 0 0 0 
node 1 1 1 1
node 2 1 1 1
node 3 3 1 1
node 4 1 1 1
node 5 1 1 1
node 6 3 1 1
node 7 1 1 3
node 8 3 0 2
node 9 2 0 2
node 10 3 0 2
node 11 2 0 2
gene 3 1 8 0.321146 0 1 0.321146 1
gene 3 2 8 -0.0578326 0 2 -0.0578326 1
gene 1 3 8 0.517838 0 3 0.517838 1
gene 1 4 8 -0.96939 0 4 -0.96939 1
gene 2 5 8 -0.66097 0 5 -0.66097 1
gene 1 6 8 -0.391034 0 6 -0.391034 1
gene 3 7 8 0.432814 0 7 0.432814 1
gene 3 5 9 -0.40144 0 5 -0.40144 1
gene 1 6 10 -0.896786 0 6 -0.896786 1
gene 3 7 11 0.769066 0 7 0.769066 1
genomeend 9

/* Organism #10 Fitness: 0 Error: 0 */
genomestart 10
trait 1 0.1 0 0 0 0 0 0 0 
trait 2 0.2 0 0 0 0 0 0 0 
trait 3 0.3 0 0 0 0 0 0 0 
node 1 1 1 1
node 2 2 1 1
node 3 3 1 1
node 4 3 1 1
node 5 2 1 1
node 6 1 1 1
node 7 1 1 3
node 8 2 0 2
node 9 3 0 2
node 10 3 0 2
node 11 2 0 2
gene 3 1 8 0.162969 0 1 0.162969 1
gene 2 2 8 -0.557115 0 2 -0.557115 1
gene 2 3 8 0.214118 0 3 0.214118 1
gene 2 4 8 -0.806177 0 4 -0.806177 1
gene 2 5 8 -0.467116 0 5 -0.467116 1
gene 1 6 8 -0.413587 0 6 -0.413587 1
gene 1 7 8 0.946776 0 7 0.946776 1
gene 1 5 9 -0.197272 0 5 -0.197272 1
gene 1 6 10 -0.366741 0 6 -0.366741 1
gene 3 7 11 -0.753533 0 7 -0.753533 1
genomeend 10

/* Organism #11 Fitness: 0 Error: 0 */
genomestart 11
trait 1 0.1 0 0 0 0 0 0 0 
trait 2 0.2 0 0 0 0 0 0 0 
trait 3 0.3 0 0 0 0 0 0 0 
node 1 2 1 1
node 2 3 1 1
node 3 3 1 1
node 4 2 1 1
node 5 2 1 1
node 6 2 1 1
node 7 2 1 3
node 8 3 0 2
node 9 1 0 2
node 10 3 0 2
node 11 1 0 2
gene 2 1 8 0.994232 0 1 0.994232 1
gene 3 2 8 0.619526 0 2 0.619526 1
gene 2 3 8 -0.964873 0 3 -0.964873 1
gene 1 4 8 -0.00244148 0 4 -0.00244148 1
gene 3 5 8 0.998138 0 5 0.998138 1
gene 2 6 8 -0.427015 0 6 -0.427015 1
gene 1 7 8 0.617054 0 7 0.617054 1
gene 2 5 9 -0.011536 0 5 -0.011536 1
gene 2 6 10 -0.0559709 0 6 -0.0559709 1
gene 3 7 11 -0.0929289 0 7 -0.0929289 1
genomeend 11

/* Organism #12 Fitness: 0 Error: 0 */
genomestart 12
trait 1 0.1 0 0 0 0 0 0 0 
trait 2 0.2 0 0 0 0 0 0 0 
trait 3 0.3 0 0 0 0 0 0 0 
node 1 3 1 1
node 2 2 1 1
node 3 3 1 1
node 4 1 1 1
node 5 2 1 1
node 6 1 1 1
node 7 2 1 3
node 8 1 0 2
node 9 3 0 2
node 10 2 0 2
node 11 1 0 2
gene 1 1 8 -0.876888 0 1 -0.876888 1
gene 3 2 8 0.694906 0 2 0.694906 1
gene 1 3 8 0.576739 0 3 0.576739 1
gene 1 4 8 -0.552538 0 4 -0.552538 1
gene 2 5 8 0.958495 0 5 0.958495 1
gene 2 6 8 0.651112 0 6 0.651112 1
gene 1 7 8 0.0701315 0 7 0.0701315 1
gene 2 5 9 0.998383 0 5 0.998383 1
gene 3 6 10 0.158574 0 6 0.158574 1
gene 2 7 11 0.40669 0 7 0.40669 1
genomeend 12

/* Organism #13 Fitness: 0 Error: 0 */
genomestart 13
trait 1 0.1 0 0 0 0 0 0 0 
trait 2 0.2 0 0 0 0 0 0 0 
trait 3 0.3 0 0 0 0 0 0 0 
node 1 1 1 1
node 2 2 1 1
node 3 3 1 1
node 4 2 1 1
node 5 3 1 1
node 6 3 1 1
node 7 1 1 3
node 8 2 0 2
node 9 2 0 2
node 10 1 0 2
node 11 3 0 2
gene 2 1 8 0.285195 0 1 0.285195 1
gene 2 2 8 0.192694 0 2 0.192694 1
gene 2 3 8 -0.337504 0 3 -0.337504 1
gene 3 4 8 -0.783258 0 4 -0.783258 1
gene 2 5 8 -0.394147 0 5 -0.394147 1
gene 3 6 8 -0.667104 0 6 -0.667104 1
gene 3 7 8 0.373852 0 7 0.373852 1
gene 3 5 9 -0.358287 0 5 -0.358287 1
gene 1 6 10 0.974639 0 6 0.974639 1
gene 1 7 11 0.759514 0 7 0.759514 1
genomeend 13

/* Organism #14 Fitness: 0 Error: 0 */
genomestart 14
trait 1 0.1 0 0 0 0 0 0 0 
trait 2 0.2 0 0 0 0 0 0 0 
trait 3 0.3 0 0 0 0 0 0 0 
node 1 3 1 1
node 2 3 1 1
node 3 3 1 1
node 4 2 1 1
node 5 1 1 1
node 6 3 1 1
node 7 1 1 3
node 8 3 0 2
node 9 1 0 2
node 10 2 0 2
node 11 2 0 2
gene 3 1 8 -0.409803 0 1 -0.409803 1
gene 3 2 8 -0.741997 0 2 -0.741997 1
gene 2 3 8 0.0352489 0 3 0.0352489 1
gene 3 4 8 -0.0069277 0 4 -0.0069277 1
gene 1 5 8 0.119968 0 5 0.119968 1
gene 1 6 8 0.857814 0 6 0.857814 1
gene 3 7 8 0.67449 0 7 0.67449 1
gene 2 5 9 -0.835444 0 5 -0.835444 1
gene 1 6 10 0.584063 0 6 0.584063 1
gene 1 7 11 -0.056856 0 7 -0.056856 1
genomeend 14

/* Organism #15 Fitness: 0 Error: 0 */
genomestart 15
trait 1 0.1 0 0 0 0 0 0 0 
trait 2 0.2 0 0 0 0 0 0 0 
trait 3 0.3 0 0 0 0 0 0 0 
node 1 3 1 1
node 2 2 1 1
node 3 2 1 1
node 4 3 1 1
node 5 2 1 1
node 6 1 1 1
node 7 3 1 3
node 8 1 0 2
node 9 1 0 2
node 10 2 0 2
node 11 1 0 2
gene 1 1 8 -0.919462 0 1 -0.919462 1
gene 3 2 8 0.946043 0 2 0.946043 1
gene 2 3 8 0.891446 0 3 0.891446 1
gene 1 4 8 -0.234565 0 4 -0.234565 1
gene 3 5 8 0.255898 0 5 0.255898 1
gene 1 6 8 -0.88406 0 6 -0.88406 1
gene 1 7 8 0.0648824 0 7 0.0648824 1
gene 2 5 9 0.358654 0 5 0.358654 1
gene 3 6 10 0.720939 0 6 0.720939 1
gene 1 7 11 0.717093 0 7 0.717093 1
genomeend 15
