
/* Species #1 : (Size 8) (AF 0) (Age 1)  */


/* Organism #15 Fitness: 3.71612 Error: 0 */
genomestart 15
trait 1 0.1 0 0 0 0.019138 0 0.0145529 0.000359546 
trait 2 0.13125 0.00965237 0.000704072 0.0354663 0.0815258 0.00213975 0.15371 0.0659175 
trait 3 0.288544 0 0.0299596 0.110561 0 0 0 0.16146 
node 1 3 1 1
node 2 3 1 1
node 3 2 1 1
node 4 2 1 1
node 5 1 1 1
node 6 1 1 1
node 7 2 1 3
node 8 1 0 2
node 9 3 0 2
node 10 3 0 2
node 11 1 0 2
gene 2 1 8 -2.01842 0 1 -2.01842 1
gene 2 2 8 2.73418 0 2 2.73418 1
gene 3 3 8 -3.31947 0 3 -3.31947 1
gene 1 4 8 -4.40025 0 4 -4.40025 1
gene 2 5 8 -1.97114 0 5 -1.97114 1
gene 1 6 8 3.72243 0 6 3.72243 1
gene 1 7 8 -6.66997 0 7 -6.66997 1
gene 1 5 9 3.64533 0 5 3.64533 1
gene 2 6 10 1.42137 0 6 1.42137 1
gene 2 7 11 1.08577 0 7 1.08577 1
genomeend 15

/* Organism #8 Fitness: 3.56194 Error: 0 */
genomestart 8
trait 1 0.1 0 0 0 0.019138 0 0.0145529 0.000359546 
trait 2 0.13125 0.00965237 0.000704072 0.0354663 0.0815258 0.00213975 0.15371 0.0659175 
trait 3 0.288544 0 0.0299596 0.110561 0 0 0 0.16146 
node 1 3 1 1
node 2 3 1 1
node 3 2 1 1
node 4 2 1 1
node 5 1 1 1
node 6 1 1 1
node 7 2 1 3
node 8 1 0 2
node 9 3 0 2
node 10 3 0 2
node 11 1 0 2
gene 2 1 8 -0.471053 0 1 -0.471053 1
gene 2 2 8 0.879345 0 2 0.879345 1
gene 3 3 8 -0.828394 0 3 -0.828394 1
gene 1 4 8 -2.25053 0 4 -2.25053 1
gene 2 5 8 -2.17043 0 5 -2.17043 1
gene 1 6 8 3.59899 0 6 3.59899 1
gene 1 7 8 -4.73907 0 7 -4.73907 1
gene 1 5 9 2.53232 0 5 2.53232 1
gene 2 6 10 1.89944 0 6 1.89944 1
gene 2 7 11 0.305567 0 7 0.305567 1
genomeend 8

/* Organism #12 Fitness: 3.46769 Error: 0 */
genomestart 12
trait 1 0.1 0 0 0 0.019138 0 0.0145529 0.000359546 
trait 2 0.13125 0.00965237 0.000704072 0.0354663 0.0815258 0.00213975 0.15371 0.0659175 
trait 3 0.288544 0 0.0299596 0.110561 0 0 0 0.16146 
node 1 3 1 1
node 2 3 1 1
node 3 2 1 1
node 4 2 1 1
node 5 1 1 1
node 6 1 1 1
node 7 2 1 3
node 8 1 0 2
node 9 3 0 2
node 10 3 0 2
node 11 1 0 2
gene 2 1 8 -1.42361 0 1 -1.42361 1
gene 2 2 8 2.80102 0 2 2.80102 1
gene 3 3 8 -2.10219 0 3 -2.10219 1
gene 1 4 8 2.04772 0 4 2.04772 1
gene 2 5 8 -2.59876 0 5 -2.59876 1
gene 1 6 8 -1.23737 0 6 -1.23737 1
gene 1 7 8 -6.6966 0 7 -6.6966 1
gene 1 5 9 1.72404 0 5 1.72404 1
gene 2 6 10 4.71718 0 6 4.71718 1
gene 2 7 11 1.25965 0 7 1.25965 1
genomeend 12

/* Organism #11 Fitness: 3.25441 Error: 0 */
genomestart 11
trait 1 0.1 0 0 0 0.019138 0 0.0145529 0.000359546 
trait 2 0.13125 0.00965237 0.000704072 0.0354663 0.0815258 0.00213975 0.15371 0.0659175 
trait 3 0.288544 0 0.0299596 0.110561 0 0 0 0.16146 
node 1 3 1 1
node 2 3 1 1
node 3 2 1 1
node 4 2 1 1
node 5 1 1 1
node 6 1 1 1
node 7 2 1 3
node 8 1 0 2
node 9 3 0 2
node 10 3 0 2
node 11 1 0 2
gene 2 1 8 -2.37617 0 1 -2.37617 1
gene 2 2 8 2.10176 0 2 2.10176 1
gene 3 3 8 -2.4252 0 3 -2.4252 1
gene 1 4 8 -1.55898 0 4 -1.55898 1
gene 2 5 8 -3.02709 0 5 -3.02709 1
gene 1 6 8 1.94511 0 6 1.94511 1
gene 1 7 8 -5.34761 0 7 -5.34761 1
gene 1 5 9 2.13939 0 5 2.13939 1
gene 2 6 10 3.79212 0 6 3.79212 1
gene 2 7 11 2.21374 0 7 2.21374 1
genomeend 11

/* Organism #20 Fitness: 3.1519 Error: 0 */
genomestart 20
trait 1 0.1 0 0 0 0.019138 0 0.0145529 0.000359546 
trait 2 0.13125 0.00965237 0.000704072 0.0354663 0.0815258 0.00213975 0.15371 0.0659175 
trait 3 0.288544 0 0.0299596 0.110561 0 0 0 0.16146 
node 1 3 1 1
node 2 3 1 1
node 3 2 1 1
node 4 2 1 1
node 5 1 1 1
node 6 1 1 1
node 7 2 1 3
node 8 1 0 2
node 9 3 0 2
node 10 3 0 2
node 11 1 0 2
gene 2 1 8 -1.01062 0 1 -1.01062 1
gene 2 2 8 2.9514 0 2 2.9514 1
gene 3 3 8 -3.72086 0 3 -3.72086 1
gene 1 4 8 -3.71213 0 4 -3.71213 1
gene 2 5 8 -3.27276 0 5 -3.27276 1
gene 1 6 8 3.32295 0 6 3.32295 1
gene 1 7 8 -5.01198 0 7 -5.01198 1
gene 1 5 9 6.01372 0 5 6.01372 1
gene 2 6 10 0.858379 0 6 0.858379 1
gene 2 7 11 2.25967 0 7 2.25967 1
genomeend 20

/* Organism #14 Fitness: 3.14848 Error: 0 */
genomestart 14
trait 1 0.1 0 0 0 0.019138 0 0.0145529 0.000359546 
trait 2 0.13125 0.00965237 0.000704072 0.0354663 0.0815258 0.00213975 0.15371 0.0659175 
trait 3 0.288544 0 0.0299596 0.110561 0 0 0 0.16146 
node 1 3 1 1
node 2 3 1 1
node 3 2 1 1
node 4 2 1 1
node 5 1 1 1
node 6 1 1 1
node 7 2 1 3
node 8 1 0 2
node 9 3 0 2
node 10 3 0 2
node 11 1 0 2
gene 2 1 8 -3.05261 0 1 -3.05261 1
gene 2 2 8 4.13369 0 2 4.13369 1
gene 3 3 8 -3.13066 0 3 -3.13066 1
gene 1 4 8 2.86363 0 4 2.86363 1
gene 2 5 8 -3.22866 0 5 -3.22866 1
gene 1 6 8 1.23661 0 6 1.23661 1
gene 1 7 8 -6.65593 0 7 -6.65593 1
gene 1 5 9 -0.0119327 0 5 -0.0119327 1
gene 2 6 10 2.84555 0 6 2.84555 1
gene 2 7 11 1.02916 0 7 1.02916 1
genomeend 14

/* Organism #16 Fitness: 3.10713 Error: 0 */
genomestart 16
trait 1 0.1 0 0 0 0.019138 0 0.0145529 0.000359546 
trait 2 0.13125 0.00965237 0.000704072 0.0354663 0.0815258 0.00213975 0.15371 0.0659175 
trait 3 0.288544 0 0.0299596 0.110561 0 0 0 0.16146 
node 1 3 1 1
node 2 3 1 1
node 3 2 1 1
node 4 2 1 1
node 5 1 1 1
node 6 1 1 1
node 7 2 1 3
node 8 1 0 2
node 9 3 0 2
node 10 3 0 2
node 11 1 0 2
gene 2 1 8 1.95456 0 1 1.95456 1
gene 2 2 8 -1.90992 0 2 -1.90992 1
gene 3 3 8 -4.43828 0 3 -4.43828 1
gene 1 4 8 -3.38658 0 4 -3.38658 1
gene 2 5 8 -3.71818 0 5 -3.71818 1
gene 1 6 8 1.38037 0 6 1.38037 1
gene 1 7 8 -7.92962 0 7 -7.92962 1
gene 1 5 9 3.64533 0 5 3.64533 1
gene 2 6 10 1.42137 0 6 1.42137 1
gene 2 7 11 1.08577 0 7 1.08577 1
genomeend 16

/* Organism #21 Fitness: 3.0503 Error: 0 */
/* ##------$ WINNER 21 SPECIES #1 $------## */
genomestart 21
trait 1 0.1 0 0 0 0.019138 0 0.0145529 0.000359546 
trait 2 0.13125 0.00965237 0.000704072 0.0354663 0.0815258 0.00213975 0.15371 0.0659175 
trait 3 0.288544 0 0.0299596 0.110561 0 0 0 0.16146 
node 1 3 1 1
node 2 3 1 1
node 3 2 1 1
node 4 2 1 1
node 5 1 1 1
node 6 1 1 1
node 7 2 1 3
node 8 1 0 2
node 9 3 0 2
node 10 3 0 2
node 11 1 0 2
gene 2 1 8 -2.54303 0 1 -2.54303 1
gene 2 2 8 1.2149 0 2 1.2149 1
gene 3 3 8 -2.04814 0 3 -2.04814 1
gene 1 4 8 -4.75701 0 4 -4.75701 1
gene 2 5 8 -2.51003 0 5 -2.51003 1
gene 1 6 8 3.27267 0 6 3.27267 1
gene 1 7 8 -8 0 7 -8 1
gene 1 5 9 5.25747 0 5 5.25747 1
gene 2 6 10 0.866237 0 6 0.866237 1
gene 2 7 11 1.34487 0 7 1.34487 1
genomeend 21
