
/* Species #1 : (Size 15) (AF 0) (Age 1)  */


/* Organism #0 Fitness: 3.51427 Error: 0 */
genomestart 0
trait 1 0.1 0 0 0 0.019138 0 0.0145529 0.000359546 
trait 2 0.13125 0.00965237 0.000704072 0.0354663 0.0815258 0.00213975 0.15371 0.0659175 
trait 3 0.288544 0 0.0299596 0.110561 0 0 0 0.16146 
node 1 2 1 1
node 2 1 1 1
node 3 2 1 1
node 4 3 1 1
node 5 1 1 1
node 6 2 1 1
node 7 2 1 3
node 8 2 0 2
node 9 3 0 2
node 10 1 0 2
node 11 1 0 2
gene 1 1 8 -1.29949 0 1 -1.29949 1
gene 1 2 8 1.04381 0 2 1.04381 1
gene 3 3 8 -0.183264 0 3 -0.183264 1
gene 1 4 8 -0.00831629 0 4 -0.00831629 1
gene 1 5 8 0.0837733 0 5 0.0837733 1
gene 1 6 8 1.78262 0 6 1.78262 1
gene 3 7 8 -0.0493179 0 7 -0.0493179 1
gene 1 5 9 2.15766 0 5 2.15766 1
gene 2 6 10 2.74139 0 6 2.74139 1
gene 1 7 11 0.0231941 0 7 0.0231941 1
genomeend 0

/* Organism #3 Fitness: 3.13038 Error: 0 */
genomestart 3
trait 1 0.1 0 0 0 0.019138 0 0.0145529 0.000359546 
trait 2 0 0.00965237 0.339032 0.677393 0.0440186 0.00213975 0.15371 0.0659175 
trait 3 0.288544 0 0.0299596 0.110561 0 0 0 0.16146 
node 1 2 1 1
node 2 1 1 1
node 3 3 1 1
node 4 2 1 1
node 5 2 1 1
node 6 2 1 1
node 7 2 1 3
node 8 2 0 2
node 9 3 0 2
node 10 2 0 2
node 11 1 0 2
gene 1 1 8 -2.51198 0 1 -2.51198 1
gene 3 2 8 2.75585 0 2 2.75585 1
gene 2 3 8 1.04643 0 3 1.04643 1
gene 2 4 8 -1.19086 0 4 -1.19086 1
gene 2 5 8 0.195959 0 5 0.195959 1
gene 3 6 8 -2.6624 0 6 -2.6624 1
gene 1 7 8 1.18584 0 7 1.18584 1
gene 1 5 9 2.17573 0 5 2.17573 1
gene 3 6 10 0.416517 0 6 0.416517 1
gene 2 7 11 -0.770714 0 7 -0.770714 1
genomeend 3

/* Organism #19 Fitness: 3.01643 Error: 0 */
genomestart 19
trait 1 0.1 0 0 0 0.019138 0 0.0145529 0.000359546 
trait 2 0 0.00965237 0.339032 0.677393 0.0440186 0.00213975 0.15371 0.0659175 
trait 3 0.288544 0 0.0299596 0.110561 0 0 0 0.16146 
node 1 2 1 1
node 2 1 1 1
node 3 3 1 1
node 4 2 1 1
node 5 2 1 1
node 6 2 1 1
node 7 2 1 3
node 8 2 0 2
node 9 3 0 2
node 10 2 0 2
node 11 1 0 2
node 12 1 0 0
gene 1 1 8 -2.51198 0 1 -2.51198 1
gene 3 2 8 2.75585 0 2 2.75585 1
gene 2 3 8 1.04643 0 3 1.04643 1
gene 2 4 8 -1.19086 0 4 -1.19086 1
gene 2 5 8 0.195959 0 5 0.195959 1
gene 3 6 8 -2.6624 0 6 -2.6624 1
gene 1 7 8 1.18584 0 7 1.18584 1
gene 1 5 9 2.17573 0 5 2.17573 1
gene 3 6 10 0.416517 0 6 0.416517 0
gene 2 7 11 -0.770714 0 7 -0.770714 1
gene 3 6 12 1 0 9 0 1
gene 3 12 10 0.416517 0 10 0 1
genomeend 19

/* Organism #6 Fitness: 3 Error: 0 */
genomestart 6
trait 1 0.1 0 0 0 0.019138 0 0.0145529 0.000359546 
trait 2 0.13125 0.00965237 0.000704072 0.0354663 0.0815258 0.00213975 0.15371 0.0659175 
trait 3 0.288544 0 0.0299596 0.110561 0 0 0 0.16146 
node 1 1 1 1
node 2 2 1 1
node 3 3 1 1
node 4 3 1 1
node 5 3 1 1
node 6 2 1 1
node 7 3 1 3
node 8 2 0 2
node 9 2 0 2
node 10 3 0 2
node 11 3 0 2
gene 3 1 8 -0.338755 0 1 -0.338755 1
gene 1 2 8 0.798273 0 2 0.798273 1
gene 1 3 8 -0.334864 0 3 -0.334864 1
gene 2 4 8 0.38934 0 4 0.38934 1
gene 3 5 8 0.510224 0 5 0.510224 1
gene 3 6 8 -0.496429 0 6 -0.496429 1
gene 3 7 8 0.962249 0 7 0.962249 1
gene 2 5 9 0.232368 0 5 0.232368 1
gene 1 6 10 -0.565889 0 6 -0.565889 1
gene 2 7 11 -0.244682 0 7 -0.244682 1
gene 2 5 11 0.307505 0 8 0.307505 1
genomeend 6

/* Organism #29 Fitness: 2.97262 Error: 0 */
genomestart 29
trait 1 0.1 0 0 0 0.019138 0 0.0145529 0.000359546 
trait 2 0.065625 0.00965237 0.169868 0.356429 0.0627722 0.00213975 0.15371 0.0659175 
trait 3 0.288544 0 0.0299596 0.110561 0 0 0 0.16146 
node 1 2 1 1
node 2 1 1 1
node 3 3 1 1
node 4 2 1 1
node 5 2 1 1
node 6 2 1 1
node 7 2 1 3
node 8 2 0 2
node 9 3 0 2
node 10 2 0 2
node 11 1 0 2
gene 1 1 8 -4.02212 0 1 -4.02212 1
gene 1 2 8 2.18106 0 2 2.18106 1
gene 2 3 8 1.53285 0 3 1.53285 1
gene 2 4 8 1.58424 0 4 1.58424 1
gene 1 5 8 -1.18471 0 5 -1.18471 1
gene 3 6 8 -0.540376 0 6 -0.540376 1
gene 1 7 8 1.7079 0 7 1.7079 1
gene 1 5 9 2.87449 0 5 2.87449 1
gene 3 6 10 -0.424665 0 6 -0.424665 1
gene 2 7 11 1.45001 0 7 1.45001 1
genomeend 29

/* Organism #7 Fitness: 2.86303 Error: 0 */
genomestart 7
trait 1 0.1 0 0 0 0.0253027 0 0.00945631 0.000359546 
trait 2 0.13125 0.00965237 0.000704072 0.0354663 0.0815258 0.00213975 0.15371 0.0659175 
trait 3 0.288544 0 0.0299596 0.110561 0 0 0 0.16146 
node 1 1 1 1
node 2 2 1 1
node 3 3 1 1
node 4 3 1 1
node 5 3 1 1
node 6 2 1 1
node 7 3 1 3
node 8 2 0 2
node 9 2 0 2
node 10 3 0 2
node 11 3 0 2
gene 3 1 8 0.279244 0 1 0.279244 1
gene 1 2 8 -1.32398 0 2 -1.32398 1
gene 1 3 8 1.5161 0 3 1.5161 1
gene 1 4 8 3.03615 0 4 3.03615 1
gene 3 5 8 0.00399792 0 5 0.00399792 1
gene 3 6 8 -0.2837 0 6 -0.2837 1
gene 3 7 8 0.169225 0 7 0.169225 1
gene 2 5 9 2.01808 0 5 2.01808 1
gene 1 6 10 1.45747 0 6 1.45747 1
gene 2 7 11 0.747581 0 7 0.747581 1
genomeend 7

/* Organism #8 Fitness: 2.84732 Error: 0 */
genomestart 8
trait 1 0.1 0 0 0 0.019138 0 0.0145529 0.000359546 
trait 2 0.13125 0.00965237 0.000704072 0.0354663 0.0815258 0.00213975 0.15371 0.0659175 
trait 3 0.288544 0 0.0299596 0.110561 0 0 0 0.16146 
node 1 2 1 1
node 2 3 1 1
node 3 2 1 1
node 4 3 1 1
node 5 2 1 1
node 6 2 1 1
node 7 3 1 3
node 8 3 0 2
node 9 2 0 2
node 10 3 0 2
node 11 3 0 2
gene 1 1 8 0.434095 0 1 0.434095 1
gene 2 2 8 1.97011 0 2 1.97011 1
gene 1 3 8 1.27625 0 3 1.27625 1
gene 2 4 8 -2.6744 0 4 -2.6744 1
gene 3 5 8 2.2692 0 5 2.2692 1
gene 3 6 8 1.85359 0 6 1.85359 1
gene 1 7 8 0.935545 0 7 0.935545 1
gene 3 5 9 0.725715 0 5 0.725715 1
gene 2 6 10 -2.18642 0 6 -2.18642 1
gene 3 7 11 0.696036 0 7 0.696036 1
genomeend 8

/* Organism #5 Fitness: 2.47296 Error: 0 */
genomestart 5
trait 1 0.1 0 0 0 0.019138 0 0.0145529 0.000359546 
trait 2 0.13125 0.00965237 0.000704072 0.0354663 0.0815258 0.00213975 0.15371 0.0659175 
trait 3 0.288544 0 0.0299596 0.110561 0 0 0 0.16146 
node 1 2 1 1
node 2 2 1 1
node 3 3 1 1
node 4 3 1 1
node 5 2 1 1
node 6 2 1 1
node 7 1 1 3
node 8 1 0 2
node 9 1 0 2
node 10 3 0 2
node 11 3 0 2
gene 3 1 8 -1.64408 0 1 -1.64408 1
gene 1 2 8 -1.63884 0 2 -1.63884 1
gene 1 3 8 1.9122 0 3 1.9122 1
gene 2 4 8 2.08922 0 4 2.08922 1
gene 3 5 8 1.32995 0 5 1.32995 1
gene 2 6 8 -2.1131 0 6 -2.1131 1
gene 3 7 8 0.945067 0 7 0.945067 1
gene 1 5 9 1.14663 0 5 1.14663 1
gene 3 6 10 1.65076 0 6 1.65076 1
gene 1 7 11 -0.0439772 0 7 -0.0439772 1
genomeend 5

/* Organism #14 Fitness: 2.4311 Error: 0 */
genomestart 14
trait 1 0.1 0 0 0 0.019138 0 0.0145529 0.000359546 
trait 2 0.13125 0.00965237 0.000704072 0.0354663 0.0815258 0.00213975 0.15371 0.0659175 
trait 3 0.288544 0 0.0299596 0.110561 0 0 0 0.16146 
node 1 3 1 1
node 2 2 1 1
node 3 1 1 1
node 4 2 1 1
node 5 1 1 1
node 6 3 1 1
node 7 3 1 3
node 8 2 0 2
node 9 2 0 2
node 10 3 0 2
node 11 3 0 2
gene 2 1 8 0.360515 0 1 0.360515 1
gene 3 2 8 -0.0472427 0 2 -0.0472427 1
gene 1 3 8 0.136418 0 3 0.136418 1
gene 3 4 8 0.919401 0 4 0.919401 1
gene 1 5 8 -0.0103153 0 5 -0.0103153 1
gene 1 6 8 0.828639 0 6 0.828639 1
gene 1 7 8 -0.797998 0 7 -0.797998 1
gene 3 5 9 -0.018952 0 5 -0.018952 1
gene 2 6 10 0.371838 0 6 0.371838 1
gene 2 7 11 -0.112644 0 7 -0.112644 1
genomeend 14

/* Organism #15 Fitness: 2.26624 Error: 0 */
genomestart 15
trait 1 0.1 0 0 0 0.019138 0 0.0145529 0.000359546 
trait 2 0.13125 0.00965237 0.000704072 0.0354663 0.0815258 0.00213975 0.15371 0.0659175 
trait 3 0.288544 0 0.0299596 0.110561 0 0 0 0.16146 
node 1 3 1 1
node 2 2 1 1
node 3 3 1 1
node 4 2 1 1
node 5 3 1 1
node 6 3 1 1
node 7 3 1 3
node 8 2 0 2
node 9 2 0 2
node 10 2 0 2
node 11 3 0 2
gene 3 1 8 0.120334 0 1 0.120334 1
gene 3 2 8 -0.811914 0 2 -0.811914 1
gene 1 3 8 -0.143406 0 3 -0.143406 1
gene 2 4 8 0.911893 0 4 0.911893 1
gene 2 5 8 -0.237526 0 5 -0.237526 1
gene 1 6 8 0.983886 0 6 0.983886 1
gene 3 7 8 -0.20011 0 7 -0.20011 1
gene 2 5 9 -0.0809351 0 5 -0.0809351 1
gene 3 6 10 0.392773 0 6 0.392773 1
gene 3 7 11 -0.411756 0 7 -0.411756 1
genomeend 15

/* Organism #2 Fitness: 2.05571 Error: 0 */
genomestart 2
trait 1 0.1 0 0 0 0.019138 0 0.0145529 0.000359546 
trait 2 0.13125 0.00965237 0.000704072 0.0354663 0.0815258 0.00213975 0.15371 0.0659175 
trait 3 0.288544 0 0.0299596 0.110561 0 0 0 0.16146 
node 1 1 1 1
node 2 1 1 1
node 3 2 1 1
node 4 3 1 1
node 5 1 1 1
node 6 1 1 1
node 7 1 1 3
node 8 2 0 2
node 9 2 0 2
node 10 3 0 2
node 11 1 0 2
gene 2 1 8 2.6733 0 1 2.6733 1
gene 3 2 8 2.01952 0 2 2.01952 1
gene 3 3 8 2.0013 0 3 2.0013 1
gene 3 4 8 1.99387 0 4 1.99387 1
gene 2 5 8 -1.30108 0 5 -1.30108 1
gene 3 6 8 0.116413 0 6 0.116413 1
gene 2 7 8 1.69066 0 7 1.69066 1
gene 3 5 9 0.569979 0 5 0.569979 1
gene 2 6 10 -1.58597 0 6 -1.58597 1
gene 3 7 11 -1.14953 0 7 -1.14953 1
genomeend 2

/* Organism #13 Fitness: 1.62399 Error: 0 */
genomestart 13
trait 1 0.1 0 0 0 0.019138 0 0.0145529 0.000359546 
trait 2 0.13125 0.00965237 0.000704072 0.0354663 0.0815258 0.00213975 0.15371 0.0659175 
trait 3 0.288544 0 0.0299596 0.110561 0 0 0 0.16146 
node 1 1 1 1
node 2 2 1 1
node 3 3 1 1
node 4 2 1 1
node 5 2 1 1
node 6 3 1 1
node 7 3 1 3
node 8 1 0 2
node 9 1 0 2
node 10 3 0 2
node 11 1 0 2
gene 1 1 8 -0.843196 0 1 -0.843196 1
gene 2 2 8 0.00140385 0 2 0.00140385 1
gene 1 3 8 0.460585 0 3 0.460585 1
gene 2 4 8 0.364391 0 4 0.364391 1
gene 2 5 8 -0.554643 0 5 -0.554643 1
gene 3 6 8 -0.78869 0 6 -0.78869 1
gene 2 7 8 -0.769341 0 7 -0.769341 1
gene 3 5 9 0.0439772 0 5 0.0439772 1
gene 2 6 10 -0.794794 0 6 -0.794794 1
gene 3 7 11 0.205725 0 7 0.205725 1
genomeend 13

/* Organism #1 Fitness: 1.40638 Error: 0 */
genomestart 1
trait 1 0.1 0 0 0 0.019138 0 0.0145529 0.000359546 
trait 2 0.13125 0.00965237 0.000704072 0.0354663 0.0815258 0.00213975 0.15371 0.0659175 
trait 3 0.288544 0 0.0299596 0.110561 0 0 0 0.16146 
node 1 1 1 1
node 2 2 1 1
node 3 3 1 1
node 4 1 1 1
node 5 2 1 1
node 6 2 1 1
node 7 1 1 3
node 8 1 0 2
node 9 2 0 2
node 10 1 0 2
node 11 2 0 2
gene 2 1 8 0.886502 0 1 0.886502 1
gene 1 2 8 -0.0786462 0 2 -0.0786462 1
gene 3 3 8 -2.2589 0 3 -2.2589 1
gene 1 4 8 0.858791 0 4 0.858791 1
gene 2 5 8 -0.697546 0 5 -0.697546 1
gene 1 6 8 0.773598 0 6 0.773598 1
gene 3 7 8 2.22309 0 7 2.22309 1
gene 1 5 9 1.68394 0 5 1.68394 1
gene 2 6 10 -1.50374 0 6 -1.50374 1
gene 1 7 11 -0.153905 0 7 -0.153905 1
genomeend 1

/* Organism #11 Fitness: 1.13772 Error: 0 */
genomestart 11
trait 1 0.1 0 0 0 0.019138 0 0.0145529 0.000359546 
trait 2 0.13125 0.00965237 0.000704072 0.0354663 0.0815258 0.00213975 0.15371 0.0659175 
trait 3 0.288544 0 0.0299596 0.110561 0 0 0 0.16146 
node 1 3 1 1
node 2 1 1 1
node 3 2 1 1
node 4 2 1 1
node 5 1 1 1
node 6 2 1 1
node 7 1 1 3
node 8 2 0 2
node 9 2 0 2
node 10 3 0 2
node 11 3 0 2
gene 3 1 8 -0.906369 0 1 -0.906369 1
gene 3 2 8 -0.841853 0 2 -0.841853 1
gene 2 3 8 -0.868343 0 3 -0.868343 1
gene 2 4 8 -0.215766 0 4 -0.215766 1
gene 3 5 8 0.124516 0 5 0.124516 1
gene 1 6 8 -0.547197 0 6 -0.547197 1
gene 3 7 8 -0.409833 0 7 -0.409833 1
gene 3 5 9 0.471114 0 5 0.471114 1
gene 2 6 10 -0.62392 0 6 -0.62392 1
gene 2 7 11 -0.745018 0 7 -0.745018 1
genomeend 11

/* Organism #30 Fitness: 1.13038 Error: 0 */
/* ##------$ WINNER 30 SPECIES #1 $------## */
genomestart 30
trait 1 0.1 0 0 0 0.019138 0 0.0145529 0.000359546 
trait 2 0 0.00965237 0.339032 0.677393 0.0440186 0.00213975 0.15371 0.0659175 
trait 3 0.288544 0 0.0299596 0.110561 0 0 0 0.16146 
node 1 2 1 1
node 2 1 1 1
node 3 1 1 1
node 4 2 1 1
node 5 2 1 1
node 6 2 1 1
node 7 2 1 3
node 8 2 0 2
node 9 3 0 2
node 10 2 0 2
node 11 1 0 2
gene 1 1 8 -3.73966 0 1 -3.73966 1
gene 3 2 8 1.05429 0 2 1.05429 1
gene 2 3 8 1.20536 0 3 1.20536 1
gene 2 4 8 1.2568 0 4 1.2568 1
gene 2 5 8 1.24602 0 5 1.24602 1
gene 3 6 8 -2.62555 0 6 -2.62555 1
gene 1 7 8 -1.29913 0 7 -1.29913 1
gene 1 5 9 2.04831 0 5 2.04831 1
gene 3 6 10 1.66755 0 6 1.66755 1
gene 2 7 11 -2.7255 0 7 -2.7255 1
genomeend 30
