
/* Species #1 : (Size 30) (AF 0) (Age 1)  */


/* Organism #3 Fitness: 4.14563 Error: 0 */
genomestart 3
trait 1 0.1 0 0 0 0.019138 0 0.0145529 0.000359546 
trait 2 0.13125 0.00965237 0.000704072 0.0354663 0.0815258 0.00213975 0.15371 0.0659175 
trait 3 0.288544 0 0.0299596 0.110561 0 0 0 0.16146 
node 1 2 1 1
node 2 3 1 1
node 3 1 1 1
node 4 1 1 1
node 5 2 1 1
node 6 2 1 1
node 7 3 1 1
node 8 3 1 1
node 9 3 1 1
node 10 3 1 1
node 11 2 1 3
node 12 2 0 2
node 13 3 0 2
node 14 1 0 2
node 15 3 0 2
gene 2 1 12 0.350963 0 1 0.350963 1
gene 1 2 12 -0.162603 0 2 -0.162603 1
gene 3 3 12 0.180059 0 3 0.180059 1
gene 3 4 12 -0.801752 0 4 -0.801752 1
gene 2 5 12 0.0354015 0 5 0.0354015 1
gene 3 6 12 -0.998932 0 2 -0.998932 1
gene 3 7 12 0.434828 0 3 0.434828 1
gene 2 8 12 -0.411847 0 4 -0.411847 1
gene 3 9 12 -0.271126 0 5 -0.271126 1
gene 3 10 12 0.838099 0 6 0.838099 1
gene 1 11 12 -0.586505 0 7 -0.586505 1
gene 1 12 13 0.435835 0 5 0.435835 1
gene 2 13 14 0.810022 0 6 0.810022 1
gene 2 11 15 0.110904 0 7 0.110904 1
genomeend 3

/* Organism #11 Fitness: 4.05181 Error: 0 */
genomestart 11
trait 1 0.1 0 0 0 0.019138 0 0.0145529 0.000359546 
trait 2 0.13125 0.00965237 0.000704072 0.0354663 0.0815258 0.00213975 0.15371 0.0659175 
trait 3 0.288544 0 0.0299596 0.110561 0 0 0 0.16146 
node 1 2 1 1
node 2 3 1 1
node 3 2 1 1
node 4 2 1 1
node 5 2 1 1
node 6 3 1 1
node 7 3 1 1
node 8 2 1 1
node 9 3 1 1
node 10 1 1 1
node 11 2 1 3
node 12 3 0 2
node 13 1 0 2
node 14 1 0 2
node 15 3 0 2
gene 2 1 12 -0.506394 0 1 -0.506394 1
gene 3 2 12 0.684744 0 2 0.684744 1
gene 2 3 12 -0.0663167 0 3 -0.0663167 1
gene 2 4 12 0.166723 0 4 0.166723 1
gene 1 5 12 0.14481 0 5 0.14481 1
gene 3 6 12 0.358165 0 2 0.358165 1
gene 1 7 12 0.616291 0 3 0.616291 1
gene 1 8 12 0.78225 0 4 0.78225 1
gene 1 9 12 0.0691549 0 5 0.0691549 1
gene 3 10 12 0.654012 0 6 0.654012 1
gene 2 11 12 -0.709433 0 7 -0.709433 1
gene 3 12 13 0.26133 0 5 0.26133 1
gene 2 13 14 0.0392468 0 6 0.0392468 1
gene 2 11 15 0.324503 0 7 0.324503 1
genomeend 11

/* Organism #14 Fitness: 4.03835 Error: 0 */
genomestart 14
trait 1 0.1 0 0 0 0.019138 0 0.0145529 0.000359546 
trait 2 0.13125 0.00965237 0.000704072 0.0354663 0.0815258 0.00213975 0.15371 0.0659175 
trait 3 0.288544 0 0.0299596 0.110561 0 0 0 0.16146 
node 1 3 1 1
node 2 1 1 1
node 3 2 1 1
node 4 2 1 1
node 5 1 1 1
node 6 3 1 1
node 7 1 1 1
node 8 1 1 1
node 9 3 1 1
node 10 1 1 1
node 11 1 1 3
node 12 2 0 2
node 13 1 0 2
node 14 2 0 2
node 15 3 0 2
gene 2 1 12 -0.23838 0 1 -0.23838 1
gene 3 2 12 0.0586871 0 2 0.0586871 1
gene 3 3 12 -0.985748 0 3 -0.985748 1
gene 3 4 12 -0.990753 0 4 -0.990753 1
gene 1 5 12 -0.808649 0 5 -0.808649 1
gene 3 6 12 0.0704978 0 2 0.0704978 1
gene 3 7 12 0.266213 0 3 0.266213 1
gene 1 8 12 -0.393384 0 4 -0.393384 1
gene 2 9 12 -0.789941 0 5 -0.789941 1
gene 3 10 12 0.121647 0 6 0.121647 1
gene 1 11 12 -0.796503 0 7 -0.796503 1
gene 3 12 13 -0.811457 0 5 -0.811457 1
gene 2 13 14 -0.558489 0 6 -0.558489 1
gene 2 11 15 -0.241157 0 7 -0.241157 1
genomeend 14

/* Organism #16 Fitness: 4.0235 Error: 0 */
genomestart 16
trait 1 0.1 0 0 0 0.019138 0 0.0145529 0.000359546 
trait 2 0.13125 0.00965237 0.000704072 0.0354663 0.0815258 0.00213975 0.15371 0.0659175 
trait 3 0.288544 0 0.0299596 0.110561 0 0 0 0.16146 
node 1 1 1 1
node 2 2 1 1
node 3 1 1 1
node 4 2 1 1
node 5 3 1 1
node 6 1 1 1
node 7 2 1 1
node 8 1 1 1
node 9 2 1 1
node 10 2 1 1
node 11 1 1 3
node 12 1 0 2
node 13 2 0 2
node 14 1 0 2
node 15 1 0 2
gene 1 1 12 0.416089 0 1 0.416089 1
gene 1 2 12 0.780389 0 2 0.780389 1
gene 2 3 12 0.678091 0 3 0.678091 1
gene 1 4 12 0.59743 0 4 0.59743 1
gene 2 5 12 -0.857479 0 5 -0.857479 1
gene 2 6 12 -0.904294 0 2 -0.904294 1
gene 1 7 12 -0.171361 0 3 -0.171361 1
gene 3 8 12 -0.581957 0 4 -0.581957 1
gene 1 9 12 -0.889492 0 5 -0.889492 1
gene 3 10 12 -0.125309 0 6 -0.125309 1
gene 3 11 12 -0.072573 0 7 -0.072573 1
gene 1 12 13 -0.538926 0 5 -0.538926 1
gene 2 13 14 -0.882992 0 6 -0.882992 1
gene 1 11 15 -0.382794 0 7 -0.382794 1
genomeend 16

/* Organism #1 Fitness: 4.02245 Error: 0 */
genomestart 1
trait 1 0.1 0 0 0 0.019138 0 0.0145529 0.000359546 
trait 2 0.13125 0.00965237 0.000704072 0.0354663 0.0815258 0.00213975 0.15371 0.0659175 
trait 3 0.288544 0 0.0299596 0.110561 0 0 0 0.16146 
node 1 2 1 1
node 2 3 1 1
node 3 2 1 1
node 4 1 1 1
node 5 2 1 1
node 6 1 1 1
node 7 1 1 1
node 8 3 1 1
node 9 1 1 1
node 10 3 1 1
node 11 1 1 3
node 12 3 0 2
node 13 1 0 2
node 14 1 0 2
node 15 3 0 2
gene 2 1 12 0.886135 0 1 0.886135 1
gene 3 2 12 0.881954 0 2 0.881954 1
gene 2 3 12 0.929106 0 3 0.929106 1
gene 3 4 12 -0.353923 0 4 -0.353923 1
gene 2 5 12 0.326243 0 5 0.326243 1
gene 2 6 12 -0.717185 0 2 -0.717185 1
gene 2 7 12 0.702719 0 3 0.702719 1
gene 1 8 12 -0.14182 0 4 -0.14182 1
gene 2 9 12 -0.485672 0 5 -0.485672 1
gene 1 10 12 -0.532121 0 6 -0.532121 1
gene 1 11 12 -0.348796 0 7 -0.348796 1
gene 1 12 13 0.776299 0 5 0.776299 1
gene 3 13 14 0.71337 0 6 0.71337 1
gene 1 11 15 0.506607 0 7 0.506607 1
genomeend 1

/* Organism #4 Fitness: 4.02023 Error: 0 */
genomestart 4
trait 1 0.1 0 0 0 0.019138 0 0.0145529 0.000359546 
trait 2 0.13125 0.00965237 0.000704072 0.0354663 0.0815258 0.00213975 0.15371 0.0659175 
trait 3 0.288544 0 0.0299596 0.110561 0 0 0 0.16146 
node 1 3 1 1
node 2 1 1 1
node 3 3 1 1
node 4 1 1 1
node 5 2 1 1
node 6 2 1 1
node 7 1 1 1
node 8 1 1 1
node 9 1 1 1
node 10 1 1 1
node 11 1 1 3
node 12 3 0 2
node 13 2 0 2
node 14 2 0 2
node 15 1 0 2
gene 3 1 12 0.686331 0 1 0.686331 1
gene 1 2 12 -0.216865 0 2 -0.216865 1
gene 3 3 12 -0.902921 0 3 -0.902921 1
gene 2 4 12 -0.608905 0 4 -0.608905 1
gene 2 5 12 -0.737724 0 5 -0.737724 1
gene 2 6 12 -0.764458 0 2 -0.764458 1
gene 3 7 12 -0.862667 0 3 -0.862667 1
gene 3 8 12 -0.92288 0 4 -0.92288 1
gene 2 9 12 0.163457 0 5 0.163457 1
gene 1 10 12 -0.638752 0 6 -0.638752 1
gene 1 11 12 -0.878536 0 7 -0.878536 1
gene 3 12 13 0.281045 0 5 0.281045 1
gene 2 13 14 -0.341136 0 6 -0.341136 1
gene 1 11 15 0.963897 0 7 0.963897 1
genomeend 4

/* Organism #25 Fitness: 4.00534 Error: 0 */
genomestart 25
trait 1 0.1 0 0 0 0.019138 0 0.0145529 0.000359546 
trait 2 0.13125 0.00965237 0.000704072 0.0354663 0.0815258 0.00213975 0.15371 0.0659175 
trait 3 0.288544 0 0.0299596 0.110561 0 0 0 0.16146 
node 1 3 1 1
node 2 1 1 1
node 3 1 1 1
node 4 3 1 1
node 5 2 1 1
node 6 3 1 1
node 7 2 1 1
node 8 3 1 1
node 9 3 1 1
node 10 1 1 1
node 11 3 1 3
node 12 3 0 2
node 13 3 0 2
node 14 1 0 2
node 15 1 0 2
gene 1 1 12 0.462355 0 1 0.462355 1
gene 1 2 12 0.409345 0 2 0.409345 1
gene 3 3 12 0.911069 0 3 0.911069 1
gene 3 4 12 0.0343944 0 4 0.0343944 1
gene 3 5 12 0.302133 0 5 0.302133 1
gene 1 6 12 -0.431806 0 2 -0.431806 1
gene 1 7 12 -0.128147 0 3 -0.128147 1
gene 1 8 12 -0.709067 0 4 -0.709067 1
gene 1 9 12 -0.203375 0 5 -0.203375 1
gene 1 10 12 0.955351 0 6 0.955351 1
gene 3 11 12 0.263253 0 7 0.263253 1
gene 1 12 13 -0.408399 0 5 -0.408399 1
gene 3 13 14 0.918332 0 6 0.918332 1
gene 1 11 15 0.440199 0 7 0.440199 1
genomeend 25

/* Organism #2 Fitness: 3.99971 Error: 0 */
genomestart 2
trait 1 0.1 0 0 0 0.019138 0 0.0145529 0.000359546 
trait 2 0.13125 0.00965237 0.000704072 0.0354663 0.0815258 0.00213975 0.15371 0.0659175 
trait 3 0.288544 0 0.0299596 0.110561 0 0 0 0.16146 
node 1 3 1 1
node 2 1 1 1
node 3 3 1 1
node 4 1 1 1
node 5 2 1 1
node 6 3 1 1
node 7 2 1 1
node 8 2 1 1
node 9 1 1 1
node 10 2 1 1
node 11 3 1 3
node 12 2 0 2
node 13 3 0 2
node 14 2 0 2
node 15 1 0 2
gene 1 1 12 0.581439 0 1 0.581439 1
gene 2 2 12 0.229102 0 2 0.229102 1
gene 1 3 12 -0.20539 0 3 -0.20539 1
gene 1 4 12 -0.335673 0 4 -0.335673 1
gene 3 5 12 0.778253 0 5 0.778253 1
gene 2 6 12 -0.774285 0 2 -0.774285 1
gene 2 7 12 -0.0929899 0 3 -0.0929899 1
gene 1 8 12 -0.296457 0 4 -0.296457 1
gene 3 9 12 0.442091 0 5 0.442091 1
gene 2 10 12 -0.288797 0 6 -0.288797 1
gene 2 11 12 -0.0978423 0 7 -0.0978423 1
gene 1 12 13 0.347942 0 5 0.347942 1
gene 3 13 14 -0.740501 0 6 -0.740501 1
gene 3 11 15 -0.381603 0 7 -0.381603 1
genomeend 2

/* Organism #5 Fitness: 3.99158 Error: 0 */
genomestart 5
trait 1 0.1 0 0 0 0.019138 0 0.0145529 0.000359546 
trait 2 0.13125 0.00965237 0.000704072 0.0354663 0.0815258 0.00213975 0.15371 0.0659175 
trait 3 0.288544 0 0.0299596 0.110561 0 0 0 0.16146 
node 1 3 1 1
node 2 3 1 1
node 3 3 1 1
node 4 1 1 1
node 5 2 1 1
node 6 3 1 1
node 7 1 1 1
node 8 1 1 1
node 9 3 1 1
node 10 2 1 1
node 11 2 1 3
node 12 3 0 2
node 13 2 0 2
node 14 1 0 2
node 15 2 0 2
gene 3 1 12 -0.108798 0 1 -0.108798 1
gene 1 2 12 -0.194555 0 2 -0.194555 1
gene 1 3 12 -0.846614 0 3 -0.846614 1
gene 1 4 12 -0.499557 0 4 -0.499557 1
gene 2 5 12 0.208106 0 5 0.208106 1
gene 2 6 12 0.998566 0 2 0.998566 1
gene 2 7 12 -0.166478 0 3 -0.166478 1
gene 3 8 12 -0.150365 0 4 -0.150365 1
gene 1 9 12 0.152501 0 5 0.152501 1
gene 1 10 12 -0.547411 0 6 -0.547411 1
gene 2 11 12 0.940306 0 7 0.940306 1
gene 1 12 13 0.138462 0 5 0.138462 1
gene 3 13 14 -0.902432 0 6 -0.902432 1
gene 2 11 15 -0.773949 0 7 -0.773949 1
genomeend 5

/* Organism #19 Fitness: 3.98502 Error: 0 */
genomestart 19
trait 1 0.1 0 0 0 0.019138 0 0.0145529 0.000359546 
trait 2 0.13125 0.00965237 0.000704072 0.0354663 0.0815258 0.00213975 0.15371 0.0659175 
trait 3 0.288544 0 0.0299596 0.110561 0 0 0 0.16146 
node 1 1 1 1
node 2 1 1 1
node 3 3 1 1
node 4 1 1 1
node 5 3 1 1
node 6 3 1 1
node 7 1 1 1
node 8 1 1 1
node 9 3 1 1
node 10 1 1 1
node 11 1 1 3
node 12 2 0 2
node 13 2 0 2
node 14 2 0 2
node 15 3 0 2
gene 2 1 12 0.705924 0 1 0.705924 1
gene 1 2 12 -0.573778 0 2 -0.573778 1
gene 2 3 12 -0.211982 0 3 -0.211982 1
gene 2 4 12 0.516923 0 4 0.516923 1
gene 1 5 12 0.331858 0 5 0.331858 1
gene 2 6 12 -0.475478 0 2 -0.475478 1
gene 2 7 12 0.632557 0 3 0.632557 1
gene 3 8 12 -0.0647603 0 4 -0.0647603 1
gene 2 9 12 0.265999 0 5 0.265999 1
gene 2 10 12 0.18067 0 6 0.18067 1
gene 1 11 12 -0.0503555 0 7 -0.0503555 1
gene 1 12 13 0.980377 0 5 0.980377 1
gene 1 13 14 0.545213 0 6 0.545213 1
gene 3 11 15 -0.809961 0 7 -0.809961 1
genomeend 19

/* Organism #17 Fitness: 3.97169 Error: 0 */
genomestart 17
trait 1 0.1 0 0 0 0.019138 0 0.0145529 0.000359546 
trait 2 0.13125 0.00965237 0.000704072 0.0354663 0.0815258 0.00213975 0.15371 0.0659175 
trait 3 0.288544 0 0.0299596 0.110561 0 0 0 0.16146 
node 1 1 1 1
node 2 2 1 1
node 3 2 1 1
node 4 2 1 1
node 5 1 1 1
node 6 1 1 1
node 7 3 1 1
node 8 1 1 1
node 9 2 1 1
node 10 2 1 1
node 11 1 1 3
node 12 1 0 2
node 13 2 0 2
node 14 2 0 2
node 15 3 0 2
gene 2 1 12 -0.440382 0 1 -0.440382 1
gene 3 2 12 0.710593 0 2 0.710593 1
gene 2 3 12 0.206671 0 3 0.206671 1
gene 1 4 12 -0.551195 0 4 -0.551195 1
gene 3 5 12 -0.277017 0 5 -0.277017 1
gene 1 6 12 0.797967 0 2 0.797967 1
gene 3 7 12 0.653218 0 3 0.653218 1
gene 1 8 12 0.276315 0 4 0.276315 1
gene 3 9 12 -0.050264 0 5 -0.050264 1
gene 2 10 12 -0.997009 0 6 -0.997009 1
gene 1 11 12 -0.741478 0 7 -0.741478 1
gene 3 12 13 0.00958281 0 5 0.00958281 1
gene 2 13 14 -0.490829 0 6 -0.490829 1
gene 2 11 15 -0.0473342 0 7 -0.0473342 1
genomeend 17

/* Organism #24 Fitness: 3.96954 Error: 0 */
genomestart 24
trait 1 0.1 0 0 0 0.019138 0 0.0145529 0.000359546 
trait 2 0.13125 0.00965237 0.000704072 0.0354663 0.0815258 0.00213975 0.15371 0.0659175 
trait 3 0.288544 0 0.0299596 0.110561 0 0 0 0.16146 
node 1 2 1 1
node 2 3 1 1
node 3 2 1 1
node 4 3 1 1
node 5 2 1 1
node 6 1 1 1
node 7 3 1 1
node 8 3 1 1
node 9 2 1 1
node 10 3 1 1
node 11 1 1 3
node 12 2 0 2
node 13 3 0 2
node 14 1 0 2
node 15 3 0 2
gene 3 1 12 0.754418 0 1 0.754418 1
gene 1 2 12 0.162114 0 2 0.162114 1
gene 1 3 12 -0.809168 0 3 -0.809168 1
gene 1 4 12 -0.0130314 0 4 -0.0130314 1
gene 3 5 12 -0.511612 0 5 -0.511612 1
gene 3 6 12 -0.11539 0 2 -0.11539 1
gene 1 7 12 -0.899472 0 3 -0.899472 1
gene 1 8 12 -0.81286 0 4 -0.81286 1
gene 2 9 12 -0.109378 0 5 -0.109378 1
gene 1 10 12 0.731529 0 6 0.731529 1
gene 3 11 12 0.336344 0 7 0.336344 1
gene 1 12 13 0.662069 0 5 0.662069 1
gene 2 13 14 -0.0211493 0 6 -0.0211493 1
gene 1 11 15 -0.498123 0 7 -0.498123 1
genomeend 24

/* Organism #12 Fitness: 3.968 Error: 0 */
genomestart 12
trait 1 0.1 0 0 0 0.019138 0 0.0145529 0.000359546 
trait 2 0.13125 0.00965237 0.000704072 0.0354663 0.0815258 0.00213975 0.15371 0.0659175 
trait 3 0.288544 0 0.0299596 0.110561 0 0 0 0.16146 
node 1 2 1 1
node 2 2 1 1
node 3 1 1 1
node 4 1 1 1
node 5 2 1 1
node 6 3 1 1
node 7 3 1 1
node 8 1 1 1
node 9 2 1 1
node 10 2 1 1
node 11 1 1 3
node 12 2 0 2
node 13 1 0 2
node 14 2 0 2
node 15 1 0 2
gene 3 1 12 0.949553 0 1 0.949553 1
gene 3 2 12 0.326426 0 2 0.326426 1
gene 2 3 12 -0.758538 0 3 -0.758538 1
gene 1 4 12 -0.965148 0 4 -0.965148 1
gene 1 5 12 0.295663 0 5 0.295663 1
gene 1 6 12 0.0299387 0 2 0.0299387 1
gene 3 7 12 0.150517 0 3 0.150517 1
gene 3 8 12 -0.926115 0 4 -0.926115 1
gene 2 9 12 0.858303 0 5 0.858303 1
gene 3 10 12 0.459334 0 6 0.459334 1
gene 1 11 12 0.573565 0 7 0.573565 1
gene 1 12 13 -0.15128 0 5 -0.15128 1
gene 2 13 14 0.160497 0 6 0.160497 1
gene 1 11 15 0.299356 0 7 0.299356 1
genomeend 12

/* Organism #28 Fitness: 3.96409 Error: 0 */
genomestart 28
trait 1 0.1 0 0 0 0.019138 0 0.0145529 0.000359546 
trait 2 0.13125 0.00965237 0.000704072 0.0354663 0.0815258 0.00213975 0.15371 0.0659175 
trait 3 0.288544 0 0.0299596 0.110561 0 0 0 0.16146 
node 1 3 1 1
node 2 2 1 1
node 3 2 1 1
node 4 1 1 1
node 5 2 1 1
node 6 1 1 1
node 7 3 1 1
node 8 1 1 1
node 9 1 1 1
node 10 2 1 1
node 11 1 1 3
node 12 3 0 2
node 13 1 0 2
node 14 2 0 2
node 15 1 0 2
gene 3 1 12 0.624317 0 1 0.624317 1
gene 2 2 12 -0.649831 0 2 -0.649831 1
gene 3 3 12 0.314982 0 3 0.314982 1
gene 3 4 12 0.190405 0 4 0.190405 1
gene 1 5 12 -0.256172 0 5 -0.256172 1
gene 3 6 12 0.11597 0 2 0.11597 1
gene 3 7 12 0.622456 0 3 0.622456 1
gene 1 8 12 0.271828 0 4 0.271828 1
gene 2 9 12 -0.655873 0 5 -0.655873 1
gene 2 10 12 0.325053 0 6 0.325053 1
gene 3 11 12 -0.573077 0 7 -0.573077 1
gene 2 12 13 -0.712119 0 5 -0.712119 1
gene 2 13 14 0.396558 0 6 0.396558 1
gene 1 11 15 0.0983001 0 7 0.0983001 1
genomeend 28

/* Organism #27 Fitness: 3.96231 Error: 0 */
genomestart 27
trait 1 0.1 0 0 0 0.019138 0 0.0145529 0.000359546 
trait 2 0.13125 0.00965237 0.000704072 0.0354663 0.0815258 0.00213975 0.15371 0.0659175 
trait 3 0.288544 0 0.0299596 0.110561 0 0 0 0.16146 
node 1 1 1 1
node 2 3 1 1
node 3 3 1 1
node 4 3 1 1
node 5 3 1 1
node 6 2 1 1
node 7 3 1 1
node 8 3 1 1
node 9 2 1 1
node 10 3 1 1
node 11 3 1 3
node 12 2 0 2
node 13 1 0 2
node 14 2 0 2
node 15 1 0 2
gene 3 1 12 -0.625935 0 1 -0.625935 1
gene 3 2 12 0.128513 0 2 0.128513 1
gene 3 3 12 0.95172 0 3 0.95172 1
gene 2 4 12 -0.358318 0 4 -0.358318 1
gene 3 5 12 -0.70629 0 5 -0.70629 1
gene 2 6 12 -0.3979 0 2 -0.3979 1
gene 1 7 12 0.930754 0 3 0.930754 1
gene 2 8 12 -0.926511 0 4 -0.926511 1
gene 3 9 12 0.523911 0 5 0.523911 1
gene 3 10 12 0.109287 0 6 0.109287 1
gene 2 11 12 -0.649922 0 7 -0.649922 1
gene 2 12 13 0.51384 0 5 0.51384 1
gene 2 13 14 0.233192 0 6 0.233192 1
gene 2 11 15 -0.816889 0 7 -0.816889 1
genomeend 27

/* Organism #7 Fitness: 3.96081 Error: 0 */
genomestart 7
trait 1 0.1 0 0 0 0.019138 0 0.0145529 0.000359546 
trait 2 0.13125 0.00965237 0.000704072 0.0354663 0.0815258 0.00213975 0.15371 0.0659175 
trait 3 0.288544 0 0.0299596 0.110561 0 0 0 0.16146 
node 1 1 1 1
node 2 1 1 1
node 3 3 1 1
node 4 3 1 1
node 5 3 1 1
node 6 3 1 1
node 7 3 1 1
node 8 1 1 1
node 9 3 1 1
node 10 1 1 1
node 11 1 1 3
node 12 3 0 2
node 13 3 0 2
node 14 2 0 2
node 15 1 0 2
gene 2 1 12 -0.885495 0 1 -0.885495 1
gene 2 2 12 -0.295572 0 2 -0.295572 1
gene 1 3 12 -0.00436415 0 3 -0.00436415 1
gene 1 4 12 0.407483 0 4 0.407483 1
gene 3 5 12 0.0207831 0 5 0.0207831 1
gene 2 6 12 0.334056 0 2 0.334056 1
gene 1 7 12 -0.625965 0 3 -0.625965 1
gene 2 8 12 -0.4962 0 4 -0.4962 1
gene 3 9 12 -0.409986 0 5 -0.409986 1
gene 2 10 12 0.421125 0 6 0.421125 1
gene 3 11 12 0.0603656 0 7 0.0603656 1
gene 2 12 13 -0.777734 0 5 -0.777734 1
gene 3 13 14 -0.929472 0 6 -0.929472 1
gene 3 11 15 -0.733848 0 7 -0.733848 1
genomeend 7

/* Organism #9 Fitness: 3.95493 Error: 0 */
genomestart 9
trait 1 0.1 0 0 0 0.019138 0 0.0145529 0.000359546 
trait 2 0.13125 0.00965237 0.000704072 0.0354663 0.0815258 0.00213975 0.15371 0.0659175 
trait 3 0.288544 0 0.0299596 0.110561 0 0 0 0.16146 
node 1 3 1 1
node 2 3 1 1
node 3 2 1 1
node 4 3 1 1
node 5 1 1 1
node 6 2 1 1
node 7 3 1 1
node 8 2 1 1
node 9 2 1 1
node 10 1 1 1
node 11 3 1 3
node 12 2 0 2
node 13 2 0 2
node 14 3 0 2
node 15 2 0 2
gene 3 1 12 -0.0077517 0 1 -0.0077517 1
gene 3 2 12 0.0695822 0 2 0.0695822 1
gene 1 3 12 0.281686 0 3 0.281686 1
gene 2 4 12 -0.953795 0 4 -0.953795 1
gene 2 5 12 -0.641041 0 5 -0.641041 1
gene 3 6 12 0.499771 0 2 0.499771 1
gene 1 7 12 0.620014 0 3 0.620014 1
gene 2 8 12 0.215674 0 4 0.215674 1
gene 1 9 12 -0.093173 0 5 -0.093173 1
gene 3 10 12 0.688589 0 6 0.688589 1
gene 1 11 12 -0.78637 0 7 -0.78637 1
gene 3 12 13 0.432234 0 5 0.432234 1
gene 2 13 14 0.156621 0 6 0.156621 1
gene 1 11 15 -0.0571612 0 7 -0.0571612 1
genomeend 9

/* Organism #13 Fitness: 3.95009 Error: 0 */
genomestart 13
trait 1 0.1 0 0 0 0.019138 0 0.0145529 0.000359546 
trait 2 0.13125 0.00965237 0.000704072 0.0354663 0.0815258 0.00213975 0.15371 0.0659175 
trait 3 0.288544 0 0.0299596 0.110561 0 0 0 0.16146 
node 1 1 1 1
node 2 2 1 1
node 3 1 1 1
node 4 2 1 1
node 5 2 1 1
node 6 2 1 1
node 7 3 1 1
node 8 3 1 1
node 9 2 1 1
node 10 3 1 1
node 11 2 1 3
node 12 1 0 2
node 13 1 0 2
node 14 1 0 2
node 15 2 0 2
gene 3 1 12 -0.530045 0 1 -0.530045 1
gene 1 2 12 0.844295 0 2 0.844295 1
gene 3 3 12 0.750542 0 3 0.750542 1
gene 2 4 12 0.0967742 0 4 0.0967742 1
gene 1 5 12 -0.318064 0 5 -0.318064 1
gene 1 6 12 -0.805261 0 2 -0.805261 1
gene 2 7 12 0.607593 0 3 0.607593 1
gene 1 8 12 -0.200446 0 4 -0.200446 1
gene 3 9 12 0.403943 0 5 0.403943 1
gene 1 10 12 -0.718345 0 6 -0.718345 1
gene 1 11 12 -0.979247 0 7 -0.979247 1
gene 3 12 13 0.945463 0 5 0.945463 1
gene 3 13 14 -0.85168 0 6 -0.85168 1
gene 2 11 15 -0.699149 0 7 -0.699149 1
genomeend 13

/* Organism #30 Fitness: 3.93717 Error: 0 */
genomestart 30
trait 1 0.1 0 0 0 0.019138 0 0.0145529 0.000359546 
trait 2 0.13125 0.00965237 0.000704072 0.0354663 0.0815258 0.00213975 0.15371 0.0659175 
trait 3 0.288544 0 0.0299596 0.110561 0 0 0 0.16146 
node 1 3 1 1
node 2 1 1 1
node 3 1 1 1
node 4 1 1 1
node 5 1 1 1
node 6 3 1 1
node 7 3 1 1
node 8 1 1 1
node 9 2 1 1
node 10 3 1 1
node 11 3 1 3
node 12 1 0 2
node 13 3 0 2
node 14 2 0 2
node 15 2 0 2
gene 1 1 12 -0.724143 0 1 -0.724143 1
gene 2 2 12 -0.71688 0 2 -0.71688 1
gene 1 3 12 -0.739341 0 3 -0.739341 1
gene 1 4 12 0.463118 0 4 0.463118 1
gene 2 5 12 0.510788 0 5 0.510788 1
gene 2 6 12 0.121708 0 2 0.121708 1
gene 3 7 12 -0.511917 0 3 -0.511917 1
gene 2 8 12 -0.126621 0 4 -0.126621 1
gene 3 9 12 -0.370769 0 5 -0.370769 1
gene 2 10 12 -0.130436 0 6 -0.130436 1
gene 2 11 12 -0.728233 0 7 -0.728233 1
gene 3 12 13 0.270119 0 5 0.270119 1
gene 2 13 14 0.213141 0 6 0.213141 1
gene 2 11 15 0.848689 0 7 0.848689 1
genomeend 30

/* Organism #15 Fitness: 3.93566 Error: 0 */
genomestart 15
trait 1 0.1 0 0 0 0.019138 0 0.0145529 0.000359546 
trait 2 0.13125 0.00965237 0.000704072 0.0354663 0.0815258 0.00213975 0.15371 0.0659175 
trait 3 0.288544 0 0.0299596 0.110561 0 0 0 0.16146 
node 1 2 1 1
node 2 2 1 1
node 3 1 1 1
node 4 3 1 1
node 5 1 1 1
node 6 2 1 1
node 7 3 1 1
node 8 1 1 1
node 9 1 1 1
node 10 1 1 1
node 11 3 1 3
node 12 2 0 2
node 13 1 0 2
node 14 2 0 2
node 15 3 0 2
gene 1 1 12 0.86169 0 1 0.86169 1
gene 1 2 12 0.209632 0 2 0.209632 1
gene 3 3 12 0.713218 0 3 0.713218 1
gene 1 4 12 0.080752 0 4 0.080752 1
gene 2 5 12 -0.303262 0 5 -0.303262 1
gene 3 6 12 0.0875271 0 2 0.0875271 1
gene 1 7 12 0.138829 0 3 0.138829 1
gene 3 8 12 -0.149449 0 4 -0.149449 1
gene 2 9 12 -0.70336 0 5 -0.70336 1
gene 2 10 12 0.488876 0 6 0.488876 1
gene 3 11 12 -0.846248 0 7 -0.846248 1
gene 3 12 13 -0.388836 0 5 -0.388836 1
gene 1 13 14 0.854549 0 6 0.854549 1
gene 1 11 15 -0.0859096 0 7 -0.0859096 1
genomeend 15

/* Organism #21 Fitness: 3.9215 Error: 0 */
genomestart 21
trait 1 0.1 0 0 0 0.019138 0 0.0145529 0.000359546 
trait 2 0.13125 0.00965237 0.000704072 0.0354663 0.0815258 0.00213975 0.15371 0.0659175 
trait 3 0.288544 0 0.0299596 0.110561 0 0 0 0.16146 
node 1 3 1 1
node 2 1 1 1
node 3 3 1 1
node 4 3 1 1
node 5 3 1 1
node 6 2 1 1
node 7 1 1 1
node 8 2 1 1
node 9 2 1 1
node 10 3 1 1
node 11 3 1 3
node 12 1 0 2
node 13 2 0 2
node 14 1 0 2
node 15 1 0 2
gene 3 1 12 -0.418806 0 1 -0.418806 1
gene 3 2 12 -0.00262459 0 2 -0.00262459 1
gene 1 3 12 0.979186 0 3 0.979186 1
gene 1 4 12 0.733268 0 4 0.733268 1
gene 1 5 12 0.276437 0 5 0.276437 1
gene 1 6 12 -0.22956 0 2 -0.22956 1
gene 2 7 12 -0.164983 0 3 -0.164983 1
gene 3 8 12 0.0159001 0 4 0.0159001 1
gene 1 9 12 -0.142857 0 5 -0.142857 1
gene 3 10 12 -0.41023 0 6 -0.41023 1
gene 1 11 12 0.204718 0 7 0.204718 1
gene 1 12 13 -0.835658 0 5 -0.835658 1
gene 2 13 14 -0.219398 0 6 -0.219398 1
gene 3 11 15 -0.752281 0 7 -0.752281 1
genomeend 21

/* Organism #26 Fitness: 3.90675 Error: 0 */
genomestart 26
trait 1 0.1 0 0 0 0.019138 0 0.0145529 0.000359546 
trait 2 0.13125 0.00965237 0.000704072 0.0354663 0.0815258 0.00213975 0.15371 0.0659175 
trait 3 0.288544 0 0.0299596 0.110561 0 0 0 0.16146 
node 1 2 1 1
node 2 1 1 1
node 3 2 1 1
node 4 2 1 1
node 5 1 1 1
node 6 1 1 1
node 7 1 1 1
node 8 3 1 1
node 9 2 1 1
node 10 3 1 1
node 11 3 1 3
node 12 1 0 2
node 13 2 0 2
node 14 1 0 2
node 15 1 0 2
gene 3 1 12 0.166143 0 1 0.166143 1
gene 3 2 12 0.602466 0 2 0.602466 1
gene 3 3 12 -0.0779443 0 3 -0.0779443 1
gene 2 4 12 -0.454695 0 4 -0.454695 1
gene 3 5 12 0.470809 0 5 0.470809 1
gene 1 6 12 0.283761 0 2 0.283761 1
gene 2 7 12 0.267403 0 3 0.267403 1
gene 2 8 12 0.0805078 0 4 0.0805078 1
gene 1 9 12 0.495682 0 5 0.495682 1
gene 1 10 12 -0.886044 0 6 -0.886044 1
gene 2 11 12 0.24485 0 7 0.24485 1
gene 2 12 13 -0.420637 0 5 -0.420637 1
gene 3 13 14 -0.541032 0 6 -0.541032 1
gene 2 11 15 0.0602435 0 7 0.0602435 1
genomeend 26

/* Organism #22 Fitness: 3.89974 Error: 0 */
genomestart 22
trait 1 0.1 0 0 0 0.019138 0 0.0145529 0.000359546 
trait 2 0.13125 0.00965237 0.000704072 0.0354663 0.0815258 0.00213975 0.15371 0.0659175 
trait 3 0.288544 0 0.0299596 0.110561 0 0 0 0.16146 
node 1 3 1 1
node 2 3 1 1
node 3 3 1 1
node 4 2 1 1
node 5 3 1 1
node 6 3 1 1
node 7 2 1 1
node 8 2 1 1
node 9 3 1 1
node 10 2 1 1
node 11 2 1 3
node 12 2 0 2
node 13 2 0 2
node 14 2 0 2
node 15 2 0 2
gene 2 1 12 -0.555376 0 1 -0.555376 1
gene 3 2 12 0.596728 0 2 0.596728 1
gene 2 3 12 0.504288 0 3 0.504288 1
gene 3 4 12 -0.0713218 0 4 -0.0713218 1
gene 2 5 12 0.00543229 0 5 0.00543229 1
gene 1 6 12 -0.0318613 0 2 -0.0318613 1
gene 2 7 12 -0.146062 0 3 -0.146062 1
gene 1 8 12 -0.768029 0 4 -0.768029 1
gene 3 9 12 -0.0772423 0 5 -0.0772423 1
gene 2 10 12 0.535539 0 6 0.535539 1
gene 1 11 12 0.160741 0 7 0.160741 1
gene 1 12 13 0.125828 0 5 0.125828 1
gene 1 13 14 0.343883 0 6 0.343883 1
gene 1 11 15 0.491867 0 7 0.491867 1
genomeend 22

/* Organism #23 Fitness: 3.88497 Error: 0 */
genomestart 23
trait 1 0.1 0 0 0 0.019138 0 0.0145529 0.000359546 
trait 2 0.13125 0.00965237 0.000704072 0.0354663 0.0815258 0.00213975 0.15371 0.0659175 
trait 3 0.288544 0 0.0299596 0.110561 0 0 0 0.16146 
node 1 2 1 1
node 2 2 1 1
node 3 2 1 1
node 4 1 1 1
node 5 2 1 1
node 6 1 1 1
node 7 2 1 1
node 8 2 1 1
node 9 2 1 1
node 10 3 1 1
node 11 3 1 3
node 12 1 0 2
node 13 1 0 2
node 14 2 0 2
node 15 1 0 2
gene 2 1 12 0.208014 0 1 0.208014 1
gene 2 2 12 -0.938231 0 2 -0.938231 1
gene 2 3 12 -0.440718 0 3 -0.440718 1
gene 2 4 12 0.331004 0 4 0.331004 1
gene 2 5 12 0.355785 0 5 0.355785 1
gene 2 6 12 0.237953 0 2 0.237953 1
gene 1 7 12 0.165838 0 3 0.165838 1
gene 1 8 12 -0.42027 0 4 -0.42027 1
gene 2 9 12 -0.503555 0 5 -0.503555 1
gene 3 10 12 -0.214331 0 6 -0.214331 1
gene 1 11 12 -0.148015 0 7 -0.148015 1
gene 2 12 13 0.270852 0 5 0.270852 1
gene 2 13 14 -0.377239 0 6 -0.377239 1
gene 1 11 15 -0.590533 0 7 -0.590533 1
genomeend 23

/* Organism #8 Fitness: 3.87825 Error: 0 */
genomestart 8
trait 1 0.1 0 0 0 0.019138 0 0.0145529 0.000359546 
trait 2 0.13125 0.00965237 0.000704072 0.0354663 0.0815258 0.00213975 0.15371 0.0659175 
trait 3 0.288544 0 0.0299596 0.110561 0 0 0 0.16146 
node 1 2 1 1
node 2 3 1 1
node 3 1 1 1
node 4 3 1 1
node 5 2 1 1
node 6 1 1 1
node 7 3 1 1
node 8 2 1 1
node 9 1 1 1
node 10 2 1 1
node 11 1 1 3
node 12 3 0 2
node 13 2 0 2
node 14 2 0 2
node 15 3 0 2
gene 1 1 12 -0.788385 0 1 -0.788385 1
gene 2 2 12 0.860775 0 2 0.860775 1
gene 2 3 12 0.58507 0 3 0.58507 1
gene 1 4 12 -0.228675 0 4 -0.228675 1
gene 1 5 12 -0.28898 0 5 -0.28898 1
gene 2 6 12 0.0152593 0 2 0.0152593 1
gene 1 7 12 -0.465041 0 3 -0.465041 1
gene 1 8 12 -0.0645772 0 4 -0.0645772 1
gene 2 9 12 -0.913175 0 5 -0.913175 1
gene 2 10 12 0.820826 0 6 0.820826 1
gene 3 11 12 -0.16483 0 7 -0.16483 1
gene 3 12 13 0.177618 0 5 0.177618 1
gene 3 13 14 -0.472152 0 6 -0.472152 1
gene 3 11 15 0.198828 0 7 0.198828 1
genomeend 8

/* Organism #10 Fitness: 3.87822 Error: 0 */
genomestart 10
trait 1 0.1 0 0 0 0.019138 0 0.0145529 0.000359546 
trait 2 0.13125 0.00965237 0.000704072 0.0354663 0.0815258 0.00213975 0.15371 0.0659175 
trait 3 0.288544 0 0.0299596 0.110561 0 0 0 0.16146 
node 1 3 1 1
node 2 1 1 1
node 3 1 1 1
node 4 2 1 1
node 5 1 1 1
node 6 3 1 1
node 7 3 1 1
node 8 2 1 1
node 9 1 1 1
node 10 3 1 1
node 11 3 1 3
node 12 3 0 2
node 13 3 0 2
node 14 2 0 2
node 15 1 0 2
gene 3 1 12 -0.421247 0 1 -0.421247 1
gene 1 2 12 -0.524033 0 2 -0.524033 1
gene 3 3 12 0.44319 0 3 0.44319 1
gene 1 4 12 -0.304941 0 4 -0.304941 1
gene 2 5 12 0.166997 0 5 0.166997 1
gene 3 6 12 -0.0872524 0 2 -0.0872524 1
gene 3 7 12 0.689932 0 3 0.689932 1
gene 2 8 12 0.766686 0 4 0.766686 1
gene 1 9 12 -0.258217 0 5 -0.258217 1
gene 2 10 12 0.220801 0 6 0.220801 1
gene 1 11 12 -0.720481 0 7 -0.720481 1
gene 1 12 13 -0.638356 0 5 -0.638356 1
gene 2 13 14 0.740471 0 6 0.740471 1
gene 2 11 15 -0.686117 0 7 -0.686117 1
genomeend 10

/* Organism #18 Fitness: 3.87651 Error: 0 */
genomestart 18
trait 1 0.1 0 0 0 0.019138 0 0.0145529 0.000359546 
trait 2 0.13125 0.00965237 0.000704072 0.0354663 0.0815258 0.00213975 0.15371 0.0659175 
trait 3 0.288544 0 0.0299596 0.110561 0 0 0 0.16146 
node 1 1 1 1
node 2 2 1 1
node 3 1 1 1
node 4 1 1 1
node 5 1 1 1
node 6 3 1 1
node 7 3 1 1
node 8 2 1 1
node 9 3 1 1
node 10 2 1 1
node 11 1 1 3
node 12 2 0 2
node 13 1 0 2
node 14 1 0 2
node 15 1 0 2
gene 1 1 12 -0.515671 0 1 -0.515671 1
gene 3 2 12 -0.878811 0 2 -0.878811 1
gene 1 3 12 0.297342 0 3 0.297342 1
gene 1 4 12 0.000640889 0 4 0.000640889 1
gene 2 5 12 0.995025 0 5 0.995025 1
gene 2 6 12 0.0695822 0 2 0.0695822 1
gene 1 7 12 -0.169988 0 3 -0.169988 1
gene 1 8 12 0.642415 0 4 0.642415 1
gene 2 9 12 -0.377239 0 5 -0.377239 1
gene 3 10 12 -0.609119 0 6 -0.609119 1
gene 1 11 12 0.686941 0 7 0.686941 1
gene 3 12 13 -0.137547 0 5 -0.137547 1
gene 1 13 14 -0.434614 0 6 -0.434614 1
gene 2 11 15 -0.674398 0 7 -0.674398 1
genomeend 18

/* Organism #20 Fitness: 3.75221 Error: 0 */
genomestart 20
trait 1 0.1 0 0 0 0.019138 0 0.0145529 0.000359546 
trait 2 0.13125 0.00965237 0.000704072 0.0354663 0.0815258 0.00213975 0.15371 0.0659175 
trait 3 0.288544 0 0.0299596 0.110561 0 0 0 0.16146 
node 1 1 1 1
node 2 1 1 1
node 3 3 1 1
node 4 2 1 1
node 5 3 1 1
node 6 2 1 1
node 7 2 1 1
node 8 2 1 1
node 9 2 1 1
node 10 2 1 1
node 11 3 1 3
node 12 3 0 2
node 13 3 0 2
node 14 1 0 2
node 15 3 0 2
gene 3 1 12 0.472579 0 1 0.472579 1
gene 3 2 12 0.965423 0 2 0.965423 1
gene 3 3 12 0.580493 0 3 0.580493 1
gene 3 4 12 -0.176092 0 4 -0.176092 1
gene 3 5 12 0.110111 0 5 0.110111 1
gene 1 6 12 0.922239 0 2 0.922239 1
gene 3 7 12 0.209326 0 3 0.209326 1
gene 2 8 12 -0.0634785 0 4 -0.0634785 1
gene 2 9 12 0.899167 0 5 0.899167 1
gene 1 10 12 -0.671773 0 6 -0.671773 1
gene 2 11 12 0.627766 0 7 0.627766 1
gene 3 12 13 -0.581194 0 5 -0.581194 1
gene 1 13 14 -0.153569 0 6 -0.153569 1
gene 3 11 15 0.930845 0 7 0.930845 1
genomeend 20

/* Organism #29 Fitness: 3.70164 Error: 0 */
genomestart 29
trait 1 0.1 0 0 0 0.019138 0 0.0145529 0.000359546 
trait 2 0.13125 0.00965237 0.000704072 0.0354663 0.0815258 0.00213975 0.15371 0.0659175 
trait 3 0.288544 0 0.0299596 0.110561 0 0 0 0.16146 
node 1 1 1 1
node 2 2 1 1
node 3 3 1 1
node 4 3 1 1
node 5 3 1 1
node 6 2 1 1
node 7 3 1 1
node 8 3 1 1
node 9 3 1 1
node 10 2 1 1
node 11 2 1 3
node 12 2 0 2
node 13 1 0 2
node 14 2 0 2
node 15 1 0 2
gene 2 1 12 0.883572 0 1 0.883572 1
gene 3 2 12 -0.884365 0 2 -0.884365 1
gene 2 3 12 -0.938353 0 3 -0.938353 1
gene 3 4 12 0.145787 0 4 0.145787 1
gene 3 5 12 0.214026 0 5 0.214026 1
gene 1 6 12 -0.00241096 0 2 -0.00241096 1
gene 1 7 12 0.934599 0 3 0.934599 1
gene 2 8 12 -0.279244 0 4 -0.279244 1
gene 3 9 12 0.810663 0 5 0.810663 1
gene 1 10 12 -0.947386 0 6 -0.947386 1
gene 3 11 12 -0.759453 0 7 -0.759453 1
gene 1 12 13 0.85284 0 5 0.85284 1
gene 2 13 14 -0.712577 0 6 -0.712577 1
gene 1 11 15 0.236183 0 7 0.236183 1
genomeend 29

/* Organism #0 Fitness: 3.65495 Error: 0 */
/* ##------$ WINNER 0 SPECIES #1 $------## */
genomestart 0
trait 1 0.1 0 0 0 0.019138 0 0.0145529 0.000359546 
trait 2 0.13125 0.00965237 0.000704072 0.0354663 0.0815258 0.00213975 0.15371 0.0659175 
trait 3 0.288544 0 0.0299596 0.110561 0 0 0 0.16146 
node 1 2 1 1
node 2 3 1 1
node 3 2 1 1
node 4 1 1 1
node 5 2 1 1
node 6 1 1 1
node 7 1 1 1
node 8 3 1 1
node 9 1 1 1
node 10 3 1 1
node 11 1 1 3
node 12 3 0 2
node 13 1 0 2
node 14 1 0 2
node 15 3 0 2
gene 2 1 12 1.68549 0 1 1.68549 1
gene 3 2 12 -1.30363 0 2 -1.30363 1
gene 2 3 12 2.56513 0 3 2.56513 1
gene 3 4 12 -0.301355 0 4 -0.301355 1
gene 2 5 12 -2.06549 0 5 -2.06549 1
gene 2 6 12 -0.25277 0 2 -0.25277 1
gene 2 7 12 1.96695 0 3 1.96695 1
gene 1 8 12 -0.876782 0 4 -0.876782 1
gene 2 9 12 1.90123 0 5 1.90123 1
gene 1 10 12 -1.4901 0 6 -1.4901 1
gene 1 11 12 -0.348796 0 7 -0.348796 1
gene 1 12 13 1.20609 0 5 1.20609 1
gene 3 13 14 -0.480285 0 6 -0.480285 1
gene 1 11 15 0.204321 0 7 0.204321 1
genomeend 0
