
/* Species #1 : (Size 2) (AF 0) (Age 1)  */


/* Organism #2 Fitness: 8684.63 Error: 0 */
genomestart 2
trait 1 0.1 0 0 0 0.019138 0 0.0145529 0.000359546 
trait 2 0.13125 0.00965237 0.000704072 0.0354663 0.0815258 0.00213975 0.15371 0.0659175 
trait 3 0.288544 0 0.0299596 0.110561 0 0 0 0.16146 
node 1 3 1 1
node 2 1 1 1
node 3 2 1 1
node 4 2 1 1
node 5 2 1 1
node 6 3 1 1
node 7 1 1 1
node 8 1 1 1
node 9 3 1 1
node 10 1 1 1
node 11 1 1 3
node 12 1 0 2
node 13 1 0 2
node 14 3 0 2
node 15 3 0 2
gene 2 1 12 -0.47148 0 1 -0.47148 1
gene 3 2 12 0.854762 0 2 0.854762 1
gene 2 3 12 -0.761711 0 3 -0.761711 1
gene 3 4 12 0.216681 0 4 0.216681 1
gene 1 5 12 -0.403546 0 5 -0.403546 1
gene 3 6 12 -0.374767 0 2 -0.374767 1
gene 2 7 12 0.834071 0 3 0.834071 1
gene 3 8 12 -0.968261 0 4 -0.968261 1
gene 2 9 12 0.667623 0 5 0.667623 1
gene 3 10 12 0.263649 0 6 0.263649 1
gene 2 11 12 -0.754509 0 7 -0.754509 1
gene 1 12 13 0.929472 0 5 0.929472 1
gene 3 13 14 0.376537 0 6 0.376537 1
gene 1 11 15 -0.732322 0 7 -0.732322 1
genomeend 2

/* Organism #6 Fitness: 8512.55 Error: 0 */
/* ##------$ WINNER 6 SPECIES #1 $------## */
genomestart 6
trait 1 0.1 0 0 0 0.019138 0 0.0145529 0.000359546 
trait 2 0.13125 0.00965237 0.000704072 0.0354663 0.0815258 0.00213975 0.15371 0.0659175 
trait 3 0.288544 0 0.0299596 0.110561 0 0 0 0.16146 
node 1 3 1 1
node 2 1 1 1
node 3 2 1 1
node 4 2 1 1
node 5 2 1 1
node 6 3 1 1
node 7 1 1 1
node 8 1 1 1
node 9 3 1 1
node 10 1 1 1
node 11 1 1 3
node 12 1 0 2
node 13 1 0 2
node 14 3 0 2
node 15 3 0 2
gene 2 1 12 -2.28652 0 1 -2.28652 1
gene 3 2 12 1.89453 0 2 1.89453 1
gene 2 3 12 0.295343 0 3 0.295343 1
gene 3 4 12 0.366451 0 4 0.366451 1
gene 1 5 12 -0.403546 0 5 -0.403546 1
gene 3 6 12 0.96614 0 2 0.96614 1
gene 2 7 12 2.98006 0 3 2.98006 1
gene 3 8 12 -1.5929 0 4 -1.5929 1
gene 2 9 12 0.327616 0 5 0.327616 1
gene 3 10 12 -0.277642 0 6 -0.277642 1
gene 2 11 12 -0.84843 0 7 -0.84843 1
gene 1 12 13 0.93672 0 5 0.93672 1
gene 3 13 14 -1.32099 0 6 -1.32099 1
gene 1 11 15 -1.5725 0 7 -1.5725 1
genomeend 6
