
/* Species #1 : (Size 8) (AF 0) (Age 1)  */


/* Organism #32 Fitness: 3.63742 Error: 0 */
genomestart 32
trait 1 0.1 0 0 0 0.019138 0 0.0145529 0.000359546 
trait 2 0.0662456 0.585965 0.000176018 0.00886657 0.653153 0.378822 0.0384275 0.160105 
trait 3 0.288544 0 0.0299596 0.110561 0 0 0 0.16146 
node 1 2 1 1
node 2 1 1 1
node 3 1 1 1
node 4 2 1 1
node 5 1 1 1
node 6 2 1 1
node 7 2 1 3
node 8 1 0 2
node 9 1 0 2
node 10 2 0 2
node 11 3 0 2
gene 2 1 8 -0.179449 0 1 -0.179449 1
gene 3 2 8 0.137181 0 2 0.137181 1
gene 2 3 8 -1.9623 0 3 -1.9623 1
gene 2 4 8 -7.2311 0 4 -7.2311 1
gene 2 5 8 1.88954 0 5 1.88954 1
gene 2 6 8 2.323 0 6 2.323 1
gene 3 7 8 2.30768 0 7 2.30768 1
gene 1 5 9 1.49655 0 5 1.49655 1
gene 3 6 10 3.42067 0 6 3.42067 1
gene 3 7 11 3.65408 0 7 3.65408 1
genomeend 32

/* Organism #30 Fitness: 3.44987 Error: 0 */
genomestart 30
trait 1 0.1 0 0 0 0.019138 0 0.0145529 0.000359546 
trait 2 0.0662456 0.391448 0.000352036 0.0177331 0.46261 0.378822 0.0384275 0.128709 
trait 3 0.288544 0 0.0299596 0.110561 0 0 0 0.16146 
node 1 2 1 1
node 2 1 1 1
node 3 1 1 1
node 4 2 1 1
node 5 1 1 1
node 6 2 1 1
node 7 2 1 3
node 8 1 0 2
node 9 1 0 2
node 10 2 0 2
node 11 3 0 2
gene 2 1 8 -0.296487 0 1 -0.296487 1
gene 3 2 8 -1.21399 0 2 -1.21399 1
gene 2 3 8 -1.9623 0 3 -1.9623 1
gene 2 4 8 -6.56069 0 4 -6.56069 1
gene 2 5 8 1.88954 0 5 1.88954 1
gene 2 6 8 2.323 0 6 2.323 1
gene 3 7 8 1.19089 0 7 1.19089 1
gene 1 5 9 1.49655 0 5 1.49655 1
gene 3 6 10 1.70111 0 6 1.70111 1
gene 3 7 11 3.85402 0 7 3.85402 1
genomeend 30

/* Organism #24 Fitness: 3.20607 Error: 0 */
genomestart 24
trait 1 0.1 0 0 0 0.019138 0 0.0145529 0.000359546 
trait 2 0.0662456 0.780482 0 0 0.843695 0.378822 0.0384275 0.191501 
trait 3 0.288544 0 0.0299596 0.110561 0 0 0 0.16146 
node 1 2 1 1
node 2 1 1 1
node 3 1 1 1
node 4 2 1 1
node 5 1 1 1
node 6 2 1 1
node 7 2 1 3
node 8 1 0 2
node 9 1 0 2
node 10 2 0 2
node 11 3 0 2
gene 2 1 8 -0.179449 0 1 -0.179449 1
gene 3 2 8 0.137181 0 2 0.137181 1
gene 2 3 8 -2.29179 0 3 -2.29179 1
gene 2 4 8 -7.2311 0 4 -7.2311 1
gene 2 5 8 1.51748 0 5 1.51748 1
gene 2 6 8 2.70361 0 6 2.70361 1
gene 3 7 8 2.30768 0 7 2.30768 1
gene 1 5 9 1.5595 0 5 1.5595 1
gene 3 6 10 3.42067 0 6 3.42067 1
gene 3 7 11 3.65408 0 7 3.65408 1
genomeend 24

/* Organism #20 Fitness: 3.1739 Error: 0 */
genomestart 20
trait 1 0.1 0 0 0 0.019138 0 0.0145529 0.000359546 
trait 2 0.0662456 0.00241309 0.000704072 0.0354663 0.0815258 0.378822 0.0384275 0.0659175 
trait 3 0.288544 0 0.0299596 0.110561 0 0 0 0.16146 
node 1 2 1 1
node 2 1 1 1
node 3 1 1 1
node 4 2 1 1
node 5 1 1 1
node 6 2 1 1
node 7 2 1 3
node 8 1 0 2
node 9 1 0 2
node 10 2 0 2
node 11 3 0 2
gene 2 1 8 -0.413526 0 1 -0.413526 1
gene 3 2 8 -2.56516 0 2 -2.56516 1
gene 2 3 8 -1.63282 0 3 -1.63282 1
gene 2 4 8 -5.89027 0 4 -5.89027 1
gene 2 5 8 2.2616 0 5 2.2616 1
gene 2 6 8 1.9424 0 6 1.9424 1
gene 3 7 8 0.0741028 0 7 0.0741028 1
gene 1 5 9 1.43361 0 5 1.43361 1
gene 3 6 10 -0.0184523 0 6 -0.0184523 1
gene 3 7 11 4.05395 0 7 4.05395 1
genomeend 20

/* Organism #33 Fitness: 3.09383 Error: 0 */
genomestart 33
trait 1 0 0.674398 0 0 0.019138 0 0 0.000359546 
trait 2 0.0662456 0.585965 0.000176018 0.00886657 0.653153 0.378822 0.0384275 0.160105 
trait 3 0.288544 0 0.0299596 0.110561 0 0 0 0.16146 
node 1 2 1 1
node 2 1 1 1
node 3 1 1 1
node 4 2 1 1
node 5 1 1 1
node 6 2 1 1
node 7 2 1 3
node 8 1 0 2
node 9 1 0 2
node 10 2 0 2
node 11 3 0 2
gene 2 1 8 1.08417 0 1 1.08417 1
gene 3 2 8 0.137181 0 2 0.137181 1
gene 2 3 8 -0.169034 0 3 -0.169034 1
gene 2 4 8 -7.06996 0 4 -7.06996 1
gene 2 5 8 0.440229 0 5 0.440229 1
gene 2 6 8 1.45925 0 6 1.45925 1
gene 3 7 8 3.43518 0 7 3.43518 1
gene 1 5 9 3.37931 0 5 3.37931 1
gene 3 6 10 2.52129 0 6 2.52129 1
gene 3 7 11 2.39268 0 7 2.39268 1
genomeend 33

/* Organism #21 Fitness: 3.05003 Error: 0 */
genomestart 21
trait 1 0.1 0 0 0 0.019138 0 0.0145529 0.000359546 
trait 2 0.0662456 0.780482 0 0 0.843695 0.378822 0.0384275 0.191501 
trait 3 0.288544 0 0.0299596 0.110561 0 0 0 0.16146 
node 1 2 1 1
node 2 1 1 1
node 3 1 1 1
node 4 2 1 1
node 5 1 1 1
node 6 2 1 1
node 7 2 1 3
node 8 1 0 2
node 9 1 0 2
node 10 2 0 2
node 11 3 0 2
gene 2 1 8 -0.48471 0 1 -0.48471 1
gene 3 2 8 -1.16382 0 2 -1.16382 1
gene 2 3 8 -2.64779 0 3 -2.64779 1
gene 2 4 8 -5.27113 0 4 -5.27113 1
gene 2 5 8 1.75438 0 5 1.75438 1
gene 2 6 8 2.81813 0 6 2.81813 1
gene 3 7 8 3.03112 0 7 3.03112 1
gene 1 5 9 -0.485092 0 5 -0.485092 1
gene 3 6 10 1.35182 0 6 1.35182 1
gene 3 7 11 3.65408 0 7 3.65408 1
genomeend 21

/* Organism #26 Fitness: 3.01632 Error: 0 */
genomestart 26
trait 1 0.1 0 0 0 0.019138 0 0.0145529 0.000359546 
trait 2 0.0662456 0.391448 0.000352036 0.0177331 0.46261 0.378822 0.0384275 0.128709 
trait 3 0.288544 0 0.0299596 0.110561 0 0 0 0.16146 
node 1 2 1 1
node 2 1 1 1
node 3 1 1 1
node 4 2 1 1
node 5 1 1 1
node 6 2 1 1
node 7 2 1 3
node 8 1 0 2
node 9 1 0 2
node 10 2 0 2
node 11 3 0 2
gene 2 1 8 -0.296487 0 1 -0.296487 1
gene 3 2 8 -1.21399 0 2 -1.21399 1
gene 2 3 8 -1.9623 0 3 -1.9623 1
gene 2 4 8 -6.56069 0 4 -6.56069 1
gene 2 5 8 1.88954 0 5 1.88954 1
gene 2 6 8 2.323 0 6 2.323 1
gene 3 7 8 1.19089 0 7 1.19089 1
gene 1 5 9 1.49655 0 5 1.49655 1
gene 3 6 10 1.70111 0 6 1.70111 1
gene 3 7 11 3.85402 0 7 3.85402 1
genomeend 26

/* Organism #34 Fitness: 3.01169 Error: 0 */
/* ##------$ WINNER 34 SPECIES #1 $------## */
genomestart 34
trait 1 0.1 0 0 0 0.019138 0 0.0145529 0.000359546 
trait 2 0.0662456 0.585965 0.000176018 0.00886657 0.653153 0.378822 0.0384275 0.160105 
trait 3 0.288544 0 0.0299596 0.110561 0 0 0 0.16146 
node 1 2 1 1
node 2 1 1 1
node 3 1 1 1
node 4 2 1 1
node 5 1 1 1
node 6 2 1 1
node 7 2 1 3
node 8 1 0 2
node 9 1 0 2
node 10 2 0 2
node 11 3 0 2
gene 2 1 8 -0.337535 0 1 -0.337535 1
gene 3 2 8 1.0474 0 2 1.0474 1
gene 2 3 8 -2.79805 0 3 -2.79805 1
gene 2 4 8 -5.87997 0 4 -5.87997 1
gene 2 5 8 0.0161596 0 5 0.0161596 1
gene 2 6 8 2.04689 0 6 2.04689 1
gene 3 7 8 1.26234 0 7 1.26234 1
gene 1 5 9 -0.654241 0 5 -0.654241 1
gene 3 6 10 3.02156 0 6 3.02156 1
gene 3 7 11 2.50209 0 7 2.50209 1
genomeend 34
