
/* Species #1 : (Size 15) (AF 0) (Age 1)  */


/* Organism #1 Fitness: 0 Error: 0 */
genomestart 1
trait 1 0.1 0 0 0 0 0 0 0 
trait 2 0.2 0 0 0 0 0 0 0 
trait 3 0.3 0 0 0 0 0 0 0 
node 1 2 1 1
node 2 3 1 1
node 3 2 1 1
node 4 1 1 1
node 5 3 1 1
node 6 1 1 1
node 7 1 1 3
node 8 2 0 2
node 9 2 0 2
node 10 1 0 2
node 11 1 0 2
gene 3 1 8 -0.733848 0 1 -0.733848 1
gene 1 2 8 -0.484756 0 2 -0.484756 1
gene 1 3 8 -0.208472 0 3 -0.208472 1
gene 3 4 8 -0.398968 0 4 -0.398968 1
gene 2 5 8 0.102054 0 5 0.102054 1
gene 1 6 8 -0.377422 0 6 -0.377422 1
gene 1 7 8 0.840541 0 7 0.840541 1
gene 2 5 9 -0.984588 0 5 -0.984588 1
gene 2 6 10 -0.0868252 0 6 -0.0868252 1
gene 3 7 11 -0.43437 0 7 -0.43437 1
genomeend 1

/* Organism #2 Fitness: 0 Error: 0 */
genomestart 2
trait 1 0.1 0 0 0 0 0 0 0 
trait 2 0.2 0 0 0 0 0 0 0 
trait 3 0.3 0 0 0 0 0 0 0 
node 1 1 1 1
node 2 2 1 1
node 3 3 1 1
node 4 1 1 1
node 5 1 1 1
node 6 3 1 1
node 7 1 1 3
node 8 2 0 2
node 9 1 0 2
node 10 2 0 2
node 11 3 0 2
gene 2 1 8 0.761559 0 1 0.761559 1
gene 3 2 8 -0.847987 0 2 -0.847987 1
gene 2 3 8 -0.0681173 0 3 -0.0681173 1
gene 2 4 8 0.549913 0 4 0.549913 1
gene 1 5 8 0.0644246 0 5 0.0644246 1
gene 2 6 8 0.383923 0 6 0.383923 1
gene 1 7 8 0.198279 0 7 0.198279 1
gene 3 5 9 0.620228 0 5 0.620228 1
gene 2 6 10 0.0546281 0 6 0.0546281 1
gene 1 7 11 -0.903165 0 7 -0.903165 1
genomeend 2

/* Organism #3 Fitness: 0 Error: 0 */
genomestart 3
trait 1 0.1 0 0 0 0 0 0 0 
trait 2 0.2 0 0 0 0 0 0 0 
trait 3 0.3 0 0 0 0 0 0 0 
node 1 3 1 1
node 2 3 1 1
node 3 2 1 1
node 4 2 1 1
node 5 2 1 1
node 6 1 1 1
node 7 3 1 3
node 8 1 0 2
node 9 1 0 2
node 10 2 0 2
node 11 1 0 2
gene 3 1 8 0.886654 0 1 0.886654 1
gene 1 2 8 0.70275 0 2 0.70275 1
gene 1 3 8 0.187353 0 3 0.187353 1
gene 3 4 8 -0.898862 0 4 -0.898862 1
gene 2 5 8 -0.31605 0 5 -0.31605 1
gene 2 6 8 0.163121 0 6 0.163121 1
gene 1 7 8 0.188787 0 7 0.188787 1
gene 1 5 9 0.369701 0 5 0.369701 1
gene 1 6 10 0.461165 0 6 0.461165 1
gene 2 7 11 -0.928556 0 7 -0.928556 1
genomeend 3

/* Organism #4 Fitness: 0 Error: 0 */
genomestart 4
trait 1 0.1 0 0 0 0 0 0 0 
trait 2 0.2 0 0 0 0 0 0 0 
trait 3 0.3 0 0 0 0 0 0 0 
node 1 3 1 1
node 2 1 1 1
node 3 3 1 1
node 4 3 1 1
node 5 2 1 1
node 6 1 1 1
node 7 1 1 3
node 8 2 0 2
node 9 3 0 2
node 10 3 0 2
node 11 1 0 2
gene 1 1 8 0.554796 0 1 0.554796 1
gene 1 2 8 -0.0850551 0 2 -0.0850551 1
gene 2 3 8 -0.35725 0 3 -0.35725 1
gene 1 4 8 0.824976 0 4 0.824976 1
gene 3 5 8 0.164251 0 5 0.164251 1
gene 2 6 8 -0.631489 0 6 -0.631489 1
gene 3 7 8 0.343455 0 7 0.343455 1
gene 1 5 9 0.973968 0 5 0.973968 1
gene 2 6 10 -0.973235 0 6 -0.973235 1
gene 2 7 11 0.933134 0 7 0.933134 1
genomeend 4

/* Organism #5 Fitness: 0 Error: 0 */
genomestart 5
trait 1 0.1 0 0 0 0 0 0 0 
trait 2 0.2 0 0 0 0 0 0 0 
trait 3 0.3 0 0 0 0 0 0 0 
node 1 1 1 1
node 2 2 1 1
node 3 1 1 1
node 4 2 1 1
node 5 3 1 1
node 6 1 1 1
node 7 2 1 3
node 8 2 0 2
node 9 3 0 2
node 10 1 0 2
node 11 1 0 2
gene 2 1 8 0.611591 0 1 0.611591 1
gene 1 2 8 -0.914335 0 2 -0.914335 1
gene 3 3 8 -0.190222 0 3 -0.190222 1
gene 1 4 8 0.404767 0 4 0.404767 1
gene 2 5 8 0.843959 0 5 0.843959 1
gene 2 6 8 0.702902 0 6 0.702902 1
gene 1 7 8 0.578661 0 7 0.578661 1
gene 2 5 9 0.663472 0 5 0.663472 1
gene 3 6 10 -0.303415 0 6 -0.303415 1
gene 2 7 11 -0.410504 0 7 -0.410504 1
genomeend 5

/* Organism #6 Fitness: 0 Error: 0 */
genomestart 6
trait 1 0.1 0 0 0 0 0 0 0 
trait 2 0.2 0 0 0 0 0 0 0 
trait 3 0.3 0 0 0 0 0 0 0 
node 1 1 1 1
node 2 3 1 1
node 3 2 1 1
node 4 1 1 1
node 5 2 1 1
node 6 1 1 1
node 7 2 1 3
node 8 1 0 2
node 9 1 0 2
node 10 2 0 2
node 11 1 0 2
gene 3 1 8 0.615986 0 1 0.615986 1
gene 3 2 8 -0.124454 0 2 -0.124454 1
gene 3 3 8 0.0905789 0 3 0.0905789 1
gene 2 4 8 0.843226 0 4 0.843226 1
gene 3 5 8 0.0926542 0 5 0.0926542 1
gene 2 6 8 -0.232582 0 6 -0.232582 1
gene 2 7 8 0.0661336 0 7 0.0661336 1
gene 1 5 9 0.410108 0 5 0.410108 1
gene 1 6 10 0.166784 0 6 0.166784 1
gene 1 7 11 0.665242 0 7 0.665242 1
genomeend 6

/* Organism #7 Fitness: 0 Error: 0 */
genomestart 7
trait 1 0.1 0 0 0 0 0 0 0 
trait 2 0.2 0 0 0 0 0 0 0 
trait 3 0.3 0 0 0 0 0 0 0 
node 1 2 1 1
node 2 1 1 1
node 3 3 1 1
node 4 1 1 1
node 5 3 1 1
node 6 1 1 1
node 7 2 1 3
node 8 2 0 2
node 9 2 0 2
node 10 1 0 2
node 11 3 0 2
gene 1 1 8 0.99002 0 1 0.99002 1
gene 3 2 8 0.715262 0 2 0.715262 1
gene 1 3 8 -0.238044 0 3 -0.238044 1
gene 1 4 8 0.79696 0 4 0.79696 1
gene 1 5 8 -0.387158 0 5 -0.387158 1
gene 2 6 8 -0.782067 0 6 -0.782067 1
gene 2 7 8 -0.695853 0 7 -0.695853 1
gene 3 5 9 -0.391003 0 5 -0.391003 1
gene 3 6 10 0.981445 0 6 0.981445 1
gene 3 7 11 0.732078 0 7 0.732078 1
genomeend 7

/* Organism #8 Fitness: 0 Error: 0 */
genomestart 8
trait 1 0.1 0 0 0 0 0 0 0 
trait 2 0.2 0 0 0 0 0 0 0 
trait 3 0.3 0 0 0 0 0 0 0 
node 1 2 1 1
node 2 1 1 1
node 3 2 1 1
node 4 2 1 1
node 5 3 1 1
node 6 3 1 1
node 7 1 1 3
node 8 1 0 2
node 9 2 0 2
node 10 3 0 2
node 11 1 0 2
gene 3 1 8 -0.0710776 0 1 -0.0710776 1
gene 2 2 8 0.33195 0 2 0.33195 1
gene 2 3 8 -0.358226 0 3 -0.358226 1
gene 3 4 8 0.992859 0 4 0.992859 1
gene 3 5 8 -0.974242 0 5 -0.974242 1
gene 3 6 8 0.45381 0 6 0.45381 1
gene 2 7 8 -0.0328684 0 7 -0.0328684 1
gene 1 5 9 0.263161 0 5 0.263161 1
gene 1 6 10 -0.849788 0 6 -0.849788 1
gene 3 7 11 -0.331614 0 7 -0.331614 1
genomeend 8

/* Organism #9 Fitness: 0 Error: 0 */
genomestart 9
trait 1 0.1 0 0 0 0 0 0 0 
trait 2 0.2 0 0 0 0 0 0 0 
trait 3 0.3 0 0 0 0 0 0 0 
node 1 1 1 1
node 2 1 1 1
node 3 1 1 1
node 4 1 1 1
node 5 2 1 1
node 6 3 1 1
node 7 1 1 3
node 8 3 0 2
node 9 2 0 2
node 10 2 0 2
node 11 2 0 2
gene 1 1 8 0.182958 0 1 0.182958 1
gene 2 2 8 -0.169591 0 2 -0.169591 1
gene 3 3 8 0.639698 0 3 0.639698 1
gene 1 4 8 -0.157537 0 4 -0.157537 1
gene 3 5 8 -0.168584 0 5 -0.168584 1
gene 3 6 8 0.946989 0 6 0.946989 1
gene 1 7 8 -0.807611 0 7 -0.807611 1
gene 2 5 9 0.287088 0 5 0.287088 1
gene 1 6 10 0.158544 0 6 0.158544 1
gene 2 7 11 -0.646046 0 7 -0.646046 1
genomeend 9

/* Organism #10 Fitness: 0 Error: 0 */
genomestart 10
trait 1 0.1 0 0 0 0 0 0 0 
trait 2 0.2 0 0 0 0 0 0 0 
trait 3 0.3 0 0 0 0 0 0 0 
node 1 1 1 1
node 2 3 1 1
node 3 1 1 1
node 4 3 1 1
node 5 3 1 1
node 6 1 1 1
node 7 1 1 3
node 8 2 0 2
node 9 1 0 2
node 10 2 0 2
node 11 3 0 2
gene 3 1 8 0.816553 0 1 0.816553 1
gene 1 2 8 0.609424 0 2 0.609424 1
gene 1 3 8 0.0210578 0 3 0.0210578 1
gene 3 4 8 0.337474 0 4 0.337474 1
gene 1 5 8 -0.847468 0 5 -0.847468 1
gene 2 6 8 -0.839503 0 6 -0.839503 1
gene 1 7 8 -0.362072 0 7 -0.362072 1
gene 2 5 9 -0.167516 0 5 -0.167516 1
gene 2 6 10 0.120975 0 6 0.120975 1
gene 3 7 11 -0.107974 0 7 -0.107974 1
genomeend 10

/* Organism #11 Fitness: 0 Error: 0 */
genomestart 11
trait 1 0.1 0 0 0 0 0 0 0 
trait 2 0.2 0 0 0 0 0 0 0 
trait 3 0.3 0 0 0 0 0 0 0 
node 1 2 1 1
node 2 3 1 1
node 3 3 1 1
node 4 1 1 1
node 5 3 1 1
node 6 3 1 1
node 7 2 1 3
node 8 1 0 2
node 9 1 0 2
node 10 2 0 2
node 11 2 0 2
gene 2 1 8 -0.675405 0 1 -0.675405 1
gene 3 2 8 0.470962 0 2 0.470962 1
gene 1 3 8 0.731559 0 3 0.731559 1
gene 2 4 8 0.265877 0 4 0.265877 1
gene 1 5 8 -0.342357 0 5 -0.342357 1
gene 2 6 8 -0.535386 0 6 -0.535386 1
gene 1 7 8 0.693716 0 7 0.693716 1
gene 2 5 9 -0.820368 0 5 -0.820368 1
gene 3 6 10 -0.467635 0 6 -0.467635 1
gene 3 7 11 -0.58095 0 7 -0.58095 1
genomeend 11

/* Organism #12 Fitness: 0 Error: 0 */
genomestart 12
trait 1 0.1 0 0 0 0 0 0 0 
trait 2 0.2 0 0 0 0 0 0 0 
trait 3 0.3 0 0 0 0 0 0 0 
node 1 3 1 1
node 2 1 1 1
node 3 1 1 1
node 4 3 1 1
node 5 3 1 1
node 6 1 1 1
node 7 2 1 3
node 8 1 0 2
node 9 1 0 2
node 10 3 0 2
node 11 1 0 2
gene 2 1 8 0.963897 0 1 0.963897 1
gene 1 2 8 -0.88522 0 2 -0.88522 1
gene 2 3 8 0.371502 0 3 0.371502 1
gene 2 4 8 0.18717 0 4 0.18717 1
gene 3 5 8 0.703085 0 5 0.703085 1
gene 1 6 8 0.92465 0 6 0.92465 1
gene 3 7 8 -0.158818 0 7 -0.158818 1
gene 3 5 9 0.744285 0 5 0.744285 1
gene 2 6 10 -0.161046 0 6 -0.161046 1
gene 1 7 11 0.8699 0 7 0.8699 1
genomeend 12

/* Organism #13 Fitness: 0 Error: 0 */
genomestart 13
trait 1 0.1 0 0 0 0 0 0 0 
trait 2 0.2 0 0 0 0 0 0 0 
trait 3 0.3 0 0 0 0 0 0 0 
node 1 2 1 1
node 2 1 1 1
node 3 1 1 1
node 4 1 1 1
node 5 1 1 1
node 6 2 1 1
node 7 3 1 3
node 8 1 0 2
node 9 3 0 2
node 10 1 0 2
node 11 1 0 2
gene 1 1 8 0.148625 0 1 0.148625 1
gene 3 2 8 -0.0422681 0 2 -0.0422681 1
gene 2 3 8 0.81518 0 3 0.81518 1
gene 1 4 8 -0.688345 0 4 -0.688345 1
gene 3 5 8 -0.932829 0 5 -0.932829 1
gene 1 6 8 -0.765007 0 6 -0.765007 1
gene 2 7 8 -0.384747 0 7 -0.384747 1
gene 1 5 9 0.104587 0 5 0.104587 1
gene 2 6 10 -0.615955 0 6 -0.615955 1
gene 2 7 11 0.298532 0 7 0.298532 1
genomeend 13

/* Organism #14 Fitness: 0 Error: 0 */
genomestart 14
trait 1 0.1 0 0 0 0 0 0 0 
trait 2 0.2 0 0 0 0 0 0 0 
trait 3 0.3 0 0 0 0 0 0 0 
node 1 2 1 1
node 2 2 1 1
node 3 3 1 1
node 4 1 1 1
node 5 2 1 1
node 6 3 1 1
node 7 1 1 3
node 8 1 0 2
node 9 1 0 2
node 10 1 0 2
node 11 1 0 2
gene 1 1 8 -0.198401 0 1 -0.198401 1
gene 1 2 8 0.29664 0 2 0.29664 1
gene 1 3 8 -0.225562 0 3 -0.225562 1
gene 1 4 8 0.24192 0 4 0.24192 1
gene 3 5 8 -0.57918 0 5 -0.57918 1
gene 3 6 8 -0.890652 0 6 -0.890652 1
gene 2 7 8 -0.277413 0 7 -0.277413 1
gene 2 5 9 -0.89172 0 5 -0.89172 1
gene 3 6 10 -0.529435 0 6 -0.529435 1
gene 2 7 11 0.441206 0 7 0.441206 1
genomeend 14

/* Organism #15 Fitness: 0 Error: 0 */
genomestart 15
trait 1 0.1 0 0 0 0 0 0 0 
trait 2 0.2 0 0 0 0 0 0 0 
trait 3 0.3 0 0 0 0 0 0 0 
node 1 3 1 1
node 2 3 1 1
node 3 1 1 1
node 4 1 1 1
node 5 3 1 1
node 6 1 1 1
node 7 2 1 3
node 8 2 0 2
node 9 2 0 2
node 10 1 0 2
node 11 2 0 2
gene 1 1 8 -0.768059 0 1 -0.768059 1
gene 2 2 8 -0.518479 0 2 -0.518479 1
gene 1 3 8 -0.288736 0 3 -0.288736 1
gene 1 4 8 -0.323862 0 4 -0.323862 1
gene 1 5 8 -0.249428 0 5 -0.249428 1
gene 1 6 8 -0.888241 0 6 -0.888241 1
gene 2 7 8 0.586016 0 7 0.586016 1
gene 3 5 9 -0.0939665 0 5 -0.0939665 1
gene 1 6 10 0.30372 0 6 0.30372 1
gene 3 7 11 0.522599 0 7 0.522599 1
genomeend 15
