
/* Species #1 : (Size 8) (AF 0) (Age 1)  */


/* Organism #4 Fitness: 199439 Error: 0 */
genomestart 4
trait 1 0.1 0 0 0 0.019138 0 0.0145529 0.000359546 
trait 2 0.13125 0.00965237 0.000704072 0.0354663 0.0815258 0.00213975 0.15371 0.0659175 
trait 3 0.288544 0 0.0299596 0.110561 0 0 0 0.16146 
node 1 2 1 1
node 2 1 1 1
node 3 1 1 1
node 4 1 1 1
node 5 1 1 1
node 6 3 1 1
node 7 2 1 1
node 8 2 1 1
node 9 1 1 1
node 10 2 1 1
node 11 3 1 3
node 12 2 0 2
node 13 1 0 2
node 14 3 0 2
node 15 1 0 2
node 16 1 0 2
gene 1 1 12 -0.335734 0 1 -0.335734 1
gene 3 2 13 0.332682 0 2 0.332682 1
gene 2 3 14 0.230293 0 3 0.230293 1
gene 2 4 15 0.349498 0 4 0.349498 1
gene 1 5 16 -0.484298 0 5 -0.484298 1
gene 2 6 12 0.372814 0 2 0.372814 1
gene 1 7 12 -0.768975 0 3 -0.768975 1
gene 2 8 12 0.83224 0 4 0.83224 1
gene 3 9 12 -0.990844 0 5 -0.990844 1
gene 1 10 12 -0.793603 0 6 -0.793603 1
gene 2 11 12 -0.7051 0 7 -0.7051 1
gene 3 1 13 0.906949 0 5 0.906949 1
gene 3 2 14 -0.2107 0 6 -0.2107 1
gene 2 3 15 -0.440748 0 7 -0.440748 1
genomeend 4

/* Organism #6 Fitness: 194401 Error: 0 */
genomestart 6
trait 1 0.1 0 0 0 0.019138 0 0.0145529 0.000359546 
trait 2 0.13125 0.00965237 0.000704072 0.0354663 0.0815258 0.00213975 0.15371 0.0659175 
trait 3 0.288544 0 0.0299596 0.110561 0 0 0 0.16146 
node 1 3 1 1
node 2 3 1 1
node 3 2 1 1
node 4 3 1 1
node 5 3 1 1
node 6 1 1 1
node 7 2 1 1
node 8 3 1 1
node 9 1 1 1
node 10 3 1 1
node 11 3 1 3
node 12 2 0 2
node 13 2 0 2
node 14 3 0 2
node 15 2 0 2
node 16 2 0 2
gene 2 1 12 0.548631 0 1 0.548631 1
gene 3 2 13 -0.962371 0 2 -0.962371 1
gene 3 3 14 0.82165 0 3 0.82165 1
gene 1 4 15 -0.788903 0 4 -0.788903 1
gene 2 5 16 -0.731956 0 5 -0.731956 1
gene 1 6 12 0.119938 0 2 0.119938 1
gene 1 7 12 0.886532 0 3 0.886532 1
gene 3 8 12 0.752373 0 4 0.752373 1
gene 3 9 12 0.754784 0 5 0.754784 1
gene 3 10 12 -0.0923795 0 6 -0.0923795 1
gene 2 11 12 -0.608386 0 7 -0.608386 1
gene 2 1 13 0.491012 0 5 0.491012 1
gene 2 2 14 -0.241157 0 6 -0.241157 1
gene 3 3 15 -0.391827 0 7 -0.391827 1
genomeend 6

/* Organism #2 Fitness: 193530 Error: 0 */
genomestart 2
trait 1 0.1 0 0 0 0.019138 0 0.0145529 0.000359546 
trait 2 0.13125 0.00965237 0.000704072 0.0354663 0.0815258 0.00213975 0.15371 0.0659175 
trait 3 0.288544 0 0.0299596 0.110561 0 0 0 0.16146 
node 1 1 1 1
node 2 3 1 1
node 3 3 1 1
node 4 1 1 1
node 5 2 1 1
node 6 3 1 1
node 7 2 1 1
node 8 3 1 1
node 9 1 1 1
node 10 2 1 1
node 11 2 1 3
node 12 1 0 2
node 13 1 0 2
node 14 1 0 2
node 15 2 0 2
node 16 2 0 2
gene 1 1 12 -0.741234 0 1 -0.741234 1
gene 1 2 13 -0.833003 0 2 -0.833003 1
gene 1 3 14 0.899503 0 3 0.899503 1
gene 2 4 15 0.825007 0 4 0.825007 1
gene 2 5 16 -0.538011 0 5 -0.538011 1
gene 1 6 12 -0.377972 0 2 -0.377972 1
gene 3 7 12 0.497147 0 3 0.497147 1
gene 1 8 12 -0.391736 0 4 -0.391736 1
gene 3 9 12 -0.908078 0 5 -0.908078 1
gene 2 10 12 0.337443 0 6 0.337443 1
gene 1 11 12 -0.621326 0 7 -0.621326 1
gene 3 1 13 0.36256 0 5 0.36256 1
gene 2 2 14 0.402509 0 6 0.402509 1
gene 3 3 15 0.304147 0 7 0.304147 1
genomeend 2

/* Organism #1 Fitness: 190756 Error: 0 */
genomestart 1
trait 1 0.1 0 0 0 0.019138 0 0.0145529 0.000359546 
trait 2 0.13125 0.00965237 0.000704072 0.0354663 0.0815258 0.00213975 0.15371 0.0659175 
trait 3 0.288544 0 0.0299596 0.110561 0 0 0 0.16146 
node 1 2 1 1
node 2 1 1 1
node 3 2 1 1
node 4 2 1 1
node 5 3 1 1
node 6 2 1 1
node 7 2 1 1
node 8 3 1 1
node 9 1 1 1
node 10 1 1 1
node 11 1 1 3
node 12 3 0 2
node 13 2 0 2
node 14 3 0 2
node 15 3 0 2
node 16 3 0 2
gene 3 1 12 0.226325 0 1 0.226325 1
gene 1 2 13 0.242927 0 2 0.242927 1
gene 2 3 14 0.650227 0 3 0.650227 1
gene 1 4 15 -0.334269 0 4 -0.334269 1
gene 2 5 16 -0.390393 0 5 -0.390393 1
gene 1 6 12 0.340861 0 2 0.340861 1
gene 3 7 12 -0.0752586 0 3 -0.0752586 1
gene 3 8 12 0.607166 0 4 0.607166 1
gene 1 9 12 -0.191504 0 5 -0.191504 1
gene 2 10 12 0.656087 0 6 0.656087 1
gene 1 11 12 -0.376812 0 7 -0.376812 1
gene 1 1 13 -0.292276 0 5 -0.292276 1
gene 1 2 14 -0.838649 0 6 -0.838649 1
gene 3 3 15 0.101169 0 7 0.101169 1
genomeend 1

/* Organism #8 Fitness: 189987 Error: 0 */
genomestart 8
trait 1 0.1 0 0 0 0.019138 0 0.0145529 0.000359546 
trait 2 0.13125 0.00965237 0.000704072 0.0354663 0.0815258 0.00213975 0.15371 0.0659175 
trait 3 0.288544 0 0.0299596 0.110561 0 0 0 0.16146 
node 1 1 1 1
node 2 1 1 1
node 3 1 1 1
node 4 1 1 1
node 5 3 1 1
node 6 3 1 1
node 7 2 1 1
node 8 1 1 1
node 9 3 1 1
node 10 2 1 1
node 11 3 1 3
node 12 1 0 2
node 13 2 0 2
node 14 3 0 2
node 15 2 0 2
node 16 2 0 2
gene 1 1 12 -0.949034 0 1 -0.949034 1
gene 2 2 13 0.182409 0 2 0.182409 1
gene 1 3 14 0.600665 0 3 0.600665 1
gene 1 4 15 -0.0784021 0 4 -0.0784021 1
gene 2 5 16 0.899289 0 5 0.899289 1
gene 3 6 12 0.548143 0 2 0.548143 1
gene 2 7 12 0.886135 0 3 0.886135 1
gene 2 8 12 0.809992 0 4 0.809992 1
gene 2 9 12 0.101749 0 5 0.101749 1
gene 1 10 12 -0.628956 0 6 -0.628956 1
gene 2 11 12 -0.104373 0 7 -0.104373 1
gene 1 1 13 -0.872341 0 5 -0.872341 1
gene 2 2 14 -0.906339 0 6 -0.906339 1
gene 1 3 15 0.975951 0 7 0.975951 1
genomeend 8

/* Organism #5 Fitness: 186707 Error: 0 */
genomestart 5
trait 1 0.1 0 0 0 0.019138 0 0.0145529 0.000359546 
trait 2 0.13125 0.00965237 0.000704072 0.0354663 0.0815258 0.00213975 0.15371 0.0659175 
trait 3 0.288544 0 0.0299596 0.110561 0 0 0 0.16146 
node 1 3 1 1
node 2 2 1 1
node 3 3 1 1
node 4 2 1 1
node 5 2 1 1
node 6 2 1 1
node 7 3 1 1
node 8 1 1 1
node 9 1 1 1
node 10 1 1 1
node 11 2 1 3
node 12 3 0 2
node 13 3 0 2
node 14 3 0 2
node 15 1 0 2
node 16 1 0 2
gene 1 1 12 0.925443 0 1 0.925443 1
gene 3 2 13 0.935026 0 2 0.935026 1
gene 2 3 14 -0.244697 0 3 -0.244697 1
gene 2 4 15 -0.460097 0 4 -0.460097 1
gene 1 5 16 -0.763237 0 5 -0.763237 1
gene 3 6 12 -0.927305 0 2 -0.927305 1
gene 3 7 12 -0.599628 0 3 -0.599628 1
gene 1 8 12 -0.401929 0 4 -0.401929 1
gene 2 9 12 0.938993 0 5 0.938993 1
gene 3 10 12 -0.226081 0 6 -0.226081 1
gene 1 11 12 -0.0537736 0 7 -0.0537736 1
gene 3 1 13 0.708792 0 5 0.708792 1
gene 2 2 14 0.292673 0 6 0.292673 1
gene 3 3 15 -0.820826 0 7 -0.820826 1
genomeend 5

/* Organism #3 Fitness: 152997 Error: 0 */
genomestart 3
trait 1 0.1 0 0 0 0.019138 0 0.0145529 0.000359546 
trait 2 0.13125 0.00965237 0.000704072 0.0354663 0.0815258 0.00213975 0.15371 0.0659175 
trait 3 0.288544 0 0.0299596 0.110561 0 0 0 0.16146 
node 1 2 1 1
node 2 1 1 1
node 3 2 1 1
node 4 2 1 1
node 5 1 1 1
node 6 2 1 1
node 7 2 1 1
node 8 1 1 1
node 9 2 1 1
node 10 1 1 1
node 11 1 1 3
node 12 2 0 2
node 13 2 0 2
node 14 2 0 2
node 15 3 0 2
node 16 2 0 2
gene 1 1 12 0.739525 0 1 0.739525 1
gene 1 2 13 -0.781152 0 2 -0.781152 1
gene 1 3 14 0.0818201 0 3 0.0818201 1
gene 2 4 15 0.602618 0 4 0.602618 1
gene 1 5 16 0.815088 0 5 0.815088 1
gene 2 6 12 -0.789697 0 2 -0.789697 1
gene 2 7 12 0.326334 0 3 0.326334 1
gene 1 8 12 -0.722526 0 4 -0.722526 1
gene 2 9 12 -0.598865 0 5 -0.598865 1
gene 2 10 12 0.61092 0 6 0.61092 1
gene 2 11 12 -0.679678 0 7 -0.679678 1
gene 2 1 13 -0.906735 0 5 -0.906735 1
gene 2 2 14 0.296518 0 6 0.296518 1
gene 3 3 15 0.875912 0 7 0.875912 1
genomeend 3

/* Organism #0 Fitness: 121729 Error: 0 */
/* ##------$ WINNER 0 SPECIES #1 $------## */
genomestart 0
trait 1 0.1 0 0 0 0.019138 0 0.0145529 0.000359546 
trait 2 0.13125 0.00965237 0.000704072 0.0354663 0.0815258 0.00213975 0.15371 0.0659175 
trait 3 0.288544 0 0.0299596 0.110561 0 0 0 0.16146 
node 1 3 1 1
node 2 3 1 1
node 3 2 1 1
node 4 3 1 1
node 5 3 1 1
node 6 1 1 1
node 7 2 1 1
node 8 3 1 1
node 9 1 1 1
node 10 3 1 1
node 11 3 1 3
node 12 2 0 2
node 13 2 0 2
node 14 3 0 2
node 15 2 0 2
node 16 2 0 2
gene 1 1 12 -2.30815 0 1 -2.30815 1
gene 3 2 13 1.47018 0 2 1.47018 1
gene 3 3 14 2.90584 0 3 2.90584 1
gene 1 4 15 -1.41316 0 4 -1.41316 1
gene 1 5 16 -2.76075 0 5 -2.76075 1
gene 2 6 12 2.75852 0 2 2.75852 1
gene 3 7 12 -1.09522 0 3 -1.09522 1
gene 2 8 12 -0.469375 0 4 -0.469375 1
gene 3 9 12 -0.108356 0 5 -0.108356 1
gene 1 10 12 1.4344 0 6 1.4344 1
gene 2 11 12 -0.83018 0 7 -0.83018 1
gene 2 1 13 2.41749 0 5 2.41749 1
gene 3 2 14 -0.2107 0 6 -0.2107 1
gene 3 3 15 0.350383 0 7 0.350383 1
genomeend 0
