
/* Species #1 : (Size 36) (AF 0) (Age 1)  */


/* Organism #112 Fitness: 3.91733 Error: 0 */
genomestart 112
trait 1 0.1 0 0 0 0.019138 0 0.0145529 0.000359546 
trait 2 0.13125 0.00965237 0.000704072 0.0354663 0.0815258 0.00213975 0.15371 0.0659175 
trait 3 0.288544 0 0.0299596 0.110561 0 0 0 0.16146 
node 1 3 1 1
node 2 1 1 1
node 3 2 1 1
node 4 3 1 1
node 5 1 1 1
node 6 1 1 1
node 7 3 1 3
node 8 3 0 2
node 9 2 0 2
node 10 2 0 2
node 11 1 0 2
gene 3 1 8 0.339518 0 1 0.339518 1
gene 1 2 8 -0.244377 0 2 -0.244377 0
gene 2 3 8 -1.96419 0 3 -1.96419 1
gene 2 4 8 1.67745 0 4 1.67745 0
gene 2 5 8 5.0538 0 5 5.0538 1
gene 3 6 8 -1.23043 0 6 -1.23043 1
gene 3 7 8 3.16344 0 7 3.16344 1
gene 3 5 9 2.52652 0 5 2.52652 1
gene 3 6 10 1.24825 0 6 1.24825 1
gene 3 7 11 2.16405 0 7 2.16405 1
genomeend 112

/* Organism #83 Fitness: 3.78574 Error: 0 */
genomestart 83
trait 1 0.1 0 0 0 0.019138 0 0.0145529 0.000359546 
trait 2 0.13125 0.00965237 0.000704072 0.0354663 0.0815258 0.00213975 0.15371 0.0659175 
trait 3 0.288544 0 0.0299596 0.110561 0 0 0 0.16146 
node 1 3 1 1
node 2 1 1 1
node 3 2 1 1
node 4 3 1 1
node 5 1 1 1
node 6 1 1 1
node 7 3 1 3
node 8 3 0 2
node 9 2 0 2
node 10 2 0 2
node 11 1 0 2
node 13 1 0 0
gene 2 1 8 -0.943266 0 1 -0.943266 1
gene 3 2 8 2.73041 0 2 2.73041 1
gene 2 3 8 -4.29252 0 3 -4.29252 1
gene 2 4 8 1.20785 0 4 1.20785 0
gene 2 5 8 2.85997 0 5 2.85997 1
gene 3 6 8 1.38352 0 6 1.38352 1
gene 3 7 8 2.7333 0 7 2.7333 1
gene 3 5 9 1.42801 0 5 1.42801 1
gene 3 6 10 1.82826 0 6 1.82826 1
gene 1 7 11 1.33858 0 7 1.33858 1
gene 2 4 13 1 0 11 0.75 1
gene 2 13 8 0.656346 0 12 0.656346 1
genomeend 83

/* Organism #194 Fitness: 3.85581 Error: 0 */
genomestart 194
trait 1 0.1 0 0 0 0.019138 0 0.0145529 0.000359546 
trait 2 0.13125 0.00965237 0.000704072 0.0354663 0.0815258 0.00213975 0.15371 0.0659175 
trait 3 0.288544 0 0.0299596 0.110561 0 0 0 0.16146 
node 1 3 1 1
node 2 1 1 1
node 3 2 1 1
node 4 3 1 1
node 5 1 1 1
node 6 1 1 1
node 7 3 1 3
node 8 3 0 2
node 9 2 0 2
node 10 2 0 2
node 11 1 0 2
gene 3 1 8 0.414857 0 1 0.414857 1
gene 1 2 8 -0.0243919 0 2 -0.0243919 0
gene 2 3 8 -1.84296 0 3 -1.84296 1
gene 2 4 8 2.05715 0 4 2.05715 0
gene 2 5 8 1.86812 0 5 1.86812 1
gene 3 6 8 2.99879 0 6 2.99879 1
gene 3 7 8 -0.10052 0 7 -0.10052 1
gene 3 5 9 1.97504 0 5 1.97504 1
gene 3 6 10 3.63027 0 6 3.63027 1
gene 3 7 11 2.12607 0 7 2.12607 1
genomeend 194

/* Organism #163 Fitness: 3.76665 Error: 0 */
genomestart 163
trait 1 0.1 0 0 0 0.019138 0 0.0145529 0.000359546 
trait 2 0.13125 0.00965237 0.000704072 0.0354663 0.0815258 0.00213975 0.15371 0.0659175 
trait 3 0.288544 0 0.0299596 0.110561 0 0 0 0.16146 
node 1 3 1 1
node 2 1 1 1
node 3 2 1 1
node 4 3 1 1
node 5 1 1 1
node 6 1 1 1
node 7 3 1 3
node 8 3 0 2
node 9 2 0 2
node 10 2 0 2
node 11 1 0 2
gene 3 1 8 0.463797 0 1 0.463797 1
gene 1 2 8 0.578524 0 2 0.578524 0
gene 2 3 8 -1.99428 0 3 -1.99428 1
gene 2 4 8 2.43126 0 4 2.43126 1
gene 2 5 8 -0.798212 0 5 -0.798212 1
gene 3 6 8 2.54486 0 6 2.54486 1
gene 3 7 8 0.175329 0 7 0.175329 1
gene 3 5 9 1.93204 0 5 1.93204 1
gene 3 6 10 3.70982 0 6 3.70982 1
gene 3 7 11 2.67244 0 7 2.67244 1
genomeend 163

/* Organism #155 Fitness: 3.76105 Error: 0 */
genomestart 155
trait 1 0.1 0 0 0 0.019138 0 0.0145529 0.000359546 
trait 2 0.13125 0.925543 0 0.0354663 0 0 0 0.657031 
trait 3 0.288544 0 0.0299596 0.110561 0 0 0 0.16146 
node 1 3 1 1
node 2 1 1 1
node 3 2 1 1
node 4 3 1 1
node 5 1 1 1
node 6 1 1 1
node 7 3 1 3
node 8 3 0 2
node 9 2 0 2
node 10 2 0 2
node 11 1 0 2
node 13 1 0 0
gene 2 1 8 -0.665624 0 1 -0.665624 1
gene 3 2 8 0.780091 0 2 0.780091 1
gene 2 3 8 -4.22465 0 3 -4.22465 1
gene 2 4 8 1.88681 0 4 1.88681 1
gene 2 5 8 5.76731 0 5 5.76731 1
gene 3 6 8 1.78026 0 6 1.78026 1
gene 3 7 8 0.0581606 0 7 0.0581606 1
gene 3 5 9 2.81259 0 5 2.81259 1
gene 3 6 10 2.1759 0 6 2.1759 1
gene 1 7 11 1.75554 0 7 1.75554 1
gene 2 4 13 4.0266 0 11 4.0266 1
gene 2 13 8 1.77519 0 12 1.77519 1
genomeend 155

/* Organism #104 Fitness: 3.71871 Error: 0 */
genomestart 104
trait 1 0.1 0 0 0 0.019138 0 0.0145529 0.000359546 
trait 2 0.13125 0.00965237 0.000704072 0.0354663 0.0815258 0.00213975 0.15371 0.0659175 
trait 3 0.288544 0 0.0299596 0.110561 0 0 0 0.16146 
node 1 3 1 1
node 2 1 1 1
node 3 2 1 1
node 4 3 1 1
node 5 1 1 1
node 6 1 1 1
node 7 3 1 3
node 8 3 0 2
node 9 2 0 2
node 10 2 0 2
node 11 1 0 2
gene 3 1 8 0.365917 0 1 0.365917 1
gene 1 2 8 -0.627308 0 2 -0.627308 0
gene 2 3 8 -1.69164 0 3 -1.69164 1
gene 2 4 8 1.68305 0 4 1.68305 0
gene 2 5 8 4.53446 0 5 4.53446 1
gene 3 6 8 3.45271 0 6 3.45271 1
gene 3 7 8 -0.37637 0 7 -0.37637 1
gene 2 5 9 2.01804 0 5 2.01804 1
gene 3 6 10 3.55072 0 6 3.55072 1
gene 3 7 11 1.5797 0 7 1.5797 1
genomeend 104

/* Organism #109 Fitness: 3.68406 Error: 0 */
genomestart 109
trait 1 0.1 0 0 0 0.019138 0 0.0145529 0.000359546 
trait 2 0.13125 0.00965237 0.000704072 0.0354663 0.0815258 0.00213975 0.15371 0.0659175 
trait 3 0.288544 0 0.0299596 0.110561 0 0 0 0.16146 
node 1 3 1 1
node 2 1 1 1
node 3 2 1 1
node 4 3 1 1
node 5 1 1 1
node 6 1 1 1
node 7 3 1 3
node 8 3 0 2
node 9 2 0 2
node 10 2 0 2
node 11 1 0 2
node 13 1 0 0
gene 2 1 8 -0.655133 0 1 -0.655133 1
gene 3 2 8 1.52188 0 2 1.52188 1
gene 2 3 8 -3.29472 0 3 -3.29472 1
gene 2 4 8 2.41897 0 4 2.41897 1
gene 2 5 8 3.76194 0 5 3.76194 1
gene 3 6 8 1.53741 0 6 1.53741 1
gene 3 7 8 0.880978 0 7 0.880978 1
gene 3 5 9 1.46287 0 5 1.46287 1
gene 3 6 10 1.27927 0 6 1.27927 1
gene 1 7 11 1.27888 0 7 1.27888 1
gene 2 4 13 2.40294 0 11 2.40294 1
gene 2 13 8 0.656346 0 12 0.656346 1
genomeend 109

/* Organism #124 Fitness: 3.68182 Error: 0 */
genomestart 124
trait 1 0.1 0 0 0 0.019138 0 0.0145529 0.000359546 
trait 2 0.13125 0.00965237 0.000704072 0.0354663 0.0815258 0.00213975 0.15371 0.0659175 
trait 3 0.288544 0 0.0299596 0.110561 0 0 0 0.16146 
node 1 3 1 1
node 2 1 1 1
node 3 2 1 1
node 4 3 1 1
node 5 1 1 1
node 6 1 1 1
node 7 3 1 3
node 8 3 0 2
node 9 2 0 2
node 10 2 0 2
node 11 1 0 2
gene 3 1 8 -0.104373 0 1 -0.104373 1
gene 1 2 8 -2.19802 0 2 -2.19802 1
gene 3 3 8 2.7098 0 3 2.7098 1
gene 1 4 8 0.598148 0 4 0.598148 1
gene 1 5 8 0.456084 0 5 0.456084 1
gene 2 6 8 -0.870525 0 6 -0.870525 1
gene 3 7 8 1.79411 0 7 1.79411 1
gene 2 5 9 0.488632 0 5 0.488632 1
gene 2 6 10 1.17017 0 6 1.17017 1
gene 3 7 11 2.49928 0 7 2.49928 1
gene 2 7 10 0.0663625 0 10 0.0663625 1
genomeend 124

/* Organism #105 Fitness: 3.67779 Error: 0 */
genomestart 105
trait 1 0.1 0 0 0 0.019138 0 0.0145529 0.000359546 
trait 2 0.13125 0.00965237 0.000704072 0.0354663 0.0815258 0.00213975 0.15371 0.0659175 
trait 3 0.288544 0 0.0299596 0.110561 0 0 0 0.16146 
node 1 3 1 1
node 2 1 1 1
node 3 2 1 1
node 4 3 1 1
node 5 1 1 1
node 6 1 1 1
node 7 3 1 3
node 8 3 0 2
node 9 2 0 2
node 10 2 0 2
node 11 1 0 2
node 13 1 0 0
gene 2 1 8 -0.943266 0 1 -0.943266 1
gene 3 2 8 2.73041 0 2 2.73041 1
gene 2 3 8 -4.29252 0 3 -4.29252 1
gene 2 4 8 1.20785 0 4 1.20785 0
gene 2 5 8 2.85997 0 5 2.85997 1
gene 3 6 8 1.38352 0 6 1.38352 1
gene 3 7 8 2.7333 0 7 2.7333 1
gene 3 5 9 1.42801 0 5 1.42801 1
gene 3 6 10 1.82826 0 6 1.82826 1
gene 1 7 11 1.33858 0 7 1.33858 1
gene 2 4 13 1 0 11 0.75 1
gene 2 13 8 0.656346 0 12 0.656346 1
genomeend 105

/* Organism #153 Fitness: 3.64394 Error: 0 */
genomestart 153
trait 1 0.1 0 0 0 0.019138 0 0.0145529 0.000359546 
trait 2 0.13125 0.00965237 0.000704072 0.0354663 0.0815258 0.00213975 0.15371 0.0659175 
trait 3 0.810716 0.0645161 0.0299596 0.89333 0.997864 0 0.938932 0.163688 
node 1 3 1 1
node 2 1 1 1
node 3 2 1 1
node 4 3 1 1
node 5 1 1 1
node 6 1 1 1
node 7 3 1 3
node 8 3 0 2
node 9 2 0 2
node 10 2 0 2
node 11 2 0 2
node 13 1 0 0
gene 2 1 8 -0.943266 0 1 -0.943266 1
gene 3 2 8 2.73041 0 2 2.73041 1
gene 2 3 8 -3.29472 0 3 -3.29472 1
gene 2 4 8 1.20785 0 4 1.20785 0
gene 2 5 8 2.85997 0 5 2.85997 1
gene 3 6 8 1.38352 0 6 1.38352 1
gene 3 7 8 2.7333 0 7 2.7333 1
gene 3 5 9 1.46287 0 5 1.46287 1
gene 3 6 10 1.82826 0 6 1.82826 1
gene 1 7 11 1.33858 0 7 1.33858 1
gene 2 4 13 2.40294 0 11 2.40294 1
gene 2 13 8 0.656346 0 12 0.656346 1
genomeend 153

/* Organism #108 Fitness: 3.58757 Error: 0 */
genomestart 108
trait 1 0.1 0 0 0 0.019138 0 0.0145529 0.000359546 
trait 2 0.13125 0.00965237 0.000704072 0.0354663 0.0815258 0.00213975 0.15371 0.0659175 
trait 3 0.288544 0 0.0299596 0.110561 0 0 0 0.16146 
node 1 3 1 1
node 2 1 1 1
node 3 2 1 1
node 4 3 1 1
node 5 1 1 1
node 6 1 1 1
node 7 3 1 3
node 8 3 0 2
node 9 2 0 2
node 10 2 0 2
node 11 1 0 2
node 13 1 0 0
gene 2 1 8 0.156888 0 1 0.156888 1
gene 3 2 8 1.98721 0 2 1.98721 1
gene 2 3 8 -3.89143 0 3 -3.89143 1
gene 2 4 8 1.35464 0 4 1.35464 1
gene 2 5 8 2.9088 0 5 2.9088 1
gene 3 6 8 0.4186 0 6 0.4186 1
gene 3 7 8 1.3431 0 7 1.3431 1
gene 3 5 9 2.41437 0 5 2.41437 1
gene 3 6 10 3.43662 0 6 3.43662 1
gene 1 7 11 2.99425 0 7 2.99425 1
gene 2 4 13 2.66631 0 11 2.66631 1
gene 2 13 8 -0.480209 0 12 -0.480209 1
genomeend 108

/* Organism #34 Fitness: 3.60922 Error: 0 */
genomestart 34
trait 1 0.1 0 0 0 0.019138 0 0.0145529 0.000359546 
trait 2 0.13125 0.00965237 0.000704072 0.0354663 0.0815258 0.00213975 0.15371 0.0659175 
trait 3 0.288544 0 0.0299596 0.110561 0 0 0 0.16146 
node 1 3 1 1
node 2 1 1 1
node 3 2 1 1
node 4 3 1 1
node 5 1 1 1
node 6 1 1 1
node 7 3 1 3
node 8 3 0 2
node 9 2 0 2
node 10 2 0 2
node 11 1 0 2
gene 2 1 8 0.943464 0 1 0.943464 1
gene 1 2 8 -0.655461 0 2 -0.655461 0
gene 2 3 8 -2.29691 0 3 -2.29691 1
gene 2 4 8 0.957244 0 4 0.957244 1
gene 2 5 8 1.15734 0 5 1.15734 1
gene 3 6 8 1.61435 0 6 1.61435 1
gene 3 7 8 0.897076 0 7 0.897076 1
gene 3 5 9 0.824885 0 5 0.824885 1
gene 3 6 10 1.96658 0 6 1.96658 1
gene 3 7 11 0.83459 0 7 0.83459 1
genomeend 34

/* Organism #53 Fitness: 3.61294 Error: 0 */
genomestart 53
trait 1 0.1 0 0 0 0.019138 0 0.0145529 0.000359546 
trait 2 0.13125 0.00965237 0.000704072 0.0354663 0.0815258 0.00213975 0.15371 0.0659175 
trait 3 0.288544 0 0.0299596 0.110561 0 0 0 0.16146 
node 1 3 1 1
node 2 1 1 1
node 3 2 1 1
node 4 3 1 1
node 5 1 1 1
node 6 1 1 1
node 7 3 1 3
node 8 3 0 2
node 9 2 0 2
node 10 2 0 2
node 11 1 0 2
node 13 1 0 0
gene 2 1 8 -0.943266 0 1 -0.943266 1
gene 3 2 8 2.98137 0 2 2.98137 1
gene 2 3 8 -4.29252 0 3 -4.29252 1
gene 2 4 8 1.39169 0 4 1.39169 0
gene 2 5 8 2.85997 0 5 2.85997 1
gene 3 6 8 1.30657 0 6 1.30657 1
gene 3 7 8 2.7333 0 7 2.7333 1
gene 3 5 9 1.39314 0 5 1.39314 1
gene 3 6 10 1.82826 0 6 1.82826 1
gene 1 7 11 1.39828 0 7 1.39828 1
gene 2 4 13 1 0 11 1 1
gene 2 13 8 0.656346 0 12 0.656346 1
genomeend 53

/* Organism #32 Fitness: 3.5265 Error: 0 */
genomestart 32
trait 1 0.1 0 0 0 0.019138 0 0.0145529 0.000359546 
trait 2 0.13125 0.00965237 0.000704072 0.0354663 0.0815258 0.00213975 0.15371 0.0659175 
trait 3 0.288544 0 0.0299596 0.110561 0 0 0 0.16146 
node 1 3 1 1
node 2 1 1 1
node 3 2 1 1
node 4 3 1 1
node 5 1 1 1
node 6 1 1 1
node 7 3 1 3
node 8 3 0 2
node 9 2 0 2
node 10 2 0 2
node 11 1 0 2
gene 2 1 8 0.943464 0 1 0.943464 1
gene 3 2 8 -3.12592 0 2 -3.12592 1
gene 2 3 8 -2.29691 0 3 -2.29691 1
gene 2 4 8 1.72234 0 4 1.72234 1
gene 2 5 8 1.15734 0 5 1.15734 1
gene 1 6 8 -0.147557 0 6 -0.147557 1
gene 3 7 8 0.897076 0 7 0.897076 1
gene 3 5 9 0.824885 0 5 0.824885 1
gene 3 6 10 3.20209 0 6 3.20209 1
gene 3 7 11 0.537858 0 7 0.537858 1
genomeend 32

/* Organism #161 Fitness: 3.49852 Error: 0 */
genomestart 161
trait 1 0.1 0 0 0 0.019138 0 0.0145529 0.000359546 
trait 2 0.13125 0.00965237 0.000704072 0.0354663 0.0815258 0.00213975 0.15371 0.0659175 
trait 3 0.288544 0 0.0299596 0.110561 0 0 0 0.16146 
node 1 3 1 1
node 2 1 1 1
node 3 2 1 1
node 4 2 1 1
node 5 1 1 1
node 6 2 1 1
node 7 2 1 3
node 8 3 0 2
node 9 1 0 2
node 10 2 0 2
node 11 3 0 2
gene 3 1 8 0.339518 0 1 0.339518 1
gene 1 2 8 -0.244377 0 2 -0.244377 0
gene 3 3 8 -0.249641 0 3 -0.249641 1
gene 2 4 8 0.768303 0 4 0.768303 1
gene 2 5 8 5.0538 0 5 5.0538 1
gene 3 6 8 -1.23043 0 6 -1.23043 1
gene 3 7 8 0.54738 0 7 0.54738 1
gene 3 5 9 2.52652 0 5 2.52652 1
gene 3 6 10 1.96658 0 6 1.96658 1
gene 3 7 11 2.16405 0 7 2.16405 1
genomeend 161

/* Organism #123 Fitness: 3.33178 Error: 0 */
genomestart 123
trait 1 0.1 0 0 0 0.019138 0 0.0145529 0.000359546 
trait 2 0.13125 0.00965237 0.000704072 0.0354663 0.0815258 0.00213975 0.15371 0.0659175 
trait 3 0.288544 0 0.0299596 0.110561 0 0 0 0.16146 
node 1 3 1 1
node 2 1 1 1
node 3 2 1 1
node 4 2 1 1
node 5 1 1 1
node 6 2 1 1
node 7 2 1 3
node 8 3 0 2
node 9 1 0 2
node 10 2 0 2
node 11 3 0 2
gene 3 1 8 0.270928 0 1 0.270928 1
gene 3 2 8 -0.756096 0 2 -0.756096 0
gene 3 3 8 -0.249641 0 3 -0.249641 1
gene 2 4 8 0.768303 0 4 0.768303 1
gene 2 5 8 0.123386 0 5 0.123386 1
gene 3 6 8 1.61435 0 6 1.61435 1
gene 3 7 8 0.54738 0 7 0.54738 1
gene 1 5 9 0.361614 0 5 0.361614 1
gene 3 6 10 1.96658 0 6 1.96658 1
gene 3 7 11 0.83459 0 7 0.83459 1
genomeend 123

/* Organism #50 Fitness: 3.31452 Error: 0 */
genomestart 50
trait 1 0.1 0 0 0 0.019138 0 0.0145529 0.000359546 
trait 2 0.13125 0.00965237 0.000704072 0.0354663 0.0815258 0.00213975 0.15371 0.0659175 
trait 3 0.288544 0 0.0299596 0.110561 0 0 0 0.16146 
node 1 3 1 1
node 2 1 1 1
node 3 2 1 1
node 4 2 1 1
node 5 1 1 1
node 6 2 1 1
node 7 2 1 3
node 8 3 0 2
node 9 1 0 2
node 10 2 0 2
node 11 3 0 2
gene 3 1 8 0.270928 0 1 0.270928 1
gene 3 2 8 -0.756096 0 2 -0.756096 0
gene 3 3 8 -0.249641 0 3 -0.249641 1
gene 2 4 8 0.768303 0 4 0.768303 1
gene 2 5 8 0.123386 0 5 0.123386 1
gene 3 6 8 1.61435 0 6 1.61435 1
gene 3 7 8 0.54738 0 7 0.54738 1
gene 1 5 9 0.361614 0 5 0.361614 1
gene 3 6 10 1.96658 0 6 1.96658 1
gene 3 7 11 0.83459 0 7 0.83459 1
genomeend 50

/* Organism #63 Fitness: 3.29858 Error: 0 */
genomestart 63
trait 1 0.1 0 0 0 0.019138 0 0.0145529 0.000359546 
trait 2 0.13125 0.00965237 0.000704072 0.0354663 0.0815258 0.00213975 0.15371 0.0659175 
trait 3 0.288544 0 0.0299596 0.110561 0 0 0 0.16146 
node 1 3 1 1
node 2 1 1 1
node 3 2 1 1
node 4 3 1 1
node 5 1 1 1
node 6 1 1 1
node 7 3 1 3
node 8 3 0 2
node 9 2 0 2
node 10 2 0 2
node 11 1 0 2
gene 2 1 8 -1.6586 0 1 -1.6586 1
gene 1 2 8 -0.627308 0 2 -0.627308 0
gene 2 3 8 0.180578 0 3 0.180578 1
gene 2 4 8 1.67745 0 4 1.67745 0
gene 2 5 8 4.53446 0 5 4.53446 1
gene 3 6 8 -0.702078 0 6 -0.702078 1
gene 3 7 8 1.32249 0 7 1.32249 1
gene 3 5 9 0.199408 0 5 0.199408 1
gene 3 6 10 1.582 0 6 1.582 1
gene 3 7 11 1.5797 0 7 1.5797 1
genomeend 63

/* Organism #118 Fitness: 3.25556 Error: 0 */
genomestart 118
trait 1 0.1 0 0 0 0.019138 0 0.0145529 0.000359546 
trait 2 0.13125 0.00965237 0.000704072 0.0354663 0.0815258 0.00213975 0.15371 0.0659175 
trait 3 0.18591 0 0.0299596 0.110561 0.129398 0 0 0 
node 1 2 1 1
node 2 1 1 1
node 3 3 1 1
node 4 2 1 1
node 5 3 1 1
node 6 1 1 1
node 7 2 1 3
node 8 1 0 2
node 9 2 0 2
node 10 2 0 2
node 11 3 0 2
gene 1 1 8 3.1923 0 1 3.1923 1
gene 3 2 8 -1.33586 0 2 -1.33586 0
gene 3 3 8 0.206305 0 3 0.206305 1
gene 2 4 8 0.0305948 0 4 0.0305948 0
gene 2 5 8 3.1818 0 5 3.1818 1
gene 3 6 8 -2.2776 0 6 -2.2776 1
gene 3 7 8 2.18189 0 7 2.18189 1
gene 3 5 9 2.47502 0 5 2.47502 1
gene 3 6 10 0.484527 0 6 0.484527 1
gene 3 7 11 0.391064 0 7 0.391064 1
genomeend 118

/* Organism #160 Fitness: 3.14923 Error: 0 */
genomestart 160
trait 1 0.1 0 0 0 0.019138 0 0.0145529 0.000359546 
trait 2 0.13125 0.467598 0.000352036 0.0354663 0.0407629 0.00106988 0.076855 0.361474 
trait 3 0.54963 0.0322581 0.0299596 0.501946 0.498932 0 0.469466 0.162574 
node 1 3 1 1
node 2 1 1 1
node 3 2 1 1
node 4 3 1 1
node 5 1 1 1
node 6 1 1 1
node 7 3 1 3
node 8 3 0 2
node 9 2 0 2
node 10 2 0 2
node 11 1 0 2
node 13 1 0 0
gene 2 1 8 -0.804445 0 1 -0.804445 1
gene 3 2 8 1.75525 0 2 1.75525 1
gene 2 3 8 -3.75969 0 3 -3.75969 1
gene 2 4 8 1.54733 0 4 1.54733 0
gene 2 5 8 4.31364 0 5 4.31364 1
gene 3 6 8 1.58189 0 6 1.58189 1
gene 3 7 8 1.39573 0 7 1.39573 1
gene 3 5 9 2.13773 0 5 2.13773 1
gene 3 6 10 2.00208 0 6 2.00208 1
gene 1 7 11 1.54706 0 7 1.54706 1
gene 2 4 13 3.21477 0 11 3.21477 1
gene 2 13 8 1.21577 0 12 1.21577 1
genomeend 160

/* Organism #107 Fitness: 3.14699 Error: 0 */
genomestart 107
trait 1 0.1 0 0 0 0.019138 0 0.0145529 0.000359546 
trait 2 0.13125 0.00965237 0.000704072 0.0354663 0.0815258 0.00213975 0.15371 0.0659175 
trait 3 0.288544 0 0.0299596 0.110561 0 0 0 0.16146 
node 1 3 1 1
node 2 1 1 1
node 3 2 1 1
node 4 3 1 1
node 5 1 1 1
node 6 1 1 1
node 7 3 1 3
node 8 3 0 2
node 9 2 0 2
node 10 2 0 2
node 11 1 0 2
gene 3 1 8 0.365917 0 1 0.365917 1
gene 1 2 8 2.78321 0 2 2.78321 0
gene 2 3 8 -2.28454 0 3 -2.28454 1
gene 2 4 8 1.04598 0 4 1.04598 1
gene 2 5 8 3.37521 0 5 3.37521 1
gene 3 6 8 4.08521 0 6 4.08521 1
gene 3 7 8 1.64731 0 7 1.64731 1
gene 2 5 9 1.79426 0 5 1.79426 1
gene 3 6 10 3.52486 0 6 3.52486 1
gene 3 7 11 2.3661 0 7 2.3661 1
genomeend 107

/* Organism #116 Fitness: 3.14781 Error: 0 */
genomestart 116
trait 1 0.1 0 0 0 0.019138 0 0.0145529 0.000359546 
trait 2 0.13125 0.00965237 0.000704072 0.0354663 0.0815258 0.00213975 0.15371 0.0659175 
trait 3 0.288544 0 0.0299596 0.110561 0 0 0 0.16146 
node 1 3 1 1
node 2 1 1 1
node 3 2 1 1
node 4 3 1 1
node 5 1 1 1
node 6 1 1 1
node 7 3 1 3
node 8 3 0 2
node 9 2 0 2
node 10 2 0 2
node 11 1 0 2
node 13 1 0 0
gene 2 1 8 -0.943266 0 1 -0.943266 1
gene 3 2 8 2.73041 0 2 2.73041 1
gene 2 3 8 -3.29472 0 3 -3.29472 1
gene 2 4 8 1.20785 0 4 1.20785 0
gene 2 5 8 2.85997 0 5 2.85997 1
gene 3 6 8 1.38352 0 6 1.38352 1
gene 3 7 8 2.7333 0 7 2.7333 1
gene 3 5 9 1.46287 0 5 1.46287 1
gene 3 6 10 1.82826 0 6 1.82826 1
gene 1 7 11 1.33858 0 7 1.33858 1
gene 2 4 13 2.40294 0 11 2.40294 1
gene 2 13 8 0.656346 0 12 0.656346 1
genomeend 116

/* Organism #57 Fitness: 3.12888 Error: 0 */
genomestart 57
trait 1 0.1 0 0 0 0.019138 0 0.0145529 0.000359546 
trait 2 0.13125 0.00965237 0.000704072 0.0354663 0.0815258 0.00213975 0.15371 0.0659175 
trait 3 0.288544 0 0.0299596 0.110561 0 0 0 0.16146 
node 1 3 1 1
node 2 1 1 1
node 3 2 1 1
node 4 3 1 1
node 5 1 1 1
node 6 1 1 1
node 7 3 1 3
node 8 3 0 2
node 9 2 0 2
node 10 2 0 2
node 11 1 0 2
node 13 1 0 0
gene 2 1 8 -0.943266 0 1 -0.943266 1
gene 3 2 8 2.47945 0 2 2.47945 1
gene 2 3 8 -4.29252 0 3 -4.29252 1
gene 2 4 8 1.02402 0 4 1.02402 0
gene 2 5 8 2.85997 0 5 2.85997 1
gene 3 6 8 1.46046 0 6 1.46046 1
gene 3 7 8 2.7333 0 7 2.7333 1
gene 3 5 9 1.39314 0 5 1.39314 1
gene 3 6 10 1.82826 0 6 1.82826 1
gene 1 7 11 1.39828 0 7 1.39828 1
gene 2 4 13 1 0 11 0.5 1
gene 2 13 8 0.656346 0 12 0.656346 1
genomeend 57

/* Organism #184 Fitness: 3.12662 Error: 0 */
genomestart 184
trait 1 0.1 0 0 0 0.019138 0 0.0145529 0.000359546 
trait 2 0.13125 0.00965237 0.000704072 0.0354663 0.0815258 0.00213975 0.15371 0.0659175 
trait 3 0.288544 0 0.0299596 0.110561 0 0 0 0.16146 
node 1 3 1 1
node 2 1 1 1
node 3 2 1 1
node 4 3 1 1
node 5 1 1 1
node 6 1 1 1
node 7 3 1 3
node 8 3 0 2
node 9 2 0 2
node 10 2 0 2
node 11 1 0 2
gene 3 1 8 0.401658 0 1 0.401658 1
gene 1 2 8 0.167074 0 2 0.167074 1
gene 2 3 8 -1.97923 0 3 -1.97923 1
gene 2 4 8 2.05435 0 4 2.05435 0
gene 2 5 8 2.1278 0 5 2.1278 1
gene 3 6 8 0.657216 0 6 0.657216 1
gene 3 7 8 1.66939 0 7 1.66939 1
gene 3 5 9 2.22928 0 5 2.22928 1
gene 3 6 10 2.47904 0 6 2.47904 1
gene 3 7 11 2.41825 0 7 2.41825 1
genomeend 184

/* Organism #198 Fitness: 3.12187 Error: 0 */
genomestart 198
trait 1 0.1 0 0 0 0.019138 0 0.0145529 0.000359546 
trait 2 0.13125 0.00965237 0.000704072 0.0354663 0.0815258 0.00213975 0.15371 0.0659175 
trait 3 0.288544 0 0.0299596 0.110561 0 0 0 0.16146 
node 1 3 1 1
node 2 1 1 1
node 3 2 1 1
node 4 3 1 1
node 5 1 1 1
node 6 1 1 1
node 7 3 1 3
node 8 3 0 2
node 9 2 0 2
node 10 2 0 2
node 11 1 0 2
node 13 1 0 0
gene 2 1 8 0.362812 0 1 0.362812 1
gene 3 2 8 -0.68041 0 2 -0.68041 1
gene 2 3 8 -5.67684 0 3 -5.67684 1
gene 2 4 8 0.478683 0 4 0.478683 1
gene 2 5 8 3.02507 0 5 3.02507 1
gene 3 6 8 1.94277 0 6 1.94277 1
gene 3 7 8 2.49579 0 7 2.49579 1
gene 3 5 9 2.52637 0 5 2.52637 1
gene 3 6 10 2.99944 0 6 2.99944 1
gene 1 7 11 2.3558 0 7 2.3558 1
gene 2 4 13 -1.96295 0 11 -1.96295 1
gene 2 13 8 0.656346 0 12 0.656346 1
genomeend 198

/* Organism #199 Fitness: 3.10893 Error: 0 */
genomestart 199
trait 1 0.1 0 0 0 0.019138 0 0.0145529 0.000359546 
trait 2 0.13125 0.467598 0.000352036 0.0354663 0.0407629 0.00106988 0.076855 0.361474 
trait 3 0.288544 0 0.0299596 0.110561 0 0 0 0.16146 
node 1 3 1 1
node 2 1 1 1
node 3 2 1 1
node 4 3 1 1
node 5 1 1 1
node 6 1 1 1
node 7 3 1 3
node 8 3 0 2
node 9 2 0 2
node 10 2 0 2
node 11 1 0 2
node 13 1 0 0
gene 2 1 8 0.156888 0 1 0.156888 1
gene 3 2 8 1.98721 0 2 1.98721 1
gene 2 3 8 -3.89143 0 3 -3.89143 1
gene 2 4 8 1.35464 0 4 1.35464 1
gene 2 5 8 2.9088 0 5 2.9088 1
gene 3 6 8 0.4186 0 6 0.4186 1
gene 3 7 8 1.3431 0 7 1.3431 1
gene 3 5 9 2.81259 0 5 2.81259 1
gene 3 6 10 3.43662 0 6 3.43662 1
gene 1 7 11 2.99425 0 7 2.99425 1
gene 2 4 13 2.66631 0 11 2.66631 1
gene 2 13 8 1.77519 0 12 1.77519 1
genomeend 199

/* Organism #147 Fitness: 3.10039 Error: 0 */
genomestart 147
trait 1 0.1 0 0 0 0.019138 0 0.0145529 0.000359546 
trait 2 0.13125 0.00965237 0.000704072 0.0354663 0.0815258 0.00213975 0.15371 0.0659175 
trait 3 0.288544 0 0.0299596 0.110561 0 0 0 0.16146 
node 1 3 1 1
node 2 1 1 1
node 3 2 1 1
node 4 3 1 1
node 5 1 1 1
node 6 1 1 1
node 7 3 1 3
node 8 3 0 2
node 9 2 0 2
node 10 2 0 2
node 11 1 0 2
node 13 1 0 0
gene 2 1 8 -0.393189 0 1 -0.393189 1
gene 3 2 8 2.35881 0 2 2.35881 1
gene 2 3 8 -4.09198 0 3 -4.09198 1
gene 2 4 8 1.28125 0 4 1.28125 0
gene 2 5 8 2.88438 0 5 2.88438 1
gene 3 6 8 0.901059 0 6 0.901059 1
gene 3 7 8 2.0382 0 7 2.0382 1
gene 3 5 9 1.92119 0 5 1.92119 1
gene 3 6 10 2.63244 0 6 2.63244 1
gene 1 7 11 2.16641 0 7 2.16641 1
gene 2 4 13 1.83316 0 11 1.70816 1
gene 2 13 8 0.0880688 0 12 0.0880688 1
genomeend 147

/* Organism #81 Fitness: 3.10451 Error: 0 */
genomestart 81
trait 1 0.1 0 0 0 0.019138 0 0.0145529 0.000359546 
trait 2 0.13125 0.00965237 0.000704072 0.0354663 0.0815258 0.00213975 0.15371 0.0659175 
trait 3 0.288544 0 0.0299596 0.110561 0 0 0 0.16146 
node 1 3 1 1
node 2 1 1 1
node 3 2 1 1
node 4 3 1 1
node 5 1 1 1
node 6 1 1 1
node 7 3 1 3
node 8 3 0 2
node 9 2 0 2
node 10 2 0 2
node 11 1 0 2
node 13 1 0 0
gene 2 1 8 -0.943266 0 1 -0.943266 1
gene 3 2 8 2.47945 0 2 2.47945 1
gene 2 3 8 -4.29252 0 3 -4.29252 1
gene 2 4 8 1.02402 0 4 1.02402 0
gene 2 5 8 2.85997 0 5 2.85997 1
gene 3 6 8 1.46046 0 6 1.46046 1
gene 3 7 8 2.7333 0 7 2.7333 1
gene 3 5 9 1.46287 0 5 1.46287 1
gene 3 6 10 1.82826 0 6 1.82826 1
gene 1 7 11 1.27888 0 7 1.27888 1
gene 2 4 13 1 0 11 0.5 1
gene 2 13 8 0.656346 0 12 0.656346 1
genomeend 81

/* Organism #178 Fitness: 3.09809 Error: 0 */
genomestart 178
trait 1 0.1 0 0 0 0.019138 0 0.0145529 0.000359546 
trait 2 0.13125 0.00965237 0.000704072 0.0354663 0.0815258 0.00213975 0.15371 0.0659175 
trait 3 0.288544 0 0.0299596 0.110561 0 0 0 0.16146 
node 1 3 1 1
node 2 1 1 1
node 3 2 1 1
node 4 2 1 1
node 5 1 1 1
node 6 2 1 1
node 7 2 1 3
node 8 3 0 2
node 9 1 0 2
node 10 2 0 2
node 11 3 0 2
gene 3 1 8 0.365917 0 1 0.365917 1
gene 1 2 8 -0.627308 0 2 -0.627308 0
gene 2 3 8 -1.69164 0 3 -1.69164 1
gene 2 4 8 1.68305 0 4 1.68305 0
gene 2 5 8 4.53446 0 5 4.53446 1
gene 3 6 8 3.45271 0 6 3.45271 1
gene 3 7 8 -0.37637 0 7 -0.37637 1
gene 2 5 9 2.01804 0 5 2.01804 1
gene 3 6 10 3.55072 0 6 3.55072 1
gene 3 7 11 2.16405 0 7 2.16405 1
gene 3 1 11 -0.674551 0 19 -0.674551 1
genomeend 178

/* Organism #64 Fitness: 3.09848 Error: 0 */
genomestart 64
trait 1 0.1 0 0 0 0.019138 0 0.0145529 0.000359546 
trait 2 0.13125 0.00965237 0.000704072 0.0354663 0.0815258 0.00213975 0.15371 0.0659175 
trait 3 0.288544 0 0.0299596 0.110561 0 0 0 0.16146 
node 1 3 1 1
node 2 1 1 1
node 3 2 1 1
node 4 3 1 1
node 5 1 1 1
node 6 1 1 1
node 7 3 1 3
node 8 3 0 2
node 9 2 0 2
node 10 2 0 2
node 11 1 0 2
node 13 1 0 0
gene 2 1 8 -0.655133 0 1 -0.655133 1
gene 3 2 8 1.52188 0 2 1.52188 1
gene 2 3 8 -3.29472 0 3 -3.29472 1
gene 2 4 8 2.41897 0 4 2.41897 1
gene 2 5 8 3.76194 0 5 3.76194 1
gene 3 6 8 1.53741 0 6 1.53741 1
gene 3 7 8 0.880978 0 7 0.880978 1
gene 3 5 9 1.46287 0 5 1.46287 1
gene 3 6 10 1.27927 0 6 1.27927 1
gene 1 7 11 1.27888 0 7 1.27888 1
gene 2 4 13 2.40294 0 11 2.40294 1
gene 2 13 8 0.656346 0 12 0.656346 1
genomeend 64

/* Organism #35 Fitness: 3.0929 Error: 0 */
genomestart 35
trait 1 0.1 0 0 0 0.019138 0 0.0145529 0.000359546 
trait 2 0.13125 0.00965237 0.000704072 0.0354663 0.0815258 0.00213975 0.15371 0.0659175 
trait 3 0.288544 0 0.0299596 0.110561 0 0 0 0.16146 
node 1 3 1 1
node 2 1 1 1
node 3 2 1 1
node 4 3 1 1
node 5 1 1 1
node 6 1 1 1
node 7 3 1 3
node 8 3 0 2
node 9 2 0 2
node 10 2 0 2
node 11 1 0 2
gene 3 1 8 0.365917 0 1 0.365917 1
gene 1 2 8 2.48718 0 2 2.48718 0
gene 2 3 8 -1.69164 0 3 -1.69164 1
gene 2 4 8 1.68305 0 4 1.68305 1
gene 2 5 8 1.80404 0 5 1.80404 1
gene 3 6 8 3.45271 0 6 3.45271 1
gene 3 7 8 -0.37637 0 7 -0.37637 1
gene 2 5 9 2.01804 0 5 2.01804 1
gene 3 6 10 3.55072 0 6 3.55072 1
gene 3 7 11 0.851924 0 7 0.851924 1
genomeend 35

/* Organism #20 Fitness: 3.0782 Error: 0 */
genomestart 20
trait 1 0.1 0 0 0 0.019138 0 0.0145529 0.000359546 
trait 2 0.13125 0.00965237 0.000704072 0.0354663 0.0815258 0.00213975 0.15371 0.0659175 
trait 3 0.288544 0 0.0299596 0.110561 0 0 0 0.16146 
node 1 2 1 1
node 2 1 1 1
node 3 3 1 1
node 4 2 1 1
node 5 3 1 1
node 6 1 1 1
node 7 2 1 3
node 8 1 0 2
node 9 2 0 2
node 10 2 0 2
node 11 3 0 2
gene 2 1 8 0.992523 0 1 0.992523 1
gene 3 2 8 -0.701529 0 2 -0.701529 1
gene 3 3 8 -0.647298 0 3 -0.647298 1
gene 2 4 8 0.642598 0 4 0.642598 1
gene 2 5 8 0.649434 0 5 0.649434 1
gene 1 6 8 -0.0813318 0 6 -0.0813318 1
gene 3 7 8 0.304941 0 7 0.304941 1
gene 3 5 9 0.824885 0 5 0.824885 1
gene 3 6 10 0.838588 0 6 0.838588 1
gene 3 7 11 0.391064 0 7 0.391064 1
genomeend 20

/* Organism #177 Fitness: 3.0733 Error: 0 */
genomestart 177
trait 1 0.1 0 0 0 0.019138 0 0.0145529 0.000359546 
trait 2 0.13125 0.374257 0 0 1 0.825407 1 0.0659175 
trait 3 0.288544 0 0.0299596 0.110561 0 0 0 0.16146 
node 1 3 1 1
node 2 1 1 1
node 3 2 1 1
node 4 3 1 1
node 5 1 1 1
node 6 1 1 1
node 7 3 1 3
node 8 3 0 2
node 9 2 0 2
node 10 2 0 2
node 11 1 0 2
gene 3 1 8 -0.37347 0 1 -0.37347 1
gene 1 2 8 -0.495849 0 2 -0.495849 0
gene 2 3 8 -4.32159 0 3 -4.32159 1
gene 2 4 8 -0.380642 0 4 -0.380642 0
gene 2 5 8 6.44835 0 5 6.44835 1
gene 3 6 8 -2.41379 0 6 -2.41379 1
gene 3 7 8 4.69601 0 7 4.69601 1
gene 3 5 9 -1.02382 0 5 -1.02382 1
gene 3 6 10 3.66204 0 6 3.66204 1
gene 3 7 11 2.44169 0 7 2.44169 1
genomeend 177

/* Organism #168 Fitness: 3.06329 Error: 0 */
genomestart 168
trait 1 0.1 0 0 0 0.019138 0 0.0145529 0.000359546 
trait 2 0.13125 0.00965237 0.000704072 0.0354663 0.0815258 0.00213975 0.15371 0.0659175 
trait 3 0.288544 0 0.0299596 0.110561 0 0 0 0.16146 
node 1 3 1 1
node 2 1 1 1
node 3 2 1 1
node 4 3 1 1
node 5 1 1 1
node 6 1 1 1
node 7 3 1 3
node 8 3 0 2
node 9 2 0 2
node 10 2 0 2
node 11 1 0 2
gene 3 1 8 0.463576 0 1 0.463576 1
gene 1 2 8 -0.291833 0 2 -0.291833 0
gene 2 3 8 -1.04633 0 3 -1.04633 1
gene 2 4 8 1.51932 0 4 1.51932 0
gene 2 5 8 2.08649 0 5 2.08649 1
gene 3 6 8 5.16419 0 6 5.16419 1
gene 3 7 8 1.28613 0 7 1.28613 1
gene 2 5 9 2.16567 0 5 2.16567 1
gene 3 6 10 1.99603 0 6 1.99603 1
gene 3 7 11 1.5797 0 7 1.5797 1
genomeend 168

/* Organism #19 Fitness: 3.05827 Error: 0 */
genomestart 19
trait 1 0.1 0 0 0 0.019138 0 0.0145529 0.000359546 
trait 2 0.13125 0.00965237 0.000704072 0.0354663 0.0815258 0.00213975 0.15371 0.0659175 
trait 3 0.288544 0 0.0299596 0.110561 0 0 0 0.16146 
node 1 3 1 1
node 2 1 1 1
node 3 2 1 1
node 4 3 1 1
node 5 1 1 1
node 6 1 1 1
node 7 3 1 3
node 8 3 0 2
node 9 2 0 2
node 10 2 0 2
node 11 1 0 2
gene 3 1 8 -0.50444 0 1 -0.50444 1
gene 3 2 8 0.464125 0 2 0.464125 1
gene 2 3 8 -0.138188 0 3 -0.138188 1
gene 2 4 8 0.612629 0 4 0.612629 1
gene 1 5 8 -0.684927 0 5 -0.684927 1
gene 3 6 8 0.945341 0 6 0.945341 1
gene 3 7 8 0.452254 0 7 0.452254 1
gene 2 5 9 0.275826 0 5 0.275826 1
gene 1 6 10 0.37846 0 6 0.37846 1
gene 1 7 11 0.986969 0 7 0.986969 1
genomeend 19

/* Organism #213 Fitness: 3.13145 Error: 0 */
genomestart 213
trait 1 0.1 0 0 0 0.019138 0 0.0145529 0.000359546 
trait 2 0.13125 0.467598 0.000352036 0.0354663 0.0407629 0.00106988 0.076855 0.361474 
trait 3 0.288544 0 0.0299596 0.110561 0 0 0 0.16146 
node 1 3 1 1
node 2 1 1 1
node 3 2 1 1
node 4 3 1 1
node 5 1 1 1
node 6 1 1 1
node 7 3 1 3
node 8 3 0 2
node 9 2 0 2
node 10 2 0 2
node 11 1 0 2
gene 3 1 8 -0.125383 0 1 -0.125383 1
gene 1 2 8 0.37785 0 2 0.37785 0
gene 2 3 8 -3.03381 0 3 -3.03381 1
gene 2 4 8 1.97198 0 4 1.97198 0
gene 2 5 8 3.81772 0 5 3.81772 1
gene 3 6 8 2.38952 0 6 2.38952 1
gene 3 7 8 -0.0211798 0 7 -0.0211798 1
gene 3 5 9 2.39381 0 5 2.39381 1
gene 3 6 10 2.90309 0 6 2.90309 1
gene 3 7 11 1.94081 0 7 1.94081 1
genomeend 213

/* Species #2 : (Size 19) (AF 0) (Age 1)  */


/* Organism #197 Fitness: 2.98805 Error: 0 */
genomestart 197
trait 1 1 0 0 0 0.019138 0 0.0145529 0.000359546 
trait 2 0.13125 0.00965237 0.000704072 0.0354663 0.0815258 0.00213975 0.15371 0.0659175 
trait 3 0.288544 0 0.0299596 0.110561 0 0 0 0.16146 
node 1 1 1 1
node 2 1 1 1
node 3 2 1 1
node 4 3 1 1
node 5 3 1 1
node 6 2 1 1
node 7 3 1 3
node 8 1 0 2
node 9 2 0 2
node 10 3 0 2
node 11 3 0 2
node 12 1 0 0
gene 3 1 8 -2.49039 0 1 -2.49039 1
gene 1 2 8 -0.154942 0 2 -0.154942 0
gene 2 3 8 0.862682 0 3 0.862682 1
gene 1 4 8 0.00442518 0 4 0.00442518 1
gene 2 5 8 -1.81772 0 5 -1.81772 1
gene 3 6 8 5.17605 0 6 5.17605 1
gene 2 7 8 5.97903 0 7 5.97903 1
gene 2 5 9 4.48829 0 5 4.48829 1
gene 3 6 10 0.753327 0 6 0.753327 1
gene 1 7 11 2.32804 0 7 2.32804 1
gene 1 2 12 1.01564 0 8 1.01564 1
gene 1 12 8 -0.687262 0 9 -0.687262 1
genomeend 197

/* Organism #202 Fitness: 2.90445 Error: 0 */
genomestart 202
trait 1 1 0 0 0 0.019138 0 0.0145529 0.000359546 
trait 2 0.13125 0.00965237 0.000704072 0.0354663 0.0815258 0.00213975 0.15371 0.0659175 
trait 3 0.288544 0 0.0299596 0.110561 0 0 0 0.16146 
node 1 1 1 1
node 2 1 1 1
node 3 2 1 1
node 4 3 1 1
node 5 3 1 1
node 6 2 1 1
node 7 3 1 3
node 8 1 0 2
node 9 2 0 2
node 10 3 0 2
node 11 3 0 2
node 12 1 0 0
gene 3 1 8 2.18764 0 1 2.18764 1
gene 1 2 8 0.367611 0 2 0.367611 0
gene 2 3 8 -2.57852 0 3 -2.57852 1
gene 1 4 8 -1.32189 0 4 -1.32189 1
gene 2 5 8 -1.01955 0 5 -1.01955 1
gene 3 6 8 7.35012 0 6 7.35012 1
gene 2 7 8 4.88823 0 7 4.88823 1
gene 2 5 9 6.32375 0 5 6.32375 1
gene 3 6 10 0.450812 0 6 0.450812 1
gene 1 7 11 1.26226 0 7 1.26226 1
gene 1 2 12 -0.594806 0 8 -0.594806 1
gene 1 12 8 0.0798212 0 9 0.0798212 1
genomeend 202

/* Organism #144 Fitness: 2.82615 Error: 0 */
genomestart 144
trait 1 1 0 0 0 0.019138 0 0.0145529 0.000359546 
trait 2 0.13125 0.00965237 0.000704072 0.0354663 0.0815258 0.00213975 0.15371 0.0659175 
trait 3 0.288544 0 0.0299596 0.110561 0 0 0 0.16146 
node 1 1 1 1
node 2 1 1 1
node 3 2 1 1
node 4 3 1 1
node 5 3 1 1
node 6 2 1 1
node 7 3 1 3
node 8 1 0 2
node 9 2 0 2
node 10 3 0 2
node 11 3 0 2
node 12 1 0 0
gene 3 1 8 1.20502 0 1 1.20502 1
gene 1 2 8 1.1086 0 2 1.1086 1
gene 2 3 8 -2.77743 0 3 -2.77743 1
gene 1 4 8 -0.444182 0 4 -0.444182 1
gene 2 5 8 -0.646535 0 5 -0.646535 1
gene 3 6 8 3.31301 0 6 3.31301 1
gene 2 7 8 3.46675 0 7 3.46675 1
gene 2 5 9 2.12108 0 5 2.12108 1
gene 3 6 10 -2.06471 0 6 -2.06471 1
gene 1 7 11 3.18538 0 7 3.18538 1
gene 1 2 12 0.947813 0 8 0.947813 1
gene 1 12 8 2.75919 0 9 2.75919 1
genomeend 144

/* Organism #89 Fitness: 2.8075 Error: 0 */
genomestart 89
trait 1 1 0 0 0 0.019138 0 0.0145529 0.000359546 
trait 2 0.13125 0.00965237 0.000704072 0.0354663 0.0815258 0.00213975 0.15371 0.0659175 
trait 3 0.288544 0 0.0299596 0.110561 0 0 0 0.16146 
node 1 1 1 1
node 2 1 1 1
node 3 2 1 1
node 4 3 1 1
node 5 3 1 1
node 6 2 1 1
node 7 3 1 3
node 8 1 0 2
node 9 2 0 2
node 10 3 0 2
node 11 3 0 2
node 12 1 0 0
gene 3 1 8 1.20502 0 1 1.20502 1
gene 1 2 8 1.1086 0 2 1.1086 0
gene 2 3 8 -2.77743 0 3 -2.77743 1
gene 1 4 8 -0.444182 0 4 -0.444182 1
gene 2 5 8 -0.646535 0 5 -0.646535 1
gene 3 6 8 3.31301 0 6 3.31301 1
gene 2 7 8 3.46675 0 7 3.46675 1
gene 2 5 9 2.12108 0 5 2.12108 1
gene 3 6 10 -2.06471 0 6 -2.06471 1
gene 1 7 11 3.18538 0 7 3.18538 1
gene 1 2 12 0.947813 0 8 0.947813 1
gene 1 12 8 2.75919 0 9 2.75919 1
genomeend 89

/* Organism #149 Fitness: 2.79407 Error: 0 */
genomestart 149
trait 1 1 0 0 0 0.019138 0 0.0145529 0.000359546 
trait 2 0.13125 0.00965237 0.000704072 0.0354663 0.0815258 0.00213975 0.15371 0.0659175 
trait 3 0.288544 0 0.0299596 0.110561 0 0 0 0.16146 
node 1 1 1 1
node 2 1 1 1
node 3 2 1 1
node 4 3 1 1
node 5 3 1 1
node 6 2 1 1
node 7 3 1 3
node 8 1 0 2
node 9 2 0 2
node 10 3 0 2
node 11 3 0 2
node 12 1 0 0
gene 3 1 8 1.20502 0 1 1.20502 1
gene 1 2 8 1.1086 0 2 1.1086 0
gene 2 3 8 -2.77743 0 3 -2.77743 1
gene 1 4 8 0.446196 0 4 0.446196 1
gene 2 5 8 2.05245 0 5 2.05245 1
gene 3 6 8 4.53139 0 6 4.53139 1
gene 2 7 8 3.87715 0 7 3.87715 1
gene 2 5 9 3.3744 0 5 3.3744 1
gene 3 6 10 -1.34722 0 6 -1.34722 1
gene 1 7 11 1.19329 0 7 1.19329 1
gene 1 2 12 1.77227 0 8 1.77227 1
gene 1 12 8 1.903 0 9 1.903 1
genomeend 149

/* Organism #185 Fitness: 2.63606 Error: 0 */
genomestart 185
trait 1 1 0 0 0 0.019138 0 0.0145529 0.000359546 
trait 2 0.13125 0.00965237 0.000704072 0.0354663 0.0815258 0.00213975 0.15371 0.0659175 
trait 3 0.288544 0 0.0299596 0.110561 0 0 0 0.16146 
node 1 1 1 1
node 2 1 1 1
node 3 2 1 1
node 4 3 1 1
node 5 3 1 1
node 6 2 1 1
node 7 3 1 3
node 8 1 0 2
node 9 2 0 2
node 10 3 0 2
node 11 3 0 2
node 12 1 0 0
gene 3 1 8 1.20502 0 1 1.20502 1
gene 1 2 8 1.1086 0 2 1.1086 0
gene 2 3 8 -2.77743 0 3 -2.77743 1
gene 1 4 8 -0.444182 0 4 -0.444182 1
gene 2 5 8 -0.646535 0 5 -0.646535 1
gene 3 6 8 4.53139 0 6 4.53139 1
gene 2 7 8 3.87715 0 7 3.87715 1
gene 2 5 9 3.3744 0 5 3.3744 1
gene 3 6 10 -1.34722 0 6 -1.34722 1
gene 1 7 11 3.18538 0 7 3.18538 1
gene 1 2 12 0.947813 0 8 0.947813 1
gene 1 12 8 2.75919 0 9 2.75919 1
genomeend 185

/* Organism #129 Fitness: 2.78008 Error: 0 */
genomestart 129
trait 1 0.305521 0 0 0 0 0 0.943689 0.000359546 
trait 2 0.13125 0.00965237 0.000704072 0.0354663 0.0815258 0.00213975 0.15371 0.0659175 
trait 3 0.288544 0 0.0299596 0.110561 0 0 0 0.16146 
node 1 1 1 1
node 2 1 1 1
node 3 2 1 1
node 4 3 1 1
node 5 3 1 1
node 6 2 1 1
node 7 3 1 3
node 8 1 0 2
node 9 2 0 2
node 10 3 0 2
node 11 3 0 2
node 12 1 0 0
gene 3 1 8 0.141472 0 1 0.141472 1
gene 1 2 8 -1.29815 0 2 -1.29815 0
gene 2 3 8 -4.06987 0 3 -4.06987 1
gene 1 4 8 -0.356594 0 4 -0.356594 1
gene 2 5 8 1.6628 0 5 1.6628 1
gene 3 6 8 2.6941 0 6 2.6941 1
gene 2 7 8 4.19794 0 7 4.19794 1
gene 2 5 9 1.82156 0 5 1.82156 1
gene 3 6 10 -1.17218 0 6 -1.17218 1
gene 1 7 11 1.47518 0 7 1.47518 1
gene 1 2 12 0.0333758 0 8 0.0333758 1
gene 1 12 8 1.38222 0 9 1.38222 1
genomeend 129

/* Organism #94 Fitness: 2.70057 Error: 0 */
genomestart 94
trait 1 1 0 0 0 0.019138 0 0.0145529 0.000359546 
trait 2 0.13125 0.00965237 0.000704072 0.0354663 0.0815258 0.00213975 0.15371 0.0659175 
trait 3 0.288544 0 0.0299596 0.110561 0 0 0 0.16146 
node 1 1 1 1
node 2 1 1 1
node 3 2 1 1
node 4 3 1 1
node 5 3 1 1
node 6 2 1 1
node 7 3 1 3
node 8 1 0 2
node 9 2 0 2
node 10 3 0 2
node 11 3 0 2
node 12 1 0 0
gene 3 1 8 1.06563 0 1 1.06563 1
gene 1 2 8 -0.637135 0 2 -0.637135 0
gene 2 3 8 -4.2401 0 3 -4.2401 1
gene 1 4 8 -1.67682 0 4 -1.67682 1
gene 2 5 8 1.08814 0 5 1.08814 1
gene 3 6 8 1.92961 0 6 1.92961 1
gene 2 7 8 4.99191 0 7 4.99191 1
gene 2 5 9 3.1536 0 5 3.1536 1
gene 3 6 10 0.187628 0 6 0.187628 1
gene 1 7 11 1.67678 0 7 1.67678 1
gene 1 2 12 -1.16115 0 8 -1.16115 1
gene 1 12 8 1.30848 0 9 1.30848 1
genomeend 94

/* Organism #207 Fitness: 2.69719 Error: 0 */
genomestart 207
trait 1 1 0 0 0 0.019138 0 0.0145529 0.000359546 
trait 2 0.13125 0.00965237 0.000704072 0.0354663 0.0815258 0.00213975 0.15371 0.0659175 
trait 3 0.288544 0 0.0299596 0.110561 0 0 0 0.16146 
node 1 1 1 1
node 2 1 1 1
node 3 2 1 1
node 4 3 1 1
node 5 3 1 1
node 6 2 1 1
node 7 3 1 3
node 8 1 0 2
node 9 2 0 2
node 10 3 0 2
node 11 3 0 2
node 12 1 0 0
gene 3 1 8 1.26232 0 1 1.26232 1
gene 1 2 8 0.781594 0 2 0.781594 1
gene 2 3 8 -4.7326 0 3 -4.7326 1
gene 1 4 8 -0.963073 0 4 -0.963073 1
gene 2 5 8 0.947295 0 5 0.947295 1
gene 3 6 8 2.6326 0 6 2.6326 1
gene 2 7 8 4.51331 0 7 4.51331 1
gene 2 5 9 2.30877 0 5 2.30877 1
gene 3 6 10 -0.20629 0 6 -0.20629 1
gene 1 7 11 1.30728 0 7 1.30728 1
gene 1 2 12 1.43725 0 8 1.43725 1
gene 1 12 8 2.75919 0 9 2.75919 1
genomeend 207

/* Organism #97 Fitness: 2.65495 Error: 0 */
genomestart 97
trait 1 1 0 0 0 0.019138 0 0.0145529 0.000359546 
trait 2 0.13125 0.00965237 0.000704072 0.0354663 0.0815258 0.00213975 0.15371 0.0659175 
trait 3 0.288544 0 0.0299596 0.110561 0 0 0 0.16146 
node 1 1 1 1
node 2 1 1 1
node 3 2 1 1
node 4 3 1 1
node 5 3 1 1
node 6 2 1 1
node 7 3 1 3
node 8 1 0 2
node 9 2 0 2
node 10 3 0 2
node 11 3 0 2
node 12 1 0 0
gene 3 1 8 -0.782685 0 1 -0.782685 1
gene 1 2 8 -1.95916 0 2 -1.95916 0
gene 2 3 8 -3.89963 0 3 -3.89963 1
gene 1 4 8 0.963637 0 4 0.963637 1
gene 2 5 8 2.23746 0 5 2.23746 1
gene 3 6 8 3.45859 0 6 3.45859 1
gene 2 7 8 3.40396 0 7 3.40396 1
gene 2 5 9 0.489525 0 5 0.489525 1
gene 3 6 10 -2.53199 0 6 -2.53199 1
gene 1 7 11 1.27359 0 7 1.27359 1
gene 1 2 12 1.2279 0 8 1.2279 1
gene 2 12 8 1.45596 0 9 1.45596 1
genomeend 97

/* Organism #196 Fitness: 2.63298 Error: 0 */
genomestart 196
trait 1 1 0 0 0 0.019138 0 0.0145529 0.000359546 
trait 2 0.13125 0.00965237 0.000704072 0.0354663 0.0815258 0.00213975 0.15371 0.0659175 
trait 3 0.288544 0 0.0299596 0.110561 0 0 0 0.16146 
node 1 1 1 1
node 2 1 1 1
node 3 2 1 1
node 4 3 1 1
node 5 3 1 1
node 6 2 1 1
node 7 3 1 3
node 8 1 0 2
node 9 2 0 2
node 10 3 0 2
node 11 3 0 2
node 12 1 0 0
gene 3 1 8 2.09403 0 1 2.09403 1
gene 1 2 8 3.45578 0 2 3.45578 0
gene 2 3 8 -4.74755 0 3 -4.74755 1
gene 1 4 8 -0.444182 0 4 -0.444182 1
gene 2 5 8 -2.98891 0 5 -2.98891 1
gene 3 6 8 0.869091 0 6 0.869091 1
gene 2 7 8 5.23873 0 7 5.23873 1
gene 2 5 9 2.12108 0 5 2.12108 1
gene 3 6 10 -1.03647 0 6 -1.03647 1
gene 1 7 11 1.4707 0 7 1.4707 1
gene 1 2 12 2.44719 0 8 2.44719 1
gene 1 12 8 0.847056 0 9 0.847056 1
genomeend 196

/* Organism #206 Fitness: 2.64378 Error: 0 */
genomestart 206
trait 1 1 0 0 0 0.019138 0 0.0145529 0.000359546 
trait 2 0.13125 0.00965237 0.000704072 0.0354663 0.0815258 0.00213975 0.15371 0.0659175 
trait 3 0.288544 0 0.0299596 0.110561 0 0 0 0.16146 
node 1 1 1 1
node 2 1 1 1
node 3 2 1 1
node 4 3 1 1
node 5 3 1 1
node 6 2 1 1
node 7 3 1 3
node 8 1 0 2
node 9 2 0 2
node 10 3 0 2
node 11 3 0 2
node 12 1 0 0
gene 3 1 8 -4.41351 0 1 -4.41351 1
gene 1 2 8 2.3253 0 2 2.3253 0
gene 2 3 8 -1.48726 0 3 -1.48726 1
gene 1 4 8 1.43721 0 4 1.43721 1
gene 2 5 8 -2.34409 0 5 -2.34409 1
gene 3 6 8 4.30338 0 6 4.30338 1
gene 2 7 8 8 0 7 8 1
gene 2 5 9 3.51841 0 5 3.51841 1
gene 3 6 10 -2.34785 0 6 -2.34785 1
gene 1 7 11 1.26127 0 7 1.26127 1
gene 1 2 12 1.01564 0 8 1.01564 1
gene 1 12 8 0.98645 0 9 0.98645 1
genomeend 206

/* Organism #166 Fitness: 2.44695 Error: 0 */
genomestart 166
trait 1 1 0 0 0 0.019138 0 0.0145529 0.000359546 
trait 2 0.13125 0.00965237 0.000704072 0.0354663 0.0815258 0.00213975 0.15371 0.0659175 
trait 3 0.288544 0 0.0299596 0.110561 0 0 0 0.16146 
node 1 1 1 1
node 2 1 1 1
node 3 2 1 1
node 4 3 1 1
node 5 3 1 1
node 6 2 1 1
node 7 3 1 3
node 8 1 0 2
node 9 2 0 2
node 10 3 0 2
node 11 3 0 2
node 12 1 0 0
gene 3 1 8 0.59328 0 1 0.59328 1
gene 1 2 8 -1.95622 0 2 -1.95622 0
gene 2 3 8 2.02948 0 3 2.02948 1
gene 1 4 8 -2.66448 0 4 -2.66448 1
gene 2 5 8 0.188452 0 5 0.188452 1
gene 3 6 8 -0.407575 0 6 -0.407575 1
gene 2 7 8 4.33981 0 7 4.33981 1
gene 2 5 9 2.44717 0 5 2.44717 1
gene 3 6 10 0.285897 0 6 0.285897 1
gene 1 7 11 -2.13729 0 7 -2.13729 1
gene 1 2 12 -0.883663 0 8 -0.883663 1
gene 1 12 8 -1.01802 0 9 -1.01802 1
genomeend 166

/* Organism #102 Fitness: 2.41057 Error: 0 */
genomestart 102
trait 1 1 0 0 0 0.019138 0 0.0145529 0.000359546 
trait 2 0.13125 0.00965237 0.000704072 0.0354663 0.0815258 0.00213975 0.15371 0.0659175 
trait 3 0.288544 0 0.0299596 0.110561 0 0 0 0.16146 
node 1 1 1 1
node 2 1 1 1
node 3 2 1 1
node 4 3 1 1
node 5 3 1 1
node 6 2 1 1
node 7 3 1 3
node 8 1 0 2
node 9 2 0 2
node 10 3 0 2
node 11 3 0 2
node 12 1 0 0
gene 3 1 8 3.01637 0 1 3.01637 1
gene 1 2 8 -1.58493 0 2 -1.58493 0
gene 2 3 8 -3.89963 0 3 -3.89963 1
gene 1 4 8 -0.927824 0 4 -0.927824 1
gene 2 5 8 1.13529 0 5 1.13529 1
gene 3 6 8 -0.786615 0 6 -0.786615 1
gene 2 7 8 7.09387 0 7 7.09387 1
gene 2 5 9 3.66921 0 5 3.66921 1
gene 3 6 10 -0.260575 0 6 -0.260575 1
gene 1 7 11 1.0217 0 7 1.0217 1
gene 1 2 12 -2.10128 0 8 -2.10128 1
gene 2 12 8 0.02472 0 9 0.02472 1
genomeend 102

/* Organism #1 Fitness: 2.29327 Error: 0 */
genomestart 1
trait 1 0.1 0 0 0 0.019138 0 0.0145529 0.000359546 
trait 2 0.13125 0.00965237 0.000704072 0.0354663 0.0815258 0.00213975 0.15371 0.0659175 
trait 3 0.288544 0 0.0299596 0.110561 0 0 0 0.16146 
node 1 1 1 1
node 2 1 1 1
node 3 2 1 1
node 4 3 1 1
node 5 3 1 1
node 6 2 1 1
node 7 3 1 3
node 8 1 0 2
node 9 2 0 2
node 10 3 0 2
node 11 3 0 2
node 12 1 0 0
gene 3 1 8 -0.145421 0 1 -0.145421 1
gene 1 2 8 0.288644 0 2 0.288644 0
gene 2 3 8 -0.443983 0 3 -0.443983 1
gene 1 4 8 0.170995 0 4 0.170995 1
gene 2 5 8 0.592364 0 5 0.592364 1
gene 3 6 8 -0.797754 0 6 -0.797754 1
gene 2 7 8 0.980865 0 7 0.980865 1
gene 2 5 9 0.0776391 0 5 0.0776391 1
gene 3 6 10 -0.326762 0 6 -0.326762 1
gene 1 7 11 0.577502 0 7 0.577502 1
gene 1 2 12 1 0 8 0 1
gene 1 12 8 0.288644 0 9 0 1
genomeend 1

/* Organism #42 Fitness: 2.26938 Error: 0 */
genomestart 42
trait 1 0.1 0 0 0 0.019138 0 0.0145529 0.000359546 
trait 2 0.13125 0.00965237 0.000704072 0.0354663 0.0815258 0.00213975 0.15371 0.0659175 
trait 3 0.288544 0 0.0299596 0.110561 0 0 0 0.16146 
node 1 1 1 1
node 2 1 1 1
node 3 2 1 1
node 4 3 1 1
node 5 3 1 1
node 6 2 1 1
node 7 3 1 3
node 8 1 0 2
node 9 2 0 2
node 10 3 0 2
node 11 3 0 2
node 12 1 0 0
gene 3 1 8 1.98737 0 1 1.98737 1
gene 1 2 8 2.03949 0 2 2.03949 0
gene 2 3 8 2.0371 0 3 2.0371 1
gene 1 4 8 -0.621265 0 4 -0.621265 1
gene 2 5 8 1.73597 0 5 1.73597 1
gene 3 6 8 -2.97685 0 6 -2.97685 1
gene 2 7 8 -1.22265 0 7 -1.22265 1
gene 2 5 9 -1.44203 0 5 -1.44203 1
gene 3 6 10 0.126438 0 6 0.126438 1
gene 1 7 11 1.22221 0 7 1.22221 1
gene 1 2 12 -1.13712 0 8 -1.13712 1
gene 1 12 8 0.288644 0 9 0.288644 1
genomeend 42

/* Organism #73 Fitness: 2.17757 Error: 0 */
genomestart 73
trait 1 1 0 0 0 0.019138 0 0.0145529 0.000359546 
trait 2 0.13125 0.00965237 0.000704072 0.0354663 0.0815258 0.00213975 0.15371 0.0659175 
trait 3 0.288544 0 0.0299596 0.110561 0 0 0 0.16146 
node 1 1 1 1
node 2 1 1 1
node 3 2 1 1
node 4 3 1 1
node 5 3 1 1
node 6 2 1 1
node 7 3 1 3
node 8 1 0 2
node 9 2 0 2
node 10 3 0 2
node 11 3 0 2
node 12 1 0 0
gene 3 1 8 2.89613 0 1 2.89613 1
gene 1 2 8 3.07628 0 2 3.07628 0
gene 2 3 8 -1.52274 0 3 -1.52274 1
gene 1 4 8 -2.42399 0 4 -2.42399 1
gene 2 5 8 1.05235 0 5 1.05235 1
gene 3 6 8 1.11469 0 6 1.11469 1
gene 2 7 8 3.9626 0 7 3.9626 1
gene 2 5 9 3.31596 0 5 3.31596 1
gene 3 6 10 -1.17129 0 6 -1.17129 1
gene 1 7 11 1.58263 0 7 1.58263 1
gene 1 2 12 1 0 8 1 1
gene 1 12 8 1.25684 0 9 1.25684 1
genomeend 73

/* Organism #193 Fitness: 2.15066 Error: 0 */
genomestart 193
trait 1 1 0 0 0 0.019138 0 0.0145529 0.000359546 
trait 2 0.13125 0.00965237 0.000704072 0.0354663 0.0815258 0.00213975 0.15371 0.0659175 
trait 3 0.288544 0 0.0299596 0.110561 0 0 0 0.16146 
node 1 1 1 1
node 2 1 1 1
node 3 2 1 1
node 4 3 1 1
node 5 3 1 1
node 6 2 1 1
node 7 3 1 3
node 8 1 0 2
node 9 2 0 2
node 10 3 0 2
node 11 3 0 2
node 12 1 0 0
gene 3 1 8 1.56316 0 1 1.56316 1
gene 1 2 8 0.812723 0 2 0.812723 0
gene 2 3 8 -3.05354 0 3 -3.05354 1
gene 1 4 8 -2.14597 0 4 -2.14597 1
gene 2 5 8 2.16681 0 5 2.16681 1
gene 3 6 8 4.04706 0 6 4.04706 1
gene 2 7 8 4.8146 0 7 4.8146 1
gene 2 5 9 -0.132176 0 5 -0.132176 1
gene 3 6 10 -2.7658 0 6 -2.7658 1
gene 1 7 11 1.74812 0 7 1.74812 1
gene 1 2 12 0.947813 0 8 0.947813 1
gene 1 12 8 2.75919 0 9 2.75919 1
genomeend 193

/* Organism #212 Fitness: 2.98922 Error: 0 */
genomestart 212
trait 1 1 0 0 0 0.019138 0 0.0145529 0.000359546 
trait 2 0.13125 0.00965237 0.000704072 0.0354663 0.0815258 0.00213975 0.15371 0.0659175 
trait 3 0.288544 0 0.0299596 0.110561 0 0 0 0.16146 
node 1 1 1 1
node 2 1 1 1
node 3 2 1 1
node 4 3 1 1
node 5 3 1 1
node 6 2 1 1
node 7 3 1 3
node 8 1 0 2
node 9 2 0 2
node 10 3 0 2
node 11 3 0 2
node 12 1 0 0
gene 3 1 8 -1.0168 0 1 -1.0168 1
gene 1 2 8 1.8061 0 2 1.8061 0
gene 2 3 8 -3.90669 0 3 -3.90669 1
gene 1 4 8 1.44057 0 4 1.44057 1
gene 2 5 8 -0.646535 0 5 -0.646535 1
gene 3 6 8 3.61431 0 6 3.61431 1
gene 2 7 8 3.46675 0 7 3.46675 1
gene 2 5 9 -2.03734 0 5 -2.03734 1
gene 3 6 10 2.39776 0 6 2.39776 1
gene 1 7 11 5.45207 0 7 5.45207 1
gene 1 2 12 0.947813 0 8 0.947813 1
gene 1 12 8 1.63581 0 9 1.63581 1
genomeend 212

/* Species #3 : (Size 12) (AF 0) (Age 1)  */


/* Organism #130 Fitness: 3.7442 Error: 0 */
genomestart 130
trait 1 0.1 0 0 0 0.019138 0 0.0145529 0.000359546 
trait 2 0.13125 0.00965237 0.000704072 0.0354663 0.0815258 0.00213975 0.15371 0.0659175 
trait 3 0.288544 0 0.0299596 0.110561 0 0 0 0.16146 
node 1 3 1 1
node 2 1 1 1
node 3 2 1 1
node 4 2 1 1
node 5 1 1 1
node 6 1 1 1
node 7 3 1 3
node 8 3 0 2
node 9 2 0 2
node 10 2 0 2
node 11 1 0 2
node 13 1 0 0
gene 2 1 8 -1.63495 0 1 -1.63495 1
gene 3 2 8 3.65108 0 2 3.65108 1
gene 2 3 8 -0.0608081 0 3 -0.0608081 1
gene 2 4 8 -0.833148 0 4 -0.833148 0
gene 2 5 8 2.97716 0 5 2.97716 1
gene 3 6 8 1.00974 0 6 1.00974 1
gene 3 7 8 1.29574 0 7 1.29574 1
gene 3 5 9 2.14 0 5 2.14 1
gene 3 6 10 0.883587 0 6 0.883587 1
gene 1 7 11 0.863254 0 7 0.863254 1
gene 2 4 13 -0.0396741 0 11 -0.0396741 1
gene 2 13 8 -0.94763 0 12 -0.94763 1
genomeend 130

/* Organism #204 Fitness: 3.28258 Error: 0 */
genomestart 204
trait 1 0.1 0 0 0 0.019138 0 0.0145529 0.000359546 
trait 2 0.13125 0.00965237 0.000704072 0.0354663 0.0815258 0.00213975 0.15371 0.0659175 
trait 3 0.288544 0 0 0.110561 0.271554 0 0 0 
node 1 3 1 1
node 2 1 1 1
node 3 2 1 1
node 4 3 1 1
node 5 1 1 1
node 6 1 1 1
node 7 3 1 3
node 8 3 0 2
node 9 2 0 2
node 10 2 0 2
node 11 1 0 2
node 13 1 0 0
gene 2 1 8 -1.1596 0 1 -1.1596 1
gene 3 2 8 3.94337 0 2 3.94337 1
gene 2 3 8 -2.01431 0 3 -2.01431 1
gene 2 4 8 -0.755028 0 4 -0.755028 0
gene 2 5 8 4.18165 0 5 4.18165 1
gene 3 6 8 1.38352 0 6 1.38352 1
gene 3 7 8 0.298303 0 7 0.298303 1
gene 3 5 9 3.59467 0 5 3.59467 1
gene 3 6 10 1.80201 0 6 1.80201 1
gene 1 7 11 2.08716 0 7 2.08716 1
gene 2 4 13 3.11074 0 11 3.11074 1
gene 2 13 8 2.31503 0 12 2.31503 1
genomeend 204

/* Organism #99 Fitness: 3.22709 Error: 0 */
genomestart 99
trait 1 0.1 0 0 0 0.019138 0 0.0145529 0.000359546 
trait 2 0.13125 0.00965237 0.000704072 0.0354663 0.0815258 0.00213975 0.15371 0.0659175 
trait 3 0.288544 0 0.0299596 0.110561 0 0 0 0.16146 
node 1 3 1 1
node 2 1 1 1
node 3 2 1 1
node 4 3 1 1
node 5 1 1 1
node 6 1 1 1
node 7 3 1 3
node 8 3 0 2
node 9 2 0 2
node 10 2 0 2
node 11 1 0 2
node 13 1 0 0
gene 2 1 8 0.772408 0 1 0.772408 1
gene 3 2 8 0.891289 0 2 0.891289 1
gene 2 3 8 -3.98901 0 3 -3.98901 1
gene 2 4 8 -1.41594 0 4 -1.41594 0
gene 2 5 8 3.62857 0 5 3.62857 1
gene 3 6 8 3.17152 0 6 3.17152 1
gene 3 7 8 4.83717 0 7 4.83717 1
gene 3 5 9 0.262734 0 5 0.262734 1
gene 3 6 10 0.205435 0 6 0.205435 1
gene 1 7 11 3.35269 0 7 3.35269 1
gene 2 4 13 1 0 11 1 1
gene 2 13 8 1.64049 0 12 1.64049 1
genomeend 99

/* Organism #117 Fitness: 2.99255 Error: 0 */
genomestart 117
trait 1 0.1 0 0 0 0.019138 0 0.0145529 0.000359546 
trait 2 0.13125 0.00965237 0.000704072 0.0354663 0.0815258 0.00213975 0.15371 0.0659175 
trait 3 0.288544 0 0.0299596 0.110561 0 0 0 0.16146 
node 1 3 1 1
node 2 1 1 1
node 3 2 1 1
node 4 3 1 1
node 5 1 1 1
node 6 1 1 1
node 7 3 1 3
node 8 3 0 2
node 9 2 0 2
node 10 2 0 2
node 11 1 0 2
node 13 1 0 0
gene 2 1 8 -3.13358 0 1 -3.13358 1
gene 3 2 8 1.49983 0 2 1.49983 1
gene 2 3 8 -5.56911 0 3 -5.56911 1
gene 2 4 8 1.08395 0 4 1.08395 0
gene 2 5 8 0.800348 0 5 0.800348 1
gene 3 6 8 2.83254 0 6 2.83254 1
gene 1 7 8 -0.520585 0 7 -0.520585 1
gene 3 5 9 3.40957 0 5 3.40957 1
gene 3 6 10 1.08132 0 6 1.08132 1
gene 1 7 11 1.40751 0 7 1.40751 1
gene 2 4 13 1.2282 0 11 1.2282 1
gene 2 13 8 2.67721 0 12 2.67721 1
genomeend 117

/* Organism #36 Fitness: 2.93516 Error: 0 */
genomestart 36
trait 1 0.1 0 0 0 0.019138 0 0.0145529 0.000359546 
trait 2 0.13125 0.00965237 0.000704072 0.0354663 0.0815258 0.00213975 0.15371 0.0659175 
trait 3 0.288544 0 0.0299596 0.110561 0 0 0 0.16146 
node 1 3 1 1
node 2 1 1 1
node 3 2 1 1
node 4 3 1 1
node 5 1 1 1
node 6 1 1 1
node 7 3 1 3
node 8 3 0 2
node 9 2 0 2
node 10 2 0 2
node 11 1 0 2
node 13 1 0 0
gene 2 1 8 0.943464 0 1 0.943464 1
gene 3 2 8 1.97754 0 2 1.97754 1
gene 2 3 8 -2.29691 0 3 -2.29691 1
gene 2 4 8 0.656346 0 4 0.656346 0
gene 2 5 8 1.15734 0 5 1.15734 1
gene 3 6 8 1.61435 0 6 1.61435 1
gene 3 7 8 0.304941 0 7 0.304941 1
gene 3 5 9 0.782769 0 5 0.782769 1
gene 3 6 10 1.96658 0 6 1.96658 1
gene 1 7 11 -0.527589 0 7 -0.527589 1
gene 2 4 13 1 0 11 0 1
gene 2 13 8 0.656346 0 12 0 1
genomeend 36

/* Organism #61 Fitness: 2.88983 Error: 0 */
genomestart 61
trait 1 0.1 0 0 0 0.019138 0 0.0145529 0.000359546 
trait 2 0.13125 0.00965237 0.000704072 0.0354663 0.0815258 0.00213975 0.15371 0.0659175 
trait 3 0.288544 0 0.0299596 0.110561 0 0 0 0.16146 
node 1 3 1 1
node 2 1 1 1
node 3 2 1 1
node 4 3 1 1
node 5 1 1 1
node 6 1 1 1
node 7 3 1 3
node 8 3 0 2
node 9 2 0 2
node 10 2 0 2
node 11 1 0 2
node 13 1 0 0
gene 2 1 8 -1.31925 0 1 -1.31925 1
gene 3 2 8 3.35934 0 2 3.35934 1
gene 2 3 8 -6.29446 0 3 -6.29446 1
gene 2 4 8 2.27757 0 4 2.27757 0
gene 2 5 8 4.05499 0 5 4.05499 1
gene 3 6 8 1.27712 0 6 1.27712 1
gene 3 7 8 3.47696 0 7 3.47696 1
gene 3 5 9 0.825419 0 5 0.825419 1
gene 3 6 10 0.157216 0 6 0.157216 1
gene 1 7 11 0.339747 0 7 0.339747 1
gene 2 4 13 -0.860775 0 11 -0.860775 1
gene 2 13 8 1.51921 0 12 1.51921 1
genomeend 61

/* Organism #91 Fitness: 2.86303 Error: 0 */
genomestart 91
trait 1 0.1 0 0 0 0.019138 0 0.0145529 0.000359546 
trait 2 0.13125 0.00965237 0.000704072 0.0354663 0.0815258 0.00213975 0.15371 0.0659175 
trait 3 0.288544 0 0.0299596 0.110561 0 0 0 0.16146 
node 1 3 1 1
node 2 1 1 1
node 3 2 1 1
node 4 3 1 1
node 5 1 1 1
node 6 1 1 1
node 7 3 1 3
node 8 3 0 2
node 9 2 0 2
node 10 2 0 2
node 11 1 0 2
node 13 1 0 0
gene 2 1 8 -1.31094 0 1 -1.31094 1
gene 3 2 8 2.085 0 2 2.085 1
gene 2 3 8 -4.95798 0 3 -4.95798 1
gene 2 4 8 2.6299 0 4 2.6299 0
gene 2 5 8 0.516373 0 5 0.516373 1
gene 3 6 8 2.77055 0 6 2.77055 1
gene 3 7 8 3.12966 0 7 3.12966 1
gene 3 5 9 2.5224 0 5 2.5224 1
gene 3 6 10 1.21743 0 6 1.21743 1
gene 1 7 11 0.660878 0 7 0.660878 1
gene 2 4 13 1.38142 0 11 1.38142 1
gene 2 13 8 -2.47482 0 12 -2.47482 1
genomeend 91

/* Organism #86 Fitness: 2.80309 Error: 0 */
genomestart 86
trait 1 0.1 0 0 0 0.019138 0 0.0145529 0.000359546 
trait 2 0.13125 0.00965237 0.000704072 0.0354663 0.0815258 0.00213975 0.15371 0.0659175 
trait 3 0.288544 0 0.0299596 0.110561 0 0 0 0.16146 
node 1 3 1 1
node 2 1 1 1
node 3 2 1 1
node 4 3 1 1
node 5 1 1 1
node 6 1 1 1
node 7 3 1 3
node 8 3 0 2
node 9 2 0 2
node 10 2 0 2
node 11 1 0 2
node 13 1 0 0
gene 2 1 8 -0.702399 0 1 -0.702399 1
gene 3 2 8 0.145474 0 2 0.145474 1
gene 2 3 8 -4.66546 0 3 -4.66546 1
gene 2 4 8 1.25314 0 4 1.25314 0
gene 2 5 8 1.12087 0 5 1.12087 1
gene 3 6 8 2.52503 0 6 2.52503 1
gene 3 7 8 4.78544 0 7 4.78544 1
gene 3 5 9 1.50858 0 5 1.50858 1
gene 3 6 10 0.425016 0 6 0.425016 1
gene 1 7 11 3.75843 0 7 3.75843 1
gene 2 4 13 2.36351 0 11 2.36351 1
gene 2 13 8 2.19604 0 12 2.19604 1
genomeend 86

/* Organism #55 Fitness: 2.74828 Error: 0 */
genomestart 55
trait 1 0.1 0 0 0 0.019138 0 0.0145529 0.000359546 
trait 2 0.13125 0.00965237 0.000704072 0.0354663 0.0815258 0.00213975 0.15371 0.0659175 
trait 3 0.288544 0 0.0299596 0.110561 0 0 0 0.16146 
node 1 3 1 1
node 2 1 1 1
node 3 2 1 1
node 4 3 1 1
node 5 1 1 1
node 6 1 1 1
node 7 3 1 3
node 8 3 0 2
node 9 2 0 2
node 10 2 0 2
node 11 1 0 2
node 13 1 0 0
gene 2 1 8 9.91852e-05 0 1 9.91852e-05 1
gene 3 2 8 2.47945 0 2 2.47945 1
gene 2 3 8 -3.29472 0 3 -3.29472 1
gene 2 4 8 1.02402 0 4 1.02402 0
gene 2 5 8 2.00865 0 5 2.00865 1
gene 3 6 8 1.46046 0 6 1.46046 1
gene 3 7 8 1.51912 0 7 1.51912 1
gene 3 5 9 1.08795 0 5 1.08795 1
gene 3 6 10 1.89742 0 6 1.89742 1
gene 1 7 11 0.435347 0 7 0.435347 1
gene 2 4 13 1 0 11 0.5 1
gene 2 13 8 0.656346 0 12 0.328173 1
genomeend 55

/* Organism #210 Fitness: 2.56903 Error: 0 */
genomestart 210
trait 1 0.911914 0 0 0 0.019138 0 0.825247 0.879934 
trait 2 0.13125 0.00965237 0.000704072 0.0354663 0.0815258 0.00213975 0.15371 0.0659175 
trait 3 0.288544 0 0.0299596 0.110561 0 0 0 0.16146 
node 1 3 1 1
node 2 1 1 1
node 3 2 1 1
node 4 2 1 1
node 5 1 1 1
node 6 1 1 1
node 7 3 1 3
node 8 3 0 2
node 9 2 0 2
node 10 2 0 2
node 11 1 0 2
node 13 1 0 0
gene 2 1 8 -2.54784 0 1 -2.54784 1
gene 3 2 8 5.07965 0 2 5.07965 1
gene 2 3 8 2.32574 0 3 2.32574 1
gene 2 4 8 -1.40323 0 4 -1.40323 1
gene 2 5 8 4.78988 0 5 4.78988 1
gene 3 6 8 -1.24168 0 6 -1.24168 1
gene 3 7 8 2.4443 0 7 2.4443 1
gene 3 5 9 2.81103 0 5 2.81103 1
gene 3 6 10 -0.884655 0 6 -0.884655 1
gene 1 7 11 2.40253 0 7 2.40253 1
gene 2 4 13 -0.204474 0 11 -0.204474 1
gene 2 13 8 -1.03865 0 12 -1.03865 1
genomeend 210

/* Organism #208 Fitness: 1.53961 Error: 0 */
genomestart 208
trait 1 0.1 0 0 0 0.019138 0 0.0145529 0.000359546 
trait 2 0.13125 0.00965237 0.000704072 0.0354663 0.0815258 0.00213975 0.15371 0.0659175 
trait 3 0.288544 0 0.0149798 0.110561 0.135777 0 0 0.08073 
node 1 3 1 1
node 2 1 1 1
node 3 2 1 1
node 4 3 1 1
node 5 1 1 1
node 6 1 1 1
node 7 3 1 3
node 8 3 0 2
node 9 2 0 2
node 10 2 0 2
node 11 1 0 2
node 13 1 0 0
gene 2 1 8 -2.50753 0 1 -2.50753 1
gene 1 2 8 1.46572 0 2 1.46572 1
gene 2 3 8 -0.943403 0 3 -0.943403 1
gene 2 4 8 -1.97249 0 4 -1.97249 0
gene 2 5 8 3.82733 0 5 3.82733 1
gene 3 6 8 3.58253 0 6 3.58253 1
gene 3 7 8 0.954466 0 7 0.954466 1
gene 3 5 9 2.54254 0 5 2.54254 1
gene 3 6 10 -1.56392 0 6 -1.56392 1
gene 1 7 11 -0.154386 0 7 -0.154386 1
gene 2 4 13 2.42958 0 11 2.42958 1
gene 2 13 8 -1.90133 0 12 -1.90133 1
genomeend 208

/* Organism #214 Fitness: 3.0043 Error: 0 */
/* ##------$ WINNER 214 SPECIES #3 $------## */
genomestart 214
trait 1 0.1 0 0 0 0.019138 0 0.0145529 0.000359546 
trait 2 0.13125 0.00965237 0.000704072 0.0354663 0.0815258 0.00213975 0.15371 0.0659175 
trait 3 0.288544 0 0.0299596 0.110561 0 0 0 0.16146 
node 1 3 1 1
node 2 1 1 1
node 3 2 1 1
node 4 3 1 1
node 5 1 1 1
node 6 1 1 1
node 7 3 1 3
node 8 3 0 2
node 9 2 0 2
node 10 2 0 2
node 11 1 0 2
node 13 1 0 0
gene 2 1 8 -1.63495 0 1 -1.63495 1
gene 3 2 8 0.891289 0 2 0.891289 1
gene 2 3 8 -3.98901 0 3 -3.98901 1
gene 2 4 8 -1.41594 0 4 -1.41594 0
gene 2 5 8 2.97716 0 5 2.97716 1
gene 3 6 8 1.00974 0 6 1.00974 1
gene 3 7 8 1.29574 0 7 1.29574 1
gene 3 5 9 2.14 0 5 2.14 1
gene 3 6 10 0.205435 0 6 0.205435 1
gene 1 7 11 3.35269 0 7 3.35269 1
gene 2 4 13 -0.0396741 0 11 -0.0396741 1
gene 2 13 8 1.64049 0 12 1.64049 1
genomeend 214

/* Species #5 : (Size 4) (AF 0) (Age 1)  */


/* Organism #189 Fitness: 2.45615 Error: 0 */
genomestart 189
trait 1 0.1 0 0 0 0.019138 0 0.0145529 0.000359546 
trait 2 0.13125 0.00965237 0.000704072 0.0354663 0.0815258 0.00213975 0.15371 0.0659175 
trait 3 0.288544 0 0.0299596 0.110561 0 0 0 0.16146 
node 1 3 1 1
node 2 2 1 1
node 3 2 1 1
node 4 3 1 1
node 5 1 1 1
node 6 1 1 1
node 7 3 1 3
node 8 3 0 2
node 9 2 0 2
node 10 2 0 2
node 11 2 0 2
node 13 1 0 0
gene 2 1 8 2.42933 0 1 2.42933 1
gene 3 2 8 3.88754 0 2 3.88754 1
gene 2 3 8 3.68983 0 3 3.68983 1
gene 2 4 8 -3.75431 0 4 -3.75431 0
gene 2 5 8 3.45874 0 5 3.45874 1
gene 3 6 8 3.4547 0 6 3.4547 1
gene 3 7 8 -2.0298 0 7 -2.0298 1
gene 3 5 9 3.67455 0 5 3.67455 1
gene 3 6 10 4.03108 0 6 4.03108 1
gene 1 7 11 -3.28852 0 7 -3.28852 1
gene 2 4 13 3.56722 0 11 3.56722 1
gene 3 13 8 6.25561 0 12 6.25561 1
gene 2 7 13 1.43445 0 13 1.43445 1
gene 1 3 13 -0.531449 0 21 -0.531449 1
genomeend 189

/* Organism #192 Fitness: 2.15701 Error: 0 */
genomestart 192
trait 1 0.1 0 0 0 0.019138 0 0.0145529 0.000359546 
trait 2 0.13125 0.00965237 0.000704072 0.0354663 0.0815258 0.00213975 0.15371 0.0659175 
trait 3 0.288544 0 0.0299596 0.110561 0 0 0 0.16146 
node 1 3 1 1
node 2 2 1 1
node 3 2 1 1
node 4 3 1 1
node 5 1 1 1
node 6 1 1 1
node 7 3 1 3
node 8 3 0 2
node 9 2 0 2
node 10 2 0 2
node 11 2 0 2
node 13 1 0 0
gene 2 1 8 0.746544 0 1 0.746544 1
gene 3 2 8 4.12505 0 2 4.12505 1
gene 2 3 8 2.65868 0 3 2.65868 1
gene 2 4 8 -5.6164 0 4 -5.6164 0
gene 2 5 8 2.96091 0 5 2.96091 1
gene 3 6 8 3.55632 0 6 3.55632 1
gene 3 7 8 -2.04453 0 7 -2.04453 1
gene 3 5 9 4.0864 0 5 4.0864 1
gene 3 6 10 4.62421 0 6 4.62421 1
gene 1 7 11 -1.35807 0 7 -1.35807 1
gene 2 4 13 3.33543 0 11 3.33543 1
gene 3 13 8 5.21432 0 12 5.21432 1
gene 2 7 13 1.43445 0 13 1.43445 1
gene 1 3 13 0.900937 0 21 0.900937 1
genomeend 192

/* Organism #183 Fitness: 2.12448 Error: 0 */
genomestart 183
trait 1 0.1 0 0 0 0.019138 0 0.0145529 0.000359546 
trait 2 0.13125 0.00965237 0.000704072 0.0354663 0.0815258 0.00213975 0.15371 0.0659175 
trait 3 0.288544 0 0.0299596 0.110561 0 0 0 0.16146 
node 1 3 1 1
node 2 2 1 1
node 3 2 1 1
node 4 3 1 1
node 5 1 1 1
node 6 1 1 1
node 7 3 1 3
node 8 3 0 2
node 9 2 0 2
node 10 2 0 2
node 11 2 0 2
node 13 1 0 0
gene 2 1 8 2.42933 0 1 2.42933 1
gene 3 2 8 3.88754 0 2 3.88754 1
gene 2 3 8 3.68983 0 3 3.68983 1
gene 2 4 8 -3.75431 0 4 -3.75431 0
gene 2 5 8 3.45874 0 5 3.45874 1
gene 3 6 8 3.4547 0 6 3.4547 1
gene 3 7 8 -2.0298 0 7 -2.0298 1
gene 3 5 9 3.67455 0 5 3.67455 1
gene 3 6 10 4.03108 0 6 4.03108 1
gene 1 7 11 -3.28852 0 7 -3.28852 1
gene 2 4 13 3.56722 0 11 3.56722 1
gene 3 13 8 6.25561 0 12 6.25561 1
gene 2 7 13 1.43445 0 13 1.43445 1
gene 1 11 10 -0.0860622 0 20 -0.0860622 1
genomeend 183

/* Organism #209 Fitness: 2.39624 Error: 0 */
genomestart 209
trait 1 0.1 0 0 0 0.019138 0 0.0145529 0.000359546 
trait 2 0.13125 0.00965237 0.000704072 0.0354663 0.0815258 0.00213975 0.15371 0.0659175 
trait 3 0.288544 0 0.0299596 0.110561 0 0 0 0.16146 
node 1 3 1 1
node 2 2 1 1
node 3 2 1 1
node 4 1 1 1
node 5 1 1 1
node 6 1 1 1
node 7 3 1 3
node 8 3 0 2
node 9 2 0 2
node 10 2 0 2
node 11 2 0 2
node 13 1 0 0
gene 2 1 8 2.42933 0 1 2.42933 1
gene 3 2 8 3.88754 0 2 3.88754 1
gene 2 3 8 3.68983 0 3 3.68983 1
gene 2 4 8 -3.75431 0 4 -3.75431 0
gene 2 5 8 3.45874 0 5 3.45874 1
gene 3 6 8 3.4547 0 6 3.4547 1
gene 3 7 8 -2.0298 0 7 -2.0298 1
gene 3 5 9 3.67455 0 5 3.67455 1
gene 3 6 10 4.03108 0 6 4.03108 1
gene 1 7 11 -3.28852 0 7 -3.28852 1
gene 2 4 13 3.56722 0 11 3.56722 1
gene 3 13 8 6.25561 0 12 6.25561 1
gene 2 7 13 1.43445 0 13 1.43445 1
gene 1 3 13 -0.531449 0 21 -0.531449 1
genomeend 209

/* Species #7 : (Size 5) (AF 0) (Age 1)  */


/* Organism #180 Fitness: 2.99343 Error: 0 */
genomestart 180
trait 1 0.1 0 0 0 0.019138 0 0.0145529 0.000359546 
trait 2 0.13125 0.00965237 0.000704072 0.0354663 0.0815258 0.00213975 0.15371 0.0659175 
trait 3 0.288544 0 0.0299596 0.110561 0 0 0 0.16146 
node 1 2 1 1
node 2 1 1 1
node 3 3 1 1
node 4 2 1 1
node 5 3 1 1
node 6 1 1 1
node 7 2 1 3
node 8 1 0 2
node 9 3 0 2
node 10 2 0 2
node 11 3 0 2
node 14 1 0 0
gene 2 1 8 1.20413 0 1 1.20413 1
gene 3 2 8 -0.682493 0 2 -0.682493 1
gene 2 3 8 -0.671842 0 3 -0.671842 1
gene 2 4 8 0.860157 0 4 0.860157 1
gene 2 5 8 2.17494 0 5 2.17494 1
gene 1 6 8 0.717261 0 6 0.717261 1
gene 3 7 8 -0.878719 0 7 -0.878719 1
gene 3 5 9 -0.69921 0 5 -0.69921 0
gene 3 6 10 1.5362 0 6 1.5362 1
gene 3 7 11 -0.200804 0 7 -0.200804 1
gene 3 5 14 -0.976646 0 15 -0.976646 1
gene 3 14 9 2.77906 0 16 2.77906 1
genomeend 180

/* Organism #186 Fitness: 3.16047 Error: 0 */
genomestart 186
trait 1 0.1 0 0 0 0.019138 0 0.0145529 0.000359546 
trait 2 0.13125 0.00965237 0.000704072 0.0354663 0.0815258 0.00213975 0.15371 0.0659175 
trait 3 0.288544 0 0.0299596 0.110561 0 0 0 0.16146 
node 1 2 1 1
node 2 1 1 1
node 3 3 1 1
node 4 2 1 1
node 5 3 1 1
node 6 1 1 1
node 7 2 1 3
node 8 1 0 2
node 9 3 0 2
node 10 2 0 2
node 11 3 0 2
node 14 1 0 0
gene 2 1 8 0.992523 0 1 0.992523 1
gene 3 2 8 -0.701529 0 2 -0.701529 1
gene 2 3 8 -0.671842 0 3 -0.671842 1
gene 2 4 8 1.72234 0 4 1.72234 1
gene 2 5 8 1.15734 0 5 1.15734 1
gene 1 6 8 -0.0813318 0 6 -0.0813318 1
gene 3 7 8 -0.878719 0 7 -0.878719 1
gene 3 5 9 0.824885 0 5 0.824885 0
gene 3 6 10 1.5362 0 6 1.5362 1
gene 3 7 11 0.537858 0 7 0.537858 1
gene 3 5 14 1 0 15 0 1
gene 3 14 9 2.77906 0 16 2.77906 1
genomeend 186

/* Organism #157 Fitness: 2.31106 Error: 0 */
genomestart 157
trait 1 0.1 0 0 0 0.019138 0 0.0145529 0.000359546 
trait 2 0.13125 0.00965237 0.000704072 0.0354663 0.0815258 0.00213975 0.15371 0.0659175 
trait 3 0.288544 0 0.0299596 0.110561 0 0 0 0.16146 
node 1 2 1 1
node 2 1 1 1
node 3 3 1 1
node 4 2 1 1
node 5 3 1 1
node 6 1 1 1
node 7 2 1 3
node 8 1 0 2
node 9 2 0 2
node 10 2 0 2
node 11 3 0 2
node 14 1 0 0
gene 2 1 8 2.89924 0 1 2.89924 1
gene 3 2 8 -0.227119 0 2 -0.227119 1
gene 2 3 8 -2.99663 0 3 -2.99663 1
gene 2 4 8 3.30793 0 4 3.30793 1
gene 2 5 8 2.57096 0 5 2.57096 1
gene 1 6 8 -0.577792 0 6 -0.577792 1
gene 3 7 8 -1.01346 0 7 -1.01346 1
gene 3 5 9 1.23284 0 5 1.23284 0
gene 3 6 10 1.79984 0 6 1.79984 1
gene 3 7 11 -1.43814 0 7 -1.43814 1
gene 3 5 14 -2.79582 0 15 -2.79582 1
gene 3 14 9 2.91098 0 16 2.91098 1
genomeend 157

/* Organism #148 Fitness: 2.19729 Error: 0 */
genomestart 148
trait 1 0.1 0 0 0 0.019138 0 0.0145529 0.000359546 
trait 2 0.13125 0.00965237 0.000704072 0.0354663 0.0815258 0.00213975 0.15371 0.0659175 
trait 3 0.288544 0 0.0299596 0.110561 0 0 0 0.16146 
node 1 2 1 1
node 2 1 1 1
node 3 3 1 1
node 4 2 1 1
node 5 3 1 1
node 6 1 1 1
node 7 2 1 3
node 8 1 0 2
node 9 2 0 2
node 10 2 0 2
node 11 3 0 2
node 14 1 0 0
gene 2 1 8 0.109485 0 1 0.109485 1
gene 3 2 8 -3.0951 0 2 -3.0951 1
gene 2 3 8 -1.2177 0 3 -1.2177 1
gene 2 4 8 1.79571 0 4 1.79571 1
gene 2 5 8 2.2953 0 5 2.2953 1
gene 1 6 8 0.388577 0 6 0.388577 1
gene 3 7 8 0.565569 0 7 0.565569 1
gene 3 5 9 2.80065 0 5 2.80065 0
gene 3 6 10 -1.59886 0 6 -1.59886 1
gene 3 7 11 0.537858 0 7 0.537858 1
gene 3 5 14 -1.00421 0 15 -1.00421 1
gene 3 14 9 0.889233 0 16 0.889233 1
genomeend 148

/* Organism #195 Fitness: 2.78088 Error: 0 */
genomestart 195
trait 1 0.1 0 0 0 0.019138 0 0.0145529 0.000359546 
trait 2 0.13125 0.00965237 0.000704072 0.0354663 0.0815258 0.00213975 0.15371 0.0659175 
trait 3 0.288544 0 0.0299596 0.110561 0 0 0 0.16146 
node 1 2 1 1
node 2 1 1 1
node 3 3 1 1
node 4 2 1 1
node 5 3 1 1
node 6 1 1 1
node 7 2 1 3
node 8 1 0 2
node 9 3 0 2
node 10 2 0 2
node 11 3 0 2
node 14 1 0 0
gene 2 1 8 0.618366 0 1 0.618366 1
gene 3 2 8 -0.701529 0 2 -0.701529 1
gene 2 3 8 2.28858 0 3 2.28858 1
gene 2 4 8 3.94211 0 4 3.94211 1
gene 2 5 8 -0.401318 0 5 -0.401318 1
gene 1 6 8 -0.0813318 0 6 -0.0813318 1
gene 3 7 8 -3.0659 0 7 -3.0659 1
gene 3 5 9 -0.666555 0 5 -0.666555 0
gene 3 6 10 4.01179 0 6 4.01179 1
gene 3 7 11 0.569102 0 7 0.569102 1
gene 3 5 14 0.933126 0 15 0.933126 1
gene 3 14 9 0.660161 0 16 0.660161 1
genomeend 195

/* Species #8 : (Size 4) (AF 0) (Age 1)  */


/* Organism #174 Fitness: 2.47786 Error: 0 */
genomestart 174
trait 1 1 0 0 0 0.019138 0 0.0145529 0.000359546 
trait 2 0.13125 0.00965237 0.000704072 0.0354663 0.0815258 0.00213975 0.15371 0.0659175 
trait 3 0.288544 0 0.0299596 0.110561 0 0 0 0.16146 
node 1 1 1 1
node 2 1 1 1
node 3 2 1 1
node 4 3 1 1
node 5 3 1 1
node 6 2 1 1
node 7 3 1 3
node 8 1 0 2
node 9 2 0 2
node 10 3 0 2
node 11 3 0 2
node 12 1 0 0
node 15 1 0 0
gene 3 1 8 -0.841777 0 1 -0.841777 1
gene 1 2 8 0.583605 0 2 0.583605 0
gene 2 3 8 -1.78352 0 3 -1.78352 1
gene 1 4 8 -4.1595 0 4 -4.1595 1
gene 2 5 8 -0.789743 0 5 -0.789743 0
gene 3 6 8 3.80993 0 6 3.80993 1
gene 2 7 8 4.02196 0 7 4.02196 1
gene 2 5 9 1.36583 0 5 1.36583 1
gene 3 6 10 0.532487 0 6 0.532487 1
gene 1 7 11 0.95143 0 7 0.95143 1
gene 1 2 12 1.07364 0 8 1.07364 1
gene 1 12 8 -0.889767 0 9 -0.889767 1
gene 2 5 15 -0.322596 0 17 -0.322596 1
gene 2 15 8 1.17748 0 18 1.17748 1
genomeend 174

/* Organism #146 Fitness: 2.15083 Error: 0 */
genomestart 146
trait 1 1 0 0 0 0.019138 0 0.0145529 0.000359546 
trait 2 0.13125 0.00965237 0.000704072 0.0354663 0.0815258 0.00213975 0.15371 0.0659175 
trait 3 0.288544 0 0.0299596 0.110561 0 0 0 0.16146 
node 1 1 1 1
node 2 1 1 1
node 3 2 1 1
node 4 3 1 1
node 5 3 1 1
node 6 2 1 1
node 7 3 1 3
node 8 1 0 2
node 9 2 0 2
node 10 3 0 2
node 11 3 0 2
node 12 1 0 0
node 15 1 0 0
gene 3 1 8 1.06563 0 1 1.06563 1
gene 1 2 8 -0.637135 0 2 -0.637135 0
gene 2 3 8 -4.2401 0 3 -4.2401 1
gene 1 4 8 -1.67682 0 4 -1.67682 1
gene 2 5 8 1.08814 0 5 1.08814 0
gene 3 6 8 1.92961 0 6 1.92961 1
gene 2 7 8 4.99191 0 7 4.99191 1
gene 2 5 9 3.1536 0 5 3.1536 1
gene 3 6 10 0.187628 0 6 0.187628 1
gene 1 7 11 1.67678 0 7 1.67678 1
gene 1 2 12 -1.16115 0 8 -1.16115 1
gene 1 12 8 1.30848 0 9 1.30848 1
gene 2 5 15 1 0 17 0 1
gene 2 15 8 1.08814 0 18 0 1
genomeend 146

/* Organism #176 Fitness: 1.3974 Error: 0 */
genomestart 176
trait 1 1 0 0 0 0.019138 0 0.0145529 0.000359546 
trait 2 0.13125 0.00965237 0.000704072 0.0354663 0.0815258 0.00213975 0.15371 0.0659175 
trait 3 0.288544 0 0.0299596 0.110561 0 0 0 0.16146 
node 1 1 1 1
node 2 1 1 1
node 3 2 1 1
node 4 3 1 1
node 5 3 1 1
node 6 2 1 1
node 7 3 1 3
node 8 1 0 2
node 9 2 0 2
node 10 3 0 2
node 11 3 0 2
node 12 1 0 0
node 15 1 0 0
gene 3 1 8 0.188375 0 1 0.188375 1
gene 1 2 8 1.24731 0 2 1.24731 0
gene 2 3 8 -1.60453 0 3 -1.60453 1
gene 1 4 8 -3.13431 0 4 -3.13431 1
gene 2 5 8 -0.782647 0 5 -0.782647 0
gene 3 6 8 5.06722 0 6 5.06722 1
gene 2 7 8 6.21838 0 7 6.21838 1
gene 2 5 9 1.24131 0 5 1.24131 1
gene 3 6 10 -1.80012 0 6 -1.80012 1
gene 1 7 11 -0.423124 0 7 -0.423124 1
gene 1 2 12 0.181585 0 8 0.181585 1
gene 1 12 8 -2.02063 0 9 -2.02063 1
gene 2 5 15 0.739372 0 17 0.739372 1
gene 2 15 8 -1.64663 0 18 -1.64663 1
genomeend 176

/* Organism #191 Fitness: 1.81824 Error: 0 */
genomestart 191
trait 1 1 0 0 0 0.019138 0 0.0145529 0.000359546 
trait 2 0.13125 0.00965237 0.000704072 0.0354663 0.0815258 0.00213975 0.15371 0.0659175 
trait 3 0.288544 0 0.0299596 0.110561 0 0 0 0.16146 
node 1 1 1 1
node 2 1 1 1
node 3 2 1 1
node 4 3 1 1
node 5 3 1 1
node 6 2 1 1
node 7 3 1 3
node 8 1 0 2
node 9 2 0 2
node 10 3 0 2
node 11 3 0 2
node 12 1 0 0
node 15 1 0 0
gene 3 1 8 -0.841777 0 1 -0.841777 1
gene 1 2 8 0.583605 0 2 0.583605 0
gene 2 3 8 -1.78352 0 3 -1.78352 1
gene 1 4 8 -4.1595 0 4 -4.1595 1
gene 2 5 8 -0.789743 0 5 -0.789743 0
gene 3 6 8 3.80993 0 6 3.80993 1
gene 2 7 8 4.02196 0 7 4.02196 1
gene 2 5 9 1.36583 0 5 1.36583 1
gene 3 6 10 0.532487 0 6 0.532487 1
gene 1 7 11 0.95143 0 7 0.95143 1
gene 1 2 12 1.07364 0 8 1.07364 1
gene 1 12 8 -0.889767 0 9 -0.889767 1
gene 2 5 15 -0.322596 0 17 -0.322596 1
gene 2 15 8 1.17748 0 18 1.17748 1
gene 2 8 11 0.571734 0 22 0.571734 1
genomeend 191
