
/* Species #1 : (Size 15) (AF 0) (Age 1)  */


/* Organism #1 Fitness: 0 Error: 0 */
genomestart 1
trait 1 0.1 0 0 0 0 0 0 0 
trait 2 0.2 0 0 0 0 0 0 0 
trait 3 0.3 0 0 0 0 0 0 0 
node 1 2 1 1
node 2 3 1 1
node 3 3 1 1
node 4 2 1 1
node 5 1 1 1
node 6 3 1 1
node 7 2 1 3
node 8 3 0 2
node 9 1 0 2
node 10 3 0 2
node 11 1 0 2
gene 3 1 8 0.128574 0 1 0.128574 1
gene 3 2 8 0.532212 0 2 0.532212 1
gene 2 3 8 0.344127 0 3 0.344127 1
gene 3 4 8 0.934965 0 4 0.934965 1
gene 2 5 8 -0.856532 0 5 -0.856532 1
gene 1 6 8 0.639454 0 6 0.639454 1
gene 3 7 8 -0.589007 0 7 -0.589007 1
gene 2 5 9 0.604236 0 5 0.604236 1
gene 2 6 10 0.355235 0 6 0.355235 1
gene 3 7 11 -0.886105 0 7 -0.886105 1
genomeend 1

/* Organism #2 Fitness: 0 Error: 0 */
genomestart 2
trait 1 0.1 0 0 0 0 0 0 0 
trait 2 0.2 0 0 0 0 0 0 0 
trait 3 0.3 0 0 0 0 0 0 0 
node 1 2 1 1
node 2 1 1 1
node 3 1 1 1
node 4 1 1 1
node 5 2 1 1
node 6 2 1 1
node 7 2 1 3
node 8 3 0 2
node 9 3 0 2
node 10 1 0 2
node 11 2 0 2
gene 3 1 8 0.172124 0 1 0.172124 1
gene 2 2 8 -0.550035 0 2 -0.550035 1
gene 1 3 8 0.0384838 0 3 0.0384838 1
gene 1 4 8 -0.983734 0 4 -0.983734 1
gene 2 5 8 0.546464 0 5 0.546464 1
gene 2 6 8 -0.4991 0 6 -0.4991 1
gene 3 7 8 0.58974 0 7 0.58974 1
gene 3 5 9 -0.606586 0 5 -0.606586 1
gene 3 6 10 -0.521348 0 6 -0.521348 1
gene 1 7 11 0.842372 0 7 0.842372 1
genomeend 2

/* Organism #3 Fitness: 0 Error: 0 */
genomestart 3
trait 1 0.1 0 0 0 0 0 0 0 
trait 2 0.2 0 0 0 0 0 0 0 
trait 3 0.3 0 0 0 0 0 0 0 
node 1 2 1 1
node 2 3 1 1
node 3 2 1 1
node 4 2 1 1
node 5 2 1 1
node 6 3 1 1
node 7 2 1 3
node 8 3 0 2
node 9 3 0 2
node 10 3 0 2
node 11 2 0 2
gene 3 1 8 0.0827662 0 1 0.0827662 1
gene 1 2 8 -0.520951 0 2 -0.520951 1
gene 1 3 8 -0.857173 0 3 -0.857173 1
gene 3 4 8 0.450392 0 4 0.450392 1
gene 2 5 8 0.0504471 0 5 0.0504471 1
gene 2 6 8 -0.692312 0 6 -0.692312 1
gene 1 7 8 -0.556078 0 7 -0.556078 1
gene 1 5 9 -0.878597 0 5 -0.878597 1
gene 2 6 10 0.155858 0 6 0.155858 1
gene 1 7 11 -0.364544 0 7 -0.364544 1
genomeend 3

/* Organism #4 Fitness: 0 Error: 0 */
genomestart 4
trait 1 0.1 0 0 0 0 0 0 0 
trait 2 0.2 0 0 0 0 0 0 0 
trait 3 0.3 0 0 0 0 0 0 0 
node 1 2 1 1
node 2 1 1 1
node 3 3 1 1
node 4 2 1 1
node 5 2 1 1
node 6 1 1 1
node 7 2 1 3
node 8 1 0 2
node 9 3 0 2
node 10 1 0 2
node 11 3 0 2
gene 2 1 8 -0.117588 0 1 -0.117588 1
gene 3 2 8 0.851955 0 2 0.851955 1
gene 3 3 8 -0.0351878 0 3 -0.0351878 1
gene 3 4 8 0.264229 0 4 0.264229 1
gene 2 5 8 -0.231758 0 5 -0.231758 1
gene 2 6 8 0.3202 0 6 0.3202 1
gene 3 7 8 0.544603 0 7 0.544603 1
gene 2 5 9 -0.455092 0 5 -0.455092 1
gene 2 6 10 -0.985199 0 6 -0.985199 1
gene 2 7 11 -0.624989 0 7 -0.624989 1
genomeend 4

/* Organism #5 Fitness: 0 Error: 0 */
genomestart 5
trait 1 0.1 0 0 0 0 0 0 0 
trait 2 0.2 0 0 0 0 0 0 0 
trait 3 0.3 0 0 0 0 0 0 0 
node 1 3 1 1
node 2 2 1 1
node 3 1 1 1
node 4 2 1 1
node 5 2 1 1
node 6 1 1 1
node 7 1 1 3
node 8 2 0 2
node 9 3 0 2
node 10 1 0 2
node 11 2 0 2
gene 1 1 8 0.36494 0 1 0.36494 1
gene 2 2 8 0.822138 0 2 0.822138 1
gene 3 3 8 -0.640522 0 3 -0.640522 1
gene 3 4 8 -0.156499 0 4 -0.156499 1
gene 1 5 8 0.501663 0 5 0.501663 1
gene 3 6 8 0.0468459 0 6 0.0468459 1
gene 1 7 8 -0.0647603 0 7 -0.0647603 1
gene 2 5 9 -0.666952 0 5 -0.666952 1
gene 2 6 10 0.028016 0 6 0.028016 1
gene 3 7 11 0.504349 0 7 0.504349 1
genomeend 5

/* Organism #6 Fitness: 0 Error: 0 */
genomestart 6
trait 1 0.1 0 0 0 0 0 0 0 
trait 2 0.2 0 0 0 0 0 0 0 
trait 3 0.3 0 0 0 0 0 0 0 
node 1 2 1 1
node 2 2 1 1
node 3 2 1 1
node 4 1 1 1
node 5 2 1 1
node 6 3 1 1
node 7 3 1 3
node 8 2 0 2
node 9 3 0 2
node 10 3 0 2
node 11 3 0 2
gene 1 1 8 0.19837 0 1 0.19837 1
gene 2 2 8 -0.370342 0 2 -0.370342 1
gene 1 3 8 0.415387 0 3 0.415387 1
gene 3 4 8 0.855892 0 4 0.855892 1
gene 2 5 8 0.0378735 0 5 0.0378735 1
gene 3 6 8 -0.266823 0 6 -0.266823 1
gene 2 7 8 0.790094 0 7 0.790094 1
gene 3 5 9 0.411206 0 5 0.411206 1
gene 3 6 10 0.0699789 0 6 0.0699789 1
gene 1 7 11 -0.737388 0 7 -0.737388 1
genomeend 6

/* Organism #7 Fitness: 0 Error: 0 */
genomestart 7
trait 1 0.1 0 0 0 0 0 0 0 
trait 2 0.2 0 0 0 0 0 0 0 
trait 3 0.3 0 0 0 0 0 0 0 
node 1 2 1 1
node 2 1 1 1
node 3 2 1 1
node 4 2 1 1
node 5 1 1 1
node 6 2 1 1
node 7 1 1 3
node 8 3 0 2
node 9 2 0 2
node 10 3 0 2
node 11 2 0 2
gene 2 1 8 -0.814051 0 1 -0.814051 1
gene 2 2 8 -0.838984 0 2 -0.838984 1
gene 3 3 8 -0.528855 0 3 -0.528855 1
gene 2 4 8 -0.11539 0 4 -0.11539 1
gene 2 5 8 -0.790582 0 5 -0.790582 1
gene 1 6 8 0.783227 0 6 0.783227 1
gene 2 7 8 0.0995514 0 7 0.0995514 1
gene 1 5 9 0.760369 0 5 0.760369 1
gene 1 6 10 -0.806726 0 6 -0.806726 1
gene 1 7 11 0.342936 0 7 0.342936 1
genomeend 7

/* Organism #8 Fitness: 0 Error: 0 */
genomestart 8
trait 1 0.1 0 0 0 0 0 0 0 
trait 2 0.2 0 0 0 0 0 0 0 
trait 3 0.3 0 0 0 0 0 0 0 
node 1 1 1 1
node 2 1 1 1
node 3 3 1 1
node 4 3 1 1
node 5 3 1 1
node 6 1 1 1
node 7 1 1 3
node 8 3 0 2
node 9 1 0 2
node 10 3 0 2
node 11 1 0 2
gene 2 1 8 -0.469863 0 1 -0.469863 1
gene 2 2 8 -0.0904569 0 2 -0.0904569 1
gene 2 3 8 -0.626698 0 3 -0.626698 1
gene 3 4 8 0.0778222 0 4 0.0778222 1
gene 3 5 8 0.361736 0 5 0.361736 1
gene 2 6 8 0.309183 0 6 0.309183 1
gene 1 7 8 0.776605 0 7 0.776605 1
gene 3 5 9 -0.13712 0 5 -0.13712 1
gene 3 6 10 -0.9906 0 6 -0.9906 1
gene 3 7 11 -0.152226 0 7 -0.152226 1
genomeend 8

/* Organism #9 Fitness: 0 Error: 0 */
genomestart 9
trait 1 0.1 0 0 0 0 0 0 0 
trait 2 0.2 0 0 0 0 0 0 0 
trait 3 0.3 0 0 0 0 0 0 0 
node 1 3 1 1
node 2 3 1 1
node 3 3 1 1
node 4 1 1 1
node 5 1 1 1
node 6 1 1 1
node 7 2 1 3
node 8 1 0 2
node 9 1 0 2
node 10 2 0 2
node 11 3 0 2
gene 1 1 8 0.431806 0 1 0.431806 1
gene 3 2 8 -0.666402 0 2 -0.666402 1
gene 1 3 8 -0.201788 0 3 -0.201788 1
gene 3 4 8 -0.0404675 0 4 -0.0404675 1
gene 3 5 8 -0.910489 0 5 -0.910489 1
gene 3 6 8 -0.984558 0 6 -0.984558 1
gene 3 7 8 -0.751885 0 7 -0.751885 1
gene 1 5 9 -0.12421 0 5 -0.12421 1
gene 2 6 10 -0.441053 0 6 -0.441053 1
gene 1 7 11 -0.852229 0 7 -0.852229 1
genomeend 9

/* Organism #10 Fitness: 0 Error: 0 */
genomestart 10
trait 1 0.1 0 0 0 0 0 0 0 
trait 2 0.2 0 0 0 0 0 0 0 
trait 3 0.3 0 0 0 0 0 0 0 
node 1 1 1 1
node 2 1 1 1
node 3 1 1 1
node 4 2 1 1
node 5 2 1 1
node 6 2 1 1
node 7 1 1 3
node 8 2 0 2
node 9 1 0 2
node 10 2 0 2
node 11 3 0 2
gene 1 1 8 0.251289 0 1 0.251289 1
gene 3 2 8 0.195898 0 2 0.195898 1
gene 2 3 8 0.460128 0 3 0.460128 1
gene 3 4 8 0.2537 0 4 0.2537 1
gene 2 5 8 -0.324137 0 5 -0.324137 1
gene 1 6 8 0.466872 0 6 0.466872 1
gene 2 7 8 0.558092 0 7 0.558092 1
gene 2 5 9 -0.108798 0 5 -0.108798 1
gene 3 6 10 0.0150151 0 6 0.0150151 1
gene 2 7 11 -0.359355 0 7 -0.359355 1
genomeend 10

/* Organism #11 Fitness: 0 Error: 0 */
genomestart 11
trait 1 0.1 0 0 0 0 0 0 0 
trait 2 0.2 0 0 0 0 0 0 0 
trait 3 0.3 0 0 0 0 0 0 0 
node 1 3 1 1
node 2 2 1 1
node 3 3 1 1
node 4 2 1 1
node 5 2 1 1
node 6 3 1 1
node 7 1 1 3
node 8 1 0 2
node 9 2 0 2
node 10 2 0 2
node 11 3 0 2
gene 2 1 8 0.476455 0 1 0.476455 1
gene 1 2 8 -0.673788 0 2 -0.673788 1
gene 3 3 8 -0.249397 0 3 -0.249397 1
gene 2 4 8 0.943846 0 4 0.943846 1
gene 3 5 8 0.666616 0 5 0.666616 1
gene 1 6 8 0.0562456 0 6 0.0562456 1
gene 2 7 8 -0.183966 0 7 -0.183966 1
gene 2 5 9 0.86462 0 5 0.86462 1
gene 3 6 10 -0.242347 0 6 -0.242347 1
gene 1 7 11 -0.166051 0 7 -0.166051 1
genomeend 11

/* Organism #12 Fitness: 0 Error: 0 */
genomestart 12
trait 1 0.1 0 0 0 0 0 0 0 
trait 2 0.2 0 0 0 0 0 0 0 
trait 3 0.3 0 0 0 0 0 0 0 
node 1 3 1 1
node 2 1 1 1
node 3 3 1 1
node 4 1 1 1
node 5 3 1 1
node 6 2 1 1
node 7 2 1 3
node 8 2 0 2
node 9 2 0 2
node 10 2 0 2
node 11 3 0 2
gene 2 1 8 -0.071688 0 1 -0.071688 1
gene 3 2 8 0.757927 0 2 0.757927 1
gene 2 3 8 -0.256203 0 3 -0.256203 1
gene 1 4 8 0.614216 0 4 0.614216 1
gene 2 5 8 0.452132 0 5 0.452132 1
gene 2 6 8 -0.320811 0 6 -0.320811 1
gene 2 7 8 0.152409 0 7 0.152409 1
gene 1 5 9 -0.354137 0 5 -0.354137 1
gene 3 6 10 -0.00479141 0 6 -0.00479141 1
gene 1 7 11 0.786828 0 7 0.786828 1
genomeend 12

/* Organism #13 Fitness: 0 Error: 0 */
genomestart 13
trait 1 0.1 0 0 0 0 0 0 0 
trait 2 0.2 0 0 0 0 0 0 0 
trait 3 0.3 0 0 0 0 0 0 0 
node 1 1 1 1
node 2 1 1 1
node 3 2 1 1
node 4 2 1 1
node 5 1 1 1
node 6 2 1 1
node 7 3 1 3
node 8 1 0 2
node 9 2 0 2
node 10 1 0 2
node 11 1 0 2
gene 2 1 8 0.728416 0 1 0.728416 1
gene 2 2 8 -0.344676 0 2 -0.344676 1
gene 1 3 8 -0.612445 0 3 -0.612445 1
gene 2 4 8 0.394879 0 4 0.394879 1
gene 1 5 8 -0.699087 0 5 -0.699087 1
gene 2 6 8 -0.989135 0 6 -0.989135 1
gene 2 7 8 -0.291696 0 7 -0.291696 1
gene 1 5 9 -0.749199 0 5 -0.749199 1
gene 1 6 10 -0.0108036 0 6 -0.0108036 1
gene 2 7 11 0.479843 0 7 0.479843 1
genomeend 13

/* Organism #14 Fitness: 0 Error: 0 */
genomestart 14
trait 1 0.1 0 0 0 0 0 0 0 
trait 2 0.2 0 0 0 0 0 0 0 
trait 3 0.3 0 0 0 0 0 0 0 
node 1 1 1 1
node 2 1 1 1
node 3 2 1 1
node 4 3 1 1
node 5 1 1 1
node 6 3 1 1
node 7 3 1 3
node 8 2 0 2
node 9 1 0 2
node 10 2 0 2
node 11 1 0 2
gene 1 1 8 0.0371105 0 1 0.0371105 1
gene 2 2 8 0.713858 0 2 0.713858 1
gene 2 3 8 -0.771294 0 3 -0.771294 1
gene 2 4 8 -0.0263375 0 4 -0.0263375 1
gene 2 5 8 0.282266 0 5 0.282266 1
gene 3 6 8 -0.0748924 0 6 -0.0748924 1
gene 3 7 8 0.242622 0 7 0.242622 1
gene 2 5 9 -0.717917 0 5 -0.717917 1
gene 3 6 10 -0.629231 0 6 -0.629231 1
gene 1 7 11 0.00592059 0 7 0.00592059 1
genomeend 14

/* Organism #15 Fitness: 0 Error: 0 */
genomestart 15
trait 1 0.1 0 0 0 0 0 0 0 
trait 2 0.2 0 0 0 0 0 0 0 
trait 3 0.3 0 0 0 0 0 0 0 
node 1 3 1 1
node 2 2 1 1
node 3 2 1 1
node 4 3 1 1
node 5 2 1 1
node 6 2 1 1
node 7 1 1 3
node 8 2 0 2
node 9 3 0 2
node 10 1 0 2
node 11 2 0 2
gene 1 1 8 -0.972045 0 1 -0.972045 1
gene 1 2 8 -0.728019 0 2 -0.728019 1
gene 3 3 8 0.599261 0 3 0.599261 1
gene 2 4 8 -0.490371 0 4 -0.490371 1
gene 1 5 8 0.931883 0 5 0.931883 1
gene 2 6 8 -0.451765 0 6 -0.451765 1
gene 2 7 8 -0.834254 0 7 -0.834254 1
gene 3 5 9 -0.673696 0 5 -0.673696 1
gene 2 6 10 0.400189 0 6 0.400189 1
gene 2 7 11 0.860805 0 7 0.860805 1
genomeend 15
