
/* Species #1 : (Size 15) (AF 0) (Age 1)  */


/* Organism #40 Fitness: 2.98044 Error: 0 */
genomestart 40
trait 1 0.1 0 0 0 0.019138 0 0.0145529 0.000359546 
trait 2 0.13125 0.00965237 0.000704072 0.0354663 0.0815258 0.00213975 0.15371 0.0659175 
trait 3 0.288544 0 0.0299596 0.110561 0 0 0 0.16146 
node 1 3 1 1
node 2 1 1 1
node 3 2 1 1
node 4 3 1 1
node 5 1 1 1
node 6 2 1 1
node 7 3 1 3
node 8 1 0 2
node 9 3 0 2
node 10 3 0 2
node 11 3 0 2
gene 1 1 8 1.62278 0 1 1.62278 1
gene 3 2 8 2.64904 0 2 2.64904 1
gene 1 3 8 -0.720542 0 3 -0.720542 1
gene 3 4 8 0.565538 0 4 0.565538 1
gene 1 5 8 -1.39856 0 5 -1.39856 1
gene 3 6 8 -0.647679 0 6 -0.647679 1
gene 3 7 8 0.624195 0 7 0.624195 1
gene 2 5 9 -1.83584 0 5 -1.83584 1
gene 2 6 10 2.38821 0 6 2.38821 1
gene 1 7 11 1.58986 0 7 1.58986 1
genomeend 40

/* Organism #13 Fitness: 2.91765 Error: 0 */
genomestart 13
trait 1 0.1 0 0 0 0.019138 0 0.0145529 0.000359546 
trait 2 0.13125 0.00965237 0.000704072 0.0354663 0.0815258 0.00213975 0.15371 0.0659175 
trait 3 0.288544 0 0.0299596 0.110561 0 0 0 0.16146 
node 1 3 1 1
node 2 1 1 1
node 3 2 1 1
node 4 3 1 1
node 5 1 1 1
node 6 2 1 1
node 7 3 1 3
node 8 1 0 2
node 9 3 0 2
node 10 3 0 2
node 11 3 0 2
gene 1 1 8 -0.254494 0 1 -0.254494 1
gene 3 2 8 0.45613 0 2 0.45613 1
gene 1 3 8 -0.625141 0 3 -0.625141 1
gene 3 4 8 0.24662 0 4 0.24662 1
gene 1 5 8 0.292398 0 5 0.292398 1
gene 3 6 8 -0.194708 0 6 -0.194708 1
gene 3 7 8 0.624195 0 7 0.624195 1
gene 2 5 9 -0.216681 0 5 -0.216681 1
gene 2 6 10 0.368572 0 6 0.368572 1
gene 1 7 11 0.979186 0 7 0.979186 1
genomeend 13

/* Organism #14 Fitness: 2.8656 Error: 0 */
genomestart 14
trait 1 0.1 0 0 0 0.019138 0 0.0145529 0.000359546 
trait 2 0.13125 0.00965237 0.000704072 0.0354663 0.0815258 0.00213975 0.15371 0.0659175 
trait 3 0.288544 0 0.0299596 0.110561 0 0 0 0.16146 
node 1 3 1 1
node 2 1 1 1
node 3 1 1 1
node 4 1 1 1
node 5 2 1 1
node 6 3 1 1
node 7 1 1 3
node 8 1 0 2
node 9 1 0 2
node 10 3 0 2
node 11 2 0 2
gene 3 1 8 0.395978 0 1 0.395978 1
gene 2 2 8 -0.654134 0 2 -0.654134 1
gene 2 3 8 0.0920743 0 3 0.0920743 1
gene 3 4 8 -0.539354 0 4 -0.539354 1
gene 2 5 8 -0.894436 0 5 -0.894436 1
gene 3 6 8 -0.903592 0 6 -0.903592 1
gene 3 7 8 0.717978 0 7 0.717978 1
gene 2 5 9 0.277535 0 5 0.277535 1
gene 2 6 10 0.051912 0 6 0.051912 1
gene 3 7 11 0.756493 0 7 0.756493 1
genomeend 14

/* Organism #11 Fitness: 2.85113 Error: 0 */
genomestart 11
trait 1 0.1 0 0 0 0.019138 0 0.0145529 0.000359546 
trait 2 0.13125 0.00965237 0.000704072 0.0354663 0.0815258 0.00213975 0.15371 0.0659175 
trait 3 0.288544 0 0.0299596 0.110561 0 0 0 0.16146 
node 1 1 1 1
node 2 1 1 1
node 3 1 1 1
node 4 1 1 1
node 5 1 1 1
node 6 1 1 1
node 7 1 1 3
node 8 2 0 2
node 9 3 0 2
node 10 1 0 2
node 11 3 0 2
gene 2 1 8 -0.824915 0 1 -0.824915 1
gene 3 2 8 -0.394269 0 2 -0.394269 1
gene 1 3 8 -0.689383 0 3 -0.689383 1
gene 3 4 8 0.760735 0 4 0.760735 1
gene 3 5 8 0.0518204 0 5 0.0518204 1
gene 1 6 8 -0.704337 0 6 -0.704337 1
gene 1 7 8 -0.593524 0 7 -0.593524 1
gene 1 5 9 0.248299 0 5 0.248299 1
gene 3 6 10 0.547319 0 6 0.547319 1
gene 3 7 11 0.708121 0 7 0.708121 1
genomeend 11

/* Organism #7 Fitness: 2.80278 Error: 0 */
genomestart 7
trait 1 0.1 0 0 0 0.019138 0 0.0145529 0.000359546 
trait 2 0.13125 0.00965237 0.000704072 0.0354663 0.0815258 0.00213975 0.15371 0.0659175 
trait 3 0.288544 0 0.0299596 0.110561 0 0 0 0.16146 
node 1 2 1 1
node 2 2 1 1
node 3 3 1 1
node 4 1 1 1
node 5 2 1 1
node 6 2 1 1
node 7 1 1 3
node 8 1 0 2
node 9 1 0 2
node 10 2 0 2
node 11 2 0 2
gene 1 1 8 -0.273476 0 1 -0.273476 1
gene 2 2 8 -0.227699 0 2 -0.227699 1
gene 3 3 8 0.368633 0 3 0.368633 1
gene 2 4 8 -0.584613 0 4 -0.584613 1
gene 1 5 8 -0.812067 0 5 -0.812067 1
gene 2 6 8 -0.198462 0 6 -0.198462 1
gene 2 7 8 -0.794977 0 7 -0.794977 1
gene 1 5 9 0.829951 0 5 0.829951 1
gene 3 6 10 0.52266 0 6 0.52266 1
gene 2 7 11 0.570147 0 7 0.570147 1
genomeend 7

/* Organism #15 Fitness: 2.76135 Error: 0 */
genomestart 15
trait 1 0.1 0 0 0 0.019138 0 0.0145529 0.000359546 
trait 2 0.13125 0.00965237 0.000704072 0.0354663 0.0815258 0.00213975 0.15371 0.0659175 
trait 3 0.288544 0 0.0299596 0.110561 0 0 0 0.16146 
node 1 2 1 1
node 2 2 1 1
node 3 3 1 1
node 4 1 1 1
node 5 3 1 1
node 6 2 1 1
node 7 2 1 3
node 8 2 0 2
node 9 1 0 2
node 10 1 0 2
node 11 2 0 2
gene 3 1 8 -0.688101 0 1 -0.688101 1
gene 1 2 8 0.251289 0 2 0.251289 1
gene 1 3 8 0.123203 0 3 0.123203 1
gene 1 4 8 0.483047 0 4 0.483047 1
gene 1 5 8 -0.902799 0 5 -0.902799 1
gene 2 6 8 0.407117 0 6 0.407117 1
gene 2 7 8 -0.366863 0 7 -0.366863 1
gene 2 5 9 0.701987 0 5 0.701987 1
gene 1 6 10 -0.185675 0 6 -0.185675 1
gene 2 7 11 0.471175 0 7 0.471175 1
genomeend 15

/* Organism #29 Fitness: 2.71986 Error: 0 */
genomestart 29
trait 1 0.1 0 0 0 0.019138 0 0.0145529 0.000359546 
trait 2 0.13125 0.00965237 0.000704072 0.0354663 0.0815258 0.00213975 0.15371 0.0659175 
trait 3 0.288544 0 0.0299596 0.110561 0 0 0 0.16146 
node 1 3 1 1
node 2 1 1 1
node 3 1 1 1
node 4 1 1 1
node 5 2 1 1
node 6 3 1 1
node 7 1 1 3
node 8 1 0 2
node 9 1 0 2
node 10 3 0 2
node 11 2 0 2
gene 3 1 8 -2.65694 0 1 -2.65694 1
gene 2 2 8 0.490158 0 2 0.490158 1
gene 2 3 8 -0.595744 0 3 -0.595744 1
gene 3 4 8 -2.91632 0 4 -2.91632 1
gene 2 5 8 -1.35732 0 5 -1.35732 1
gene 1 6 8 0.933554 0 6 0.933554 1
gene 3 7 8 2.91635 0 7 2.91635 1
gene 2 5 9 1.28748 0 5 1.28748 1
gene 2 6 10 2.26716 0 6 2.26716 1
gene 3 7 11 0.38332 0 7 0.38332 1
genomeend 29

/* Organism #19 Fitness: 2.50625 Error: 0 */
genomestart 19
trait 1 0.1 0 0 0 0.019138 0 0.0145529 0.000359546 
trait 2 0.13125 0.00965237 0.000704072 0.0354663 0.0815258 0.00213975 0.15371 0.0659175 
trait 3 0.288544 0 0.0299596 0.110561 0 0 0 0.16146 
node 1 1 1 1
node 2 1 1 1
node 3 1 1 1
node 4 1 1 1
node 5 1 1 1
node 6 1 1 1
node 7 1 1 3
node 8 2 0 2
node 9 3 0 2
node 10 1 0 2
node 11 3 0 2
gene 3 1 8 -1.5099 0 1 -1.5099 1
gene 2 2 8 1.37397 0 2 1.37397 1
gene 1 3 8 0.352687 0 3 0.352687 1
gene 3 4 8 -1.84317 0 4 -1.84317 1
gene 2 5 8 -1.99629 0 5 -1.99629 1
gene 1 6 8 0.700934 0 6 0.700934 1
gene 1 7 8 1.71236 0 7 1.71236 1
gene 2 5 9 0.262917 0 5 0.262917 1
gene 2 6 10 2.12317 0 6 2.12317 1
gene 3 7 11 0.0101474 0 7 0.0101474 1
genomeend 19

/* Organism #4 Fitness: 1.99253 Error: 0 */
genomestart 4
trait 1 0.1 0 0 0 0.019138 0 0.0145529 0.000359546 
trait 2 0.13125 0.00965237 0.000704072 0.0354663 0.0815258 0.00213975 0.15371 0.0659175 
trait 3 0.288544 0 0.0299596 0.110561 0 0 0 0.16146 
node 1 1 1 1
node 2 2 1 1
node 3 2 1 1
node 4 1 1 1
node 5 3 1 1
node 6 3 1 1
node 7 1 1 3
node 8 2 0 2
node 9 3 0 2
node 10 2 0 2
node 11 3 0 2
gene 2 1 8 0.264168 0 1 0.264168 1
gene 2 2 8 -0.862606 0 2 -0.862606 1
gene 3 3 8 0.925962 0 3 0.925962 1
gene 1 4 8 0.538347 0 4 0.538347 1
gene 1 5 8 -3.34283 0 5 -3.34283 1
gene 1 6 8 0.434874 0 6 0.434874 1
gene 2 7 8 -0.962401 0 7 -0.962401 1
gene 3 5 9 0.850856 0 5 0.850856 1
gene 2 6 10 -1.21972 0 6 -1.21972 1
gene 3 7 11 1.98581 0 7 1.98581 1
genomeend 4

/* Organism #2 Fitness: 1.97233 Error: 0 */
genomestart 2
trait 1 0.1 0 0 0 0.019138 0 0.0145529 0.000359546 
trait 2 0.13125 0.00965237 0.000704072 0.0354663 0.0815258 0.00213975 0.15371 0.0659175 
trait 3 0.288544 0 0.0299596 0.110561 0 0 0 0.16146 
node 1 1 1 1
node 2 2 1 1
node 3 1 1 1
node 4 1 1 1
node 5 2 1 1
node 6 2 1 1
node 7 3 1 3
node 8 2 0 2
node 9 3 0 2
node 10 2 0 2
node 11 3 0 2
gene 1 1 8 -1.47551 0 1 -1.47551 1
gene 1 2 8 1.1084 0 2 1.1084 1
gene 1 3 8 -0.853267 0 3 -0.853267 1
gene 1 4 8 -2.18273 0 4 -2.18273 1
gene 3 5 8 -1.83636 0 5 -1.83636 1
gene 1 6 8 -0.0934324 0 6 -0.0934324 1
gene 2 7 8 -0.586245 0 7 -0.586245 1
gene 1 5 9 -0.104953 0 5 -0.104953 1
gene 3 6 10 1.48012 0 6 1.48012 1
gene 3 7 11 1.44563 0 7 1.44563 1
genomeend 2

/* Organism #3 Fitness: 1.96711 Error: 0 */
genomestart 3
trait 1 0.1 0 0 0 0.019138 0 0.0145529 0.000359546 
trait 2 0.13125 0.00965237 0.000704072 0.0354663 0.0815258 0.00213975 0.15371 0.0659175 
trait 3 0.288544 0 0.0299596 0.110561 0 0 0 0.16146 
node 1 1 1 1
node 2 2 1 1
node 3 2 1 1
node 4 1 1 1
node 5 3 1 1
node 6 3 1 1
node 7 1 1 3
node 8 2 0 2
node 9 3 0 2
node 10 2 0 2
node 11 3 0 2
gene 2 1 8 -1.01524 0 1 -1.01524 1
gene 2 2 8 -0.0631733 0 2 -0.0631733 1
gene 3 3 8 1.87967 0 3 1.87967 1
gene 1 4 8 -1.25469 0 4 -1.25469 1
gene 1 5 8 0.184881 0 5 0.184881 1
gene 1 6 8 -0.0633412 0 6 -0.0633412 1
gene 2 7 8 -1.08562 0 7 -1.08562 1
gene 3 5 9 0.212241 0 5 0.212241 1
gene 2 6 10 -0.95996 0 6 -0.95996 1
gene 3 7 11 1.37323 0 7 1.37323 1
genomeend 3

/* Organism #6 Fitness: 1.62434 Error: 0 */
genomestart 6
trait 1 0.1 0 0 0 0.019138 0 0.0145529 0.000359546 
trait 2 0.13125 0.00965237 0.000704072 0.0354663 0.0815258 0.00213975 0.15371 0.0659175 
trait 3 0.288544 0 0.0299596 0.110561 0 0 0 0.16146 
node 1 2 1 1
node 2 2 1 1
node 3 3 1 1
node 4 1 1 1
node 5 2 1 1
node 6 2 1 1
node 7 1 1 3
node 8 1 0 2
node 9 1 0 2
node 10 2 0 2
node 11 2 0 2
gene 1 1 8 -1.48837 0 1 -1.48837 1
gene 3 2 8 -0.125111 0 2 -0.125111 1
gene 3 3 8 0.0760826 0 3 0.0760826 1
gene 2 4 8 -2.07321 0 4 -2.07321 1
gene 1 5 8 1.38948 0 5 1.38948 1
gene 2 6 8 -2.43327 0 6 -2.43327 1
gene 2 7 8 1.6505 0 7 1.6505 1
gene 3 5 9 -0.775887 0 5 -0.775887 1
gene 3 6 10 2.15239 0 6 2.15239 1
gene 3 7 11 0.206336 0 7 0.206336 1
genomeend 6

/* Organism #0 Fitness: 1.25098 Error: 0 */
genomestart 0
trait 1 0.1 0 0 0 0.019138 0 0.0145529 0.000359546 
trait 2 0.13125 0.00965237 0.000704072 0.0354663 0.0815258 0.00213975 0.15371 0.0659175 
trait 3 0.288544 0 0.0299596 0.110561 0 0 0 0.16146 
node 1 2 1 1
node 2 3 1 1
node 3 3 1 1
node 4 1 1 1
node 5 1 1 1
node 6 3 1 1
node 7 3 1 3
node 8 2 0 2
node 9 2 0 2
node 10 1 0 2
node 11 1 0 2
gene 3 1 8 -1.33193 0 1 -1.33193 1
gene 1 2 8 0.350429 0 2 0.350429 1
gene 2 3 8 -1.64534 0 3 -1.64534 1
gene 2 4 8 -0.338603 0 4 -0.338603 1
gene 2 5 8 2.19721 0 5 2.19721 1
gene 2 6 8 -1.48048 0 6 -1.48048 1
gene 1 7 8 0.0578936 0 7 0.0578936 1
gene 2 5 9 1.56906 0 5 1.56906 1
gene 1 6 10 -1.70638 0 6 -1.70638 1
gene 1 7 11 -0.44409 0 7 -0.44409 1
genomeend 0

/* Organism #5 Fitness: 1.03843 Error: 0 */
genomestart 5
trait 1 0.1 0 0 0 0.019138 0 0.0145529 0.000359546 
trait 2 0.13125 0.00965237 0.000704072 0.0354663 0.0815258 0.00213975 0.15371 0.0659175 
trait 3 0.288544 0 0.0299596 0.110561 0 0 0 0.16146 
node 1 1 1 1
node 2 2 1 1
node 3 2 1 1
node 4 1 1 1
node 5 3 1 1
node 6 3 1 1
node 7 1 1 3
node 8 2 0 2
node 9 3 0 2
node 10 2 0 2
node 11 3 0 2
gene 1 1 8 0.0917386 0 1 0.0917386 1
gene 2 2 8 -1.6551 0 2 -1.6551 1
gene 3 3 8 2.18584 0 3 2.18584 1
gene 1 4 8 0.834376 0 4 0.834376 1
gene 1 5 8 -3.33062 0 5 -3.33062 1
gene 1 6 8 0.783685 0 6 0.783685 1
gene 1 7 8 2.80251 0 7 2.80251 1
gene 3 5 9 -1.36175 0 5 -1.36175 1
gene 3 6 10 1.38482 0 6 1.38482 1
gene 3 7 11 -1.30772 0 7 -1.30772 1
genomeend 5

/* Organism #41 Fitness: 1.01515 Error: 0 */
/* ##------$ WINNER 41 SPECIES #1 $------## */
genomestart 41
trait 1 0.1 0 0 0 0.019138 0 0.0145529 0.000359546 
trait 2 0.13125 0.482659 0 0.790372 0.0815258 0.00213975 0.15371 0.0659175 
trait 3 0.288544 0 0.0299596 0.110561 0 0 0 0.16146 
node 1 3 1 1
node 2 1 1 1
node 3 2 1 1
node 4 3 1 1
node 5 1 1 1
node 6 2 1 1
node 7 3 1 3
node 8 1 0 2
node 9 3 0 2
node 10 3 0 2
node 11 3 0 2
gene 3 1 8 2.0163 0 1 2.0163 1
gene 2 2 8 0.710959 0 2 0.710959 1
gene 2 3 8 -1.31706 0 3 -1.31706 1
gene 3 4 8 0.005768 0 4 0.005768 1
gene 1 5 8 0.298517 0 5 0.298517 1
gene 3 6 8 -0.54915 0 6 -0.54915 1
gene 3 7 8 1.56948 0 7 1.56948 1
gene 2 5 9 1.1545 0 5 1.1545 1
gene 2 6 10 2.4706 0 6 2.4706 1
gene 1 7 11 0.603854 0 7 0.603854 1
genomeend 41
