
/* Species #1 : (Size 8) (AF 0) (Age 1)  */


/* Organism #2 Fitness: 3.97867 Error: 0 */
genomestart 2
trait 1 0.1 0 0 0 0.019138 0 0.0145529 0.000359546 
trait 2 0.13125 0.00965237 0.000704072 0.0354663 0.0815258 0.00213975 0.15371 0.0659175 
trait 3 0.288544 0 0.0299596 0.110561 0 0 0 0.16146 
node 1 1 1 1
node 2 3 1 1
node 3 2 1 1
node 4 1 1 1
node 5 3 1 1
node 6 3 1 1
node 7 1 1 3
node 8 3 0 2
node 9 3 0 2
node 10 1 0 2
node 11 1 0 2
gene 1 1 8 -2.27844 0 1 -2.27844 1
gene 1 2 8 1.94131 0 2 1.94131 1
gene 2 3 8 0.492874 0 3 0.492874 1
gene 1 4 8 -0.0917692 0 4 -0.0917692 1
gene 2 5 8 0.62328 0 5 0.62328 1
gene 3 6 8 1.91801 0 6 1.91801 1
gene 1 7 8 -2.43347 0 7 -2.43347 1
gene 2 5 9 0.28019 0 5 0.28019 1
gene 2 6 10 2.03711 0 6 2.03711 1
gene 3 7 11 1.55405 0 7 1.55405 1
genomeend 2

/* Organism #8 Fitness: 3.97867 Error: 0 */
genomestart 8
trait 1 0.1 0 0 0 0.019138 0 0.0145529 0.000359546 
trait 2 0.13125 0.00965237 0.000704072 0.0354663 0.0815258 0.00213975 0.15371 0.0659175 
trait 3 0.288544 0 0.0299596 0.110561 0 0 0 0.16146 
node 1 1 1 1
node 2 3 1 1
node 3 2 1 1
node 4 1 1 1
node 5 3 1 1
node 6 3 1 1
node 7 1 1 3
node 8 3 0 2
node 9 3 0 2
node 10 1 0 2
node 11 1 0 2
gene 3 1 8 -1.74633 0 1 -1.74633 1
gene 2 2 8 1.43666 0 2 1.43666 1
gene 2 3 8 0.492874 0 3 0.492874 1
gene 1 4 8 -0.0917692 0 4 -0.0917692 1
gene 2 5 8 -0.366771 0 5 -0.366771 1
gene 3 6 8 1.91801 0 6 1.91801 1
gene 1 7 8 -2.43347 0 7 -2.43347 1
gene 1 5 9 2.45831 0 5 2.45831 1
gene 2 6 10 2.03711 0 6 2.03711 1
gene 3 7 11 1.55405 0 7 1.55405 1
genomeend 8

/* Organism #3 Fitness: 3 Error: 0 */
genomestart 3
trait 1 0.1 0 0 0 0.019138 0 0.0145529 0.000359546 
trait 2 0.13125 0.00965237 0.000704072 0.0354663 0.0815258 0.00213975 0.15371 0.0659175 
trait 3 0.288544 0 0.0299596 0.110561 0 0 0 0.16146 
node 1 1 1 1
node 2 3 1 1
node 3 2 1 1
node 4 1 1 1
node 5 3 1 1
node 6 3 1 1
node 7 1 1 3
node 8 3 0 2
node 9 3 0 2
node 10 1 0 2
node 11 1 0 2
gene 1 1 8 -0.162175 0 1 -0.162175 1
gene 1 2 8 0.710959 0 2 0.710959 1
gene 2 3 8 -0.701895 0 3 -0.701895 1
gene 1 4 8 0.0318308 0 4 0.0318308 1
gene 2 5 8 0.176946 0 5 0.176946 1
gene 3 6 8 0.316782 0 6 0.316782 1
gene 1 7 8 -0.36491 0 7 -0.36491 1
gene 2 5 9 0.470626 0 5 0.470626 1
gene 2 6 10 0.57445 0 6 0.57445 1
gene 3 7 11 0.757134 0 7 0.757134 1
gene 3 3 11 -0.554277 0 8 -0.554277 1
genomeend 3

/* Organism #9 Fitness: 2.97867 Error: 0 */
genomestart 9
trait 1 0.1 0 0 0 0.019138 0 0.0145529 0.000359546 
trait 2 0.13125 0.00965237 0.000704072 0.0354663 0.0815258 0.00213975 0.15371 0.0659175 
trait 3 0.288544 0 0.0299596 0.110561 0 0 0 0.16146 
node 1 1 1 1
node 2 3 1 1
node 3 2 1 1
node 4 1 1 1
node 5 3 1 1
node 6 3 1 1
node 7 1 1 3
node 8 3 0 2
node 9 3 0 2
node 10 1 0 2
node 11 1 0 2
gene 1 1 8 -0.201926 0 1 -0.201926 1
gene 1 2 8 1.45401 0 2 1.45401 1
gene 2 3 8 0.671407 0 3 0.671407 1
gene 1 4 8 1.72111 0 4 1.72111 1
gene 2 5 8 1.30392 0 5 1.30392 1
gene 3 6 8 4.08376 0 6 4.08376 1
gene 1 7 8 -2.1523 0 7 -2.1523 1
gene 2 5 9 0.151021 0 5 0.151021 1
gene 2 6 10 -1.47945 0 6 -1.47945 1
gene 3 7 11 1.55405 0 7 1.55405 1
genomeend 9

/* Organism #5 Fitness: 2.28221 Error: 0 */
genomestart 5
trait 1 0.1 0 0 0 0.019138 0 0.0145529 0.000359546 
trait 2 0.13125 0.00965237 0.000704072 0.0354663 0.0815258 0.00213975 0.15371 0.0659175 
trait 3 0.288544 0 0.0299596 0.110561 0 0 0 0.16146 
node 1 1 1 1
node 2 2 1 1
node 3 1 1 1
node 4 3 1 1
node 5 1 1 1
node 6 1 1 1
node 7 1 1 3
node 8 1 0 2
node 9 3 0 2
node 10 1 0 2
node 11 3 0 2
gene 3 1 8 -0.874401 0 1 -0.874401 1
gene 1 2 8 -2.67164 0 2 -2.67164 1
gene 1 3 8 -2.0819 0 3 -2.0819 1
gene 3 4 8 1.43942 0 4 1.43942 1
gene 3 5 8 -0.762856 0 5 -0.762856 1
gene 3 6 8 -0.890698 0 6 -0.890698 1
gene 1 7 8 -0.632664 0 7 -0.632664 1
gene 2 5 9 3.27287 0 5 3.27287 1
gene 2 6 10 0.0463576 0 6 0.0463576 1
gene 2 7 11 -0.379162 0 7 -0.379162 1
genomeend 5

/* Organism #6 Fitness: 1.54139 Error: 0 */
genomestart 6
trait 1 0.1 0 0 0 0.019138 0 0.0145529 0.000359546 
trait 2 0.13125 0.00965237 0.000704072 0.0354663 0.0815258 0.00213975 0.15371 0.0659175 
trait 3 0.288544 0 0.0299596 0.110561 0 0 0 0.16146 
node 1 2 1 1
node 2 2 1 1
node 3 1 1 1
node 4 3 1 1
node 5 2 1 1
node 6 2 1 1
node 7 2 1 3
node 8 2 0 2
node 9 3 0 2
node 10 3 0 2
node 11 2 0 2
gene 3 1 8 -0.783456 0 1 -0.783456 1
gene 1 2 8 2.4057 0 2 2.4057 1
gene 1 3 8 0.812204 0 3 0.812204 1
gene 3 4 8 1.19695 0 4 1.19695 1
gene 3 5 8 1.08441 0 5 1.08441 1
gene 2 6 8 -1.52216 0 6 -1.52216 1
gene 1 7 8 0.22544 0 7 0.22544 1
gene 2 5 9 -0.032899 0 5 -0.032899 1
gene 2 6 10 -0.156438 0 6 -0.156438 1
gene 2 7 11 0.0674001 0 7 0.0674001 1
genomeend 6

/* Organism #7 Fitness: 1.52125 Error: 0 */
genomestart 7
trait 1 0.1 0 0 0 0.019138 0 0.0145529 0.000359546 
trait 2 0.13125 0.00965237 0.000704072 0.0354663 0.0815258 0.00213975 0.15371 0.0659175 
trait 3 0.288544 0 0.0299596 0.110561 0 0 0 0.16146 
node 1 1 1 1
node 2 3 1 1
node 3 1 1 1
node 4 3 1 1
node 5 2 1 1
node 6 3 1 1
node 7 3 1 3
node 8 3 0 2
node 9 3 0 2
node 10 2 0 2
node 11 3 0 2
gene 3 1 8 -0.527345 0 1 -0.527345 1
gene 2 2 8 1.32916 0 2 1.32916 1
gene 2 3 8 -1.76519 0 3 -1.76519 1
gene 1 4 8 2.8574 0 4 2.8574 1
gene 2 5 8 -0.982025 0 5 -0.982025 1
gene 1 6 8 -0.354961 0 6 -0.354961 1
gene 1 7 8 1.52692 0 7 1.52692 1
gene 1 5 9 -1.47923 0 5 -1.47923 1
gene 3 6 10 -0.0147404 0 6 -0.0147404 1
gene 2 7 11 0.034547 0 7 0.034547 1
genomeend 7

/* Organism #10 Fitness: 1.08376 Error: 0 */
/* ##------$ WINNER 10 SPECIES #1 $------## */
genomestart 10
trait 1 0.1 0 0 0 0.019138 0 0.0145529 0.000359546 
trait 2 0.13125 0.00965237 0.000704072 0.0354663 0.0815258 0.00213975 0.15371 0.0659175 
trait 3 0.288544 0 0.0299596 0.110561 0 0 0 0.16146 
node 1 1 1 1
node 2 3 1 1
node 3 2 1 1
node 4 1 1 1
node 5 3 1 1
node 6 3 1 1
node 7 1 1 3
node 8 3 0 2
node 9 3 0 2
node 10 1 0 2
node 11 1 0 2
gene 3 1 8 -2.04336 0 1 -2.04336 1
gene 1 2 8 0.45436 0 2 0.45436 1
gene 2 3 8 2.1981 0 3 2.1981 1
gene 1 4 8 -0.703284 0 4 -0.703284 1
gene 2 5 8 -2.07282 0 5 -2.07282 1
gene 3 6 8 4.38398 0 6 4.38398 1
gene 1 7 8 -2.04794 0 7 -2.04794 1
gene 1 5 9 -0.888966 0 5 -0.888966 1
gene 2 6 10 0.646306 0 6 0.646306 1
gene 3 7 11 -0.838069 0 7 -0.838069 1
genomeend 10
