
/* Species #1 : (Size 2) (AF 0) (Age 1)  */


/* Organism #2 Fitness: 9089.29 Error: 0 */
genomestart 2
trait 1 0.1 0 0 0 0.019138 0 0.0145529 0.000359546 
trait 2 0.13125 0.00965237 0.000704072 0.0354663 0.0815258 0.00213975 0.15371 0.0659175 
trait 3 0.288544 0 0.0299596 0.110561 0 0 0 0.16146 
node 1 1 1 1
node 2 2 1 1
node 3 3 1 1
node 4 2 1 1
node 5 3 1 1
node 6 3 1 1
node 7 3 1 1
node 8 2 1 1
node 9 2 1 1
node 10 1 1 1
node 11 2 1 3
node 12 1 0 2
node 13 3 0 2
node 14 2 0 2
node 15 1 0 2
gene 2 1 12 0.439467 0 1 0.439467 1
gene 2 2 12 -0.0214545 0 2 -0.0214545 1
gene 3 3 12 -0.79162 0 3 -0.79162 1
gene 2 4 12 -0.70571 0 4 -0.70571 1
gene 3 5 12 0.56148 0 5 0.56148 1
gene 2 6 12 -0.752312 0 2 -0.752312 1
gene 3 7 12 -0.337016 0 3 -0.337016 1
gene 1 8 12 -0.572497 0 4 -0.572497 1
gene 2 9 12 0.259865 0 5 0.259865 1
gene 2 10 12 -0.461226 0 6 -0.461226 1
gene 3 11 12 -0.550645 0 7 -0.550645 1
gene 1 12 13 -0.625599 0 5 -0.625599 1
gene 1 13 14 -0.358684 0 6 -0.358684 1
gene 2 11 15 -0.669637 0 7 -0.669637 1
genomeend 2

/* Organism #0 Fitness: 8621.85 Error: 0 */
/* ##------$ WINNER 0 SPECIES #1 $------## */
genomestart 0
trait 1 0.1 0 0 0 0.019138 0 0.0145529 0.000359546 
trait 2 0.13125 0.00965237 0.000704072 0.0354663 0.0815258 0.00213975 0.15371 0.0659175 
trait 3 0.288544 0 0.0299596 0.110561 0 0 0 0.16146 
node 1 1 1 1
node 2 2 1 1
node 3 3 1 1
node 4 2 1 1
node 5 3 1 1
node 6 3 1 1
node 7 3 1 1
node 8 2 1 1
node 9 2 1 1
node 10 1 1 1
node 11 2 1 3
node 12 1 0 2
node 13 3 0 2
node 14 2 0 2
node 15 1 0 2
node 16 1 0 0
gene 2 1 12 0.439467 0 1 0.439467 1
gene 2 2 12 -0.0214545 0 2 -0.0214545 1
gene 3 3 12 -0.79162 0 3 -0.79162 1
gene 2 4 12 -0.70571 0 4 -0.70571 1
gene 3 5 12 0.56148 0 5 0.56148 1
gene 2 6 12 -0.752312 0 2 -0.752312 0
gene 3 7 12 -0.337016 0 3 -0.337016 1
gene 1 8 12 -0.572497 0 4 -0.572497 1
gene 2 9 12 0.259865 0 5 0.259865 1
gene 2 10 12 -0.461226 0 6 -0.461226 1
gene 3 11 12 -0.550645 0 7 -0.550645 1
gene 1 12 13 -0.625599 0 5 -0.625599 1
gene 1 13 14 -0.358684 0 6 -0.358684 1
gene 2 11 15 -0.669637 0 7 -0.669637 1
gene 2 6 16 1 0 8 0 1
gene 2 16 12 -0.752312 0 9 0 1
genomeend 0
