
/* Species #1 : (Size 15) (AF 0) (Age 1)  */


/* Organism #19 Fitness: 3.95712 Error: 0 */
genomestart 19
trait 1 0.1 0 0 0 0.019138 0 0.0145529 0.000359546 
trait 2 0.13125 0.00965237 0.000704072 0.0354663 0.0815258 0.00213975 0.15371 0.0659175 
trait 3 0.288544 0 0.0299596 0.110561 0 0 0 0.16146 
node 1 3 1 1
node 2 1 1 1
node 3 1 1 1
node 4 3 1 1
node 5 3 1 1
node 6 1 1 1
node 7 3 1 3
node 8 1 0 2
node 9 1 0 2
node 10 2 0 2
node 11 2 0 2
node 12 1 0 0
gene 2 1 8 -1.80822 0 1 -1.80822 1
gene 3 2 8 2.34619 0 2 2.34619 1
gene 2 3 8 0.433439 0 3 0.433439 1
gene 1 4 8 0.255318 0 4 0.255318 0
gene 3 5 8 -0.50032 0 5 -0.50032 1
gene 3 6 8 -0.561663 0 6 -0.561663 1
gene 2 7 8 0.819468 0 7 0.819468 1
gene 1 5 9 0.0882595 0 5 0.0882595 1
gene 3 6 10 2.25831 0 6 2.25831 1
gene 2 7 11 1.26135 0 7 1.26135 1
gene 1 4 12 1 0 9 0 1
gene 1 12 8 0.255318 0 10 0 1
genomeend 19

/* Organism #11 Fitness: 3.12614 Error: 0 */
genomestart 11
trait 1 0.1 0 0 0 0.019138 0 0.0145529 0.000359546 
trait 2 0.13125 0.00965237 0.000704072 0.0354663 0.0815258 0.00213975 0.15371 0.0659175 
trait 3 0.288544 0 0.0299596 0.110561 0 0 0 0.16146 
node 1 2 1 1
node 2 2 1 1
node 3 1 1 1
node 4 2 1 1
node 5 1 1 1
node 6 1 1 1
node 7 1 1 3
node 8 1 0 2
node 9 3 0 2
node 10 2 0 2
node 11 1 0 2
gene 2 1 8 0.390851 0 1 0.390851 1
gene 2 2 8 -0.467086 0 2 -0.467086 1
gene 2 3 8 0.0755333 0 3 0.0755333 1
gene 1 4 8 0.576586 0 4 0.576586 1
gene 3 5 8 0.146062 0 5 0.146062 1
gene 2 6 8 0.914426 0 6 0.914426 1
gene 2 7 8 -0.340983 0 7 -0.340983 1
gene 2 5 9 0.632435 0 5 0.632435 1
gene 3 6 10 0.792657 0 6 0.792657 1
gene 1 7 11 -0.786126 0 7 -0.786126 1
genomeend 11

/* Organism #7 Fitness: 2.98421 Error: 0 */
genomestart 7
trait 1 0.1 0 0 0 0.019138 0 0.0145529 0.000359546 
trait 2 0.13125 0.00965237 0.000704072 0.0354663 0.0815258 0.00213975 0.15371 0.0659175 
trait 3 0.288544 0 0.0299596 0.110561 0 0 0 0.16146 
node 1 2 1 1
node 2 1 1 1
node 3 2 1 1
node 4 3 1 1
node 5 1 1 1
node 6 2 1 1
node 7 3 1 3
node 8 3 0 2
node 9 3 0 2
node 10 2 0 2
node 11 1 0 2
gene 3 1 8 -1.4279 0 1 -1.4279 1
gene 2 2 8 1.03128 0 2 1.03128 1
gene 2 3 8 -1.22614 0 3 -1.22614 1
gene 2 4 8 1.59389 0 4 1.59389 1
gene 1 5 8 -0.485961 0 5 -0.485961 1
gene 3 6 8 -0.29664 0 6 -0.29664 1
gene 2 7 8 -0.680136 0 7 -0.680136 1
gene 3 5 9 0.916395 0 5 0.916395 1
gene 2 6 10 -0.780038 0 6 -0.780038 1
gene 1 7 11 1.67844 0 7 1.67844 1
genomeend 7

/* Organism #2 Fitness: 2.95712 Error: 0 */
genomestart 2
trait 1 0.1 0 0 0 0.019138 0 0.0145529 0.000359546 
trait 2 0.13125 0.00965237 0.000704072 0.0354663 0.0815258 0.00213975 0.15371 0.0659175 
trait 3 0.288544 0 0.0299596 0.110561 0 0 0 0.16146 
node 1 2 1 1
node 2 3 1 1
node 3 3 1 1
node 4 3 1 1
node 5 3 1 1
node 6 1 1 1
node 7 2 1 3
node 8 3 0 2
node 9 2 0 2
node 10 1 0 2
node 11 3 0 2
gene 2 1 8 -1.80822 0 1 -1.80822 1
gene 3 2 8 2.34619 0 2 2.34619 1
gene 2 3 8 0.433439 0 3 0.433439 1
gene 2 4 8 2.11898 0 4 2.11898 1
gene 3 5 8 1.95141 0 5 1.95141 1
gene 1 6 8 2.22948 0 6 2.22948 1
gene 2 7 8 0.819468 0 7 0.819468 1
gene 1 5 9 -0.915586 0 5 -0.915586 1
gene 3 6 10 2.25831 0 6 2.25831 1
gene 2 7 11 1.26135 0 7 1.26135 1
genomeend 2

/* Organism #13 Fitness: 2.34902 Error: 0 */
genomestart 13
trait 1 0.1 0 0 0 0.019138 0 0.0145529 0.000359546 
trait 2 0.13125 0.00965237 0.000704072 0.0354663 0.0815258 0.00213975 0.15371 0.0659175 
trait 3 0.288544 0 0.0299596 0.110561 0 0 0 0.16146 
node 1 3 1 1
node 2 1 1 1
node 3 1 1 1
node 4 3 1 1
node 5 3 1 1
node 6 1 1 1
node 7 3 1 3
node 8 1 0 2
node 9 1 0 2
node 10 2 0 2
node 11 2 0 2
gene 2 1 8 0.926023 0 1 0.926023 1
gene 2 2 8 -0.805078 0 2 -0.805078 1
gene 3 3 8 0.311441 0 3 0.311441 1
gene 1 4 8 0.255318 0 4 0.255318 1
gene 3 5 8 -0.50032 0 5 -0.50032 1
gene 3 6 8 -0.561663 0 6 -0.561663 1
gene 2 7 8 -0.382397 0 7 -0.382397 1
gene 1 5 9 0.0882595 0 5 0.0882595 1
gene 1 6 10 0.521867 0 6 0.521867 1
gene 2 7 11 -0.253182 0 7 -0.253182 1
genomeend 13

/* Organism #15 Fitness: 2.15193 Error: 0 */
genomestart 15
trait 1 0.1 0 0 0 0.019138 0 0.0145529 0.000359546 
trait 2 0.13125 0.00965237 0.000704072 0.0354663 0.0815258 0.00213975 0.15371 0.0659175 
trait 3 0.288544 0 0.0299596 0.110561 0 0 0 0.16146 
node 1 2 1 1
node 2 1 1 1
node 3 3 1 1
node 4 3 1 1
node 5 1 1 1
node 6 2 1 1
node 7 3 1 3
node 8 3 0 2
node 9 1 0 2
node 10 1 0 2
node 11 3 0 2
gene 2 1 8 0.32429 0 1 0.32429 1
gene 3 2 8 0.782342 0 2 0.782342 1
gene 1 3 8 0.251564 0 3 0.251564 1
gene 3 4 8 -0.993011 0 4 -0.993011 1
gene 2 5 8 0.689016 0 5 0.689016 1
gene 2 6 8 -0.418531 0 6 -0.418531 1
gene 1 7 8 0.186285 0 7 0.186285 1
gene 3 5 9 0.572222 0 5 0.572222 1
gene 2 6 10 -0.486129 0 6 -0.486129 1
gene 2 7 11 -0.698386 0 7 -0.698386 1
genomeend 15

/* Organism #9 Fitness: 2.11024 Error: 0 */
genomestart 9
trait 1 0.1 0 0 0 0.019138 0 0.0145529 0.000359546 
trait 2 0.13125 0.00965237 0.000704072 0.0354663 0.0815258 0.00213975 0.15371 0.0659175 
trait 3 0.288544 0 0.0299596 0.110561 0 0 0 0.16146 
node 1 2 1 1
node 2 2 1 1
node 3 1 1 1
node 4 2 1 1
node 5 1 1 1
node 6 1 1 1
node 7 1 1 3
node 8 1 0 2
node 9 3 0 2
node 10 2 0 2
node 11 1 0 2
gene 2 1 8 0.332621 0 1 0.332621 1
gene 3 2 8 -0.731651 0 2 -0.731651 1
gene 2 3 8 0.384762 0 3 0.384762 1
gene 1 4 8 0.142384 0 4 0.142384 1
gene 1 5 8 0.107166 0 5 0.107166 1
gene 2 6 8 0.674001 0 6 0.674001 1
gene 2 7 8 0.0624561 0 7 0.0624561 1
gene 3 5 9 0.0227668 0 5 0.0227668 1
gene 3 6 10 0.242775 0 6 0.242775 1
gene 1 7 11 -0.848155 0 7 -0.848155 1
genomeend 9

/* Organism #5 Fitness: 2.10389 Error: 0 */
genomestart 5
trait 1 0.1 0 0 0 0.019138 0 0.0145529 0.000359546 
trait 2 0.13125 0.00965237 0.000704072 0.0354663 0.0815258 0.00213975 0.15371 0.0659175 
trait 3 0.288544 0 0.0299596 0.110561 0 0 0 0.16146 
node 1 2 1 1
node 2 1 1 1
node 3 2 1 1
node 4 3 1 1
node 5 1 1 1
node 6 2 1 1
node 7 3 1 3
node 8 3 0 2
node 9 3 0 2
node 10 2 0 2
node 11 1 0 2
gene 1 1 8 0.622272 0 1 0.622272 1
gene 3 2 8 -0.605609 0 2 -0.605609 1
gene 2 3 8 -0.667882 0 3 -0.667882 1
gene 2 4 8 0.298685 0 4 0.298685 1
gene 1 5 8 -0.829676 0 5 -0.829676 1
gene 3 6 8 2.31729 0 6 2.31729 1
gene 2 7 8 -1.98564 0 7 -1.98564 1
gene 3 5 9 0.534455 0 5 0.534455 1
gene 2 6 10 0.814997 0 6 0.814997 1
gene 2 7 11 -0.875164 0 7 -0.875164 1
genomeend 5

/* Organism #0 Fitness: 2.00409 Error: 0 */
genomestart 0
trait 1 0.1 0 0 0 0.019138 0 0.0145529 0.000359546 
trait 2 0.13125 0.00965237 0.000704072 0.0354663 0.0815258 0.00213975 0.15371 0.0659175 
trait 3 0.288544 0 0.0299596 0.110561 0 0 0 0.16146 
node 1 1 1 1
node 2 2 1 1
node 3 3 1 1
node 4 3 1 1
node 5 3 1 1
node 6 3 1 1
node 7 1 1 3
node 8 2 0 2
node 9 1 0 2
node 10 3 0 2
node 11 1 0 2
gene 3 1 8 1.55922 0 1 1.55922 1
gene 2 2 8 2.06496 0 2 2.06496 1
gene 1 3 8 -1.38688 0 3 -1.38688 1
gene 2 4 8 0.805307 0 4 0.805307 1
gene 2 5 8 -0.113178 0 5 -0.113178 1
gene 3 6 8 -1.1436 0 6 -1.1436 1
gene 2 7 8 0.914731 0 7 0.914731 1
gene 3 5 9 0.914975 0 5 0.914975 1
gene 2 6 10 -1.84764 0 6 -1.84764 1
gene 1 7 11 -2.23154 0 7 -2.23154 1
genomeend 0

/* Organism #4 Fitness: 1.38817 Error: 0 */
genomestart 4
trait 1 0.1 0 0 0 0.019138 0 0.0145529 0.000359546 
trait 2 0.13125 0.00965237 0.000704072 0.0354663 0.0815258 0.00213975 0.15371 0.0659175 
trait 3 0.288544 0 0.0299596 0.110561 0 0 0 0.16146 
node 1 2 1 1
node 2 3 1 1
node 3 3 1 1
node 4 3 1 1
node 5 3 1 1
node 6 1 1 1
node 7 2 1 3
node 8 3 0 2
node 9 2 0 2
node 10 1 0 2
node 11 2 0 2
gene 1 1 8 -0.0779595 0 1 -0.0779595 1
gene 3 2 8 -0.305857 0 2 -0.305857 1
gene 2 3 8 0.177694 0 3 0.177694 1
gene 2 4 8 0.215964 0 4 0.215964 1
gene 3 5 8 0.716086 0 5 0.716086 1
gene 1 6 8 0.695044 0 6 0.695044 1
gene 2 7 8 0.56885 0 7 0.56885 1
gene 2 5 9 -0.394131 0 5 -0.394131 1
gene 3 6 10 -0.0554216 0 6 -0.0554216 1
gene 2 7 11 -0.184805 0 7 -0.184805 1
genomeend 4

/* Organism #1 Fitness: 1.16821 Error: 0 */
genomestart 1
trait 1 0.125758 0 0 0.63448 0 0 0.0145529 0.000359546 
trait 2 0.13125 0.00965237 0.000704072 0.0354663 0.0815258 0.00213975 0.15371 0.0659175 
trait 3 0.288544 0 0.0299596 0.110561 0 0 0 0.16146 
node 1 1 1 1
node 2 2 1 1
node 3 3 1 1
node 4 3 1 1
node 5 3 1 1
node 6 3 1 1
node 7 1 1 3
node 8 2 0 2
node 9 1 0 2
node 10 3 0 2
node 11 1 0 2
gene 1 1 8 -1.24471 0 1 -1.24471 1
gene 2 2 8 0.552156 0 2 0.552156 1
gene 3 3 8 1.32336 0 3 1.32336 1
gene 2 4 8 -1.90115 0 4 -1.90115 1
gene 3 5 8 1.02866 0 5 1.02866 1
gene 1 6 8 2.53748 0 6 2.53748 1
gene 1 7 8 1.37109 0 7 1.37109 1
gene 3 5 9 -0.229163 0 5 -0.229163 1
gene 2 6 10 -1.29667 0 6 -1.29667 1
gene 3 7 11 -0.64919 0 7 -0.64919 1
genomeend 1

/* Organism #14 Fitness: 1.14185 Error: 0 */
genomestart 14
trait 1 0.1 0 0 0 0.019138 0 0.0145529 0.000359546 
trait 2 0.13125 0.00965237 0.000704072 0.0354663 0.0815258 0.00213975 0.15371 0.0659175 
trait 3 0.288544 0 0.0299596 0.110561 0 0 0 0.16146 
node 1 3 1 1
node 2 2 1 1
node 3 1 1 1
node 4 3 1 1
node 5 3 1 1
node 6 2 1 1
node 7 1 1 3
node 8 2 0 2
node 9 2 0 2
node 10 1 0 2
node 11 2 0 2
gene 3 1 8 -0.131626 0 1 -0.131626 1
gene 1 2 8 -0.463576 0 2 -0.463576 1
gene 2 3 8 -0.346843 0 3 -0.346843 1
gene 3 4 8 0.285562 0 4 0.285562 1
gene 2 5 8 -0.968932 0 5 -0.968932 1
gene 1 6 8 0.222144 0 6 0.222144 1
gene 3 7 8 0.321574 0 7 0.321574 1
gene 1 5 9 -0.652211 0 5 -0.652211 1
gene 2 6 10 0.00738548 0 6 0.00738548 1
gene 3 7 11 -0.731071 0 7 -0.731071 1
genomeend 14

/* Organism #3 Fitness: 1.09252 Error: 0 */
genomestart 3
trait 1 0.1 0 0 0 0.019138 0 0.0145529 0.000359546 
trait 2 0.13125 0.00965237 0.000704072 0.0354663 0.0815258 0.00213975 0.15371 0.0659175 
trait 3 0.288544 0 0.0299596 0.110561 0 0 0 0.16146 
node 1 3 1 1
node 2 3 1 1
node 3 1 1 1
node 4 2 1 1
node 5 2 1 1
node 6 3 1 1
node 7 2 1 3
node 8 1 0 2
node 9 2 0 2
node 10 1 0 2
node 11 2 0 2
gene 1 1 8 -0.0357982 0 1 -0.0357982 1
gene 3 2 8 -0.723136 0 2 -0.723136 1
gene 2 3 8 -0.874477 0 3 -0.874477 1
gene 2 4 8 -0.269021 0 4 -0.269021 1
gene 3 5 8 0.245705 0 5 0.245705 1
gene 1 6 8 0.849361 0 6 0.849361 1
gene 1 7 8 -0.278603 0 7 -0.278603 1
gene 2 5 9 -0.15482 0 5 -0.15482 1
gene 2 6 10 0.236122 0 6 0.236122 1
gene 3 7 11 -0.927366 0 7 -0.927366 1
genomeend 3

/* Organism #8 Fitness: 1.08983 Error: 0 */
genomestart 8
trait 1 0.1 0 0 0 0.019138 0 0.0145529 0.000359546 
trait 2 0.13125 0.00965237 0.000704072 0.0354663 0.0815258 0.00213975 0.15371 0.0659175 
trait 3 0.288544 0 0.0299596 0.110561 0 0 0 0.16146 
node 1 1 1 1
node 2 2 1 1
node 3 2 1 1
node 4 1 1 1
node 5 3 1 1
node 6 3 1 1
node 7 3 1 3
node 8 1 0 2
node 9 2 0 2
node 10 1 0 2
node 11 3 0 2
gene 3 1 8 1.85362 0 1 1.85362 1
gene 1 2 8 -0.168462 0 2 -0.168462 1
gene 2 3 8 -1.63123 0 3 -1.63123 1
gene 3 4 8 -0.670019 0 4 -0.670019 1
gene 2 5 8 0.00524918 0 5 0.00524918 1
gene 3 6 8 -3.27186 0 6 -3.27186 1
gene 2 7 8 1.31196 0 7 1.31196 1
gene 3 5 9 0.754845 0 5 0.754845 1
gene 2 6 10 -0.192511 0 6 -0.192511 1
gene 2 7 11 -0.940535 0 7 -0.940535 1
genomeend 8

/* Organism #20 Fitness: 1.02182 Error: 0 */
/* ##------$ WINNER 20 SPECIES #1 $------## */
genomestart 20
trait 1 0.1 0 0 0 0.019138 0 0.0145529 0.000359546 
trait 2 0.13125 0.00965237 0.000704072 0.0354663 0.0815258 0.00213975 0.15371 0.0659175 
trait 3 0.288544 0 0.0299596 0.110561 0 0 0 0.16146 
node 1 2 1 1
node 2 1 1 1
node 3 2 1 1
node 4 3 1 1
node 5 1 1 1
node 6 2 1 1
node 7 3 1 3
node 8 3 0 2
node 9 3 0 2
node 10 2 0 2
node 11 1 0 2
gene 2 1 8 -0.0527665 0 1 -0.0527665 1
gene 2 2 8 0.609447 0 2 0.609447 1
gene 2 3 8 -0.0412687 0 3 -0.0412687 1
gene 2 4 8 3.13376 0 4 3.13376 0
gene 3 5 8 -1.25038 0 5 -1.25038 1
gene 3 6 8 0.945479 0 6 0.945479 1
gene 2 7 8 -1.13757 0 7 -1.13757 1
gene 3 5 9 -1.37449 0 5 -1.37449 1
gene 2 6 10 -1.52801 0 6 -1.52801 1
gene 1 7 11 1.46989 0 7 1.46989 1
genomeend 20
