
/* Species #1 : (Size 8) (AF 0) (Age 1)  */


/* Organism #8 Fitness: 13741.4 Error: 0 */
genomestart 8
trait 1 0.1 0 0 0 0.019138 0 0.0145529 0.000359546 
trait 2 0.13125 0.00965237 0.000704072 0.0354663 0.0815258 0.00213975 0.15371 0.0659175 
trait 3 0.288544 0 0.0299596 0.110561 0 0 0 0.16146 
node 1 2 1 1
node 2 1 1 1
node 3 2 1 1
node 4 3 1 1
node 5 1 1 1
node 6 3 1 1
node 7 2 1 1
node 8 2 1 1
node 9 2 1 1
node 10 2 1 1
node 11 3 1 3
node 12 1 0 2
node 13 2 0 2
node 14 2 0 2
node 15 2 0 2
gene 2 1 12 0.960997 0 1 0.960997 1
gene 1 2 12 0.117618 0 2 0.117618 1
gene 2 3 12 -0.434614 0 3 -0.434614 1
gene 1 4 12 -0.297891 0 4 -0.297891 1
gene 3 5 12 0.790338 0 5 0.790338 1
gene 2 6 12 0.388531 0 2 0.388531 1
gene 3 7 12 -0.212287 0 3 -0.212287 1
gene 3 8 12 -0.0566424 0 4 -0.0566424 1
gene 3 9 12 0.783563 0 5 0.783563 1
gene 1 10 12 -0.760674 0 6 -0.760674 1
gene 1 11 12 0.0370495 0 7 0.0370495 1
gene 2 12 13 0.962859 0 5 0.962859 1
gene 1 13 14 -0.118656 0 6 -0.118656 1
gene 3 11 15 -0.843837 0 7 -0.843837 1
genomeend 8

/* Organism #3 Fitness: 13716.7 Error: 0 */
genomestart 3
trait 1 0.1 0 0 0 0.019138 0 0.0145529 0.000359546 
trait 2 0.13125 0.00965237 0.000704072 0.0354663 0.0815258 0.00213975 0.15371 0.0659175 
trait 3 0.288544 0 0.0299596 0.110561 0 0 0 0.16146 
node 1 2 1 1
node 2 3 1 1
node 3 3 1 1
node 4 1 1 1
node 5 1 1 1
node 6 1 1 1
node 7 2 1 1
node 8 2 1 1
node 9 2 1 1
node 10 2 1 1
node 11 1 1 3
node 12 2 0 2
node 13 2 0 2
node 14 2 0 2
node 15 2 0 2
gene 1 1 12 -0.666921 0 1 -0.666921 1
gene 2 2 12 0.0583514 0 2 0.0583514 1
gene 2 3 12 -0.198553 0 3 -0.198553 1
gene 2 4 12 -0.95645 0 4 -0.95645 1
gene 3 5 12 0.712882 0 5 0.712882 1
gene 3 6 12 -0.196905 0 2 -0.196905 1
gene 1 7 12 0.92346 0 3 0.92346 1
gene 3 8 12 0.360057 0 4 0.360057 1
gene 1 9 12 -0.467757 0 5 -0.467757 1
gene 1 10 12 -0.918271 0 6 -0.918271 1
gene 3 11 12 0.215247 0 7 0.215247 1
gene 1 12 13 -0.260018 0 5 -0.260018 1
gene 1 13 14 0.733818 0 6 0.733818 1
gene 3 11 15 -0.137883 0 7 -0.137883 1
genomeend 3

/* Organism #5 Fitness: 13674.4 Error: 0 */
genomestart 5
trait 1 0.1 0 0 0 0.019138 0 0.0145529 0.000359546 
trait 2 0.13125 0.00965237 0.000704072 0.0354663 0.0815258 0.00213975 0.15371 0.0659175 
trait 3 0.288544 0 0.0299596 0.110561 0 0 0 0.16146 
node 1 1 1 1
node 2 1 1 1
node 3 1 1 1
node 4 3 1 1
node 5 1 1 1
node 6 1 1 1
node 7 1 1 1
node 8 3 1 1
node 9 3 1 1
node 10 2 1 1
node 11 1 1 3
node 12 2 0 2
node 13 3 0 2
node 14 1 0 2
node 15 2 0 2
gene 3 1 12 0.822932 0 1 0.822932 1
gene 1 2 12 -0.191778 0 2 -0.191778 1
gene 1 3 12 -0.0413221 0 3 -0.0413221 1
gene 2 4 12 0.704001 0 4 0.704001 1
gene 3 5 12 0.804804 0 5 0.804804 1
gene 1 6 12 0.396466 0 2 0.396466 1
gene 2 7 12 0.551469 0 3 0.551469 1
gene 2 8 12 -0.519211 0 4 -0.519211 1
gene 3 9 12 -0.771783 0 5 -0.771783 1
gene 1 10 12 0.516953 0 6 0.516953 1
gene 2 11 12 -0.865261 0 7 -0.865261 1
gene 2 12 13 0.320231 0 5 0.320231 1
gene 3 13 14 -0.321543 0 6 -0.321543 1
gene 2 11 15 -0.0916471 0 7 -0.0916471 1
genomeend 5

/* Organism #4 Fitness: 13475.2 Error: 0 */
genomestart 4
trait 1 0.1 0 0 0 0.019138 0 0.0145529 0.000359546 
trait 2 0.13125 0.00965237 0.000704072 0.0354663 0.0815258 0.00213975 0.15371 0.0659175 
trait 3 0.288544 0 0.0299596 0.110561 0 0 0 0.16146 
node 1 1 1 1
node 2 1 1 1
node 3 1 1 1
node 4 3 1 1
node 5 3 1 1
node 6 1 1 1
node 7 1 1 1
node 8 1 1 1
node 9 1 1 1
node 10 2 1 1
node 11 2 1 3
node 12 3 0 2
node 13 1 0 2
node 14 3 0 2
node 15 3 0 2
gene 3 1 12 -0.647542 0 1 -0.647542 1
gene 2 2 12 -0.372509 0 2 -0.372509 1
gene 2 3 12 -0.911771 0 3 -0.911771 1
gene 1 4 12 0.742271 0 4 0.742271 1
gene 1 5 12 -0.640889 0 5 -0.640889 1
gene 2 6 12 -0.205603 0 2 -0.205603 1
gene 1 7 12 -0.522599 0 3 -0.522599 1
gene 1 8 12 0.960387 0 4 0.960387 1
gene 1 9 12 0.416669 0 5 0.416669 1
gene 3 10 12 -0.456679 0 6 -0.456679 1
gene 3 11 12 -0.781457 0 7 -0.781457 1
gene 2 12 13 -0.484481 0 5 -0.484481 1
gene 1 13 14 0.711478 0 6 0.711478 1
gene 1 11 15 -0.762932 0 7 -0.762932 1
genomeend 4

/* Organism #1 Fitness: 12829.8 Error: 0 */
genomestart 1
trait 1 0.1 0 0 0 0.019138 0 0.0145529 0.000359546 
trait 2 0.13125 0.00965237 0.000704072 0.0354663 0.0815258 0.00213975 0.15371 0.0659175 
trait 3 0.288544 0 0.0299596 0.110561 0 0 0 0.16146 
node 1 3 1 1
node 2 1 1 1
node 3 2 1 1
node 4 2 1 1
node 5 3 1 1
node 6 1 1 1
node 7 1 1 1
node 8 3 1 1
node 9 1 1 1
node 10 3 1 1
node 11 1 1 3
node 12 3 0 2
node 13 3 0 2
node 14 3 0 2
node 15 3 0 2
gene 3 1 12 0.489731 0 1 0.489731 1
gene 1 2 12 0.0144658 0 2 0.0144658 1
gene 2 3 12 0.509507 0 3 0.509507 1
gene 1 4 12 -0.858211 0 4 -0.858211 1
gene 1 5 12 -0.509507 0 5 -0.509507 1
gene 2 6 12 0.241554 0 2 0.241554 1
gene 3 7 12 0.949248 0 3 0.949248 1
gene 2 8 12 0.957427 0 4 0.957427 1
gene 1 9 12 0.880001 0 5 0.880001 1
gene 1 10 12 0.702536 0 6 0.702536 1
gene 2 11 12 0.690481 0 7 0.690481 1
gene 3 12 13 0.0389721 0 5 0.0389721 1
gene 3 13 14 0.0108341 0 6 0.0108341 1
gene 1 11 15 0.779626 0 7 0.779626 1
genomeend 1

/* Organism #6 Fitness: 12478.8 Error: 0 */
genomestart 6
trait 1 0.1 0 0 0 0.019138 0 0.0145529 0.000359546 
trait 2 0.13125 0.00965237 0.000704072 0.0354663 0.0815258 0.00213975 0.15371 0.0659175 
trait 3 0.288544 0 0.0299596 0.110561 0 0 0 0.16146 
node 1 3 1 1
node 2 3 1 1
node 3 3 1 1
node 4 2 1 1
node 5 2 1 1
node 6 2 1 1
node 7 1 1 1
node 8 3 1 1
node 9 2 1 1
node 10 3 1 1
node 11 1 1 3
node 12 3 0 2
node 13 1 0 2
node 14 1 0 2
node 15 3 0 2
gene 3 1 12 0.92645 0 1 0.92645 1
gene 1 2 12 0.688437 0 2 0.688437 1
gene 1 3 12 -0.257027 0 3 -0.257027 1
gene 1 4 12 0.618458 0 4 0.618458 1
gene 3 5 12 0.694723 0 5 0.694723 1
gene 1 6 12 0.452803 0 2 0.452803 1
gene 3 7 12 -0.862941 0 3 -0.862941 1
gene 3 8 12 -0.311472 0 4 -0.311472 1
gene 1 9 12 0.420545 0 5 0.420545 1
gene 1 10 12 -0.336192 0 6 -0.336192 1
gene 1 11 12 -0.550737 0 7 -0.550737 1
gene 1 12 13 -0.340587 0 5 -0.340587 1
gene 3 13 14 0.0611591 0 6 0.0611591 1
gene 1 11 15 -0.962065 0 7 -0.962065 1
genomeend 6

/* Organism #2 Fitness: 12152.3 Error: 0 */
genomestart 2
trait 1 0.1 0 0 0 0.019138 0 0.0145529 0.000359546 
trait 2 0.13125 0.00965237 0.000704072 0.0354663 0.0815258 0.00213975 0.15371 0.0659175 
trait 3 0.288544 0 0.0299596 0.110561 0 0 0 0.16146 
node 1 1 1 1
node 2 3 1 1
node 3 3 1 1
node 4 2 1 1
node 5 1 1 1
node 6 2 1 1
node 7 2 1 1
node 8 1 1 1
node 9 2 1 1
node 10 3 1 1
node 11 2 1 3
node 12 2 0 2
node 13 1 0 2
node 14 2 0 2
node 15 2 0 2
gene 1 1 12 -0.0442213 0 1 -0.0442213 1
gene 3 2 12 -0.820673 0 2 -0.820673 1
gene 2 3 12 -0.808191 0 3 -0.808191 1
gene 3 4 12 -0.193762 0 4 -0.193762 1
gene 3 5 12 0.174169 0 5 0.174169 1
gene 1 6 12 0.443861 0 2 0.443861 1
gene 3 7 12 0.786401 0 3 0.786401 1
gene 3 8 12 0.191382 0 4 0.191382 1
gene 3 9 12 -0.440962 0 5 -0.440962 1
gene 2 10 12 0.862026 0 6 0.862026 1
gene 2 11 12 -0.235542 0 7 -0.235542 1
gene 3 12 13 -0.0389111 0 5 -0.0389111 1
gene 3 13 14 -0.31605 0 6 -0.31605 1
gene 2 11 15 0.603351 0 7 0.603351 1
genomeend 2

/* Organism #0 Fitness: 11345.5 Error: 0 */
/* ##------$ WINNER 0 SPECIES #1 $------## */
genomestart 0
trait 1 0.1 0 0 0 0.019138 0 0.0145529 0.000359546 
trait 2 0.13125 0.00965237 0.000704072 0.0354663 0.0815258 0.00213975 0.15371 0.0659175 
trait 3 0.288544 0 0.0299596 0.110561 0 0 0 0.16146 
node 1 2 1 1
node 2 1 1 1
node 3 2 1 1
node 4 3 1 1
node 5 1 1 1
node 6 3 1 1
node 7 2 1 1
node 8 2 1 1
node 9 2 1 1
node 10 2 1 1
node 11 3 1 3
node 12 1 0 2
node 13 2 0 2
node 14 2 0 2
node 15 2 0 2
gene 1 1 12 0.26484 0 1 0.26484 1
gene 1 2 12 0.659215 0 2 0.659215 1
gene 2 3 12 -0.130345 0 3 -0.130345 1
gene 2 4 12 -2.88791 0 4 -2.88791 1
gene 3 5 12 -0.0476852 0 5 -0.0476852 1
gene 2 6 12 -1.5058 0 2 -1.5058 1
gene 1 7 12 1.75661 0 3 1.75661 1
gene 3 8 12 0.775124 0 4 0.775124 1
gene 3 9 12 -0.267373 0 5 -0.267373 1
gene 1 10 12 -0.839473 0 6 -0.839473 1
gene 1 11 12 2.52963 0 7 2.52963 1
gene 2 12 13 -1.26797 0 5 -1.26797 1
gene 1 13 14 -2.10178 0 6 -2.10178 1
gene 3 11 15 0.429273 0 7 0.429273 1
genomeend 0
