
/* Species #1 : (Size 150) (AF 0) (Age 1)  */


/* Organism #2 Fitness: 0 Error: 0 */
genomestart 2
trait 1 0.1 0 0 0 0.019138 0 0.0145529 0.000359546 
trait 2 0.13125 0.00965237 0.000704072 0.0354663 0.0815258 0.00213975 0.15371 0.0659175 
trait 3 0.288544 0 0.0299596 0.110561 0 0 0 0.16146 
node 1 1 1 1
node 2 2 1 1
node 3 2 1 1
node 4 2 1 1
node 5 3 1 1
node 6 3 1 1
node 7 3 1 3
node 8 2 0 2
node 9 3 0 2
node 10 3 0 2
node 11 1 0 2
gene 1 1 8 -0.346202 0 1 -0.346202 1
gene 2 2 8 -0.214331 0 2 -0.214331 1
gene 1 3 8 0.154607 0 3 0.154607 1
gene 1 4 8 0.0328379 0 4 0.0328379 1
gene 2 5 8 -0.594653 0 5 -0.594653 1
gene 3 6 8 0.124302 0 6 0.124302 1
gene 3 7 8 0.916715 0 7 0.916715 1
gene 1 5 9 -0.712149 0 5 -0.712149 1
gene 3 6 10 0.70922 0 6 0.70922 1
gene 1 7 11 -0.00317392 0 7 -0.00317392 1
genomeend 2

/* Organism #3 Fitness: 0 Error: 0 */
genomestart 3
trait 1 0.1 0 0 0 0.019138 0 0.0145529 0.000359546 
trait 2 0.13125 0.00965237 0.000704072 0.0354663 0.0815258 0.00213975 0.15371 0.0659175 
trait 3 0.288544 0 0.0299596 0.110561 0 0 0 0.16146 
node 1 3 1 1
node 2 1 1 1
node 3 3 1 1
node 4 2 1 1
node 5 3 1 1
node 6 2 1 1
node 7 1 1 3
node 8 2 0 2
node 9 3 0 2
node 10 1 0 2
node 11 1 0 2
gene 3 1 8 0.0673238 0 1 0.0673238 1
gene 3 2 8 -0.468825 0 2 -0.468825 1
gene 1 3 8 -0.553789 0 3 -0.553789 1
gene 3 4 8 -0.724052 0 4 -0.724052 1
gene 2 5 8 0.347056 0 5 0.347056 1
gene 1 6 8 0.744987 0 6 0.744987 1
gene 1 7 8 0.194861 0 7 0.194861 1
gene 2 5 9 0.847713 0 5 0.847713 1
gene 3 6 10 -0.22364 0 6 -0.22364 1
gene 2 7 11 -0.71044 0 7 -0.71044 1
genomeend 3

/* Organism #4 Fitness: 0 Error: 0 */
genomestart 4
trait 1 0.1 0 0 0 0.019138 0 0.0145529 0.000359546 
trait 2 0.13125 0.00965237 0.000704072 0.0354663 0.0815258 0.00213975 0.15371 0.0659175 
trait 3 0.288544 0 0.0299596 0.110561 0 0 0 0.16146 
node 1 3 1 1
node 2 2 1 1
node 3 2 1 1
node 4 2 1 1
node 5 1 1 1
node 6 3 1 1
node 7 2 1 3
node 8 3 0 2
node 9 3 0 2
node 10 1 0 2
node 11 1 0 2
gene 1 1 8 0.120304 0 1 0.120304 1
gene 3 2 8 -0.226173 0 2 -0.226173 1
gene 1 3 8 -0.722983 0 3 -0.722983 1
gene 3 4 8 0.284219 0 4 0.284219 1
gene 1 5 8 0.281228 0 5 0.281228 1
gene 2 6 8 0.432844 0 6 0.432844 1
gene 1 7 8 -0.951994 0 7 -0.951994 1
gene 2 5 9 -0.547655 0 5 -0.547655 1
gene 3 6 10 0.569811 0 6 0.569811 1
gene 1 7 11 0.708396 0 7 0.708396 1
genomeend 4

/* Organism #5 Fitness: 0 Error: 0 */
genomestart 5
trait 1 0.1 0 0 0 0.019138 0 0.0145529 0.000359546 
trait 2 0.13125 0.00965237 0.000704072 0.0354663 0.0815258 0.00213975 0.15371 0.0659175 
trait 3 0.288544 0 0.0299596 0.110561 0 0 0 0.16146 
node 1 1 1 1
node 2 1 1 1
node 3 3 1 1
node 4 2 1 1
node 5 1 1 1
node 6 2 1 1
node 7 3 1 3
node 8 1 0 2
node 9 3 0 2
node 10 1 0 2
node 11 1 0 2
gene 3 1 8 -0.0274667 0 1 -0.0274667 1
gene 3 2 8 0.825861 0 2 0.825861 1
gene 3 3 8 -0.886654 0 3 -0.886654 1
gene 1 4 8 -0.530534 0 4 -0.530534 1
gene 2 5 8 -0.920896 0 5 -0.920896 1
gene 2 6 8 0.697378 0 6 0.697378 1
gene 3 7 8 -0.933805 0 7 -0.933805 1
gene 1 5 9 -0.726951 0 5 -0.726951 1
gene 1 6 10 0.670949 0 6 0.670949 1
gene 2 7 11 0.958861 0 7 0.958861 1
genomeend 5

/* Organism #6 Fitness: 0 Error: 0 */
genomestart 6
trait 1 0.1 0 0 0 0.019138 0 0.0145529 0.000359546 
trait 2 0.13125 0.00965237 0.000704072 0.0354663 0.0815258 0.00213975 0.15371 0.0659175 
trait 3 0.288544 0 0.0299596 0.110561 0 0 0 0.16146 
node 1 1 1 1
node 2 1 1 1
node 3 1 1 1
node 4 2 1 1
node 5 2 1 1
node 6 1 1 1
node 7 1 1 3
node 8 1 0 2
node 9 2 0 2
node 10 3 0 2
node 11 2 0 2
gene 2 1 8 -0.113651 0 1 -0.113651 1
gene 3 2 8 -0.51268 0 2 -0.51268 1
gene 3 3 8 -0.997528 0 3 -0.997528 1
gene 1 4 8 -0.814447 0 4 -0.814447 1
gene 2 5 8 0.939299 0 5 0.939299 1
gene 2 6 8 -0.239387 0 6 -0.239387 1
gene 1 7 8 -0.531907 0 7 -0.531907 1
gene 1 5 9 0.523331 0 5 0.523331 1
gene 2 6 10 -0.991729 0 6 -0.991729 1
gene 1 7 11 0.96588 0 7 0.96588 1
genomeend 6

/* Organism #7 Fitness: 0 Error: 0 */
genomestart 7
trait 1 0.1 0 0 0 0.019138 0 0.0145529 0.000359546 
trait 2 0.13125 0.00965237 0.000704072 0.0354663 0.0815258 0.00213975 0.15371 0.0659175 
trait 3 0.288544 0 0.0299596 0.110561 0 0 0 0.16146 
node 1 3 1 1
node 2 1 1 1
node 3 3 1 1
node 4 2 1 1
node 5 1 1 1
node 6 3 1 1
node 7 2 1 3
node 8 1 0 2
node 9 3 0 2
node 10 3 0 2
node 11 1 0 2
gene 1 1 8 -0.837214 0 1 -0.837214 1
gene 2 2 8 0.334117 0 2 0.334117 1
gene 3 3 8 0.353038 0 3 0.353038 1
gene 3 4 8 0.258431 0 4 0.258431 1
gene 1 5 8 -0.372906 0 5 -0.372906 1
gene 1 6 8 -0.223945 0 6 -0.223945 1
gene 2 7 8 0.430982 0 7 0.430982 1
gene 2 5 9 0.664052 0 5 0.664052 1
gene 1 6 10 -0.0611286 0 6 -0.0611286 1
gene 3 7 11 0.0874355 0 7 0.0874355 1
genomeend 7

/* Organism #8 Fitness: 0 Error: 0 */
genomestart 8
trait 1 0.1 0 0 0 0.019138 0 0.0145529 0.000359546 
trait 2 0.13125 0.00965237 0.000704072 0.0354663 0.0815258 0.00213975 0.15371 0.0659175 
trait 3 0.288544 0 0.0299596 0.110561 0 0 0 0.16146 
node 1 1 1 1
node 2 1 1 1
node 3 3 1 1
node 4 1 1 1
node 5 1 1 1
node 6 1 1 1
node 7 1 1 3
node 8 1 0 2
node 9 1 0 2
node 10 1 0 2
node 11 2 0 2
gene 2 1 8 -0.724723 0 1 -0.724723 1
gene 1 2 8 0.374676 0 2 0.374676 1
gene 3 3 8 -0.41377 0 3 -0.41377 1
gene 1 4 8 -0.473891 0 4 -0.473891 1
gene 1 5 8 0.276803 0 5 0.276803 1
gene 3 6 8 -0.0188299 0 6 -0.0188299 1
gene 3 7 8 0.943968 0 7 0.943968 1
gene 1 5 9 0.576586 0 5 0.576586 1
gene 2 6 10 -0.412214 0 6 -0.412214 1
gene 2 7 11 0.84814 0 7 0.84814 1
genomeend 8

/* Organism #9 Fitness: 0 Error: 0 */
genomestart 9
trait 1 0.1 0 0 0 0.019138 0 0.0145529 0.000359546 
trait 2 0.13125 0.00965237 0.000704072 0.0354663 0.0815258 0.00213975 0.15371 0.0659175 
trait 3 0.288544 0 0.0299596 0.110561 0 0 0 0.16146 
node 1 2 1 1
node 2 2 1 1
node 3 2 1 1
node 4 3 1 1
node 5 2 1 1
node 6 1 1 1
node 7 3 1 3
node 8 2 0 2
node 9 3 0 2
node 10 3 0 2
node 11 3 0 2
gene 2 1 8 0.975707 0 1 0.975707 1
gene 1 2 8 -0.969604 0 2 -0.969604 1
gene 2 3 8 0.970397 0 3 0.970397 1
gene 3 4 8 -0.467635 0 4 -0.467635 1
gene 2 5 8 0.248451 0 5 0.248451 1
gene 3 6 8 -0.0753197 0 6 -0.0753197 1
gene 2 7 8 -0.170476 0 7 -0.170476 1
gene 2 5 9 0.0193182 0 5 0.0193182 1
gene 3 6 10 0.609577 0 6 0.609577 1
gene 2 7 11 -0.654347 0 7 -0.654347 1
genomeend 9

/* Organism #10 Fitness: 0 Error: 0 */
genomestart 10
trait 1 0.1 0 0 0 0.019138 0 0.0145529 0.000359546 
trait 2 0.13125 0.00965237 0.000704072 0.0354663 0.0815258 0.00213975 0.15371 0.0659175 
trait 3 0.288544 0 0.0299596 0.110561 0 0 0 0.16146 
node 1 1 1 1
node 2 1 1 1
node 3 1 1 1
node 4 2 1 1
node 5 2 1 1
node 6 1 1 1
node 7 2 1 3
node 8 3 0 2
node 9 1 0 2
node 10 1 0 2
node 11 3 0 2
gene 2 1 8 0.205267 0 1 0.205267 1
gene 3 2 8 -0.58739 0 2 -0.58739 1
gene 3 3 8 -0.172124 0 3 -0.172124 1
gene 3 4 8 0.256203 0 4 0.256203 1
gene 1 5 8 0.114536 0 5 0.114536 1
gene 1 6 8 0.452406 0 6 0.452406 1
gene 1 7 8 0.603839 0 7 0.603839 1
gene 1 5 9 -0.398816 0 5 -0.398816 1
gene 3 6 10 -0.287881 0 6 -0.287881 1
gene 3 7 11 -0.823969 0 7 -0.823969 1
genomeend 10

/* Organism #11 Fitness: 0 Error: 0 */
genomestart 11
trait 1 0.1 0 0 0 0.019138 0 0.0145529 0.000359546 
trait 2 0.13125 0.00965237 0.000704072 0.0354663 0.0815258 0.00213975 0.15371 0.0659175 
trait 3 0.288544 0 0.0299596 0.110561 0 0 0 0.16146 
node 1 2 1 1
node 2 3 1 1
node 3 2 1 1
node 4 3 1 1
node 5 2 1 1
node 6 1 1 1
node 7 3 1 3
node 8 3 0 2
node 9 1 0 2
node 10 2 0 2
node 11 2 0 2
gene 3 1 8 0.369884 0 1 0.369884 1
gene 3 2 8 -0.450026 0 2 -0.450026 1
gene 1 3 8 0.404675 0 3 0.404675 1
gene 1 4 8 0.819117 0 4 0.819117 1
gene 2 5 8 -0.456679 0 5 -0.456679 1
gene 1 6 8 -0.898953 0 6 -0.898953 1
gene 3 7 8 0.0341197 0 7 0.0341197 1
gene 1 5 9 0.991546 0 5 0.991546 1
gene 3 6 10 0.40315 0 6 0.40315 1
gene 1 7 11 0.422437 0 7 0.422437 1
genomeend 11

/* Organism #12 Fitness: 0 Error: 0 */
genomestart 12
trait 1 0.1 0 0 0 0.019138 0 0.0145529 0.000359546 
trait 2 0.13125 0.00965237 0.000704072 0.0354663 0.0815258 0.00213975 0.15371 0.0659175 
trait 3 0.288544 0 0.0299596 0.110561 0 0 0 0.16146 
node 1 2 1 1
node 2 3 1 1
node 3 3 1 1
node 4 1 1 1
node 5 1 1 1
node 6 1 1 1
node 7 2 1 3
node 8 1 0 2
node 9 2 0 2
node 10 1 0 2
node 11 1 0 2
gene 1 1 8 -0.632008 0 1 -0.632008 1
gene 2 2 8 0.757836 0 2 0.757836 1
gene 1 3 8 -0.41496 0 3 -0.41496 1
gene 1 4 8 0.540391 0 4 0.540391 1
gene 1 5 8 0.865566 0 5 0.865566 1
gene 3 6 8 -0.250465 0 6 -0.250465 1
gene 1 7 8 -0.824427 0 7 -0.824427 1
gene 3 5 9 -0.539354 0 5 -0.539354 1
gene 1 6 10 -0.723411 0 6 -0.723411 1
gene 3 7 11 -0.313425 0 7 -0.313425 1
genomeend 12

/* Organism #13 Fitness: 0 Error: 0 */
genomestart 13
trait 1 0.1 0 0 0 0.019138 0 0.0145529 0.000359546 
trait 2 0.13125 0.00965237 0.000704072 0.0354663 0.0815258 0.00213975 0.15371 0.0659175 
trait 3 0.288544 0 0.0299596 0.110561 0 0 0 0.16146 
node 1 1 1 1
node 2 2 1 1
node 3 1 1 1
node 4 3 1 1
node 5 1 1 1
node 6 3 1 1
node 7 3 1 3
node 8 3 0 2
node 9 3 0 2
node 10 3 0 2
node 11 3 0 2
gene 2 1 8 0.172399 0 1 0.172399 1
gene 1 2 8 -0.545427 0 2 -0.545427 1
gene 1 3 8 0.435896 0 3 0.435896 1
gene 3 4 8 0.544725 0 4 0.544725 1
gene 1 5 8 -0.736015 0 5 -0.736015 1
gene 2 6 8 0.714591 0 6 0.714591 1
gene 2 7 8 -0.818812 0 7 -0.818812 1
gene 2 5 9 -0.486526 0 5 -0.486526 1
gene 1 6 10 0.703024 0 6 0.703024 1
gene 2 7 11 0.518906 0 7 0.518906 1
genomeend 13

/* Organism #14 Fitness: 0 Error: 0 */
genomestart 14
trait 1 0.1 0 0 0 0.019138 0 0.0145529 0.000359546 
trait 2 0.13125 0.00965237 0.000704072 0.0354663 0.0815258 0.00213975 0.15371 0.0659175 
trait 3 0.288544 0 0.0299596 0.110561 0 0 0 0.16146 
node 1 3 1 1
node 2 2 1 1
node 3 2 1 1
node 4 2 1 1
node 5 1 1 1
node 6 2 1 1
node 7 1 1 3
node 8 3 0 2
node 9 2 0 2
node 10 3 0 2
node 11 2 0 2
gene 1 1 8 -0.0745262 0 1 -0.0745262 1
gene 1 2 8 0.774468 0 2 0.774468 1
gene 1 3 8 -0.0748314 0 3 -0.0748314 1
gene 2 4 8 -0.760308 0 4 -0.760308 1
gene 2 5 8 -0.520615 0 5 -0.520615 1
gene 3 6 8 0.471236 0 6 0.471236 1
gene 2 7 8 -0.062685 0 7 -0.062685 1
gene 2 5 9 -0.305338 0 5 -0.305338 1
gene 1 6 10 -0.143529 0 6 -0.143529 1
gene 1 7 11 -0.987335 0 7 -0.987335 1
genomeend 14

/* Organism #15 Fitness: 0 Error: 0 */
genomestart 15
trait 1 0.1 0 0 0 0.019138 0 0.0145529 0.000359546 
trait 2 0.13125 0.00965237 0.000704072 0.0354663 0.0815258 0.00213975 0.15371 0.0659175 
trait 3 0.288544 0 0.0299596 0.110561 0 0 0 0.16146 
node 1 2 1 1
node 2 2 1 1
node 3 2 1 1
node 4 3 1 1
node 5 1 1 1
node 6 1 1 1
node 7 2 1 3
node 8 2 0 2
node 9 3 0 2
node 10 3 0 2
node 11 3 0 2
gene 1 1 8 0.0480361 0 1 0.0480361 1
gene 2 2 8 0.416761 0 2 0.416761 1
gene 3 3 8 -0.780969 0 3 -0.780969 1
gene 3 4 8 -0.442793 0 4 -0.442793 1
gene 3 5 8 -0.270608 0 5 -0.270608 1
gene 1 6 8 -0.995727 0 6 -0.995727 1
gene 3 7 8 -0.440992 0 7 -0.440992 1
gene 3 5 9 0.386334 0 5 0.386334 1
gene 2 6 10 0.341258 0 6 0.341258 1
gene 3 7 11 0.892483 0 7 0.892483 1
genomeend 15

/* Organism #16 Fitness: 0 Error: 0 */
genomestart 16
trait 1 0.1 0 0 0 0.019138 0 0.0145529 0.000359546 
trait 2 0.13125 0.00965237 0.000704072 0.0354663 0.0815258 0.00213975 0.15371 0.0659175 
trait 3 0.288544 0 0.0299596 0.110561 0 0 0 0.16146 
node 1 1 1 1
node 2 2 1 1
node 3 3 1 1
node 4 1 1 1
node 5 3 1 1
node 6 3 1 1
node 7 3 1 3
node 8 3 0 2
node 9 2 0 2
node 10 1 0 2
node 11 2 0 2
gene 3 1 8 0.022187 0 1 0.022187 1
gene 3 2 8 -0.263161 0 2 -0.263161 1
gene 3 3 8 -0.616199 0 3 -0.616199 1
gene 3 4 8 -0.471023 0 4 -0.471023 1
gene 2 5 8 0.440504 0 5 0.440504 1
gene 2 6 8 -0.231574 0 6 -0.231574 1
gene 3 7 8 -0.180303 0 7 -0.180303 1
gene 2 5 9 -0.325236 0 5 -0.325236 1
gene 1 6 10 0.38728 0 6 0.38728 1
gene 2 7 11 -0.471969 0 7 -0.471969 1
genomeend 16

/* Organism #17 Fitness: 0 Error: 0 */
genomestart 17
trait 1 0.1 0 0 0 0.019138 0 0.0145529 0.000359546 
trait 2 0.13125 0.00965237 0.000704072 0.0354663 0.0815258 0.00213975 0.15371 0.0659175 
trait 3 0.288544 0 0.0299596 0.110561 0 0 0 0.16146 
node 1 2 1 1
node 2 3 1 1
node 3 2 1 1
node 4 1 1 1
node 5 3 1 1
node 6 2 1 1
node 7 1 1 3
node 8 1 0 2
node 9 1 0 2
node 10 3 0 2
node 11 1 0 2
gene 1 1 8 0.365184 0 1 0.365184 1
gene 2 2 8 -0.372692 0 2 -0.372692 1
gene 3 3 8 -0.375286 0 3 -0.375286 1
gene 1 4 8 -0.0213019 0 4 -0.0213019 1
gene 3 5 8 -0.567705 0 5 -0.567705 1
gene 1 6 8 -0.112857 0 6 -0.112857 1
gene 3 7 8 0.939512 0 7 0.939512 1
gene 1 5 9 0.390057 0 5 0.390057 1
gene 1 6 10 0.220771 0 6 0.220771 1
gene 3 7 11 -0.167302 0 7 -0.167302 1
genomeend 17

/* Organism #18 Fitness: 0 Error: 0 */
genomestart 18
trait 1 0.1 0 0 0 0.019138 0 0.0145529 0.000359546 
trait 2 0.13125 0.00965237 0.000704072 0.0354663 0.0815258 0.00213975 0.15371 0.0659175 
trait 3 0.288544 0 0.0299596 0.110561 0 0 0 0.16146 
node 1 1 1 1
node 2 1 1 1
node 3 1 1 1
node 4 1 1 1
node 5 2 1 1
node 6 3 1 1
node 7 1 1 3
node 8 3 0 2
node 9 3 0 2
node 10 3 0 2
node 11 1 0 2
gene 2 1 8 0.954802 0 1 0.954802 1
gene 2 2 8 0.370006 0 2 0.370006 1
gene 2 3 8 -0.639119 0 3 -0.639119 1
gene 2 4 8 -0.979766 0 4 -0.979766 1
gene 1 5 8 -0.471847 0 5 -0.471847 1
gene 1 6 8 -0.180548 0 6 -0.180548 1
gene 2 7 8 0.050264 0 7 0.050264 1
gene 2 5 9 0.0525224 0 5 0.0525224 1
gene 2 6 10 0.43202 0 6 0.43202 1
gene 2 7 11 -0.146306 0 7 -0.146306 1
genomeend 18

/* Organism #19 Fitness: 0 Error: 0 */
genomestart 19
trait 1 0.1 0 0 0 0.019138 0 0.0145529 0.000359546 
trait 2 0.13125 0.00965237 0.000704072 0.0354663 0.0815258 0.00213975 0.15371 0.0659175 
trait 3 0.288544 0 0.0299596 0.110561 0 0 0 0.16146 
node 1 2 1 1
node 2 2 1 1
node 3 1 1 1
node 4 3 1 1
node 5 1 1 1
node 6 2 1 1
node 7 3 1 3
node 8 1 0 2
node 9 3 0 2
node 10 1 0 2
node 11 2 0 2
gene 3 1 8 -0.154271 0 1 -0.154271 1
gene 3 2 8 -0.421827 0 2 -0.421827 1
gene 2 3 8 -0.833186 0 3 -0.833186 1
gene 2 4 8 -0.461776 0 4 -0.461776 1
gene 3 5 8 -0.343364 0 5 -0.343364 1
gene 3 6 8 0.984222 0 6 0.984222 1
gene 2 7 8 -0.634724 0 7 -0.634724 1
gene 1 5 9 0.610126 0 5 0.610126 1
gene 2 6 10 0.658254 0 6 0.658254 1
gene 2 7 11 -0.107059 0 7 -0.107059 1
genomeend 19

/* Organism #20 Fitness: 0 Error: 0 */
genomestart 20
trait 1 0.1 0 0 0 0.019138 0 0.0145529 0.000359546 
trait 2 0.13125 0.00965237 0.000704072 0.0354663 0.0815258 0.00213975 0.15371 0.0659175 
trait 3 0.288544 0 0.0299596 0.110561 0 0 0 0.16146 
node 1 1 1 1
node 2 1 1 1
node 3 2 1 1
node 4 2 1 1
node 5 1 1 1
node 6 2 1 1
node 7 2 1 3
node 8 3 0 2
node 9 1 0 2
node 10 2 0 2
node 11 3 0 2
gene 2 1 8 0.750359 0 1 0.750359 1
gene 1 2 8 -0.204596 0 2 -0.204596 1
gene 3 3 8 0.336711 0 3 0.336711 1
gene 2 4 8 0.969909 0 4 0.969909 1
gene 3 5 8 -0.122318 0 5 -0.122318 1
gene 1 6 8 -0.693594 0 6 -0.693594 1
gene 1 7 8 0.649129 0 7 0.649129 1
gene 2 5 9 0.750969 0 5 0.750969 1
gene 3 6 10 0.767693 0 6 0.767693 1
gene 1 7 11 -0.0593585 0 7 -0.0593585 1
genomeend 20

/* Organism #21 Fitness: 0 Error: 0 */
genomestart 21
trait 1 0.1 0 0 0 0.019138 0 0.0145529 0.000359546 
trait 2 0.13125 0.00965237 0.000704072 0.0354663 0.0815258 0.00213975 0.15371 0.0659175 
trait 3 0.288544 0 0.0299596 0.110561 0 0 0 0.16146 
node 1 2 1 1
node 2 3 1 1
node 3 3 1 1
node 4 2 1 1
node 5 2 1 1
node 6 1 1 1
node 7 3 1 3
node 8 1 0 2
node 9 2 0 2
node 10 2 0 2
node 11 3 0 2
gene 1 1 8 -0.252144 0 1 -0.252144 1
gene 2 2 8 -0.834712 0 2 -0.834712 1
gene 2 3 8 0.287393 0 3 0.287393 1
gene 3 4 8 -0.598163 0 4 -0.598163 1
gene 1 5 8 -0.371319 0 5 -0.371319 1
gene 3 6 8 -0.230293 0 6 -0.230293 1
gene 2 7 8 0.897153 0 7 0.897153 1
gene 2 5 9 0.555681 0 5 0.555681 1
gene 3 6 10 -0.831538 0 6 -0.831538 1
gene 3 7 11 -0.581652 0 7 -0.581652 1
genomeend 21

/* Organism #22 Fitness: 0 Error: 0 */
genomestart 22
trait 1 0.1 0 0 0 0.019138 0 0.0145529 0.000359546 
trait 2 0.13125 0.00965237 0.000704072 0.0354663 0.0815258 0.00213975 0.15371 0.0659175 
trait 3 0.288544 0 0.0299596 0.110561 0 0 0 0.16146 
node 1 3 1 1
node 2 1 1 1
node 3 1 1 1
node 4 3 1 1
node 5 1 1 1
node 6 1 1 1
node 7 2 1 3
node 8 3 0 2
node 9 3 0 2
node 10 2 0 2
node 11 1 0 2
gene 2 1 8 0.866085 0 1 0.866085 1
gene 3 2 8 0.530808 0 2 0.530808 1
gene 3 3 8 0.893735 0 3 0.893735 1
gene 3 4 8 -0.118046 0 4 -0.118046 1
gene 1 5 8 -0.577013 0 5 -0.577013 1
gene 1 6 8 0.014771 0 6 0.014771 1
gene 3 7 8 0.847133 0 7 0.847133 1
gene 3 5 9 -0.531846 0 5 -0.531846 1
gene 1 6 10 0.877987 0 6 0.877987 1
gene 2 7 11 0.618519 0 7 0.618519 1
genomeend 22

/* Organism #23 Fitness: 0 Error: 0 */
genomestart 23
trait 1 0.1 0 0 0 0.019138 0 0.0145529 0.000359546 
trait 2 0.13125 0.00965237 0.000704072 0.0354663 0.0815258 0.00213975 0.15371 0.0659175 
trait 3 0.288544 0 0.0299596 0.110561 0 0 0 0.16146 
node 1 2 1 1
node 2 3 1 1
node 3 3 1 1
node 4 2 1 1
node 5 1 1 1
node 6 1 1 1
node 7 3 1 3
node 8 2 0 2
node 9 3 0 2
node 10 2 0 2
node 11 1 0 2
gene 2 1 8 0.0432752 0 1 0.0432752 1
gene 2 2 8 0.0813929 0 2 0.0813929 1
gene 3 3 8 0.250862 0 3 0.250862 1
gene 1 4 8 0.157476 0 4 0.157476 1
gene 2 5 8 0.219825 0 5 0.219825 1
gene 3 6 8 0.162877 0 6 0.162877 1
gene 3 7 8 -0.370525 0 7 -0.370525 1
gene 2 5 9 0.287881 0 5 0.287881 1
gene 3 6 10 -0.0802026 0 6 -0.0802026 1
gene 3 7 11 -0.913663 0 7 -0.913663 1
genomeend 23

/* Organism #24 Fitness: 0 Error: 0 */
genomestart 24
trait 1 0.1 0 0 0 0.019138 0 0.0145529 0.000359546 
trait 2 0.13125 0.00965237 0.000704072 0.0354663 0.0815258 0.00213975 0.15371 0.0659175 
trait 3 0.288544 0 0.0299596 0.110561 0 0 0 0.16146 
node 1 2 1 1
node 2 3 1 1
node 3 2 1 1
node 4 1 1 1
node 5 3 1 1
node 6 2 1 1
node 7 2 1 3
node 8 2 0 2
node 9 2 0 2
node 10 2 0 2
node 11 2 0 2
gene 1 1 8 0.467391 0 1 0.467391 1
gene 3 2 8 -0.597613 0 2 -0.597613 1
gene 1 3 8 0.202033 0 3 0.202033 1
gene 3 4 8 -0.968627 0 4 -0.968627 1
gene 1 5 8 0.60509 0 5 0.60509 1
gene 2 6 8 0.54677 0 6 0.54677 1
gene 3 7 8 -0.558428 0 7 -0.558428 1
gene 1 5 9 -0.0461135 0 5 -0.0461135 1
gene 1 6 10 -0.512436 0 6 -0.512436 1
gene 1 7 11 -0.390759 0 7 -0.390759 1
genomeend 24

/* Organism #25 Fitness: 0 Error: 0 */
genomestart 25
trait 1 0.1 0 0 0 0.019138 0 0.0145529 0.000359546 
trait 2 0.13125 0.00965237 0.000704072 0.0354663 0.0815258 0.00213975 0.15371 0.0659175 
trait 3 0.288544 0 0.0299596 0.110561 0 0 0 0.16146 
node 1 1 1 1
node 2 1 1 1
node 3 3 1 1
node 4 1 1 1
node 5 2 1 1
node 6 2 1 1
node 7 2 1 3
node 8 3 0 2
node 9 3 0 2
node 10 3 0 2
node 11 1 0 2
gene 3 1 8 -0.735008 0 1 -0.735008 1
gene 3 2 8 0.459395 0 2 0.459395 1
gene 3 3 8 -0.61153 0 3 -0.61153 1
gene 3 4 8 0.286325 0 4 0.286325 1
gene 3 5 8 -0.629383 0 5 -0.629383 1
gene 2 6 8 -0.8211 0 6 -0.8211 1
gene 2 7 8 -0.567461 0 7 -0.567461 1
gene 1 5 9 0.211737 0 5 0.211737 1
gene 1 6 10 -0.997711 0 6 -0.997711 1
gene 1 7 11 -0.759056 0 7 -0.759056 1
genomeend 25

/* Organism #26 Fitness: 0 Error: 0 */
genomestart 26
trait 1 0.1 0 0 0 0.019138 0 0.0145529 0.000359546 
trait 2 0.13125 0.00965237 0.000704072 0.0354663 0.0815258 0.00213975 0.15371 0.0659175 
trait 3 0.288544 0 0.0299596 0.110561 0 0 0 0.16146 
node 1 1 1 1
node 2 1 1 1
node 3 2 1 1
node 4 2 1 1
node 5 2 1 1
node 6 1 1 1
node 7 3 1 3
node 8 1 0 2
node 9 2 0 2
node 10 3 0 2
node 11 3 0 2
gene 1 1 8 -0.00668355 0 1 -0.00668355 1
gene 1 2 8 0.505844 0 2 0.505844 1
gene 2 3 8 0.329295 0 3 0.329295 1
gene 3 4 8 0.955046 0 4 0.955046 1
gene 3 5 8 0.873379 0 5 0.873379 1
gene 1 6 8 -0.250008 0 6 -0.250008 1
gene 1 7 8 0.757195 0 7 0.757195 1
gene 3 5 9 0.598132 0 5 0.598132 1
gene 3 6 10 0.743645 0 6 0.743645 1
gene 3 7 11 0.971618 0 7 0.971618 1
genomeend 26

/* Organism #27 Fitness: 0 Error: 0 */
genomestart 27
trait 1 0.1 0 0 0 0.019138 0 0.0145529 0.000359546 
trait 2 0.13125 0.00965237 0.000704072 0.0354663 0.0815258 0.00213975 0.15371 0.0659175 
trait 3 0.288544 0 0.0299596 0.110561 0 0 0 0.16146 
node 1 3 1 1
node 2 3 1 1
node 3 3 1 1
node 4 2 1 1
node 5 1 1 1
node 6 2 1 1
node 7 3 1 3
node 8 3 0 2
node 9 3 0 2
node 10 2 0 2
node 11 1 0 2
gene 2 1 8 0.538347 0 1 0.538347 1
gene 1 2 8 0.218879 0 2 0.218879 1
gene 1 3 8 -0.125187 0 3 -0.125187 1
gene 1 4 8 0.932432 0 4 0.932432 1
gene 3 5 8 0.96054 0 5 0.96054 1
gene 3 6 8 -0.403485 0 6 -0.403485 1
gene 1 7 8 -0.250923 0 7 -0.250923 1
gene 1 5 9 0.207617 0 5 0.207617 1
gene 1 6 10 0.205634 0 6 0.205634 1
gene 1 7 11 -0.243141 0 7 -0.243141 1
genomeend 27

/* Organism #28 Fitness: 0 Error: 0 */
genomestart 28
trait 1 0.1 0 0 0 0.019138 0 0.0145529 0.000359546 
trait 2 0.13125 0.00965237 0.000704072 0.0354663 0.0815258 0.00213975 0.15371 0.0659175 
trait 3 0.288544 0 0.0299596 0.110561 0 0 0 0.16146 
node 1 3 1 1
node 2 2 1 1
node 3 3 1 1
node 4 2 1 1
node 5 1 1 1
node 6 3 1 1
node 7 1 1 3
node 8 3 0 2
node 9 3 0 2
node 10 3 0 2
node 11 1 0 2
gene 3 1 8 0.595172 0 1 0.595172 1
gene 2 2 8 -0.247261 0 2 -0.247261 1
gene 2 3 8 0.649525 0 3 0.649525 1
gene 3 4 8 -0.934385 0 4 -0.934385 1
gene 2 5 8 -0.249092 0 5 -0.249092 1
gene 3 6 8 -0.765496 0 6 -0.765496 1
gene 3 7 8 -0.901517 0 7 -0.901517 1
gene 3 5 9 -0.509171 0 5 -0.509171 1
gene 1 6 10 -0.325785 0 6 -0.325785 1
gene 3 7 11 0.85287 0 7 0.85287 1
genomeend 28

/* Organism #29 Fitness: 0 Error: 0 */
genomestart 29
trait 1 0.1 0 0 0 0.019138 0 0.0145529 0.000359546 
trait 2 0.13125 0.00965237 0.000704072 0.0354663 0.0815258 0.00213975 0.15371 0.0659175 
trait 3 0.288544 0 0.0299596 0.110561 0 0 0 0.16146 
node 1 3 1 1
node 2 1 1 1
node 3 2 1 1
node 4 1 1 1
node 5 2 1 1
node 6 2 1 1
node 7 1 1 3
node 8 2 0 2
node 9 2 0 2
node 10 1 0 2
node 11 3 0 2
gene 1 1 8 -0.592853 0 1 -0.592853 1
gene 2 2 8 0.717582 0 2 0.717582 1
gene 2 3 8 0.244362 0 3 0.244362 1
gene 3 4 8 -0.0196539 0 4 -0.0196539 1
gene 3 5 8 0.855953 0 5 0.855953 1
gene 3 6 8 -0.0651265 0 6 -0.0651265 1
gene 3 7 8 0.706107 0 7 0.706107 1
gene 3 5 9 0.818415 0 5 0.818415 1
gene 1 6 10 -0.596881 0 6 -0.596881 1
gene 1 7 11 -0.596332 0 7 -0.596332 1
genomeend 29

/* Organism #30 Fitness: 0 Error: 0 */
genomestart 30
trait 1 0.1 0 0 0 0.019138 0 0.0145529 0.000359546 
trait 2 0.13125 0.00965237 0.000704072 0.0354663 0.0815258 0.00213975 0.15371 0.0659175 
trait 3 0.288544 0 0.0299596 0.110561 0 0 0 0.16146 
node 1 1 1 1
node 2 1 1 1
node 3 1 1 1
node 4 2 1 1
node 5 2 1 1
node 6 2 1 1
node 7 1 1 3
node 8 1 0 2
node 9 1 0 2
node 10 3 0 2
node 11 2 0 2
gene 2 1 8 0.265542 0 1 0.265542 1
gene 2 2 8 -0.209815 0 2 -0.209815 1
gene 1 3 8 0.215369 0 3 0.215369 1
gene 1 4 8 0.00299081 0 4 0.00299081 1
gene 3 5 8 0.314798 0 5 0.314798 1
gene 2 6 8 -0.364818 0 6 -0.364818 1
gene 2 7 8 0.156926 0 7 0.156926 1
gene 2 5 9 0.661672 0 5 0.661672 1
gene 1 6 10 -0.294046 0 6 -0.294046 1
gene 3 7 11 0.157781 0 7 0.157781 1
genomeend 30

/* Organism #31 Fitness: 0 Error: 0 */
genomestart 31
trait 1 0.1 0 0 0 0.019138 0 0.0145529 0.000359546 
trait 2 0.13125 0.00965237 0.000704072 0.0354663 0.0815258 0.00213975 0.15371 0.0659175 
trait 3 0.288544 0 0.0299596 0.110561 0 0 0 0.16146 
node 1 1 1 1
node 2 1 1 1
node 3 1 1 1
node 4 2 1 1
node 5 2 1 1
node 6 2 1 1
node 7 2 1 3
node 8 3 0 2
node 9 1 0 2
node 10 1 0 2
node 11 2 0 2
gene 1 1 8 -0.567675 0 1 -0.567675 1
gene 1 2 8 -0.788263 0 2 -0.788263 1
gene 1 3 8 0.658498 0 3 0.658498 1
gene 2 4 8 -0.661702 0 4 -0.661702 1
gene 2 5 8 0.0944243 0 5 0.0944243 1
gene 2 6 8 0.393231 0 6 0.393231 1
gene 2 7 8 0.646535 0 7 0.646535 1
gene 3 5 9 0.333537 0 5 0.333537 1
gene 1 6 10 0.170568 0 6 0.170568 1
gene 2 7 11 -0.486038 0 7 -0.486038 1
genomeend 31

/* Organism #32 Fitness: 0 Error: 0 */
genomestart 32
trait 1 0.1 0 0 0 0.019138 0 0.0145529 0.000359546 
trait 2 0.13125 0.00965237 0.000704072 0.0354663 0.0815258 0.00213975 0.15371 0.0659175 
trait 3 0.288544 0 0.0299596 0.110561 0 0 0 0.16146 
node 1 2 1 1
node 2 1 1 1
node 3 2 1 1
node 4 3 1 1
node 5 1 1 1
node 6 3 1 1
node 7 2 1 3
node 8 3 0 2
node 9 2 0 2
node 10 2 0 2
node 11 3 0 2
gene 1 1 8 0.264992 0 1 0.264992 1
gene 3 2 8 -0.266152 0 2 -0.266152 1
gene 2 3 8 0.727195 0 3 0.727195 1
gene 1 4 8 0.55678 0 4 0.55678 1
gene 2 5 8 -0.757073 0 5 -0.757073 1
gene 1 6 8 -0.282083 0 6 -0.282083 1
gene 3 7 8 -0.342784 0 7 -0.342784 1
gene 1 5 9 0.261055 0 5 0.261055 1
gene 1 6 10 -0.61156 0 6 -0.61156 1
gene 2 7 11 -0.229713 0 7 -0.229713 1
genomeend 32

/* Organism #33 Fitness: 0 Error: 0 */
genomestart 33
trait 1 0.1 0 0 0 0.019138 0 0.0145529 0.000359546 
trait 2 0.13125 0.00965237 0.000704072 0.0354663 0.0815258 0.00213975 0.15371 0.0659175 
trait 3 0.288544 0 0.0299596 0.110561 0 0 0 0.16146 
node 1 3 1 1
node 2 3 1 1
node 3 3 1 1
node 4 2 1 1
node 5 2 1 1
node 6 3 1 1
node 7 2 1 3
node 8 1 0 2
node 9 3 0 2
node 10 3 0 2
node 11 2 0 2
gene 3 1 8 0.455092 0 1 0.455092 1
gene 2 2 8 -0.279427 0 2 -0.279427 1
gene 3 3 8 0.720695 0 3 0.720695 1
gene 3 4 8 -0.127628 0 4 -0.127628 1
gene 3 5 8 -0.0455641 0 5 -0.0455641 1
gene 3 6 8 0.578936 0 6 0.578936 1
gene 3 7 8 -0.261086 0 7 -0.261086 1
gene 1 5 9 -0.37431 0 5 -0.37431 1
gene 1 6 10 0.726676 0 6 0.726676 1
gene 3 7 11 -0.762841 0 7 -0.762841 1
genomeend 33

/* Organism #34 Fitness: 0 Error: 0 */
genomestart 34
trait 1 0.1 0 0 0 0.019138 0 0.0145529 0.000359546 
trait 2 0.13125 0.00965237 0.000704072 0.0354663 0.0815258 0.00213975 0.15371 0.0659175 
trait 3 0.288544 0 0.0299596 0.110561 0 0 0 0.16146 
node 1 1 1 1
node 2 3 1 1
node 3 2 1 1
node 4 2 1 1
node 5 1 1 1
node 6 2 1 1
node 7 2 1 3
node 8 2 0 2
node 9 2 0 2
node 10 1 0 2
node 11 3 0 2
gene 1 1 8 0.306864 0 1 0.306864 1
gene 3 2 8 0.883999 0 2 0.883999 1
gene 2 3 8 0.616443 0 3 0.616443 1
gene 1 4 8 -0.388379 0 4 -0.388379 1
gene 2 5 8 0.856655 0 5 0.856655 1
gene 3 6 8 -0.195959 0 6 -0.195959 1
gene 1 7 8 -0.881008 0 7 -0.881008 1
gene 1 5 9 0.248695 0 5 0.248695 1
gene 1 6 10 -0.771294 0 6 -0.771294 1
gene 2 7 11 0.897641 0 7 0.897641 1
genomeend 34

/* Organism #35 Fitness: 0 Error: 0 */
genomestart 35
trait 1 0.1 0 0 0 0.019138 0 0.0145529 0.000359546 
trait 2 0.13125 0.00965237 0.000704072 0.0354663 0.0815258 0.00213975 0.15371 0.0659175 
trait 3 0.288544 0 0.0299596 0.110561 0 0 0 0.16146 
node 1 3 1 1
node 2 1 1 1
node 3 2 1 1
node 4 3 1 1
node 5 2 1 1
node 6 3 1 1
node 7 3 1 3
node 8 3 0 2
node 9 1 0 2
node 10 1 0 2
node 11 2 0 2
gene 2 1 8 -0.151921 0 1 -0.151921 1
gene 3 2 8 0.666311 0 2 0.666311 1
gene 1 3 8 0.789575 0 3 0.789575 1
gene 3 4 8 -0.75338 0 4 -0.75338 1
gene 2 5 8 -0.80813 0 5 -0.80813 1
gene 3 6 8 -0.948302 0 6 -0.948302 1
gene 1 7 8 -0.0422376 0 7 -0.0422376 1
gene 1 5 9 -0.41319 0 5 -0.41319 1
gene 2 6 10 -0.795892 0 6 -0.795892 1
gene 1 7 11 -0.485458 0 7 -0.485458 1
genomeend 35

/* Organism #36 Fitness: 0 Error: 0 */
genomestart 36
trait 1 0.1 0 0 0 0.019138 0 0.0145529 0.000359546 
trait 2 0.13125 0.00965237 0.000704072 0.0354663 0.0815258 0.00213975 0.15371 0.0659175 
trait 3 0.288544 0 0.0299596 0.110561 0 0 0 0.16146 
node 1 1 1 1
node 2 3 1 1
node 3 3 1 1
node 4 1 1 1
node 5 3 1 1
node 6 2 1 1
node 7 1 1 3
node 8 3 0 2
node 9 2 0 2
node 10 2 0 2
node 11 3 0 2
gene 3 1 8 0.0732139 0 1 0.0732139 1
gene 1 2 8 -0.596362 0 2 -0.596362 1
gene 3 3 8 0.0801416 0 3 0.0801416 1
gene 2 4 8 0.230567 0 4 0.230567 1
gene 3 5 8 0.0994293 0 5 0.0994293 1
gene 2 6 8 -0.683889 0 6 -0.683889 1
gene 1 7 8 0.986175 0 7 0.986175 1
gene 1 5 9 -0.52797 0 5 -0.52797 1
gene 3 6 10 -0.768944 0 6 -0.768944 1
gene 1 7 11 0.974364 0 7 0.974364 1
genomeend 36

/* Organism #37 Fitness: 0 Error: 0 */
genomestart 37
trait 1 0.1 0 0 0 0.019138 0 0.0145529 0.000359546 
trait 2 0.13125 0.00965237 0.000704072 0.0354663 0.0815258 0.00213975 0.15371 0.0659175 
trait 3 0.288544 0 0.0299596 0.110561 0 0 0 0.16146 
node 1 2 1 1
node 2 2 1 1
node 3 3 1 1
node 4 3 1 1
node 5 2 1 1
node 6 2 1 1
node 7 1 1 3
node 8 1 0 2
node 9 3 0 2
node 10 2 0 2
node 11 2 0 2
gene 2 1 8 0.667165 0 1 0.667165 1
gene 2 2 8 0.836848 0 2 0.836848 1
gene 3 3 8 -0.507767 0 3 -0.507767 1
gene 2 4 8 0.313517 0 4 0.313517 1
gene 3 5 8 -0.725364 0 5 -0.725364 1
gene 3 6 8 -0.156987 0 6 -0.156987 1
gene 2 7 8 -0.134434 0 7 -0.134434 1
gene 1 5 9 0.863002 0 5 0.863002 1
gene 2 6 10 -0.681906 0 6 -0.681906 1
gene 2 7 11 0.321299 0 7 0.321299 1
genomeend 37

/* Organism #38 Fitness: 0 Error: 0 */
genomestart 38
trait 1 0.1 0 0 0 0.019138 0 0.0145529 0.000359546 
trait 2 0.13125 0.00965237 0.000704072 0.0354663 0.0815258 0.00213975 0.15371 0.0659175 
trait 3 0.288544 0 0.0299596 0.110561 0 0 0 0.16146 
node 1 1 1 1
node 2 3 1 1
node 3 2 1 1
node 4 3 1 1
node 5 1 1 1
node 6 3 1 1
node 7 1 1 3
node 8 1 0 2
node 9 2 0 2
node 10 1 0 2
node 11 2 0 2
gene 1 1 8 -0.487136 0 1 -0.487136 1
gene 2 2 8 -0.49794 0 2 -0.49794 1
gene 3 3 8 0.702322 0 3 0.702322 1
gene 2 4 8 -0.964782 0 4 -0.964782 1
gene 1 5 8 0.190863 0 5 0.190863 1
gene 3 6 8 0.121036 0 6 0.121036 1
gene 3 7 8 -0.937895 0 7 -0.937895 1
gene 1 5 9 -0.386883 0 5 -0.386883 1
gene 1 6 10 0.581957 0 6 0.581957 1
gene 1 7 11 -0.170476 0 7 -0.170476 1
genomeend 38

/* Organism #39 Fitness: 0 Error: 0 */
genomestart 39
trait 1 0.1 0 0 0 0.019138 0 0.0145529 0.000359546 
trait 2 0.13125 0.00965237 0.000704072 0.0354663 0.0815258 0.00213975 0.15371 0.0659175 
trait 3 0.288544 0 0.0299596 0.110561 0 0 0 0.16146 
node 1 3 1 1
node 2 2 1 1
node 3 3 1 1
node 4 3 1 1
node 5 2 1 1
node 6 2 1 1
node 7 2 1 3
node 8 1 0 2
node 9 2 0 2
node 10 2 0 2
node 11 1 0 2
gene 2 1 8 -0.940031 0 1 -0.940031 1
gene 3 2 8 -0.266335 0 2 -0.266335 1
gene 3 3 8 0.39259 0 3 0.39259 1
gene 2 4 8 -0.752861 0 4 -0.752861 1
gene 1 5 8 -0.686361 0 5 -0.686361 1
gene 3 6 8 -0.391247 0 6 -0.391247 1
gene 2 7 8 -0.202063 0 7 -0.202063 1
gene 1 5 9 0.347423 0 5 0.347423 1
gene 2 6 10 -0.0864284 0 6 -0.0864284 1
gene 2 7 11 -0.821711 0 7 -0.821711 1
genomeend 39

/* Organism #40 Fitness: 0 Error: 0 */
genomestart 40
trait 1 0.1 0 0 0 0.019138 0 0.0145529 0.000359546 
trait 2 0.13125 0.00965237 0.000704072 0.0354663 0.0815258 0.00213975 0.15371 0.0659175 
trait 3 0.288544 0 0.0299596 0.110561 0 0 0 0.16146 
node 1 3 1 1
node 2 2 1 1
node 3 3 1 1
node 4 1 1 1
node 5 2 1 1
node 6 2 1 1
node 7 3 1 3
node 8 1 0 2
node 9 3 0 2
node 10 2 0 2
node 11 2 0 2
gene 3 1 8 0.946593 0 1 0.946593 1
gene 2 2 8 0.865535 0 2 0.865535 1
gene 2 3 8 -0.499222 0 3 -0.499222 1
gene 3 4 8 -0.446303 0 4 -0.446303 1
gene 2 5 8 -0.719352 0 5 -0.719352 1
gene 3 6 8 -0.861599 0 6 -0.861599 1
gene 1 7 8 0.284738 0 7 0.284738 1
gene 1 5 9 -0.0762047 0 5 -0.0762047 1
gene 3 6 10 -0.684194 0 6 -0.684194 1
gene 1 7 11 -0.289377 0 7 -0.289377 1
genomeend 40

/* Organism #41 Fitness: 0 Error: 0 */
genomestart 41
trait 1 0.1 0 0 0 0.019138 0 0.0145529 0.000359546 
trait 2 0.13125 0.00965237 0.000704072 0.0354663 0.0815258 0.00213975 0.15371 0.0659175 
trait 3 0.288544 0 0.0299596 0.110561 0 0 0 0.16146 
node 1 2 1 1
node 2 1 1 1
node 3 3 1 1
node 4 2 1 1
node 5 2 1 1
node 6 2 1 1
node 7 3 1 3
node 8 1 0 2
node 9 3 0 2
node 10 2 0 2
node 11 3 0 2
gene 1 1 8 0.89819 0 1 0.89819 1
gene 3 2 8 0.790277 0 2 0.790277 1
gene 2 3 8 -0.00683615 0 3 -0.00683615 1
gene 2 4 8 -0.9588 0 4 -0.9588 1
gene 3 5 8 -0.954527 0 5 -0.954527 1
gene 3 6 8 -0.20603 0 6 -0.20603 1
gene 2 7 8 -0.287423 0 7 -0.287423 1
gene 3 5 9 0.461501 0 5 0.461501 1
gene 3 6 10 0.0654317 0 6 0.0654317 1
gene 2 7 11 0.113407 0 7 0.113407 1
genomeend 41

/* Organism #42 Fitness: 0 Error: 0 */
genomestart 42
trait 1 0.1 0 0 0 0.019138 0 0.0145529 0.000359546 
trait 2 0.13125 0.00965237 0.000704072 0.0354663 0.0815258 0.00213975 0.15371 0.0659175 
trait 3 0.288544 0 0.0299596 0.110561 0 0 0 0.16146 
node 1 1 1 1
node 2 2 1 1
node 3 3 1 1
node 4 2 1 1
node 5 3 1 1
node 6 2 1 1
node 7 2 1 3
node 8 2 0 2
node 9 2 0 2
node 10 2 0 2
node 11 3 0 2
gene 3 1 8 0.742973 0 1 0.742973 1
gene 3 2 8 0.930479 0 2 0.930479 1
gene 2 3 8 0.73748 0 3 0.73748 1
gene 1 4 8 0.719962 0 4 0.719962 1
gene 1 5 8 -0.207739 0 5 -0.207739 1
gene 3 6 8 -0.406934 0 6 -0.406934 1
gene 3 7 8 -0.0657674 0 7 -0.0657674 1
gene 2 5 9 0.0831935 0 5 0.0831935 1
gene 1 6 10 -0.706381 0 6 -0.706381 1
gene 1 7 11 -0.636341 0 7 -0.636341 1
genomeend 42

/* Organism #43 Fitness: 0 Error: 0 */
genomestart 43
trait 1 0.1 0 0 0 0.019138 0 0.0145529 0.000359546 
trait 2 0.13125 0.00965237 0.000704072 0.0354663 0.0815258 0.00213975 0.15371 0.0659175 
trait 3 0.288544 0 0.0299596 0.110561 0 0 0 0.16146 
node 1 1 1 1
node 2 3 1 1
node 3 3 1 1
node 4 1 1 1
node 5 3 1 1
node 6 2 1 1
node 7 2 1 3
node 8 3 0 2
node 9 2 0 2
node 10 2 0 2
node 11 2 0 2
gene 1 1 8 -0.438765 0 1 -0.438765 1
gene 2 2 8 0.671499 0 2 0.671499 1
gene 3 3 8 -0.843715 0 3 -0.843715 1
gene 3 4 8 0.0654012 0 4 0.0654012 1
gene 3 5 8 0.861873 0 5 0.861873 1
gene 2 6 8 -0.0227363 0 6 -0.0227363 1
gene 1 7 8 -0.473861 0 7 -0.473861 1
gene 1 5 9 -0.158879 0 5 -0.158879 1
gene 1 6 10 0.328745 0 6 0.328745 1
gene 1 7 11 0.308573 0 7 0.308573 1
genomeend 43

/* Organism #44 Fitness: 0 Error: 0 */
genomestart 44
trait 1 0.1 0 0 0 0.019138 0 0.0145529 0.000359546 
trait 2 0.13125 0.00965237 0.000704072 0.0354663 0.0815258 0.00213975 0.15371 0.0659175 
trait 3 0.288544 0 0.0299596 0.110561 0 0 0 0.16146 
node 1 3 1 1
node 2 3 1 1
node 3 2 1 1
node 4 1 1 1
node 5 3 1 1
node 6 2 1 1
node 7 3 1 3
node 8 3 0 2
node 9 2 0 2
node 10 1 0 2
node 11 2 0 2
gene 1 1 8 -0.255837 0 1 -0.255837 1
gene 3 2 8 -0.525407 0 2 -0.525407 1
gene 1 3 8 -0.0180059 0 3 -0.0180059 1
gene 3 4 8 0.93112 0 4 0.93112 1
gene 1 5 8 -0.373363 0 5 -0.373363 1
gene 3 6 8 -0.567705 0 6 -0.567705 1
gene 3 7 8 -0.9635 0 7 -0.9635 1
gene 2 5 9 0.851344 0 5 0.851344 1
gene 1 6 10 0.307749 0 6 0.307749 1
gene 3 7 11 0.425977 0 7 0.425977 1
genomeend 44

/* Organism #45 Fitness: 0 Error: 0 */
genomestart 45
trait 1 0.1 0 0 0 0.019138 0 0.0145529 0.000359546 
trait 2 0.13125 0.00965237 0.000704072 0.0354663 0.0815258 0.00213975 0.15371 0.0659175 
trait 3 0.288544 0 0.0299596 0.110561 0 0 0 0.16146 
node 1 1 1 1
node 2 1 1 1
node 3 1 1 1
node 4 2 1 1
node 5 1 1 1
node 6 2 1 1
node 7 1 1 3
node 8 2 0 2
node 9 3 0 2
node 10 2 0 2
node 11 2 0 2
gene 2 1 8 0.0583819 0 1 0.0583819 1
gene 2 2 8 -0.986877 0 2 -0.986877 1
gene 3 3 8 -0.838984 0 3 -0.838984 1
gene 1 4 8 -0.00549333 0 4 -0.00549333 1
gene 3 5 8 -0.297891 0 5 -0.297891 1
gene 3 6 8 0.920408 0 6 0.920408 1
gene 1 7 8 -0.0699484 0 7 -0.0699484 1
gene 2 5 9 -0.000457778 0 5 -0.000457778 1
gene 3 6 10 -0.576708 0 6 -0.576708 1
gene 3 7 11 -0.0485855 0 7 -0.0485855 1
genomeend 45

/* Organism #46 Fitness: 0 Error: 0 */
genomestart 46
trait 1 0.1 0 0 0 0.019138 0 0.0145529 0.000359546 
trait 2 0.13125 0.00965237 0.000704072 0.0354663 0.0815258 0.00213975 0.15371 0.0659175 
trait 3 0.288544 0 0.0299596 0.110561 0 0 0 0.16146 
node 1 1 1 1
node 2 2 1 1
node 3 3 1 1
node 4 3 1 1
node 5 3 1 1
node 6 1 1 1
node 7 2 1 3
node 8 2 0 2
node 9 1 0 2
node 10 2 0 2
node 11 1 0 2
gene 3 1 8 0.142369 0 1 0.142369 1
gene 3 2 8 -0.792901 0 2 -0.792901 1
gene 1 3 8 0.773766 0 3 0.773766 1
gene 1 4 8 -0.692465 0 4 -0.692465 1
gene 3 5 8 -0.718467 0 5 -0.718467 1
gene 2 6 8 0.394452 0 6 0.394452 1
gene 3 7 8 -0.333171 0 7 -0.333171 1
gene 2 5 9 0.78988 0 5 0.78988 1
gene 2 6 10 0.908841 0 6 0.908841 1
gene 2 7 11 0.654958 0 7 0.654958 1
genomeend 46

/* Organism #47 Fitness: 0 Error: 0 */
genomestart 47
trait 1 0.1 0 0 0 0.019138 0 0.0145529 0.000359546 
trait 2 0.13125 0.00965237 0.000704072 0.0354663 0.0815258 0.00213975 0.15371 0.0659175 
trait 3 0.288544 0 0.0299596 0.110561 0 0 0 0.16146 
node 1 2 1 1
node 2 1 1 1
node 3 1 1 1
node 4 2 1 1
node 5 1 1 1
node 6 2 1 1
node 7 1 1 3
node 8 2 0 2
node 9 2 0 2
node 10 3 0 2
node 11 3 0 2
gene 3 1 8 -0.404462 0 1 -0.404462 1
gene 1 2 8 -0.968932 0 2 -0.968932 1
gene 3 3 8 0.877316 0 3 0.877316 1
gene 3 4 8 -0.495712 0 4 -0.495712 1
gene 3 5 8 -0.0553911 0 5 -0.0553911 1
gene 3 6 8 0.117954 0 6 0.117954 1
gene 1 7 8 -0.253273 0 7 -0.253273 1
gene 1 5 9 0.439497 0 5 0.439497 1
gene 1 6 10 0.782342 0 6 0.782342 1
gene 1 7 11 -0.543718 0 7 -0.543718 1
genomeend 47

/* Organism #48 Fitness: 0 Error: 0 */
genomestart 48
trait 1 0.1 0 0 0 0.019138 0 0.0145529 0.000359546 
trait 2 0.13125 0.00965237 0.000704072 0.0354663 0.0815258 0.00213975 0.15371 0.0659175 
trait 3 0.288544 0 0.0299596 0.110561 0 0 0 0.16146 
node 1 1 1 1
node 2 3 1 1
node 3 2 1 1
node 4 2 1 1
node 5 1 1 1
node 6 2 1 1
node 7 3 1 3
node 8 2 0 2
node 9 1 0 2
node 10 2 0 2
node 11 3 0 2
gene 2 1 8 -0.544908 0 1 -0.544908 1
gene 3 2 8 0.42555 0 2 0.42555 1
gene 1 3 8 -0.734001 0 3 -0.734001 1
gene 2 4 8 -0.239082 0 4 -0.239082 1
gene 3 5 8 0.912748 0 5 0.912748 1
gene 3 6 8 -0.223548 0 6 -0.223548 1
gene 1 7 8 0.130528 0 7 0.130528 1
gene 3 5 9 -0.191595 0 5 -0.191595 1
gene 1 6 10 -0.0150456 0 6 -0.0150456 1
gene 1 7 11 -0.613392 0 7 -0.613392 1
genomeend 48

/* Organism #49 Fitness: 0 Error: 0 */
genomestart 49
trait 1 0.1 0 0 0 0.019138 0 0.0145529 0.000359546 
trait 2 0.13125 0.00965237 0.000704072 0.0354663 0.0815258 0.00213975 0.15371 0.0659175 
trait 3 0.288544 0 0.0299596 0.110561 0 0 0 0.16146 
node 1 1 1 1
node 2 3 1 1
node 3 2 1 1
node 4 3 1 1
node 5 3 1 1
node 6 3 1 1
node 7 3 1 3
node 8 1 0 2
node 9 3 0 2
node 10 1 0 2
node 11 2 0 2
gene 1 1 8 -0.83755 0 1 -0.83755 1
gene 3 2 8 0.569628 0 2 0.569628 1
gene 1 3 8 -0.173956 0 3 -0.173956 1
gene 1 4 8 0.443709 0 4 0.443709 1
gene 1 5 8 -0.570666 0 5 -0.570666 1
gene 1 6 8 -0.0112918 0 6 -0.0112918 1
gene 1 7 8 -0.694876 0 7 -0.694876 1
gene 3 5 9 -0.622486 0 5 -0.622486 1
gene 1 6 10 0.799249 0 6 0.799249 1
gene 1 7 11 0.473891 0 7 0.473891 1
genomeend 49

/* Organism #50 Fitness: 0 Error: 0 */
genomestart 50
trait 1 0.1 0 0 0 0.019138 0 0.0145529 0.000359546 
trait 2 0.13125 0.00965237 0.000704072 0.0354663 0.0815258 0.00213975 0.15371 0.0659175 
trait 3 0.288544 0 0.0299596 0.110561 0 0 0 0.16146 
node 1 1 1 1
node 2 3 1 1
node 3 2 1 1
node 4 3 1 1
node 5 2 1 1
node 6 3 1 1
node 7 2 1 3
node 8 1 0 2
node 9 2 0 2
node 10 3 0 2
node 11 1 0 2
gene 2 1 8 -0.253639 0 1 -0.253639 1
gene 3 2 8 0.859737 0 2 0.859737 1
gene 2 3 8 0.319193 0 3 0.319193 1
gene 2 4 8 0.102359 0 4 0.102359 1
gene 3 5 8 -0.00631733 0 5 -0.00631733 1
gene 3 6 8 0.741203 0 6 0.741203 1
gene 2 7 8 -0.629475 0 7 -0.629475 1
gene 2 5 9 -0.137883 0 5 -0.137883 1
gene 1 6 10 -0.400678 0 6 -0.400678 1
gene 2 7 11 -0.825587 0 7 -0.825587 1
genomeend 50

/* Organism #51 Fitness: 0 Error: 0 */
genomestart 51
trait 1 0.1 0 0 0 0.019138 0 0.0145529 0.000359546 
trait 2 0.13125 0.00965237 0.000704072 0.0354663 0.0815258 0.00213975 0.15371 0.0659175 
trait 3 0.288544 0 0.0299596 0.110561 0 0 0 0.16146 
node 1 1 1 1
node 2 2 1 1
node 3 2 1 1
node 4 3 1 1
node 5 2 1 1
node 6 3 1 1
node 7 2 1 3
node 8 3 0 2
node 9 1 0 2
node 10 2 0 2
node 11 3 0 2
gene 1 1 8 0.104495 0 1 0.104495 1
gene 1 2 8 0.615894 0 2 0.615894 1
gene 3 3 8 0.59093 0 3 0.59093 1
gene 2 4 8 0.0826746 0 4 0.0826746 1
gene 3 5 8 -0.227485 0 5 -0.227485 1
gene 1 6 8 0.427107 0 6 0.427107 1
gene 1 7 8 0.121281 0 7 0.121281 1
gene 3 5 9 -0.93762 0 5 -0.93762 1
gene 2 6 10 -0.794916 0 6 -0.794916 1
gene 2 7 11 -0.658284 0 7 -0.658284 1
genomeend 51

/* Organism #52 Fitness: 0 Error: 0 */
genomestart 52
trait 1 0.1 0 0 0 0.019138 0 0.0145529 0.000359546 
trait 2 0.13125 0.00965237 0.000704072 0.0354663 0.0815258 0.00213975 0.15371 0.0659175 
trait 3 0.288544 0 0.0299596 0.110561 0 0 0 0.16146 
node 1 3 1 1
node 2 2 1 1
node 3 3 1 1
node 4 1 1 1
node 5 1 1 1
node 6 1 1 1
node 7 2 1 3
node 8 1 0 2
node 9 2 0 2
node 10 1 0 2
node 11 2 0 2
gene 1 1 8 0.592059 0 1 0.592059 1
gene 1 2 8 0.604633 0 2 0.604633 1
gene 1 3 8 0.338267 0 3 0.338267 1
gene 1 4 8 -0.419752 0 4 -0.419752 1
gene 2 5 8 -0.512711 0 5 -0.512711 1
gene 3 6 8 0.0430616 0 6 0.0430616 1
gene 2 7 8 0.173467 0 7 0.173467 1
gene 2 5 9 -0.580462 0 5 -0.580462 1
gene 3 6 10 -0.520341 0 6 -0.520341 1
gene 3 7 11 -0.0536821 0 7 -0.0536821 1
genomeend 52

/* Organism #53 Fitness: 0 Error: 0 */
genomestart 53
trait 1 0.1 0 0 0 0.019138 0 0.0145529 0.000359546 
trait 2 0.13125 0.00965237 0.000704072 0.0354663 0.0815258 0.00213975 0.15371 0.0659175 
trait 3 0.288544 0 0.0299596 0.110561 0 0 0 0.16146 
node 1 3 1 1
node 2 3 1 1
node 3 1 1 1
node 4 2 1 1
node 5 3 1 1
node 6 3 1 1
node 7 2 1 3
node 8 3 0 2
node 9 2 0 2
node 10 2 0 2
node 11 1 0 2
gene 1 1 8 -0.688894 0 1 -0.688894 1
gene 1 2 8 -0.470931 0 2 -0.470931 1
gene 3 3 8 0.187506 0 3 0.187506 1
gene 3 4 8 0.414838 0 4 0.414838 1
gene 3 5 8 -0.54622 0 5 -0.54622 1
gene 3 6 8 0.235786 0 6 0.235786 1
gene 3 7 8 -0.649953 0 7 -0.649953 1
gene 3 5 9 0.0514237 0 5 0.0514237 1
gene 2 6 10 0.937498 0 6 0.937498 1
gene 2 7 11 0.229896 0 7 0.229896 1
genomeend 53

/* Organism #54 Fitness: 0 Error: 0 */
genomestart 54
trait 1 0.1 0 0 0 0.019138 0 0.0145529 0.000359546 
trait 2 0.13125 0.00965237 0.000704072 0.0354663 0.0815258 0.00213975 0.15371 0.0659175 
trait 3 0.288544 0 0.0299596 0.110561 0 0 0 0.16146 
node 1 2 1 1
node 2 1 1 1
node 3 1 1 1
node 4 3 1 1
node 5 3 1 1
node 6 1 1 1
node 7 1 1 3
node 8 2 0 2
node 9 2 0 2
node 10 2 0 2
node 11 1 0 2
gene 1 1 8 -0.089114 0 1 -0.089114 1
gene 3 2 8 0.327128 0 2 0.327128 1
gene 2 3 8 -0.183386 0 3 -0.183386 1
gene 2 4 8 -0.0252998 0 4 -0.0252998 1
gene 1 5 8 -0.183294 0 5 -0.183294 1
gene 2 6 8 0.102573 0 6 0.102573 1
gene 2 7 8 0.277169 0 7 0.277169 1
gene 2 5 9 -0.790277 0 5 -0.790277 1
gene 3 6 10 0.371868 0 6 0.371868 1
gene 3 7 11 -0.676565 0 7 -0.676565 1
genomeend 54

/* Organism #55 Fitness: 0 Error: 0 */
genomestart 55
trait 1 0.1 0 0 0 0.019138 0 0.0145529 0.000359546 
trait 2 0.13125 0.00965237 0.000704072 0.0354663 0.0815258 0.00213975 0.15371 0.0659175 
trait 3 0.288544 0 0.0299596 0.110561 0 0 0 0.16146 
node 1 1 1 1
node 2 3 1 1
node 3 1 1 1
node 4 3 1 1
node 5 3 1 1
node 6 2 1 1
node 7 1 1 3
node 8 1 0 2
node 9 1 0 2
node 10 3 0 2
node 11 3 0 2
gene 2 1 8 0.288339 0 1 0.288339 1
gene 1 2 8 0.28956 0 2 0.28956 1
gene 1 3 8 0.77102 0 3 0.77102 1
gene 2 4 8 0.269723 0 4 0.269723 1
gene 1 5 8 -0.502426 0 5 -0.502426 1
gene 3 6 8 -0.803919 0 6 -0.803919 1
gene 1 7 8 -0.883938 0 7 -0.883938 1
gene 2 5 9 0.529527 0 5 0.529527 1
gene 2 6 10 0.575976 0 6 0.575976 1
gene 1 7 11 -0.9541 0 7 -0.9541 1
genomeend 55

/* Organism #56 Fitness: 0 Error: 0 */
genomestart 56
trait 1 0.1 0 0 0 0.019138 0 0.0145529 0.000359546 
trait 2 0.13125 0.00965237 0.000704072 0.0354663 0.0815258 0.00213975 0.15371 0.0659175 
trait 3 0.288544 0 0.0299596 0.110561 0 0 0 0.16146 
node 1 1 1 1
node 2 2 1 1
node 3 1 1 1
node 4 2 1 1
node 5 3 1 1
node 6 1 1 1
node 7 2 1 3
node 8 3 0 2
node 9 3 0 2
node 10 1 0 2
node 11 3 0 2
gene 2 1 8 -0.0938444 0 1 -0.0938444 1
gene 2 2 8 0.65865 0 2 0.65865 1
gene 3 3 8 0.722831 0 3 0.722831 1
gene 2 4 8 0.757836 0 4 0.757836 1
gene 1 5 8 0.982482 0 5 0.982482 1
gene 3 6 8 0.660512 0 6 0.660512 1
gene 2 7 8 -0.767266 0 7 -0.767266 1
gene 3 5 9 0.535905 0 5 0.535905 1
gene 3 6 10 0.288858 0 6 0.288858 1
gene 2 7 11 -0.699423 0 7 -0.699423 1
genomeend 56

/* Organism #57 Fitness: 0 Error: 0 */
genomestart 57
trait 1 0.1 0 0 0 0.019138 0 0.0145529 0.000359546 
trait 2 0.13125 0.00965237 0.000704072 0.0354663 0.0815258 0.00213975 0.15371 0.0659175 
trait 3 0.288544 0 0.0299596 0.110561 0 0 0 0.16146 
node 1 2 1 1
node 2 1 1 1
node 3 1 1 1
node 4 3 1 1
node 5 1 1 1
node 6 3 1 1
node 7 3 1 3
node 8 3 0 2
node 9 3 0 2
node 10 1 0 2
node 11 3 0 2
gene 2 1 8 -0.455367 0 1 -0.455367 1
gene 3 2 8 -0.897519 0 2 -0.897519 1
gene 1 3 8 0.818781 0 3 0.818781 1
gene 2 4 8 0.120273 0 4 0.120273 1
gene 3 5 8 0.907651 0 5 0.907651 1
gene 2 6 8 -0.793847 0 6 -0.793847 1
gene 1 7 8 -0.367504 0 7 -0.367504 1
gene 2 5 9 0.390698 0 5 0.390698 1
gene 3 6 10 0.277474 0 6 0.277474 1
gene 2 7 11 -0.635395 0 7 -0.635395 1
genomeend 57

/* Organism #58 Fitness: 0 Error: 0 */
genomestart 58
trait 1 0.1 0 0 0 0.019138 0 0.0145529 0.000359546 
trait 2 0.13125 0.00965237 0.000704072 0.0354663 0.0815258 0.00213975 0.15371 0.0659175 
trait 3 0.288544 0 0.0299596 0.110561 0 0 0 0.16146 
node 1 2 1 1
node 2 3 1 1
node 3 3 1 1
node 4 2 1 1
node 5 3 1 1
node 6 3 1 1
node 7 2 1 3
node 8 3 0 2
node 9 1 0 2
node 10 1 0 2
node 11 1 0 2
gene 2 1 8 -0.0802332 0 1 -0.0802332 1
gene 2 2 8 0.731864 0 2 0.731864 1
gene 1 3 8 0.865383 0 3 0.865383 1
gene 3 4 8 0.659474 0 4 0.659474 1
gene 2 5 8 -0.343547 0 5 -0.343547 1
gene 1 6 8 -0.528031 0 6 -0.528031 1
gene 2 7 8 -0.890378 0 7 -0.890378 1
gene 1 5 9 -0.012299 0 5 -0.012299 1
gene 2 6 10 0.1854 0 6 0.1854 1
gene 3 7 11 0.158452 0 7 0.158452 1
genomeend 58

/* Organism #59 Fitness: 0 Error: 0 */
genomestart 59
trait 1 0.1 0 0 0 0.019138 0 0.0145529 0.000359546 
trait 2 0.13125 0.00965237 0.000704072 0.0354663 0.0815258 0.00213975 0.15371 0.0659175 
trait 3 0.288544 0 0.0299596 0.110561 0 0 0 0.16146 
node 1 2 1 1
node 2 3 1 1
node 3 2 1 1
node 4 1 1 1
node 5 2 1 1
node 6 1 1 1
node 7 1 1 3
node 8 3 0 2
node 9 2 0 2
node 10 2 0 2
node 11 3 0 2
gene 3 1 8 -0.698996 0 1 -0.698996 1
gene 3 2 8 -0.136204 0 2 -0.136204 1
gene 2 3 8 -0.406842 0 3 -0.406842 1
gene 2 4 8 0.0379955 0 4 0.0379955 1
gene 2 5 8 -0.0589618 0 5 -0.0589618 1
gene 2 6 8 -0.550951 0 6 -0.550951 1
gene 1 7 8 -0.852138 0 7 -0.852138 1
gene 1 5 9 0.724174 0 5 0.724174 1
gene 2 6 10 -0.733207 0 6 -0.733207 1
gene 3 7 11 -0.623829 0 7 -0.623829 1
genomeend 59

/* Organism #60 Fitness: 0 Error: 0 */
genomestart 60
trait 1 0.1 0 0 0 0.019138 0 0.0145529 0.000359546 
trait 2 0.13125 0.00965237 0.000704072 0.0354663 0.0815258 0.00213975 0.15371 0.0659175 
trait 3 0.288544 0 0.0299596 0.110561 0 0 0 0.16146 
node 1 1 1 1
node 2 1 1 1
node 3 2 1 1
node 4 1 1 1
node 5 3 1 1
node 6 1 1 1
node 7 2 1 3
node 8 3 0 2
node 9 3 0 2
node 10 1 0 2
node 11 3 0 2
gene 1 1 8 0.958983 0 1 0.958983 1
gene 1 2 8 0.524003 0 2 0.524003 1
gene 2 3 8 -0.779321 0 3 -0.779321 1
gene 3 4 8 0.849757 0 4 0.849757 1
gene 1 5 8 -0.651723 0 5 -0.651723 1
gene 2 6 8 0.32609 0 6 0.32609 1
gene 1 7 8 -0.487106 0 7 -0.487106 1
gene 3 5 9 0.124393 0 5 0.124393 1
gene 3 6 10 0.185034 0 6 0.185034 1
gene 2 7 11 0.739525 0 7 0.739525 1
genomeend 60

/* Organism #61 Fitness: 0 Error: 0 */
genomestart 61
trait 1 0.1 0 0 0 0.019138 0 0.0145529 0.000359546 
trait 2 0.13125 0.00965237 0.000704072 0.0354663 0.0815258 0.00213975 0.15371 0.0659175 
trait 3 0.288544 0 0.0299596 0.110561 0 0 0 0.16146 
node 1 3 1 1
node 2 1 1 1
node 3 3 1 1
node 4 1 1 1
node 5 2 1 1
node 6 1 1 1
node 7 3 1 3
node 8 3 0 2
node 9 3 0 2
node 10 2 0 2
node 11 3 0 2
gene 3 1 8 0.391156 0 1 0.391156 1
gene 2 2 8 0.110385 0 2 0.110385 1
gene 2 3 8 -0.590167 0 3 -0.590167 1
gene 1 4 8 -0.423322 0 4 -0.423322 1
gene 1 5 8 0.729331 0 5 0.729331 1
gene 1 6 8 -0.64742 0 6 -0.64742 1
gene 2 7 8 -0.903928 0 7 -0.903928 1
gene 1 5 9 -0.467635 0 5 -0.467635 1
gene 3 6 10 0.6021 0 6 0.6021 1
gene 1 7 11 -0.586718 0 7 -0.586718 1
genomeend 61

/* Organism #62 Fitness: 0 Error: 0 */
genomestart 62
trait 1 0.1 0 0 0 0.019138 0 0.0145529 0.000359546 
trait 2 0.13125 0.00965237 0.000704072 0.0354663 0.0815258 0.00213975 0.15371 0.0659175 
trait 3 0.288544 0 0.0299596 0.110561 0 0 0 0.16146 
node 1 1 1 1
node 2 1 1 1
node 3 3 1 1
node 4 3 1 1
node 5 2 1 1
node 6 1 1 1
node 7 1 1 3
node 8 1 0 2
node 9 3 0 2
node 10 1 0 2
node 11 1 0 2
gene 2 1 8 -0.437025 0 1 -0.437025 1
gene 2 2 8 -0.690237 0 2 -0.690237 1
gene 2 3 8 0.511979 0 3 0.511979 1
gene 1 4 8 0.346446 0 4 0.346446 1
gene 1 5 8 0.610157 0 5 0.610157 1
gene 1 6 8 0.921415 0 6 0.921415 1
gene 3 7 8 0.421369 0 7 0.421369 1
gene 1 5 9 0.299875 0 5 0.299875 1
gene 3 6 10 -0.00366222 0 6 -0.00366222 1
gene 1 7 11 0.259957 0 7 0.259957 1
genomeend 62

/* Organism #63 Fitness: 0 Error: 0 */
genomestart 63
trait 1 0.1 0 0 0 0.019138 0 0.0145529 0.000359546 
trait 2 0.13125 0.00965237 0.000704072 0.0354663 0.0815258 0.00213975 0.15371 0.0659175 
trait 3 0.288544 0 0.0299596 0.110561 0 0 0 0.16146 
node 1 3 1 1
node 2 3 1 1
node 3 2 1 1
node 4 2 1 1
node 5 3 1 1
node 6 3 1 1
node 7 3 1 3
node 8 1 0 2
node 9 1 0 2
node 10 1 0 2
node 11 1 0 2
gene 3 1 8 -0.252998 0 1 -0.252998 1
gene 3 2 8 -0.664785 0 2 -0.664785 1
gene 1 3 8 0.663686 0 3 0.663686 1
gene 2 4 8 0.529862 0 4 0.529862 1
gene 3 5 8 -0.41139 0 5 -0.41139 1
gene 1 6 8 -0.746879 0 6 -0.746879 1
gene 3 7 8 0.992218 0 7 0.992218 1
gene 1 5 9 -0.882138 0 5 -0.882138 1
gene 1 6 10 -0.624897 0 6 -0.624897 1
gene 3 7 11 0.975127 0 7 0.975127 1
genomeend 63

/* Organism #64 Fitness: 0 Error: 0 */
genomestart 64
trait 1 0.1 0 0 0 0.019138 0 0.0145529 0.000359546 
trait 2 0.13125 0.00965237 0.000704072 0.0354663 0.0815258 0.00213975 0.15371 0.0659175 
trait 3 0.288544 0 0.0299596 0.110561 0 0 0 0.16146 
node 1 3 1 1
node 2 3 1 1
node 3 3 1 1
node 4 1 1 1
node 5 3 1 1
node 6 2 1 1
node 7 1 1 3
node 8 2 0 2
node 9 3 0 2
node 10 1 0 2
node 11 2 0 2
gene 3 1 8 -0.164647 0 1 -0.164647 1
gene 3 2 8 0.902432 0 2 0.902432 1
gene 2 3 8 -0.442518 0 3 -0.442518 1
gene 1 4 8 0.30015 0 4 0.30015 1
gene 2 5 8 0.0412305 0 5 0.0412305 1
gene 3 6 8 0.368053 0 6 0.368053 1
gene 2 7 8 -0.336924 0 7 -0.336924 1
gene 2 5 9 -0.323893 0 5 -0.323893 1
gene 2 6 10 -0.786828 0 6 -0.786828 1
gene 3 7 11 0.756523 0 7 0.756523 1
genomeend 64

/* Organism #65 Fitness: 0 Error: 0 */
genomestart 65
trait 1 0.1 0 0 0 0.019138 0 0.0145529 0.000359546 
trait 2 0.13125 0.00965237 0.000704072 0.0354663 0.0815258 0.00213975 0.15371 0.0659175 
trait 3 0.288544 0 0.0299596 0.110561 0 0 0 0.16146 
node 1 1 1 1
node 2 1 1 1
node 3 1 1 1
node 4 3 1 1
node 5 3 1 1
node 6 3 1 1
node 7 2 1 3
node 8 1 0 2
node 9 3 0 2
node 10 3 0 2
node 11 1 0 2
gene 2 1 8 0.974517 0 1 0.974517 1
gene 1 2 8 -0.663076 0 2 -0.663076 1
gene 1 3 8 -0.634358 0 3 -0.634358 1
gene 3 4 8 0.0196234 0 4 0.0196234 1
gene 3 5 8 -0.364086 0 5 -0.364086 1
gene 3 6 8 0.0949431 0 6 0.0949431 1
gene 1 7 8 -0.992706 0 7 -0.992706 1
gene 2 5 9 0.752464 0 5 0.752464 1
gene 1 6 10 -0.920438 0 6 -0.920438 1
gene 3 7 11 0.264199 0 7 0.264199 1
genomeend 65

/* Organism #66 Fitness: 0 Error: 0 */
genomestart 66
trait 1 0.1 0 0 0 0.019138 0 0.0145529 0.000359546 
trait 2 0.13125 0.00965237 0.000704072 0.0354663 0.0815258 0.00213975 0.15371 0.0659175 
trait 3 0.288544 0 0.0299596 0.110561 0 0 0 0.16146 
node 1 1 1 1
node 2 1 1 1
node 3 1 1 1
node 4 1 1 1
node 5 3 1 1
node 6 3 1 1
node 7 3 1 3
node 8 2 0 2
node 9 3 0 2
node 10 1 0 2
node 11 2 0 2
gene 1 1 8 -0.371136 0 1 -0.371136 1
gene 3 2 8 0.170721 0 2 0.170721 1
gene 1 3 8 -0.650136 0 3 -0.650136 1
gene 2 4 8 -0.219642 0 4 -0.219642 1
gene 3 5 8 -0.00286874 0 5 -0.00286874 1
gene 3 6 8 -0.239204 0 6 -0.239204 1
gene 2 7 8 -0.47676 0 7 -0.47676 1
gene 1 5 9 0.441816 0 5 0.441816 1
gene 2 6 10 -0.0583209 0 6 -0.0583209 1
gene 1 7 11 0.383068 0 7 0.383068 1
genomeend 66

/* Organism #67 Fitness: 0 Error: 0 */
genomestart 67
trait 1 0.1 0 0 0 0.019138 0 0.0145529 0.000359546 
trait 2 0.13125 0.00965237 0.000704072 0.0354663 0.0815258 0.00213975 0.15371 0.0659175 
trait 3 0.288544 0 0.0299596 0.110561 0 0 0 0.16146 
node 1 2 1 1
node 2 2 1 1
node 3 2 1 1
node 4 1 1 1
node 5 3 1 1
node 6 2 1 1
node 7 3 1 3
node 8 2 0 2
node 9 1 0 2
node 10 2 0 2
node 11 1 0 2
gene 2 1 8 -0.986541 0 1 -0.986541 1
gene 1 2 8 0.760613 0 2 0.760613 1
gene 3 3 8 0.580828 0 3 0.580828 1
gene 1 4 8 -0.633747 0 4 -0.633747 1
gene 2 5 8 -0.0412305 0 5 -0.0412305 1
gene 1 6 8 -0.142216 0 6 -0.142216 1
gene 3 7 8 0.408277 0 7 0.408277 1
gene 1 5 9 0.132084 0 5 0.132084 1
gene 1 6 10 -0.629475 0 6 -0.629475 1
gene 3 7 11 -0.128239 0 7 -0.128239 1
genomeend 67

/* Organism #68 Fitness: 0 Error: 0 */
genomestart 68
trait 1 0.1 0 0 0 0.019138 0 0.0145529 0.000359546 
trait 2 0.13125 0.00965237 0.000704072 0.0354663 0.0815258 0.00213975 0.15371 0.0659175 
trait 3 0.288544 0 0.0299596 0.110561 0 0 0 0.16146 
node 1 3 1 1
node 2 3 1 1
node 3 3 1 1
node 4 3 1 1
node 5 3 1 1
node 6 3 1 1
node 7 1 1 3
node 8 1 0 2
node 9 1 0 2
node 10 2 0 2
node 11 2 0 2
gene 1 1 8 0.897336 0 1 0.897336 1
gene 2 2 8 0.809259 0 2 0.809259 1
gene 1 3 8 0.249641 0 3 0.249641 1
gene 3 4 8 -0.828303 0 4 -0.828303 1
gene 1 5 8 -0.247322 0 5 -0.247322 1
gene 2 6 8 0.00186163 0 6 0.00186163 1
gene 1 7 8 -0.381512 0 7 -0.381512 1
gene 2 5 9 -0.740196 0 5 -0.740196 1
gene 3 6 10 0.247291 0 6 0.247291 1
gene 2 7 11 -0.528794 0 7 -0.528794 1
genomeend 68

/* Organism #69 Fitness: 0 Error: 0 */
genomestart 69
trait 1 0.1 0 0 0 0.019138 0 0.0145529 0.000359546 
trait 2 0.13125 0.00965237 0.000704072 0.0354663 0.0815258 0.00213975 0.15371 0.0659175 
trait 3 0.288544 0 0.0299596 0.110561 0 0 0 0.16146 
node 1 3 1 1
node 2 3 1 1
node 3 2 1 1
node 4 1 1 1
node 5 3 1 1
node 6 2 1 1
node 7 2 1 3
node 8 2 0 2
node 9 3 0 2
node 10 2 0 2
node 11 2 0 2
gene 3 1 8 0.126499 0 1 0.126499 1
gene 1 2 8 0.102634 0 2 0.102634 1
gene 2 3 8 -0.188696 0 3 -0.188696 1
gene 2 4 8 0.969939 0 4 0.969939 1
gene 3 5 8 0.768548 0 5 0.768548 1
gene 3 6 8 -0.227638 0 6 -0.227638 1
gene 3 7 8 0.0752281 0 7 0.0752281 1
gene 3 5 9 0.568896 0 5 0.568896 1
gene 2 6 10 -0.632954 0 6 -0.632954 1
gene 2 7 11 0.286172 0 7 0.286172 1
genomeend 69

/* Organism #70 Fitness: 0 Error: 0 */
genomestart 70
trait 1 0.1 0 0 0 0.019138 0 0.0145529 0.000359546 
trait 2 0.13125 0.00965237 0.000704072 0.0354663 0.0815258 0.00213975 0.15371 0.0659175 
trait 3 0.288544 0 0.0299596 0.110561 0 0 0 0.16146 
node 1 1 1 1
node 2 1 1 1
node 3 1 1 1
node 4 3 1 1
node 5 1 1 1
node 6 3 1 1
node 7 1 1 3
node 8 3 0 2
node 9 2 0 2
node 10 1 0 2
node 11 1 0 2
gene 3 1 8 0.271249 0 1 0.271249 1
gene 1 2 8 -0.155492 0 2 -0.155492 1
gene 1 3 8 0.600635 0 3 0.600635 1
gene 3 4 8 -0.426771 0 4 -0.426771 1
gene 2 5 8 0.0434584 0 5 0.0434584 1
gene 3 6 8 0.411298 0 6 0.411298 1
gene 2 7 8 0.554216 0 7 0.554216 1
gene 3 5 9 0.100131 0 5 0.100131 1
gene 2 6 10 0.0609455 0 6 0.0609455 1
gene 3 7 11 0.388745 0 7 0.388745 1
genomeend 70

/* Organism #71 Fitness: 0 Error: 0 */
genomestart 71
trait 1 0.1 0 0 0 0.019138 0 0.0145529 0.000359546 
trait 2 0.13125 0.00965237 0.000704072 0.0354663 0.0815258 0.00213975 0.15371 0.0659175 
trait 3 0.288544 0 0.0299596 0.110561 0 0 0 0.16146 
node 1 3 1 1
node 2 3 1 1
node 3 2 1 1
node 4 2 1 1
node 5 1 1 1
node 6 3 1 1
node 7 3 1 3
node 8 2 0 2
node 9 3 0 2
node 10 2 0 2
node 11 2 0 2
gene 3 1 8 -0.444594 0 1 -0.444594 1
gene 3 2 8 -0.324351 0 2 -0.324351 1
gene 2 3 8 0.349773 0 3 0.349773 1
gene 1 4 8 0.331126 0 4 0.331126 1
gene 3 5 8 -0.00430311 0 5 -0.00430311 1
gene 3 6 8 -0.229133 0 6 -0.229133 1
gene 2 7 8 0.126164 0 7 0.126164 1
gene 1 5 9 -0.472732 0 5 -0.472732 1
gene 3 6 10 -0.742912 0 6 -0.742912 1
gene 2 7 11 0.756706 0 7 0.756706 1
genomeend 71

/* Organism #72 Fitness: 0 Error: 0 */
genomestart 72
trait 1 0.1 0 0 0 0.019138 0 0.0145529 0.000359546 
trait 2 0.13125 0.00965237 0.000704072 0.0354663 0.0815258 0.00213975 0.15371 0.0659175 
trait 3 0.288544 0 0.0299596 0.110561 0 0 0 0.16146 
node 1 1 1 1
node 2 2 1 1
node 3 2 1 1
node 4 2 1 1
node 5 1 1 1
node 6 3 1 1
node 7 2 1 3
node 8 2 0 2
node 9 3 0 2
node 10 2 0 2
node 11 3 0 2
gene 1 1 8 -0.448683 0 1 -0.448683 1
gene 1 2 8 0.551775 0 2 0.551775 1
gene 1 3 8 -0.0342418 0 3 -0.0342418 1
gene 3 4 8 0.267373 0 4 0.267373 1
gene 3 5 8 0.367931 0 5 0.367931 1
gene 1 6 8 0.389996 0 6 0.389996 1
gene 2 7 8 -0.252449 0 7 -0.252449 1
gene 3 5 9 0.374493 0 5 0.374493 1
gene 3 6 10 -0.408399 0 6 -0.408399 1
gene 3 7 11 0.914609 0 7 0.914609 1
genomeend 72

/* Organism #73 Fitness: 0 Error: 0 */
genomestart 73
trait 1 0.1 0 0 0 0.019138 0 0.0145529 0.000359546 
trait 2 0.13125 0.00965237 0.000704072 0.0354663 0.0815258 0.00213975 0.15371 0.0659175 
trait 3 0.288544 0 0.0299596 0.110561 0 0 0 0.16146 
node 1 3 1 1
node 2 1 1 1
node 3 2 1 1
node 4 3 1 1
node 5 3 1 1
node 6 2 1 1
node 7 2 1 3
node 8 1 0 2
node 9 3 0 2
node 10 2 0 2
node 11 2 0 2
gene 1 1 8 0.690176 0 1 0.690176 1
gene 2 2 8 0.137761 0 2 0.137761 1
gene 3 3 8 0.57329 0 3 0.57329 1
gene 2 4 8 0.740806 0 4 0.740806 1
gene 2 5 8 -0.716788 0 5 -0.716788 1
gene 2 6 8 -0.85934 0 6 -0.85934 1
gene 3 7 8 0.671987 0 7 0.671987 1
gene 1 5 9 0.460036 0 5 0.460036 1
gene 1 6 10 0.18305 0 6 0.18305 1
gene 3 7 11 -0.635853 0 7 -0.635853 1
genomeend 73

/* Organism #74 Fitness: 0 Error: 0 */
genomestart 74
trait 1 0.1 0 0 0 0.019138 0 0.0145529 0.000359546 
trait 2 0.13125 0.00965237 0.000704072 0.0354663 0.0815258 0.00213975 0.15371 0.0659175 
trait 3 0.288544 0 0.0299596 0.110561 0 0 0 0.16146 
node 1 2 1 1
node 2 2 1 1
node 3 1 1 1
node 4 1 1 1
node 5 3 1 1
node 6 3 1 1
node 7 3 1 3
node 8 1 0 2
node 9 3 0 2
node 10 3 0 2
node 11 3 0 2
gene 3 1 8 0.279855 0 1 0.279855 1
gene 3 2 8 0.326273 0 2 0.326273 1
gene 3 3 8 -0.73693 0 3 -0.73693 1
gene 1 4 8 -0.232673 0 4 -0.232673 1
gene 3 5 8 -0.662526 0 5 -0.662526 1
gene 1 6 8 0.170751 0 6 0.170751 1
gene 1 7 8 0.833399 0 7 0.833399 1
gene 2 5 9 0.581622 0 5 0.581622 1
gene 2 6 10 -0.270974 0 6 -0.270974 1
gene 3 7 11 0.123936 0 7 0.123936 1
genomeend 74

/* Organism #75 Fitness: 0 Error: 0 */
genomestart 75
trait 1 0.1 0 0 0 0.019138 0 0.0145529 0.000359546 
trait 2 0.13125 0.00965237 0.000704072 0.0354663 0.0815258 0.00213975 0.15371 0.0659175 
trait 3 0.288544 0 0.0299596 0.110561 0 0 0 0.16146 
node 1 2 1 1
node 2 2 1 1
node 3 2 1 1
node 4 3 1 1
node 5 3 1 1
node 6 1 1 1
node 7 3 1 3
node 8 2 0 2
node 9 3 0 2
node 10 3 0 2
node 11 1 0 2
gene 3 1 8 -0.638417 0 1 -0.638417 1
gene 2 2 8 0.169774 0 2 0.169774 1
gene 1 3 8 -0.819941 0 3 -0.819941 1
gene 1 4 8 -0.875881 0 4 -0.875881 1
gene 2 5 8 -0.771355 0 5 -0.771355 1
gene 1 6 8 -0.316813 0 6 -0.316813 1
gene 2 7 8 -0.213202 0 7 -0.213202 1
gene 3 5 9 0.685232 0 5 0.685232 1
gene 1 6 10 0.250832 0 6 0.250832 1
gene 3 7 11 0.278115 0 7 0.278115 1
genomeend 75

/* Organism #76 Fitness: 0 Error: 0 */
genomestart 76
trait 1 0.1 0 0 0 0.019138 0 0.0145529 0.000359546 
trait 2 0.13125 0.00965237 0.000704072 0.0354663 0.0815258 0.00213975 0.15371 0.0659175 
trait 3 0.288544 0 0.0299596 0.110561 0 0 0 0.16146 
node 1 3 1 1
node 2 2 1 1
node 3 2 1 1
node 4 3 1 1
node 5 1 1 1
node 6 2 1 1
node 7 3 1 3
node 8 3 0 2
node 9 2 0 2
node 10 2 0 2
node 11 2 0 2
gene 2 1 8 -0.0390942 0 1 -0.0390942 1
gene 3 2 8 0.484329 0 2 0.484329 1
gene 3 3 8 -0.621754 0 3 -0.621754 1
gene 3 4 8 -0.208136 0 4 -0.208136 1
gene 2 5 8 -0.214881 0 5 -0.214881 1
gene 1 6 8 -0.0768761 0 6 -0.0768761 1
gene 2 7 8 -0.190588 0 7 -0.190588 1
gene 1 5 9 -0.717307 0 5 -0.717307 1
gene 3 6 10 -0.694479 0 6 -0.694479 1
gene 3 7 11 -0.984161 0 7 -0.984161 1
genomeend 76

/* Organism #77 Fitness: 0 Error: 0 */
genomestart 77
trait 1 0.1 0 0 0 0.019138 0 0.0145529 0.000359546 
trait 2 0.13125 0.00965237 0.000704072 0.0354663 0.0815258 0.00213975 0.15371 0.0659175 
trait 3 0.288544 0 0.0299596 0.110561 0 0 0 0.16146 
node 1 3 1 1
node 2 1 1 1
node 3 1 1 1
node 4 1 1 1
node 5 3 1 1
node 6 2 1 1
node 7 1 1 3
node 8 1 0 2
node 9 2 0 2
node 10 2 0 2
node 11 2 0 2
gene 2 1 8 -0.0184332 0 1 -0.0184332 1
gene 3 2 8 0.353282 0 2 0.353282 1
gene 2 3 8 0.441664 0 3 0.441664 1
gene 3 4 8 -0.117954 0 4 -0.117954 1
gene 1 5 8 0.993652 0 5 0.993652 1
gene 3 6 8 -0.746086 0 6 -0.746086 1
gene 1 7 8 -0.287729 0 7 -0.287729 1
gene 2 5 9 0.419935 0 5 0.419935 1
gene 1 6 10 0.914731 0 6 0.914731 1
gene 1 7 11 0.00781274 0 7 0.00781274 1
genomeend 77

/* Organism #78 Fitness: 0 Error: 0 */
genomestart 78
trait 1 0.1 0 0 0 0.019138 0 0.0145529 0.000359546 
trait 2 0.13125 0.00965237 0.000704072 0.0354663 0.0815258 0.00213975 0.15371 0.0659175 
trait 3 0.288544 0 0.0299596 0.110561 0 0 0 0.16146 
node 1 2 1 1
node 2 1 1 1
node 3 2 1 1
node 4 2 1 1
node 5 1 1 1
node 6 1 1 1
node 7 3 1 3
node 8 1 0 2
node 9 3 0 2
node 10 2 0 2
node 11 3 0 2
gene 3 1 8 -0.0671407 0 1 -0.0671407 1
gene 1 2 8 0.29667 0 2 0.29667 1
gene 3 3 8 0.971007 0 3 0.971007 1
gene 1 4 8 0.413678 0 4 0.413678 1
gene 2 5 8 0.156255 0 5 0.156255 1
gene 1 6 8 0.0834681 0 6 0.0834681 1
gene 3 7 8 0.213965 0 7 0.213965 1
gene 2 5 9 -0.800134 0 5 -0.800134 1
gene 3 6 10 0.309427 0 6 0.309427 1
gene 2 7 11 0.557054 0 7 0.557054 1
genomeend 78

/* Organism #79 Fitness: 0 Error: 0 */
genomestart 79
trait 1 0.1 0 0 0 0.019138 0 0.0145529 0.000359546 
trait 2 0.13125 0.00965237 0.000704072 0.0354663 0.0815258 0.00213975 0.15371 0.0659175 
trait 3 0.288544 0 0.0299596 0.110561 0 0 0 0.16146 
node 1 3 1 1
node 2 2 1 1
node 3 1 1 1
node 4 2 1 1
node 5 1 1 1
node 6 1 1 1
node 7 2 1 3
node 8 1 0 2
node 9 2 0 2
node 10 1 0 2
node 11 3 0 2
gene 1 1 8 -0.413007 0 1 -0.413007 1
gene 2 2 8 0.509323 0 2 0.509323 1
gene 2 3 8 -0.267617 0 3 -0.267617 1
gene 2 4 8 -0.405774 0 4 -0.405774 1
gene 1 5 8 0.352245 0 5 0.352245 1
gene 1 6 8 -0.426374 0 6 -0.426374 1
gene 3 7 8 -0.725089 0 7 -0.725089 1
gene 1 5 9 0.452742 0 5 0.452742 1
gene 2 6 10 -0.777245 0 6 -0.777245 1
gene 3 7 11 0.881741 0 7 0.881741 1
genomeend 79

/* Organism #80 Fitness: 0 Error: 0 */
genomestart 80
trait 1 0.1 0 0 0 0.019138 0 0.0145529 0.000359546 
trait 2 0.13125 0.00965237 0.000704072 0.0354663 0.0815258 0.00213975 0.15371 0.0659175 
trait 3 0.288544 0 0.0299596 0.110561 0 0 0 0.16146 
node 1 1 1 1
node 2 2 1 1
node 3 2 1 1
node 4 2 1 1
node 5 1 1 1
node 6 2 1 1
node 7 3 1 3
node 8 2 0 2
node 9 1 0 2
node 10 2 0 2
node 11 3 0 2
gene 2 1 8 -0.644948 0 1 -0.644948 1
gene 3 2 8 -0.381298 0 2 -0.381298 1
gene 1 3 8 0.479446 0 3 0.479446 1
gene 2 4 8 -0.058504 0 4 -0.058504 1
gene 1 5 8 0.644673 0 5 0.644673 1
gene 2 6 8 0.311777 0 6 0.311777 1
gene 2 7 8 0.0166631 0 7 0.0166631 1
gene 2 5 9 -0.249367 0 5 -0.249367 1
gene 2 6 10 -0.58208 0 6 -0.58208 1
gene 1 7 11 -0.865261 0 7 -0.865261 1
genomeend 80

/* Organism #81 Fitness: 0 Error: 0 */
genomestart 81
trait 1 0.1 0 0 0 0.019138 0 0.0145529 0.000359546 
trait 2 0.13125 0.00965237 0.000704072 0.0354663 0.0815258 0.00213975 0.15371 0.0659175 
trait 3 0.288544 0 0.0299596 0.110561 0 0 0 0.16146 
node 1 2 1 1
node 2 3 1 1
node 3 2 1 1
node 4 3 1 1
node 5 2 1 1
node 6 3 1 1
node 7 1 1 3
node 8 1 0 2
node 9 3 0 2
node 10 2 0 2
node 11 3 0 2
gene 2 1 8 0.424421 0 1 0.424421 1
gene 3 2 8 -0.162328 0 2 -0.162328 1
gene 2 3 8 -0.754082 0 3 -0.754082 1
gene 1 4 8 -0.706748 0 4 -0.706748 1
gene 1 5 8 -0.371319 0 5 -0.371319 1
gene 3 6 8 0.137486 0 6 0.137486 1
gene 1 7 8 -0.869167 0 7 -0.869167 1
gene 1 5 9 0.538865 0 5 0.538865 1
gene 2 6 10 -0.0737632 0 6 -0.0737632 1
gene 3 7 11 -0.14597 0 7 -0.14597 1
genomeend 81

/* Organism #82 Fitness: 0 Error: 0 */
genomestart 82
trait 1 0.1 0 0 0 0.019138 0 0.0145529 0.000359546 
trait 2 0.13125 0.00965237 0.000704072 0.0354663 0.0815258 0.00213975 0.15371 0.0659175 
trait 3 0.288544 0 0.0299596 0.110561 0 0 0 0.16146 
node 1 3 1 1
node 2 1 1 1
node 3 2 1 1
node 4 1 1 1
node 5 1 1 1
node 6 3 1 1
node 7 3 1 3
node 8 2 0 2
node 9 3 0 2
node 10 1 0 2
node 11 3 0 2
gene 2 1 8 0.96878 0 1 0.96878 1
gene 3 2 8 -0.107395 0 2 -0.107395 1
gene 1 3 8 0.365734 0 3 0.365734 1
gene 1 4 8 0.600635 0 4 0.600635 1
gene 2 5 8 0.253792 0 5 0.253792 1
gene 2 6 8 -0.112217 0 6 -0.112217 1
gene 2 7 8 -0.818232 0 7 -0.818232 1
gene 1 5 9 0.435621 0 5 0.435621 1
gene 3 6 10 0.333872 0 6 0.333872 1
gene 1 7 11 -0.248299 0 7 -0.248299 1
genomeend 82

/* Organism #83 Fitness: 0 Error: 0 */
genomestart 83
trait 1 0.1 0 0 0 0.019138 0 0.0145529 0.000359546 
trait 2 0.13125 0.00965237 0.000704072 0.0354663 0.0815258 0.00213975 0.15371 0.0659175 
trait 3 0.288544 0 0.0299596 0.110561 0 0 0 0.16146 
node 1 3 1 1
node 2 1 1 1
node 3 2 1 1
node 4 3 1 1
node 5 3 1 1
node 6 3 1 1
node 7 2 1 3
node 8 2 0 2
node 9 2 0 2
node 10 3 0 2
node 11 2 0 2
gene 2 1 8 0.357921 0 1 0.357921 1
gene 3 2 8 -0.0282296 0 2 -0.0282296 1
gene 3 3 8 0.203436 0 3 0.203436 1
gene 3 4 8 0.821741 0 4 0.821741 1
gene 3 5 8 0.996124 0 5 0.996124 1
gene 2 6 8 0.534562 0 6 0.534562 1
gene 1 7 8 -0.418958 0 7 -0.418958 1
gene 3 5 9 -0.396283 0 5 -0.396283 1
gene 1 6 10 0.0501419 0 6 0.0501419 1
gene 3 7 11 0.149052 0 7 0.149052 1
genomeend 83

/* Organism #84 Fitness: 0 Error: 0 */
genomestart 84
trait 1 0.1 0 0 0 0.019138 0 0.0145529 0.000359546 
trait 2 0.13125 0.00965237 0.000704072 0.0354663 0.0815258 0.00213975 0.15371 0.0659175 
trait 3 0.288544 0 0.0299596 0.110561 0 0 0 0.16146 
node 1 3 1 1
node 2 3 1 1
node 3 2 1 1
node 4 1 1 1
node 5 2 1 1
node 6 3 1 1
node 7 3 1 3
node 8 2 0 2
node 9 2 0 2
node 10 3 0 2
node 11 2 0 2
gene 3 1 8 0.0933866 0 1 0.0933866 1
gene 2 2 8 0.911649 0 2 0.911649 1
gene 1 3 8 -0.142979 0 3 -0.142979 1
gene 2 4 8 0.0190741 0 4 0.0190741 1
gene 1 5 8 -0.942839 0 5 -0.942839 1
gene 1 6 8 -0.656545 0 6 -0.656545 1
gene 1 7 8 0.138371 0 7 0.138371 1
gene 3 5 9 -0.11478 0 5 -0.11478 1
gene 2 6 10 -0.680593 0 6 -0.680593 1
gene 1 7 11 -0.949583 0 7 -0.949583 1
genomeend 84

/* Organism #85 Fitness: 0 Error: 0 */
genomestart 85
trait 1 0.1 0 0 0 0.019138 0 0.0145529 0.000359546 
trait 2 0.13125 0.00965237 0.000704072 0.0354663 0.0815258 0.00213975 0.15371 0.0659175 
trait 3 0.288544 0 0.0299596 0.110561 0 0 0 0.16146 
node 1 1 1 1
node 2 1 1 1
node 3 1 1 1
node 4 2 1 1
node 5 1 1 1
node 6 1 1 1
node 7 2 1 3
node 8 2 0 2
node 9 2 0 2
node 10 2 0 2
node 11 1 0 2
gene 3 1 8 -0.575426 0 1 -0.575426 1
gene 2 2 8 -0.107334 0 2 -0.107334 1
gene 2 3 8 0.187902 0 3 0.187902 1
gene 3 4 8 0.0731223 0 4 0.0731223 1
gene 3 5 8 0.155766 0 5 0.155766 1
gene 3 6 8 -0.0214545 0 6 -0.0214545 1
gene 2 7 8 -0.649403 0 7 -0.649403 1
gene 3 5 9 -0.475295 0 5 -0.475295 1
gene 3 6 10 0.279031 0 6 0.279031 1
gene 1 7 11 -0.0563982 0 7 -0.0563982 1
genomeend 85

/* Organism #86 Fitness: 0 Error: 0 */
genomestart 86
trait 1 0.1 0 0 0 0.019138 0 0.0145529 0.000359546 
trait 2 0.13125 0.00965237 0.000704072 0.0354663 0.0815258 0.00213975 0.15371 0.0659175 
trait 3 0.288544 0 0.0299596 0.110561 0 0 0 0.16146 
node 1 3 1 1
node 2 3 1 1
node 3 3 1 1
node 4 1 1 1
node 5 2 1 1
node 6 1 1 1
node 7 1 1 3
node 8 2 0 2
node 9 1 0 2
node 10 3 0 2
node 11 3 0 2
gene 1 1 8 -0.377544 0 1 -0.377544 1
gene 3 2 8 -0.0350047 0 2 -0.0350047 1
gene 2 3 8 -0.340587 0 3 -0.340587 1
gene 3 4 8 0.243019 0 4 0.243019 1
gene 2 5 8 0.252388 0 5 0.252388 1
gene 2 6 8 -0.798975 0 6 -0.798975 1
gene 1 7 8 0.746879 0 7 0.746879 1
gene 1 5 9 0.0544145 0 5 0.0544145 1
gene 2 6 10 0.385784 0 6 0.385784 1
gene 3 7 11 0.315317 0 7 0.315317 1
genomeend 86

/* Organism #87 Fitness: 0 Error: 0 */
genomestart 87
trait 1 0.1 0 0 0 0.019138 0 0.0145529 0.000359546 
trait 2 0.13125 0.00965237 0.000704072 0.0354663 0.0815258 0.00213975 0.15371 0.0659175 
trait 3 0.288544 0 0.0299596 0.110561 0 0 0 0.16146 
node 1 1 1 1
node 2 3 1 1
node 3 1 1 1
node 4 1 1 1
node 5 1 1 1
node 6 3 1 1
node 7 3 1 3
node 8 3 0 2
node 9 1 0 2
node 10 3 0 2
node 11 3 0 2
gene 2 1 8 -0.19422 0 1 -0.19422 1
gene 1 2 8 -0.46498 0 2 -0.46498 1
gene 1 3 8 -0.391736 0 3 -0.391736 1
gene 3 4 8 -0.770959 0 4 -0.770959 1
gene 3 5 8 -0.189062 0 5 -0.189062 1
gene 2 6 8 0.941893 0 6 0.941893 1
gene 3 7 8 -0.0958281 0 7 -0.0958281 1
gene 1 5 9 0.143529 0 5 0.143529 1
gene 2 6 10 -0.815394 0 6 -0.815394 1
gene 1 7 11 -0.612781 0 7 -0.612781 1
genomeend 87

/* Organism #88 Fitness: 0 Error: 0 */
genomestart 88
trait 1 0.1 0 0 0 0.019138 0 0.0145529 0.000359546 
trait 2 0.13125 0.00965237 0.000704072 0.0354663 0.0815258 0.00213975 0.15371 0.0659175 
trait 3 0.288544 0 0.0299596 0.110561 0 0 0 0.16146 
node 1 3 1 1
node 2 3 1 1
node 3 3 1 1
node 4 3 1 1
node 5 1 1 1
node 6 3 1 1
node 7 3 1 3
node 8 1 0 2
node 9 2 0 2
node 10 3 0 2
node 11 3 0 2
gene 2 1 8 0.37672 0 1 0.37672 1
gene 2 2 8 0.719749 0 2 0.719749 1
gene 1 3 8 -0.618671 0 3 -0.618671 1
gene 3 4 8 0.583666 0 4 0.583666 1
gene 2 5 8 0.311411 0 5 0.311411 1
gene 2 6 8 -0.203467 0 6 -0.203467 1
gene 1 7 8 0.377422 0 7 0.377422 1
gene 2 5 9 -0.652425 0 5 -0.652425 1
gene 2 6 10 -0.360057 0 6 -0.360057 1
gene 1 7 11 -0.597064 0 7 -0.597064 1
genomeend 88

/* Organism #89 Fitness: 0 Error: 0 */
genomestart 89
trait 1 0.1 0 0 0 0.019138 0 0.0145529 0.000359546 
trait 2 0.13125 0.00965237 0.000704072 0.0354663 0.0815258 0.00213975 0.15371 0.0659175 
trait 3 0.288544 0 0.0299596 0.110561 0 0 0 0.16146 
node 1 1 1 1
node 2 1 1 1
node 3 1 1 1
node 4 2 1 1
node 5 1 1 1
node 6 2 1 1
node 7 3 1 3
node 8 1 0 2
node 9 1 0 2
node 10 1 0 2
node 11 3 0 2
gene 1 1 8 -0.642293 0 1 -0.642293 1
gene 2 2 8 0.672353 0 2 0.672353 1
gene 3 3 8 0.195288 0 3 0.195288 1
gene 3 4 8 -0.724693 0 4 -0.724693 1
gene 3 5 8 0.8511 0 5 0.8511 1
gene 1 6 8 -0.859584 0 6 -0.859584 1
gene 1 7 8 0.294595 0 7 0.294595 1
gene 1 5 9 0.1142 0 5 0.1142 1
gene 2 6 10 -0.709891 0 6 -0.709891 1
gene 2 7 11 -0.782006 0 7 -0.782006 1
genomeend 89

/* Organism #90 Fitness: 0 Error: 0 */
genomestart 90
trait 1 0.1 0 0 0 0.019138 0 0.0145529 0.000359546 
trait 2 0.13125 0.00965237 0.000704072 0.0354663 0.0815258 0.00213975 0.15371 0.0659175 
trait 3 0.288544 0 0.0299596 0.110561 0 0 0 0.16146 
node 1 3 1 1
node 2 3 1 1
node 3 1 1 1
node 4 1 1 1
node 5 1 1 1
node 6 3 1 1
node 7 2 1 3
node 8 1 0 2
node 9 1 0 2
node 10 1 0 2
node 11 2 0 2
gene 3 1 8 -0.693045 0 1 -0.693045 1
gene 3 2 8 -0.130802 0 2 -0.130802 1
gene 3 3 8 0.00152593 0 3 0.00152593 1
gene 1 4 8 0.230201 0 4 0.230201 1
gene 2 5 8 -0.368328 0 5 -0.368328 1
gene 3 6 8 0.795038 0 6 0.795038 1
gene 2 7 8 -0.941771 0 7 -0.941771 1
gene 3 5 9 -0.754204 0 5 -0.754204 1
gene 1 6 10 0.581194 0 6 0.581194 1
gene 2 7 11 0.905362 0 7 0.905362 1
genomeend 90

/* Organism #91 Fitness: 0 Error: 0 */
genomestart 91
trait 1 0.1 0 0 0 0.019138 0 0.0145529 0.000359546 
trait 2 0.13125 0.00965237 0.000704072 0.0354663 0.0815258 0.00213975 0.15371 0.0659175 
trait 3 0.288544 0 0.0299596 0.110561 0 0 0 0.16146 
node 1 2 1 1
node 2 3 1 1
node 3 2 1 1
node 4 3 1 1
node 5 2 1 1
node 6 1 1 1
node 7 3 1 3
node 8 2 0 2
node 9 1 0 2
node 10 1 0 2
node 11 2 0 2
gene 3 1 8 0.865108 0 1 0.865108 1
gene 3 2 8 -0.999725 0 2 -0.999725 1
gene 1 3 8 0.0539872 0 3 0.0539872 1
gene 2 4 8 0.587909 0 4 0.587909 1
gene 2 5 8 -0.479995 0 5 -0.479995 1
gene 2 6 8 -0.547807 0 6 -0.547807 1
gene 1 7 8 -0.331736 0 7 -0.331736 1
gene 3 5 9 -0.0820032 0 5 -0.0820032 1
gene 1 6 10 -0.11597 0 6 -0.11597 1
gene 3 7 11 -0.697348 0 7 -0.697348 1
genomeend 91

/* Organism #92 Fitness: 0 Error: 0 */
genomestart 92
trait 1 0.1 0 0 0 0.019138 0 0.0145529 0.000359546 
trait 2 0.13125 0.00965237 0.000704072 0.0354663 0.0815258 0.00213975 0.15371 0.0659175 
trait 3 0.288544 0 0.0299596 0.110561 0 0 0 0.16146 
node 1 3 1 1
node 2 3 1 1
node 3 2 1 1
node 4 2 1 1
node 5 3 1 1
node 6 2 1 1
node 7 1 1 3
node 8 1 0 2
node 9 3 0 2
node 10 1 0 2
node 11 2 0 2
gene 2 1 8 -0.955107 0 1 -0.955107 1
gene 1 2 8 -0.350841 0 2 -0.350841 1
gene 3 3 8 -0.952086 0 3 -0.952086 1
gene 3 4 8 0.989532 0 4 0.989532 1
gene 2 5 8 -0.734581 0 5 -0.734581 1
gene 2 6 8 -0.96118 0 6 -0.96118 1
gene 2 7 8 -0.919645 0 7 -0.919645 1
gene 1 5 9 0.236518 0 5 0.236518 1
gene 2 6 10 0.923612 0 6 0.923612 1
gene 1 7 11 -0.526139 0 7 -0.526139 1
genomeend 92

/* Organism #93 Fitness: 0 Error: 0 */
genomestart 93
trait 1 0.1 0 0 0 0.019138 0 0.0145529 0.000359546 
trait 2 0.13125 0.00965237 0.000704072 0.0354663 0.0815258 0.00213975 0.15371 0.0659175 
trait 3 0.288544 0 0.0299596 0.110561 0 0 0 0.16146 
node 1 3 1 1
node 2 1 1 1
node 3 1 1 1
node 4 3 1 1
node 5 3 1 1
node 6 2 1 1
node 7 1 1 3
node 8 3 0 2
node 9 3 0 2
node 10 3 0 2
node 11 1 0 2
gene 2 1 8 0.53328 0 1 0.53328 1
gene 3 2 8 -0.554369 0 2 -0.554369 1
gene 3 3 8 0.849483 0 3 0.849483 1
gene 1 4 8 -0.583209 0 4 -0.583209 1
gene 3 5 8 0.0459609 0 5 0.0459609 1
gene 2 6 8 0.384136 0 6 0.384136 1
gene 1 7 8 -0.961058 0 7 -0.961058 1
gene 2 5 9 -0.705954 0 5 -0.705954 1
gene 1 6 10 -0.170629 0 6 -0.170629 1
gene 1 7 11 -0.264077 0 7 -0.264077 1
genomeend 93

/* Organism #94 Fitness: 0 Error: 0 */
genomestart 94
trait 1 0.1 0 0 0 0.019138 0 0.0145529 0.000359546 
trait 2 0.13125 0.00965237 0.000704072 0.0354663 0.0815258 0.00213975 0.15371 0.0659175 
trait 3 0.288544 0 0.0299596 0.110561 0 0 0 0.16146 
node 1 2 1 1
node 2 1 1 1
node 3 3 1 1
node 4 3 1 1
node 5 3 1 1
node 6 1 1 1
node 7 2 1 3
node 8 2 0 2
node 9 1 0 2
node 10 1 0 2
node 11 3 0 2
gene 2 1 8 -0.577654 0 1 -0.577654 1
gene 3 2 8 0.655416 0 2 0.655416 1
gene 2 3 8 0.843837 0 3 0.843837 1
gene 2 4 8 -0.222236 0 4 -0.222236 1
gene 3 5 8 -0.338328 0 5 -0.338328 1
gene 1 6 8 0.873806 0 6 0.873806 1
gene 3 7 8 0.986724 0 7 0.986724 1
gene 3 5 9 0.557634 0 5 0.557634 1
gene 3 6 10 0.88052 0 6 0.88052 1
gene 1 7 11 -0.169744 0 7 -0.169744 1
genomeend 94

/* Organism #95 Fitness: 0 Error: 0 */
genomestart 95
trait 1 0.1 0 0 0 0.019138 0 0.0145529 0.000359546 
trait 2 0.13125 0.00965237 0.000704072 0.0354663 0.0815258 0.00213975 0.15371 0.0659175 
trait 3 0.288544 0 0.0299596 0.110561 0 0 0 0.16146 
node 1 1 1 1
node 2 2 1 1
node 3 1 1 1
node 4 3 1 1
node 5 3 1 1
node 6 3 1 1
node 7 1 1 3
node 8 2 0 2
node 9 3 0 2
node 10 1 0 2
node 11 1 0 2
gene 1 1 8 -0.895932 0 1 -0.895932 1
gene 1 2 8 0.575671 0 2 0.575671 1
gene 3 3 8 0.177923 0 3 0.177923 1
gene 1 4 8 0.652242 0 4 0.652242 1
gene 3 5 8 0.628559 0 5 0.628559 1
gene 3 6 8 0.788354 0 6 0.788354 1
gene 1 7 8 -0.616382 0 7 -0.616382 1
gene 2 5 9 -0.895657 0 5 -0.895657 1
gene 1 6 10 0.698843 0 6 0.698843 1
gene 2 7 11 0.164129 0 7 0.164129 1
genomeend 95

/* Organism #96 Fitness: 0 Error: 0 */
genomestart 96
trait 1 0.1 0 0 0 0.019138 0 0.0145529 0.000359546 
trait 2 0.13125 0.00965237 0.000704072 0.0354663 0.0815258 0.00213975 0.15371 0.0659175 
trait 3 0.288544 0 0.0299596 0.110561 0 0 0 0.16146 
node 1 3 1 1
node 2 3 1 1
node 3 1 1 1
node 4 2 1 1
node 5 2 1 1
node 6 1 1 1
node 7 3 1 3
node 8 3 0 2
node 9 3 0 2
node 10 2 0 2
node 11 3 0 2
gene 3 1 8 0.822108 0 1 0.822108 1
gene 2 2 8 0.773949 0 2 0.773949 1
gene 2 3 8 0.0848109 0 3 0.0848109 1
gene 2 4 8 -0.958953 0 4 -0.958953 1
gene 2 5 8 -0.899899 0 5 -0.899899 1
gene 3 6 8 0.462416 0 6 0.462416 1
gene 2 7 8 -0.32551 0 7 -0.32551 1
gene 2 5 9 0.95352 0 5 0.95352 1
gene 3 6 10 -0.724967 0 6 -0.724967 1
gene 2 7 11 -0.723014 0 7 -0.723014 1
genomeend 96

/* Organism #97 Fitness: 0 Error: 0 */
genomestart 97
trait 1 0.1 0 0 0 0.019138 0 0.0145529 0.000359546 
trait 2 0.13125 0.00965237 0.000704072 0.0354663 0.0815258 0.00213975 0.15371 0.0659175 
trait 3 0.288544 0 0.0299596 0.110561 0 0 0 0.16146 
node 1 2 1 1
node 2 1 1 1
node 3 3 1 1
node 4 2 1 1
node 5 3 1 1
node 6 2 1 1
node 7 1 1 3
node 8 2 0 2
node 9 3 0 2
node 10 3 0 2
node 11 3 0 2
gene 1 1 8 -0.585009 0 1 -0.585009 1
gene 2 2 8 0.929624 0 2 0.929624 1
gene 2 3 8 -0.313852 0 3 -0.313852 1
gene 2 4 8 0.34434 0 4 0.34434 1
gene 1 5 8 -0.267129 0 5 -0.267129 1
gene 2 6 8 0.873409 0 6 0.873409 1
gene 2 7 8 -0.0967132 0 7 -0.0967132 1
gene 2 5 9 0.683981 0 5 0.683981 1
gene 3 6 10 0.194708 0 6 0.194708 1
gene 2 7 11 -0.704123 0 7 -0.704123 1
genomeend 97

/* Organism #98 Fitness: 0 Error: 0 */
genomestart 98
trait 1 0.1 0 0 0 0.019138 0 0.0145529 0.000359546 
trait 2 0.13125 0.00965237 0.000704072 0.0354663 0.0815258 0.00213975 0.15371 0.0659175 
trait 3 0.288544 0 0.0299596 0.110561 0 0 0 0.16146 
node 1 1 1 1
node 2 3 1 1
node 3 2 1 1
node 4 1 1 1
node 5 1 1 1
node 6 1 1 1
node 7 3 1 3
node 8 2 0 2
node 9 1 0 2
node 10 2 0 2
node 11 2 0 2
gene 3 1 8 -0.212775 0 1 -0.212775 1
gene 1 2 8 0.992248 0 2 0.992248 1
gene 2 3 8 -0.245582 0 3 -0.245582 1
gene 3 4 8 -0.136784 0 4 -0.136784 1
gene 3 5 8 0.4232 0 5 0.4232 1
gene 2 6 8 -0.29252 0 6 -0.29252 1
gene 1 7 8 -0.888485 0 7 -0.888485 1
gene 2 5 9 -0.582354 0 5 -0.582354 1
gene 1 6 10 0.227119 0 6 0.227119 1
gene 2 7 11 0.422864 0 7 0.422864 1
genomeend 98

/* Organism #99 Fitness: 0 Error: 0 */
genomestart 99
trait 1 0.1 0 0 0 0.019138 0 0.0145529 0.000359546 
trait 2 0.13125 0.00965237 0.000704072 0.0354663 0.0815258 0.00213975 0.15371 0.0659175 
trait 3 0.288544 0 0.0299596 0.110561 0 0 0 0.16146 
node 1 3 1 1
node 2 2 1 1
node 3 1 1 1
node 4 3 1 1
node 5 1 1 1
node 6 2 1 1
node 7 2 1 3
node 8 2 0 2
node 9 1 0 2
node 10 1 0 2
node 11 3 0 2
gene 3 1 8 -0.10477 0 1 -0.10477 1
gene 2 2 8 0.768029 0 2 0.768029 1
gene 3 3 8 0.413892 0 3 0.413892 1
gene 1 4 8 0.633717 0 4 0.633717 1
gene 3 5 8 -0.285043 0 5 -0.285043 1
gene 1 6 8 0.903775 0 6 0.903775 1
gene 1 7 8 0.89111 0 7 0.89111 1
gene 2 5 9 -0.0621967 0 5 -0.0621967 1
gene 2 6 10 0.301584 0 6 0.301584 1
gene 1 7 11 0.759697 0 7 0.759697 1
genomeend 99

/* Organism #100 Fitness: 0 Error: 0 */
genomestart 100
trait 1 0.1 0 0 0 0.019138 0 0.0145529 0.000359546 
trait 2 0.13125 0.00965237 0.000704072 0.0354663 0.0815258 0.00213975 0.15371 0.0659175 
trait 3 0.288544 0 0.0299596 0.110561 0 0 0 0.16146 
node 1 2 1 1
node 2 1 1 1
node 3 1 1 1
node 4 3 1 1
node 5 1 1 1
node 6 2 1 1
node 7 1 1 3
node 8 2 0 2
node 9 3 0 2
node 10 1 0 2
node 11 3 0 2
gene 3 1 8 -0.247414 0 1 -0.247414 1
gene 3 2 8 0.45088 0 2 0.45088 1
gene 2 3 8 -0.724143 0 3 -0.724143 1
gene 1 4 8 0.946348 0 4 0.946348 1
gene 1 5 8 0.879391 0 5 0.879391 1
gene 2 6 8 0.273446 0 6 0.273446 1
gene 3 7 8 -0.168981 0 7 -0.168981 1
gene 2 5 9 0.777856 0 5 0.777856 1
gene 2 6 10 -0.89169 0 6 -0.89169 1
gene 2 7 11 0.844356 0 7 0.844356 1
genomeend 100

/* Organism #101 Fitness: 0 Error: 0 */
genomestart 101
trait 1 0.1 0 0 0 0.019138 0 0.0145529 0.000359546 
trait 2 0.13125 0.00965237 0.000704072 0.0354663 0.0815258 0.00213975 0.15371 0.0659175 
trait 3 0.288544 0 0.0299596 0.110561 0 0 0 0.16146 
node 1 2 1 1
node 2 3 1 1
node 3 2 1 1
node 4 1 1 1
node 5 3 1 1
node 6 1 1 1
node 7 3 1 3
node 8 1 0 2
node 9 1 0 2
node 10 3 0 2
node 11 3 0 2
gene 2 1 8 0.862056 0 1 0.862056 1
gene 3 2 8 0.625568 0 2 0.625568 1
gene 2 3 8 -0.132481 0 3 -0.132481 1
gene 3 4 8 0.604389 0 4 0.604389 1
gene 3 5 8 -0.760552 0 5 -0.760552 1
gene 2 6 8 0.851436 0 6 0.851436 1
gene 2 7 8 0.374096 0 7 0.374096 1
gene 1 5 9 -0.237373 0 5 -0.237373 1
gene 2 6 10 0.787042 0 6 0.787042 1
gene 3 7 11 -0.884915 0 7 -0.884915 1
genomeend 101

/* Organism #102 Fitness: 0 Error: 0 */
genomestart 102
trait 1 0.1 0 0 0 0.019138 0 0.0145529 0.000359546 
trait 2 0.13125 0.00965237 0.000704072 0.0354663 0.0815258 0.00213975 0.15371 0.0659175 
trait 3 0.288544 0 0.0299596 0.110561 0 0 0 0.16146 
node 1 2 1 1
node 2 1 1 1
node 3 2 1 1
node 4 3 1 1
node 5 3 1 1
node 6 1 1 1
node 7 2 1 3
node 8 3 0 2
node 9 1 0 2
node 10 2 0 2
node 11 3 0 2
gene 2 1 8 -0.287179 0 1 -0.287179 1
gene 1 2 8 0.956511 0 2 0.956511 1
gene 2 3 8 0.735435 0 3 0.735435 1
gene 1 4 8 -0.389569 0 4 -0.389569 1
gene 1 5 8 0.699301 0 5 0.699301 1
gene 2 6 8 0.950896 0 6 0.950896 1
gene 3 7 8 -0.330943 0 7 -0.330943 1
gene 1 5 9 0.268593 0 5 0.268593 1
gene 3 6 10 -0.612873 0 6 -0.612873 1
gene 1 7 11 -0.146947 0 7 -0.146947 1
genomeend 102

/* Organism #103 Fitness: 0 Error: 0 */
genomestart 103
trait 1 0.1 0 0 0 0.019138 0 0.0145529 0.000359546 
trait 2 0.13125 0.00965237 0.000704072 0.0354663 0.0815258 0.00213975 0.15371 0.0659175 
trait 3 0.288544 0 0.0299596 0.110561 0 0 0 0.16146 
node 1 2 1 1
node 2 2 1 1
node 3 2 1 1
node 4 1 1 1
node 5 1 1 1
node 6 2 1 1
node 7 3 1 3
node 8 1 0 2
node 9 3 0 2
node 10 1 0 2
node 11 3 0 2
gene 2 1 8 -0.496414 0 1 -0.496414 1
gene 1 2 8 0.619068 0 2 0.619068 1
gene 1 3 8 -0.943724 0 3 -0.943724 1
gene 3 4 8 -0.558306 0 4 -0.558306 1
gene 2 5 8 0.373516 0 5 0.373516 1
gene 2 6 8 -0.760002 0 6 -0.760002 1
gene 3 7 8 -0.902402 0 7 -0.902402 1
gene 2 5 9 0.733787 0 5 0.733787 1
gene 1 6 10 0.50676 0 6 0.50676 1
gene 1 7 11 -0.12595 0 7 -0.12595 1
genomeend 103

/* Organism #104 Fitness: 0 Error: 0 */
genomestart 104
trait 1 0.1 0 0 0 0.019138 0 0.0145529 0.000359546 
trait 2 0.13125 0.00965237 0.000704072 0.0354663 0.0815258 0.00213975 0.15371 0.0659175 
trait 3 0.288544 0 0.0299596 0.110561 0 0 0 0.16146 
node 1 2 1 1
node 2 2 1 1
node 3 3 1 1
node 4 3 1 1
node 5 3 1 1
node 6 1 1 1
node 7 1 1 3
node 8 3 0 2
node 9 2 0 2
node 10 1 0 2
node 11 1 0 2
gene 3 1 8 0.716147 0 1 0.716147 1
gene 3 2 8 -0.755699 0 2 -0.755699 1
gene 3 3 8 -0.694693 0 3 -0.694693 1
gene 2 4 8 -0.788415 0 4 -0.788415 1
gene 3 5 8 -0.965789 0 5 -0.965789 1
gene 1 6 8 -0.525224 0 6 -0.525224 1
gene 2 7 8 -0.840846 0 7 -0.840846 1
gene 1 5 9 -0.727195 0 5 -0.727195 1
gene 2 6 10 0.791589 0 6 0.791589 1
gene 2 7 11 0.238319 0 7 0.238319 1
genomeend 104

/* Organism #105 Fitness: 0 Error: 0 */
genomestart 105
trait 1 0.1 0 0 0 0.019138 0 0.0145529 0.000359546 
trait 2 0.13125 0.00965237 0.000704072 0.0354663 0.0815258 0.00213975 0.15371 0.0659175 
trait 3 0.288544 0 0.0299596 0.110561 0 0 0 0.16146 
node 1 2 1 1
node 2 2 1 1
node 3 3 1 1
node 4 2 1 1
node 5 3 1 1
node 6 3 1 1
node 7 1 1 3
node 8 3 0 2
node 9 2 0 2
node 10 2 0 2
node 11 1 0 2
gene 2 1 8 -0.0871609 0 1 -0.0871609 1
gene 2 2 8 0.895535 0 2 0.895535 1
gene 1 3 8 0.754662 0 3 0.754662 1
gene 1 4 8 0.919004 0 4 0.919004 1
gene 3 5 8 -0.869869 0 5 -0.869869 1
gene 1 6 8 0.913114 0 6 0.913114 1
gene 3 7 8 -0.814753 0 7 -0.814753 1
gene 1 5 9 0.843593 0 5 0.843593 1
gene 3 6 10 0.0358287 0 6 0.0358287 1
gene 1 7 11 0.523362 0 7 0.523362 1
genomeend 105

/* Organism #106 Fitness: 0 Error: 0 */
genomestart 106
trait 1 0.1 0 0 0 0.019138 0 0.0145529 0.000359546 
trait 2 0.13125 0.00965237 0.000704072 0.0354663 0.0815258 0.00213975 0.15371 0.0659175 
trait 3 0.288544 0 0.0299596 0.110561 0 0 0 0.16146 
node 1 3 1 1
node 2 1 1 1
node 3 2 1 1
node 4 1 1 1
node 5 2 1 1
node 6 2 1 1
node 7 3 1 3
node 8 3 0 2
node 9 1 0 2
node 10 3 0 2
node 11 1 0 2
gene 3 1 8 -0.971129 0 1 -0.971129 1
gene 3 2 8 -0.250862 0 2 -0.250862 1
gene 1 3 8 0.0778527 0 3 0.0778527 1
gene 2 4 8 0.873989 0 4 0.873989 1
gene 1 5 8 -0.847377 0 5 -0.847377 1
gene 1 6 8 -0.876095 0 6 -0.876095 1
gene 2 7 8 0.0596637 0 7 0.0596637 1
gene 3 5 9 0.790307 0 5 0.790307 1
gene 1 6 10 -0.48796 0 6 -0.48796 1
gene 1 7 11 0.439375 0 7 0.439375 1
genomeend 106

/* Organism #107 Fitness: 0 Error: 0 */
genomestart 107
trait 1 0.1 0 0 0 0.019138 0 0.0145529 0.000359546 
trait 2 0.13125 0.00965237 0.000704072 0.0354663 0.0815258 0.00213975 0.15371 0.0659175 
trait 3 0.288544 0 0.0299596 0.110561 0 0 0 0.16146 
node 1 3 1 1
node 2 3 1 1
node 3 2 1 1
node 4 3 1 1
node 5 2 1 1
node 6 3 1 1
node 7 2 1 3
node 8 3 0 2
node 9 2 0 2
node 10 1 0 2
node 11 1 0 2
gene 1 1 8 0.995941 0 1 0.995941 1
gene 1 2 8 0.340495 0 2 0.340495 1
gene 2 3 8 -0.324168 0 3 -0.324168 1
gene 1 4 8 -0.199561 0 4 -0.199561 1
gene 1 5 8 -0.511246 0 5 -0.511246 1
gene 3 6 8 -0.436323 0 6 -0.436323 1
gene 3 7 8 -0.808161 0 7 -0.808161 1
gene 3 5 9 0.172826 0 5 0.172826 1
gene 2 6 10 -0.603992 0 6 -0.603992 1
gene 1 7 11 -0.263192 0 7 -0.263192 1
genomeend 107

/* Organism #108 Fitness: 0 Error: 0 */
genomestart 108
trait 1 0.1 0 0 0 0.019138 0 0.0145529 0.000359546 
trait 2 0.13125 0.00965237 0.000704072 0.0354663 0.0815258 0.00213975 0.15371 0.0659175 
trait 3 0.288544 0 0.0299596 0.110561 0 0 0 0.16146 
node 1 1 1 1
node 2 1 1 1
node 3 2 1 1
node 4 3 1 1
node 5 2 1 1
node 6 1 1 1
node 7 3 1 3
node 8 2 0 2
node 9 3 0 2
node 10 1 0 2
node 11 3 0 2
gene 2 1 8 -0.238929 0 1 -0.238929 1
gene 3 2 8 -0.722007 0 2 -0.722007 1
gene 3 3 8 -0.367504 0 3 -0.367504 1
gene 3 4 8 -0.771599 0 4 -0.771599 1
gene 2 5 8 -0.886563 0 5 -0.886563 1
gene 1 6 8 -0.618824 0 6 -0.618824 1
gene 1 7 8 0.924009 0 7 0.924009 1
gene 2 5 9 -0.0231025 0 5 -0.0231025 1
gene 1 6 10 0.940489 0 6 0.940489 1
gene 3 7 11 -0.506027 0 7 -0.506027 1
genomeend 108

/* Organism #109 Fitness: 0 Error: 0 */
genomestart 109
trait 1 0.1 0 0 0 0.019138 0 0.0145529 0.000359546 
trait 2 0.13125 0.00965237 0.000704072 0.0354663 0.0815258 0.00213975 0.15371 0.0659175 
trait 3 0.288544 0 0.0299596 0.110561 0 0 0 0.16146 
node 1 3 1 1
node 2 3 1 1
node 3 1 1 1
node 4 1 1 1
node 5 1 1 1
node 6 1 1 1
node 7 1 1 3
node 8 3 0 2
node 9 3 0 2
node 10 1 0 2
node 11 3 0 2
gene 1 1 8 -0.225227 0 1 -0.225227 1
gene 3 2 8 0.621662 0 2 0.621662 1
gene 3 3 8 0.0104068 0 3 0.0104068 1
gene 1 4 8 -0.150792 0 4 -0.150792 1
gene 2 5 8 -0.636464 0 5 -0.636464 1
gene 2 6 8 -0.590503 0 6 -0.590503 1
gene 3 7 8 0.635151 0 7 0.635151 1
gene 1 5 9 0.559099 0 5 0.559099 1
gene 3 6 10 0.399701 0 6 0.399701 1
gene 2 7 11 -0.423688 0 7 -0.423688 1
genomeend 109

/* Organism #110 Fitness: 0 Error: 0 */
genomestart 110
trait 1 0.1 0 0 0 0.019138 0 0.0145529 0.000359546 
trait 2 0.13125 0.00965237 0.000704072 0.0354663 0.0815258 0.00213975 0.15371 0.0659175 
trait 3 0.288544 0 0.0299596 0.110561 0 0 0 0.16146 
node 1 2 1 1
node 2 3 1 1
node 3 1 1 1
node 4 1 1 1
node 5 2 1 1
node 6 3 1 1
node 7 2 1 3
node 8 1 0 2
node 9 2 0 2
node 10 2 0 2
node 11 1 0 2
gene 1 1 8 0.996246 0 1 0.996246 1
gene 1 2 8 0.0771203 0 2 0.0771203 1
gene 1 3 8 -0.356517 0 3 -0.356517 1
gene 2 4 8 -0.72573 0 4 -0.72573 1
gene 1 5 8 0.791864 0 5 0.791864 1
gene 3 6 8 -0.534989 0 6 -0.534989 1
gene 2 7 8 -0.667196 0 7 -0.667196 1
gene 3 5 9 0.872799 0 5 0.872799 1
gene 1 6 10 -0.0400098 0 6 -0.0400098 1
gene 3 7 11 0.979888 0 7 0.979888 1
genomeend 110

/* Organism #111 Fitness: 0 Error: 0 */
genomestart 111
trait 1 0.1 0 0 0 0.019138 0 0.0145529 0.000359546 
trait 2 0.13125 0.00965237 0.000704072 0.0354663 0.0815258 0.00213975 0.15371 0.0659175 
trait 3 0.288544 0 0.0299596 0.110561 0 0 0 0.16146 
node 1 1 1 1
node 2 3 1 1
node 3 2 1 1
node 4 3 1 1
node 5 2 1 1
node 6 1 1 1
node 7 1 1 3
node 8 1 0 2
node 9 1 0 2
node 10 1 0 2
node 11 1 0 2
gene 1 1 8 -0.52028 0 1 -0.52028 1
gene 3 2 8 0.473159 0 2 0.473159 1
gene 3 3 8 -0.134373 0 3 -0.134373 1
gene 2 4 8 -0.528581 0 4 -0.528581 1
gene 2 5 8 -0.147099 0 5 -0.147099 1
gene 3 6 8 -0.0890225 0 6 -0.0890225 1
gene 3 7 8 -0.588122 0 7 -0.588122 1
gene 1 5 9 0.0751671 0 5 0.0751671 1
gene 3 6 10 -0.623096 0 6 -0.623096 1
gene 1 7 11 0.89642 0 7 0.89642 1
genomeend 111

/* Organism #112 Fitness: 0 Error: 0 */
genomestart 112
trait 1 0.1 0 0 0 0.019138 0 0.0145529 0.000359546 
trait 2 0.13125 0.00965237 0.000704072 0.0354663 0.0815258 0.00213975 0.15371 0.0659175 
trait 3 0.288544 0 0.0299596 0.110561 0 0 0 0.16146 
node 1 1 1 1
node 2 1 1 1
node 3 2 1 1
node 4 1 1 1
node 5 1 1 1
node 6 2 1 1
node 7 1 1 3
node 8 3 0 2
node 9 2 0 2
node 10 2 0 2
node 11 2 0 2
gene 1 1 8 0.223457 0 1 0.223457 1
gene 1 2 8 0.951872 0 2 0.951872 1
gene 2 3 8 0.597522 0 3 0.597522 1
gene 1 4 8 0.935972 0 4 0.935972 1
gene 3 5 8 0.869778 0 5 0.869778 1
gene 1 6 8 -0.0124821 0 6 -0.0124821 1
gene 1 7 8 -0.448775 0 7 -0.448775 1
gene 2 5 9 -0.219184 0 5 -0.219184 1
gene 2 6 10 0.61803 0 6 0.61803 1
gene 2 7 11 -0.637196 0 7 -0.637196 1
genomeend 112

/* Organism #113 Fitness: 0 Error: 0 */
genomestart 113
trait 1 0.1 0 0 0 0.019138 0 0.0145529 0.000359546 
trait 2 0.13125 0.00965237 0.000704072 0.0354663 0.0815258 0.00213975 0.15371 0.0659175 
trait 3 0.288544 0 0.0299596 0.110561 0 0 0 0.16146 
node 1 3 1 1
node 2 1 1 1
node 3 1 1 1
node 4 1 1 1
node 5 3 1 1
node 6 2 1 1
node 7 2 1 3
node 8 1 0 2
node 9 1 0 2
node 10 3 0 2
node 11 1 0 2
gene 2 1 8 0.840175 0 1 0.840175 1
gene 3 2 8 -0.129917 0 2 -0.129917 1
gene 2 3 8 0.38435 0 3 0.38435 1
gene 3 4 8 0.650075 0 4 0.650075 1
gene 1 5 8 0.831843 0 5 0.831843 1
gene 1 6 8 0.787561 0 6 0.787561 1
gene 1 7 8 -0.0265206 0 7 -0.0265206 1
gene 1 5 9 -0.288461 0 5 -0.288461 1
gene 3 6 10 -0.4232 0 6 -0.4232 1
gene 1 7 11 -0.612568 0 7 -0.612568 1
genomeend 113

/* Organism #114 Fitness: 0 Error: 0 */
genomestart 114
trait 1 0.1 0 0 0 0.019138 0 0.0145529 0.000359546 
trait 2 0.13125 0.00965237 0.000704072 0.0354663 0.0815258 0.00213975 0.15371 0.0659175 
trait 3 0.288544 0 0.0299596 0.110561 0 0 0 0.16146 
node 1 1 1 1
node 2 3 1 1
node 3 3 1 1
node 4 1 1 1
node 5 1 1 1
node 6 2 1 1
node 7 2 1 3
node 8 2 0 2
node 9 2 0 2
node 10 2 0 2
node 11 1 0 2
gene 1 1 8 0.362011 0 1 0.362011 1
gene 1 2 8 0.472152 0 2 0.472152 1
gene 3 3 8 -0.967467 0 3 -0.967467 1
gene 3 4 8 0.885403 0 4 0.885403 1
gene 1 5 8 -0.622669 0 5 -0.622669 1
gene 2 6 8 -0.52736 0 6 -0.52736 1
gene 1 7 8 0.988861 0 7 0.988861 1
gene 3 5 9 -0.0646992 0 5 -0.0646992 1
gene 1 6 10 -0.508103 0 6 -0.508103 1
gene 1 7 11 0.457961 0 7 0.457961 1
genomeend 114

/* Organism #115 Fitness: 0 Error: 0 */
genomestart 115
trait 1 0.1 0 0 0 0.019138 0 0.0145529 0.000359546 
trait 2 0.13125 0.00965237 0.000704072 0.0354663 0.0815258 0.00213975 0.15371 0.0659175 
trait 3 0.288544 0 0.0299596 0.110561 0 0 0 0.16146 
node 1 1 1 1
node 2 2 1 1
node 3 2 1 1
node 4 3 1 1
node 5 1 1 1
node 6 2 1 1
node 7 1 1 3
node 8 3 0 2
node 9 2 0 2
node 10 2 0 2
node 11 2 0 2
gene 3 1 8 -0.956969 0 1 -0.956969 1
gene 3 2 8 -0.166845 0 2 -0.166845 1
gene 1 3 8 0.534562 0 3 0.534562 1
gene 3 4 8 -0.107547 0 4 -0.107547 1
gene 3 5 8 0.252297 0 5 0.252297 1
gene 3 6 8 -0.964171 0 6 -0.964171 1
gene 1 7 8 0.72747 0 7 0.72747 1
gene 3 5 9 -0.890225 0 5 -0.890225 1
gene 2 6 10 -0.729789 0 6 -0.729789 1
gene 3 7 11 -0.303049 0 7 -0.303049 1
genomeend 115

/* Organism #116 Fitness: 0 Error: 0 */
genomestart 116
trait 1 0.1 0 0 0 0.019138 0 0.0145529 0.000359546 
trait 2 0.13125 0.00965237 0.000704072 0.0354663 0.0815258 0.00213975 0.15371 0.0659175 
trait 3 0.288544 0 0.0299596 0.110561 0 0 0 0.16146 
node 1 3 1 1
node 2 3 1 1
node 3 3 1 1
node 4 2 1 1
node 5 1 1 1
node 6 3 1 1
node 7 2 1 3
node 8 1 0 2
node 9 1 0 2
node 10 2 0 2
node 11 1 0 2
gene 2 1 8 -0.486496 0 1 -0.486496 1
gene 3 2 8 0.517258 0 2 0.517258 1
gene 3 3 8 0.555956 0 3 0.555956 1
gene 2 4 8 -0.325663 0 4 -0.325663 1
gene 3 5 8 -0.240059 0 5 -0.240059 1
gene 2 6 8 -0.819391 0 6 -0.819391 1
gene 2 7 8 0.225959 0 7 0.225959 1
gene 3 5 9 0.0951872 0 5 0.0951872 1
gene 1 6 10 -0.0252693 0 6 -0.0252693 1
gene 1 7 11 0.0903653 0 7 0.0903653 1
genomeend 116

/* Organism #117 Fitness: 0 Error: 0 */
genomestart 117
trait 1 0.1 0 0 0 0.019138 0 0.0145529 0.000359546 
trait 2 0.13125 0.00965237 0.000704072 0.0354663 0.0815258 0.00213975 0.15371 0.0659175 
trait 3 0.288544 0 0.0299596 0.110561 0 0 0 0.16146 
node 1 1 1 1
node 2 3 1 1
node 3 1 1 1
node 4 2 1 1
node 5 2 1 1
node 6 1 1 1
node 7 3 1 3
node 8 1 0 2
node 9 3 0 2
node 10 2 0 2
node 11 3 0 2
gene 1 1 8 -0.12656 0 1 -0.12656 1
gene 3 2 8 -0.0195013 0 2 -0.0195013 1
gene 2 3 8 0.330515 0 3 0.330515 1
gene 2 4 8 0.342662 0 4 0.342662 1
gene 1 5 8 -0.519089 0 5 -0.519089 1
gene 3 6 8 -0.76635 0 6 -0.76635 1
gene 1 7 8 0.680105 0 7 0.680105 1
gene 1 5 9 -0.942045 0 5 -0.942045 1
gene 3 6 10 -0.899442 0 6 -0.899442 1
gene 2 7 11 -0.694388 0 7 -0.694388 1
genomeend 117

/* Organism #118 Fitness: 0 Error: 0 */
genomestart 118
trait 1 0.1 0 0 0 0.019138 0 0.0145529 0.000359546 
trait 2 0.13125 0.00965237 0.000704072 0.0354663 0.0815258 0.00213975 0.15371 0.0659175 
trait 3 0.288544 0 0.0299596 0.110561 0 0 0 0.16146 
node 1 1 1 1
node 2 1 1 1
node 3 3 1 1
node 4 3 1 1
node 5 1 1 1
node 6 2 1 1
node 7 1 1 3
node 8 3 0 2
node 9 1 0 2
node 10 2 0 2
node 11 3 0 2
gene 2 1 8 0.384045 0 1 0.384045 1
gene 3 2 8 0.495712 0 2 0.495712 1
gene 2 3 8 -0.498245 0 3 -0.498245 1
gene 1 4 8 -0.965178 0 4 -0.965178 1
gene 1 5 8 -0.868252 0 5 -0.868252 1
gene 2 6 8 0.316355 0 6 0.316355 1
gene 1 7 8 0.23722 0 7 0.23722 1
gene 3 5 9 0.028016 0 5 0.028016 1
gene 2 6 10 0.112827 0 6 0.112827 1
gene 2 7 11 0.855739 0 7 0.855739 1
genomeend 118

/* Organism #119 Fitness: 0 Error: 0 */
genomestart 119
trait 1 0.1 0 0 0 0.019138 0 0.0145529 0.000359546 
trait 2 0.13125 0.00965237 0.000704072 0.0354663 0.0815258 0.00213975 0.15371 0.0659175 
trait 3 0.288544 0 0.0299596 0.110561 0 0 0 0.16146 
node 1 3 1 1
node 2 2 1 1
node 3 2 1 1
node 4 2 1 1
node 5 1 1 1
node 6 2 1 1
node 7 3 1 3
node 8 2 0 2
node 9 3 0 2
node 10 1 0 2
node 11 1 0 2
gene 2 1 8 -0.824519 0 1 -0.824519 1
gene 2 2 8 0.399915 0 2 0.399915 1
gene 1 3 8 0.350597 0 3 0.350597 1
gene 1 4 8 -0.852901 0 4 -0.852901 1
gene 2 5 8 0.986236 0 5 0.986236 1
gene 1 6 8 0.670827 0 6 0.670827 1
gene 1 7 8 -0.667226 0 7 -0.667226 1
gene 1 5 9 0.750145 0 5 0.750145 1
gene 2 6 10 0.702048 0 6 0.702048 1
gene 1 7 11 0.915067 0 7 0.915067 1
genomeend 119

/* Organism #120 Fitness: 0 Error: 0 */
genomestart 120
trait 1 0.1 0 0 0 0.019138 0 0.0145529 0.000359546 
trait 2 0.13125 0.00965237 0.000704072 0.0354663 0.0815258 0.00213975 0.15371 0.0659175 
trait 3 0.288544 0 0.0299596 0.110561 0 0 0 0.16146 
node 1 3 1 1
node 2 2 1 1
node 3 1 1 1
node 4 3 1 1
node 5 3 1 1
node 6 3 1 1
node 7 3 1 3
node 8 3 0 2
node 9 1 0 2
node 10 2 0 2
node 11 1 0 2
gene 2 1 8 0.734001 0 1 0.734001 1
gene 2 2 8 0.896359 0 2 0.896359 1
gene 3 3 8 0.53441 0 3 0.53441 1
gene 2 4 8 0.295297 0 4 0.295297 1
gene 2 5 8 0.139897 0 5 0.139897 1
gene 1 6 8 0.197394 0 6 0.197394 1
gene 2 7 8 0.214911 0 7 0.214911 1
gene 3 5 9 0.423383 0 5 0.423383 1
gene 3 6 10 0.713614 0 6 0.713614 1
gene 1 7 11 -0.666982 0 7 -0.666982 1
genomeend 120

/* Organism #121 Fitness: 0 Error: 0 */
genomestart 121
trait 1 0.1 0 0 0 0.019138 0 0.0145529 0.000359546 
trait 2 0.13125 0.00965237 0.000704072 0.0354663 0.0815258 0.00213975 0.15371 0.0659175 
trait 3 0.288544 0 0.0299596 0.110561 0 0 0 0.16146 
node 1 3 1 1
node 2 1 1 1
node 3 1 1 1
node 4 1 1 1
node 5 1 1 1
node 6 1 1 1
node 7 1 1 3
node 8 3 0 2
node 9 3 0 2
node 10 2 0 2
node 11 2 0 2
gene 3 1 8 -0.878475 0 1 -0.878475 1
gene 3 2 8 0.00372326 0 2 0.00372326 1
gene 1 3 8 -0.519242 0 3 -0.519242 1
gene 2 4 8 0.107212 0 4 0.107212 1
gene 2 5 8 0.0502335 0 5 0.0502335 1
gene 2 6 8 -0.416547 0 6 -0.416547 1
gene 1 7 8 0.799524 0 7 0.799524 1
gene 2 5 9 0.607044 0 5 0.607044 1
gene 2 6 10 -0.357921 0 6 -0.357921 1
gene 1 7 11 0.61095 0 7 0.61095 1
genomeend 121

/* Organism #122 Fitness: 0 Error: 0 */
genomestart 122
trait 1 0.1 0 0 0 0.019138 0 0.0145529 0.000359546 
trait 2 0.13125 0.00965237 0.000704072 0.0354663 0.0815258 0.00213975 0.15371 0.0659175 
trait 3 0.288544 0 0.0299596 0.110561 0 0 0 0.16146 
node 1 2 1 1
node 2 1 1 1
node 3 2 1 1
node 4 2 1 1
node 5 2 1 1
node 6 3 1 1
node 7 2 1 3
node 8 1 0 2
node 9 1 0 2
node 10 1 0 2
node 11 3 0 2
gene 1 1 8 -0.667074 0 1 -0.667074 1
gene 2 2 8 0.773675 0 2 0.773675 1
gene 3 3 8 -0.530595 0 3 -0.530595 1
gene 3 4 8 0.549852 0 4 0.549852 1
gene 3 5 8 0.947813 0 5 0.947813 1
gene 3 6 8 -0.312998 0 6 -0.312998 1
gene 3 7 8 0.829829 0 7 0.829829 1
gene 1 5 9 -0.151189 0 5 -0.151189 1
gene 3 6 10 -0.868618 0 6 -0.868618 1
gene 1 7 11 0.20481 0 7 0.20481 1
genomeend 122

/* Organism #123 Fitness: 0 Error: 0 */
genomestart 123
trait 1 0.1 0 0 0 0.019138 0 0.0145529 0.000359546 
trait 2 0.13125 0.00965237 0.000704072 0.0354663 0.0815258 0.00213975 0.15371 0.0659175 
trait 3 0.288544 0 0.0299596 0.110561 0 0 0 0.16146 
node 1 3 1 1
node 2 2 1 1
node 3 2 1 1
node 4 1 1 1
node 5 2 1 1
node 6 3 1 1
node 7 3 1 3
node 8 3 0 2
node 9 1 0 2
node 10 3 0 2
node 11 3 0 2
gene 1 1 8 0.940428 0 1 0.940428 1
gene 3 2 8 0.783776 0 2 0.783776 1
gene 1 3 8 0.586383 0 3 0.586383 1
gene 1 4 8 0.539598 0 4 0.539598 1
gene 1 5 8 -0.031373 0 5 -0.031373 1
gene 3 6 8 -0.803705 0 6 -0.803705 1
gene 1 7 8 -0.0307016 0 7 -0.0307016 1
gene 2 5 9 0.000152593 0 5 0.000152593 1
gene 1 6 10 -0.0347301 0 6 -0.0347301 1
gene 1 7 11 -0.886288 0 7 -0.886288 1
genomeend 123

/* Organism #124 Fitness: 0 Error: 0 */
genomestart 124
trait 1 0.1 0 0 0 0.019138 0 0.0145529 0.000359546 
trait 2 0.13125 0.00965237 0.000704072 0.0354663 0.0815258 0.00213975 0.15371 0.0659175 
trait 3 0.288544 0 0.0299596 0.110561 0 0 0 0.16146 
node 1 3 1 1
node 2 3 1 1
node 3 3 1 1
node 4 1 1 1
node 5 2 1 1
node 6 1 1 1
node 7 2 1 3
node 8 2 0 2
node 9 1 0 2
node 10 3 0 2
node 11 1 0 2
gene 2 1 8 -0.203772 0 1 -0.203772 1
gene 3 2 8 -0.957366 0 2 -0.957366 1
gene 2 3 8 -0.335612 0 3 -0.335612 1
gene 2 4 8 0.0595111 0 4 0.0595111 1
gene 2 5 8 0.251839 0 5 0.251839 1
gene 1 6 8 0.556658 0 6 0.556658 1
gene 3 7 8 -0.743126 0 7 -0.743126 1
gene 2 5 9 0.492416 0 5 0.492416 1
gene 3 6 10 -0.996887 0 6 -0.996887 1
gene 2 7 11 0.112033 0 7 0.112033 1
genomeend 124

/* Organism #125 Fitness: 0 Error: 0 */
genomestart 125
trait 1 0.1 0 0 0 0.019138 0 0.0145529 0.000359546 
trait 2 0.13125 0.00965237 0.000704072 0.0354663 0.0815258 0.00213975 0.15371 0.0659175 
trait 3 0.288544 0 0.0299596 0.110561 0 0 0 0.16146 
node 1 3 1 1
node 2 2 1 1
node 3 3 1 1
node 4 2 1 1
node 5 3 1 1
node 6 2 1 1
node 7 3 1 3
node 8 1 0 2
node 9 3 0 2
node 10 2 0 2
node 11 1 0 2
gene 3 1 8 0.584918 0 1 0.584918 1
gene 1 2 8 0.902127 0 2 0.902127 1
gene 1 3 8 -0.908261 0 3 -0.908261 1
gene 2 4 8 0.314859 0 4 0.314859 1
gene 1 5 8 -0.0319224 0 5 -0.0319224 1
gene 1 6 8 -0.052736 0 6 -0.052736 1
gene 3 7 8 -0.801477 0 7 -0.801477 1
gene 1 5 9 -0.706198 0 5 -0.706198 1
gene 1 6 10 -0.363842 0 6 -0.363842 1
gene 1 7 11 -0.0952177 0 7 -0.0952177 1
genomeend 125

/* Organism #126 Fitness: 0 Error: 0 */
genomestart 126
trait 1 0.1 0 0 0 0.019138 0 0.0145529 0.000359546 
trait 2 0.13125 0.00965237 0.000704072 0.0354663 0.0815258 0.00213975 0.15371 0.0659175 
trait 3 0.288544 0 0.0299596 0.110561 0 0 0 0.16146 
node 1 2 1 1
node 2 3 1 1
node 3 3 1 1
node 4 3 1 1
node 5 3 1 1
node 6 2 1 1
node 7 3 1 3
node 8 1 0 2
node 9 1 0 2
node 10 1 0 2
node 11 1 0 2
gene 1 1 8 0.215125 0 1 0.215125 1
gene 1 2 8 0.696249 0 2 0.696249 1
gene 3 3 8 0.720939 0 3 0.720939 1
gene 2 4 8 0.715293 0 4 0.715293 1
gene 1 5 8 0.29078 0 5 0.29078 1
gene 3 6 8 -0.189093 0 6 -0.189093 1
gene 3 7 8 -0.480667 0 7 -0.480667 1
gene 2 5 9 0.610187 0 5 0.610187 1
gene 2 6 10 0.126072 0 6 0.126072 1
gene 1 7 11 0.128361 0 7 0.128361 1
genomeend 126

/* Organism #127 Fitness: 0 Error: 0 */
genomestart 127
trait 1 0.1 0 0 0 0.019138 0 0.0145529 0.000359546 
trait 2 0.13125 0.00965237 0.000704072 0.0354663 0.0815258 0.00213975 0.15371 0.0659175 
trait 3 0.288544 0 0.0299596 0.110561 0 0 0 0.16146 
node 1 1 1 1
node 2 3 1 1
node 3 1 1 1
node 4 1 1 1
node 5 2 1 1
node 6 1 1 1
node 7 1 1 3
node 8 3 0 2
node 9 2 0 2
node 10 3 0 2
node 11 1 0 2
gene 1 1 8 0.374157 0 1 0.374157 1
gene 1 2 8 -0.698843 0 2 -0.698843 1
gene 1 3 8 0.109958 0 3 0.109958 1
gene 1 4 8 0.513321 0 4 0.513321 1
gene 2 5 8 -0.177801 0 5 -0.177801 1
gene 1 6 8 0.829218 0 6 0.829218 1
gene 2 7 8 -0.0019837 0 7 -0.0019837 1
gene 3 5 9 -0.775323 0 5 -0.775323 1
gene 2 6 10 0.528855 0 6 0.528855 1
gene 2 7 11 -0.943236 0 7 -0.943236 1
genomeend 127

/* Organism #128 Fitness: 0 Error: 0 */
genomestart 128
trait 1 0.1 0 0 0 0.019138 0 0.0145529 0.000359546 
trait 2 0.13125 0.00965237 0.000704072 0.0354663 0.0815258 0.00213975 0.15371 0.0659175 
trait 3 0.288544 0 0.0299596 0.110561 0 0 0 0.16146 
node 1 3 1 1
node 2 1 1 1
node 3 1 1 1
node 4 3 1 1
node 5 3 1 1
node 6 2 1 1
node 7 3 1 3
node 8 3 0 2
node 9 3 0 2
node 10 3 0 2
node 11 2 0 2
gene 1 1 8 0.627003 0 1 0.627003 1
gene 1 2 8 -0.934996 0 2 -0.934996 1
gene 1 3 8 0.249977 0 3 0.249977 1
gene 2 4 8 -0.435072 0 4 -0.435072 1
gene 2 5 8 0.782556 0 5 0.782556 1
gene 3 6 8 -0.25959 0 6 -0.25959 1
gene 1 7 8 -0.0338755 0 7 -0.0338755 1
gene 3 5 9 -0.100467 0 5 -0.100467 1
gene 2 6 10 -0.914212 0 6 -0.914212 1
gene 3 7 11 0.056856 0 7 0.056856 1
genomeend 128

/* Organism #129 Fitness: 0 Error: 0 */
genomestart 129
trait 1 0.1 0 0 0 0.019138 0 0.0145529 0.000359546 
trait 2 0.13125 0.00965237 0.000704072 0.0354663 0.0815258 0.00213975 0.15371 0.0659175 
trait 3 0.288544 0 0.0299596 0.110561 0 0 0 0.16146 
node 1 2 1 1
node 2 3 1 1
node 3 1 1 1
node 4 2 1 1
node 5 3 1 1
node 6 2 1 1
node 7 2 1 3
node 8 1 0 2
node 9 2 0 2
node 10 3 0 2
node 11 1 0 2
gene 2 1 8 0.759453 0 1 0.759453 1
gene 2 2 8 0.663656 0 2 0.663656 1
gene 2 3 8 0.202857 0 3 0.202857 1
gene 3 4 8 0.454054 0 4 0.454054 1
gene 3 5 8 -0.365276 0 5 -0.365276 1
gene 3 6 8 0.0185247 0 6 0.0185247 1
gene 1 7 8 -0.34669 0 7 -0.34669 1
gene 2 5 9 -0.750175 0 5 -0.750175 1
gene 1 6 10 0.123173 0 6 0.123173 1
gene 1 7 11 -0.380078 0 7 -0.380078 1
genomeend 129

/* Organism #130 Fitness: 0 Error: 0 */
genomestart 130
trait 1 0.1 0 0 0 0.019138 0 0.0145529 0.000359546 
trait 2 0.13125 0.00965237 0.000704072 0.0354663 0.0815258 0.00213975 0.15371 0.0659175 
trait 3 0.288544 0 0.0299596 0.110561 0 0 0 0.16146 
node 1 1 1 1
node 2 3 1 1
node 3 1 1 1
node 4 1 1 1
node 5 2 1 1
node 6 1 1 1
node 7 2 1 3
node 8 2 0 2
node 9 1 0 2
node 10 1 0 2
node 11 2 0 2
gene 1 1 8 0.84872 0 1 0.84872 1
gene 2 2 8 -0.557146 0 2 -0.557146 1
gene 2 3 8 -0.937223 0 3 -0.937223 1
gene 2 4 8 0.652638 0 4 0.652638 1
gene 2 5 8 0.608692 0 5 0.608692 1
gene 3 6 8 0.110874 0 6 0.110874 1
gene 2 7 8 -0.631092 0 7 -0.631092 1
gene 3 5 9 0.479843 0 5 0.479843 1
gene 2 6 10 0.992401 0 6 0.992401 1
gene 2 7 11 -0.303446 0 7 -0.303446 1
genomeend 130

/* Organism #131 Fitness: 0 Error: 0 */
genomestart 131
trait 1 0.1 0 0 0 0.019138 0 0.0145529 0.000359546 
trait 2 0.13125 0.00965237 0.000704072 0.0354663 0.0815258 0.00213975 0.15371 0.0659175 
trait 3 0.288544 0 0.0299596 0.110561 0 0 0 0.16146 
node 1 1 1 1
node 2 3 1 1
node 3 2 1 1
node 4 2 1 1
node 5 2 1 1
node 6 3 1 1
node 7 3 1 3
node 8 1 0 2
node 9 1 0 2
node 10 3 0 2
node 11 3 0 2
gene 1 1 8 -0.640797 0 1 -0.640797 1
gene 1 2 8 0.885891 0 2 0.885891 1
gene 3 3 8 -0.288858 0 3 -0.288858 1
gene 3 4 8 0.273904 0 4 0.273904 1
gene 3 5 8 -0.600726 0 5 -0.600726 1
